{"learner":{"attributes":{},"feature_names":[],"feature_types":[],"gradient_booster":{"model":{"gbtree_model_param":{"num_parallel_tree":"1","num_trees":"1500"},"iteration_indptr":[0,2,4,6,8,10,12,14,16,18,20,22,24,26,28,30,32,34,36,38,40,42,44,46,48,50,52,54,56,58,60,62,64,66,68,70,72,74,76,78,80,82,84,86,88,90,92,94,96,98,100,102,104,106,108,110,112,114,116,118,120,122,124,126,128,130,132,134,136,138,140,142,144,146,148,150,152,154,156,158,160,162,164,166,168,170,172,174,176,178,180,182,184,186,188,190,192,194,196,198,200,202,204,206,208,210,212,214,216,218,220,222,224,226,228,230,232,234,236,238,240,242,244,246,248,250,252,254,256,258,260,262,264,266,268,270,272,274,276,278,280,282,284,286,288,290,292,294,296,298,300,302,304,306,308,310,312,314,316,318,320,322,324,326,328,330,332,334,336,338,340,342,344,346,348,350,352,354,356,358,360,362,364,366,368,370,372,374,376,378,380,382,384,386,388,390,392,394,396,398,400,402,404,406,408,410,412,414,416,418,420,422,424,426,428,430,432,434,436,438,440,442,444,446,448,450,452,454,456,458,460,462,464,466,468,470,472,474,476,478,480,482,484,486,488,490,492,494,496,498,500,502,504,506,508,510,512,514,516,518,520,522,524,526,528,530,532,534,536,538,540,542,544,546,548,550,552,554,556,558,560,562,564,566,568,570,572,574,576,578,580,582,584,586,588,590,592,594,596,598,600,602,604,606,608,610,612,614,616,618,620,622,624,626,628,630,632,634,636,638,640,642,644,646,648,650,652,654,656,658,660,662,664,666,668,670,672,674,676,678,680,682,684,686,688,690,692,694,696,698,700,702,704,706,708,710,712,714,716,718,720,722,724,726,728,730,732,734,736,738,740,742,744,746,748,750,752,754,756,758,760,762,764,766,768,770,772,774,776,778,780,782,784,786,788,790,792,794,796,798,800,802,804,806,808,810,812,814,816,818,820,822,824,826,828,830,832,834,836,838,840,842,844,846,848,850,852,854,856,858,860,862,864,866,868,870,872,874,876,878,880,882,884,886,888,890,892,894,896,898,900,902,904,906,908,910,912,914,916,918,920,922,924,926,928,930,932,934,936,938,940,942,944,946,948,950,952,954,956,958,960,962,964,966,968,970,972,974,976,978,980,982,984,986,988,990,992,994,996,998,1000,1002,1004,1006,1008,1010,1012,1014,1016,1018,1020,1022,1024,1026,1028,1030,1032,1034,1036,1038,1040,1042,1044,1046,1048,1050,1052,1054,1056,1058,1060,1062,1064,1066,1068,1070,1072,1074,1076,1078,1080,1082,1084,1086,1088,1090,1092,1094,1096,1098,1100,1102,1104,1106,1108,1110,1112,1114,1116,1118,1120,1122,1124,1126,1128,1130,1132,1134,1136,1138,1140,1142,1144,1146,1148,1150,1152,1154,1156,1158,1160,1162,1164,1166,1168,1170,1172,1174,1176,1178,1180,1182,1184,1186,1188,1190,1192,1194,1196,1198,1200,1202,1204,1206,1208,1210,1212,1214,1216,1218,1220,1222,1224,1226,1228,1230,1232,1234,1236,1238,1240,1242,1244,1246,1248,1250,1252,1254,1256,1258,1260,1262,1264,1266,1268,1270,1272,1274,1276,1278,1280,1282,1284,1286,1288,1290,1292,1294,1296,1298,1300,1302,1304,1306,1308,1310,1312,1314,1316,1318,1320,1322,1324,1326,1328,1330,1332,1334,1336,1338,1340,1342,1344,1346,1348,1350,1352,1354,1356,1358,1360,1362,1364,1366,1368,1370,1372,1374,1376,1378,1380,1382,1384,1386,1388,1390,1392,1394,1396,1398,1400,1402,1404,1406,1408,1410,1412,1414,1416,1418,1420,1422,1424,1426,1428,1430,1432,1434,1436,1438,1440,1442,1444,1446,1448,1450,1452,1454,1456,1458,1460,1462,1464,1466,1468,1470,1472,1474,1476,1478,1480,1482,1484,1486,1488,1490,1492,1494,1496,1498,1500],"tree_info":[0,1,0,1,0,1,0,1,0,1,0,1,0,1,0,1,0,1,0,1,0,1,0,1,0,1,0,1,0,1,0,1,0,1,0,1,0,1,0,1,0,1,0,1,0,1,0,1,0,1,0,1,0,1,0,1,0,1,0,1,0,1,0,1,0,1,0,1,0,1,0,1,0,1,0,1,0,1,0,1,0,1,0,1,0,1,0,1,0,1,0,1,0,1,0,1,0,1,0,1,0,1,0,1,0,1,0,1,0,1,0,1,0,1,0,1,0,1,0,1,0,1,0,1,0,1,0,1,0,1,0,1,0,1,0,1,0,1,0,1,0,1,0,1,0,1,0,1,0,1,0,1,0,1,0,1,0,1,0,1,0,1,0,1,0,1,0,1,0,1,0,1,0,1,0,1,0,1,0,1,0,1,0,1,0,1,0,1,0,1,0,1,0,1,0,1,0,1,0,1,0,1,0,1,0,1,0,1,0,1,0,1,0,1,0,1,0,1,0,1,0,1,0,1,0,1,0,1,0,1,0,1,0,1,0,1,0,1,0,1,0,1,0,1,0,1,0,1,0,1,0,1,0,1,0,1,0,1,0,1,0,1,0,1,0,1,0,1,0,1,0,1,0,1,0,1,0,1,0,1,0,1,0,1,0,1,0,1,0,1,0,1,0,1,0,1,0,1,0,1,0,1,0,1,0,1,0,1,0,1,0,1,0,1,0,1,0,1,0,1,0,1,0,1,0,1,0,1,0,1,0,1,0,1,0,1,0,1,0,1,0,1,0,1,0,1,0,1,0,1,0,1,0,1,0,1,0,1,0,1,0,1,0,1,0,1,0,1,0,1,0,1,0,1,0,1,0,1,0,1,0,1,0,1,0,1,0,1,0,1,0,1,0,1,0,1,0,1,0,1,0,1,0,1,0,1,0,1,0,1,0,1,0,1,0,1,0,1,0,1,0,1,0,1,0,1,0,1,0,1,0,1,0,1,0,1,0,1,0,1,0,1,0,1,0,1,0,1,0,1,0,1,0,1,0,1,0,1,0,1,0,1,0,1,0,1,0,1,0,1,0,1,0,1,0,1,0,1,0,1,0,1,0,1,0,1,0,1,0,1,0,1,0,1,0,1,0,1,0,1,0,1,0,1,0,1,0,1,0,1,0,1,0,1,0,1,0,1,0,1,0,1,0,1,0,1,0,1,0,1,0,1,0,1,0,1,0,1,0,1,0,1,0,1,0,1,0,1,0,1,0,1,0,1,0,1,0,1,0,1,0,1,0,1,0,1,0,1,0,1,0,1,0,1,0,1,0,1,0,1,0,1,0,1,0,1,0,1,0,1,0,1,0,1,0,1,0,1,0,1,0,1,0,1,0,1,0,1,0,1,0,1,0,1,0,1,0,1,0,1,0,1,0,1,0,1,0,1,0,1,0,1,0,1,0,1,0,1,0,1,0,1,0,1,0,1,0,1,0,1,0,1,0,1,0,1,0,1,0,1,0,1,0,1,0,1,0,1,0,1,0,1,0,1,0,1,0,1,0,1,0,1,0,1,0,1,0,1,0,1,0,1,0,1,0,1,0,1,0,1,0,1,0,1,0,1,0,1,0,1,0,1,0,1,0,1,0,1,0,1,0,1,0,1,0,1,0,1,0,1,0,1,0,1,0,1,0,1,0,1,0,1,0,1,0,1,0,1,0,1,0,1,0,1,0,1,0,1,0,1,0,1,0,1,0,1,0,1,0,1,0,1,0,1,0,1,0,1,0,1,0,1,0,1,0,1,0,1,0,1,0,1,0,1,0,1,0,1,0,1,0,1,0,1,0,1,0,1,0,1,0,1,0,1,0,1,0,1,0,1,0,1,0,1,0,1,0,1,0,1,0,1,0,1,0,1,0,1,0,1,0,1,0,1,0,1,0,1,0,1,0,1,0,1,0,1,0,1,0,1,0,1,0,1,0,1,0,1,0,1,0,1,0,1,0,1,0,1,0,1,0,1,0,1,0,1,0,1,0,1,0,1,0,1,0,1,0,1,0,1,0,1,0,1,0,1,0,1,0,1,0,1,0,1,0,1,0,1,0,1,0,1,0,1,0,1,0,1,0,1,0,1,0,1,0,1,0,1,0,1,0,1,0,1,0,1,0,1,0,1,0,1,0,1,0,1,0,1,0,1,0,1,0,1,0,1,0,1,0,1,0,1,0,1,0,1,0,1,0,1,0,1,0,1,0,1,0,1,0,1,0,1,0,1,0,1,0,1,0,1,0,1,0,1,0,1,0,1,0,1,0,1,0,1,0,1,0,1,0,1,0,1,0,1,0,1,0,1,0,1,0,1,0,1,0,1,0,1,0,1,0,1,0,1,0,1,0,1,0,1,0,1,0,1,0,1,0,1,0,1,0,1,0,1,0,1,0,1,0,1,0,1,0,1,0,1,0,1,0,1,0,1,0,1,0,1,0,1,0,1,0,1,0,1,0,1,0,1,0,1,0,1,0,1,0,1,0,1,0,1,0,1,0,1,0,1,0,1,0,1,0,1,0,1,0,1,0,1,0,1,0,1,0,1,0,1,0,1,0,1,0,1,0,1,0,1,0,1,0,1,0,1,0,1,0,1,0,1,0,1,0,1,0,1,0,1,0,1,0,1,0,1,0,1,0,1,0,1,0,1,0,1,0,1,0,1,0,1,0,1,0,1,0,1,0,1,0,1,0,1,0,1,0,1,0,1,0,1,0,1,0,1,0,1,0,1,0,1,0,1,0,1,0,1,0,1,0,1,0,1,0,1,0,1,0,1,0,1,0,1,0,1,0,1,0,1,0,1,0,1,0,1,0,1,0,1,0,1,0,1,0,1,0,1,0,1,0,1,0,1,0,1,0,1,0,1,0,1,0,1,0,1,0,1,0,1,0,1,0,1,0,1,0,1,0,1,0,1,0,1,0,1,0,1,0,1,0,1,0,1,0,1,0,1,0,1,0,1,0,1,0,1,0,1,0,1,0,1,0,1,0,1,0,1,0,1,0,1,0,1,0,1,0,1,0,1,0,1,0,1,0,1,0,1,0,1,0,1,0,1,0,1,0,1,0,1,0,1,0,1,0,1,0,1,0,1,0,1,0,1,0,1,0,1,0,1,0,1,0,1,0,1,0,1,0,1,0,1,0,1,0,1,0,1,0,1,0,1,0,1,0,1,0,1,0,1,0,1,0,1,0,1,0,1,0,1,0,1,0,1,0,1,0,1,0,1,0,1,0,1,0,1,0,1,0,1,0,1,0,1,0,1,0,1,0,1,0,1,0,1,0,1,0,1,0,1,0,1,0,1,0,1,0,1,0,1,0,1,0,1,0,1,0,1,0,1,0,1,0,1,0,1,0,1,0,1,0,1,0,1],"trees":[{"base_weights":[-1.5736607E-1,1.0686212E-1,-3.159842E-1,-1.4688128E-1,2.2436295E-1,-1.5373494E-1,-4.9823895E-1,5.279503E-4,-2.9799764E-3,1.4499532E-3,3.8077633E-3,-2.9399898E-3,-2.5357306E-4,-4.074074E-3,-6.2557077E-3],"categories":[],"categories_nodes":[],"categories_segments":[],"categories_sizes":[],"default_left":[0,0,0,0,0,0,0,0,0,0,0,0,0,0,0],"id":0,"left_children":[1,3,5,7,9,11,13,-1,-1,-1,-1,-1,-1,-1,-1],"loss_changes":[2.6290192E2,7.0202705E1,1.15825775E2,2.2510714E1,1.9919174E1,3.7356586E1,2.1089722E1,0E0,0E0,0E0,0E0,0E0,0E0,0E0,0E0],"parents":[2147483647,0,0,1,1,2,2,3,3,4,4,5,5,6,6],"right_children":[2,4,6,8,10,12,14,-1,-1,-1,-1,-1,-1,-1,-1],"split_conditions":[4.62E-1,-2E0,1.4E1,-4.9E0,2.7E1,9E0,2.3E1,5.279503E-4,-2.9799764E-3,1.4499532E-3,3.8077633E-3,-2.9399898E-3,-2.5357306E-4,-4.074074E-3,-6.2557077E-3],"split_indices":[3,77,80,25,51,51,80,0,0,0,0,0,0,0,0],"split_type":[0,0,0,0,0,0,0,0,0,0,0,0,0,0,0],"sum_hessian":[6.271E3,2.3525E3,3.9185E3,7.445E2,1.608E3,2.074E3,1.8445E3,3.21E2,4.235E2,1.068E3,5.4E2,9.905E2,1.0835E3,1.079E3,7.655E2],"tree_param":{"num_deleted":"0","num_feature":"106","num_nodes":"15","size_leaf_vector":"1"}},{"base_weights":[1.5736607E-1,-1.0686212E-1,3.159842E-1,1.4688128E-1,-2.2436295E-1,1.5373494E-1,4.9823895E-1,-5.279503E-4,2.9799764E-3,-1.4499532E-3,-3.8077633E-3,2.9399898E-3,2.5357306E-4,4.074074E-3,6.2557077E-3],"categories":[],"categories_nodes":[],"categories_segments":[],"categories_sizes":[],"default_left":[0,0,0,0,0,0,0,0,0,0,0,0,0,0,0],"id":1,"left_children":[1,3,5,7,9,11,13,-1,-1,-1,-1,-1,-1,-1,-1],"loss_changes":[2.6290192E2,7.0202705E1,1.15825775E2,2.2510714E1,1.9919174E1,3.7356586E1,2.1089722E1,0E0,0E0,0E0,0E0,0E0,0E0,0E0,0E0],"parents":[2147483647,0,0,1,1,2,2,3,3,4,4,5,5,6,6],"right_children":[2,4,6,8,10,12,14,-1,-1,-1,-1,-1,-1,-1,-1],"split_conditions":[4.62E-1,-2E0,1.4E1,-4.9E0,2.7E1,9E0,2.3E1,-5.279503E-4,2.9799764E-3,-1.4499532E-3,-3.8077633E-3,2.9399898E-3,2.5357306E-4,4.074074E-3,6.2557077E-3],"split_indices":[3,77,80,25,51,51,80,0,0,0,0,0,0,0,0],"split_type":[0,0,0,0,0,0,0,0,0,0,0,0,0,0,0],"sum_hessian":[6.271E3,2.3525E3,3.9185E3,7.445E2,1.608E3,2.074E3,1.8445E3,3.21E2,4.235E2,1.068E3,5.4E2,9.905E2,1.0835E3,1.079E3,7.655E2],"tree_param":{"num_deleted":"0","num_feature":"106","num_nodes":"15","size_leaf_vector":"1"}},{"base_weights":[-1.5579587E-1,1.0579532E-1,-3.128323E-1,-1.4541651E-1,2.2212398E-1,-1.5219973E-1,-4.93275E-1,5.226871E-4,-2.9502728E-3,1.4354703E-3,3.7698103E-3,-2.910644E-3,-2.5103983E-4,-5.8252183E-3,-3.6546832E-3],"categories":[],"categories_nodes":[],"categories_segments":[],"categories_sizes":[],"default_left":[0,0,0,0,0,0,0,0,0,0,0,0,0,0,0],"id":2,"left_children":[1,3,5,7,9,11,13,-1,-1,-1,-1,-1,-1,-1,-1],"loss_changes":[2.5767987E2,6.880855E1,1.1352985E2,2.2064098E1,1.9524399E1,3.661445E1,2.0836975E1,0E0,0E0,0E0,0E0,0E0,0E0,0E0,0E0],"parents":[2147483647,0,0,1,1,2,2,3,3,4,4,5,5,6,6],"right_children":[2,4,6,8,10,12,14,-1,-1,-1,-1,-1,-1,-1,-1],"split_conditions":[4.62E-1,-2E0,1.4E1,-4.9E0,2.7E1,9E0,-1.9E0,5.226871E-4,-2.9502728E-3,1.4354703E-3,3.7698103E-3,-2.910644E-3,-2.5103983E-4,-5.8252183E-3,-3.6546832E-3],"split_indices":[3,77,80,25,51,51,77,0,0,0,0,0,0,0,0],"split_type":[0,0,0,0,0,0,0,0,0,0,0,0,0,0,0],"sum_hessian":[6.2709297E3,2.352486E3,3.9184436E3,7.4449615E2,1.60799E3,2.0739915E3,1.8444523E3,3.209999E2,4.2349625E2,1.0679978E3,5.399922E2,9.9049146E2,1.0834999E3,1.0839658E3,7.604864E2],"tree_param":{"num_deleted":"0","num_feature":"106","num_nodes":"15","size_leaf_vector":"1"}},{"base_weights":[1.5579589E-1,-1.05795324E-1,3.1283233E-1,1.4541651E-1,-2.22124E-1,1.5219979E-1,4.93275E-1,-5.226871E-4,2.9502728E-3,-1.4354703E-3,-3.7698103E-3,2.9106452E-3,2.5103983E-4,5.825218E-3,3.6546828E-3],"categories":[],"categories_nodes":[],"categories_segments":[],"categories_sizes":[],"default_left":[0,0,0,0,0,0,0,0,0,0,0,0,0,0,0],"id":3,"left_children":[1,3,5,7,9,11,13,-1,-1,-1,-1,-1,-1,-1,-1],"loss_changes":[2.5767987E2,6.880855E1,1.1352985E2,2.2064098E1,1.9524406E1,3.661448E1,2.0836945E1,0E0,0E0,0E0,0E0,0E0,0E0,0E0,0E0],"parents":[2147483647,0,0,1,1,2,2,3,3,4,4,5,5,6,6],"right_children":[2,4,6,8,10,12,14,-1,-1,-1,-1,-1,-1,-1,-1],"split_conditions":[4.62E-1,-2E0,1.4E1,-4.9E0,2.7E1,9E0,-1.9E0,-5.226871E-4,2.9502728E-3,-1.4354703E-3,-3.7698103E-3,2.9106452E-3,2.5103983E-4,5.825218E-3,3.6546828E-3],"split_indices":[3,77,80,25,51,51,77,0,0,0,0,0,0,0,0],"split_type":[0,0,0,0,0,0,0,0,0,0,0,0,0,0,0],"sum_hessian":[6.2709297E3,2.352486E3,3.9184436E3,7.4449615E2,1.60799E3,2.0739915E3,1.8444521E3,3.209999E2,4.2349625E2,1.0679978E3,5.399922E2,9.9049146E2,1.0834999E3,1.0839658E3,7.604863E2],"tree_param":{"num_deleted":"0","num_feature":"106","num_nodes":"15","size_leaf_vector":"1"}},{"base_weights":[-1.5424466E-1,1.0474038E-1,-3.0972046E-1,-1.439678E-1,2.1991007E-1,-1.5068121E-1,-4.8838466E-1,5.1747763E-4,-2.9209165E-3,1.4211374E-3,3.732343E-3,-2.881642E-3,-2.4853254E-4,-4.091552E-3,-6.302544E-3],"categories":[],"categories_nodes":[],"categories_segments":[],"categories_sizes":[],"default_left":[0,0,0,0,0,0,0,0,0,0,0,0,0,0,0],"id":4,"left_children":[1,3,5,7,9,11,13,-1,-1,-1,-1,-1,-1,-1,-1],"loss_changes":[2.5256903E2,6.74429E1,1.1129117E2,2.1626827E1,1.9138725E1,3.588809E1,2.0483917E1,0E0,0E0,0E0,0E0,0E0,0E0,0E0,0E0],"parents":[2147483647,0,0,1,1,2,2,3,3,4,4,5,5,6,6],"right_children":[2,4,6,8,10,12,14,-1,-1,-1,-1,-1,-1,-1,-1],"split_conditions":[4.62E-1,-2E0,1.4E1,-4.9E0,2.7E1,9E0,2.4E1,5.1747763E-4,-2.9209165E-3,1.4211374E-3,3.732343E-3,-2.881642E-3,-2.4853254E-4,-4.091552E-3,-6.302544E-3],"split_indices":[3,77,80,25,51,51,80,0,0,0,0,0,0,0,0],"split_type":[0,0,0,0,0,0,0,0,0,0,0,0,0,0,0],"sum_hessian":[6.2707227E3,2.3524448E3,3.9182778E3,7.4448474E2,1.6079601E3,2.0739658E3,1.8443121E3,3.2099963E2,4.234851E2,1.0679911E3,5.39969E2,9.904661E2,1.0834996E3,1.1859071E3,6.5840497E2],"tree_param":{"num_deleted":"0","num_feature":"106","num_nodes":"15","size_leaf_vector":"1"}},{"base_weights":[1.5424463E-1,-1.0474043E-1,3.097204E-1,1.439678E-1,-2.1991013E-1,1.5068117E-1,4.8838463E-1,-5.1747763E-4,2.9209165E-3,-1.4211386E-3,-3.732343E-3,2.881642E-3,2.4853167E-4,4.091552E-3,6.302544E-3],"categories":[],"categories_nodes":[],"categories_segments":[],"categories_sizes":[],"default_left":[0,0,0,0,0,0,0,0,0,0,0,0,0,0,0],"id":5,"left_children":[1,3,5,7,9,11,13,-1,-1,-1,-1,-1,-1,-1,-1],"loss_changes":[2.52569E2,6.744292E1,1.1129123E2,2.1626827E1,1.9138718E1,3.588812E1,2.0483948E1,0E0,0E0,0E0,0E0,0E0,0E0,0E0,0E0],"parents":[2147483647,0,0,1,1,2,2,3,3,4,4,5,5,6,6],"right_children":[2,4,6,8,10,12,14,-1,-1,-1,-1,-1,-1,-1,-1],"split_conditions":[4.62E-1,-2E0,1.4E1,-4.9E0,2.7E1,9E0,2.4E1,-5.1747763E-4,2.9209165E-3,-1.4211386E-3,-3.732343E-3,2.881642E-3,2.4853167E-4,4.091552E-3,6.302544E-3],"split_indices":[3,77,80,25,51,51,80,0,0,0,0,0,0,0,0],"split_type":[0,0,0,0,0,0,0,0,0,0,0,0,0,0,0],"sum_hessian":[6.2707227E3,2.3524448E3,3.918278E3,7.4448474E2,1.6079601E3,2.0739658E3,1.8443121E3,3.2099963E2,4.234851E2,1.0679911E3,5.39969E2,9.904661E2,1.0834998E3,1.1859071E3,6.5840497E2],"tree_param":{"num_deleted":"0","num_feature":"106","num_nodes":"15","size_leaf_vector":"1"}},{"base_weights":[-1.5271227E-1,1.0369715E-1,-3.066481E-1,-1.4253503E-1,2.1772087E-1,-1.4917888E-1,-4.8356712E-1,5.123183E-4,-2.8919016E-3,1.406954E-3,3.6953501E-3,-2.8529745E-3,-2.4604853E-4,-5.714626E-3,-3.5771418E-3],"categories":[],"categories_nodes":[],"categories_segments":[],"categories_sizes":[],"default_left":[0,0,0,0,0,0,0,0,0,0,0,0,0,0,0],"id":6,"left_children":[1,3,5,7,9,11,13,-1,-1,-1,-1,-1,-1,-1,-1],"loss_changes":[2.4756702E2,6.610518E1,1.0910861E2,2.1198654E1,1.876191E1,3.5177128E1,2.0205719E1,0E0,0E0,0E0,0E0,0E0,0E0,0E0,0E0],"parents":[2147483647,0,0,1,1,2,2,3,3,4,4,5,5,6,6],"right_children":[2,4,6,8,10,12,14,-1,-1,-1,-1,-1,-1,-1,-1],"split_conditions":[4.62E-1,-2E0,1.4E1,-4.9E0,2.7E1,9E0,-1.9E0,5.123183E-4,-2.8919016E-3,1.406954E-3,3.6953501E-3,-2.8529745E-3,-2.4604853E-4,-5.714626E-3,-3.5771418E-3],"split_indices":[3,77,80,25,51,51,77,0,0,0,0,0,0,0,0],"split_type":[0,0,0,0,0,0,0,0,0,0,0,0,0,0,0],"sum_hessian":[6.270383E3,2.3523772E3,3.9180054E3,7.4446606E2,1.6079111E3,2.0739238E3,1.8440815E3,3.209992E2,4.2346683E2,1.0679802E3,5.399309E2,9.904245E2,1.0834994E3,1.0836919E3,7.6038965E2],"tree_param":{"num_deleted":"0","num_feature":"106","num_nodes":"15","size_leaf_vector":"1"}},{"base_weights":[1.5271229E-1,-1.0369717E-1,3.0664814E-1,1.4253497E-1,-2.1772088E-1,1.4917888E-1,4.8356718E-1,-5.1231944E-4,2.8919016E-3,-1.4069543E-3,-3.6953501E-3,2.8529745E-3,2.4604853E-4,5.714626E-3,3.577143E-3],"categories":[],"categories_nodes":[],"categories_segments":[],"categories_sizes":[],"default_left":[0,0,0,0,0,0,0,0,0,0,0,0,0,0,0],"id":7,"left_children":[1,3,5,7,9,11,13,-1,-1,-1,-1,-1,-1,-1,-1],"loss_changes":[2.4756711E2,6.610516E1,1.0910864E2,2.119867E1,1.8761894E1,3.5177128E1,2.0205688E1,0E0,0E0,0E0,0E0,0E0,0E0,0E0,0E0],"parents":[2147483647,0,0,1,1,2,2,3,3,4,4,5,5,6,6],"right_children":[2,4,6,8,10,12,14,-1,-1,-1,-1,-1,-1,-1,-1],"split_conditions":[4.62E-1,-2E0,1.4E1,-4.9E0,2.7E1,9E0,-1.9E0,-5.1231944E-4,2.8919016E-3,-1.4069543E-3,-3.6953501E-3,2.8529745E-3,2.4604853E-4,5.714626E-3,3.577143E-3],"split_indices":[3,77,80,25,51,51,77,0,0,0,0,0,0,0,0],"split_type":[0,0,0,0,0,0,0,0,0,0,0,0,0,0,0],"sum_hessian":[6.270383E3,2.3523772E3,3.9180054E3,7.4446606E2,1.6079111E3,2.0739238E3,1.8440815E3,3.209992E2,4.2346683E2,1.0679802E3,5.399309E2,9.904245E2,1.0834994E3,1.0836919E3,7.6038965E2],"tree_param":{"num_deleted":"0","num_feature":"106","num_nodes":"15","size_leaf_vector":"1"}},{"base_weights":[-1.5119813E-1,1.02665454E-1,-3.036141E-1,-1.4111774E-1,2.1555594E-1,-1.4769274E-1,-4.7881937E-1,5.072127E-4,-2.8632209E-3,9.102509E-4,3.0814025E-3,-2.8246378E-3,-2.4359042E-4,-4.0077753E-3,-6.1859456E-3],"categories":[],"categories_nodes":[],"categories_segments":[],"categories_sizes":[],"default_left":[0,0,0,0,0,0,0,0,0,0,0,0,0,0,0],"id":8,"left_children":[1,3,5,7,9,11,13,-1,-1,-1,-1,-1,-1,-1,-1],"loss_changes":[2.4267082E2,6.479468E1,1.069794E2,2.07794E1,1.8521278E1,3.4481144E1,1.9875275E1,0E0,0E0,0E0,0E0,0E0,0E0,0E0,0E0],"parents":[2147483647,0,0,1,1,2,2,3,3,4,4,5,5,6,6],"right_children":[2,4,6,8,10,12,14,-1,-1,-1,-1,-1,-1,-1,-1],"split_conditions":[4.62E-1,-2E0,1.4E1,-4.9E0,2.4E1,9E0,2.4E1,5.072127E-4,-2.8632209E-3,9.102509E-4,3.0814025E-3,-2.8246378E-3,-2.4359042E-4,-4.0077753E-3,-6.1859456E-3],"split_indices":[3,77,80,25,51,51,80,0,0,0,0,0,0,0,0],"split_type":[0,0,0,0,0,0,0,0,0,0,0,0,0,0,0],"sum_hessian":[6.2699136E3,2.3522837E3,3.91763E3,7.4444025E2,1.6078435E3,2.073866E3,1.8437638E3,3.209986E2,4.2344162E2,6.864776E2,9.2136597E2,9.9036707E2,1.0834989E3,1.185642E3,6.581219E2],"tree_param":{"num_deleted":"0","num_feature":"106","num_nodes":"15","size_leaf_vector":"1"}},{"base_weights":[1.5119813E-1,-1.0266543E-1,3.036141E-1,1.4111778E-1,-2.1555594E-1,1.4769274E-1,4.7881937E-1,-5.07213E-4,2.863222E-3,-9.102509E-4,-3.0814025E-3,2.8246378E-3,2.4359042E-4,4.007775E-3,6.1859456E-3],"categories":[],"categories_nodes":[],"categories_segments":[],"categories_sizes":[],"default_left":[0,0,0,0,0,0,0,0,0,0,0,0,0,0,0],"id":9,"left_children":[1,3,5,7,9,11,13,-1,-1,-1,-1,-1,-1,-1,-1],"loss_changes":[2.4267079E2,6.479469E1,1.0697934E2,2.0779419E1,1.8521278E1,3.4481144E1,1.9875366E1,0E0,0E0,0E0,0E0,0E0,0E0,0E0,0E0],"parents":[2147483647,0,0,1,1,2,2,3,3,4,4,5,5,6,6],"right_children":[2,4,6,8,10,12,14,-1,-1,-1,-1,-1,-1,-1,-1],"split_conditions":[4.62E-1,-2E0,1.4E1,-4.9E0,2.4E1,9E0,2.4E1,-5.07213E-4,2.863222E-3,-9.102509E-4,-3.0814025E-3,2.8246378E-3,2.4359042E-4,4.007775E-3,6.1859456E-3],"split_indices":[3,77,80,25,51,51,80,0,0,0,0,0,0,0,0],"split_type":[0,0,0,0,0,0,0,0,0,0,0,0,0,0,0],"sum_hessian":[6.2699136E3,2.3522837E3,3.91763E3,7.4444025E2,1.6078435E3,2.073866E3,1.8437639E3,3.2099863E2,4.2344162E2,6.864776E2,9.2136597E2,9.9036707E2,1.0834989E3,1.185642E3,6.581219E2],"tree_param":{"num_deleted":"0","num_feature":"106","num_nodes":"15","size_leaf_vector":"1"}},{"base_weights":[-1.4970222E-1,1.01644345E-1,-3.0061814E-1,-1.9867083E-1,1.9193314E-1,-1.4622247E-1,-4.741408E-1,-8.25864E-6,-3.528974E-3,9.466246E-4,3.2395553E-3,-2.7966257E-3,-2.4115643E-4,-5.6075095E-3,-3.501622E-3],"categories":[],"categories_nodes":[],"categories_segments":[],"categories_sizes":[],"default_left":[0,0,0,0,0,0,0,0,0,0,0,0,0,0,0],"id":10,"left_children":[1,3,5,7,9,11,13,-1,-1,-1,-1,-1,-1,-1,-1],"loss_changes":[2.3787776E2,6.3844597E1,1.049025E2,1.6611908E1,2.3209846E1,3.379982E1,1.9608032E1,0E0,0E0,0E0,0E0,0E0,0E0,0E0,0E0],"parents":[2147483647,0,0,1,1,2,2,3,3,4,4,5,5,6,6],"right_children":[2,4,6,8,10,12,14,-1,-1,-1,-1,-1,-1,-1,-1],"split_conditions":[4.62E-1,3.73E-1,1.4E1,-4.7E0,2.6E1,9E0,-1.9E0,-8.25864E-6,-3.528974E-3,9.466246E-4,3.2395553E-3,-2.7966257E-3,-2.4115643E-4,-5.6075095E-3,-3.501622E-3],"split_indices":[3,55,80,25,51,51,77,0,0,0,0,0,0,0,0],"split_type":[0,0,0,0,0,0,0,0,0,0,0,0,0,0,0],"sum_hessian":[6.269325E3,2.3521714E3,3.9171538E3,5.434311E2,1.8087402E3,2.0737927E3,1.8433611E3,2.384929E2,3.0493817E2,1.0424253E3,7.6631494E2,9.902944E2,1.0834984E3,1.0831562E3,7.602049E2],"tree_param":{"num_deleted":"0","num_feature":"106","num_nodes":"15","size_leaf_vector":"1"}},{"base_weights":[1.4970222E-1,-1.01644404E-1,3.0061817E-1,1.9867079E-1,-1.919332E-1,1.4622252E-1,4.741408E-1,8.257816E-6,3.528974E-3,-9.4662537E-4,-3.2395555E-3,2.7966257E-3,2.4115734E-4,5.6075095E-3,3.5016222E-3],"categories":[],"categories_nodes":[],"categories_segments":[],"categories_sizes":[],"default_left":[0,0,0,0,0,0,0,0,0,0,0,0,0,0,0],"id":11,"left_children":[1,3,5,7,9,11,13,-1,-1,-1,-1,-1,-1,-1,-1],"loss_changes":[2.3787785E2,6.384461E1,1.0490253E2,1.6611912E1,2.3209839E1,3.3799793E1,1.9608002E1,0E0,0E0,0E0,0E0,0E0,0E0,0E0,0E0],"parents":[2147483647,0,0,1,1,2,2,3,3,4,4,5,5,6,6],"right_children":[2,4,6,8,10,12,14,-1,-1,-1,-1,-1,-1,-1,-1],"split_conditions":[4.62E-1,3.73E-1,1.4E1,-4.7E0,2.6E1,9E0,-1.9E0,8.257816E-6,3.528974E-3,-9.4662537E-4,-3.2395555E-3,2.7966257E-3,2.4115734E-4,5.6075095E-3,3.5016222E-3],"split_indices":[3,55,80,25,51,51,77,0,0,0,0,0,0,0,0],"split_type":[0,0,0,0,0,0,0,0,0,0,0,0,0,0,0],"sum_hessian":[6.269325E3,2.3521714E3,3.9171538E3,5.43431E2,1.8087402E3,2.0737927E3,1.8433611E3,2.3849289E2,3.0493817E2,1.0424253E3,7.6631494E2,9.902944E2,1.0834983E3,1.0831562E3,7.602049E2],"tree_param":{"num_deleted":"0","num_feature":"106","num_nodes":"15","size_leaf_vector":"1"}},{"base_weights":[-1.4822365E-1,1.00633405E-1,-2.9765898E-1,-1.3899098E-1,2.1160023E-1,-1.3599999E-1,-4.6023005E-1,4.1750373E-4,-2.874319E-3,8.928646E-4,3.0254927E-3,-2.6297648E-3,-1.9918349E-4,-3.7529203E-3,-5.9146816E-3],"categories":[],"categories_nodes":[],"categories_segments":[],"categories_sizes":[],"default_left":[0,0,0,0,0,0,0,0,0,0,0,0,0,0,0],"id":12,"left_children":[1,3,5,7,9,11,13,-1,-1,-1,-1,-1,-1,-1,-1],"loss_changes":[2.3318524E2,6.2597847E1,1.0289557E2,2.0009987E1,1.78684E1,2.8968773E1,2.1546783E1,0E0,0E0,0E0,0E0,0E0,0E0,0E0,0E0],"parents":[2147483647,0,0,1,1,2,2,3,3,4,4,5,5,6,6],"right_children":[2,4,6,8,10,12,14,-1,-1,-1,-1,-1,-1,-1,-1],"split_conditions":[4.62E-1,-2E0,1.3E1,-4.6E0,2.4E1,9E0,2.3E1,4.1750373E-4,-2.874319E-3,8.928646E-4,3.0254927E-3,-2.6297648E-3,-1.9918349E-4,-3.7529203E-3,-5.9146816E-3],"split_indices":[3,77,80,25,51,51,80,0,0,0,0,0,0,0,0],"split_type":[0,0,0,0,0,0,0,0,0,0,0,0,0,0,0],"sum_hessian":[6.268631E3,2.3520503E3,3.9165806E3,7.4437555E2,1.6076748E3,1.9647201E3,1.9518606E3,3.3599158E2,4.0838394E2,6.864615E2,9.2121326E2,9.377223E2,1.0269977E3,1.187296E3,7.645646E2],"tree_param":{"num_deleted":"0","num_feature":"106","num_nodes":"15","size_leaf_vector":"1"}},{"base_weights":[1.4822362E-1,-1.0063341E-1,2.9765895E-1,1.3899092E-1,-2.1160021E-1,1.3599995E-1,4.6023005E-1,-4.1750458E-4,2.8743183E-3,-8.928649E-4,-3.025492E-3,2.629764E-3,1.9918349E-4,3.7529203E-3,5.9146816E-3],"categories":[],"categories_nodes":[],"categories_segments":[],"categories_sizes":[],"default_left":[0,0,0,0,0,0,0,0,0,0,0,0,0,0,0],"id":13,"left_children":[1,3,5,7,9,11,13,-1,-1,-1,-1,-1,-1,-1,-1],"loss_changes":[2.331852E2,6.259783E1,1.0289566E2,2.000999E1,1.7868385E1,2.8968746E1,2.1546783E1,0E0,0E0,0E0,0E0,0E0,0E0,0E0,0E0],"parents":[2147483647,0,0,1,1,2,2,3,3,4,4,5,5,6,6],"right_children":[2,4,6,8,10,12,14,-1,-1,-1,-1,-1,-1,-1,-1],"split_conditions":[4.62E-1,-2E0,1.3E1,-4.6E0,2.4E1,9E0,2.3E1,-4.1750458E-4,2.8743183E-3,-8.928649E-4,-3.025492E-3,2.629764E-3,1.9918349E-4,3.7529203E-3,5.9146816E-3],"split_indices":[3,77,80,25,51,51,80,0,0,0,0,0,0,0,0],"split_type":[0,0,0,0,0,0,0,0,0,0,0,0,0,0,0],"sum_hessian":[6.2686313E3,2.3520503E3,3.9165808E3,7.4437555E2,1.6076748E3,1.9647201E3,1.9518606E3,3.359916E2,4.0838397E2,6.8646155E2,9.212133E2,9.3772235E2,1.0269977E3,1.187296E3,7.645646E2],"tree_param":{"num_deleted":"0","num_feature":"106","num_nodes":"15","size_leaf_vector":"1"}},{"base_weights":[-1.4676249E-1,9.963433E-2,-2.947357E-1,-1.9553497E-1,1.883757E-1,-1.4329068E-1,-4.6502313E-1,-1.4115615E-5,-3.4688893E-3,9.278667E-4,3.1813781E-3,-2.742343E-3,-2.34907E-4,-5.5036824E-3,-3.4290366E-3],"categories":[],"categories_nodes":[],"categories_segments":[],"categories_sizes":[],"default_left":[0,0,0,0,0,0,0,0,0,0,0,0,0,0,0],"id":14,"left_children":[1,3,5,7,9,11,13,-1,-1,-1,-1,-1,-1,-1,-1],"loss_changes":[2.2859111E2,6.166793E1,1.0094754E2,1.5993685E1,2.2415596E1,3.2537956E1,1.9022858E1,0E0,0E0,0E0,0E0,0E0,0E0,0E0,0E0],"parents":[2147483647,0,0,1,1,2,2,3,3,4,4,5,5,6,6],"right_children":[2,4,6,8,10,12,14,-1,-1,-1,-1,-1,-1,-1,-1],"split_conditions":[4.62E-1,3.73E-1,1.4E1,-4.7E0,2.6E1,9E0,-1.9E0,-1.4115615E-5,-3.4688893E-3,9.278667E-4,3.1813781E-3,-2.742343E-3,-2.34907E-4,-5.5036824E-3,-3.4290366E-3],"split_indices":[3,55,80,25,51,51,77,0,0,0,0,0,0,0,0],"split_type":[0,0,0,0,0,0,0,0,0,0,0,0,0,0,0],"sum_hessian":[6.267815E3,2.351895E3,3.9159197E3,5.433649E2,1.8085302E3,2.0736035E3,1.8423162E3,2.3849086E2,3.0487408E2,1.0423788E3,7.6615137E2,9.90108E2,1.0834955E3,1.0823746E3,7.599416E2],"tree_param":{"num_deleted":"0","num_feature":"106","num_nodes":"15","size_leaf_vector":"1"}},{"base_weights":[1.4676249E-1,-9.9634305E-2,2.9473567E-1,1.955349E-1,-1.8837565E-1,1.4329068E-1,4.650231E-1,1.411539E-5,3.468888E-3,-9.278663E-4,-3.1813777E-3,2.742343E-3,2.3490698E-4,5.5036824E-3,3.4290354E-3],"categories":[],"categories_nodes":[],"categories_segments":[],"categories_sizes":[],"default_left":[0,0,0,0,0,0,0,0,0,0,0,0,0,0,0],"id":15,"left_children":[1,3,5,7,9,11,13,-1,-1,-1,-1,-1,-1,-1,-1],"loss_changes":[2.2859108E2,6.1667892E1,1.0094751E2,1.5993679E1,2.2415588E1,3.2537956E1,1.9022919E1,0E0,0E0,0E0,0E0,0E0,0E0,0E0,0E0],"parents":[2147483647,0,0,1,1,2,2,3,3,4,4,5,5,6,6],"right_children":[2,4,6,8,10,12,14,-1,-1,-1,-1,-1,-1,-1,-1],"split_conditions":[4.62E-1,3.73E-1,1.4E1,-4.7E0,2.6E1,9E0,-1.9E0,1.411539E-5,3.468888E-3,-9.278663E-4,-3.1813777E-3,2.742343E-3,2.3490698E-4,5.5036824E-3,3.4290354E-3],"split_indices":[3,55,80,25,51,51,77,0,0,0,0,0,0,0,0],"split_type":[0,0,0,0,0,0,0,0,0,0,0,0,0,0,0],"sum_hessian":[6.267815E3,2.3518953E3,3.9159197E3,5.43365E2,1.8085302E3,2.0736035E3,1.8423162E3,2.3849088E2,3.0487408E2,1.0423788E3,7.6615137E2,9.90108E2,1.0834955E3,1.0823746E3,7.599416E2],"tree_param":{"num_deleted":"0","num_feature":"106","num_nodes":"15","size_leaf_vector":"1"}},{"base_weights":[-1.453183E-1,9.864514E-2,-2.9184827E-1,-1.3689986E-1,2.0772554E-1,-1.3322441E-1,-4.5145026E-1,4.778923E-4,-2.7673335E-3,1.3370286E-3,3.5369727E-3,-2.5766562E-3,-1.9484667E-4,-3.678222E-3,-5.807285E-3],"categories":[],"categories_nodes":[],"categories_segments":[],"categories_sizes":[],"default_left":[0,0,0,0,0,0,0,0,0,0,0,0,0,0,0],"id":16,"left_children":[1,3,5,7,9,11,13,-1,-1,-1,-1,-1,-1,-1,-1],"loss_changes":[2.2409315E2,6.047796E1,9.908411E1,1.9260786E1,1.7332314E1,2.781475E1,2.08862E1,0E0,0E0,0E0,0E0,0E0,0E0,0E0,0E0],"parents":[2147483647,0,0,1,1,2,2,3,3,4,4,5,5,6,6],"right_children":[2,4,6,8,10,12,14,-1,-1,-1,-1,-1,-1,-1,-1],"split_conditions":[4.62E-1,-2E0,1.3E1,-4.9E0,2.7E1,9E0,2.3E1,4.778923E-4,-2.7673335E-3,1.3370286E-3,3.5369727E-3,-2.5766562E-3,-1.9484667E-4,-3.678222E-3,-5.807285E-3],"split_indices":[3,77,80,25,51,51,80,0,0,0,0,0,0,0,0],"split_type":[0,0,0,0,0,0,0,0,0,0,0,0,0,0,0],"sum_hessian":[6.266893E3,2.3517314E3,3.9151619E3,7.442863E2,1.6074451E3,1.9645182E3,1.9506437E3,3.209891E2,4.232972E2,1.0678507E3,5.395943E2,9.37522E2,1.0269962E3,1.1867799E3,7.6386383E2],"tree_param":{"num_deleted":"0","num_feature":"106","num_nodes":"15","size_leaf_vector":"1"}},{"base_weights":[1.4531828E-1,-9.864513E-2,2.9184824E-1,1.368999E-1,-2.0772554E-1,1.3322435E-1,4.5145026E-1,-4.778913E-4,2.7673335E-3,-1.3370286E-3,-3.5369727E-3,2.576655E-3,1.9484639E-4,3.678222E-3,5.807285E-3],"categories":[],"categories_nodes":[],"categories_segments":[],"categories_sizes":[],"default_left":[0,0,0,0,0,0,0,0,0,0,0,0,0,0,0],"id":17,"left_children":[1,3,5,7,9,11,13,-1,-1,-1,-1,-1,-1,-1,-1],"loss_changes":[2.2409311E2,6.047798E1,9.908411E1,1.9260773E1,1.7332298E1,2.7814735E1,2.08862E1,0E0,0E0,0E0,0E0,0E0,0E0,0E0,0E0],"parents":[2147483647,0,0,1,1,2,2,3,3,4,4,5,5,6,6],"right_children":[2,4,6,8,10,12,14,-1,-1,-1,-1,-1,-1,-1,-1],"split_conditions":[4.62E-1,-2E0,1.3E1,-4.9E0,2.7E1,9E0,2.3E1,-4.778913E-4,2.7673335E-3,-1.3370286E-3,-3.5369727E-3,2.576655E-3,1.9484639E-4,3.678222E-3,5.807285E-3],"split_indices":[3,77,80,25,51,51,80,0,0,0,0,0,0,0,0],"split_type":[0,0,0,0,0,0,0,0,0,0,0,0,0,0,0],"sum_hessian":[6.266893E3,2.3517312E3,3.9151619E3,7.442863E2,1.607445E3,1.9645182E3,1.9506438E3,3.209891E2,4.232972E2,1.0678507E3,5.395943E2,9.37522E2,1.0269962E3,1.1867799E3,7.638639E2],"tree_param":{"num_deleted":"0","num_feature":"106","num_nodes":"15","size_leaf_vector":"1"}},{"base_weights":[-1.4389081E-1,9.766817E-2,-2.8899536E-1,-1.9245248E-1,1.8489091E-1,-1.3190144E-1,-4.4710732E-1,-1.9373165E-5,-3.4103077E-3,9.1029494E-4,3.123386E-3,-2.5512313E-3,-1.9290054E-4,-3.6423604E-3,-5.752576E-3],"categories":[],"categories_nodes":[],"categories_segments":[],"categories_sizes":[],"default_left":[0,0,0,0,0,0,0,0,0,0,0,0,0,0,0],"id":18,"left_children":[1,3,5,7,9,11,13,-1,-1,-1,-1,-1,-1,-1,-1],"loss_changes":[2.1968962E2,5.9566654E1,9.719147E1,1.5405857E1,2.1614635E1,2.7267326E1,2.0509186E1,0E0,0E0,0E0,0E0,0E0,0E0,0E0,0E0],"parents":[2147483647,0,0,1,1,2,2,3,3,4,4,5,5,6,6],"right_children":[2,4,6,8,10,12,14,-1,-1,-1,-1,-1,-1,-1,-1],"split_conditions":[4.62E-1,3.73E-1,1.3E1,-4.7E0,2.6E1,9E0,2.3E1,-1.9373165E-5,-3.4103077E-3,9.1029494E-4,3.123386E-3,-2.5512313E-3,-1.9290054E-4,-3.6423604E-3,-5.752576E-3],"split_indices":[3,55,80,25,51,51,80,0,0,0,0,0,0,0,0],"split_type":[0,0,0,0,0,0,0,0,0,0,0,0,0,0,0],"sum_hessian":[6.265853E3,2.3515308E3,3.9143223E3,5.432763E2,1.8082544E3,1.9644021E3,1.94992E3,2.384876E2,3.047887E2,1.0423265E3,7.659279E2,9.3740674E2,1.0269954E3,1.1864912E3,7.634289E2],"tree_param":{"num_deleted":"0","num_feature":"106","num_nodes":"15","size_leaf_vector":"1"}},{"base_weights":[1.4389081E-1,-9.7668186E-2,2.8899536E-1,1.9245246E-1,-1.8489093E-1,1.3190143E-1,4.4710732E-1,1.9373201E-5,3.4103075E-3,-9.102953E-4,-3.123386E-3,2.551231E-3,1.9290054E-4,3.6423607E-3,5.7525747E-3],"categories":[],"categories_nodes":[],"categories_segments":[],"categories_sizes":[],"default_left":[0,0,0,0,0,0,0,0,0,0,0,0,0,0,0],"id":19,"left_children":[1,3,5,7,9,11,13,-1,-1,-1,-1,-1,-1,-1,-1],"loss_changes":[2.1968964E2,5.956665E1,9.71915E1,1.5405849E1,2.1614624E1,2.7267319E1,2.0509125E1,0E0,0E0,0E0,0E0,0E0,0E0,0E0,0E0],"parents":[2147483647,0,0,1,1,2,2,3,3,4,4,5,5,6,6],"right_children":[2,4,6,8,10,12,14,-1,-1,-1,-1,-1,-1,-1,-1],"split_conditions":[4.62E-1,3.73E-1,1.3E1,-4.7E0,2.6E1,9E0,2.3E1,1.9373201E-5,3.4103075E-3,-9.102953E-4,-3.123386E-3,2.551231E-3,1.9290054E-4,3.6423607E-3,5.7525747E-3],"split_indices":[3,55,80,25,51,51,80,0,0,0,0,0,0,0,0],"split_type":[0,0,0,0,0,0,0,0,0,0,0,0,0,0,0],"sum_hessian":[6.265853E3,2.3515308E3,3.9143223E3,5.432763E2,1.8082544E3,1.9644021E3,1.94992E3,2.384876E2,3.047887E2,1.0423265E3,7.659279E2,9.374067E2,1.0269954E3,1.1864912E3,7.6342896E2],"tree_param":{"num_deleted":"0","num_feature":"106","num_nodes":"15","size_leaf_vector":"1"}},{"base_weights":[-1.4247976E-1,9.670019E-2,-2.861767E-1,-1.3484366E-1,2.0393081E-1,-1.3899185E-1,-4.5183498E-1,6.3135405E-4,-2.607252E-3,8.5451966E-4,2.9206753E-3,-2.663589E-3,-2.2507699E-4,-5.3554485E-3,-3.3214947E-3],"categories":[],"categories_nodes":[],"categories_segments":[],"categories_sizes":[],"default_left":[0,0,0,0,0,0,0,0,0,0,0,0,0,0,0],"id":20,"left_children":[1,3,5,7,9,11,13,-1,-1,-1,-1,-1,-1,-1,-1],"loss_changes":[2.1537698E2,5.843244E1,9.537955E1,1.8587578E1,1.676793E1,3.0767563E1,1.8268616E1,0E0,0E0,0E0,0E0,0E0,0E0,0E0,0E0],"parents":[2147483647,0,0,1,1,2,2,3,3,4,4,5,5,6,6],"right_children":[2,4,6,8,10,12,14,-1,-1,-1,-1,-1,-1,-1,-1],"split_conditions":[4.62E-1,-2E0,1.4E1,3.21E-1,2.4E1,9E0,-1.9E0,6.3135405E-4,-2.607252E-3,8.5451966E-4,2.9206753E-3,-2.663589E-3,-2.2507699E-4,-5.3554485E-3,-3.3214947E-3],"split_indices":[3,77,80,3,51,51,77,0,0,0,0,0,0,0,0],"split_type":[0,0,0,0,0,0,0,0,0,0,0,0,0,0,0],"sum_hessian":[6.2647227E3,2.3513262E3,3.9133962E3,7.441723E2,1.6071539E3,2.073215E3,1.8401813E3,2.8944644E2,4.5472583E2,6.864094E2,9.207445E2,9.8972974E2,1.0834854E3,1.0807875E3,7.593938E2],"tree_param":{"num_deleted":"0","num_feature":"106","num_nodes":"15","size_leaf_vector":"1"}},{"base_weights":[1.4247976E-1,-9.67002E-2,2.861767E-1,1.3484368E-1,-2.0393082E-1,1.3899186E-1,4.5183498E-1,-6.3135417E-4,2.6072524E-3,-8.5451995E-4,-2.9206756E-3,2.6635893E-3,2.25077E-4,5.3554485E-3,3.3214947E-3],"categories":[],"categories_nodes":[],"categories_segments":[],"categories_sizes":[],"default_left":[0,0,0,0,0,0,0,0,0,0,0,0,0,0,0],"id":21,"left_children":[1,3,5,7,9,11,13,-1,-1,-1,-1,-1,-1,-1,-1],"loss_changes":[2.1537698E2,5.843245E1,9.537958E1,1.8587582E1,1.676793E1,3.0767574E1,1.8268616E1,0E0,0E0,0E0,0E0,0E0,0E0,0E0,0E0],"parents":[2147483647,0,0,1,1,2,2,3,3,4,4,5,5,6,6],"right_children":[2,4,6,8,10,12,14,-1,-1,-1,-1,-1,-1,-1,-1],"split_conditions":[4.62E-1,-2E0,1.4E1,3.21E-1,2.4E1,9E0,-1.9E0,-6.3135417E-4,2.6072524E-3,-8.5451995E-4,-2.9206756E-3,2.6635893E-3,2.25077E-4,5.3554485E-3,3.3214947E-3],"split_indices":[3,77,80,3,51,51,77,0,0,0,0,0,0,0,0],"split_type":[0,0,0,0,0,0,0,0,0,0,0,0,0,0,0],"sum_hessian":[6.2647227E3,2.3513262E3,3.9133965E3,7.441723E2,1.607154E3,2.073215E3,1.8401813E3,2.8944647E2,4.5472583E2,6.864094E2,9.2074457E2,9.8972986E2,1.0834854E3,1.0807874E3,7.5939386E2],"tree_param":{"num_deleted":"0","num_feature":"106","num_nodes":"15","size_leaf_vector":"1"}},{"base_weights":[-1.4108464E-1,9.5743E-2,-2.833918E-1,-1.8943247E-1,1.8147905E-1,-1.2921412E-1,-4.3867967E-1,-1.863126E-5,-3.357581E-3,8.9192344E-4,3.0682376E-3,-2.4998689E-3,-1.8872548E-4,-3.570426E-3,-5.6500817E-3],"categories":[],"categories_nodes":[],"categories_segments":[],"categories_sizes":[],"default_left":[0,0,0,0,0,0,0,0,0,0,0,0,0,0,0],"id":22,"left_children":[1,3,5,7,9,11,13,-1,-1,-1,-1,-1,-1,-1,-1],"loss_changes":[2.1115463E2,5.754294E1,9.363724E1,1.4934984E1,2.0897686E1,2.6183094E1,1.9901123E1,0E0,0E0,0E0,0E0,0E0,0E0,0E0,0E0],"parents":[2147483647,0,0,1,1,2,2,3,3,4,4,5,5,6,6],"right_children":[2,4,6,8,10,12,14,-1,-1,-1,-1,-1,-1,-1,-1],"split_conditions":[4.62E-1,3.73E-1,1.3E1,-4.7E0,2.6E1,9E0,2.3E1,-1.863126E-5,-3.357581E-3,8.9192344E-4,3.0682376E-3,-2.4998689E-3,-1.8872548E-4,-3.570426E-3,-5.6500817E-3],"split_indices":[3,55,80,25,51,51,80,0,0,0,0,0,0,0,0],"split_type":[0,0,0,0,0,0,0,0,0,0,0,0,0,0,0],"sum_hessian":[6.2634893E3,2.3511057E3,3.9123835E3,5.431776E2,1.8079282E3,1.9641288E3,1.9482549E3,2.3848518E2,3.0469244E2,1.0422611E3,7.6566705E2,9.371354E2,1.0269934E3,1.18579E3,7.6246484E2],"tree_param":{"num_deleted":"0","num_feature":"106","num_nodes":"15","size_leaf_vector":"1"}},{"base_weights":[1.4108463E-1,-9.5743E-2,2.833918E-1,1.8943246E-1,-1.8147907E-1,1.2921412E-1,4.3867967E-1,1.8630912E-5,3.3575813E-3,-8.9192344E-4,-3.0682378E-3,2.4998689E-3,1.8872548E-4,3.570425E-3,5.6500826E-3],"categories":[],"categories_nodes":[],"categories_segments":[],"categories_sizes":[],"default_left":[0,0,0,0,0,0,0,0,0,0,0,0,0,0,0],"id":23,"left_children":[1,3,5,7,9,11,13,-1,-1,-1,-1,-1,-1,-1,-1],"loss_changes":[2.1115465E2,5.754294E1,9.363721E1,1.493499E1,2.0897686E1,2.6183094E1,1.9901184E1,0E0,0E0,0E0,0E0,0E0,0E0,0E0,0E0],"parents":[2147483647,0,0,1,1,2,2,3,3,4,4,5,5,6,6],"right_children":[2,4,6,8,10,12,14,-1,-1,-1,-1,-1,-1,-1,-1],"split_conditions":[4.62E-1,3.73E-1,1.3E1,-4.7E0,2.6E1,9E0,2.3E1,1.8630912E-5,3.3575813E-3,-8.9192344E-4,-3.0682378E-3,2.4998689E-3,1.8872548E-4,3.570425E-3,5.6500826E-3],"split_indices":[3,55,80,25,51,51,80,0,0,0,0,0,0,0,0],"split_type":[0,0,0,0,0,0,0,0,0,0,0,0,0,0,0],"sum_hessian":[6.2634893E3,2.3511057E3,3.9123835E3,5.431776E2,1.8079282E3,1.9641288E3,1.9482549E3,2.3848518E2,3.0469244E2,1.0422611E3,7.6566705E2,9.371354E2,1.0269934E3,1.18579E3,7.624648E2],"tree_param":{"num_deleted":"0","num_feature":"106","num_nodes":"15","size_leaf_vector":"1"}},{"base_weights":[-1.397056E-1,9.4795614E-2,-2.8063956E-1,-1.1577672E-1,2.0886058E-1,-1.2793313E-1,-4.3450803E-1,5.043462E-4,-2.4909712E-3,3.459955E-3,1.3345791E-3,-2.4752899E-3,-1.8683949E-4,-3.6254432E-3,-5.7561784E-3],"categories":[],"categories_nodes":[],"categories_segments":[],"categories_sizes":[],"default_left":[0,0,0,0,0,0,0,0,0,0,0,0,0,0,0],"id":24,"left_children":[1,3,5,7,9,11,13,-1,-1,-1,-1,-1,-1,-1,-1],"loss_changes":[2.0701892E2,5.6513435E1,9.187045E1,1.8338299E1,1.5731804E1,2.5669312E1,1.957602E1,0E0,0E0,0E0,0E0,0E0,0E0,0E0,0E0],"parents":[2147483647,0,0,1,1,2,2,3,3,4,4,5,5,6,6],"right_children":[2,4,6,8,10,12,14,-1,-1,-1,-1,-1,-1,-1,-1],"split_conditions":[4.62E-1,-1.5E0,1.3E1,-4.7E0,-5.9E0,9E0,2.4E1,5.043462E-4,-2.4909712E-3,3.459955E-3,1.3345791E-3,-2.4752899E-3,-1.8683949E-4,-3.6254432E-3,-5.7561784E-3],"split_indices":[3,77,80,25,25,51,80,0,0,0,0,0,0,0,0],"split_type":[0,0,0,0,0,0,0,0,0,0,0,0,0,0,0],"sum_hessian":[6.2621597E3,2.3508643E3,3.9112954E3,8.259973E2,1.524867E3,1.9639797E3,1.9473158E3,3.679249E2,4.5807242E2,5.397089E2,9.8515796E2,9.369872E2,1.0269924E3,1.2919908E3,6.55325E2],"tree_param":{"num_deleted":"0","num_feature":"106","num_nodes":"15","size_leaf_vector":"1"}},{"base_weights":[1.397056E-1,-9.479561E-2,2.8063956E-1,1.1577675E-1,-2.0886058E-1,1.2793313E-1,4.3450803E-1,-5.0434604E-4,2.4909717E-3,-3.459955E-3,-1.3345791E-3,2.4752892E-3,1.868404E-4,3.625444E-3,5.756178E-3],"categories":[],"categories_nodes":[],"categories_segments":[],"categories_sizes":[],"default_left":[0,0,0,0,0,0,0,0,0,0,0,0,0,0,0],"id":25,"left_children":[1,3,5,7,9,11,13,-1,-1,-1,-1,-1,-1,-1,-1],"loss_changes":[2.0701892E2,5.6513443E1,9.187048E1,1.8338303E1,1.5731804E1,2.5669266E1,1.957602E1,0E0,0E0,0E0,0E0,0E0,0E0,0E0,0E0],"parents":[2147483647,0,0,1,1,2,2,3,3,4,4,5,5,6,6],"right_children":[2,4,6,8,10,12,14,-1,-1,-1,-1,-1,-1,-1,-1],"split_conditions":[4.62E-1,-1.5E0,1.3E1,-4.7E0,-5.9E0,9E0,2.4E1,-5.0434604E-4,2.4909717E-3,-3.459955E-3,-1.3345791E-3,2.4752892E-3,1.868404E-4,3.625444E-3,5.756178E-3],"split_indices":[3,77,80,25,25,51,80,0,0,0,0,0,0,0,0],"split_type":[0,0,0,0,0,0,0,0,0,0,0,0,0,0,0],"sum_hessian":[6.2621597E3,2.3508643E3,3.9112954E3,8.259973E2,1.524867E3,1.9639796E3,1.9473158E3,3.679249E2,4.580724E2,5.397089E2,9.8515796E2,9.3698724E2,1.0269924E3,1.2919907E3,6.55325E2],"tree_param":{"num_deleted":"0","num_feature":"106","num_nodes":"15","size_leaf_vector":"1"}},{"base_weights":[-1.3834189E-1,-3.221667E-1,3.8330503E-2,-1.7231143E-1,-4.762445E-1,-1.826522E-1,1.5834872E-1,-2.501226E-3,9.8079094E-5,-3.904019E-3,-6.1136526E-3,-3.4263243E-3,-1.0605063E-5,5.693982E-4,2.9401942E-3],"categories":[],"categories_nodes":[],"categories_segments":[],"categories_sizes":[],"default_left":[0,0,0,0,0,0,0,0,0,0,0,0,0,0,0],"id":26,"left_children":[1,3,5,7,9,11,13,-1,-1,-1,-1,-1,-1,-1,-1],"loss_changes":[2.0337328E2,7.077591E1,8.473682E1,2.2071E1,1.7305511E1,3.2669838E1,2.8466911E1,0E0,0E0,0E0,0E0,0E0,0E0,0E0,0E0],"parents":[2147483647,0,0,1,1,2,2,3,3,4,4,5,5,6,6],"right_children":[2,4,6,8,10,12,14,-1,-1,-1,-1,-1,-1,-1,-1],"split_conditions":[1.5E1,1.3E1,-1.4E0,6E0,2.3E1,2.2E1,2.4E1,-2.501226E-3,9.8079094E-5,-3.904019E-3,-6.1136526E-3,-3.4263243E-3,-1.0605063E-5,5.693982E-4,2.9401942E-3],"split_indices":[51,80,77,77,80,28,51,0,0,0,0,0,0,0,0],"split_type":[0,0,0,0,0,0,0,0,0,0,0,0,0,0,0],"sum_hessian":[6.2607344E3,3.0678557E3,3.192879E3,1.5563123E3,1.5115433E3,1.1235776E3,2.0693013E3,1.0901627E3,4.661496E2,9.2669836E2,5.848449E2,5.9686206E2,5.267156E2,1.1849867E3,8.843145E2],"tree_param":{"num_deleted":"0","num_feature":"106","num_nodes":"15","size_leaf_vector":"1"}},{"base_weights":[1.3834186E-1,3.2216668E-1,-3.8330514E-2,1.7231134E-1,4.762445E-1,1.8265222E-1,-1.5834875E-1,2.501225E-3,-9.807995E-5,3.904019E-3,6.1136526E-3,3.4263243E-3,1.0605105E-5,-5.693986E-4,-2.9401944E-3],"categories":[],"categories_nodes":[],"categories_segments":[],"categories_sizes":[],"default_left":[0,0,0,0,0,0,0,0,0,0,0,0,0,0,0],"id":27,"left_children":[1,3,5,7,9,11,13,-1,-1,-1,-1,-1,-1,-1,-1],"loss_changes":[2.0337323E2,7.077594E1,8.473684E1,2.2071E1,1.7305511E1,3.2669838E1,2.8466919E1,0E0,0E0,0E0,0E0,0E0,0E0,0E0,0E0],"parents":[2147483647,0,0,1,1,2,2,3,3,4,4,5,5,6,6],"right_children":[2,4,6,8,10,12,14,-1,-1,-1,-1,-1,-1,-1,-1],"split_conditions":[1.5E1,1.3E1,-1.4E0,6E0,2.3E1,2.2E1,2.4E1,2.501225E-3,-9.807995E-5,3.904019E-3,6.1136526E-3,3.4263243E-3,1.0605105E-5,-5.693986E-4,-2.9401944E-3],"split_indices":[51,80,77,77,80,28,51,0,0,0,0,0,0,0,0],"split_type":[0,0,0,0,0,0,0,0,0,0,0,0,0,0,0],"sum_hessian":[6.2607344E3,3.0678557E3,3.192879E3,1.5563124E3,1.5115433E3,1.1235776E3,2.0693013E3,1.0901628E3,4.6614963E2,9.2669836E2,5.848449E2,5.9686206E2,5.267156E2,1.1849867E3,8.8431445E2],"tree_param":{"num_deleted":"0","num_feature":"106","num_nodes":"15","size_leaf_vector":"1"}},{"base_weights":[-1.3699155E-1,9.321732E-2,-2.753975E-1,-5.249906E-2,2.5376728E-1,-4.0272483E-1,-9.672854E-2,1.2144588E-3,-1.8905759E-3,2.097115E-3,4.4375095E-3,-3.290262E-3,-5.4960838E-3,-2.3479976E-3,2.6929023E-4],"categories":[],"categories_nodes":[],"categories_segments":[],"categories_sizes":[],"default_left":[0,0,0,0,0,0,0,0,0,0,0,0,0,0,0],"id":28,"left_children":[1,3,5,7,9,11,13,-1,-1,-1,-1,-1,-1,-1,-1],"loss_changes":[1.9949408E2,5.5022606E1,8.891089E1,2.9321823E1,9.272034E0,2.4529572E1,2.7806984E1,0E0,0E0,0E0,0E0,0E0,0E0,0E0,0E0],"parents":[2147483647,0,0,1,1,2,2,3,3,4,4,5,5,6,6],"right_children":[2,4,6,8,10,12,14,-1,-1,-1,-1,-1,-1,-1,-1],"split_conditions":[4.62E-1,5.14E-1,1.6E0,-4.9E0,2.8E1,2.3E1,9E0,1.2144588E-3,-1.8905759E-3,2.097115E-3,4.4375095E-3,-3.290262E-3,-5.4960838E-3,-2.3479976E-3,2.6929023E-4],"split_indices":[3,55,77,25,47,80,51,0,0,0,0,0,0,0,0],"split_type":[0,0,0,0,0,0,0,0,0,0,0,0,0,0,0],"sum_hessian":[6.259331E3,2.35035E3,3.9089807E3,1.2324458E3,1.1179042E3,2.2816929E3,1.627288E3,5.4207477E2,6.9037103E2,9.0917676E2,2.0872748E2,1.5215153E3,7.6017755E2,7.6841113E2,8.5887683E2],"tree_param":{"num_deleted":"0","num_feature":"106","num_nodes":"15","size_leaf_vector":"1"}},{"base_weights":[1.3699153E-1,-9.321731E-2,2.7539745E-1,5.2499052E-2,-2.5376728E-1,4.0272477E-1,9.6728496E-2,-1.2144588E-3,1.8905759E-3,-2.0971147E-3,-4.4375095E-3,3.2902616E-3,5.4960833E-3,2.3479967E-3,-2.6929018E-4],"categories":[],"categories_nodes":[],"categories_segments":[],"categories_sizes":[],"default_left":[0,0,0,0,0,0,0,0,0,0,0,0,0,0,0],"id":29,"left_children":[1,3,5,7,9,11,13,-1,-1,-1,-1,-1,-1,-1,-1],"loss_changes":[1.99494E2,5.502258E1,8.891092E1,2.932182E1,9.272041E0,2.4529602E1,2.7806961E1,0E0,0E0,0E0,0E0,0E0,0E0,0E0,0E0],"parents":[2147483647,0,0,1,1,2,2,3,3,4,4,5,5,6,6],"right_children":[2,4,6,8,10,12,14,-1,-1,-1,-1,-1,-1,-1,-1],"split_conditions":[4.62E-1,5.14E-1,1.6E0,-4.9E0,2.8E1,2.3E1,9E0,-1.2144588E-3,1.8905759E-3,-2.0971147E-3,-4.4375095E-3,3.2902616E-3,5.4960833E-3,2.3479967E-3,-2.6929018E-4],"split_indices":[3,55,77,25,47,80,51,0,0,0,0,0,0,0,0],"split_type":[0,0,0,0,0,0,0,0,0,0,0,0,0,0,0],"sum_hessian":[6.259331E3,2.3503499E3,3.908981E3,1.2324458E3,1.1179042E3,2.2816929E3,1.627288E3,5.4207477E2,6.9037103E2,9.091767E2,2.0872746E2,1.5215153E3,7.601776E2,7.6841113E2,8.588769E2],"tree_param":{"num_deleted":"0","num_feature":"106","num_nodes":"15","size_leaf_vector":"1"}},{"base_weights":[-1.3565573E-1,-3.1637052E-1,3.795859E-2,-1.6897051E-1,-4.6806747E-1,-1.7935096E-1,1.5595734E-1,-2.4584436E-3,1.0925596E-4,-3.8371624E-3,-6.009838E-3,-3.364555E-3,-1.1397864E-5,5.633688E-4,2.8927603E-3],"categories":[],"categories_nodes":[],"categories_segments":[],"categories_sizes":[],"default_left":[0,0,0,0,0,0,0,0,0,0,0,0,0,0,0],"id":30,"left_children":[1,3,5,7,9,11,13,-1,-1,-1,-1,-1,-1,-1,-1],"loss_changes":[1.963802E2,6.8495026E1,8.190394E1,2.1534859E1,1.6708069E1,3.1472519E1,2.747445E1,0E0,0E0,0E0,0E0,0E0,0E0,0E0,0E0],"parents":[2147483647,0,0,1,1,2,2,3,3,4,4,5,5,6,6],"right_children":[2,4,6,8,10,12,14,-1,-1,-1,-1,-1,-1,-1,-1],"split_conditions":[1.5E1,1.3E1,-1.4E0,6E0,2.3E1,2.2E1,2.4E1,-2.4584436E-3,1.0925596E-4,-3.8371624E-3,-6.009838E-3,-3.364555E-3,-1.1397864E-5,5.633688E-4,2.8927603E-3],"split_indices":[51,80,77,77,80,28,51,0,0,0,0,0,0,0,0],"split_type":[0,0,0,0,0,0,0,0,0,0,0,0,0,0,0],"sum_hessian":[6.257812E3,3.0658027E3,3.1920095E3,1.5559958E3,1.5098069E3,1.1231211E3,2.0688884E3,1.0898925E3,4.661034E2,9.260226E2,5.837843E2,5.964363E2,5.266848E2,1.1849066E3,8.839819E2],"tree_param":{"num_deleted":"0","num_feature":"106","num_nodes":"15","size_leaf_vector":"1"}},{"base_weights":[1.3565575E-1,3.1637052E-1,-3.7958574E-2,1.6897051E-1,4.6806747E-1,1.7935094E-1,-1.5595731E-1,2.4584436E-3,-1.0925596E-4,3.8371624E-3,6.009839E-3,3.3645548E-3,1.1397987E-5,-5.6336855E-4,-2.8927596E-3],"categories":[],"categories_nodes":[],"categories_segments":[],"categories_sizes":[],"default_left":[0,0,0,0,0,0,0,0,0,0,0,0,0,0,0],"id":31,"left_children":[1,3,5,7,9,11,13,-1,-1,-1,-1,-1,-1,-1,-1],"loss_changes":[1.9638019E2,6.8494995E1,8.1903915E1,2.1534859E1,1.6708069E1,3.1472515E1,2.7474442E1,0E0,0E0,0E0,0E0,0E0,0E0,0E0,0E0],"parents":[2147483647,0,0,1,1,2,2,3,3,4,4,5,5,6,6],"right_children":[2,4,6,8,10,12,14,-1,-1,-1,-1,-1,-1,-1,-1],"split_conditions":[1.5E1,1.3E1,-1.4E0,6E0,2.3E1,2.2E1,2.4E1,2.4584436E-3,-1.0925596E-4,3.8371624E-3,6.009839E-3,3.3645548E-3,1.1397987E-5,-5.6336855E-4,-2.8927596E-3],"split_indices":[51,80,77,77,80,28,51,0,0,0,0,0,0,0,0],"split_type":[0,0,0,0,0,0,0,0,0,0,0,0,0,0,0],"sum_hessian":[6.257812E3,3.0658027E3,3.1920095E3,1.5559958E3,1.5098069E3,1.1231211E3,2.0688884E3,1.0898925E3,4.661034E2,9.260226E2,5.837843E2,5.964363E2,5.2668475E2,1.1849066E3,8.839819E2],"tree_param":{"num_deleted":"0","num_feature":"106","num_nodes":"15","size_leaf_vector":"1"}},{"base_weights":[-1.3433549E-1,-3.1333053E-1,3.758393E-2,-1.6729808E-1,-4.637074E-1,-1.7759408E-1,1.54415E-1,-2.4342136E-3,1.08165244E-4,-3.8005041E-3,-5.956106E-3,-3.3321476E-3,-1.1284312E-5,5.5773987E-4,2.864537E-3],"categories":[],"categories_nodes":[],"categories_segments":[],"categories_sizes":[],"default_left":[0,0,0,0,0,0,0,0,0,0,0,0,0,0,0],"id":32,"left_children":[1,3,5,7,9,11,13,-1,-1,-1,-1,-1,-1,-1,-1],"loss_changes":[1.9256384E2,6.724356E1,8.028751E1,2.111145E1,1.6433594E1,3.0864113E1,2.6940453E1,0E0,0E0,0E0,0E0,0E0,0E0,0E0,0E0],"parents":[2147483647,0,0,1,1,2,2,3,3,4,4,5,5,6,6],"right_children":[2,4,6,8,10,12,14,-1,-1,-1,-1,-1,-1,-1,-1],"split_conditions":[1.5E1,1.3E1,-1.4E0,6E0,2.3E1,2.2E1,2.4E1,-2.4342136E-3,1.08165244E-4,-3.8005041E-3,-5.956106E-3,-3.3321476E-3,-1.1284312E-5,5.5773987E-4,2.864537E-3],"split_indices":[51,80,77,77,80,28,51,0,0,0,0,0,0,0,0],"split_type":[0,0,0,0,0,0,0,0,0,0,0,0,0,0,0],"sum_hessian":[6.2562314E3,3.0646394E3,3.191592E3,1.5558501E3,1.5087892E3,1.1229102E3,2.068682E3,1.0897444E3,4.661057E2,9.256168E2,5.831724E2,5.962254E2,5.2668475E2,1.1849066E3,8.837753E2],"tree_param":{"num_deleted":"0","num_feature":"106","num_nodes":"15","size_leaf_vector":"1"}},{"base_weights":[1.343355E-1,3.1333053E-1,-3.7583906E-2,1.6729808E-1,4.6370736E-1,1.7759408E-1,-1.5441497E-1,2.4342136E-3,-1.0816514E-4,3.8005034E-3,5.956106E-3,3.3321476E-3,1.1284557E-5,-5.577395E-4,-2.8645368E-3],"categories":[],"categories_nodes":[],"categories_segments":[],"categories_sizes":[],"default_left":[0,0,0,0,0,0,0,0,0,0,0,0,0,0,0],"id":33,"left_children":[1,3,5,7,9,11,13,-1,-1,-1,-1,-1,-1,-1,-1],"loss_changes":[1.925638E2,6.724356E1,8.0287506E1,2.1111443E1,1.6433594E1,3.0864101E1,2.6940456E1,0E0,0E0,0E0,0E0,0E0,0E0,0E0,0E0],"parents":[2147483647,0,0,1,1,2,2,3,3,4,4,5,5,6,6],"right_children":[2,4,6,8,10,12,14,-1,-1,-1,-1,-1,-1,-1,-1],"split_conditions":[1.5E1,1.3E1,-1.4E0,6E0,2.3E1,2.2E1,2.4E1,2.4342136E-3,-1.0816514E-4,3.8005034E-3,5.956106E-3,3.3321476E-3,1.1284557E-5,-5.577395E-4,-2.8645368E-3],"split_indices":[51,80,77,77,80,28,51,0,0,0,0,0,0,0,0],"split_type":[0,0,0,0,0,0,0,0,0,0,0,0,0,0,0],"sum_hessian":[6.2562314E3,3.0646394E3,3.191592E3,1.5558501E3,1.5087892E3,1.1229102E3,2.068682E3,1.0897444E3,4.661057E2,9.256168E2,5.831724E2,5.962254E2,5.2668475E2,1.1849066E3,8.837753E2],"tree_param":{"num_deleted":"0","num_feature":"106","num_nodes":"15","size_leaf_vector":"1"}},{"base_weights":[-1.3303015E-1,9.104075E-2,-2.678339E-1,-1.8198097E-1,1.7312641E-1,-3.684632E-1,-5.2049052E-2,-2.3940513E-5,-3.222254E-3,8.529379E-4,2.9253697E-3,-4.9101943E-3,-2.7751753E-3,7.3063356E-4,-1.7917773E-3],"categories":[],"categories_nodes":[],"categories_segments":[],"categories_sizes":[],"default_left":[0,0,0,0,0,0,0,0,0,0,0,0,0,0,0],"id":34,"left_children":[1,3,5,7,9,11,13,-1,-1,-1,-1,-1,-1,-1,-1],"loss_changes":[1.889772E2,5.270929E1,8.47977E1,1.3696075E1,1.8934345E1,2.955252E1,1.9789906E1,0E0,0E0,0E0,0E0,0E0,0E0,0E0,0E0],"parents":[2147483647,0,0,1,1,2,2,3,3,4,4,5,5,6,6],"right_children":[2,4,6,8,10,12,14,-1,-1,-1,-1,-1,-1,-1,-1],"split_conditions":[4.62E-1,3.73E-1,3E0,-4.7E0,2.6E1,-1.9E0,3.1E0,-2.3940513E-5,-3.222254E-3,8.529379E-4,2.9253697E-3,-4.9101943E-3,-2.7751753E-3,7.3063356E-4,-1.7917773E-3],"split_indices":[3,55,77,25,51,77,25,0,0,0,0,0,0,0,0],"split_type":[0,0,0,0,0,0,0,0,0,0,0,0,0,0,0],"sum_hessian":[6.254557E3,2.3495154E3,3.9050417E3,5.4282623E2,1.806689E3,2.6626372E3,1.2424044E3,2.3847256E2,3.0435367E2,1.0419762E3,7.647129E2,1.132333E3,1.5303043E3,6.26382E2,6.1602234E2],"tree_param":{"num_deleted":"0","num_feature":"106","num_nodes":"15","size_leaf_vector":"1"}},{"base_weights":[1.3303013E-1,-9.1040745E-2,2.6783386E-1,1.8198098E-1,-1.731264E-1,3.6846316E-1,5.2048996E-2,2.394084E-5,3.222254E-3,-8.529377E-4,-2.9253697E-3,4.910194E-3,2.7751753E-3,-7.306345E-4,1.791777E-3],"categories":[],"categories_nodes":[],"categories_segments":[],"categories_sizes":[],"default_left":[0,0,0,0,0,0,0,0,0,0,0,0,0,0,0],"id":35,"left_children":[1,3,5,7,9,11,13,-1,-1,-1,-1,-1,-1,-1,-1],"loss_changes":[1.8897717E2,5.2709297E1,8.479773E1,1.369607E1,1.8934341E1,2.955249E1,1.9789915E1,0E0,0E0,0E0,0E0,0E0,0E0,0E0,0E0],"parents":[2147483647,0,0,1,1,2,2,3,3,4,4,5,5,6,6],"right_children":[2,4,6,8,10,12,14,-1,-1,-1,-1,-1,-1,-1,-1],"split_conditions":[4.62E-1,3.73E-1,3E0,-4.7E0,2.6E1,-1.9E0,3.1E0,2.394084E-5,3.222254E-3,-8.529377E-4,-2.9253697E-3,4.910194E-3,2.7751753E-3,-7.306345E-4,1.791777E-3],"split_indices":[3,55,77,25,51,77,25,0,0,0,0,0,0,0,0],"split_type":[0,0,0,0,0,0,0,0,0,0,0,0,0,0,0],"sum_hessian":[6.254557E3,2.3495154E3,3.9050417E3,5.4282623E2,1.8066891E3,2.6626372E3,1.2424044E3,2.3847256E2,3.043537E2,1.0419762E3,7.647129E2,1.132333E3,1.5303043E3,6.26382E2,6.1602234E2],"tree_param":{"num_deleted":"0","num_feature":"106","num_nodes":"15","size_leaf_vector":"1"}},{"base_weights":[-1.3173884E-1,-3.0774832E-1,3.72367E-2,-1.640896E-1,-4.5584786E-1,-1.7433569E-1,1.5208058E-1,-2.3918233E-3,1.1572897E-4,-3.7330713E-3,-5.86141E-3,-3.2707166E-3,-1.2726665E-5,5.5443484E-4,2.8149106E-3],"categories":[],"categories_nodes":[],"categories_segments":[],"categories_sizes":[],"default_left":[0,0,0,0,0,0,0,0,0,0,0,0,0,0,0],"id":36,"left_children":[1,3,5,7,9,11,13,-1,-1,-1,-1,-1,-1,-1,-1],"loss_changes":[1.8600723E2,6.5098175E1,7.757392E1,2.0534515E1,1.5996246E1,2.9693134E1,2.586134E1,0E0,0E0,0E0,0E0,0E0,0E0,0E0,0E0],"parents":[2147483647,0,0,1,1,2,2,3,3,4,4,5,5,6,6],"right_children":[2,4,6,8,10,12,14,-1,-1,-1,-1,-1,-1,-1,-1],"split_conditions":[1.5E1,1.3E1,-1.4E0,6E0,2.3E1,2.2E1,2.4E1,-2.3918233E-3,1.1572897E-4,-3.7330713E-3,-5.86141E-3,-3.2707166E-3,-1.2726665E-5,5.5443484E-4,2.8149106E-3],"split_indices":[51,80,77,77,80,28,51,0,0,0,0,0,0,0,0],"split_type":[0,0,0,0,0,0,0,0,0,0,0,0,0,0,0],"sum_hessian":[6.252788E3,3.0622473E3,3.1905408E3,1.5554987E3,1.5067488E3,1.122354E3,2.0681868E3,1.0894259E3,4.660727E2,9.247713E2,5.819775E2,5.957169E2,5.266371E2,1.1848387E3,8.8334814E2],"tree_param":{"num_deleted":"0","num_feature":"106","num_nodes":"15","size_leaf_vector":"1"}},{"base_weights":[1.3173886E-1,3.0774835E-1,-3.7236698E-2,1.6408962E-1,4.558479E-1,1.7433569E-1,-1.5208058E-1,2.3918236E-3,-1.1572899E-4,3.7330713E-3,5.861411E-3,3.2707166E-3,1.27267485E-5,-5.5443466E-4,-2.8149108E-3],"categories":[],"categories_nodes":[],"categories_segments":[],"categories_sizes":[],"default_left":[0,0,0,0,0,0,0,0,0,0,0,0,0,0,0],"id":37,"left_children":[1,3,5,7,9,11,13,-1,-1,-1,-1,-1,-1,-1,-1],"loss_changes":[1.860073E2,6.5098206E1,7.7573906E1,2.053452E1,1.5996246E1,2.9693134E1,2.5861347E1,0E0,0E0,0E0,0E0,0E0,0E0,0E0,0E0],"parents":[2147483647,0,0,1,1,2,2,3,3,4,4,5,5,6,6],"right_children":[2,4,6,8,10,12,14,-1,-1,-1,-1,-1,-1,-1,-1],"split_conditions":[1.5E1,1.3E1,-1.4E0,6E0,2.3E1,2.2E1,2.4E1,2.3918236E-3,-1.1572899E-4,3.7330713E-3,5.861411E-3,3.2707166E-3,1.27267485E-5,-5.5443466E-4,-2.8149108E-3],"split_indices":[51,80,77,77,80,28,51,0,0,0,0,0,0,0,0],"split_type":[0,0,0,0,0,0,0,0,0,0,0,0,0,0,0],"sum_hessian":[6.252788E3,3.0622473E3,3.1905408E3,1.5554987E3,1.5067488E3,1.122354E3,2.068187E3,1.0894259E3,4.660727E2,9.2477136E2,5.819774E2,5.957169E2,5.266371E2,1.1848387E3,8.8334814E2],"tree_param":{"num_deleted":"0","num_feature":"106","num_nodes":"15","size_leaf_vector":"1"}},{"base_weights":[-1.3046215E-1,-3.0481035E-1,3.6869943E-2,-1.6246876E-1,-4.5164996E-1,-1.900646E-1,1.4193988E-1,-2.368318E-3,1.1457325E-4,-3.6976628E-3,-5.80998E-3,2.088126E-4,-3.1689715E-3,4.7327412E-4,2.6686566E-3],"categories":[],"categories_nodes":[],"categories_segments":[],"categories_sizes":[],"default_left":[0,0,0,0,0,0,0,0,0,0,0,0,0,0,0],"id":38,"left_children":[1,3,5,7,9,11,13,-1,-1,-1,-1,-1,-1,-1,-1],"loss_changes":[1.8240598E2,6.392447E1,7.6114525E1,2.0131676E1,1.5742004E1,2.7037148E1,2.5774654E1,0E0,0E0,0E0,0E0,0E0,0E0,0E0,0E0],"parents":[2147483647,0,0,1,1,2,2,3,3,4,4,5,5,6,6],"right_children":[2,4,6,8,10,12,14,-1,-1,-1,-1,-1,-1,-1,-1],"split_conditions":[1.5E1,1.3E1,-1.9E0,6E0,2.3E1,-4.3E0,2.4E1,-2.368318E-3,1.1457325E-4,-3.6976628E-3,-5.80998E-3,2.088126E-4,-3.1689715E-3,4.7327412E-4,2.6686566E-3],"split_indices":[51,80,77,77,80,25,51,0,0,0,0,0,0,0,0],"split_type":[0,0,0,0,0,0,0,0,0,0,0,0,0,0,0],"sum_hessian":[6.2509517E3,3.0608948E3,3.190057E3,1.5553221E3,1.5055726E3,1.0093059E3,2.180751E3,1.089247E3,4.6607516E2,9.243024E2,5.812702E2,3.7929837E2,6.300075E2,1.2417167E3,9.390343E2],"tree_param":{"num_deleted":"0","num_feature":"106","num_nodes":"15","size_leaf_vector":"1"}},{"base_weights":[1.3046217E-1,3.0481035E-1,-3.6869936E-2,1.6246876E-1,4.5165E-1,1.9006461E-1,-1.4193986E-1,2.3683181E-3,-1.14573784E-4,3.6976628E-3,5.8099804E-3,-2.0881227E-4,3.1689715E-3,-4.7327412E-4,-2.6686564E-3],"categories":[],"categories_nodes":[],"categories_segments":[],"categories_sizes":[],"default_left":[0,0,0,0,0,0,0,0,0,0,0,0,0,0,0],"id":39,"left_children":[1,3,5,7,9,11,13,-1,-1,-1,-1,-1,-1,-1,-1],"loss_changes":[1.8240596E2,6.39245E1,7.6114525E1,2.0131687E1,1.5742035E1,2.7037144E1,2.577465E1,0E0,0E0,0E0,0E0,0E0,0E0,0E0,0E0],"parents":[2147483647,0,0,1,1,2,2,3,3,4,4,5,5,6,6],"right_children":[2,4,6,8,10,12,14,-1,-1,-1,-1,-1,-1,-1,-1],"split_conditions":[1.5E1,1.3E1,-1.9E0,6E0,2.3E1,-4.3E0,2.4E1,2.3683181E-3,-1.14573784E-4,3.6976628E-3,5.8099804E-3,-2.0881227E-4,3.1689715E-3,-4.7327412E-4,-2.6686564E-3],"split_indices":[51,80,77,77,80,25,51,0,0,0,0,0,0,0,0],"split_type":[0,0,0,0,0,0,0,0,0,0,0,0,0,0,0],"sum_hessian":[6.2509517E3,3.0608948E3,3.190057E3,1.5553221E3,1.5055726E3,1.0093059E3,2.180751E3,1.089247E3,4.660752E2,9.2430237E2,5.812702E2,3.7929837E2,6.300075E2,1.2417167E3,9.390343E2],"tree_param":{"num_deleted":"0","num_feature":"106","num_nodes":"15","size_leaf_vector":"1"}},{"base_weights":[-1.2919967E-1,8.897811E-2,-2.6054975E-1,-5.0921317E-2,2.431544E-1,-3.5890558E-1,-4.9931794E-2,1.1540896E-3,-1.815265E-3,1.9990765E-3,4.2977626E-3,-2.9378154E-3,-5.221228E-3,7.315143E-4,-1.750413E-3],"categories":[],"categories_nodes":[],"categories_segments":[],"categories_sizes":[],"default_left":[0,0,0,0,0,0,0,0,0,0,0,0,0,0,0],"id":40,"left_children":[1,3,5,7,9,11,13,-1,-1,-1,-1,-1,-1,-1,-1],"loss_changes":[1.791344E2,5.0688324E1,8.080496E1,2.6797213E1,8.936203E0,2.8114532E1,1.9155926E1,0E0,0E0,0E0,0E0,0E0,0E0,0E0,0E0],"parents":[2147483647,0,0,1,1,2,2,3,3,4,4,5,5,6,6],"right_children":[2,4,6,8,10,12,14,-1,-1,-1,-1,-1,-1,-1,-1],"split_conditions":[4.62E-1,5.14E-1,3E0,-4.9E0,2.8E1,2.3E1,3.1E0,1.1540896E-3,-1.815265E-3,1.9990765E-3,4.2977626E-3,-2.9378154E-3,-5.221228E-3,7.315143E-4,-1.750413E-3],"split_indices":[3,55,77,25,47,80,25,0,0,0,0,0,0,0,0],"split_type":[0,0,0,0,0,0,0,0,0,0,0,0,0,0,0],"sum_hessian":[6.249028E3,2.3484614E3,3.9005667E3,1.2315887E3,1.1168727E3,2.6584167E3,1.2421499E3,5.417577E2,6.89831E2,9.084292E2,2.0844344E2,1.9022246E3,7.56192E2,6.2635486E2,6.1579504E2],"tree_param":{"num_deleted":"0","num_feature":"106","num_nodes":"15","size_leaf_vector":"1"}},{"base_weights":[1.2919967E-1,-8.89781E-2,2.6054975E-1,5.092133E-2,-2.431544E-1,3.5890558E-1,4.9931757E-2,-1.1540897E-3,1.8152654E-3,-1.9990762E-3,-4.297763E-3,2.9378154E-3,5.2212286E-3,-7.3151465E-4,1.7504127E-3],"categories":[],"categories_nodes":[],"categories_segments":[],"categories_sizes":[],"default_left":[0,0,0,0,0,0,0,0,0,0,0,0,0,0,0],"id":41,"left_children":[1,3,5,7,9,11,13,-1,-1,-1,-1,-1,-1,-1,-1],"loss_changes":[1.7913437E2,5.068834E1,8.080505E1,2.6797222E1,8.936211E0,2.8114532E1,1.9155924E1,0E0,0E0,0E0,0E0,0E0,0E0,0E0,0E0],"parents":[2147483647,0,0,1,1,2,2,3,3,4,4,5,5,6,6],"right_children":[2,4,6,8,10,12,14,-1,-1,-1,-1,-1,-1,-1,-1],"split_conditions":[4.62E-1,5.14E-1,3E0,-4.9E0,2.8E1,2.3E1,3.1E0,-1.1540897E-3,1.8152654E-3,-1.9990762E-3,-4.297763E-3,2.9378154E-3,5.2212286E-3,-7.3151465E-4,1.7504127E-3],"split_indices":[3,55,77,25,47,80,25,0,0,0,0,0,0,0,0],"split_type":[0,0,0,0,0,0,0,0,0,0,0,0,0,0,0],"sum_hessian":[6.249028E3,2.3484614E3,3.9005667E3,1.2315887E3,1.1168726E3,2.6584167E3,1.2421499E3,5.417577E2,6.89831E2,9.084292E2,2.0844342E2,1.9022246E3,7.56192E2,6.2635486E2,6.1579504E2],"tree_param":{"num_deleted":"0","num_feature":"106","num_nodes":"15","size_leaf_vector":"1"}},{"base_weights":[-1.2794839E-1,-2.994257E-1,3.6539726E-2,-1.5935409E-1,-4.4410777E-1,-1.6971655E-1,1.4845644E-1,-2.3269632E-3,1.21355464E-4,-3.6358123E-3,-5.7150126E-3,-3.1898085E-3,-7.756815E-6,5.447453E-4,2.7439657E-3],"categories":[],"categories_nodes":[],"categories_segments":[],"categories_sizes":[],"default_left":[0,0,0,0,0,0,0,0,0,0,0,0,0,0,0],"id":42,"left_children":[1,3,5,7,9,11,13,-1,-1,-1,-1,-1,-1,-1,-1],"loss_changes":[1.7624445E2,6.192578E1,7.365994E1,1.9572136E1,1.5223724E1,2.8306087E1,2.4466946E1,0E0,0E0,0E0,0E0,0E0,0E0,0E0,0E0],"parents":[2147483647,0,0,1,1,2,2,3,3,4,4,5,5,6,6],"right_children":[2,4,6,8,10,12,14,-1,-1,-1,-1,-1,-1,-1,-1],"split_conditions":[1.5E1,1.3E1,-1.4E0,6E0,2.3E1,2.2E1,2.4E1,-2.3269632E-3,1.21355464E-4,-3.6358123E-3,-5.7150126E-3,-3.1898085E-3,-7.756815E-6,5.447453E-4,2.7439657E-3],"split_indices":[51,80,77,77,80,28,51,0,0,0,0,0,0,0,0],"split_type":[0,0,0,0,0,0,0,0,0,0,0,0,0,0,0],"sum_hessian":[6.2470903E3,3.0581636E3,3.1889268E3,1.554907E3,1.5032566E3,1.121517E3,2.06741E3,1.0888666E3,4.660405E2,9.234131E2,5.798435E2,5.9496204E2,5.265549E2,1.1847394E3,8.826705E2],"tree_param":{"num_deleted":"0","num_feature":"106","num_nodes":"15","size_leaf_vector":"1"}},{"base_weights":[1.279484E-1,2.9942572E-1,-3.6539726E-2,1.5935409E-1,4.441078E-1,1.6971654E-1,-1.4845642E-1,2.326963E-3,-1.2135533E-4,3.6358123E-3,5.715013E-3,3.1898085E-3,7.756816E-6,-5.447452E-4,-2.7439657E-3],"categories":[],"categories_nodes":[],"categories_segments":[],"categories_sizes":[],"default_left":[0,0,0,0,0,0,0,0,0,0,0,0,0,0,0],"id":43,"left_children":[1,3,5,7,9,11,13,-1,-1,-1,-1,-1,-1,-1,-1],"loss_changes":[1.7624445E2,6.192581E1,7.365994E1,1.9572136E1,1.5223724E1,2.830608E1,2.446695E1,0E0,0E0,0E0,0E0,0E0,0E0,0E0,0E0],"parents":[2147483647,0,0,1,1,2,2,3,3,4,4,5,5,6,6],"right_children":[2,4,6,8,10,12,14,-1,-1,-1,-1,-1,-1,-1,-1],"split_conditions":[1.5E1,1.3E1,-1.4E0,6E0,2.3E1,2.2E1,2.4E1,2.326963E-3,-1.2135533E-4,3.6358123E-3,5.715013E-3,3.1898085E-3,7.756816E-6,-5.447452E-4,-2.7439657E-3],"split_indices":[51,80,77,77,80,28,51,0,0,0,0,0,0,0,0],"split_type":[0,0,0,0,0,0,0,0,0,0,0,0,0,0,0],"sum_hessian":[6.2470903E3,3.0581636E3,3.1889268E3,1.554907E3,1.5032566E3,1.1215168E3,2.06741E3,1.0888666E3,4.6604047E2,9.234131E2,5.798435E2,5.9496204E2,5.265549E2,1.1847395E3,8.826705E2],"tree_param":{"num_deleted":"0","num_feature":"106","num_nodes":"15","size_leaf_vector":"1"}},{"base_weights":[-1.2671319E-1,-2.9658422E-1,3.6180474E-2,-1.5778284E-1,-4.400614E-1,-1.8509167E-1,1.3858442E-1,-2.3041551E-3,1.20144E-4,-3.6015464E-3,-5.665767E-3,2.0537263E-4,-3.0887204E-3,4.6610265E-4,2.60107E-3],"categories":[],"categories_nodes":[],"categories_segments":[],"categories_sizes":[],"default_left":[0,0,0,0,0,0,0,0,0,0,0,0,0,0,0],"id":44,"left_children":[1,3,5,7,9,11,13,-1,-1,-1,-1,-1,-1,-1,-1],"loss_changes":[1.7284396E2,6.0822937E1,7.2294426E1,1.918898E1,1.4989777E1,2.570045E1,2.4363743E1,0E0,0E0,0E0,0E0,0E0,0E0,0E0,0E0],"parents":[2147483647,0,0,1,1,2,2,3,3,4,4,5,5,6,6],"right_children":[2,4,6,8,10,12,14,-1,-1,-1,-1,-1,-1,-1,-1],"split_conditions":[1.5E1,1.3E1,-1.9E0,6E0,2.3E1,-4.3E0,2.4E1,-2.3041551E-3,1.20144E-4,-3.6015464E-3,-5.665767E-3,2.0537263E-4,-3.0887204E-3,4.6610265E-4,2.60107E-3],"split_indices":[51,80,77,77,80,25,51,0,0,0,0,0,0,0,0],"split_type":[0,0,0,0,0,0,0,0,0,0,0,0,0,0,0],"sum_hessian":[6.245026E3,3.0566384E3,3.1883872E3,1.5547025E3,1.501936E3,1.0084796E3,2.1799075E3,1.0886593E3,4.660432E2,9.228888E2,5.7904724E2,3.7926437E2,6.292153E2,1.2415933E3,9.383143E2],"tree_param":{"num_deleted":"0","num_feature":"106","num_nodes":"15","size_leaf_vector":"1"}},{"base_weights":[1.2671317E-1,2.965842E-1,-3.6180474E-2,1.5778285E-1,4.4006136E-1,1.8509166E-1,-1.3858442E-1,2.304155E-3,-1.2014351E-4,3.6015462E-3,5.665767E-3,-2.0537252E-4,3.0887201E-3,-4.6610253E-4,-2.60107E-3],"categories":[],"categories_nodes":[],"categories_segments":[],"categories_sizes":[],"default_left":[0,0,0,0,0,0,0,0,0,0,0,0,0,0,0],"id":45,"left_children":[1,3,5,7,9,11,13,-1,-1,-1,-1,-1,-1,-1,-1],"loss_changes":[1.7284396E2,6.0822906E1,7.229441E1,1.9188965E1,1.4989777E1,2.5700443E1,2.4363739E1,0E0,0E0,0E0,0E0,0E0,0E0,0E0,0E0],"parents":[2147483647,0,0,1,1,2,2,3,3,4,4,5,5,6,6],"right_children":[2,4,6,8,10,12,14,-1,-1,-1,-1,-1,-1,-1,-1],"split_conditions":[1.5E1,1.3E1,-1.9E0,6E0,2.3E1,-4.3E0,2.4E1,2.304155E-3,-1.2014351E-4,3.6015462E-3,5.665767E-3,-2.0537252E-4,3.0887201E-3,-4.6610253E-4,-2.60107E-3],"split_indices":[51,80,77,77,80,25,51,0,0,0,0,0,0,0,0],"split_type":[0,0,0,0,0,0,0,0,0,0,0,0,0,0,0],"sum_hessian":[6.2450254E3,3.0566384E3,3.1883872E3,1.5547025E3,1.501936E3,1.0084797E3,2.1799075E3,1.0886593E3,4.6604318E2,9.228888E2,5.790472E2,3.792644E2,6.292153E2,1.2415933E3,9.383143E2],"tree_param":{"num_deleted":"0","num_feature":"106","num_nodes":"15","size_leaf_vector":"1"}},{"base_weights":[-1.2549151E-1,8.696707E-2,-2.5350136E-1,-4.9800787E-2,2.3771825E-1,-3.4966874E-1,-4.7889378E-2,1.1244238E-3,-1.7721765E-3,1.9502568E-3,4.220407E-3,-4.665382E-3,-2.6327274E-3,7.3208025E-4,-1.7102532E-3],"categories":[],"categories_nodes":[],"categories_segments":[],"categories_sizes":[],"default_left":[0,0,0,0,0,0,0,0,0,0,0,0,0,0,0],"id":46,"left_children":[1,3,5,7,9,11,13,-1,-1,-1,-1,-1,-1,-1,-1],"loss_changes":[1.6983559E2,4.842948E1,7.703044E1,2.5490452E1,8.709419E0,2.6681702E1,1.854543E1,0E0,0E0,0E0,0E0,0E0,0E0,0E0,0E0],"parents":[2147483647,0,0,1,1,2,2,3,3,4,4,5,5,6,6],"right_children":[2,4,6,8,10,12,14,-1,-1,-1,-1,-1,-1,-1,-1],"split_conditions":[4.62E-1,5.14E-1,3E0,-4.9E0,2.8E1,-1.9E0,3.1E0,1.1244238E-3,-1.7721765E-3,1.9502568E-3,4.220407E-3,-4.665382E-3,-2.6327274E-3,7.3208025E-4,-1.7102532E-3],"split_indices":[3,55,77,25,47,77,25,0,0,0,0,0,0,0,0],"split_type":[0,0,0,0,0,0,0,0,0,0,0,0,0,0,0],"sum_hessian":[6.242882E3,2.3473289E3,3.895553E3,1.231096E3,1.1162328E3,2.653688E3,1.2418651E3,5.415914E2,6.8950464E2,9.0798444E2,2.082483E2,1.126054E3,1.527634E3,6.2631964E2,6.155454E2],"tree_param":{"num_deleted":"0","num_feature":"106","num_nodes":"15","size_leaf_vector":"1"}},{"base_weights":[1.2549151E-1,-8.696705E-2,2.5350133E-1,4.980082E-2,-2.3771825E-1,3.4966874E-1,4.788935E-2,-1.1244233E-3,1.7721767E-3,-1.9502568E-3,-4.220407E-3,4.6653817E-3,2.6327274E-3,-7.320808E-4,1.7102532E-3],"categories":[],"categories_nodes":[],"categories_segments":[],"categories_sizes":[],"default_left":[0,0,0,0,0,0,0,0,0,0,0,0,0,0,0],"id":47,"left_children":[1,3,5,7,9,11,13,-1,-1,-1,-1,-1,-1,-1,-1],"loss_changes":[1.6983556E2,4.8429497E1,7.703046E1,2.549045E1,8.709423E0,2.6681702E1,1.8545439E1,0E0,0E0,0E0,0E0,0E0,0E0,0E0,0E0],"parents":[2147483647,0,0,1,1,2,2,3,3,4,4,5,5,6,6],"right_children":[2,4,6,8,10,12,14,-1,-1,-1,-1,-1,-1,-1,-1],"split_conditions":[4.62E-1,5.14E-1,3E0,-4.9E0,2.8E1,-1.9E0,3.1E0,-1.1244233E-3,1.7721767E-3,-1.9502568E-3,-4.220407E-3,4.6653817E-3,2.6327274E-3,-7.320808E-4,1.7102532E-3],"split_indices":[3,55,77,25,47,77,25,0,0,0,0,0,0,0,0],"split_type":[0,0,0,0,0,0,0,0,0,0,0,0,0,0,0],"sum_hessian":[6.242882E3,2.3473289E3,3.895553E3,1.231096E3,1.1162328E3,2.653688E3,1.2418651E3,5.415914E2,6.8950464E2,9.0798444E2,2.082483E2,1.126054E3,1.527634E3,6.2631964E2,6.155454E2],"tree_param":{"num_deleted":"0","num_feature":"106","num_nodes":"15","size_leaf_vector":"1"}},{"base_weights":[-1.2428E-1,-2.9136845E-1,3.5849024E-2,-1.5479827E-1,-4.3273917E-1,-1.6515101E-1,1.4486858E-1,-2.2645504E-3,1.2662976E-4,-3.5379052E-3,-5.579219E-3,-3.1098598E-3,-2.9626888E-6,5.3430774E-4,2.674932E-3],"categories":[],"categories_nodes":[],"categories_segments":[],"categories_sizes":[],"default_left":[0,0,0,0,0,0,0,0,0,0,0,0,0,0,0],"id":48,"left_children":[1,3,5,7,9,11,13,-1,-1,-1,-1,-1,-1,-1,-1],"loss_changes":[1.6701291E2,5.8908386E1,6.988545E1,1.8665337E1,1.4630737E1,2.6964693E1,2.316819E1,0E0,0E0,0E0,0E0,0E0,0E0,0E0,0E0],"parents":[2147483647,0,0,1,1,2,2,3,3,4,4,5,5,6,6],"right_children":[2,4,6,8,10,12,14,-1,-1,-1,-1,-1,-1,-1,-1],"split_conditions":[1.5E1,1.3E1,-1.4E0,6E0,2.3E1,2.2E1,2.4E1,-2.2645504E-3,1.2662976E-4,-3.5379052E-3,-5.579219E-3,-3.1098598E-3,-2.9626888E-6,5.3430774E-4,2.674932E-3],"split_indices":[51,80,77,77,80,28,51,0,0,0,0,0,0,0,0],"split_type":[0,0,0,0,0,0,0,0,0,0,0,0,0,0,0],"sum_hessian":[6.240749E3,3.0536074E3,3.1871414E3,1.5542399E3,1.4993676E3,1.1205892E3,2.0665522E3,1.0882323E3,4.6600763E2,9.218275E2,5.775401E2,5.9412427E2,5.264649E2,1.1846367E3,8.819154E2],"tree_param":{"num_deleted":"0","num_feature":"106","num_nodes":"15","size_leaf_vector":"1"}},{"base_weights":[1.2428E-1,2.9136845E-1,-3.5849024E-2,1.5479827E-1,4.3273917E-1,1.6515101E-1,-1.4486858E-1,2.2645504E-3,-1.2662962E-4,3.5379052E-3,5.579219E-3,3.10986E-3,2.9625166E-6,-5.343077E-4,-2.674932E-3],"categories":[],"categories_nodes":[],"categories_segments":[],"categories_sizes":[],"default_left":[0,0,0,0,0,0,0,0,0,0,0,0,0,0,0],"id":49,"left_children":[1,3,5,7,9,11,13,-1,-1,-1,-1,-1,-1,-1,-1],"loss_changes":[1.6701291E2,5.8908386E1,6.988547E1,1.8665329E1,1.4630768E1,2.6964706E1,2.316819E1,0E0,0E0,0E0,0E0,0E0,0E0,0E0,0E0],"parents":[2147483647,0,0,1,1,2,2,3,3,4,4,5,5,6,6],"right_children":[2,4,6,8,10,12,14,-1,-1,-1,-1,-1,-1,-1,-1],"split_conditions":[1.5E1,1.3E1,-1.4E0,6E0,2.3E1,2.2E1,2.4E1,2.2645504E-3,-1.2662962E-4,3.5379052E-3,5.579219E-3,3.10986E-3,2.9625166E-6,-5.343077E-4,-2.674932E-3],"split_indices":[51,80,77,77,80,28,51,0,0,0,0,0,0,0,0],"split_type":[0,0,0,0,0,0,0,0,0,0,0,0,0,0,0],"sum_hessian":[6.2407485E3,3.0536074E3,3.1871414E3,1.5542399E3,1.4993676E3,1.1205892E3,2.066552E3,1.0882323E3,4.6600763E2,9.218275E2,5.775401E2,5.9412427E2,5.264649E2,1.1846367E3,8.8191534E2],"tree_param":{"num_deleted":"0","num_feature":"106","num_nodes":"15","size_leaf_vector":"1"}},{"base_weights":[-1.2308437E-1,-2.2894722E-1,1.2498076E-1,-9.662364E-2,-3.796557E-1,-7.7600046E-3,2.7115119E-1,-2.3419461E-3,5.0821633E-5,-3.0457957E-3,-5.0056004E-3,1.0975511E-3,-1.5574191E-3,3.9646104E-3,1.9776854E-3],"categories":[],"categories_nodes":[],"categories_segments":[],"categories_sizes":[],"default_left":[0,0,0,0,0,0,0,0,0,0,0,0,0,0,0],"id":50,"left_children":[1,3,5,7,9,11,13,-1,-1,-1,-1,-1,-1,-1,-1],"loss_changes":[1.638828E2,8.7181915E1,3.6225677E1,3.2604286E1,1.840448E1,1.7048664E1,8.09227E0,0E0,0E0,0E0,0E0,0E0,0E0,0E0,0E0],"parents":[2147483647,0,0,1,1,2,2,3,3,4,4,5,5,6,6],"right_children":[2,4,6,8,10,12,14,-1,-1,-1,-1,-1,-1,-1,-1],"split_conditions":[2E1,1.4E1,5.14E-1,9E0,3.4E0,-4.3E0,-6.1E0,-2.3419461E-3,5.0821633E-5,-3.0457957E-3,-5.0056004E-3,1.0975511E-3,-1.5574191E-3,3.9646104E-3,1.9776854E-3],"split_indices":[28,80,55,51,25,25,25,0,0,0,0,0,0,0,0],"split_type":[0,0,0,0,0,0,0,0,0,0,0,0,0,0,0],"sum_hessian":[6.2384775E3,4.3725503E3,1.8659274E3,2.3291626E3,2.0433876E3,9.783824E2,8.875449E2,9.8946857E2,1.339694E3,1.2627789E3,7.806087E2,5.454717E2,4.3291064E2,3.2616885E2,5.613761E2],"tree_param":{"num_deleted":"0","num_feature":"106","num_nodes":"15","size_leaf_vector":"1"}},{"base_weights":[1.23084374E-1,2.2894722E-1,-1.24980755E-1,9.6623644E-2,3.796557E-1,7.7599827E-3,-2.7115116E-1,2.3419461E-3,-5.0821494E-5,3.0457957E-3,5.005601E-3,-1.0975513E-3,1.5574188E-3,-3.9646104E-3,-1.977685E-3],"categories":[],"categories_nodes":[],"categories_segments":[],"categories_sizes":[],"default_left":[0,0,0,0,0,0,0,0,0,0,0,0,0,0,0],"id":51,"left_children":[1,3,5,7,9,11,13,-1,-1,-1,-1,-1,-1,-1,-1],"loss_changes":[1.6388281E2,8.7181915E1,3.6225662E1,3.2604275E1,1.840448E1,1.7048662E1,8.09227E0,0E0,0E0,0E0,0E0,0E0,0E0,0E0,0E0],"parents":[2147483647,0,0,1,1,2,2,3,3,4,4,5,5,6,6],"right_children":[2,4,6,8,10,12,14,-1,-1,-1,-1,-1,-1,-1,-1],"split_conditions":[2E1,1.4E1,5.14E-1,9E0,3.4E0,-4.3E0,-6.1E0,2.3419461E-3,-5.0821494E-5,3.0457957E-3,5.005601E-3,-1.0975513E-3,1.5574188E-3,-3.9646104E-3,-1.977685E-3],"split_indices":[28,80,55,51,25,25,25,0,0,0,0,0,0,0,0],"split_type":[0,0,0,0,0,0,0,0,0,0,0,0,0,0,0],"sum_hessian":[6.2384775E3,4.3725503E3,1.8659274E3,2.3291626E3,2.0433876E3,9.783824E2,8.875449E2,9.894686E2,1.339694E3,1.2627789E3,7.806087E2,5.4547174E2,4.3291068E2,3.2616885E2,5.613761E2],"tree_param":{"num_deleted":"0","num_feature":"106","num_nodes":"15","size_leaf_vector":"1"}},{"base_weights":[-1.2189869E-1,-2.8613004E-1,3.5384726E-2,-1.5193227E-1,-4.2526037E-1,-1.790218E-1,1.3455236E-1,-2.2290652E-3,1.3884017E-4,-3.4684872E-3,-5.4976023E-3,1.9520319E-4,-2.9873438E-3,4.60542E-4,2.5159442E-3],"categories":[],"categories_nodes":[],"categories_segments":[],"categories_sizes":[],"default_left":[0,0,0,0,0,0,0,0,0,0,0,0,0,0,0],"id":52,"left_children":[1,3,5,7,9,11,13,-1,-1,-1,-1,-1,-1,-1,-1],"loss_changes":[1.6112323E2,5.6906754E1,6.778454E1,1.8300518E1,1.4429016E1,2.397071E1,2.2564884E1,0E0,0E0,0E0,0E0,0E0,0E0,0E0,0E0],"parents":[2147483647,0,0,1,1,2,2,3,3,4,4,5,5,6,6],"right_children":[2,4,6,8,10,12,14,-1,-1,-1,-1,-1,-1,-1,-1],"split_conditions":[1.5E1,1.3E1,-1.9E0,6E0,2.3E1,-4.3E0,2.4E1,-2.2290652E-3,1.3884017E-4,-3.4684872E-3,-5.4976023E-3,1.9520319E-4,-2.9873438E-3,4.60542E-4,2.5159442E-3],"split_indices":[51,80,77,77,80,25,51,0,0,0,0,0,0,0,0],"split_type":[0,0,0,0,0,0,0,0,0,0,0,0,0,0,0],"sum_hessian":[6.236232E3,3.0503325E3,3.1858992E3,1.5537548E3,1.4965779E3,1.00728394E3,2.1786152E3,1.0878E3,4.6595474E2,9.2057416E2,5.7600366E2,3.7920807E2,6.2807587E2,1.2413761E3,9.372391E2],"tree_param":{"num_deleted":"0","num_feature":"106","num_nodes":"15","size_leaf_vector":"1"}},{"base_weights":[1.21898696E-1,2.8613004E-1,-3.5384722E-2,1.519323E-1,4.2526034E-1,1.7902179E-1,-1.3455234E-1,2.2290656E-3,-1.3884013E-4,3.468487E-3,5.4976023E-3,-1.9520307E-4,2.9873436E-3,-4.6054184E-4,-2.5159442E-3],"categories":[],"categories_nodes":[],"categories_segments":[],"categories_sizes":[],"default_left":[0,0,0,0,0,0,0,0,0,0,0,0,0,0,0],"id":53,"left_children":[1,3,5,7,9,11,13,-1,-1,-1,-1,-1,-1,-1,-1],"loss_changes":[1.6112323E2,5.6906723E1,6.778452E1,1.8300518E1,1.4429047E1,2.3970707E1,2.2564888E1,0E0,0E0,0E0,0E0,0E0,0E0,0E0,0E0],"parents":[2147483647,0,0,1,1,2,2,3,3,4,4,5,5,6,6],"right_children":[2,4,6,8,10,12,14,-1,-1,-1,-1,-1,-1,-1,-1],"split_conditions":[1.5E1,1.3E1,-1.9E0,6E0,2.3E1,-4.3E0,2.4E1,2.2290656E-3,-1.3884013E-4,3.468487E-3,5.4976023E-3,-1.9520307E-4,2.9873436E-3,-4.6054184E-4,-2.5159442E-3],"split_indices":[51,80,77,77,80,25,51,0,0,0,0,0,0,0,0],"split_type":[0,0,0,0,0,0,0,0,0,0,0,0,0,0,0],"sum_hessian":[6.236232E3,3.0503325E3,3.1858992E3,1.5537548E3,1.4965779E3,1.00728394E3,2.1786152E3,1.0878E3,4.6595474E2,9.205742E2,5.7600366E2,3.7920807E2,6.2807587E2,1.2413761E3,9.372391E2],"tree_param":{"num_deleted":"0","num_feature":"106","num_nodes":"15","size_leaf_vector":"1"}},{"base_weights":[-1.2072848E-1,8.433416E-2,-2.4442774E-1,-1.7039634E-1,1.6091973E-1,-3.3799914E-1,-4.481155E-2,1.6176049E-4,-2.8980046E-3,8.0179865E-4,2.7091247E-3,-2.7638122E-3,-4.9331808E-3,7.33656E-4,-1.6505172E-3],"categories":[],"categories_nodes":[],"categories_segments":[],"categories_sizes":[],"default_left":[0,0,0,0,0,0,0,0,0,0,0,0,0,0,0],"id":54,"left_children":[1,3,5,7,9,11,13,-1,-1,-1,-1,-1,-1,-1,-1],"loss_changes":[1.5817404E2,4.5807453E1,7.262848E1,1.2099747E1,1.6005661E1,2.5204163E1,1.7666084E1,0E0,0E0,0E0,0E0,0E0,0E0,0E0,0E0],"parents":[2147483647,0,0,1,1,2,2,3,3,4,4,5,5,6,6],"right_children":[2,4,6,8,10,12,14,-1,-1,-1,-1,-1,-1,-1,-1],"split_conditions":[4.62E-1,3.73E-1,3E0,3.21E-1,2.6E1,2.3E1,3.1E0,1.6176049E-4,-2.8980046E-3,8.0179865E-4,2.7091247E-3,-2.7638122E-3,-4.9331808E-3,7.33656E-4,-1.6505172E-3],"split_indices":[3,55,77,3,51,80,25,0,0,0,0,0,0,0,0],"split_type":[0,0,0,0,0,0,0,0,0,0,0,0,0,0,0],"sum_hessian":[6.233835E3,2.3456494E3,3.8881855E3,5.419269E2,1.8037225E3,2.6467915E3,1.2413942E3,2.1181866E2,3.3010825E2,1.0411779E3,7.625446E2,1.8969967E3,7.497946E2,6.262646E2,6.151295E2],"tree_param":{"num_deleted":"0","num_feature":"106","num_nodes":"15","size_leaf_vector":"1"}},{"base_weights":[1.20728455E-1,-8.433416E-2,2.4442771E-1,1.7039633E-1,-1.6091973E-1,3.379991E-1,4.4811524E-2,-1.6176044E-4,2.8980046E-3,-8.017988E-4,-2.7091247E-3,2.763812E-3,4.93318E-3,-7.336563E-4,1.6505171E-3],"categories":[],"categories_nodes":[],"categories_segments":[],"categories_sizes":[],"default_left":[0,0,0,0,0,0,0,0,0,0,0,0,0,0,0],"id":55,"left_children":[1,3,5,7,9,11,13,-1,-1,-1,-1,-1,-1,-1,-1],"loss_changes":[1.5817401E2,4.5807457E1,7.262848E1,1.2099747E1,1.6005657E1,2.5204132E1,1.7666086E1,0E0,0E0,0E0,0E0,0E0,0E0,0E0,0E0],"parents":[2147483647,0,0,1,1,2,2,3,3,4,4,5,5,6,6],"right_children":[2,4,6,8,10,12,14,-1,-1,-1,-1,-1,-1,-1,-1],"split_conditions":[4.62E-1,3.73E-1,3E0,3.21E-1,2.6E1,2.3E1,3.1E0,-1.6176044E-4,2.8980046E-3,-8.017988E-4,-2.7091247E-3,2.763812E-3,4.93318E-3,-7.336563E-4,1.6505171E-3],"split_indices":[3,55,77,3,51,80,25,0,0,0,0,0,0,0,0],"split_type":[0,0,0,0,0,0,0,0,0,0,0,0,0,0,0],"sum_hessian":[6.233835E3,2.3456494E3,3.8881855E3,5.419269E2,1.8037225E3,2.6467915E3,1.2413942E3,2.1181866E2,3.3010825E2,1.0411779E3,7.625446E2,1.8969967E3,7.497947E2,6.262646E2,6.151295E2],"tree_param":{"num_deleted":"0","num_feature":"106","num_nodes":"15","size_leaf_vector":"1"}},{"base_weights":[-1.1956897E-1,-2.8113154E-1,3.505486E-2,-1.4899851E-1,-4.1833773E-1,-1.5970612E-1,1.40634E-1,-2.190164E-3,1.452102E-4,-3.41173E-3,-5.4108566E-3,-3.010549E-3,-1.9655054E-6,5.28534E-4,2.5848898E-3],"categories":[],"categories_nodes":[],"categories_segments":[],"categories_sizes":[],"default_left":[0,0,0,0,0,0,0,0,0,0,0,0,0,0,0],"id":56,"left_children":[1,3,5,7,9,11,13,-1,-1,-1,-1,-1,-1,-1,-1],"loss_changes":[1.5570503E2,5.5195282E1,6.552481E1,1.7798023E1,1.3973053E1,2.5258116E1,2.1362198E1,0E0,0E0,0E0,0E0,0E0,0E0,0E0,0E0],"parents":[2147483647,0,0,1,1,2,2,3,3,4,4,5,5,6,6],"right_children":[2,4,6,8,10,12,14,-1,-1,-1,-1,-1,-1,-1,-1],"split_conditions":[1.5E1,1.3E1,-1.4E0,6E0,2.3E1,2.2E1,2.4E1,-2.190164E-3,1.452102E-4,-3.41173E-3,-5.4108566E-3,-3.010549E-3,-1.9655054E-6,5.28534E-4,2.5848898E-3],"split_indices":[51,80,77,77,80,28,51,0,0,0,0,0,0,0,0],"split_type":[0,0,0,0,0,0,0,0,0,0,0,0,0,0,0],"sum_hessian":[6.2314385E3,3.0469443E3,3.1844941E3,1.5532305E3,1.493714E3,1.1192712E3,2.065223E3,1.0873119E3,4.6591855E2,9.194729E2,5.742411E2,5.9294653E2,5.2632465E2,1.184462E3,8.80761E2],"tree_param":{"num_deleted":"0","num_feature":"106","num_nodes":"15","size_leaf_vector":"1"}},{"base_weights":[1.1956898E-1,2.8113157E-1,-3.505485E-2,1.4899854E-1,4.1833776E-1,1.5970612E-1,-1.4063399E-1,2.1901645E-3,-1.4521027E-4,3.4117305E-3,5.410857E-3,3.0105487E-3,1.965522E-6,-5.285338E-4,-2.5848898E-3],"categories":[],"categories_nodes":[],"categories_segments":[],"categories_sizes":[],"default_left":[0,0,0,0,0,0,0,0,0,0,0,0,0,0,0],"id":57,"left_children":[1,3,5,7,9,11,13,-1,-1,-1,-1,-1,-1,-1,-1],"loss_changes":[1.5570506E2,5.5195267E1,6.5524796E1,1.7798027E1,1.3973053E1,2.5258114E1,2.1362213E1,0E0,0E0,0E0,0E0,0E0,0E0,0E0,0E0],"parents":[2147483647,0,0,1,1,2,2,3,3,4,4,5,5,6,6],"right_children":[2,4,6,8,10,12,14,-1,-1,-1,-1,-1,-1,-1,-1],"split_conditions":[1.5E1,1.3E1,-1.4E0,6E0,2.3E1,2.2E1,2.4E1,2.1901645E-3,-1.4521027E-4,3.4117305E-3,5.410857E-3,3.0105487E-3,1.965522E-6,-5.285338E-4,-2.5848898E-3],"split_indices":[51,80,77,77,80,28,51,0,0,0,0,0,0,0,0],"split_type":[0,0,0,0,0,0,0,0,0,0,0,0,0,0,0],"sum_hessian":[6.231439E3,3.0469446E3,3.1844941E3,1.5532305E3,1.493714E3,1.1192712E3,2.0652231E3,1.0873119E3,4.6591855E2,9.194729E2,5.742411E2,5.929466E2,5.2632465E2,1.184462E3,8.80761E2],"tree_param":{"num_deleted":"0","num_feature":"106","num_nodes":"15","size_leaf_vector":"1"}},{"base_weights":[-1.1842334E-1,-2.7849495E-1,3.4711394E-2,-1.4753446E-1,-4.1460705E-1,-1.7424507E-1,1.3130927E-1,-2.168805E-3,1.4376038E-4,-3.3800043E-3,-5.3658783E-3,1.9715776E-4,-2.9135915E-3,4.5506205E-4,2.4488755E-3],"categories":[],"categories_nodes":[],"categories_segments":[],"categories_sizes":[],"default_left":[0,0,0,0,0,0,0,0,0,0,0,0,0,0,0],"id":58,"left_children":[1,3,5,7,9,11,13,-1,-1,-1,-1,-1,-1,-1,-1],"loss_changes":[1.5272098E2,5.4236237E1,6.430817E1,1.7450905E1,1.3771088E1,2.2886782E1,2.1219696E1,0E0,0E0,0E0,0E0,0E0,0E0,0E0,0E0],"parents":[2147483647,0,0,1,1,2,2,3,3,4,4,5,5,6,6],"right_children":[2,4,6,8,10,12,14,-1,-1,-1,-1,-1,-1,-1,-1],"split_conditions":[1.5E1,1.3E1,-1.9E0,6E0,2.3E1,-4.3E0,2.4E1,-2.168805E-3,1.4376038E-4,-3.3800043E-3,-5.3658783E-3,1.9715776E-4,-2.9135915E-3,4.5506205E-4,2.4488755E-3],"split_indices":[51,80,77,77,80,25,51,0,0,0,0,0,0,0,0],"split_type":[0,0,0,0,0,0,0,0,0,0,0,0,0,0,0],"sum_hessian":[6.228929E3,3.0450852E3,3.1838438E3,1.552973E3,1.4921122E3,1.0062855E3,2.177558E3,1.0870509E3,4.659221E2,9.18835E2,5.732772E2,3.7916135E2,6.2712415E2,1.2412515E3,9.363067E2],"tree_param":{"num_deleted":"0","num_feature":"106","num_nodes":"15","size_leaf_vector":"1"}},{"base_weights":[1.1842334E-1,2.7849498E-1,-3.471141E-2,1.4753447E-1,4.1460705E-1,1.7424507E-1,-1.313093E-1,2.1688056E-3,-1.4376058E-4,3.3800043E-3,5.365879E-3,-1.9715755E-4,2.9135912E-3,-4.5506243E-4,-2.4488755E-3],"categories":[],"categories_nodes":[],"categories_segments":[],"categories_sizes":[],"default_left":[0,0,0,0,0,0,0,0,0,0,0,0,0,0,0],"id":59,"left_children":[1,3,5,7,9,11,13,-1,-1,-1,-1,-1,-1,-1,-1],"loss_changes":[1.5272098E2,5.423625E1,6.430817E1,1.745092E1,1.3771057E1,2.2886774E1,2.1219696E1,0E0,0E0,0E0,0E0,0E0,0E0,0E0,0E0],"parents":[2147483647,0,0,1,1,2,2,3,3,4,4,5,5,6,6],"right_children":[2,4,6,8,10,12,14,-1,-1,-1,-1,-1,-1,-1,-1],"split_conditions":[1.5E1,1.3E1,-1.9E0,6E0,2.3E1,-4.3E0,2.4E1,2.1688056E-3,-1.4376058E-4,3.3800043E-3,5.365879E-3,-1.9715755E-4,2.9135912E-3,-4.5506243E-4,-2.4488755E-3],"split_indices":[51,80,77,77,80,25,51,0,0,0,0,0,0,0,0],"split_type":[0,0,0,0,0,0,0,0,0,0,0,0,0,0,0],"sum_hessian":[6.228929E3,3.0450852E3,3.1838438E3,1.552973E3,1.4921122E3,1.0062855E3,2.1775583E3,1.0870509E3,4.659221E2,9.1883496E2,5.732772E2,3.7916135E2,6.2712415E2,1.2412516E3,9.363067E2],"tree_param":{"num_deleted":"0","num_feature":"106","num_nodes":"15","size_leaf_vector":"1"}},{"base_weights":[-1.1728987E-1,-2.1883625E-1,1.20357186E-1,-9.183125E-2,-3.639947E-1,-8.142777E-3,2.6193568E-1,-2.2531413E-3,6.753929E-5,-2.9087442E-3,-4.8198528E-3,1.0452688E-3,-1.500681E-3,3.834435E-3,1.9088609E-3],"categories":[],"categories_nodes":[],"categories_segments":[],"categories_sizes":[],"default_left":[0,0,0,0,0,0,0,0,0,0,0,0,0,0,0],"id":60,"left_children":[1,3,5,7,9,11,13,-1,-1,-1,-1,-1,-1,-1,-1],"loss_changes":[1.5030615E2,8.040939E1,3.393116E1,3.0643959E1,1.742398E1,1.5664305E1,7.587433E0,0E0,0E0,0E0,0E0,0E0,0E0,0E0,0E0],"parents":[2147483647,0,0,1,1,2,2,3,3,4,4,5,5,6,6],"right_children":[2,4,6,8,10,12,14,-1,-1,-1,-1,-1,-1,-1,-1],"split_conditions":[2E1,1.4E1,5.14E-1,9E0,3.4E0,-4.3E0,-6.1E0,-2.2531413E-3,6.753929E-5,-2.9087442E-3,-4.8198528E-3,1.0452688E-3,-1.500681E-3,3.834435E-3,1.9088609E-3],"split_indices":[28,80,55,51,25,25,25,0,0,0,0,0,0,0,0],"split_type":[0,0,0,0,0,0,0,0,0,0,0,0,0,0,0],"sum_hessian":[6.2263574E3,4.362391E3,1.8639667E3,2.327553E3,2.0348379E3,9.7760864E2,8.8635803E2,9.882251E2,1.3393278E3,1.258435E3,7.764029E2,5.4512E2,4.3248862E2,3.2542493E2,5.609331E2],"tree_param":{"num_deleted":"0","num_feature":"106","num_nodes":"15","size_leaf_vector":"1"}},{"base_weights":[1.1728987E-1,2.1883625E-1,-1.2035718E-1,9.183126E-2,3.6399466E-1,8.142768E-3,-2.6193565E-1,2.2531413E-3,-6.753918E-5,2.9087442E-3,4.819852E-3,-1.0452688E-3,1.5006808E-3,-3.8344343E-3,-1.9088611E-3],"categories":[],"categories_nodes":[],"categories_segments":[],"categories_sizes":[],"default_left":[0,0,0,0,0,0,0,0,0,0,0,0,0,0,0],"id":61,"left_children":[1,3,5,7,9,11,13,-1,-1,-1,-1,-1,-1,-1,-1],"loss_changes":[1.5030617E2,8.040932E1,3.393115E1,3.0643957E1,1.7424011E1,1.5664303E1,7.587433E0,0E0,0E0,0E0,0E0,0E0,0E0,0E0,0E0],"parents":[2147483647,0,0,1,1,2,2,3,3,4,4,5,5,6,6],"right_children":[2,4,6,8,10,12,14,-1,-1,-1,-1,-1,-1,-1,-1],"split_conditions":[2E1,1.4E1,5.14E-1,9E0,3.4E0,-4.3E0,-6.1E0,2.2531413E-3,-6.753918E-5,2.9087442E-3,4.819852E-3,-1.0452688E-3,1.5006808E-3,-3.8344343E-3,-1.9088611E-3],"split_indices":[28,80,55,51,25,25,25,0,0,0,0,0,0,0,0],"split_type":[0,0,0,0,0,0,0,0,0,0,0,0,0,0,0],"sum_hessian":[6.2263574E3,4.3623906E3,1.8639667E3,2.327553E3,2.0348379E3,9.7760864E2,8.8635803E2,9.882251E2,1.3393278E3,1.258435E3,7.764029E2,5.4512E2,4.3248862E2,3.2542493E2,5.609331E2],"tree_param":{"num_deleted":"0","num_feature":"106","num_nodes":"15","size_leaf_vector":"1"}},{"base_weights":[-1.16165124E-1,-2.1675535E-1,1.1918304E-1,-9.092592E-2,-3.606783E-1,-8.062542E-3,2.5941858E-1,-2.2313257E-3,6.68643E-5,-2.8020733E-3,-4.681659E-3,1.1453242E-3,-1.3596135E-3,3.798827E-3,1.8901501E-3],"categories":[],"categories_nodes":[],"categories_segments":[],"categories_sizes":[],"default_left":[0,0,0,0,0,0,0,0,0,0,0,0,0,0,0],"id":62,"left_children":[1,3,5,7,9,11,13,-1,-1,-1,-1,-1,-1,-1,-1],"loss_changes":[1.4739113E2,7.8949036E1,3.3273857E1,3.0047543E1,1.7462555E1,1.5358554E1,7.4512024E0,0E0,0E0,0E0,0E0,0E0,0E0,0E0,0E0],"parents":[2147483647,0,0,1,1,2,2,3,3,4,4,5,5,6,6],"right_children":[2,4,6,8,10,12,14,-1,-1,-1,-1,-1,-1,-1,-1],"split_conditions":[2E1,1.4E1,5.14E-1,9E0,2.4E1,-4.9E0,-6.1E0,-2.2313257E-3,6.68643E-5,-2.8020733E-3,-4.681659E-3,1.1453242E-3,-1.3596135E-3,3.798827E-3,1.8901501E-3],"split_indices":[28,80,55,51,103,25,25,0,0,0,0,0,0,0,0],"split_type":[0,0,0,0,0,0,0,0,0,0,0,0,0,0,0],"sum_hessian":[6.2238457E3,4.360291E3,1.8635543E3,2.3272483E3,2.0330428E3,9.7752216E2,8.860322E2,9.879194E2,1.339329E3,1.1646962E3,8.683467E2,4.9916327E2,4.783589E2,3.252009E2,5.608313E2],"tree_param":{"num_deleted":"0","num_feature":"106","num_nodes":"15","size_leaf_vector":"1"}},{"base_weights":[1.1616512E-1,2.1675536E-1,-1.1918306E-1,9.092592E-2,3.6067832E-1,8.062551E-3,-2.5941864E-1,2.2313262E-3,-6.686455E-5,2.8020735E-3,4.681659E-3,-1.145324E-3,1.3596135E-3,-3.7988275E-3,-1.8901508E-3],"categories":[],"categories_nodes":[],"categories_segments":[],"categories_sizes":[],"default_left":[0,0,0,0,0,0,0,0,0,0,0,0,0,0,0],"id":63,"left_children":[1,3,5,7,9,11,13,-1,-1,-1,-1,-1,-1,-1,-1],"loss_changes":[1.4739116E2,7.894905E1,3.3273876E1,3.0047558E1,1.7462555E1,1.5358553E1,7.451206E0,0E0,0E0,0E0,0E0,0E0,0E0,0E0,0E0],"parents":[2147483647,0,0,1,1,2,2,3,3,4,4,5,5,6,6],"right_children":[2,4,6,8,10,12,14,-1,-1,-1,-1,-1,-1,-1,-1],"split_conditions":[2E1,1.4E1,5.14E-1,9E0,2.4E1,-4.9E0,-6.1E0,2.2313262E-3,-6.686455E-5,2.8020735E-3,4.681659E-3,-1.145324E-3,1.3596135E-3,-3.7988275E-3,-1.8901508E-3],"split_indices":[28,80,55,51,103,25,25,0,0,0,0,0,0,0,0],"split_type":[0,0,0,0,0,0,0,0,0,0,0,0,0,0,0],"sum_hessian":[6.2238457E3,4.360291E3,1.8635543E3,2.3272483E3,2.0330428E3,9.7752216E2,8.860322E2,9.879194E2,1.339329E3,1.1646962E3,8.683467E2,4.9916327E2,4.783589E2,3.2520093E2,5.608313E2],"tree_param":{"num_deleted":"0","num_feature":"106","num_nodes":"15","size_leaf_vector":"1"}},{"base_weights":[-1.1505277E-1,-2.7133253E-1,3.4293897E-2,-1.435362E-1,-4.0449437E-1,-1.6992871E-1,1.2865292E-1,-2.122382E-3,1.6798367E-4,-3.2873827E-3,-5.2540326E-3,1.8375453E-4,-2.837957E-3,4.5478897E-4,2.3884661E-3],"categories":[],"categories_nodes":[],"categories_segments":[],"categories_sizes":[],"default_left":[0,0,0,0,0,0,0,0,0,0,0,0,0,0,0],"id":64,"left_children":[1,3,5,7,9,11,13,-1,-1,-1,-1,-1,-1,-1,-1],"loss_changes":[1.4523567E2,5.1686646E1,6.1351078E1,1.7111868E1,1.3461502E1,2.1579891E1,1.9945381E1,0E0,0E0,0E0,0E0,0E0,0E0,0E0,0E0],"parents":[2147483647,0,0,1,1,2,2,3,3,4,4,5,5,6,6],"right_children":[2,4,6,8,10,12,14,-1,-1,-1,-1,-1,-1,-1,-1],"split_conditions":[1.5E1,1.3E1,-1.9E0,6E0,2.3E1,-4.3E0,2.4E1,-2.122382E-3,1.6798367E-4,-3.2873827E-3,-5.2540326E-3,1.8375453E-4,-2.837957E-3,4.5478897E-4,2.3884661E-3],"split_indices":[51,80,77,77,80,25,51,0,0,0,0,0,0,0,0],"split_type":[0,0,0,0,0,0,0,0,0,0,0,0,0,0,0],"sum_hessian":[6.2212456E3,3.0396594E3,3.181586E3,1.5521389E3,1.4875205E3,1.0052051E3,2.1763809E3,1.0863314E3,4.658075E2,9.168083E2,5.707122E2,3.7910693E2,6.2609814E2,1.2410507E3,9.3533026E2],"tree_param":{"num_deleted":"0","num_feature":"106","num_nodes":"15","size_leaf_vector":"1"}},{"base_weights":[1.15052775E-1,2.7133256E-1,-3.429391E-2,1.4353624E-1,4.0449437E-1,1.6992873E-1,-1.2865295E-1,2.1223824E-3,-1.6798374E-4,3.2873827E-3,5.2540326E-3,-1.8375434E-4,2.8379573E-3,-4.5478944E-4,-2.3884661E-3],"categories":[],"categories_nodes":[],"categories_segments":[],"categories_sizes":[],"default_left":[0,0,0,0,0,0,0,0,0,0,0,0,0,0,0],"id":65,"left_children":[1,3,5,7,9,11,13,-1,-1,-1,-1,-1,-1,-1,-1],"loss_changes":[1.4523569E2,5.1686615E1,6.1351097E1,1.7111876E1,1.3461502E1,2.1579893E1,1.9945377E1,0E0,0E0,0E0,0E0,0E0,0E0,0E0,0E0],"parents":[2147483647,0,0,1,1,2,2,3,3,4,4,5,5,6,6],"right_children":[2,4,6,8,10,12,14,-1,-1,-1,-1,-1,-1,-1,-1],"split_conditions":[1.5E1,1.3E1,-1.9E0,6E0,2.3E1,-4.3E0,2.4E1,2.1223824E-3,-1.6798374E-4,3.2873827E-3,5.2540326E-3,-1.8375434E-4,2.8379573E-3,-4.5478944E-4,-2.3884661E-3],"split_indices":[51,80,77,77,80,25,51,0,0,0,0,0,0,0,0],"split_type":[0,0,0,0,0,0,0,0,0,0,0,0,0,0,0],"sum_hessian":[6.2212456E3,3.0396594E3,3.181586E3,1.552139E3,1.4875205E3,1.0052051E3,2.1763809E3,1.0863314E3,4.6580753E2,9.168083E2,5.707122E2,3.7910693E2,6.2609814E2,1.2410505E3,9.3533026E2],"tree_param":{"num_deleted":"0","num_feature":"106","num_nodes":"15","size_leaf_vector":"1"}},{"base_weights":[-1.1395436E-1,8.071934E-2,-2.3161134E-1,-1.6323337E-1,1.5405865E-1,-3.2169375E-1,-4.0150657E-2,1.5801829E-4,-2.7800526E-3,6.462763E-4,2.4553644E-3,-2.6296456E-3,-4.7058538E-3,7.3926453E-4,-1.5633836E-3],"categories":[],"categories_nodes":[],"categories_segments":[],"categories_sizes":[],"default_left":[0,0,0,0,0,0,0,0,0,0,0,0,0,0,0],"id":66,"left_children":[1,3,5,7,9,11,13,-1,-1,-1,-1,-1,-1,-1,-1],"loss_changes":[1.4247523E2,4.1956646E1,6.6852036E1,1.1145762E1,1.4730072E1,2.2928558E1,1.6467875E1,0E0,0E0,0E0,0E0,0E0,0E0,0E0,0E0],"parents":[2147483647,0,0,1,1,2,2,3,3,4,4,5,5,6,6],"right_children":[2,4,6,8,10,12,14,-1,-1,-1,-1,-1,-1,-1,-1],"split_conditions":[4.62E-1,3.73E-1,3E0,3.21E-1,5.61E-1,2.3E1,3.1E0,1.5801829E-4,-2.7800526E-3,6.462763E-4,2.4553644E-3,-2.6296456E-3,-4.7058538E-3,7.3926453E-4,-1.5633836E-3],"split_indices":[3,55,77,3,55,80,25,0,0,0,0,0,0,0,0],"split_type":[0,0,0,0,0,0,0,0,0,0,0,0,0,0,0],"sum_hessian":[6.218527E3,2.3426777E3,3.8758494E3,5.412064E2,1.8014712E3,2.6352717E3,1.2405778E3,2.1175209E2,3.2945435E2,9.1178937E2,8.896818E2,1.8918226E3,7.4344904E2,6.2615796E2,6.144198E2],"tree_param":{"num_deleted":"0","num_feature":"106","num_nodes":"15","size_leaf_vector":"1"}},{"base_weights":[1.1395436E-1,-8.071934E-2,2.3161134E-1,1.6323335E-1,-1.5405865E-1,3.2169378E-1,4.0150646E-2,-1.5801836E-4,2.7800526E-3,-6.4627617E-4,-2.4553644E-3,2.6296456E-3,4.7058538E-3,-7.392644E-4,1.5633833E-3],"categories":[],"categories_nodes":[],"categories_segments":[],"categories_sizes":[],"default_left":[0,0,0,0,0,0,0,0,0,0,0,0,0,0,0],"id":67,"left_children":[1,3,5,7,9,11,13,-1,-1,-1,-1,-1,-1,-1,-1],"loss_changes":[1.4247522E2,4.1956642E1,6.6852066E1,1.1145767E1,1.4730068E1,2.2928558E1,1.6467867E1,0E0,0E0,0E0,0E0,0E0,0E0,0E0,0E0],"parents":[2147483647,0,0,1,1,2,2,3,3,4,4,5,5,6,6],"right_children":[2,4,6,8,10,12,14,-1,-1,-1,-1,-1,-1,-1,-1],"split_conditions":[4.62E-1,3.73E-1,3E0,3.21E-1,5.61E-1,2.3E1,3.1E0,-1.5801836E-4,2.7800526E-3,-6.4627617E-4,-2.4553644E-3,2.6296456E-3,4.7058538E-3,-7.392644E-4,1.5633833E-3],"split_indices":[3,55,77,3,55,80,25,0,0,0,0,0,0,0,0],"split_type":[0,0,0,0,0,0,0,0,0,0,0,0,0,0,0],"sum_hessian":[6.218527E3,2.3426775E3,3.8758494E3,5.412064E2,1.8014712E3,2.6352717E3,1.2405778E3,2.1175209E2,3.294543E2,9.1178937E2,8.896818E2,1.8918226E3,7.4344904E2,6.2615796E2,6.144198E2],"tree_param":{"num_deleted":"0","num_feature":"106","num_nodes":"15","size_leaf_vector":"1"}},{"base_weights":[-1.12864554E-1,-2.6665276E-1,3.3986356E-2,-1.4081313E-1,-3.9801082E-1,-1.5142243E-1,1.3440071E-1,-2.085922E-3,1.729808E-4,-3.2340155E-3,-5.173422E-3,-3.016657E-3,-1.4353942E-4,5.141685E-4,2.4602064E-3],"categories":[],"categories_nodes":[],"categories_segments":[],"categories_sizes":[],"default_left":[0,0,0,0,0,0,0,0,0,0,0,0,0,0,0],"id":68,"left_children":[1,3,5,7,9,11,13,-1,-1,-1,-1,-1,-1,-1,-1],"loss_changes":[1.404109E2,5.01429E1,5.924437E1,1.6641623E1,1.3056519E1,2.301992E1,1.9105747E1,0E0,0E0,0E0,0E0,0E0,0E0,0E0,0E0],"parents":[2147483647,0,0,1,1,2,2,3,3,4,4,5,5,6,6],"right_children":[2,4,6,8,10,12,14,-1,-1,-1,-1,-1,-1,-1,-1],"split_conditions":[1.5E1,1.3E1,-1.4E0,6E0,2.3E1,2.1E1,2.4E1,-2.085922E-3,1.729808E-4,-3.2340155E-3,-5.173422E-3,-3.016657E-3,-1.4353942E-4,5.141685E-4,2.4602064E-3],"split_indices":[51,80,77,77,80,28,51,0,0,0,0,0,0,0,0],"split_type":[0,0,0,0,0,0,0,0,0,0,0,0,0,0,0],"sum_hessian":[6.2158887E3,3.0358296E3,3.1800593E3,1.5515414E3,1.4842882E3,1.1170284E3,2.0630308E3,1.0857731E3,4.6576828E2,9.155631E2,5.6872516E2,5.3233044E2,5.84698E2,1.1841414E3,8.788894E2],"tree_param":{"num_deleted":"0","num_feature":"106","num_nodes":"15","size_leaf_vector":"1"}},{"base_weights":[1.12864554E-1,2.6665276E-1,-3.398635E-2,1.4081311E-1,3.9801082E-1,1.5142244E-1,-1.344007E-1,2.085922E-3,-1.7298122E-4,3.2340155E-3,5.173422E-3,3.016657E-3,1.435396E-4,-5.1416806E-4,-2.4602069E-3],"categories":[],"categories_nodes":[],"categories_segments":[],"categories_sizes":[],"default_left":[0,0,0,0,0,0,0,0,0,0,0,0,0,0,0],"id":69,"left_children":[1,3,5,7,9,11,13,-1,-1,-1,-1,-1,-1,-1,-1],"loss_changes":[1.4041087E2,5.01429E1,5.9244366E1,1.6641626E1,1.3056549E1,2.3019918E1,1.9105762E1,0E0,0E0,0E0,0E0,0E0,0E0,0E0,0E0],"parents":[2147483647,0,0,1,1,2,2,3,3,4,4,5,5,6,6],"right_children":[2,4,6,8,10,12,14,-1,-1,-1,-1,-1,-1,-1,-1],"split_conditions":[1.5E1,1.3E1,-1.4E0,6E0,2.3E1,2.1E1,2.4E1,2.085922E-3,-1.7298122E-4,3.2340155E-3,5.173422E-3,3.016657E-3,1.435396E-4,-5.1416806E-4,-2.4602069E-3],"split_indices":[51,80,77,77,80,28,51,0,0,0,0,0,0,0,0],"split_type":[0,0,0,0,0,0,0,0,0,0,0,0,0,0,0],"sum_hessian":[6.2158887E3,3.0358296E3,3.1800593E3,1.5515413E3,1.4842882E3,1.1170284E3,2.0630308E3,1.0857731E3,4.6576825E2,9.155631E2,5.687251E2,5.3233044E2,5.84698E2,1.1841414E3,8.788894E2],"tree_param":{"num_deleted":"0","num_feature":"106","num_nodes":"15","size_leaf_vector":"1"}},{"base_weights":[-1.1178869E-1,-2.6417217E-1,3.365404E-2,-1.3943262E-1,-3.9451462E-1,-1.6519229E-1,1.2547706E-1,-2.0656479E-3,1.7125267E-4,-3.204218E-3,-5.1315264E-3,5.655926E-4,-2.5814073E-3,2.8441178E-3,6.9927145E-4],"categories":[],"categories_nodes":[],"categories_segments":[],"categories_sizes":[],"default_left":[0,0,0,0,0,0,0,0,0,0,0,0,0,0,0],"id":70,"left_children":[1,3,5,7,9,11,13,-1,-1,-1,-1,-1,-1,-1,-1],"loss_changes":[1.3773209E2,4.9286514E1,5.8089478E1,1.6317795E1,1.2875839E1,2.0731323E1,1.9193645E1,0E0,0E0,0E0,0E0,0E0,0E0,0E0,0E0],"parents":[2147483647,0,0,1,1,2,2,3,3,4,4,5,5,6,6],"right_children":[2,4,6,8,10,12,14,-1,-1,-1,-1,-1,-1,-1,-1],"split_conditions":[1.5E1,1.3E1,-1.9E0,6E0,2.3E1,3.21E-1,-5.9E0,-2.0656479E-3,1.7125267E-4,-3.204218E-3,-5.1315264E-3,5.655926E-4,-2.5814073E-3,2.8441178E-3,6.9927145E-4],"split_indices":[51,80,77,77,80,3,25,0,0,0,0,0,0,0,0],"split_type":[0,0,0,0,0,0,0,0,0,0,0,0,0,0,0],"sum_hessian":[6.213086E3,3.0337473E3,3.1793384E3,1.5512498E3,1.4824977E3,1.0041068E3,2.1752314E3,1.0854768E3,4.6577292E2,9.1484937E2,5.676483E2,2.9668433E2,7.074225E2,5.6230164E2,1.6129299E3],"tree_param":{"num_deleted":"0","num_feature":"106","num_nodes":"15","size_leaf_vector":"1"}},{"base_weights":[1.117887E-1,2.6417217E-1,-3.365403E-2,1.3943261E-1,3.9451462E-1,1.6519228E-1,-1.2547705E-1,2.065648E-3,-1.7125347E-4,3.2042183E-3,5.1315264E-3,-5.655929E-4,2.5814073E-3,-2.8441176E-3,-6.992713E-4],"categories":[],"categories_nodes":[],"categories_segments":[],"categories_sizes":[],"default_left":[0,0,0,0,0,0,0,0,0,0,0,0,0,0,0],"id":71,"left_children":[1,3,5,7,9,11,13,-1,-1,-1,-1,-1,-1,-1,-1],"loss_changes":[1.3773209E2,4.9286545E1,5.8089466E1,1.6317808E1,1.2875839E1,2.0731325E1,1.919365E1,0E0,0E0,0E0,0E0,0E0,0E0,0E0,0E0],"parents":[2147483647,0,0,1,1,2,2,3,3,4,4,5,5,6,6],"right_children":[2,4,6,8,10,12,14,-1,-1,-1,-1,-1,-1,-1,-1],"split_conditions":[1.5E1,1.3E1,-1.9E0,6E0,2.3E1,3.21E-1,-5.9E0,2.065648E-3,-1.7125347E-4,3.2042183E-3,5.1315264E-3,-5.655929E-4,2.5814073E-3,-2.8441176E-3,-6.992713E-4],"split_indices":[51,80,77,77,80,3,25,0,0,0,0,0,0,0,0],"split_type":[0,0,0,0,0,0,0,0,0,0,0,0,0,0,0],"sum_hessian":[6.213086E3,3.0337476E3,3.1793384E3,1.5512498E3,1.4824977E3,1.0041068E3,2.1752314E3,1.0854768E3,4.6577295E2,9.1484937E2,5.676483E2,2.9668436E2,7.074225E2,5.6230164E2,1.6129299E3],"tree_param":{"num_deleted":"0","num_feature":"106","num_nodes":"15","size_leaf_vector":"1"}},{"base_weights":[-1.1072293E-1,-2.0733501E-1,1.1497813E-1,-8.659865E-2,-3.4598002E-1,-7.824153E-3,2.5041962E-1,-2.1475218E-3,7.917593E-5,-4.847467E-3,-2.8646444E-3,9.994658E-4,-1.4363376E-3,3.6753973E-3,1.8209353E-3],"categories":[],"categories_nodes":[],"categories_segments":[],"categories_sizes":[],"default_left":[0,0,0,0,0,0,0,0,0,0,0,0,0,0,0],"id":72,"left_children":[1,3,5,7,9,11,13,-1,-1,-1,-1,-1,-1,-1,-1],"loss_changes":[1.3546355E2,7.2783966E1,3.0979187E1,2.818059E1,1.6580353E1,1.4325311E1,7.020588E0,0E0,0E0,0E0,0E0,0E0,0E0,0E0,0E0],"parents":[2147483647,0,0,1,1,2,2,3,3,4,4,5,5,6,6],"right_children":[2,4,6,8,10,12,14,-1,-1,-1,-1,-1,-1,-1,-1],"split_conditions":[2E1,1.4E1,5.14E-1,9E0,7E0,-4.3E0,-6.1E0,-2.1475218E-3,7.917593E-5,-4.847467E-3,-2.8646444E-3,9.994658E-4,-1.4363376E-3,3.6753973E-3,1.8209353E-3],"split_indices":[28,80,55,51,51,25,25,0,0,0,0,0,0,0,0],"split_type":[0,0,0,0,0,0,0,0,0,0,0,0,0,0,0],"sum_hessian":[6.210278E3,4.3488286E3,1.8614491E3,2.3254126E3,2.0234161E3,9.767711E2,8.84678E2,9.865237E2,1.3388888E3,6.051956E2,1.4182206E3,5.447515E2,4.3201956E2,3.2433865E2,5.603393E2],"tree_param":{"num_deleted":"0","num_feature":"106","num_nodes":"15","size_leaf_vector":"1"}},{"base_weights":[1.1072294E-1,2.0733501E-1,-1.1497811E-1,8.659866E-2,3.4598005E-1,7.824172E-3,-2.5041962E-1,2.147522E-3,-7.9175894E-5,4.847467E-3,2.8646444E-3,-9.994658E-4,1.4363383E-3,-3.6753973E-3,-1.8209352E-3],"categories":[],"categories_nodes":[],"categories_segments":[],"categories_sizes":[],"default_left":[0,0,0,0,0,0,0,0,0,0,0,0,0,0,0],"id":73,"left_children":[1,3,5,7,9,11,13,-1,-1,-1,-1,-1,-1,-1,-1],"loss_changes":[1.3546353E2,7.2783966E1,3.0979195E1,2.8180588E1,1.6580353E1,1.4325315E1,7.020588E0,0E0,0E0,0E0,0E0,0E0,0E0,0E0,0E0],"parents":[2147483647,0,0,1,1,2,2,3,3,4,4,5,5,6,6],"right_children":[2,4,6,8,10,12,14,-1,-1,-1,-1,-1,-1,-1,-1],"split_conditions":[2E1,1.4E1,5.14E-1,9E0,7E0,-4.3E0,-6.1E0,2.147522E-3,-7.9175894E-5,4.847467E-3,2.8646444E-3,-9.994658E-4,1.4363383E-3,-3.6753973E-3,-1.8209352E-3],"split_indices":[28,80,55,51,51,25,25,0,0,0,0,0,0,0,0],"split_type":[0,0,0,0,0,0,0,0,0,0,0,0,0,0,0],"sum_hessian":[6.210278E3,4.3488286E3,1.8614491E3,2.3254126E3,2.0234161E3,9.767711E2,8.846779E2,9.865237E2,1.3388889E3,6.051956E2,1.4182206E3,5.447516E2,4.3201956E2,3.2433865E2,5.603393E2],"tree_param":{"num_deleted":"0","num_feature":"106","num_nodes":"15","size_leaf_vector":"1"}},{"base_weights":[-1.0966593E-1,-2.5950837E-1,3.3227663E-2,-1.3685355E-1,-3.8792205E-1,-1.4761704E-1,1.3113101E-1,-2.033576E-3,1.8177374E-4,-3.142651E-3,-5.060628E-3,-2.9463493E-3,-1.3698117E-4,5.03225E-4,2.3994367E-3],"categories":[],"categories_nodes":[],"categories_segments":[],"categories_sizes":[],"default_left":[0,0,0,0,0,0,0,0,0,0,0,0,0,0,0],"id":74,"left_children":[1,3,5,7,9,11,13,-1,-1,-1,-1,-1,-1,-1,-1],"loss_changes":[1.3294225E2,4.7681824E1,5.6301476E1,1.6001413E1,1.27200775E1,2.1987112E1,1.8126743E1,0E0,0E0,0E0,0E0,0E0,0E0,0E0,0E0],"parents":[2147483647,0,0,1,1,2,2,3,3,4,4,5,5,6,6],"right_children":[2,4,6,8,10,12,14,-1,-1,-1,-1,-1,-1,-1,-1],"split_conditions":[1.5E1,1.3E1,-1.4E0,6E0,2.3E1,2.1E1,2.4E1,-2.033576E-3,1.8177374E-4,-3.142651E-3,-5.060628E-3,-2.9463493E-3,-1.3698117E-4,5.03225E-4,2.3994367E-3],"split_indices":[51,80,77,77,80,28,51,0,0,0,0,0,0,0,0],"split_type":[0,0,0,0,0,0,0,0,0,0,0,0,0,0,0],"sum_hessian":[6.207508E3,3.02968E3,3.1778281E3,1.5506428E3,1.479037E3,1.1159551E3,2.061873E3,1.084927E3,4.6571585E2,9.132903E2,5.657467E2,5.3138916E2,5.8456586E2,1.1840294E3,8.778437E2],"tree_param":{"num_deleted":"0","num_feature":"106","num_nodes":"15","size_leaf_vector":"1"}},{"base_weights":[1.09665915E-1,2.5950834E-1,-3.322768E-2,1.3685352E-1,3.8792205E-1,1.4761704E-1,-1.3113102E-1,2.0335757E-3,-1.8177464E-4,3.142651E-3,5.0606285E-3,2.9463493E-3,1.3698087E-4,-5.032252E-4,-2.399437E-3],"categories":[],"categories_nodes":[],"categories_segments":[],"categories_sizes":[],"default_left":[0,0,0,0,0,0,0,0,0,0,0,0,0,0,0],"id":75,"left_children":[1,3,5,7,9,11,13,-1,-1,-1,-1,-1,-1,-1,-1],"loss_changes":[1.3294223E2,4.7681824E1,5.6301476E1,1.600143E1,1.2720093E1,2.1987118E1,1.8126743E1,0E0,0E0,0E0,0E0,0E0,0E0,0E0,0E0],"parents":[2147483647,0,0,1,1,2,2,3,3,4,4,5,5,6,6],"right_children":[2,4,6,8,10,12,14,-1,-1,-1,-1,-1,-1,-1,-1],"split_conditions":[1.5E1,1.3E1,-1.4E0,6E0,2.3E1,2.1E1,2.4E1,2.0335757E-3,-1.8177464E-4,3.142651E-3,5.0606285E-3,2.9463493E-3,1.3698087E-4,-5.032252E-4,-2.399437E-3],"split_indices":[51,80,77,77,80,28,51,0,0,0,0,0,0,0,0],"split_type":[0,0,0,0,0,0,0,0,0,0,0,0,0,0,0],"sum_hessian":[6.207508E3,3.02968E3,3.1778281E3,1.5506428E3,1.479037E3,1.115955E3,2.061873E3,1.084927E3,4.6571585E2,9.132903E2,5.657467E2,5.3138916E2,5.8456586E2,1.1840294E3,8.778437E2],"tree_param":{"num_deleted":"0","num_feature":"106","num_nodes":"15","size_leaf_vector":"1"}},{"base_weights":[-1.0862293E-1,6.911495E-2,-2.2706014E-1,-3.9275844E-2,2.1718611E-1,-3.143022E-1,-4.7874425E-2,1.152485E-3,-1.4931028E-3,1.7416067E-3,4.12963E-3,-2.660215E-3,-4.891264E-3,6.109484E-4,-1.495939E-3],"categories":[],"categories_nodes":[],"categories_segments":[],"categories_sizes":[],"default_left":[0,0,0,0,0,0,0,0,0,0,0,0,0,0,0],"id":76,"left_children":[1,3,5,7,9,11,13,-1,-1,-1,-1,-1,-1,-1,-1],"loss_changes":[1.3064789E2,3.9848473E1,5.8204666E1,2.440011E1,8.766514E0,2.101007E1,1.3539684E1,0E0,0E0,0E0,0E0,0E0,0E0,0E0,0E0],"parents":[2147483647,0,0,1,1,2,2,3,3,4,4,5,5,6,6],"right_children":[2,4,6,8,10,12,14,-1,-1,-1,-1,-1,-1,-1,-1],"split_conditions":[4.72E-1,5.42E-1,2.9E0,-4.9E0,2.8E1,2.6E1,3.1E0,1.152485E-3,-1.4931028E-3,1.7416067E-3,4.12963E-3,-2.660215E-3,-4.891264E-3,6.109484E-4,-1.495939E-3],"split_indices":[3,55,77,25,47,103,25,0,0,0,0,0,0,0,0],"split_type":[0,0,0,0,0,0,0,0,0,0,0,0,0,0,0],"sum_hessian":[6.204575E3,2.4813088E3,3.7232664E3,1.4330355E3,1.0482734E3,2.5035715E3,1.2196947E3,5.960038E2,8.3703174E2,8.609533E2,1.8732014E2,1.9637655E3,5.3980597E2,5.8905536E2,6.3063934E2],"tree_param":{"num_deleted":"0","num_feature":"106","num_nodes":"15","size_leaf_vector":"1"}},{"base_weights":[1.0862292E-1,-6.911494E-2,2.2706012E-1,3.927587E-2,-2.1718612E-1,3.143022E-1,4.787439E-2,-1.1524846E-3,1.4931029E-3,-1.7416069E-3,-4.12963E-3,2.6602151E-3,4.8912633E-3,-6.109487E-4,1.4959387E-3],"categories":[],"categories_nodes":[],"categories_segments":[],"categories_sizes":[],"default_left":[0,0,0,0,0,0,0,0,0,0,0,0,0,0,0],"id":77,"left_children":[1,3,5,7,9,11,13,-1,-1,-1,-1,-1,-1,-1,-1],"loss_changes":[1.3064787E2,3.9848484E1,5.8204666E1,2.4400108E1,8.766514E0,2.101004E1,1.3539682E1,0E0,0E0,0E0,0E0,0E0,0E0,0E0,0E0],"parents":[2147483647,0,0,1,1,2,2,3,3,4,4,5,5,6,6],"right_children":[2,4,6,8,10,12,14,