{"learner":{"attributes":{"best_iteration":"499","best_ntree_limit":"500"},"feature_names":[],"feature_types":[],"gradient_booster":{"model":{"gbtree_model_param":{"num_parallel_tree":"1","num_trees":"1000","size_leaf_vector":"0"},"tree_info":[0,1,0,1,0,1,0,1,0,1,0,1,0,1,0,1,0,1,0,1,0,1,0,1,0,1,0,1,0,1,0,1,0,1,0,1,0,1,0,1,0,1,0,1,0,1,0,1,0,1,0,1,0,1,0,1,0,1,0,1,0,1,0,1,0,1,0,1,0,1,0,1,0,1,0,1,0,1,0,1,0,1,0,1,0,1,0,1,0,1,0,1,0,1,0,1,0,1,0,1,0,1,0,1,0,1,0,1,0,1,0,1,0,1,0,1,0,1,0,1,0,1,0,1,0,1,0,1,0,1,0,1,0,1,0,1,0,1,0,1,0,1,0,1,0,1,0,1,0,1,0,1,0,1,0,1,0,1,0,1,0,1,0,1,0,1,0,1,0,1,0,1,0,1,0,1,0,1,0,1,0,1,0,1,0,1,0,1,0,1,0,1,0,1,0,1,0,1,0,1,0,1,0,1,0,1,0,1,0,1,0,1,0,1,0,1,0,1,0,1,0,1,0,1,0,1,0,1,0,1,0,1,0,1,0,1,0,1,0,1,0,1,0,1,0,1,0,1,0,1,0,1,0,1,0,1,0,1,0,1,0,1,0,1,0,1,0,1,0,1,0,1,0,1,0,1,0,1,0,1,0,1,0,1,0,1,0,1,0,1,0,1,0,1,0,1,0,1,0,1,0,1,0,1,0,1,0,1,0,1,0,1,0,1,0,1,0,1,0,1,0,1,0,1,0,1,0,1,0,1,0,1,0,1,0,1,0,1,0,1,0,1,0,1,0,1,0,1,0,1,0,1,0,1,0,1,0,1,0,1,0,1,0,1,0,1,0,1,0,1,0,1,0,1,0,1,0,1,0,1,0,1,0,1,0,1,0,1,0,1,0,1,0,1,0,1,0,1,0,1,0,1,0,1,0,1,0,1,0,1,0,1,0,1,0,1,0,1,0,1,0,1,0,1,0,1,0,1,0,1,0,1,0,1,0,1,0,1,0,1,0,1,0,1,0,1,0,1,0,1,0,1,0,1,0,1,0,1,0,1,0,1,0,1,0,1,0,1,0,1,0,1,0,1,0,1,0,1,0,1,0,1,0,1,0,1,0,1,0,1,0,1,0,1,0,1,0,1,0,1,0,1,0,1,0,1,0,1,0,1,0,1,0,1,0,1,0,1,0,1,0,1,0,1,0,1,0,1,0,1,0,1,0,1,0,1,0,1,0,1,0,1,0,1,0,1,0,1,0,1,0,1,0,1,0,1,0,1,0,1,0,1,0,1,0,1,0,1,0,1,0,1,0,1,0,1,0,1,0,1,0,1,0,1,0,1,0,1,0,1,0,1,0,1,0,1,0,1,0,1,0,1,0,1,0,1,0,1,0,1,0,1,0,1,0,1,0,1,0,1,0,1,0,1,0,1,0,1,0,1,0,1,0,1,0,1,0,1,0,1,0,1,0,1,0,1,0,1,0,1,0,1,0,1,0,1,0,1,0,1,0,1,0,1,0,1,0,1,0,1,0,1,0,1,0,1,0,1,0,1,0,1,0,1,0,1,0,1,0,1,0,1,0,1,0,1,0,1,0,1,0,1,0,1,0,1,0,1,0,1,0,1,0,1,0,1,0,1,0,1,0,1,0,1,0,1,0,1,0,1,0,1,0,1,0,1,0,1,0,1,0,1,0,1,0,1,0,1,0,1,0,1,0,1,0,1,0,1,0,1,0,1,0,1,0,1,0,1,0,1,0,1,0,1,0,1,0,1,0,1,0,1,0,1,0,1,0,1,0,1,0,1,0,1,0,1,0,1,0,1,0,1,0,1,0,1,0,1,0,1,0,1,0,1,0,1,0,1,0,1,0,1,0,1,0,1,0,1,0,1,0,1,0,1,0,1,0,1,0,1,0,1,0,1,0,1,0,1,0,1,0,1,0,1,0,1,0,1,0,1,0,1,0,1,0,1,0,1,0,1,0,1,0,1,0,1,0,1,0,1,0,1,0,1,0,1,0,1,0,1,0,1,0,1,0,1,0,1,0,1,0,1,0,1,0,1,0,1,0,1,0,1,0,1,0,1,0,1,0,1,0,1,0,1,0,1,0,1,0,1,0,1,0,1,0,1,0,1,0,1,0,1,0,1,0,1,0,1,0,1,0,1,0,1,0,1,0,1,0,1,0,1,0,1,0,1,0,1,0,1,0,1,0,1,0,1,0,1,0,1,0,1,0,1,0,1,0,1,0,1,0,1,0,1,0,1,0,1,0,1],"trees":[{"base_weights":[-1.4968595E-1,1.1878393E-1,-3.1112853E-1,-1.882461E-1,2.1375781E-1,-1.2608817E-1,-4.7180864E-1],"categories":[],"categories_nodes":[],"categories_segments":[],"categories_sizes":[],"default_left":[1,1,1,0,0,0,0],"id":0,"left_children":[1,3,5,-1,-1,-1,-1],"loss_changes":[2.6570462E2,6.718076E1,1.1375577E2,0E0,0E0,0E0,0E0],"parents":[2147483647,0,0,1,1,2,2],"right_children":[2,4,6,-1,-1,-1,-1],"split_conditions":[4.585E-1,3.725E-1,1.15E1,-1.882461E-3,2.137578E-3,-1.2608817E-3,-4.718086E-3],"split_indices":[3,55,80,0,0,0,0],"split_type":[0,0,0,0,0,0,0],"sum_hessian":[6.1285E3,2.3015E3,3.827E3,5.435E2,1.758E3,1.7795E3,2.0475E3],"tree_param":{"num_deleted":"0","num_feature":"106","num_nodes":"7","size_leaf_vector":"0"}},{"base_weights":[1.4968595E-1,-1.1878393E-1,3.1112853E-1,1.882461E-1,-2.1375781E-1,1.2608817E-1,4.7180864E-1],"categories":[],"categories_nodes":[],"categories_segments":[],"categories_sizes":[],"default_left":[1,1,1,0,0,0,0],"id":1,"left_children":[1,3,5,-1,-1,-1,-1],"loss_changes":[2.6570462E2,6.718076E1,1.1375577E2,0E0,0E0,0E0,0E0],"parents":[2147483647,0,0,1,1,2,2],"right_children":[2,4,6,-1,-1,-1,-1],"split_conditions":[4.585E-1,3.725E-1,1.15E1,1.882461E-3,-2.137578E-3,1.2608817E-3,4.718086E-3],"split_indices":[3,55,80,0,0,0,0],"split_type":[0,0,0,0,0,0,0],"sum_hessian":[6.1285E3,2.3015E3,3.827E3,5.435E2,1.758E3,1.7795E3,2.0475E3],"tree_param":{"num_deleted":"0","num_feature":"106","num_nodes":"7","size_leaf_vector":"0"}},{"base_weights":[-1.4819144E-1,1.1759673E-1,-3.080227E-1,-1.8636778E-1,2.1162246E-1,-1.2482821E-1,-4.6710327E-1],"categories":[],"categories_nodes":[],"categories_segments":[],"categories_sizes":[],"default_left":[1,1,1,0,0,0,0],"id":2,"left_children":[1,3,5,-1,-1,-1,-1],"loss_changes":[2.6042267E2,6.584571E1,1.1149841E2,0E0,0E0,0E0,0E0],"parents":[2147483647,0,0,1,1,2,2],"right_children":[2,4,6,-1,-1,-1,-1],"split_conditions":[4.585E-1,3.725E-1,1.15E1,-1.8636778E-3,2.1162245E-3,-1.2482821E-3,-4.6710325E-3],"split_indices":[3,55,80,0,0,0,0],"split_type":[0,0,0,0,0,0,0],"sum_hessian":[6.1284414E3,2.30149E3,3.8269517E3,5.434981E2,1.757992E3,1.7794972E3,2.0474545E3],"tree_param":{"num_deleted":"0","num_feature":"106","num_nodes":"7","size_leaf_vector":"0"}},{"base_weights":[1.4819144E-1,-1.1759673E-1,3.080227E-1,1.8636778E-1,-2.1162246E-1,1.2482821E-1,4.6710327E-1],"categories":[],"categories_nodes":[],"categories_segments":[],"categories_sizes":[],"default_left":[1,1,1,0,0,0,0],"id":3,"left_children":[1,3,5,-1,-1,-1,-1],"loss_changes":[2.6042267E2,6.584571E1,1.1149841E2,0E0,0E0,0E0,0E0],"parents":[2147483647,0,0,1,1,2,2],"right_children":[2,4,6,-1,-1,-1,-1],"split_conditions":[4.585E-1,3.725E-1,1.15E1,1.8636778E-3,-2.1162245E-3,1.2482821E-3,4.6710325E-3],"split_indices":[3,55,80,0,0,0,0],"split_type":[0,0,0,0,0,0,0],"sum_hessian":[6.1284414E3,2.30149E3,3.8269517E3,5.434981E2,1.757992E3,1.7794972E3,2.0474545E3],"tree_param":{"num_deleted":"0","num_feature":"106","num_nodes":"7","size_leaf_vector":"0"}},{"base_weights":[-1.4671464E-1,1.0661404E-1,-3.1111398E-1,-1.3447714E-1,2.1990025E-1,-1.2920892E-1,-4.6939942E-1],"categories":[],"categories_nodes":[],"categories_segments":[],"categories_sizes":[],"default_left":[1,1,1,0,0,0,0],"id":4,"left_children":[1,3,5,-1,-1,-1,-1],"loss_changes":[2.5529924E2,6.593292E1,1.0697168E2,0E0,0E0,0E0,0E0],"parents":[2147483647,0,0,1,1,2,2],"right_children":[2,4,6,-1,-1,-1,-1],"split_conditions":[4.6850002E-1,-2.05E0,1.15E1,-1.3447714E-3,2.1990025E-3,-1.2920892E-3,-4.6939943E-3],"split_indices":[3,77,80,0,0,0,0],"split_type":[0,0,0,0,0,0,0],"sum_hessian":[6.1282686E3,2.4119548E3,3.716314E3,7.709861E2,1.6409688E3,1.729989E3,1.9863248E3],"tree_param":{"num_deleted":"0","num_feature":"106","num_nodes":"7","size_leaf_vector":"0"}},{"base_weights":[1.467146E-1,-1.0661396E-1,3.1111386E-1,1.3447723E-1,-2.1990016E-1,1.292088E-1,4.693993E-1],"categories":[],"categories_nodes":[],"categories_segments":[],"categories_sizes":[],"default_left":[1,1,1,0,0,0,0],"id":5,"left_children":[1,3,5,-1,-1,-1,-1],"loss_changes":[2.5529903E2,6.593294E1,1.0697168E2,0E0,0E0,0E0,0E0],"parents":[2147483647,0,0,1,1,2,2],"right_children":[2,4,6,-1,-1,-1,-1],"split_conditions":[4.6850002E-1,-2.05E0,1.15E1,1.3447723E-3,-2.1990016E-3,1.292088E-3,4.693993E-3],"split_indices":[3,77,80,0,0,0,0],"split_type":[0,0,0,0,0,0,0],"sum_hessian":[6.128269E3,2.4119548E3,3.716314E3,7.709861E2,1.6409689E3,1.729989E3,1.9863248E3],"tree_param":{"num_deleted":"0","num_feature":"106","num_nodes":"7","size_leaf_vector":"0"}},{"base_weights":[-1.4525479E-1,1.1536602E-1,-3.019894E-1,-1.8340653E-1,2.0778695E-1,-5.4293674E-1,-1.846164E-1],"categories":[],"categories_nodes":[],"categories_segments":[],"categories_sizes":[],"default_left":[1,1,1,0,0,0,0],"id":6,"left_children":[1,3,5,-1,-1,-1,-1],"loss_changes":[2.5039397E2,6.3614487E1,1.0814636E2,0E0,0E0,0E0,0E0],"parents":[2147483647,0,0,1,1,2,2],"right_children":[2,4,6,-1,-1,-1,-1],"split_conditions":[4.585E-1,3.725E-1,-1.45E0,-1.8340653E-3,2.0778694E-3,-5.429367E-3,-1.846164E-3],"split_indices":[3,55,77,0,0,0,0],"split_type":[0,0,0,0,0,0,0],"sum_hessian":[6.1279976E3,2.3014214E3,3.8265762E3,5.434868E2,1.7579344E3,1.2522627E3,2.5743135E3],"tree_param":{"num_deleted":"0","num_feature":"106","num_nodes":"7","size_leaf_vector":"0"}},{"base_weights":[1.4525484E-1,-1.1536595E-1,3.0198944E-1,1.8340662E-1,-2.0778687E-1,5.4293674E-1,1.8461646E-1],"categories":[],"categories_nodes":[],"categories_segments":[],"categories_sizes":[],"default_left":[1,1,1,0,0,0,0],"id":7,"left_children":[1,3,5,-1,-1,-1,-1],"loss_changes":[2.5039395E2,6.3614494E1,1.0814633E2,0E0,0E0,0E0,0E0],"parents":[2147483647,0,0,1,1,2,2],"right_children":[2,4,6,-1,-1,-1,-1],"split_conditions":[4.585E-1,3.725E-1,-1.45E0,1.8340661E-3,-2.0778687E-3,5.429367E-3,1.8461646E-3],"split_indices":[3,55,77,0,0,0,0],"split_type":[0,0,0,0,0,0,0],"sum_hessian":[6.1279976E3,2.3014214E3,3.8265762E3,5.4348676E2,1.7579346E3,1.2522627E3,2.5743132E3],"tree_param":{"num_deleted":"0","num_feature":"106","num_nodes":"7","size_leaf_vector":"0"}},{"base_weights":[-1.4381197E-1,1.0458496E-1,-3.050264E-1,-1.3234778E-1,2.1591945E-1,-1.2598372E-1,-4.6085504E-1],"categories":[],"categories_nodes":[],"categories_segments":[],"categories_sizes":[],"default_left":[1,1,1,0,0,0,0],"id":8,"left_children":[1,3,5,-1,-1,-1,-1],"loss_changes":[2.4545422E2,6.3676575E1,1.0364029E2,0E0,0E0,0E0,0E0],"parents":[2147483647,0,0,1,1,2,2],"right_children":[2,4,6,-1,-1,-1,-1],"split_conditions":[4.6850002E-1,-2.05E0,1.15E1,-1.3234777E-3,2.1591946E-3,-1.2598371E-3,-4.60855E-3],"split_indices":[3,77,80,0,0,0,0],"split_type":[0,0,0,0,0,0,0],"sum_hessian":[6.127637E3,2.4118477E3,3.7157896E3,7.709621E2,1.6408856E3,1.7299425E3,1.9858469E3],"tree_param":{"num_deleted":"0","num_feature":"106","num_nodes":"7","size_leaf_vector":"0"}},{"base_weights":[1.4381197E-1,-1.0458496E-1,3.050264E-1,1.3234779E-1,-2.1591945E-1,1.2598369E-1,4.6085507E-1],"categories":[],"categories_nodes":[],"categories_segments":[],"categories_sizes":[],"default_left":[1,1,1,0,0,0,0],"id":9,"left_children":[1,3,5,-1,-1,-1,-1],"loss_changes":[2.4545424E2,6.3676575E1,1.0364032E2,0E0,0E0,0E0,0E0],"parents":[2147483647,0,0,1,1,2,2],"right_children":[2,4,6,-1,-1,-1,-1],"split_conditions":[4.6850002E-1,-2.05E0,1.15E1,1.323478E-3,-2.1591946E-3,1.2598368E-3,4.6085506E-3],"split_indices":[3,77,80,0,0,0,0],"split_type":[0,0,0,0,0,0,0],"sum_hessian":[6.127637E3,2.4118477E3,3.7157893E3,7.709621E2,1.6408856E3,1.7299425E3,1.9858468E3],"tree_param":{"num_deleted":"0","num_feature":"106","num_nodes":"7","size_leaf_vector":"0"}},{"base_weights":[-1.423857E-1,1.13180935E-1,-2.9609993E-1,-1.804954E-1,2.0402776E-1,-5.333142E-1,-1.805777E-1],"categories":[],"categories_nodes":[],"categories_segments":[],"categories_sizes":[],"default_left":[1,1,1,0,0,0,0],"id":10,"left_children":[1,3,5,-1,-1,-1,-1],"loss_changes":[2.4077379E2,6.1460857E1,1.0477368E2,0E0,0E0,0E0,0E0],"parents":[2147483647,0,0,1,1,2,2],"right_children":[2,4,6,-1,-1,-1,-1],"split_conditions":[4.585E-1,3.725E-1,-1.45E0,-1.8049539E-3,2.0402775E-3,-5.3331424E-3,-1.805777E-3],"split_indices":[3,55,77,0,0,0,0],"split_type":[0,0,0,0,0,0,0],"sum_hessian":[6.1271665E3,2.301288E3,3.8258784E3,5.434655E2,1.7578226E3,1.251802E3,2.5740764E3],"tree_param":{"num_deleted":"0","num_feature":"106","num_nodes":"7","size_leaf_vector":"0"}},{"base_weights":[1.4238574E-1,-1.13180876E-1,2.9609996E-1,1.8049537E-1,-2.0402767E-1,5.333141E-1,1.8057774E-1],"categories":[],"categories_nodes":[],"categories_segments":[],"categories_sizes":[],"default_left":[1,1,1,0,0,0,0],"id":11,"left_children":[1,3,5,-1,-1,-1,-1],"loss_changes":[2.4077377E2,6.1460823E1,1.0477356E2,0E0,0E0,0E0,0E0],"parents":[2147483647,0,0,1,1,2,2],"right_children":[2,4,6,-1,-1,-1,-1],"split_conditions":[4.585E-1,3.725E-1,-1.45E0,1.8049537E-3,-2.0402765E-3,5.333141E-3,1.8057773E-3],"split_indices":[3,55,77,0,0,0,0],"split_type":[0,0,0,0,0,0,0],"sum_hessian":[6.1271665E3,2.301288E3,3.8258782E3,5.4346545E2,1.7578226E3,1.251802E3,2.5740762E3],"tree_param":{"num_deleted":"0","num_feature":"106","num_nodes":"7","size_leaf_vector":"0"}},{"base_weights":[-1.4097588E-1,1.5280645E-1,-2.7231282E-1,-8.570545E-2,2.696474E-1,-9.754812E-2,-4.2097047E-1],"categories":[],"categories_nodes":[],"categories_segments":[],"categories_sizes":[],"default_left":[1,1,1,0,0,0,0],"id":12,"left_children":[1,3,5,-1,-1,-1,-1],"loss_changes":[2.3647229E2,5.2797043E1,1.09982056E2,0E0,0E0,0E0,0E0],"parents":[2147483647,0,0,1,1,2,2],"right_children":[2,4,6,-1,-1,-1,-1],"split_conditions":[-2.05E0,-1.95E0,1.15E1,-8.570545E-4,2.6964738E-3,-9.754812E-4,-4.2097047E-3],"split_indices":[25,77,80,0,0,0,0],"split_type":[0,0,0,0,0,0,0],"sum_hessian":[6.1266123E3,1.8927136E3,4.2338984E3,6.2241675E2,1.2702968E3,1.9468278E3,2.2870708E3],"tree_param":{"num_deleted":"0","num_feature":"106","num_nodes":"7","size_leaf_vector":"0"}},{"base_weights":[1.4097592E-1,-1.528064E-1,2.7231285E-1,8.570554E-2,-2.6964736E-1,9.7548224E-2,4.2097044E-1],"categories":[],"categories_nodes":[],"categories_segments":[],"categories_sizes":[],"default_left":[1,1,1,0,0,0,0],"id":13,"left_children":[1,3,5,-1,-1,-1,-1],"loss_changes":[2.3647229E2,5.2797047E1,1.09981964E2,0E0,0E0,0E0,0E0],"parents":[2147483647,0,0,1,1,2,2],"right_children":[2,4,6,-1,-1,-1,-1],"split_conditions":[-2.05E0,-1.95E0,1.15E1,8.570554E-4,-2.6964736E-3,9.754822E-4,4.209704E-3],"split_indices":[25,77,80,0,0,0,0],"split_type":[0,0,0,0,0,0,0],"sum_hessian":[6.126612E3,1.8927135E3,4.2338984E3,6.2241675E2,1.2702968E3,1.9468278E3,2.2870708E3],"tree_param":{"num_deleted":"0","num_feature":"106","num_nodes":"7","size_leaf_vector":"0"}},{"base_weights":[-1.395802E-1,1.02208026E-1,-2.9654497E-1,-1.2854901E-1,2.1064603E-1,-1.2197368E-1,-4.4856715E-1],"categories":[],"categories_nodes":[],"categories_segments":[],"categories_sizes":[],"default_left":[1,1,1,0,0,0,0],"id":14,"left_children":[1,3,5,-1,-1,-1,-1],"loss_changes":[2.3256458E2,6.0396675E1,9.854837E1,0E0,0E0,0E0,0E0],"parents":[2147483647,0,0,1,1,2,2],"right_children":[2,4,6,-1,-1,-1,-1],"split_conditions":[4.6850002E-1,-2.05E0,1.15E1,-1.2854901E-3,2.1064603E-3,-1.2197368E-3,-4.4856714E-3],"split_indices":[3,77,80,0,0,0,0],"split_type":[0,0,0,0,0,0,0],"sum_hessian":[6.1260244E3,2.41158E3,3.7144443E3,7.70904E2,1.640676E3,1.7298324E3,1.984612E3],"tree_param":{"num_deleted":"0","num_feature":"106","num_nodes":"7","size_leaf_vector":"0"}},{"base_weights":[1.395802E-1,-1.0220808E-1,2.9654503E-1,1.2854902E-1,-2.1064611E-1,1.2197377E-1,4.4856715E-1],"categories":[],"categories_nodes":[],"categories_segments":[],"categories_sizes":[],"default_left":[1,1,1,0,0,0,0],"id":15,"left_children":[1,3,5,-1,-1,-1,-1],"loss_changes":[2.3256468E2,6.0396706E1,9.854837E1,0E0,0E0,0E0,0E0],"parents":[2147483647,0,0,1,1,2,2],"right_children":[2,4,6,-1,-1,-1,-1],"split_conditions":[4.6850002E-1,-2.05E0,1.15E1,1.2854902E-3,-2.106461E-3,1.2197377E-3,4.4856714E-3],"split_indices":[3,77,80,0,0,0,0],"split_type":[0,0,0,0,0,0,0],"sum_hessian":[6.1260244E3,2.41158E3,3.7144446E3,7.70904E2,1.640676E3,1.7298323E3,1.9846122E3],"tree_param":{"num_deleted":"0","num_feature":"106","num_nodes":"7","size_leaf_vector":"0"}},{"base_weights":[-1.3820213E-1,-3.3542866E-1,5.096809E-2,-1.7141326E-1,-4.8205826E-1,-1.8437122E-1,1.7791028E-1],"categories":[],"categories_nodes":[],"categories_segments":[],"categories_sizes":[],"default_left":[1,1,1,0,0,0,0],"id":16,"left_children":[1,3,5,-1,-1,-1,-1],"loss_changes":[2.2858493E2,7.205167E1,9.347647E1,0E0,0E0,0E0,0E0],"parents":[2147483647,0,0,1,1,2,2],"right_children":[2,4,6,-1,-1,-1,-1],"split_conditions":[1.45E1,1.15E1,-1.55E0,-1.7141325E-3,-4.8205825E-3,-1.8437122E-3,1.7791028E-3],"split_indices":[51,80,77,0,0,0,0],"split_type":[0,0,0,0,0,0,0],"sum_hessian":[6.125283E3,2.9984077E3,3.1268755E3,1.4163221E3,1.5820854E3,1.0954879E3,2.0313877E3],"tree_param":{"num_deleted":"0","num_feature":"106","num_nodes":"7","size_leaf_vector":"0"}},{"base_weights":[1.3820215E-1,3.3542866E-1,-5.0968062E-2,1.7141326E-1,4.820583E-1,1.843712E-1,-1.7791022E-1],"categories":[],"categories_nodes":[],"categories_segments":[],"categories_sizes":[],"default_left":[1,1,1,0,0,0,0],"id":17,"left_children":[1,3,5,-1,-1,-1,-1],"loss_changes":[2.2858493E2,7.205167E1,9.347644E1,0E0,0E0,0E0,0E0],"parents":[2147483647,0,0,1,1,2,2],"right_children":[2,4,6,-1,-1,-1,-1],"split_conditions":[1.45E1,1.15E1,-1.55E0,1.7141325E-3,4.820583E-3,1.843712E-3,-1.7791021E-3],"split_indices":[51,80,77,0,0,0,0],"split_type":[0,0,0,0,0,0,0],"sum_hessian":[6.125283E3,2.9984077E3,3.1268757E3,1.4163221E3,1.5820854E3,1.0954879E3,2.0313877E3],"tree_param":{"num_deleted":"0","num_feature":"106","num_nodes":"7","size_leaf_vector":"0"}},{"base_weights":[-1.368376E-1,1.5002714E-1,-2.6511618E-1,-8.1595294E-2,2.635036E-1,-9.503758E-2,-4.098811E-1],"categories":[],"categories_nodes":[],"categories_segments":[],"categories_sizes":[],"default_left":[1,1,1,0,0,0,0],"id":18,"left_children":[1,3,5,-1,-1,-1,-1],"loss_changes":[2.2545172E2,4.9787716E1,1.0418677E2,0E0,0E0,0E0,0E0],"parents":[2147483647,0,0,1,1,2,2],"right_children":[2,4,6,-1,-1,-1,-1],"split_conditions":[-2.05E0,-1.95E0,1.15E1,-8.159529E-4,2.6350361E-3,-9.5037575E-4,-4.0988107E-3],"split_indices":[25,77,80,0,0,0,0],"split_type":[0,0,0,0,0,0,0],"sum_hessian":[6.1245576E3,1.8924254E3,4.2321323E3,6.223654E2,1.27006E3,1.9466943E3,2.285438E3],"tree_param":{"num_deleted":"0","num_feature":"106","num_nodes":"7","size_leaf_vector":"0"}},{"base_weights":[1.3683762E-1,-1.5002713E-1,2.6511618E-1,8.1595354E-2,-2.635036E-1,9.5037594E-2,4.098811E-1],"categories":[],"categories_nodes":[],"categories_segments":[],"categories_sizes":[],"default_left":[1,1,1,0,0,0,0],"id":19,"left_children":[1,3,5,-1,-1,-1,-1],"loss_changes":[2.2545169E2,4.978773E1,1.0418674E2,0E0,0E0,0E0,0E0],"parents":[2147483647,0,0,1,1,2,2],"right_children":[2,4,6,-1,-1,-1,-1],"split_conditions":[-2.05E0,-1.95E0,1.15E1,8.1595354E-4,-2.6350361E-3,9.503759E-4,4.0988107E-3],"split_indices":[25,77,80,0,0,0,0],"split_type":[0,0,0,0,0,0,0],"sum_hessian":[6.1245576E3,1.8924254E3,4.2321323E3,6.223654E2,1.27006E3,1.9466942E3,2.285438E3],"tree_param":{"num_deleted":"0","num_feature":"106","num_nodes":"7","size_leaf_vector":"0"}},{"base_weights":[-1.3548851E-1,1.0972802E-1,-2.8305513E-1,-1.7284922E-1,1.9714437E-1,-5.1271564E-1,-1.7133278E-1],"categories":[],"categories_nodes":[],"categories_segments":[],"categories_sizes":[],"default_left":[1,1,1,0,0,0,0],"id":20,"left_children":[1,3,5,-1,-1,-1,-1],"loss_changes":[2.2165875E2,5.689152E1,9.802844E1,0E0,0E0,0E0,0E0],"parents":[2147483647,0,0,1,1,2,2],"right_children":[2,4,6,-1,-1,-1,-1],"split_conditions":[4.585E-1,3.725E-1,-1.45E0,-1.7284922E-3,1.9714436E-3,-5.127156E-3,-1.7133277E-3],"split_indices":[3,55,77,0,0,0,0],"split_type":[0,0,0,0,0,0,0],"sum_hessian":[6.123719E3,2.3007463E3,3.822973E3,5.4335376E2,1.7573925E3,1.249947E3,2.573026E3],"tree_param":{"num_deleted":"0","num_feature":"106","num_nodes":"7","size_leaf_vector":"0"}},{"base_weights":[1.3548851E-1,-1.09728046E-1,2.8305513E-1,1.7284915E-1,-1.9714439E-1,5.1271564E-1,1.7133279E-1],"categories":[],"categories_nodes":[],"categories_segments":[],"categories_sizes":[],"default_left":[1,1,1,0,0,0,0],"id":21,"left_children":[1,3,5,-1,-1,-1,-1],"loss_changes":[2.2165881E2,5.6891502E1,9.802841E1,0E0,0E0,0E0,0E0],"parents":[2147483647,0,0,1,1,2,2],"right_children":[2,4,6,-1,-1,-1,-1],"split_conditions":[4.585E-1,3.725E-1,-1.45E0,1.7284914E-3,-1.9714439E-3,5.127156E-3,1.7133278E-3],"split_indices":[3,55,77,0,0,0,0],"split_type":[0,0,0,0,0,0,0],"sum_hessian":[6.123719E3,2.3007463E3,3.8229727E3,5.4335376E2,1.7573925E3,1.249947E3,2.573026E3],"tree_param":{"num_deleted":"0","num_feature":"106","num_nodes":"7","size_leaf_vector":"0"}},{"base_weights":[-1.341557E-1,-3.269725E-1,5.0716344E-2,-4.2148256E-1,-8.2007974E-2,-1.789838E-1,1.7459863E-1],"categories":[],"categories_nodes":[],"categories_segments":[],"categories_sizes":[],"default_left":[1,1,1,0,0,0,0],"id":22,"left_children":[1,3,5,-1,-1,-1,-1],"loss_changes":[2.1830722E2,6.936505E1,8.901698E1,0E0,0E0,0E0,0E0],"parents":[2147483647,0,0,1,1,2,2],"right_children":[2,4,6,-1,-1,-1,-1],"split_conditions":[1.45E1,3.75E0,-1.55E0,-4.2148256E-3,-8.200797E-4,-1.7898378E-3,1.7459863E-3],"split_indices":[51,77,77,0,0,0,0],"split_type":[0,0,0,0,0,0,0],"sum_hessian":[6.122772E3,2.9966128E3,3.126159E3,2.1618328E3,8.347799E2,1.0951354E3,2.0310236E3],"tree_param":{"num_deleted":"0","num_feature":"106","num_nodes":"7","size_leaf_vector":"0"}},{"base_weights":[1.3415574E-1,3.269726E-1,-5.071637E-2,4.2148265E-1,8.200808E-2,1.7898373E-1,-1.7459863E-1],"categories":[],"categories_nodes":[],"categories_segments":[],"categories_sizes":[],"default_left":[1,1,1,0,0,0,0],"id":23,"left_children":[1,3,5,-1,-1,-1,-1],"loss_changes":[2.1830734E2,6.936499E1,8.901696E1,0E0,0E0,0E0,0E0],"parents":[2147483647,0,0,1,1,2,2],"right_children":[2,4,6,-1,-1,-1,-1],"split_conditions":[1.45E1,3.75E0,-1.55E0,4.2148265E-3,8.2008075E-4,1.7898373E-3,-1.7459863E-3],"split_indices":[51,77,77,0,0,0,0],"split_type":[0,0,0,0,0,0,0],"sum_hessian":[6.122772E3,2.9966128E3,3.126159E3,2.1618328E3,8.347799E2,1.0951354E3,2.0310236E3],"tree_param":{"num_deleted":"0","num_feature":"106","num_nodes":"7","size_leaf_vector":"0"}},{"base_weights":[-1.3283491E-1,1.4725804E-1,-2.581266E-1,-7.813011E-2,2.5769258E-1,-9.157421E-2,-4.0000027E-1],"categories":[],"categories_nodes":[],"categories_segments":[],"categories_sizes":[],"default_left":[1,1,1,0,0,0,0],"id":24,"left_children":[1,3,5,-1,-1,-1,-1],"loss_changes":[2.149097E2,4.713867E1,9.993564E1,0E0,0E0,0E0,0E0],"parents":[2147483647,0,0,1,1,2,2],"right_children":[2,4,6,-1,-1,-1,-1],"split_conditions":[-2.05E0,-1.95E0,1.15E1,-7.813011E-4,2.5769258E-3,-9.157421E-4,-4.0000025E-3],"split_indices":[25,77,80,0,0,0,0],"split_type":[0,0,0,0,0,0,0],"sum_hessian":[6.121865E3,1.8920226E3,4.229843E3,6.222836E2,1.269739E3,1.9464528E3,2.2833901E3],"tree_param":{"num_deleted":"0","num_feature":"106","num_nodes":"7","size_leaf_vector":"0"}},{"base_weights":[1.3283491E-1,-1.4725804E-1,2.5812662E-1,7.8130126E-2,-2.576926E-1,9.157423E-2,4.0000024E-1],"categories":[],"categories_nodes":[],"categories_segments":[],"categories_sizes":[],"default_left":[1,1,1,0,0,0,0],"id":25,"left_children":[1,3,5,-1,-1,-1,-1],"loss_changes":[2.1490973E2,4.713868E1,9.993561E1,0E0,0E0,0E0,0E0],"parents":[2147483647,0,0,1,1,2,2],"right_children":[2,4,6,-1,-1,-1,-1],"split_conditions":[-2.05E0,-1.95E0,1.15E1,7.8130123E-4,-2.576926E-3,9.1574225E-4,4.0000025E-3],"split_indices":[25,77,80,0,0,0,0],"split_type":[0,0,0,0,0,0,0],"sum_hessian":[6.1218657E3,1.8920227E3,4.229843E3,6.222836E2,1.269739E3,1.9464528E3,2.2833901E3],"tree_param":{"num_deleted":"0","num_feature":"106","num_nodes":"7","size_leaf_vector":"0"}},{"base_weights":[-1.3153E-1,-3.2132107E-1,5.0381694E-2,-4.1439986E-1,-8.02092E-2,-1.7539062E-1,1.721362E-1],"categories":[],"categories_nodes":[],"categories_segments":[],"categories_sizes":[],"default_left":[1,1,1,0,0,0,0],"id":26,"left_children":[1,3,5,-1,-1,-1,-1],"loss_changes":[2.1137296E2,6.720764E1,8.5978134E1,0E0,0E0,0E0,0E0],"parents":[2147483647,0,0,1,1,2,2],"right_children":[2,4,6,-1,-1,-1,-1],"split_conditions":[1.45E1,3.75E0,-1.55E0,-4.1439985E-3,-8.02092E-4,-1.7539061E-3,1.721362E-3],"split_indices":[51,77,77,0,0,0,0],"split_type":[0,0,0,0,0,0,0],"sum_hessian":[6.120808E3,2.9951543E3,3.1256538E3,2.1604253E3,8.3472906E2,1.0949049E3,2.030749E3],"tree_param":{"num_deleted":"0","num_feature":"106","num_nodes":"7","size_leaf_vector":"0"}},{"base_weights":[1.3153002E-1,3.2132107E-1,-5.0381657E-2,4.1439986E-1,8.020921E-2,1.7539062E-1,-1.7213614E-1],"categories":[],"categories_nodes":[],"categories_segments":[],"categories_sizes":[],"default_left":[1,1,1,0,0,0,0],"id":27,"left_children":[1,3,5,-1,-1,-1,-1],"loss_changes":[2.113729E2,6.72077E1,8.597811E1,0E0,0E0,0E0,0E0],"parents":[2147483647,0,0,1,1,2,2],"right_children":[2,4,6,-1,-1,-1,-1],"split_conditions":[1.45E1,3.75E0,-1.55E0,4.1439985E-3,8.020921E-4,1.7539061E-3,-1.7213614E-3],"split_indices":[51,77,77,0,0,0,0],"split_type":[0,0,0,0,0,0,0],"sum_hessian":[6.120808E3,2.9951545E3,3.1256538E3,2.1604253E3,8.3472906E2,1.0949049E3,2.0307489E3],"tree_param":{"num_deleted":"0","num_feature":"106","num_nodes":"7","size_leaf_vector":"0"}},{"base_weights":[-1.3023822E-1,1.075062E-1,-2.7339157E-1,-1.6827185E-1,1.915912E-1,-4.9759483E-1,-1.6446176E-1],"categories":[],"categories_nodes":[],"categories_segments":[],"categories_sizes":[],"default_left":[1,1,1,0,0,0,0],"id":28,"left_children":[1,3,5,-1,-1,-1,-1],"loss_changes":[2.0834264E2,5.339174E1,9.3228E1,0E0,0E0,0E0,0E0],"parents":[2147483647,0,0,1,1,2,2],"right_children":[2,4,6,-1,-1,-1,-1],"split_conditions":[4.585E-1,3.705E-1,-1.45E0,-1.6827185E-3,1.915912E-3,-4.975948E-3,-1.6446175E-3],"split_indices":[3,55,77,0,0,0,0],"split_type":[0,0,0,0,0,0,0],"sum_hessian":[6.119754E3,2.3000896E3,3.819664E3,5.372011E2,1.7628884E3,1.2478097E3,2.5718545E3],"tree_param":{"num_deleted":"0","num_feature":"106","num_nodes":"7","size_leaf_vector":"0"}},{"base_weights":[1.3023823E-1,-1.0750619E-1,2.733916E-1,1.6827185E-1,-1.9159119E-1,4.9759486E-1,1.6446179E-1],"categories":[],"categories_nodes":[],"categories_segments":[],"categories_sizes":[],"default_left":[1,1,1,0,0,0,0],"id":29,"left_children":[1,3,5,-1,-1,-1,-1],"loss_changes":[2.0834262E2,5.339173E1,9.322803E1,0E0,0E0,0E0,0E0],"parents":[2147483647,0,0,1,1,2,2],"right_children":[2,4,6,-1,-1,-1,-1],"split_conditions":[4.585E-1,3.705E-1,-1.45E0,1.6827185E-3,-1.9159118E-3,4.9759485E-3,1.6446179E-3],"split_indices":[3,55,77,0,0,0,0],"split_type":[0,0,0,0,0,0,0],"sum_hessian":[6.1197534E3,2.3000896E3,3.819664E3,5.372011E2,1.7628884E3,1.2478097E3,2.5718542E3],"tree_param":{"num_deleted":"0","num_feature":"106","num_nodes":"7","size_leaf_vector":"0"}},{"base_weights":[-1.2896289E-1,1.4454088E-1,-2.513566E-1,-7.477501E-2,2.5201625E-1,-8.822705E-2,-3.904458E-1],"categories":[],"categories_nodes":[],"categories_segments":[],"categories_sizes":[],"default_left":[1,1,1,0,0,0,0],"id":30,"left_children":[1,3,5,-1,-1,-1,-1],"loss_changes":[2.0488869E2,4.4627552E1,9.589734E1,0E0,0E0,0E0,0E0],"parents":[2147483647,0,0,1,1,2,2],"right_children":[2,4,6,-1,-1,-1,-1],"split_conditions":[-2.05E0,-1.95E0,1.15E1,-7.477501E-4,2.5201624E-3,-8.8227045E-4,-3.904458E-3],"split_indices":[25,77,80,0,0,0,0],"split_type":[0,0,0,0,0,0,0],"sum_hessian":[6.1185366E3,1.8915208E3,4.227016E3,6.2218494E2,1.2693358E3,1.9461387E3,2.2808774E3],"tree_param":{"num_deleted":"0","num_feature":"106","num_nodes":"7","size_leaf_vector":"0"}},{"base_weights":[1.2896284E-1,-1.4454094E-1,2.5135657E-1,7.477499E-2,-2.520163E-1,8.822701E-2,3.9044577E-1],"categories":[],"categories_nodes":[],"categories_segments":[],"categories_sizes":[],"default_left":[1,1,1,0,0,0,0],"id":31,"left_children":[1,3,5,-1,-1,-1,-1],"loss_changes":[2.0488872E2,4.462757E1,9.589737E1,0E0,0E0,0E0,0E0],"parents":[2147483647,0,0,1,1,2,2],"right_children":[2,4,6,-1,-1,-1,-1],"split_conditions":[-2.05E0,-1.95E0,1.15E1,7.477499E-4,-2.520163E-3,8.822701E-4,3.9044577E-3],"split_indices":[25,77,80,0,0,0,0],"split_type":[0,0,0,0,0,0,0],"sum_hessian":[6.1185366E3,1.8915208E3,4.227016E3,6.2218494E2,1.2693358E3,1.9461387E3,2.2808774E3],"tree_param":{"num_deleted":"0","num_feature":"106","num_nodes":"7","size_leaf_vector":"0"}},{"base_weights":[-1.2770025E-1,-3.1330433E-1,5.010423E-2,-4.0464285E-1,-7.69368E-2,-1.7028527E-1,1.6893308E-1],"categories":[],"categories_nodes":[],"categories_segments":[],"categories_sizes":[],"default_left":[1,1,1,0,0,0,0],"id":32,"left_children":[1,3,5,-1,-1,-1,-1],"loss_changes":[2.0192651E2,6.459949E1,8.188547E1,0E0,0E0,0E0,0E0],"parents":[2147483647,0,0,1,1,2,2],"right_children":[2,4,6,-1,-1,-1,-1],"split_conditions":[1.45E1,3.75E0,-1.55E0,-4.0464285E-3,-7.6936797E-4,-1.7028527E-3,1.6893308E-3],"split_indices":[51,77,77,0,0,0,0],"split_type":[0,0,0,0,0,0,0],"sum_hessian":[6.117279E3,2.9926208E3,3.124658E3,2.1580017E3,8.346193E2,1.0944221E3,2.0302358E3],"tree_param":{"num_deleted":"0","num_feature":"106","num_nodes":"7","size_leaf_vector":"0"}},{"base_weights":[1.2770025E-1,3.1330433E-1,-5.0104223E-2,4.0464288E-1,7.693671E-2,1.7028528E-1,-1.6893308E-1],"categories":[],"categories_nodes":[],"categories_segments":[],"categories_sizes":[],"default_left":[1,1,1,0,0,0,0],"id":33,"left_children":[1,3,5,-1,-1,-1,-1],"loss_changes":[2.0192645E2,6.459955E1,8.188547E1,0E0,0E0,0E0,0E0],"parents":[2147483647,0,0,1,1,2,2],"right_children":[2,4,6,-1,-1,-1,-1],"split_conditions":[1.45E1,3.75E0,-1.55E0,4.0464285E-3,7.6936703E-4,1.7028528E-3,-1.6893308E-3],"split_indices":[51,77,77,0,0,0,0],"split_type":[0,0,0,0,0,0,0],"sum_hessian":[6.117279E3,2.9926208E3,3.124658E3,2.1580017E3,8.346193E2,1.0944221E3,2.0302358E3],"tree_param":{"num_deleted":"0","num_feature":"106","num_nodes":"7","size_leaf_vector":"0"}},{"base_weights":[-1.2645023E-1,9.704092E-2,-2.717543E-1,-1.6927876E-1,1.7705506E-1,-3.7600172E-1,-5.1168177E-2],"categories":[],"categories_nodes":[],"categories_segments":[],"categories_sizes":[],"default_left":[1,1,1,0,0,0,0],"id":34,"left_children":[1,3,5,-1,-1,-1,-1],"loss_changes":[1.9867181E2,5.140306E1,8.522989E1,0E0,0E0,0E0,0E0],"parents":[2147483647,0,0,1,1,2,2],"right_children":[2,4,6,-1,-1,-1,-1],"split_conditions":[4.6850002E-1,3.705E-1,2.95E0,-1.6927875E-3,1.7705506E-3,-3.760017E-3,-5.116818E-4],"split_indices":[3,55,77,0,0,0,0],"split_type":[0,0,0,0,0,0,0],"sum_hessian":[6.1160283E3,2.4098254E3,3.706203E3,5.5648865E2,1.8533367E3,2.5163086E3,1.1898943E3],"tree_param":{"num_deleted":"0","num_feature":"106","num_nodes":"7","size_leaf_vector":"0"}},{"base_weights":[1.2645023E-1,-9.7040914E-2,2.7175426E-1,1.6927882E-1,-1.7705506E-1,3.7600172E-1,5.1168185E-2],"categories":[],"categories_nodes":[],"categories_segments":[],"categories_sizes":[],"default_left":[1,1,1,0,0,0,0],"id":35,"left_children":[1,3,5,-1,-1,-1,-1],"loss_changes":[1.9867178E2,5.1403084E1,8.522986E1,0E0,0E0,0E0,0E0],"parents":[2147483647,0,0,1,1,2,2],"right_children":[2,4,6,-1,-1,-1,-1],"split_conditions":[4.6850002E-1,3.705E-1,2.95E0,1.6927881E-3,-1.7705506E-3,3.760017E-3,5.1168184E-4],"split_indices":[3,55,77,0,0,0,0],"split_type":[0,0,0,0,0,0,0],"sum_hessian":[6.1160283E3,2.4098252E3,3.706203E3,5.564886E2,1.8533367E3,2.5163088E3,1.1898943E3],"tree_param":{"num_deleted":"0","num_feature":"106","num_nodes":"7","size_leaf_vector":"0"}},{"base_weights":[-1.2521496E-1,1.4191057E-1,-2.4481142E-1,-7.157632E-2,2.465494E-1,-8.5119285E-2,-3.8111764E-1],"categories":[],"categories_nodes":[],"categories_segments":[],"categories_sizes":[],"default_left":[1,1,1,0,0,0,0],"id":36,"left_children":[1,3,5,-1,-1,-1,-1],"loss_changes":[1.9541298E2,4.228172E1,9.1927E1,0E0,0E0,0E0,0E0],"parents":[2147483647,0,0,1,1,2,2],"right_children":[2,4,6,-1,-1,-1,-1],"split_conditions":[-2.05E0,-1.95E0,1.15E1,-7.157632E-4,2.465494E-3,-8.511928E-4,-3.8111764E-3],"split_indices":[25,77,80,0,0,0,0],"split_type":[0,0,0,0,0,0,0],"sum_hessian":[6.114649E3,1.8909397E3,4.2237095E3,6.220772E2,1.2688625E3,1.9457516E3,2.2779575E3],"tree_param":{"num_deleted":"0","num_feature":"106","num_nodes":"7","size_leaf_vector":"0"}},{"base_weights":[1.2521496E-1,-1.4191058E-1,2.448114E-1,7.15763E-2,-2.465494E-1,8.511931E-2,3.811176E-1],"categories":[],"categories_nodes":[],"categories_segments":[],"categories_sizes":[],"default_left":[1,1,1,0,0,0,0],"id":37,"left_children":[1,3,5,-1,-1,-1,-1],"loss_changes":[1.95413E2,4.2281715E1,9.192691E1,0E0,0E0,0E0,0E0],"parents":[2147483647,0,0,1,1,2,2],"right_children":[2,4,6,-1,-1,-1,-1],"split_conditions":[-2.05E0,-1.95E0,1.15E1,7.1576296E-4,-2.465494E-3,8.5119304E-4,3.811176E-3],"split_indices":[25,77,80,0,0,0,0],"split_type":[0,0,0,0,0,0,0],"sum_hessian":[6.114649E3,1.8909397E3,4.223709E3,6.220772E2,1.2688625E3,1.9457517E3,2.2779575E3],"tree_param":{"num_deleted":"0","num_feature":"106","num_nodes":"7","size_leaf_vector":"0"}},{"base_weights":[-1.23992845E-1,-3.0552527E-1,4.9801096E-2,-2.348885E-1,-5.981181E-1,-1.7919643E-1,1.5911606E-1],"categories":[],"categories_nodes":[],"categories_segments":[],"categories_sizes":[],"default_left":[1,1,1,0,0,0,0],"id":38,"left_children":[1,3,5,-1,-1,-1,-1],"loss_changes":[1.9291376E2,6.1670013E1,7.824473E1,0E0,0E0,0E0,0E0],"parents":[2147483647,0,0,1,1,2,2],"right_children":[2,4,6,-1,-1,-1,-1],"split_conditions":[1.45E1,2.25E1,-1.95E0,-2.348885E-3,-5.9811813E-3,-1.7919643E-3,1.5911605E-3],"split_indices":[51,80,77,0,0,0,0],"split_type":[0,0,0,0,0,0,0],"sum_hessian":[6.1132065E3,2.9896643E3,3.1235422E3,2.4097205E3,5.799437E2,1.0090671E3,2.114475E3],"tree_param":{"num_deleted":"0","num_feature":"106","num_nodes":"7","size_leaf_vector":"0"}},{"base_weights":[1.23992845E-1,3.0552533E-1,-4.9801152E-2,2.3488854E-1,5.9811825E-1,1.7919642E-1,-1.5911613E-1],"categories":[],"categories_nodes":[],"categories_segments":[],"categories_sizes":[],"default_left":[1,1,1,0,0,0,0],"id":39,"left_children":[1,3,5,-1,-1,-1,-1],"loss_changes":[1.9291388E2,6.1670013E1,7.824477E1,0E0,0E0,0E0,0E0],"parents":[2147483647,0,0,1,1,2,2],"right_children":[2,4,6,-1,-1,-1,-1],"split_conditions":[1.45E1,2.25E1,-1.95E0,2.3488854E-3,5.981182E-3,1.7919642E-3,-1.5911614E-3],"split_indices":[51,80,77,0,0,0,0],"split_type":[0,0,0,0,0,0,0],"sum_hessian":[6.1132065E3,2.9896643E3,3.1235422E3,2.4097205E3,5.799438E2,1.0090671E3,2.114475E3],"tree_param":{"num_deleted":"0","num_feature":"106","num_nodes":"7","size_leaf_vector":"0"}},{"base_weights":[-1.22782625E-1,1.0389121E-1,-2.5942513E-1,-1.5692957E-1,1.8457524E-1,-4.7623187E-1,-1.5434992E-1],"categories":[],"categories_nodes":[],"categories_segments":[],"categories_sizes":[],"default_left":[1,1,1,0,0,0,0],"id":40,"left_children":[1,3,5,-1,-1,-1,-1],"loss_changes":[1.8936089E2,4.8424667E1,8.6815155E1,0E0,0E0,0E0,0E0],"parents":[2147483647,0,0,1,1,2,2],"right_children":[2,4,6,-1,-1,-1,-1],"split_conditions":[4.585E-1,3.725E-1,-1.45E0,-1.5692957E-3,1.8457524E-3,-4.7623185E-3,-1.5434992E-3],"split_indices":[3,55,77,0,0,0,0],"split_type":[0,0,0,0,0,0,0],"sum_hessian":[6.1118154E3,2.298731E3,3.8130845E3,5.428756E2,1.7558552E3,1.243591E3,2.5694937E3],"tree_param":{"num_deleted":"0","num_feature":"106","num_nodes":"7","size_leaf_vector":"0"}},{"base_weights":[1.2278264E-1,-1.0389117E-1,2.5942513E-1,1.5692955E-1,-1.8457519E-1,4.762319E-1,1.5434992E-1],"categories":[],"categories_nodes":[],"categories_segments":[],"categories_sizes":[],"default_left":[1,1,1,0,0,0,0],"id":41,"left_children":[1,3,5,-1,-1,-1,-1],"loss_changes":[1.8936087E2,4.8424644E1,8.6815216E1,0E0,0E0,0E0,0E0],"parents":[2147483647,0,0,1,1,2,2],"right_children":[2,4,6,-1,-1,-1,-1],"split_conditions":[4.585E-1,3.725E-1,-1.45E0,1.5692955E-3,-1.8457518E-3,4.762319E-3,1.5434992E-3],"split_indices":[3,55,77,0,0,0,0],"split_type":[0,0,0,0,0,0,0],"sum_hessian":[6.1118154E3,2.298731E3,3.8130845E3,5.428756E2,1.7558553E3,1.2435908E3,2.5694937E3],"tree_param":{"num_deleted":"0","num_feature":"106","num_nodes":"7","size_leaf_vector":"0"}},{"base_weights":[-1.21587515E-1,-3.0023128E-1,4.9356233E-2,-3.8896555E-1,-7.106488E-2,-1.6261889E-1,1.6360863E-1],"categories":[],"categories_nodes":[],"categories_segments":[],"categories_sizes":[],"default_left":[1,1,1,0,0,0,0],"id":42,"left_children":[1,3,5,-1,-1,-1,-1],"loss_changes":[1.8664012E2,6.074237E1,7.5680466E1,0E0,0E0,0E0,0E0],"parents":[2147483647,0,0,1,1,2,2],"right_children":[2,4,6,-1,-1,-1,-1],"split_conditions":[1.45E1,3.75E0,-1.55E0,-3.8896555E-3,-7.106488E-4,-1.6261889E-3,1.6360863E-3],"split_indices":[51,77,77,0,0,0,0],"split_type":[0,0,0,0,0,0,0],"sum_hessian":[6.1102417E3,2.9874587E3,3.1227827E3,2.1530796E3,8.3437933E2,1.0935222E3,2.0292606E3],"tree_param":{"num_deleted":"0","num_feature":"106","num_nodes":"7","size_leaf_vector":"0"}},{"base_weights":[1.2158749E-1,3.0023125E-1,-4.935624E-2,3.889655E-1,7.106485E-2,1.6261888E-1,-1.6360864E-1],"categories":[],"categories_nodes":[],"categories_segments":[],"categories_sizes":[],"default_left":[1,1,1,0,0,0,0],"id":43,"left_children":[1,3,5,-1,-1,-1,-1],"loss_changes":[1.866401E2,6.074237E1,7.568045E1,0E0,0E0,0E0,0E0],"parents":[2147483647,0,0,1,1,2,2],"right_children":[2,4,6,-1,-1,-1,-1],"split_conditions":[1.45E1,3.75E0,-1.55E0,3.8896548E-3,7.106485E-4,1.6261888E-3,-1.6360864E-3],"split_indices":[51,77,77,0,0,0,0],"split_type":[0,0,0,0,0,0,0],"sum_hessian":[6.1102417E3,2.9874587E3,3.1227827E3,2.1530796E3,8.343793E2,1.0935222E3,2.0292605E3],"tree_param":{"num_deleted":"0","num_feature":"106","num_nodes":"7","size_leaf_vector":"0"}},{"base_weights":[-1.2040318E-1,1.388303E-1,-2.3655064E-1,-6.6685036E-2,2.3958737E-1,-8.07427E-2,-3.6975506E-1],"categories":[],"categories_nodes":[],"categories_segments":[],"categories_sizes":[],"default_left":[1,1,1,0,0,0,0],"id":44,"left_children":[1,3,5,-1,-1,-1,-1],"loss_changes":[1.8399167E2,3.917409E1,8.754607E1,0E0,0E0,0E0,0E0],"parents":[2147483647,0,0,1,1,2,2],"right_children":[2,4,6,-1,-1,-1,-1],"split_conditions":[-2.05E0,-1.95E0,1.15E1,-6.6685036E-4,2.3958737E-3,-8.07427E-4,-3.6975506E-3],"split_indices":[25,77,80,0,0,0,0],"split_type":[0,0,0,0,0,0,0],"sum_hessian":[6.108698E3,1.8900457E3,4.2186523E3,6.218958E2,1.2681498E3,1.9450969E3,2.2735557E3],"tree_param":{"num_deleted":"0","num_feature":"106","num_nodes":"7","size_leaf_vector":"0"}},{"base_weights":[1.20403185E-1,-1.388303E-1,2.3655064E-1,6.668505E-2,-2.3958737E-1,8.074269E-2,3.6975506E-1],"categories":[],"categories_nodes":[],"categories_segments":[],"categories_sizes":[],"default_left":[1,1,1,0,0,0,0],"id":45,"left_children":[1,3,5,-1,-1,-1,-1],"loss_changes":[1.8399167E2,3.917409E1,8.754607E1,0E0,0E0,0E0,0E0],"parents":[2147483647,0,0,1,1,2,2],"right_children":[2,4,6,-1,-1,-1,-1],"split_conditions":[-2.05E0,-1.95E0,1.15E1,6.668505E-4,-2.3958737E-3,8.0742687E-4,3.6975506E-3],"split_indices":[25,77,80,0,0,0,0],"split_type":[0,0,0,0,0,0,0],"sum_hessian":[6.108698E3,1.8900457E3,4.2186523E3,6.218958E2,1.2681498E3,1.9450969E3,2.2735557E3],"tree_param":{"num_deleted":"0","num_feature":"106","num_nodes":"7","size_leaf_vector":"0"}},{"base_weights":[-1.19232275E-1,-2.1153219E-1,2.0159528E-1,-5.191973E-2,-3.478121E-1,-6.4426936E-2,2.715874E-1],"categories":[],"categories_nodes":[],"categories_segments":[],"categories_sizes":[],"default_left":[1,1,1,0,0,0,0],"id":46,"left_children":[1,3,5,-1,-1,-1,-1],"loss_changes":[1.8091614E2,1.0317078E2,2.5435966E1,0E0,0E0,0E0,0E0],"parents":[2147483647,0,0,1,1,2,2],"right_children":[2,4,6,-1,-1,-1,-1],"split_conditions":[2.35E1,1.15E1,3.595E-1,-5.1919726E-4,-3.4781208E-3,-6.4426934E-4,2.715874E-3],"split_indices":[51,80,55,0,0,0,0],"split_type":[0,0,0,0,0,0,0],"sum_hessian":[6.1070415E3,4.7428857E3,1.3641555E3,2.185079E3,2.557807E3,2.841715E2,1.0799839E3],"tree_param":{"num_deleted":"0","num_feature":"106","num_nodes":"7","size_leaf_vector":"0"}},{"base_weights":[1.1923229E-1,2.115322E-1,-2.0159528E-1,5.191979E-2,3.4781206E-1,6.4426936E-2,-2.715874E-1],"categories":[],"categories_nodes":[],"categories_segments":[],"categories_sizes":[],"default_left":[1,1,1,0,0,0,0],"id":47,"left_children":[1,3,5,-1,-1,-1,-1],"loss_changes":[1.8091617E2,1.03170715E2,2.5435959E1,0E0,0E0,0E0,0E0],"parents":[2147483647,0,0,1,1,2,2],"right_children":[2,4,6,-1,-1,-1,-1],"split_conditions":[2.35E1,1.15E1,3.595E-1,5.191979E-4,3.4781205E-3,6.4426934E-4,-2.715874E-3],"split_indices":[51,80,55,0,0,0,0],"split_type":[0,0,0,0,0,0,0],"sum_hessian":[6.1070415E3,4.7428857E3,1.3641555E3,2.185079E3,2.557807E3,2.841715E2,1.079984E3],"tree_param":{"num_deleted":"0","num_feature":"106","num_nodes":"7","size_leaf_vector":"0"}},{"base_weights":[-1.18071035E-1,-2.9317182E-1,4.9358804E-2,-2.2436172E-1,-5.789679E-1,-1.8946871E-1,1.4636543E-1],"categories":[],"categories_nodes":[],"categories_segments":[],"categories_sizes":[],"default_left":[1,1,1,0,0,0,0],"id":48,"left_children":[1,3,5,-1,-1,-1,-1],"loss_changes":[1.7903836E2,5.8572113E1,7.2368576E1,0E0,0E0,0E0,0E0],"parents":[2147483647,0,0,1,1,2,2],"right_children":[2,4,6,-1,-1,-1,-1],"split_conditions":[1.45E1,2.25E1,-2.45E0,-2.243617E-3,-5.789679E-3,-1.8946871E-3,1.4636543E-3],"split_indices":[51,80,77,0,0,0,0],"split_type":[0,0,0,0,0,0,0],"sum_hessian":[6.1054673E3,2.984001E3,3.1214663E3,2.4064048E3,5.7759625E2,9.0136896E2,2.2200974E3],"tree_param":{"num_deleted":"0","num_feature":"106","num_nodes":"7","size_leaf_vector":"0"}},{"base_weights":[1.1807104E-1,2.9317185E-1,-4.935883E-2,2.2436176E-1,5.789679E-1,1.8946871E-1,-1.4636546E-1],"categories":[],"categories_nodes":[],"categories_segments":[],"categories_sizes":[],"default_left":[1,1,1,0,0,0,0],"id":49,"left_children":[1,3,5,-1,-1,-1,-1],"loss_changes":[1.7903842E2,5.8572083E1,7.236859E1,0E0,0E0,0E0,0E0],"parents":[2147483647,0,0,1,1,2,2],"right_children":[2,4,6,-1,-1,-1,-1],"split_conditions":[1.45E1,2.25E1,-2.45E0,2.2436175E-3,5.789679E-3,1.8946871E-3,-1.4636546E-3],"split_indices":[51,80,77,0,0,0,0],"split_type":[0,0,0,0,0,0,0],"sum_hessian":[6.1054673E3,2.9840007E3,3.1214663E3,2.4064045E3,5.7759625E2,9.0136896E2,2.2200974E3],"tree_param":{"num_deleted":"0","num_feature":"106","num_nodes":"7","size_leaf_vector":"0"}},{"base_weights":[-1.16923526E-1,9.344471E-2,-2.5393677E-1,-1.693551E-1,1.647378E-1,-3.5381916E-1,-4.3271903E-2],"categories":[],"categories_nodes":[],"categories_segments":[],"categories_sizes":[],"default_left":[1,1,1,0,0,0,0],"id":50,"left_children":[1,3,5,-1,-1,-1,-1],"loss_changes":[1.7598465E2,4.5154625E1,7.778111E1,0E0,0E0,0E0,0E0],"parents":[2147483647,0,0,1,1,2,2],"right_children":[2,4,6,-1,-1,-1,-1],"split_conditions":[4.6850002E-1,3.585E-1,2.95E0,-1.693551E-3,1.647378E-3,-3.5381916E-3,-4.32719E-4],"split_indices":[3,55,77,0,0,0,0],"split_type":[0,0,0,0,0,0,0],"sum_hessian":[6.1038296E3,2.4075813E3,3.6962485E3,5.134675E2,1.8941136E3,2.5069504E3,1.1892981E3],"tree_param":{"num_deleted":"0","num_feature":"106","num_nodes":"7","size_leaf_vector":"0"}},{"base_weights":[1.1692352E-1,-9.3444735E-2,2.539368E-1,1.6935512E-1,-1.6473785E-1,3.5381916E-1,4.327192E-2],"categories":[],"categories_nodes":[],"categories_segments":[],"categories_sizes":[],"default_left":[1,1,1,0,0,0,0],"id":51,"left_children":[1,3,5,-1,-1,-1,-1],"loss_changes":[1.7598468E2,4.5154648E1,7.77811E1,0E0,0E0,0E0,0E0],"parents":[2147483647,0,0,1,1,2,2],"right_children":[2,4,6,-1,-1,-1,-1],"split_conditions":[4.6850002E-1,3.585E-1,2.95E0,1.6935512E-3,-1.6473784E-3,3.5381916E-3,4.3271921E-4],"split_indices":[3,55,77,0,0,0,0],"split_type":[0,0,0,0,0,0,0],"sum_hessian":[6.1038296E3,2.4075813E3,3.6962485E3,5.134676E2,1.8941136E3,2.5069504E3,1.1892981E3],"tree_param":{"num_deleted":"0","num_feature":"106","num_nodes":"7","size_leaf_vector":"0"}},{"base_weights":[-1.15789086E-1,-2.06191E-1,1.9828631E-1,-4.966822E-2,-3.4000158E-1,-6.0460906E-2,2.663749E-1],"categories":[],"categories_nodes":[],"categories_segments":[],"categories_sizes":[],"default_left":[1,1,1,0,0,0,0],"id":52,"left_children":[1,3,5,-1,-1,-1,-1],"loss_changes":[1.7332489E2,9.924887E1,2.4056557E1,0E0,0E0,0E0,0E0],"parents":[2147483647,0,0,1,1,2,2],"right_children":[2,4,6,-1,-1,-1,-1],"split_conditions":[2.35E1,1.15E1,3.595E-1,-4.966822E-4,-3.4000156E-3,-6.04609E-4,2.6637488E-3],"split_indices":[51,80,55,0,0,0,0],"split_type":[0,0,0,0,0,0,0],"sum_hessian":[6.10205E3,4.7384897E3,1.3635602E3,2.1845354E3,2.5539546E3,2.840891E2,1.0794711E3],"tree_param":{"num_deleted":"0","num_feature":"106","num_nodes":"7","size_leaf_vector":"0"}},{"base_weights":[1.1578911E-1,2.0619103E-1,-1.982863E-1,4.966826E-2,3.4000158E-1,6.0461003E-2,-2.663749E-1],"categories":[],"categories_nodes":[],"categories_segments":[],"categories_sizes":[],"default_left":[1,1,1,0,0,0,0],"id":53,"left_children":[1,3,5,-1,-1,-1,-1],"loss_changes":[1.733249E2,9.9248856E1,2.4056564E1,0E0,0E0,0E0,0E0],"parents":[2147483647,0,0,1,1,2,2],"right_children":[2,4,6,-1,-1,-1,-1],"split_conditions":[2.35E1,1.15E1,3.595E-1,4.966826E-4,3.4000156E-3,6.0461E-4,-2.6637488E-3],"split_indices":[51,80,55,0,0,0,0],"split_type":[0,0,0,0,0,0,0],"sum_hessian":[6.10205E3,4.7384897E3,1.3635602E3,2.1845354E3,2.5539546E3,2.840891E2,1.0794711E3],"tree_param":{"num_deleted":"0","num_feature":"106","num_nodes":"7","size_leaf_vector":"0"}},{"base_weights":[-1.1466406E-1,-2.8621113E-1,4.9232718E-2,-3.5403368E-1,-4.760651E-3,-1.5393552E-1,1.5868595E-1],"categories":[],"categories_nodes":[],"categories_segments":[],"categories_sizes":[],"default_left":[1,1,1,0,0,0,0],"id":54,"left_children":[1,3,5,-1,-1,-1,-1],"loss_changes":[1.715593E2,5.690625E1,6.942954E1,0E0,0E0,0E0,0E0],"parents":[2147483647,0,0,1,1,2,2],"right_children":[2,4,6,-1,-1,-1,-1],"split_conditions":[1.45E1,5.05E0,-1.55E0,-3.5403366E-3,-4.7606507E-5,-1.5393551E-3,1.5868595E-3],"split_indices":[51,77,77,0,0,0,0],"split_type":[0,0,0,0,0,0,0],"sum_hessian":[6.100335E3,2.980239E3,3.1200957E3,2.4013225E3,5.789166E2,1.0922477E3,2.027848E3],"tree_param":{"num_deleted":"0","num_feature":"106","num_nodes":"7","size_leaf_vector":"0"}},{"base_weights":[1.1466407E-1,2.8621113E-1,-4.9232703E-2,3.5403368E-1,4.760648E-3,1.5393555E-1,-1.5868594E-1],"categories":[],"categories_nodes":[],"categories_segments":[],"categories_sizes":[],"default_left":[1,1,1,0,0,0,0],"id":55,"left_children":[1,3,5,-1,-1,-1,-1],"loss_changes":[1.715593E2,5.690628E1,6.942955E1,0E0,0E0,0E0,0E0],"parents":[2147483647,0,0,1,1,2,2],"right_children":[2,4,6,-1,-1,-1,-1],"split_conditions":[1.45E1,5.05E0,-1.55E0,3.5403366E-3,4.760648E-5,1.5393555E-3,-1.5868593E-3],"split_indices":[51,77,77,0,0,0,0],"split_type":[0,0,0,0,0,0,0],"sum_hessian":[6.100335E3,2.9802393E3,3.1200957E3,2.4013225E3,5.789166E2,1.0922477E3,2.027848E3],"tree_param":{"num_deleted":"0","num_feature":"106","num_nodes":"7","size_leaf_vector":"0"}},{"base_weights":[-1.13551624E-1,-2.2301428E-1,1.3845713E-1,-1.3172129E-1,-4.5330495E-1,-1.2802786E-1,2.0883667E-1],"categories":[],"categories_nodes":[],"categories_segments":[],"categories_sizes":[],"default_left":[1,1,1,0,0,0,0],"id":56,"left_children":[1,3,5,-1,-1,-1,-1],"loss_changes":[1.6829028E2,8.935158E1,3.4680786E1,0E0,0E0,0E0,0E0],"parents":[2147483647,0,0,1,1,2,2],"right_children":[2,4,6,-1,-1,-1,-1],"split_conditions":[1.95E1,1.95E1,3.585E-1,-1.3172128E-3,-4.533049E-3,-1.2802785E-3,2.0883668E-3],"split_indices":[28,80,55,0,0,0,0],"split_type":[0,0,0,0,0,0,0],"sum_hessian":[6.09855E3,4.2518354E3,1.8467144E3,3.045926E3,1.2059094E3,3.8565433E2,1.46106E3],"tree_param":{"num_deleted":"0","num_feature":"106","num_nodes":"7","size_leaf_vector":"0"}},{"base_weights":[1.13551654E-1,2.230143E-1,-1.384571E-1,1.3172132E-1,4.5330498E-1,1.280279E-1,-2.0883666E-1],"categories":[],"categories_nodes":[],"categories_segments":[],"categories_sizes":[],"default_left":[1,1,1,0,0,0,0],"id":57,"left_children":[1,3,5,-1,-1,-1,-1],"loss_changes":[1.6829031E2,8.935156E1,3.468079E1,0E0,0E0,0E0,0E0],"parents":[2147483647,0,0,1,1,2,2],"right_children":[2,4,6,-1,-1,-1,-1],"split_conditions":[1.95E1,1.95E1,3.585E-1,1.3172132E-3,4.5330497E-3,1.280279E-3,-2.0883665E-3],"split_indices":[28,80,55,0,0,0,0],"split_type":[0,0,0,0,0,0,0],"sum_hessian":[6.09855E3,4.2518354E3,1.8467142E3,3.045926E3,1.2059094E3,3.856543E2,1.4610599E3],"tree_param":{"num_deleted":"0","num_feature":"106","num_nodes":"7","size_leaf_vector":"0"}},{"base_weights":[-1.1245085E-1,-2.8145766E-1,4.8920922E-2,-2.1435215E-1,-5.6107116E-1,-1.81451E-1,1.4244057E-1],"categories":[],"categories_nodes":[],"categories_segments":[],"categories_sizes":[],"default_left":[1,1,1,0,0,0,0],"id":58,"left_children":[1,3,5,-1,-1,-1,-1],"loss_changes":[1.6631686E2,5.5768204E1,6.7247925E1,0E0,0E0,0E0,0E0],"parents":[2147483647,0,0,1,1,2,2],"right_children":[2,4,6,-1,-1,-1,-1],"split_conditions":[1.45E1,2.25E1,-2.45E0,-2.1435213E-3,-5.6107114E-3,-1.8145099E-3,1.4244057E-3],"split_indices":[51,80,77,0,0,0,0],"split_type":[0,0,0,0,0,0,0],"sum_hessian":[6.096735E3,2.9775562E3,3.1191785E3,2.4026914E3,5.7486475E2,9.003524E2,2.218826E3],"tree_param":{"num_deleted":"0","num_feature":"106","num_nodes":"7","size_leaf_vector":"0"}},{"base_weights":[1.12450846E-1,2.8145763E-1,-4.8920922E-2,2.1435212E-1,5.6107116E-1,1.81451E-1,-1.4244057E-1],"categories":[],"categories_nodes":[],"categories_segments":[],"categories_sizes":[],"default_left":[1,1,1,0,0,0,0],"id":59,"left_children":[1,3,5,-1,-1,-1,-1],"loss_changes":[1.6631685E2,5.576822E1,6.724791E1,0E0,0E0,0E0,0E0],"parents":[2147483647,0,0,1,1,2,2],"right_children":[2,4,6,-1,-1,-1,-1],"split_conditions":[1.45E1,2.25E1,-2.45E0,2.143521E-3,5.6107114E-3,1.8145099E-3,-1.4244057E-3],"split_indices":[51,80,77,0,0,0,0],"split_type":[0,0,0,0,0,0,0],"sum_hessian":[6.096735E3,2.9775562E3,3.1191785E3,2.4026914E3,5.748647E2,9.003524E2,2.218826E3],"tree_param":{"num_deleted":"0","num_feature":"106","num_nodes":"7","size_leaf_vector":"0"}},{"base_weights":[-1.11362144E-1,-1.994079E-1,1.9431518E-1,-4.6543404E-2,-3.3032122E-1,-5.5401858E-2,2.600425E-1],"categories":[],"categories_nodes":[],"categories_segments":[],"categories_sizes":[],"default_left":[1,1,1,0,0,0,0],"id":60,"left_children":[1,3,5,-1,-1,-1,-1],"loss_changes":[1.6410065E2,9.4705154E1,2.2396923E1,0E0,0E0,0E0,0E0],"parents":[2147483647,0,0,1,1,2,2],"right_children":[2,4,6,-1,-1,-1,-1],"split_conditions":[2.35E1,1.15E1,3.595E-1,-4.6543404E-4,-3.303212E-3,-5.540186E-4,2.600425E-3],"split_indices":[51,80,55,0,0,0,0],"split_type":[0,0,0,0,0,0,0],"sum_hessian":[6.094875E3,4.7321875E3,1.3626877E3,2.1836936E3,2.548494E3,2.8396802E2,1.0787197E3],"tree_param":{"num_deleted":"0","num_feature":"106","num_nodes":"7","size_leaf_vector":"0"}},{"base_weights":[1.1136215E-1,1.9940792E-1,-1.943152E-1,4.654344E-2,3.303212E-1,5.540188E-2,-2.600425E-1],"categories":[],"categories_nodes":[],"categories_segments":[],"categories_sizes":[],"default_left":[1,1,1,0,0,0,0],"id":61,"left_children":[1,3,5,-1,-1,-1,-1],"loss_changes":[1.6410066E2,9.4705124E1,2.239693E1,0E0,0E0,0E0,0E0],"parents":[2147483647,0,0,1,1,2,2],"right_children":[2,4,6,-1,-1,-1,-1],"split_conditions":[2.35E1,1.15E1,3.595E-1,4.654344E-4,3.3032119E-3,5.5401877E-4,-2.600425E-3],"split_indices":[51,80,55,0,0,0,0],"split_type":[0,0,0,0,0,0,0],"sum_hessian":[6.094875E3,4.7321875E3,1.3626877E3,2.1836936E3,2.548494E3,2.8396802E2,1.0787197E3],"tree_param":{"num_deleted":"0","num_feature":"106","num_nodes":"7","size_leaf_vector":"0"}},{"base_weights":[-1.10283144E-1,-2.7695313E-1,4.875639E-2,-3.4362805E-1,-8.117266E-4,-1.4832403E-1,1.54886E-1],"categories":[],"categories_nodes":[],"categories_segments":[],"categories_sizes":[],"default_left":[1,1,1,0,0,0,0],"id":62,"left_children":[1,3,5,-1,-1,-1,-1],"loss_changes":[1.615478E2,5.4788666E1,6.526503E1,0E0,0E0,0E0,0E0],"parents":[2147483647,0,0,1,1,2,2],"right_children":[2,4,6,-1,-1,-1,-1],"split_conditions":[1.45E1,5.05E0,-1.55E0,-3.4362804E-3,-8.117266E-6,-1.4832403E-3,1.54886E-3],"split_indices":[51,77,77,0,0,0,0],"split_type":[0,0,0,0,0,0,0],"sum_hessian":[6.0929976E3,2.9747659E3,3.1182314E3,2.3960017E3,5.7876416E2,1.0913046E3,2.0269269E3],"tree_param":{"num_deleted":"0","num_feature":"106","num_nodes":"7","size_leaf_vector":"0"}},{"base_weights":[1.1028314E-1,2.7695313E-1,-4.8756402E-2,3.4362805E-1,8.11726E-4,1.48324E-1,-1.54886E-1],"categories":[],"categories_nodes":[],"categories_segments":[],"categories_sizes":[],"default_left":[1,1,1,0,0,0,0],"id":63,"left_children":[1,3,5,-1,-1,-1,-1],"loss_changes":[1.6154782E2,5.4788666E1,6.526503E1,0E0,0E0,0E0,0E0],"parents":[2147483647,0,0,1,1,2,2],"right_children":[2,4,6,-1,-1,-1,-1],"split_conditions":[1.45E1,5.05E0,-1.55E0,3.4362804E-3,8.117259E-6,1.4832399E-3,-1.54886E-3],"split_indices":[51,77,77,0,0,0,0],"split_type":[0,0,0,0,0,0,0],"sum_hessian":[6.0929976E3,2.9747659E3,3.1182314E3,2.3960017E3,5.7876416E2,1.0913046E3,2.0269269E3],"tree_param":{"num_deleted":"0","num_feature":"106","num_nodes":"7","size_leaf_vector":"0"}},{"base_weights":[-1.0921628E-1,-2.0781793E-1,1.558988E-1,-7.5711556E-2,-3.5342816E-1,-9.624291E-2,2.20258E-1],"categories":[],"categories_nodes":[],"categories_segments":[],"categories_sizes":[],"default_left":[1,1,1,0,0,0,0],"id":64,"left_children":[1,3,5,-1,-1,-1,-1],"loss_changes":[1.5928326E2,8.539961E1,2.6830761E1,0E0,0E0,0E0,0E0],"parents":[2147483647,0,0,1,1,2,2],"right_children":[2,4,6,-1,-1,-1,-1],"split_conditions":[2.15E1,1.35E1,3.585E-1,-7.5711554E-4,-3.5342814E-3,-9.624291E-4,2.20258E-3],"split_indices":[29,80,55,0,0,0,0],"split_type":[0,0,0,0,0,0,0],"sum_hessian":[6.091047E3,4.439954E3,1.6510924E3,2.3287197E3,2.1112346E3,3.3564233E2,1.3154501E3],"tree_param":{"num_deleted":"0","num_feature":"106","num_nodes":"7","size_leaf_vector":"0"}},{"base_weights":[1.09216265E-1,2.0781791E-1,-1.5589881E-1,7.571153E-2,3.5342816E-1,9.624292E-2,-2.2025801E-1],"categories":[],"categories_nodes":[],"categories_segments":[],"categories_sizes":[],"default_left":[1,1,1,0,0,0,0],"id":65,"left_children":[1,3,5,-1,-1,-1,-1],"loss_changes":[1.5928326E2,8.539961E1,2.6830761E1,0E0,0E0,0E0,0E0],"parents":[2147483647,0,0,1,1,2,2],"right_children":[2,4,6,-1,-1,-1,-1],"split_conditions":[2.15E1,1.35E1,3.585E-1,7.571153E-4,3.5342814E-3,9.6242916E-4,-2.20258E-3],"split_indices":[29,80,55,0,0,0,0],"split_type":[0,0,0,0,0,0,0],"sum_hessian":[6.091047E3,4.4399546E3,1.6510925E3,2.3287197E3,2.1112346E3,3.3564233E2,1.3154501E3],"tree_param":{"num_deleted":"0","num_feature":"106","num_nodes":"7","size_leaf_vector":"0"}},{"base_weights":[-1.0816023E-1,-1.9431268E-1,1.907917E-1,-4.479828E-2,-3.2255396E-1,-5.218878E-2,2.54766E-1],"categories":[],"categories_nodes":[],"categories_segments":[],"categories_sizes":[],"default_left":[1,1,1,0,0,0,0],"id":66,"left_children":[1,3,5,-1,-1,-1,-1],"loss_changes":[1.5688933E2,9.06425E1,2.119928E1,0E0,0E0,0E0,0E0],"parents":[2147483647,0,0,1,1,2,2],"right_children":[2,4,6,-1,-1,-1,-1],"split_conditions":[2.35E1,1.15E1,3.595E-1,-4.479828E-4,-3.2255396E-3,-5.218878E-4,2.54766E-3],"split_indices":[51,80,55,0,0,0,0],"split_type":[0,0,0,0,0,0,0],"sum_hessian":[6.0890635E3,4.7271387E3,1.3619244E3,2.1831682E3,2.5439705E3,2.8388522E2,1.0780392E3],"tree_param":{"num_deleted":"0","num_feature":"106","num_nodes":"7","size_leaf_vector":"0"}},{"base_weights":[1.0816023E-1,1.9431269E-1,-1.9079176E-1,4.4798292E-2,3.2255396E-1,5.2188784E-2,-2.5476605E-1],"categories":[],"categories_nodes":[],"categories_segments":[],"categories_sizes":[],"default_left":[1,1,1,0,0,0,0],"id":67,"left_children":[1,3,5,-1,-1,-1,-1],"loss_changes":[1.568894E2,9.064252E1,2.1199287E1,0E0,0E0,0E0,0E0],"parents":[2147483647,0,0,1,1,2,2],"right_children":[2,4,6,-1,-1,-1,-1],"split_conditions":[2.35E1,1.15E1,3.595E-1,4.4798292E-4,3.2255396E-3,5.2188785E-4,-2.5476604E-3],"split_indices":[51,80,55,0,0,0,0],"split_type":[0,0,0,0,0,0,0],"sum_hessian":[6.0890635E3,4.7271387E3,1.3619244E3,2.1831682E3,2.5439705E3,2.8388522E2,1.0780392E3],"tree_param":{"num_deleted":"0","num_feature":"106","num_nodes":"7","size_leaf_vector":"0"}},{"base_weights":[-1.071144E-1,-2.7066517E-1,4.8807953E-2,-2.0508637E-1,-5.4485404E-1,-1.7354365E-1,1.390146E-1],"categories":[],"categories_nodes":[],"categories_segments":[],"categories_sizes":[],"default_left":[1,1,1,0,0,0,0],"id":68,"left_children":[1,3,5,-1,-1,-1,-1],"loss_changes":[1.5526628E2,5.3318756E1,6.255498E1,0E0,0E0,0E0,0E0],"parents":[2147483647,0,0,1,1,2,2],"right_children":[2,4,6,-1,-1,-1,-1],"split_conditions":[1.45E1,2.25E1,-2.45E0,-2.0508636E-3,-5.44854E-3,-1.7354364E-3,1.390146E-3],"split_indices":[51,80,77,0,0,0,0],"split_type":[0,0,0,0,0,0,0],"sum_hessian":[6.087065E3,2.9704995E3,3.1165654E3,2.3985718E3,5.719276E2,8.9919745E2,2.217368E3],"tree_param":{"num_deleted":"0","num_feature":"106","num_nodes":"7","size_leaf_vector":"0"}},{"base_weights":[1.0711442E-1,2.706652E-1,-4.880795E-2,2.0508638E-1,5.4485416E-1,1.7354365E-1,-1.390146E-1],"categories":[],"categories_nodes":[],"categories_segments":[],"categories_sizes":[],"default_left":[1,1,1,0,0,0,0],"id":69,"left_children":[1,3,5,-1,-1,-1,-1],"loss_changes":[1.5526631E2,5.3318756E1,6.255498E1,0E0,0E0,0E0,0E0],"parents":[2147483647,0,0,1,1,2,2],"right_children":[2,4,6,-1,-1,-1,-1],"split_conditions":[1.45E1,2.25E1,-2.45E0,2.0508638E-3,5.4485416E-3,1.7354364E-3,-1.390146E-3],"split_indices":[51,80,77,0,0,0,0],"split_type":[0,0,0,0,0,0,0],"sum_hessian":[6.087065E3,2.9704995E3,3.1165654E3,2.3985718E3,5.719277E2,8.9919745E2,2.217368E3],"tree_param":{"num_deleted":"0","num_feature":"106","num_nodes":"7","size_leaf_vector":"0"}},{"base_weights":[-1.0608069E-1,8.9980975E-2,-2.3411563E-1,2.390342E-1,-1.925042E-2,-4.3262148E-1,-1.3828492E-1],"categories":[],"categories_nodes":[],"categories_segments":[],"categories_sizes":[],"default_left":[1,1,1,0,0,0,0],"id":70,"left_children":[1,3,5,-1,-1,-1,-1],"loss_changes":[1.527969E2,3.916137E1,6.998279E1,0E0,0E0,0E0,0E0],"parents":[2147483647,0,0,1,1,2,2],"right_children":[2,4,6,-1,-1,-1,-1],"split_conditions":[4.6850002E-1,-4.95E0,-1.45E0,2.390342E-3,-1.925042E-4,-4.3262145E-3,-1.3828492E-3],"split_indices":[3,25,77,0,0,0,0],"split_type":[0,0,0,0,0,0,0],"sum_hessian":[6.0850215E3,2.4040159E3,3.6810054E3,1.01618207E3,1.3878339E3,1.1973252E3,2.4836802E3],"tree_param":{"num_deleted":"0","num_feature":"106","num_nodes":"7","size_leaf_vector":"0"}},{"base_weights":[1.0608071E-1,-8.9980945E-2,2.3411565E-1,-2.3903416E-1,1.9250434E-2,4.3262148E-1,1.3828494E-1],"categories":[],"categories_nodes":[],"categories_segments":[],"categories_sizes":[],"default_left":[1,1,1,0,0,0,0],"id":71,"left_children":[1,3,5,-1,-1,-1,-1],"loss_changes":[1.5279688E2,3.9161354E1,6.99828E1,0E0,0E0,0E0,0E0],"parents":[2147483647,0,0,1,1,2,2],"right_children":[2,4,6,-1,-1,-1,-1],"split_conditions":[4.6850002E-1,-4.95E0,-1.45E0,-2.3903416E-3,1.9250433E-4,4.3262145E-3,1.3828493E-3],"split_indices":[3,25,77,0,0,0,0],"split_type":[0,0,0,0,0,0,0],"sum_hessian":[6.0850215E3,2.4040159E3,3.6810054E3,1.01618207E3,1.3878339E3,1.1973252E3,2.4836802E3],"tree_param":{"num_deleted":"0","num_feature":"106","num_nodes":"7","size_leaf_vector":"0"}},{"base_weights":[-1.0505592E-1,-2.66017E-1,4.827489E-2,-3.313408E-1,3.7952075E-3,-8.0295555E-2,2.011109E-1],"categories":[],"categories_nodes":[],"categories_segments":[],"categories_sizes":[],"default_left":[1,1,1,0,0,0,0],"id":72,"left_children":[1,3,5,-1,-1,-1,-1],"loss_changes":[1.5016766E2,5.2317993E1,6.1259857E1,0E0,0E0,0E0,0E0],"parents":[2147483647,0,0,1,1,2,2],"right_children":[2,4,6,-1,-1,-1,-1],"split_conditions":[1.45E1,5.05E0,6.5E-1,-3.3134078E-3,3.7952075E-5,-8.0295553E-4,2.011109E-3],"split_indices":[51,77,77,0,0,0,0],"split_type":[0,0,0,0,0,0,0],"sum_hessian":[6.0829966E3,2.9672993E3,3.1156975E3,2.388738E3,5.785614E2,1.6924392E3,1.4232582E3],"tree_param":{"num_deleted":"0","num_feature":"106","num_nodes":"7","size_leaf_vector":"0"}},{"base_weights":[1.0505594E-1,2.6601705E-1,-4.8274893E-2,3.3134085E-1,-3.7951786E-3,8.0295555E-2,-2.0111091E-1],"categories":[],"categories_nodes":[],"categories_segments":[],"categories_sizes":[],"default_left":[1,1,1,0,0,0,0],"id":73,"left_children":[1,3,5,-1,-1,-1,-1],"loss_changes":[1.5016772E2,5.231804E1,6.125986E1,0E0,0E0,0E0,0E0],"parents":[2147483647,0,0,1,1,2,2],"right_children":[2,4,6,-1,-1,-1,-1],"split_conditions":[1.45E1,5.05E0,6.5E-1,3.3134085E-3,-3.7951784E-5,8.0295553E-4,-2.0111091E-3],"split_indices":[51,77,77,0,0,0,0],"split_type":[0,0,0,0,0,0,0],"sum_hessian":[6.0829966E3,2.9672993E3,3.1156973E3,2.3887378E3,5.7856146E2,1.6924392E3,1.4232582E3],"tree_param":{"num_deleted":"0","num_feature":"106","num_nodes":"7","size_leaf_vector":"0"}},{"base_weights":[-1.0404089E-1,-1.878204E-1,1.8642174E-1,-4.168189E-2,-3.1341785E-1,-5.0961636E-2,2.4896222E-1],"categories":[],"categories_nodes":[],"categories_segments":[],"categories_sizes":[],"default_left":[1,1,1,0,0,0,0],"id":74,"left_children":[1,3,5,-1,-1,-1,-1],"loss_changes":[1.4803854E2,8.663783E1,2.0233593E1,0E0,0E0,0E0,0E0],"parents":[2147483647,0,0,1,1,2,2],"right_children":[2,4,6,-1,-1,-1,-1],"split_conditions":[2.35E1,1.15E1,3.595E-1,-4.168189E-4,-3.1341785E-3,-5.0961634E-4,2.4896222E-3],"split_indices":[51,80,55,0,0,0,0],"split_type":[0,0,0,0,0,0,0],"sum_hessian":[6.0809653E3,4.7199277E3,1.3610377E3,2.182185E3,2.5377424E3,2.838438E2,1.077194E3],"tree_param":{"num_deleted":"0","num_feature":"106","num_nodes":"7","size_leaf_vector":"0"}},{"base_weights":[1.0404089E-1,1.878204E-1,-1.8642174E-1,4.168188E-2,3.1341788E-1,5.0961673E-2,-2.4896222E-1],"categories":[],"categories_nodes":[],"categories_segments":[],"categories_sizes":[],"default_left":[1,1,1,0,0,0,0],"id":75,"left_children":[1,3,5,-1,-1,-1,-1],"loss_changes":[1.4803853E2,8.663783E1,2.02336E1,0E0,0E0,0E0,0E0],"parents":[2147483647,0,0,1,1,2,2],"right_children":[2,4,6,-1,-1,-1,-1],"split_conditions":[2.35E1,1.15E1,3.595E-1,4.1681877E-4,3.1341787E-3,5.0961674E-4,-2.4896222E-3],"split_indices":[51,80,55,0,0,0,0],"split_type":[0,0,0,0,0,0,0],"sum_hessian":[6.0809653E3,4.7199277E3,1.3610377E3,2.182185E3,2.5377424E3,2.838438E2,1.077194E3],"tree_param":{"num_deleted":"0","num_feature":"106","num_nodes":"7","size_leaf_vector":"0"}},{"base_weights":[-1.03037186E-1,8.864122E-2,-2.2833796E-1,2.3899576E-1,-1.513249E-2,-4.238217E-1,-1.34166E-1],"categories":[],"categories_nodes":[],"categories_segments":[],"categories_sizes":[],"default_left":[1,1,1,0,0,0,0],"id":76,"left_children":[1,3,5,-1,-1,-1,-1],"loss_changes":[1.4604243E2,3.7513786E1,6.762927E1,0E0,0E0,0E0,0E0],"parents":[2147483647,0,0,1,1,2,2],"right_children":[2,4,6,-1,-1,-1,-1],"split_conditions":[4.6850002E-1,-5.1499996E0,-1.45E0,2.3899577E-3,-1.5132489E-4,-4.2382167E-3,-1.34166E-3],"split_indices":[3,25,77,0,0,0,0],"split_type":[0,0,0,0,0,0,0],"sum_hessian":[6.078837E3,2.4030588E3,3.675778E3,9.8076117E2,1.4222977E3,1.1939196E3,2.4818584E3],"tree_param":{"num_deleted":"0","num_feature":"106","num_nodes":"7","size_leaf_vector":"0"}},{"base_weights":[1.0303717E-1,-8.864125E-2,2.2833796E-1,-2.389958E-1,1.5132468E-2,4.238217E-1,1.3416599E-1],"categories":[],"categories_nodes":[],"categories_segments":[],"categories_sizes":[],"default_left":[1,1,1,0,0,0,0],"id":77,"left_children":[1,3,5,-1,-1,-1,-1],"loss_changes":[1.4604245E2,3.7513794E1,6.762926E1,0E0,0E0,0E0,0E0],"parents":[2147483647,0,0,1,1,2,2],"right_children":[2,4,6,-1,-1,-1,-1],"split_conditions":[4.6850002E-1,-5.1499996E0,-1.45E0,-2.389958E-3,1.5132468E-4,4.2382167E-3,1.3416598E-3],"split_indices":[3,25,77,0,0,0,0],"split_type":[0,0,0,0,0,0,0],"sum_hessian":[6.078837E3,2.4030588E3,3.675778E3,9.807611E2,1.4222977E3,1.1939196E3,2.4818584E3],"tree_param":{"num_deleted":"0","num_feature":"106","num_nodes":"7","size_leaf_vector":"0"}},{"base_weights":[-1.0204349E-1,-2.597621E-1,4.8032913E-2,-1.9580634E-1,-5.283109E-1,-1.6885448E-1,1.3598123E-1],"categories":[],"categories_nodes":[],"categories_segments":[],"categories_sizes":[],"default_left":[1,1,1,0,0,0,0],"id":78,"left_children":[1,3,5,-1,-1,-1,-1],"loss_changes":[1.4387105E2,5.0796448E1,5.9444138E1,0E0,0E0,0E0,0E0],"parents":[2147483647,0,0,1,1,2,2],"right_children":[2,4,6,-1,-1,-1,-1],"split_conditions":[1.45E1,2.25E1,-2.45E0,-1.9580633E-3,-5.283109E-3,-1.6885448E-3,1.3598123E-3],"split_indices":[51,80,77,0,0,0,0],"split_type":[0,0,0,0,0,0,0],"sum_hessian":[6.076715E3,2.962562E3,3.114153E3,2.394123E3,5.68439E2,8.9820056E2,2.2159524E3],"tree_param":{"num_deleted":"0","num_feature":"106","num_nodes":"7","size_leaf_vector":"0"}},{"base_weights":[1.0204351E-1,2.597621E-1,-4.8032895E-2,1.9580634E-1,5.28311E-1,1.6885448E-1,-1.359812E-1],"categories":[],"categories_nodes":[],"categories_segments":[],"categories_sizes":[],"default_left":[1,1,1,0,0,0,0],"id":79,"left_children":[1,3,5,-1,-1,-1,-1],"loss_changes":[1.4387103E2,5.0796494E1,5.9444126E1,0E0,0E0,0E0,0E0],"parents":[2147483647,0,0,1,1,2,2],"right_children":[2,4,6,-1,-1,-1,-1],"split_conditions":[1.45E1,2.25E1,-2.45E0,1.9580633E-3,5.28311E-3,1.6885448E-3,-1.359812E-3],"split_indices":[51,80,77,0,0,0,0],"split_type":[0,0,0,0,0,0,0],"sum_hessian":[6.076715E3,2.962562E3,3.114153E3,2.394123E3,5.68439E2,8.9820056E2,2.2159524E3],"tree_param":{"num_deleted":"0","num_feature":"106","num_nodes":"7","size_leaf_vector":"0"}},{"base_weights":[-1.0106151E-1,-2.0185101E-1,1.302767E-1,-1.1664188E-1,-4.184447E-1,8.014391E-3,2.6523688E-1],"categories":[],"categories_nodes":[],"categories_segments":[],"categories_sizes":[],"default_left":[1,1,1,0,0,0,0],"id":80,"left_children":[1,3,5,-1,-1,-1,-1],"loss_changes":[1.4168576E2,7.805954E1,3.0430159E1,0E0,0E0,0E0,0E0],"parents":[2147483647,0,0,1,1,2,2],"right_children":[2,4,6,-1,-1,-1,-1],"split_conditions":[1.95E1,1.95E1,5.135E-1,-1.1664188E-3,-4.1844468E-3,8.014391E-5,2.6523687E-3],"split_indices":[28,80,55,0,0,0,0],"split_type":[0,0,0,0,0,0,0],"sum_hessian":[6.0745127E3,4.231193E3,1.84332E3,3.0376882E3,1.1935044E3,9.677139E2,8.75606E2],"tree_param":{"num_deleted":"0","num_feature":"106","num_nodes":"7","size_leaf_vector":"0"}},{"base_weights":[1.0106149E-1,2.01851E-1,-1.302767E-1,1.16641864E-1,4.184447E-1,-8.014399E-3,-2.6523688E-1],"categories":[],"categories_nodes":[],"categories_segments":[],"categories_sizes":[],"default_left":[1,1,1,0,0,0,0],"id":81,"left_children":[1,3,5,-1,-1,-1,-1],"loss_changes":[1.4168576E2,7.8059555E1,3.0430155E1,0E0,0E0,0E0,0E0],"parents":[2147483647,0,0,1,1,2,2],"right_children":[2,4,6,-1,-1,-1,-1],"split_conditions":[1.95E1,1.95E1,5.135E-1,1.1664187E-3,4.1844468E-3,-8.014398E-5,-2.6523687E-3],"split_indices":[28,80,55,0,0,0,0],"split_type":[0,0,0,0,0,0,0],"sum_hessian":[6.0745127E3,4.231193E3,1.84332E3,3.0376882E3,1.1935044E3,9.677139E2,8.756061E2],"tree_param":{"num_deleted":"0","num_feature":"106","num_nodes":"7","size_leaf_vector":"0"}},{"base_weights":[-1.00087814E-1,-2.5551194E-1,4.7690425E-2,-3.1963256E-1,8.563253E-3,-7.7260114E-2,1.9619559E-1],"categories":[],"categories_nodes":[],"categories_segments":[],"categories_sizes":[],"default_left":[1,1,1,0,0,0,0],"id":82,"left_children":[1,3,5,-1,-1,-1,-1],"loss_changes":[1.3950613E2,5.012758E1,5.7799427E1,0E0,0E0,0E0,0E0],"parents":[2147483647,0,0,1,1,2,2],"right_children":[2,4,6,-1,-1,-1,-1],"split_conditions":[1.45E1,5.05E0,6.5E-1,-3.1963256E-3,8.563253E-5,-7.726011E-4,1.9619558E-3],"split_indices":[51,77,77,0,0,0,0],"split_type":[0,0,0,0,0,0,0],"sum_hessian":[6.072325E3,2.9592444E3,3.113081E3,2.3809182E3,5.783259E2,1.6908767E3,1.4222043E3],"tree_param":{"num_deleted":"0","num_feature":"106","num_nodes":"7","size_leaf_vector":"0"}},{"base_weights":[1.000878E-1,2.555119E-1,-4.769043E-2,3.196325E-1,-8.563253E-3,7.726009E-2,-1.9619559E-1],"categories":[],"categories_nodes":[],"categories_segments":[],"categories_sizes":[],"default_left":[1,1,1,0,0,0,0],"id":83,"left_children":[1,3,5,-1,-1,-1,-1],"loss_changes":[1.3950613E2,5.012755E1,5.7799408E1,0E0,0E0,0E0,0E0],"parents":[2147483647,0,0,1,1,2,2],"right_children":[2,4,6,-1,-1,-1,-1],"split_conditions":[1.45E1,5.05E0,6.5E-1,3.196325E-3,-8.563253E-5,7.726009E-4,-1.9619558E-3],"split_indices":[51,77,77,0,0,0,0],"split_type":[0,0,0,0,0,0,0],"sum_hessian":[6.072325E3,2.9592441E3,3.113081E3,2.3809182E3,5.783259E2,1.6908767E3,1.4222043E3],"tree_param":{"num_deleted":"0","num_feature":"106","num_nodes":"7","size_leaf_vector":"0"}},{"base_weights":[-9.912325E-2,-1.8006495E-1,1.8117811E-1,-2.717299E-1,1.0519036E-2,-4.948553E-2,2.4200195E-1],"categories":[],"categories_nodes":[],"categories_segments":[],"categories_sizes":[],"default_left":[1,1,1,0,0,0,0],"id":84,"left_children":[1,3,5,-1,-1,-1,-1],"loss_changes":[1.3777524E2,8.2309006E1,1.9104168E1,0E0,0E0,0E0,0E0],"parents":[2147483647,0,0,1,1,2,2],"right_children":[2,4,6,-1,-1,-1,-1],"split_conditions":[2.35E1,2.85E0,3.595E-1,-2.7172987E-3,1.0519036E-4,-4.948553E-4,2.4200194E-3],"split_indices":[51,77,55,0,0,0,0],"split_type":[0,0,0,0,0,0,0],"sum_hessian":[6.0701475E3,4.7103213E3,1.3598264E3,3.1802803E3,1.5300411E3,2.8378992E2,1.0760365E3],"tree_param":{"num_deleted":"0","num_feature":"106","num_nodes":"7","size_leaf_vector":"0"}},{"base_weights":[9.912325E-2,1.8006495E-1,-1.811781E-1,2.7172986E-1,-1.051901E-2,4.94855E-2,-2.420019E-1],"categories":[],"categories_nodes":[],"categories_segments":[],"categories_sizes":[],"default_left":[1,1,1,0,0,0,0],"id":85,"left_children":[1,3,5,-1,-1,-1,-1],"loss_changes":[1.3777522E2,8.2308975E1,1.9104156E1,0E0,0E0,0E0,0E0],"parents":[2147483647,0,0,1,1,2,2],"right_children":[2,4,6,-1,-1,-1,-1],"split_conditions":[2.35E1,2.85E0,3.595E-1,2.7172985E-3,-1.051901E-4,4.94855E-4,-2.420019E-3],"split_indices":[51,77,55,0,0,0,0],"split_type":[0,0,0,0,0,0,0],"sum_hessian":[6.070148E3,4.7103213E3,1.3598264E3,3.1802803E3,1.5300411E3,2.837899E2,1.0760365E3],"tree_param":{"num_deleted":"0","num_feature":"106","num_nodes":"7","size_leaf_vector":"0"}},{"base_weights":[-9.8167494E-2,-1.8946253E-1,1.4663003E-1,-3.7788615E-1,-9.886309E-2,2.0090878E-1,-1.2004212E-1],"categories":[],"categories_nodes":[],"categories_segments":[],"categories_sizes":[],"default_left":[1,1,1,0,0,0,0],"id":86,"left_children":[1,3,5,-1,-1,-1,-1],"loss_changes":[1.3566222E2,7.54315E1,2.3894547E1,0E0,0E0,0E0,0E0],"parents":[2147483647,0,0,1,1,2,2],"right_children":[2,4,6,-1,-1,-1,-1],"split_conditions":[2.15E1,-1.55E0,2.45E1,-3.7788614E-3,-9.886308E-4,2.0090877E-3,-1.2004212E-3],"split_indices":[29,77,81,0,0,0,0],"split_type":[0,0,0,0,0,0,0],"sum_hessian":[6.0679814E3,4.4198604E3,1.6481212E3,1.4341094E3,2.9857507E3,1.3695981E3,2.7852298E2],"tree_param":{"num_deleted":"0","num_feature":"106","num_nodes":"7","size_leaf_vector":"0"}},{"base_weights":[9.81675E-2,1.8946254E-1,-1.4663003E-1,3.7788615E-1,9.886311E-2,-2.009088E-1,1.2004211E-1],"categories":[],"categories_nodes":[],"categories_segments":[],"categories_sizes":[],"default_left":[1,1,1,0,0,0,0],"id":87,"left_children":[1,3,5,-1,-1,-1,-1],"loss_changes":[1.3566223E2,7.543149E1,2.3894547E1,0E0,0E0,0E0,0E0],"parents":[2147483647,0,0,1,1,2,2],"right_children":[2,4,6,-1,-1,-1,-1],"split_conditions":[2.15E1,-1.55E0,2.45E1,3.7788614E-3,9.88631E-4,-2.009088E-3,1.200421E-3],"split_indices":[29,77,81,0,0,0,0],"split_type":[0,0,0,0,0,0,0],"sum_hessian":[6.0679814E3,4.4198604E3,1.6481212E3,1.4341094E3,2.9857507E3,1.3695981E3,2.7852298E2],"tree_param":{"num_deleted":"0","num_feature":"106","num_nodes":"7","size_leaf_vector":"0"}},{"base_weights":[-9.7223215E-2,-2.4978927E-1,4.768577E-2,-1.8743873E-1,-5.128267E-1,-1.6212247E-1,1.3270545E-1],"categories":[],"categories_nodes":[],"categories_segments":[],"categories_sizes":[],"default_left":[1,1,1,0,0,0,0],"id":88,"left_children":[1,3,5,-1,-1,-1,-1],"loss_changes":[1.3413608E2,4.8374634E1,5.5537804E1,0E0,0E0,0E0,0E0],"parents":[2147483647,0,0,1,1,2,2],"right_children":[2,4,6,-1,-1,-1,-1],"split_conditions":[1.45E1,2.25E1,-2.45E0,-1.8743873E-3,-5.1282668E-3,-1.6212247E-3,1.3270545E-3],"split_indices":[51,80,77,0,0,0,0],"split_type":[0,0,0,0,0,0,0],"sum_hessian":[6.065718E3,2.95444E3,3.1112778E3,2.3896975E3,5.6474255E2,8.9693933E2,2.2143386E3],"tree_param":{"num_deleted":"0","num_feature":"106","num_nodes":"7","size_leaf_vector":"0"}},{"base_weights":[9.722319E-2,2.4978924E-1,-4.768578E-2,1.8743871E-1,5.128266E-1,1.6212246E-1,-1.3270546E-1],"categories":[],"categories_nodes":[],"categories_segments":[],"categories_sizes":[],"default_left":[1,1,1,0,0,0,0],"id":89,"left_children":[1,3,5,-1,-1,-1,-1],"loss_changes":[1.3413606E2,4.8374603E1,5.55378E1,0E0,0E0,0E0,0E0],"parents":[2147483647,0,0,1,1,2,2],"right_children":[2,4,6,-1,-1,-1,-1],"split_conditions":[1.45E1,2.25E1,-2.45E0,1.874387E-3,5.1282663E-3,1.6212246E-3,-1.3270546E-3],"split_indices":[51,80,77,0,0,0,0],"split_type":[0,0,0,0,0,0,0],"sum_hessian":[6.065718E3,2.95444E3,3.1112778E3,2.3896975E3,5.6474255E2,8.9693933E2,2.2143386E3],"tree_param":{"num_deleted":"0","num_feature":"106","num_nodes":"7","size_leaf_vector":"0"}},{"base_weights":[-9.628987E-2,8.58325E-2,-2.1562424E-1,2.3150133E-1,-1.4662377E-2,-3.0557746E-1,-2.3322158E-2],"categories":[],"categories_nodes":[],"categories_segments":[],"categories_sizes":[],"default_left":[1,1,1,0,0,0,0],"id":90,"left_children":[1,3,5,-1,-1,-1,-1],"loss_changes":[1.3181842E2,3.5156757E1,6.33739E1,0E0,0E0,0E0,0E0],"parents":[2147483647,0,0,1,1,2,2],"right_children":[2,4,6,-1,-1,-1,-1],"split_conditions":[4.6850002E-1,-5.1499996E0,3.05E0,2.3150132E-3,-1.4662376E-4,-3.0557746E-3,-2.3322157E-4],"split_indices":[3,25,77,0,0,0,0],"split_type":[0,0,0,0,0,0,0],"sum_hessian":[6.0633794E3,2.4003547E3,3.663025E3,9.793984E2,1.4209563E3,2.4952375E3,1.1677871E3],"tree_param":{"num_deleted":"0","num_feature":"106","num_nodes":"7","size_leaf_vector":"0"}},{"base_weights":[9.628987E-2,-8.583252E-2,2.1562426E-1,-2.3150136E-1,1.4662364E-2,3.055775E-1,2.332215E-2],"categories":[],"categories_nodes":[],"categories_segments":[],"categories_sizes":[],"default_left":[1,1,1,0,0,0,0],"id":91,"left_children":[1,3,5,-1,-1,-1,-1],"loss_changes":[1.3181848E2,3.515676E1,6.3373856E1,0E0,0E0,0E0,0E0],"parents":[2147483647,0,0,1,1,2,2],"right_children":[2,4,6,-1,-1,-1,-1],"split_conditions":[4.6850002E-1,-5.1499996E0,3.05E0,-2.3150134E-3,1.4662363E-4,3.0557748E-3,2.332215E-4],"split_indices":[3,25,77,0,0,0,0],"split_type":[0,0,0,0,0,0,0],"sum_hessian":[6.0633794E3,2.4003547E3,3.663025E3,9.793984E2,1.4209563E3,2.4952378E3,1.1677871E3],"tree_param":{"num_deleted":"0","num_feature":"106","num_nodes":"7","size_leaf_vector":"0"}},{"base_weights":[-9.536345E-2,-2.4555142E-1,4.715499E-2,-3.0815366E-1,1.1434417E-2,-7.450688E-2,1.917173E-1],"categories":[],"categories_nodes":[],"categories_segments":[],"categories_sizes":[],"default_left":[1,1,1,0,0,0,0],"id":92,"left_children":[1,3,5,-1,-1,-1,-1],"loss_changes":[1.2976817E2,4.7491608E1,5.473513E1,0E0,0E0,0E0,0E0],"parents":[2147483647,0,0,1,1,2,2],"right_children":[2,4,6,-1,-1,-1,-1],"split_conditions":[1.45E1,5.05E0,6.5E-1,-3.0815366E-3,1.1434417E-4,-7.4506877E-4,1.9171729E-3],"split_indices":[51,77,77,0,0,0,0],"split_type":[0,0,0,0,0,0,0],"sum_hessian":[6.0611016E3,2.9507917E3,3.1103096E3,2.3726184E3,5.781734E2,1.6891914E3,1.4211182E3],"tree_param":{"num_deleted":"0","num_feature":"106","num_nodes":"7","size_leaf_vector":"0"}},{"base_weights":[9.536344E-2,2.4555138E-1,-4.7154978E-2,3.081536E-1,-1.1434418E-2,7.450688E-2,-1.9171728E-1],"categories":[],"categories_nodes":[],"categories_segments":[],"categories_sizes":[],"default_left":[1,1,1,0,0,0,0],"id":93,"left_children":[1,3,5,-1,-1,-1,-1],"loss_changes":[1.2976814E2,4.7491592E1,5.473512E1,0E0,0E0,0E0,0E0],"parents":[2147483647,0,0,1,1,2,2],"right_children":[2,4,6,-1,-1,-1,-1],"split_conditions":[1.45E1,5.05E0,6.5E-1,3.081536E-3,-1.1434418E-4,7.4506877E-4,-1.9171728E-3],"split_indices":[51,77,77,0,0,0,0],"split_type":[0,0,0,0,0,0,0],"sum_hessian":[6.0611016E3,2.9507917E3,3.1103096E3,2.3726184E3,5.781734E2,1.6891914E3,1.4211182E3],"tree_param":{"num_deleted":"0","num_feature":"106","num_nodes":"7","size_leaf_vector":"0"}},{"base_weights":[-9.444645E-2,-1.7262335E-1,1.7597353E-1,-3.4150925E-2,-2.922738E-1,2.0873235E-1,-2.3128746E-1],"categories":[],"categories_nodes":[],"categories_segments":[],"categories_sizes":[],"default_left":[1,1,1,0,0,0,0],"id":94,"left_children":[1,3,5,-1,-1,-1,-1],"loss_changes":[1.2813812E2,7.788287E1,1.8185558E1,0E0,0E0,0E0,0E0],"parents":[2147483647,0,0,1,1,2,2],"right_children":[2,4,6,-1,-1,-1,-1],"split_conditions":[2.35E1,1.15E1,2.75E1,-3.4150924E-4,-2.9227377E-3,2.0873235E-3,-2.3128747E-3],"split_indices":[51,80,80,0,0,0,0],"split_type":[0,0,0,0,0,0,0],"sum_hessian":[6.058798E3,4.7003228E3,1.3584752E3,2.1793865E3,2.5209363E3,1.25779E3,1.0068524E2],"tree_param":{"num_deleted":"0","num_feature":"106","num_nodes":"7","size_leaf_vector":"0"}},{"base_weights":[9.444646E-2,1.7262337E-1,-1.7597355E-1,3.4150943E-2,2.922738E-1,-2.0873235E-1,2.3128746E-1],"categories":[],"categories_nodes":[],"categories_segments":[],"categories_sizes":[],"default_left":[1,1,1,0,0,0,0],"id":95,"left_children":[1,3,5,-1,-1,-1,-1],"loss_changes":[1.2813815E2,7.788287E1,1.8185562E1,0E0,0E0,0E0,0E0],"parents":[2147483647,0,0,1,1,2,2],"right_children":[2,4,6,-1,-1,-1,-1],"split_conditions":[2.35E1,1.15E1,2.75E1,3.415094E-4,2.9227377E-3,-2.0873235E-3,2.3128747E-3],"split_indices":[51,80,80,0,0,0,0],"split_type":[0,0,0,0,0,0,0],"sum_hessian":[6.058798E3,4.7003228E3,1.3584752E3,2.1793865E3,2.5209363E3,1.25779E3,1.0068524E2],"tree_param":{"num_deleted":"0","num_feature":"106","num_nodes":"7","size_leaf_vector":"0"}},{"base_weights":[-9.353879E-2,-1.8889791E-1,1.2483239E-1,-1.070634E-1,-3.9806196E-1,7.980071E-3,2.5396812E-1],"categories":[],"categories_nodes":[],"categories_segments":[],"categories_sizes":[],"default_left":[1,1,1,0,0,0,0],"id":96,"left_children":[1,3,5,-1,-1,-1,-1],"loss_changes":[1.261626E2,7.2133804E1,2.7790209E1,0E0,0E0,0E0,0E0],"parents":[2147483647,0,0,1,1,2,2],"right_children":[2,4,6,-1,-1,-1,-1],"split_conditions":[1.95E1,1.95E1,5.135E-1,-1.070634E-3,-3.9806194E-3,7.980071E-5,2.539681E-3],"split_indices":[28,80,55,0,0,0,0],"split_type":[0,0,0,0,0,0,0],"sum_hessian":[6.056479E3,4.215691E3,1.8407881E3,3.0312424E3,1.1844484E3,9.669113E2,8.738768E2],"tree_param":{"num_deleted":"0","num_feature":"106","num_nodes":"7","size_leaf_vector":"0"}},{"base_weights":[9.3538776E-2,1.888979E-1,-1.248324E-1,1.0706337E-1,3.98062E-1,-7.980074E-3,-2.5396812E-1],"categories":[],"categories_nodes":[],"categories_segments":[],"categories_sizes":[],"default_left":[1,1,1,0,0,0,0],"id":97,"left_children":[1,3,5,-1,-1,-1,-1],"loss_changes":[1.261626E2,7.213382E1,2.7790205E1,0E0,0E0,0E0,0E0],"parents":[2147483647,0,0,1,1,2,2],"right_children":[2,4,6,-1,-1,-1,-1],"split_conditions":[1.95E1,1.95E1,5.135E-1,1.0706336E-3,3.98062E-3,-7.980074E-5,-2.539681E-3],"split_indices":[28,80,55,0,0,0,0],"split_type":[0,0,0,0,0,0,0],"sum_hessian":[6.056479E3,4.2156904E3,1.8407881E3,3.0312424E3,1.1844484E3,9.669113E2,8.7387683E2],"tree_param":{"num_deleted":"0","num_feature":"106","num_nodes":"7","size_leaf_vector":"0"}},{"base_weights":[-9.2640735E-2,-2.4001572E-1,4.704733E-2,-1.7907314E-1,-4.9834606E-1,-1.5727262E-1,1.298025E-1],"categories":[],"categories_nodes":[],"categories_segments":[],"categories_sizes":[],"default_left":[1,1,1,0,0,0,0],"id":98,"left_children":[1,3,5,-1,-1,-1,-1],"loss_changes":[1.2466469E2,4.6300644E1,5.2596737E1,0E0,0E0,0E0,0E0],"parents":[2147483647,0,0,1,1,2,2],"right_children":[2,4,6,-1,-1,-1,-1],"split_conditions":[1.45E1,2.25E1,-2.45E0,-1.7907313E-3,-4.9834605E-3,-1.5727262E-3,1.2980249E-3],"split_indices":[51,80,77,0,0,0,0],"split_type":[0,0,0,0,0,0,0],"sum_hessian":[6.0540957E3,2.9456406E3,3.1084548E3,2.384749E3,5.6089166E2,8.95815E2,2.21264E3],"tree_param":{"num_deleted":"0","num_feature":"106","num_nodes":"7","size_leaf_vector":"0"}},{"base_weights":[9.2640735E-2,2.4001573E-1,-4.7047347E-2,1.7907315E-1,4.9834606E-1,1.5727262E-1,-1.2980253E-1],"categories":[],"categories_nodes":[],"categories_segments":[],"categories_sizes":[],"default_left":[1,1,1,0,0,0,0],"id":99,"left_children":[1,3,5,-1,-1,-1,-1],"loss_changes":[1.246647E2,4.630066E1,5.2596737E1,0E0,0E0,0E0,0E0],"parents":[2147483647,0,0,1,1,2,2],"right_children":[2,4,6,-1,-1,-1,-1],"split_conditions":[1.45E1,2.25E1,-2.45E0,1.7907316E-3,4.9834605E-3,1.5727262E-3,-1.2980253E-3],"split_indices":[51,80,77,0,0,0,0],"split_type":[0,0,0,0,0,0,0],"sum_hessian":[6.0540957E3,2.9456406E3,3.1084548E3,2.384749E3,5.608917E2,8.95815E2,2.21264E3],"tree_param":{"num_deleted":"0","num_feature":"106","num_nodes":"7","size_leaf_vector":"0"}},{"base_weights":[-9.175321E-2,-1.6830531E-1,1.7286365E-1,-2.5413108E-1,1.9080192E-2,2.0505235E-1,-2.2724405E-1],"categories":[],"categories_nodes":[],"categories_segments":[],"categories_sizes":[],"default_left":[1,1,1,0,0,0,0],"id":100,"left_children":[1,3,5,-1,-1,-1,-1],"loss_changes":[1.2263741E2,7.5513E1,1.7543896E1,0E0,0E0,0E0,0E0],"parents":[2147483647,0,0,1,1,2,2],"right_children":[2,4,6,-1,-1,-1,-1],"split_conditions":[2.35E1,3.05E0,2.75E1,-2.5413106E-3,1.9080192E-4,2.0505234E-3,-2.2724404E-3],"split_indices":[51,77,80,0,0,0,0],"split_type":[0,0,0,0,0,0,0],"sum_hessian":[6.051646E3,4.6940493E3,1.357597E3,3.2192305E3,1.4748185E3,1.2569618E3,1.0063518E2],"tree_param":{"num_deleted":"0","num_feature":"106","num_nodes":"7","size_leaf_vector":"0"}},{"base_weights":[9.175321E-2,1.6830532E-1,-1.7286368E-1,2.5413108E-1,-1.908019E-2,-2.0505238E-1,2.2724405E-1],"categories":[],"categories_nodes":[],"categories_segments":[],"categories_sizes":[],"default_left":[1,1,1,0,0,0,0],"id":101,"left_children":[1,3,5,-1,-1,-1,-1],"loss_changes":[1.2263744E2,7.5513E1,1.7543896E1,0E0,0E0,0E0,0E0],"parents":[2147483647,0,0,1,1,2,2],"right_children":[2,4,6,-1,-1,-1,-1],"split_conditions":[2.35E1,3.05E0,2.75E1,2.5413106E-3,-1.9080189E-4,-2.0505236E-3,2.2724404E-3],"split_indices":[51,77,80,0,0,0,0],"split_type":[0,0,0,0,0,0,0],"sum_hessian":[6.051646E3,4.694049E3,1.357597E3,3.2192305E3,1.4748185E3,1.2569619E3,1.00635185E2],"tree_param":{"num_deleted":"0","num_feature":"106","num_nodes":"7","size_leaf_vector":"0"}},{"base_weights":[-9.0870686E-2,-2.3626141E-1,4.6821315E-2,-1.7598684E-1,-4.9233902E-1,-7.117849E-2,1.8700638E-1],"categories":[],"categories_nodes":[],"categories_segments":[],"categories_sizes":[],"default_left":[1,1,1,0,0,0,0],"id":102,"left_children":[1,3,5,-1,-1,-1,-1],"loss_changes":[1.211342E2,4.533963E1,5.1430065E1,0E0,0E0,0E0,0E0],"parents":[2147483647,0,0,1,1,2,2],"right_children":[2,4,6,-1,-1,-1,-1],"split_conditions":[1.45E1,2.25E1,6.5E-1,-1.7598683E-3,-4.92339E-3,-7.117849E-4,1.8700638E-3],"split_indices":[51,80,77,0,0,0,0],"split_type":[0,0,0,0,0,0,0],"sum_hessian":[6.0493667E3,2.9420757E3,3.1072908E3,2.382888E3,5.5918774E2,1.6874141E3,1.4198767E3],"tree_param":{"num_deleted":"0","num_feature":"106","num_nodes":"7","size_leaf_vector":"0"}},{"base_weights":[9.0870686E-2,2.3626141E-1,-4.682131E-2,1.7598684E-1,4.9233904E-1,7.117849E-2,-1.8700638E-1],"categories":[],"categories_nodes":[],"categories_segments":[],"categories_sizes":[],"default_left":[1,1,1,0,0,0,0],"id":103,"left_children":[1,3,5,-1,-1,-1,-1],"loss_changes":[1.211342E2,4.533963E1,5.1430065E1,0E0,0E0,0E0,0E0],"parents":[2147483647,0,0,1,1,2,2],"right_children":[2,4,6,-1,-1,-1,-1],"split_conditions":[1.45E1,2.25E1,6.5E-1,1.7598683E-3,4.92339E-3,7.117849E-4,-1.8700638E-3],"split_indices":[51,80,77,0,0,0,0],"split_type":[0,0,0,0,0,0,0],"sum_hessian":[6.0493667E3,2.9420757E3,3.1072908E3,2.382888E3,5.591878E2,1.6874141E3,1.4198767E3],"tree_param":{"num_deleted":"0","num_feature":"106","num_nodes":"7","size_leaf_vector":"0"}},{"base_weights":[-8.999941E-2,-1.7592232E-1,1.3981195E-1,-8.8368945E-2,-3.5358164E-1,1.9156107E-1,-1.1421664E-1],"categories":[],"categories_nodes":[],"categories_segments":[],"categories_sizes":[],"default_left":[1,1,1,0,0,0,0],"id":104,"left_children":[1,3,5,-1,-1,-1,-1],"loss_changes":[1.1944778E2,6.844856E1,2.1665405E1,0E0,0E0,0E0,0E0],"parents":[2147483647,0,0,1,1,2,2],"right_children":[2,4,6,-1,-1,-1,-1],"split_conditions":[2.15E1,1.95E1,2.45E1,-8.8368944E-4,-3.5358162E-3,1.9156107E-3,-1.1421664E-3],"split_indices":[29,103,81,0,0,0,0],"split_type":[0,0,0,0,0,0,0],"sum_hessian":[6.0469487E3,4.401522E3,1.6454268E3,2.9494722E3,1.45205E3,1.3671627E3,2.7826398E2],"tree_param":{"num_deleted":"0","num_feature":"106","num_nodes":"7","size_leaf_vector":"0"}},{"base_weights":[8.999939E-2,1.7592232E-1,-1.39812E-1,8.836892E-2,3.5358167E-1,-1.915611E-1,1.1421662E-1],"categories":[],"categories_nodes":[],"categories_segments":[],"categories_sizes":[],"default_left":[1,1,1,0,0,0,0],"id":105,"left_children":[1,3,5,-1,-1,-1,-1],"loss_changes":[1.19447784E2,6.844861E1,2.166541E1,0E0,0E0,0E0,0E0],"parents":[2147483647,0,0,1,1,2,2],"right_children":[2,4,6,-1,-1,-1,-1],"split_conditions":[2.15E1,1.95E1,2.45E1,8.836892E-4,3.5358167E-3,-1.915611E-3,1.1421662E-3],"split_indices":[29,103,81,0,0,0,0],"split_type":[0,0,0,0,0,0,0],"sum_hessian":[6.046949E3,4.4015225E3,1.6454268E3,2.9494722E3,1.45205E3,1.3671627E3,2.7826398E2],"tree_param":{"num_deleted":"0","num_feature":"106","num_nodes":"7","size_leaf_vector":"0"}},{"base_weights":[-8.913655E-2,4.304294E-2,-2.3651329E-1,-1.6014548E-1,1.2500261E-1,-2.959026E-1,2.4655676E-2],"categories":[],"categories_nodes":[],"categories_segments":[],"categories_sizes":[],"default_left":[1,1,1,0,0,0,0],"id":106,"left_children":[1,3,5,-1,-1,-1,-1],"loss_changes":[1.1777764E2,5.310926E1,4.4345734E1,0E0,0E0,0E0,0E0],"parents":[2147483647,0,0,1,1,2,2],"right_children":[2,4,6,-1,-1,-1,-1],"split_conditions":[5.5E-1,-2.45E0,5.3500004E0,-1.6014547E-3,1.250026E-3,-2.959026E-3,2.4655674E-4],"split_indices":[25,77,77,0,0,0,0],"split_type":[0,0,0,0,0,0,0],"sum_hessian":[6.0445015E3,3.18692E3,2.8575818E3,9.1573724E2,2.2711826E3,2.328054E3,5.2952783E2],"tree_param":{"num_deleted":"0","num_feature":"106","num_nodes":"7","size_leaf_vector":"0"}},{"base_weights":[8.9136556E-2,-4.304295E-2,2.3651333E-1,1.6014546E-1,-1.2500262E-1,2.9590264E-1,-2.4655676E-2],"categories":[],"categories_nodes":[],"categories_segments":[],"categories_sizes":[],"default_left":[1,1,1,0,0,0,0],"id":107,"left_children":[1,3,5,-1,-1,-1,-1],"loss_changes":[1.17777695E2,5.3109264E1,4.434575E1,0E0,0E0,0E0,0E0],"parents":[2147483647,0,0,1,1,2,2],"right_children":[2,4,6,-1,-1,-1,-1],"split_conditions":[5.5E-1,-2.45E0,5.3500004E0,1.6014546E-3,-1.2500262E-3,2.9590263E-3,-2.4655674E-4],"split_indices":[25,77,77,0,0,0,0],"split_type":[0,0,0,0,0,0,0],"sum_hessian":[6.0445015E3,3.18692E3,2.8575818E3,9.1573724E2,2.2711826E3,2.328054E3,5.2952783E2],"tree_param":{"num_deleted":"0","num_feature":"106","num_nodes":"7","size_leaf_vector":"0"}},{"base_weights":[-8.8282295E-2,-1.6288029E-1,1.6933587E-1,-2.4924675E-1,1.5586696E-2,2.0077902E-1,-2.214645E-1],"categories":[],"categories_nodes":[],"categories_segments":[],"categories_sizes":[],"default_left":[1,1,1,0,0,0,0],"id":108,"left_children":[1,3,5,-1,-1,-1,-1],"loss_changes":[1.1616134E2,7.224106E1,1.672459E1,0E0,0E0,0E0,0E0],"parents":[2147483647,0,0,1,1,2,2],"right_children":[2,4,6,-1,-1,-1,-1],"split_conditions":[2.35E1,2.85E0,2.75E1,-2.4924674E-3,1.5586695E-4,2.0077901E-3,-2.214645E-3],"split_indices":[51,77,80,0,0,0,0],"split_type":[0,0,0,0,0,0,0],"sum_hessian":[6.0420312E3,4.685599E3,1.3564323E3,3.1572825E3,1.5283168E3,1.2558729E3,1.00559235E2],"tree_param":{"num_deleted":"0","num_feature":"106","num_nodes":"7","size_leaf_vector":"0"}},{"base_weights":[8.828227E-2,1.6288027E-1,-1.6933589E-1,2.4924673E-1,-1.5586735E-2,-2.0077905E-1,2.2146457E-1],"categories":[],"categories_nodes":[],"categories_segments":[],"categories_sizes":[],"default_left":[1,1,1,0,0,0,0],"id":109,"left_children":[1,3,5,-1,-1,-1,-1],"loss_changes":[1.1616135E2,7.224107E1,1.6724598E1,0E0,0E0,0E0,0E0],"parents":[2147483647,0,0,1,1,2,2],"right_children":[2,4,6,-1,-1,-1,-1],"split_conditions":[2.35E1,2.85E0,2.75E1,2.4924672E-3,-1.5586734E-4,-2.0077904E-3,2.2146457E-3],"split_indices":[51,77,80,0,0,0,0],"split_type":[0,0,0,0,0,0,0],"sum_hessian":[6.0420312E3,4.685599E3,1.3564323E3,3.1572825E3,1.5283168E3,1.2558729E3,1.00559235E2],"tree_param":{"num_deleted":"0","num_feature":"106","num_nodes":"7","size_leaf_vector":"0"}},{"base_weights":[-8.7434344E-2,4.7072484E-3,-2.9363075E-1,-1.7653234E-1,9.88053E-2,-3.479041E-1,-1.2716308E-2],"categories":[],"categories_nodes":[],"categories_segments":[],"categories_sizes":[],"default_left":[1,1,1,0,0,0,0],"id":110,"left_children":[1,3,5,-1,-1,-1,-1],"loss_changes":[1.14769745E2,7.123614E1,2.8439972E1,0E0,0E0,0E0,0E0],"parents":[2147483647,0,0,1,1,2,2],"right_children":[2,4,6,-1,-1,-1,-1],"split_conditions":[2.85E0,-1.55E0,5.95E0,-1.7653233E-3,9.88053E-4,-3.4790407E-3,-1.2716308E-4],"split_indices":[25,77,77,0,0,0,0],"split_type":[0,0,0,0,0,0,0],"sum_hessian":[6.039674E3,4.174998E3,1.8646759E3,1.4265275E3,2.7484702E3,1.5625491E3,3.0212677E2],"tree_param":{"num_deleted":"0","num_feature":"106","num_nodes":"7","size_leaf_vector":"0"}},{"base_weights":[8.743436E-2,-4.707242E-3,2.9363078E-1,1.7653236E-1,-9.880529E-2,3.4790415E-1,1.2716307E-2],"categories":[],"categories_nodes":[],"categories_segments":[],"categories_sizes":[],"default_left":[1,1,1,0,0,0,0],"id":111,"left_children":[1,3,5,-1,-1,-1,-1],"loss_changes":[1.1476977E2,7.123614E1,2.8439987E1,0E0,0E0,0E0,0E0],"parents":[2147483647,0,0,1,1,2,2],"right_children":[2,4,6,-1,-1,-1,-1],"split_conditions":[2.85E0,-1.55E0,5.95E0,1.7653236E-3,-9.880529E-4,3.4790414E-3,1.2716308E-4],"split_indices":[25,77,77,0,0,0,0],"split_type":[0,0,0,0,0,0,0],"sum_hessian":[6.039674E3,4.174998E3,1.8646759E3,1.4265275E3,2.7484702E3,1.5625491E3,3.0212677E2],"tree_param":{"num_deleted":"0","num_feature":"106","num_nodes":"7","size_leaf_vector":"0"}},{"base_weights":[-8.659322E-2,8.244973E-2,-1.9778635E-1,2.4164745E-1,-1.2414079E-3,-2.8286076E-1,-1.7209483E-2],"categories":[],"categories_nodes":[],"categories_segments":[],"categories_sizes":[],"default_left":[1,1,1,0,0,0,0],"id":112,"left_children":[1,3,5,-1,-1,-1,-1],"loss_changes":[1.1351744E2,3.1932093E1,5.5957275E1,0E0,0E0,0E0,0E0],"parents":[2147483647,0,0,1,1,2,2],"right_children":[2,4,6,-1,-1,-1,-1],"split_conditions":[4.6850002E-1,-5.95E0,3.05E0,2.4164745E-3,-1.2414079E-5,-2.8286076E-3,-1.7209483E-4],"split_indices":[3,25,77,0,0,0,0],"split_type":[0,0,0,0,0,0,0],"sum_hessian":[6.037446E3,2.395663E3,3.6417827E3,8.248126E2,1.5708503E3,2.4751223E3,1.1666605E3],"tree_param":{"num_deleted":"0","num_feature":"106","num_nodes":"7","size_leaf_vector":"0"}},{"base_weights":[8.6593226E-2,-8.244973E-2,1.9778635E-1,-2.4164744E-1,1.241402E-3,2.828608E-1,1.7209508E-2],"categories":[],"categories_nodes":[],"categories_segments":[],"categories_sizes":[],"default_left":[1,1,1,0,0,0,0],"id":113,"left_children":[1,3,5,-1,-1,-1,-1],"loss_changes":[1.13517456E2,3.1932087E1,5.5957275E1,0E0,0E0,0E0,0E0],"parents":[2147483647,0,0,1,1,2,2],"right_children":[2,4,6,-1,-1,-1,-1],"split_conditions":[4.6850002E-1,-5.95E0,3.05E0,-2.4164743E-3,1.241402E-5,2.8286078E-3,1.7209507E-4],"split_indices":[3,25,77,0,0,0,0],"split_type":[0,0,0,0,0,0,0],"sum_hessian":[6.037446E3,2.395663E3,3.6417827E3,8.248126E2,1.5708503E3,2.4751223E3,1.1666605E3],"tree_param":{"num_deleted":"0","num_feature":"106","num_nodes":"7","size_leaf_vector":"0"}},{"base_weights":[-8.576285E-2,5.061645E-3,-2.8923458E-1,-1.7423138E-1,9.809913E-2,-3.4281203E-1,-1.2418995E-2],"categories":[],"categories_nodes":[],"categories_segments":[],"categories_sizes":[],"default_left":[1,1,1,0,0,0,0],"id":114,"left_children":[1,3,5,-1,-1,-1,-1],"loss_changes":[1.1154773E2,6.964622E1,2.7623322E1,0E0,0E0,0E0,0E0],"parents":[2147483647,0,0,1,1,2,2],"right_children":[2,4,6,-1,-1,-1,-1],"split_conditions":[2.85E0,-1.55E0,5.95E0,-1.7423137E-3,9.809913E-4,-3.4281202E-3,-1.2418994E-4],"split_indices":[25,77,77,0,0,0,0],"split_type":[0,0,0,0,0,0,0],"sum_hessian":[6.034982E3,4.1731646E3,1.861817E3,1.4253986E3,2.747766E3,1.5597E3,3.021171E2],"tree_param":{"num_deleted":"0","num_feature":"106","num_nodes":"7","size_leaf_vector":"0"}},{"base_weights":[8.576285E-2,-5.061647E-3,2.892346E-1,1.7423138E-1,-9.809912E-2,3.4281206E-1,1.2418994E-2],"categories":[],"categories_nodes":[],"categories_segments":[],"categories_sizes":[],"default_left":[1,1,1,0,0,0,0],"id":115,"left_children":[1,3,5,-1,-1,-1,-1],"loss_changes":[1.11547745E2,6.964621E1,2.7623322E1,0E0,0E0,0E0,0E0],"parents":[2147483647,0,0,1,1,2,2],"right_children":[2,4,6,-1,-1,-1,-1],"split_conditions":[2.85E0,-1.55E0,5.95E0,1.7423137E-3,-9.809912E-4,3.4281206E-3,1.2418993E-4],"split_indices":[25,77,77,0,0,0,0],"split_type":[0,0,0,0,0,0,0],"sum_hessian":[6.034982E3,4.1731646E3,1.861817E3,1.4253986E3,2.747766E3,1.5597E3,3.021171E2],"tree_param":{"num_deleted":"0","num_feature":"106","num_nodes":"7","size_leaf_vector":"0"}},{"base_weights":[-8.493839E-2,-1.7453225E-1,1.196104E-1,-9.670215E-2,-3.7496623E-1,2.7017817E-1,2.7324062E-2],"categories":[],"categories_nodes":[],"categories_segments":[],"categories_sizes":[],"default_left":[1,1,1,0,0,0,0],"id":116,"left_children":[1,3,5,-1,-1,-1,-1],"loss_changes":[1.1059663E2,6.5425064E1,2.5538134E1,0E0,0E0,0E0,0E0],"parents":[2147483647,0,0,1,1,2,2],"right_children":[2,4,6,-1,-1,-1,-1],"split_conditions":[1.95E1,1.95E1,-6.25E0,-9.670215E-4,-3.7496623E-3,2.7017817E-3,2.732406E-4],"split_indices":[28,80,25,0,0,0,0],"split_type":[0,0,0,0,0,0,0],"sum_hessian":[6.032715E3,4.1952925E3,1.837422E3,3.0229426E3,1.17235E3,6.975013E2,1.1399207E3],"tree_param":{"num_deleted":"0","num_feature":"106","num_nodes":"7","size_leaf_vector":"0"}},{"base_weights":[8.493838E-2,1.7453223E-1,-1.1961041E-1,9.6702136E-2,3.7496623E-1,-2.7017817E-1,-2.732407E-2],"categories":[],"categories_nodes":[],"categories_segments":[],"categories_sizes":[],"default_left":[1,1,1,0,0,0,0],"id":117,"left_children":[1,3,5,-1,-1,-1,-1],"loss_changes":[1.1059664E2,6.5425064E1,2.5538134E1,0E0,0E0,0E0,0E0],"parents":[2147483647,0,0,1,1,2,2],"right_children":[2,4,6,-1,-1,-1,-1],"split_conditions":[1.95E1,1.95E1,-6.25E0,9.6702133E-4,3.7496623E-3,-2.7017817E-3,-2.732407E-4],"split_indices":[28,80,25,0,0,0,0],"split_type":[0,0,0,0,0,0,0],"sum_hessian":[6.032715E3,4.1952925E3,1.837422E3,3.0229426E3,1.17235E3,6.975013E2,1.1399207E3],"tree_param":{"num_deleted":"0","num_feature":"106","num_nodes":"7","size_leaf_vector":"0"}},{"base_weights":[-8.412369E-2,4.289636E-2,-2.2611186E-1,-6.3356355E-2,1.9169617E-1,-2.8355342E-1,2.5369586E-2],"categories":[],"categories_nodes":[],"categories_segments":[],"categories_sizes":[],"default_left":[1,1,1,0,0,0,0],"id":118,"left_children":[1,3,5,-1,-1,-1,-1],"loss_changes":[1.0878598E2,5.0356804E1,4.114801E1,0E0,0E0,0E0,0E0],"parents":[2147483647,0,0,1,1,2,2],"right_children":[2,4,6,-1,-1,-1,-1],"split_conditions":[5.5E-1,5.445E-1,5.3500004E0,-6.3356356E-4,1.9169616E-3,-2.835534E-3,2.5369585E-4],"split_indices":[25,55,77,0,0,0,0],"split_type":[0,0,0,0,0,0,0],"sum_hessian":[6.030283E3,3.183278E3,2.8470051E3,1.8574865E3,1.3257916E3,2.3175254E3,5.294797E2],"tree_param":{"num_deleted":"0","num_feature":"106","num_nodes":"7","size_leaf_vector":"0"}},{"base_weights":[8.412369E-2,-4.2896345E-2,2.2611184E-1,6.335637E-2,-1.9169615E-1,2.835534E-1,-2.5369652E-2],"categories":[],"categories_nodes":[],"categories_segments":[],"categories_sizes":[],"default_left":[1,1,1,0,0,0,0],"id":119,"left_children":[1,3,5,-1,-1,-1,-1],"loss_changes":[1.0878595E2,5.03568E1,4.1148026E1,0E0,0E0,0E0,0E0],"parents":[2147483647,0,0,1,1,2,2],"right_children":[2,4,6,-1,-1,-1,-1],"split_conditions":[5.5E-1,5.445E-1,5.3500004E0,6.335637E-4,-1.9169615E-3,2.8355338E-3,-2.5369652E-4],"split_indices":[25,55,77,0,0,0,0],"split_type":[0,0,0,0,0,0,0],"sum_hessian":[6.030283E3,3.183278E3,2.8470051E3,1.8574865E3,1.3257916E3,2.3175254E3,5.294797E2],"tree_param":{"num_deleted":"0","num_feature":"106","num_nodes":"7","size_leaf_vector":"0"}},{"base_weights":[-8.331744E-2,-1.5522683E-1,1.6462038E-1,-2.6178017E-2,-2.6757708E-1,1.9537604E-1,-2.1742254E-1],"categories":[],"categories_nodes":[],"categories_segments":[],"categories_sizes":[],"default_left":[1,1,1,0,0,0,0],"id":120,"left_children":[1,3,5,-1,-1,-1,-1],"loss_changes":[1.075134E2,6.77582E1,1.5974335E1,0E0,0E0,0E0,0E0],"parents":[2147483647,0,0,1,1,2,2],"right_children":[2,4,6,-1,-1,-1,-1],"split_conditions":[2.35E1,1.15E1,2.75E1,-2.6178017E-4,-2.6757708E-3,1.9537604E-3,-2.1742254E-3],"split_indices":[51,80,80,0,0,0,0],"split_type":[0,0,0,0,0,0,0],"sum_hessian":[6.0278003E3,4.6728945E3,1.3549055E3,2.1753994E3,2.4974954E3,1.2544103E3,1.0049532E2],"tree_param":{"num_deleted":"0","num_feature":"106","num_nodes":"7","size_leaf_vector":"0"}},{"base_weights":[8.331742E-2,1.5522681E-1,-1.6462035E-1,2.6177973E-2,2.6757705E-1,-1.95376E-1,2.174225E-1],"categories":[],"categories_nodes":[],"categories_segments":[],"categories_sizes":[],"default_left":[1,1,1,0,0,0,0],"id":121,"left_children":[1,3,5,-1,-1,-1,-1],"loss_changes":[1.0751337E2,6.775823E1,1.5974327E1,0E0,0E0,0E0,0E0],"parents":[2147483647,0,0,1,1,2,2],"right_children":[2,4,6,-1,-1,-1,-1],"split_conditions":[2.35E1,1.15E1,2.75E1,2.6177973E-4,2.6757705E-3,-1.95376E-3,2.174225E-3],"split_indices":[51,80,80,0,0,0,0],"split_type":[0,0,0,0,0,0,0],"sum_hessian":[6.0278003E3,4.6728945E3,1.3549055E3,2.1753994E3,2.4974954E3,1.2544103E3,1.0049532E2],"tree_param":{"num_deleted":"0","num_feature":"106","num_nodes":"7","size_leaf_vector":"0"}},{"base_weights":[-8.251987E-2,6.2373206E-3,-2.8170934E-1,-1.8005265E-1,9.200946E-2,-3.3421522E-1,-1.1305092E-2],"categories":[],"categories_nodes":[],"categories_segments":[],"categories_sizes":[],"default_left":[1,1,1,0,0,0,0],"id":122,"left_children":[1,3,5,-1,-1,-1,-1],"loss_changes":[1.0654313E2,6.6642044E1,2.6369644E1,0E0,0E0,0E0,0E0],"parents":[2147483647,0,0,1,1,2,2],"right_children":[2,4,6,-1,-1,-1,-1],"split_conditions":[2.85E0,-1.95E0,5.95E0,-1.8005265E-3,9.200946E-4,-3.342152E-3,-1.1305092E-4],"split_indices":[25,77,77,0,0,0,0],"split_type":[0,0,0,0,0,0,0],"sum_hessian":[6.025267E3,4.1686978E3,1.8565688E3,1.3139054E3,2.8547925E3,1.554489E3,3.020798E2],"tree_param":{"num_deleted":"0","num_feature":"106","num_nodes":"7","size_leaf_vector":"0"}},{"base_weights":[8.2519874E-2,-6.2373155E-3,2.8170934E-1,1.8005265E-1,-9.2009455E-2,3.3421525E-1,1.1305092E-2],"categories":[],"categories_nodes":[],"categories_segments":[],"categories_sizes":[],"default_left":[1,1,1,0,0,0,0],"id":123,"left_children":[1,3,5,-1,-1,-1,-1],"loss_changes":[1.0654314E2,6.6642044E1,2.6369644E1,0E0,0E0,0E0,0E0],"parents":[2147483647,0,0,1,1,2,2],"right_children":[2,4,6,-1,-1,-1,-1],"split_conditions":[2.85E0,-1.95E0,5.95E0,1.8005265E-3,-9.2009455E-4,3.3421526E-3,1.1305092E-4],"split_indices":[25,77,77,0,0,0,0],"split_type":[0,0,0,0,0,0,0],"sum_hessian":[6.025267E3,4.1686978E3,1.8565688E3,1.3139054E3,2.8547925E3,1.5544891E3,3.020798E2],"tree_param":{"num_deleted":"0","num_feature":"106","num_nodes":"7","size_leaf_vector":"0"}},{"base_weights":[-8.172751E-2,-1.6258343E-1,1.3389698E-1,-8.742382E-2,-3.5061195E-1,1.8299311E-1,-1.0694248E-1],"categories":[],"categories_nodes":[],"categories_segments":[],"categories_sizes":[],"default_left":[1,1,1,0,0,0,0],"id":124,"left_children":[1,3,5,-1,-1,-1,-1],"loss_changes":[1.0504625E2,6.1890045E1,1.9451519E1,0E0,0E0,0E0,0E0],"parents":[2147483647,0,0,1,1,2,2],"right_children":[2,4,6,-1,-1,-1,-1],"split_conditions":[2.15E1,1.95E1,2.45E1,-8.7423815E-4,-3.5061194E-3,1.829931E-3,-1.0694248E-3],"split_indices":[29,80,81,0,0,0,0],"split_type":[0,0,0,0,0,0,0],"sum_hessian":[6.02294E3,4.380547E3,1.642393E3,3.1306245E3,1.2499224E3,1.3644785E3,2.7791452E2],"tree_param":{"num_deleted":"0","num_feature":"106","num_nodes":"7","size_leaf_vector":"0"}},{"base_weights":[8.1727505E-2,1.6258343E-1,-1.3389696E-1,8.742382E-2,3.5061195E-1,-1.8299311E-1,1.0694249E-1],"categories":[],"categories_nodes":[],"categories_segments":[],"categories_sizes":[],"default_left":[1,1,1,0,0,0,0],"id":125,"left_children":[1,3,5,-1,-1,-1,-1],"loss_changes":[1.0504624E2,6.1890038E1,1.945152E1,0E0,0E0,0E0,0E0],"parents":[2147483647,0,0,1,1,2,2],"right_children":[2,4,6,-1,-1,-1,-1],"split_conditions":[2.15E1,1.95E1,2.45E1,8.7423815E-4,3.5061194E-3,-1.829931E-3,1.0694249E-3],"split_indices":[29,80,81,0,0,0,0],"split_type":[0,0,0,0,0,0,0],"sum_hessian":[6.02294E3,4.380547E3,1.642393E3,3.1306248E3,1.2499224E3,1.3644785E3,2.7791452E2],"tree_param":{"num_deleted":"0","num_feature":"106","num_nodes":"7","size_leaf_vector":"0"}},{"base_weights":[-8.0945715E-2,6.668116E-3,-2.7776706E-1,-1.76783E-1,9.1060154E-2,-3.2978562E-1,-1.0322234E-2],"categories":[],"categories_nodes":[],"categories_segments":[],"categories_sizes":[],"default_left":[1,1,1,0,0,0,0],"id":126,"left_children":[1,3,5,-1,-1,-1,-1],"loss_changes":[1.0383614E2,6.453819E1,2.580037E1,0E0,0E0,0E0,0E0],"parents":[2147483647,0,0,1,1,2,2],"right_children":[2,4,6,-1,-1,-1,-1],"split_conditions":[2.85E0,-1.95E0,5.95E0,-1.7678299E-3,9.106015E-4,-3.297856E-3,-1.0322234E-4],"split_indices":[25,77,77,0,0,0,0],"split_type":[0,0,0,0,0,0,0],"sum_hessian":[6.0203794E3,4.166606E3,1.8537733E3,1.3124696E3,2.8541365E3,1.5517264E3,3.020469E2],"tree_param":{"num_deleted":"0","num_feature":"106","num_nodes":"7","size_leaf_vector":"0"}},{"base_weights":[8.094571E-2,-6.668118E-3,2.7776703E-1,1.76783E-1,-9.106016E-2,3.297856E-1,1.0322234E-2],"categories":[],"categories_nodes":[],"categories_segments":[],"categories_sizes":[],"default_left":[1,1,1,0,0,0,0],"id":127,"left_children":[1,3,5,-1,-1,-1,-1],"loss_changes":[1.03836136E2,6.45382E1,2.580037E1,0E0,0E0,0E0,0E0],"parents":[2147483647,0,0,1,1,2,2],"right_children":[2,4,6,-1,-1,-1,-1],"split_conditions":[2.85E0,-1.95E0,5.95E0,1.7678299E-3,-9.106016E-4,3.2978558E-3,1.0322234E-4],"split_indices":[25,77,77,0,0,0,0],"split_type":[0,0,0,0,0,0,0],"sum_hessian":[6.0203794E3,4.166606E3,1.8537733E3,1.3124696E3,2.8541365E3,1.5517263E3,3.020469E2],"tree_param":{"num_deleted":"0","num_feature":"106","num_nodes":"7","size_leaf_vector":"0"}},{"base_weights":[-8.01689E-2,1.1374228E-1,-1.6805486E-1,1.6448204E-1,-1.2903313E-1,-1.09740786E-1,-4.0506008E-1],"categories":[],"categories_nodes":[],"categories_segments":[],"categories_sizes":[],"default_left":[1,1,1,0,0,0,0],"id":128,"left_children":[1,3,5,