{"learner":{"attributes":{},"feature_names":[],"feature_types":[],"gradient_booster":{"model":{"gbtree_model_param":{"num_parallel_tree":"1","num_trees":"200"},"iteration_indptr":[0,2,4,6,8,10,12,14,16,18,20,22,24,26,28,30,32,34,36,38,40,42,44,46,48,50,52,54,56,58,60,62,64,66,68,70,72,74,76,78,80,82,84,86,88,90,92,94,96,98,100,102,104,106,108,110,112,114,116,118,120,122,124,126,128,130,132,134,136,138,140,142,144,146,148,150,152,154,156,158,160,162,164,166,168,170,172,174,176,178,180,182,184,186,188,190,192,194,196,198,200],"tree_info":[0,1,0,1,0,1,0,1,0,1,0,1,0,1,0,1,0,1,0,1,0,1,0,1,0,1,0,1,0,1,0,1,0,1,0,1,0,1,0,1,0,1,0,1,0,1,0,1,0,1,0,1,0,1,0,1,0,1,0,1,0,1,0,1,0,1,0,1,0,1,0,1,0,1,0,1,0,1,0,1,0,1,0,1,0,1,0,1,0,1,0,1,0,1,0,1,0,1,0,1,0,1,0,1,0,1,0,1,0,1,0,1,0,1,0,1,0,1,0,1,0,1,0,1,0,1,0,1,0,1,0,1,0,1,0,1,0,1,0,1,0,1,0,1,0,1,0,1,0,1,0,1,0,1,0,1,0,1,0,1,0,1,0,1,0,1,0,1,0,1,0,1,0,1,0,1,0,1,0,1,0,1,0,1,0,1,0,1,0,1,0,1,0,1,0,1,0,1,0,1],"trees":[{"base_weights":[-1.5061446E-1,-3.68606E-1,5.7095036E-2,-2.6123673E-1,-6.393668E-1,-1.9549643E-1,2.0116788E-1,-3.4079878E-3,-4.6277663E-4,-5.565714E-3,-7.62069E-3,8.5545727E-4,-3.4428795E-3,9.3083724E-4,3.3909574E-3],"categories":[],"categories_nodes":[],"categories_segments":[],"categories_sizes":[],"default_left":[0,0,0,0,0,0,0,0,0,0,0,0,0,0,0],"id":0,"left_children":[1,3,5,7,9,11,13,-1,-1,-1,-1,-1,-1,-1,-1],"loss_changes":[2.3766745E2,7.428482E1,9.787807E1,3.1376045E1,6.956482E0,4.0884357E1,2.549807E1,0E0,0E0,0E0,0E0,0E0,0E0,0E0,0E0],"parents":[2147483647,0,0,1,1,2,2,3,3,4,4,5,5,6,6],"right_children":[2,4,6,8,10,12,14,-1,-1,-1,-1,-1,-1,-1,-1],"split_conditions":[1.5E1,2E1,-1.5E0,5.1E0,2.7E1,-4.8E0,2.4E1,-3.4079878E-3,-4.6277663E-4,-5.565714E-3,-7.62069E-3,8.5545727E-4,-3.4428795E-3,9.3083724E-4,3.3909574E-3],"split_indices":[51,80,77,77,103,25,51,0,0,0,0,0,0,0,0],"split_type":[0,0,0,0,0,0,0,0,0,0,0,0,0,0,0],"sum_hessian":[5.2475E3,2.56E3,2.6875E3,1.8345E3,7.255E2,9.76E2,1.7115E3,1.3385E3,4.96E2,4.365E2,2.89E2,3.38E2,6.38E2,9.605E2,7.51E2],"tree_param":{"num_deleted":"0","num_feature":"280","num_nodes":"15","size_leaf_vector":"1"}},{"base_weights":[1.5061446E-1,3.68606E-1,-5.7095036E-2,2.6123673E-1,6.393668E-1,1.9549643E-1,-2.0116788E-1,3.4079878E-3,4.6277663E-4,5.565714E-3,7.62069E-3,-8.5545727E-4,3.4428795E-3,-9.3083724E-4,-3.3909574E-3],"categories":[],"categories_nodes":[],"categories_segments":[],"categories_sizes":[],"default_left":[0,0,0,0,0,0,0,0,0,0,0,0,0,0,0],"id":1,"left_children":[1,3,5,7,9,11,13,-1,-1,-1,-1,-1,-1,-1,-1],"loss_changes":[2.3766745E2,7.428482E1,9.787807E1,3.1376045E1,6.956482E0,4.0884357E1,2.549807E1,0E0,0E0,0E0,0E0,0E0,0E0,0E0,0E0],"parents":[2147483647,0,0,1,1,2,2,3,3,4,4,5,5,6,6],"right_children":[2,4,6,8,10,12,14,-1,-1,-1,-1,-1,-1,-1,-1],"split_conditions":[1.5E1,2E1,-1.5E0,5.1E0,2.7E1,-4.8E0,2.4E1,3.4079878E-3,4.6277663E-4,5.565714E-3,7.62069E-3,-8.5545727E-4,3.4428795E-3,-9.3083724E-4,-3.3909574E-3],"split_indices":[51,80,77,77,103,25,51,0,0,0,0,0,0,0,0],"split_type":[0,0,0,0,0,0,0,0,0,0,0,0,0,0,0],"sum_hessian":[5.2475E3,2.56E3,2.6875E3,1.8345E3,7.255E2,9.76E2,1.7115E3,1.3385E3,4.96E2,4.365E2,2.89E2,3.38E2,6.38E2,9.605E2,7.51E2],"tree_param":{"num_deleted":"0","num_feature":"280","num_nodes":"15","size_leaf_vector":"1"}},{"base_weights":[-1.4911304E-1,-3.649332E-1,5.652511E-2,-2.5862867E-1,-6.330178E-1,-1.935457E-1,1.9915988E-1,-3.373973E-3,-4.581581E-4,-5.510355E-3,-7.545183E-3,8.4692857E-4,-3.4085459E-3,9.2153985E-4,3.357132E-3],"categories":[],"categories_nodes":[],"categories_segments":[],"categories_sizes":[],"default_left":[0,0,0,0,0,0,0,0,0,0,0,0,0,0,0],"id":2,"left_children":[1,3,5,7,9,11,13,-1,-1,-1,-1,-1,-1,-1,-1],"loss_changes":[2.3295074E2,7.2819885E1,9.593349E1,3.0752716E1,6.8204956E0,4.0072853E1,2.499199E1,0E0,0E0,0E0,0E0,0E0,0E0,0E0,0E0],"parents":[2147483647,0,0,1,1,2,2,3,3,4,4,5,5,6,6],"right_children":[2,4,6,8,10,12,14,-1,-1,-1,-1,-1,-1,-1,-1],"split_conditions":[1.5E1,2E1,-1.5E0,5.1E0,2.7E1,-4.8E0,2.4E1,-3.373973E-3,-4.581581E-4,-5.510355E-3,-7.545183E-3,8.4692857E-4,-3.4085459E-3,9.2153985E-4,3.357132E-3],"split_indices":[51,80,77,77,103,25,51,0,0,0,0,0,0,0,0],"split_type":[0,0,0,0,0,0,0,0,0,0,0,0,0,0,0],"sum_hessian":[5.2474365E3,2.5599539E3,2.6874827E3,1.8344843E3,7.2546967E2,9.759921E2,1.7114905E3,1.3384844E3,4.9599985E2,4.3648648E2,2.8898322E2,3.3799976E2,6.379924E2,9.6049915E2,7.5099133E2],"tree_param":{"num_deleted":"0","num_feature":"280","num_nodes":"15","size_leaf_vector":"1"}},{"base_weights":[1.4911307E-1,3.6493322E-1,-5.6525066E-2,2.586287E-1,6.3301784E-1,1.9354562E-1,-1.9915977E-1,3.373973E-3,4.5815835E-4,5.510355E-3,7.5451843E-3,-8.4692886E-4,3.408545E-3,-9.215387E-4,-3.3571308E-3],"categories":[],"categories_nodes":[],"categories_segments":[],"categories_sizes":[],"default_left":[0,0,0,0,0,0,0,0,0,0,0,0,0,0,0],"id":3,"left_children":[1,3,5,7,9,11,13,-1,-1,-1,-1,-1,-1,-1,-1],"loss_changes":[2.3295074E2,7.281995E1,9.593339E1,3.07527E1,6.8204956E0,4.007285E1,2.4992004E1,0E0,0E0,0E0,0E0,0E0,0E0,0E0,0E0],"parents":[2147483647,0,0,1,1,2,2,3,3,4,4,5,5,6,6],"right_children":[2,4,6,8,10,12,14,-1,-1,-1,-1,-1,-1,-1,-1],"split_conditions":[1.5E1,2E1,-1.5E0,5.1E0,2.7E1,-4.8E0,2.4E1,3.373973E-3,4.5815835E-4,5.510355E-3,7.5451843E-3,-8.4692886E-4,3.408545E-3,-9.215387E-4,-3.3571308E-3],"split_indices":[51,80,77,77,103,25,51,0,0,0,0,0,0,0,0],"split_type":[0,0,0,0,0,0,0,0,0,0,0,0,0,0,0],"sum_hessian":[5.247437E3,2.559954E3,2.6874827E3,1.8344844E3,7.2546967E2,9.759922E2,1.7114906E3,1.3384845E3,4.9599988E2,4.3648648E2,2.8898322E2,3.379998E2,6.3799243E2,9.6049915E2,7.509914E2],"tree_param":{"num_deleted":"0","num_feature":"280","num_nodes":"15","size_leaf_vector":"1"}},{"base_weights":[-1.4763014E-1,-3.613098E-1,5.5961557E-2,-2.5605097E-1,-6.2678343E-1,-1.9161737E-1,1.9717398E-1,-3.3403737E-3,-4.5358576E-4,-6.761758E-3,-4.308104E-3,8.3848677E-4,-3.3746315E-3,9.123357E-4,3.3237184E-3],"categories":[],"categories_nodes":[],"categories_segments":[],"categories_sizes":[],"default_left":[0,0,0,0,0,0,0,0,0,0,0,0,0,0,0],"id":4,"left_children":[1,3,5,7,9,11,13,-1,-1,-1,-1,-1,-1,-1,-1],"loss_changes":[2.2833691E2,7.139761E1,9.402863E1,3.014318E1,6.739746E0,3.9278584E1,2.4497139E1,0E0,0E0,0E0,0E0,0E0,0E0,0E0,0E0],"parents":[2147483647,0,0,1,1,2,2,3,3,4,4,5,5,6,6],"right_children":[2,4,6,8,10,12,14,-1,-1,-1,-1,-1,-1,-1,-1],"split_conditions":[1.5E1,2E1,-1.5E0,5.1E0,3.43E1,-4.8E0,2.4E1,-3.3403737E-3,-4.5358576E-4,-6.761758E-3,-4.308104E-3,8.3848677E-4,-3.3746315E-3,9.123357E-4,3.3237184E-3],"split_indices":[51,80,77,77,67,25,51,0,0,0,0,0,0,0,0],"split_type":[0,0,0,0,0,0,0,0,0,0,0,0,0,0,0],"sum_hessian":[5.2472495E3,2.5598179E3,2.6874316E3,1.834438E3,7.2537994E2,9.7596906E2,1.7114625E3,1.3384384E3,4.959996E2,5.7740283E2,1.4797711E2,3.3799902E2,6.3797003E2,9.604967E2,7.509658E2],"tree_param":{"num_deleted":"0","num_feature":"280","num_nodes":"15","size_leaf_vector":"1"}},{"base_weights":[1.4763016E-1,3.613098E-1,-5.596154E-2,2.5605103E-1,6.267834E-1,1.9161741E-1,-1.9717398E-1,3.3403742E-3,4.5358663E-4,6.7617577E-3,4.3081036E-3,-8.3848555E-4,3.3746315E-3,-9.123357E-4,-3.3237184E-3],"categories":[],"categories_nodes":[],"categories_segments":[],"categories_sizes":[],"default_left":[0,0,0,0,0,0,0,0,0,0,0,0,0,0,0],"id":5,"left_children":[1,3,5,7,9,11,13,-1,-1,-1,-1,-1,-1,-1,-1],"loss_changes":[2.2833691E2,7.139752E1,9.4028656E1,3.0143188E1,6.739746E0,3.9278564E1,2.4497139E1,0E0,0E0,0E0,0E0,0E0,0E0,0E0,0E0],"parents":[2147483647,0,0,1,1,2,2,3,3,4,4,5,5,6,6],"right_children":[2,4,6,8,10,12,14,-1,-1,-1,-1,-1,-1,-1,-1],"split_conditions":[1.5E1,2E1,-1.5E0,5.1E0,3.43E1,-4.8E0,2.4E1,3.3403742E-3,4.5358663E-4,6.7617577E-3,4.3081036E-3,-8.3848555E-4,3.3746315E-3,-9.123357E-4,-3.3237184E-3],"split_indices":[51,80,77,77,67,25,51,0,0,0,0,0,0,0,0],"split_type":[0,0,0,0,0,0,0,0,0,0,0,0,0,0,0],"sum_hessian":[5.2472495E3,2.559818E3,2.6874316E3,1.834438E3,7.2538E2,9.7596906E2,1.7114625E3,1.3384384E3,4.9599957E2,5.774029E2,1.4797713E2,3.3799902E2,6.3797003E2,9.604967E2,7.509658E2],"tree_param":{"num_deleted":"0","num_feature":"280","num_nodes":"15","size_leaf_vector":"1"}},{"base_weights":[-1.4616491E-1,-3.5773355E-1,5.5404343E-2,-2.5350308E-1,-6.206552E-1,-1.8971118E-1,1.9521004E-1,-3.3071819E-3,-4.4906005E-4,-5.395202E-3,-7.4093617E-3,8.301292E-4,-3.3411304E-3,9.032258E-4,3.2907107E-3],"categories":[],"categories_nodes":[],"categories_segments":[],"categories_sizes":[],"default_left":[0,0,0,0,0,0,0,0,0,0,0,0,0,0,0],"id":6,"left_children":[1,3,5,7,9,11,13,-1,-1,-1,-1,-1,-1,-1,-1],"loss_changes":[2.2382227E2,7.0014404E1,9.2162796E1,2.9547043E1,6.6875916E0,3.850111E1,2.4013191E1,0E0,0E0,0E0,0E0,0E0,0E0,0E0,0E0],"parents":[2147483647,0,0,1,1,2,2,3,3,4,4,5,5,6,6],"right_children":[2,4,6,8,10,12,14,-1,-1,-1,-1,-1,-1,-1,-1],"split_conditions":[1.5E1,2E1,-1.5E0,5.1E0,2.7E1,-4.8E0,2.4E1,-3.3071819E-3,-4.4906005E-4,-5.395202E-3,-7.4093617E-3,8.301292E-4,-3.3411304E-3,9.032258E-4,3.2907107E-3],"split_indices":[51,80,77,77,103,25,51,0,0,0,0,0,0,0,0],"split_type":[0,0,0,0,0,0,0,0,0,0,0,0,0,0,0],"sum_hessian":[5.246945E3,2.5595972E3,2.6873477E3,1.8343619E3,7.2523517E2,9.7593115E2,1.7114165E3,1.3383629E3,4.9599902E2,4.363696E2,2.8886554E2,3.3799783E2,6.379333E2,9.604927E2,7.509238E2],"tree_param":{"num_deleted":"0","num_feature":"280","num_nodes":"15","size_leaf_vector":"1"}},{"base_weights":[1.4616494E-1,3.5773355E-1,-5.540428E-2,2.5350308E-1,6.206551E-1,1.8971126E-1,-1.9520998E-1,3.3071814E-3,4.4906035E-4,5.395202E-3,7.4093603E-3,-8.301292E-4,3.3411318E-3,-9.032258E-4,-3.2907096E-3],"categories":[],"categories_nodes":[],"categories_segments":[],"categories_sizes":[],"default_left":[0,0,0,0,0,0,0,0,0,0,0,0,0,0,0],"id":7,"left_children":[1,3,5,7,9,11,13,-1,-1,-1,-1,-1,-1,-1,-1],"loss_changes":[2.238222E2,7.0014435E1,9.21628E1,2.9547028E1,6.6875305E0,3.8501137E1,2.4013168E1,0E0,0E0,0E0,0E0,0E0,0E0,0E0,0E0],"parents":[2147483647,0,0,1,1,2,2,3,3,4,4,5,5,6,6],"right_children":[2,4,6,8,10,12,14,-1,-1,-1,-1,-1,-1,-1,-1],"split_conditions":[1.5E1,2E1,-1.5E0,5.1E0,2.7E1,-4.8E0,2.4E1,3.3071814E-3,4.4906035E-4,5.395202E-3,7.4093603E-3,-8.301292E-4,3.3411318E-3,-9.032258E-4,-3.2907096E-3],"split_indices":[51,80,77,77,103,25,51,0,0,0,0,0,0,0,0],"split_type":[0,0,0,0,0,0,0,0,0,0,0,0,0,0,0],"sum_hessian":[5.246945E3,2.5595972E3,2.6873477E3,1.8343619E3,7.2523517E2,9.7593115E2,1.7114165E3,1.3383629E3,4.9599905E2,4.3636963E2,2.8886557E2,3.3799783E2,6.379333E2,9.604927E2,7.509238E2],"tree_param":{"num_deleted":"0","num_feature":"280","num_nodes":"15","size_leaf_vector":"1"}},{"base_weights":[-1.4471795E-1,-3.5420546E-1,5.4853234E-2,-1.9120143E-1,-5.190346E-1,-1.878269E-1,1.9326757E-1,-2.712136E-3,-1.4330013E-4,-4.226843E-3,-6.676981E-3,8.2185597E-4,-3.3080368E-3,8.9420786E-4,3.2580988E-3],"categories":[],"categories_nodes":[],"categories_segments":[],"categories_sizes":[],"default_left":[0,0,0,0,0,0,0,0,0,0,0,0,0,0,0],"id":8,"left_children":[1,3,5,7,9,11,13,-1,-1,-1,-1,-1,-1,-1,-1],"loss_changes":[2.194061E2,6.8690186E1,9.03351E1,1.823581E1,1.7943848E1,3.7740105E1,2.3539864E1,0E0,0E0,0E0,0E0,0E0,0E0,0E0,0E0],"parents":[2147483647,0,0,1,1,2,2,3,3,4,4,5,5,6,6],"right_children":[2,4,6,8,10,12,14,-1,-1,-1,-1,-1,-1,-1,-1],"split_conditions":[1.5E1,1.3E1,-1.5E0,6E0,2.3E1,-4.8E0,2.4E1,-2.712136E-3,-1.4330013E-4,-4.226843E-3,-6.676981E-3,8.2185597E-4,-3.3080368E-3,8.9420786E-4,3.2580988E-3],"split_indices":[51,80,77,77,80,25,51,0,0,0,0,0,0,0,0],"split_type":[0,0,0,0,0,0,0,0,0,0,0,0,0,0,0],"sum_hessian":[5.246522E3,2.5592903E3,2.6872317E3,1.2878551E3,1.271435E3,9.7587866E2,1.711353E3,8.8635645E2,4.014987E2,7.7378217E2,4.976529E2,3.3799615E2,6.378825E2,9.6048706E2,7.508659E2],"tree_param":{"num_deleted":"0","num_feature":"280","num_nodes":"15","size_leaf_vector":"1"}},{"base_weights":[1.4471795E-1,3.542055E-1,-5.4853246E-2,1.9120146E-1,5.1903456E-1,1.8782683E-1,-1.9326755E-1,2.7121361E-3,1.4330102E-4,4.2268424E-3,6.6769808E-3,-8.2185626E-4,3.308036E-3,-8.9420786E-4,-3.2580988E-3],"categories":[],"categories_nodes":[],"categories_segments":[],"categories_sizes":[],"default_left":[0,0,0,0,0,0,0,0,0,0,0,0,0,0,0],"id":9,"left_children":[1,3,5,7,9,11,13,-1,-1,-1,-1,-1,-1,-1,-1],"loss_changes":[2.194061E2,6.8690155E1,9.0335075E1,1.823581E1,1.7943878E1,3.7740086E1,2.3539845E1,0E0,0E0,0E0,0E0,0E0,0E0,0E0,0E0],"parents":[2147483647,0,0,1,1,2,2,3,3,4,4,5,5,6,6],"right_children":[2,4,6,8,10,12,14,-1,-1,-1,-1,-1,-1,-1,-1],"split_conditions":[1.5E1,1.3E1,-1.5E0,6E0,2.3E1,-4.8E0,2.4E1,2.7121361E-3,1.4330102E-4,4.2268424E-3,6.6769808E-3,-8.2185626E-4,3.308036E-3,-8.9420786E-4,-3.2580988E-3],"split_indices":[51,80,77,77,80,25,51,0,0,0,0,0,0,0,0],"split_type":[0,0,0,0,0,0,0,0,0,0,0,0,0,0,0],"sum_hessian":[5.246522E3,2.5592903E3,2.6872317E3,1.2878551E3,1.271435E3,9.758787E2,1.7113529E3,8.8635645E2,4.0149866E2,7.7378217E2,4.976529E2,3.379962E2,6.3788257E2,9.6048706E2,7.508659E2],"tree_param":{"num_deleted":"0","num_feature":"280","num_nodes":"15","size_leaf_vector":"1"}},{"base_weights":[-1.4328767E-1,-3.5072142E-1,5.4308306E-2,-2.4840362E-1,-6.0894346E-1,-1.1382527E-1,2.50649E-1,-3.241468E-3,-4.381896E-4,-6.7367707E-3,-4.6025086E-3,1.3330344E-3,-2.469895E-3,4.3609054E-3,1.8517541E-3],"categories":[],"categories_nodes":[],"categories_segments":[],"categories_sizes":[],"default_left":[0,0,0,0,0,0,0,0,0,0,0,0,0,0,0],"id":10,"left_children":[1,3,5,7,9,11,13,-1,-1,-1,-1,-1,-1,-1,-1],"loss_changes":[2.1508322E2,6.748337E1,8.876614E1,2.8422607E1,6.6759644E0,4.770932E1,1.4978844E1,0E0,0E0,0E0,0E0,0E0,0E0,0E0,0E0],"parents":[2147483647,0,0,1,1,2,2,3,3,4,4,5,5,6,6],"right_children":[2,4,6,8,10,12,14,-1,-1,-1,-1,-1,-1,-1,-1],"split_conditions":[1.5E1,2E1,5.22E-1,5.1E0,2.99E1,-4.8E0,-5.9E0,-3.241468E-3,-4.381896E-4,-6.7367707E-3,-4.6025086E-3,1.3330344E-3,-2.469895E-3,4.3609054E-3,1.8517541E-3],"split_indices":[51,80,55,77,61,25,25,0,0,0,0,0,0,0,0],"split_type":[0,0,0,0,0,0,0,0,0,0,0,0,0,0,0],"sum_hessian":[5.2459937E3,2.5589087E3,2.687085E3,1.8341199E3,7.247889E2,1.4477473E3,1.2393376E3,1.3381234E3,4.959965E2,5.024957E2,2.2229318E2,5.0694608E2,9.408013E2,3.2191467E2,9.17423E2],"tree_param":{"num_deleted":"0","num_feature":"280","num_nodes":"15","size_leaf_vector":"1"}},{"base_weights":[1.4328764E-1,3.507214E-1,-5.4308303E-2,2.4840356E-1,6.0894346E-1,1.1382523E-1,-2.5064898E-1,3.2414668E-3,4.381904E-4,6.736771E-3,4.6025086E-3,-1.3330341E-3,2.4698942E-3,-4.3609045E-3,-1.851754E-3],"categories":[],"categories_nodes":[],"categories_segments":[],"categories_sizes":[],"default_left":[0,0,0,0,0,0,0,0,0,0,0,0,0,0,0],"id":11,"left_children":[1,3,5,7,9,11,13,-1,-1,-1,-1,-1,-1,-1,-1],"loss_changes":[2.1508322E2,6.748334E1,8.876612E1,2.842257E1,6.6759644E0,4.77093E1,1.4978828E1,0E0,0E0,0E0,0E0,0E0,0E0,0E0,0E0],"parents":[2147483647,0,0,1,1,2,2,3,3,4,4,5,5,6,6],"right_children":[2,4,6,8,10,12,14,-1,-1,-1,-1,-1,-1,-1,-1],"split_conditions":[1.5E1,2E1,5.22E-1,5.1E0,2.99E1,-4.8E0,-5.9E0,3.2414668E-3,4.381904E-4,6.736771E-3,4.6025086E-3,-1.3330341E-3,2.4698942E-3,-4.3609045E-3,-1.851754E-3],"split_indices":[51,80,55,77,61,25,25,0,0,0,0,0,0,0,0],"split_type":[0,0,0,0,0,0,0,0,0,0,0,0,0,0,0],"sum_hessian":[5.2459937E3,2.5589087E3,2.687085E3,1.8341199E3,7.247889E2,1.4477474E3,1.2393376E3,1.3381234E3,4.9599646E2,5.024957E2,2.2229318E2,5.069461E2,9.4080133E2,3.2191467E2,9.17423E2],"tree_param":{"num_deleted":"0","num_feature":"280","num_nodes":"15","size_leaf_vector":"1"}},{"base_weights":[-1.418731E-1,-3.4728324E-1,5.3769898E-2,-1.871493E-1,-5.092781E-1,-1.8491009E-1,1.8989788E-1,-1.8261827E-4,-2.6791778E-3,-4.1455883E-3,-6.554973E-3,7.997465E-4,-3.2519395E-3,1.1042301E-3,3.5750472E-3],"categories":[],"categories_nodes":[],"categories_segments":[],"categories_sizes":[],"default_left":[0,0,0,0,0,0,0,0,0,0,0,0,0,0,0],"id":12,"left_children":[1,3,5,7,9,11,13,-1,-1,-1,-1,-1,-1,-1,-1],"loss_changes":[2.1085579E2,6.629898E1,8.736927E1,1.7573948E1,1.7341705E1,3.6321217E1,2.2767868E1,0E0,0E0,0E0,0E0,0E0,0E0,0E0,0E0],"parents":[2147483647,0,0,1,1,2,2,3,3,4,4,5,5,6,6],"right_children":[2,4,6,8,10,12,14,-1,-1,-1,-1,-1,-1,-1,-1],"split_conditions":[1.5E1,1.3E1,-1.5E0,5E0,2.3E1,-4.8E0,2.6E1,-1.8261827E-4,-2.6791778E-3,-4.1455883E-3,-6.554973E-3,7.997465E-4,-3.2519395E-3,1.1042301E-3,3.5750472E-3],"split_indices":[51,80,77,103,80,25,51,0,0,0,0,0,0,0,0],"split_type":[0,0,0,0,0,0,0,0,0,0,0,0,0,0,0],"sum_hessian":[5.2453936E3,2.5584463E3,2.6869473E3,1.287697E3,1.2707491E3,9.757528E2,1.7111945E3,4.1699124E2,8.7070575E2,7.7351154E2,4.9723764E2,3.3798938E2,6.377634E2,1.1619069E3,5.4928754E2],"tree_param":{"num_deleted":"0","num_feature":"280","num_nodes":"15","size_leaf_vector":"1"}},{"base_weights":[1.4187312E-1,3.4728327E-1,-5.376989E-2,1.8714936E-1,5.092781E-1,1.8491001E-1,-1.8989784E-1,1.8261829E-4,2.6791787E-3,4.1455883E-3,6.554973E-3,-7.997468E-4,3.2519384E-3,-1.1042296E-3,-3.5750472E-3],"categories":[],"categories_nodes":[],"categories_segments":[],"categories_sizes":[],"default_left":[0,0,0,0,0,0,0,0,0,0,0,0,0,0,0],"id":13,"left_children":[1,3,5,7,9,11,13,-1,-1,-1,-1,-1,-1,-1,-1],"loss_changes":[2.108558E2,6.629892E1,8.7369225E1,1.7573956E1,1.7341705E1,3.632121E1,2.2767872E1,0E0,0E0,0E0,0E0,0E0,0E0,0E0,0E0],"parents":[2147483647,0,0,1,1,2,2,3,3,4,4,5,5,6,6],"right_children":[2,4,6,8,10,12,14,-1,-1,-1,-1,-1,-1,-1,-1],"split_conditions":[1.5E1,1.3E1,-1.5E0,5E0,2.3E1,-4.8E0,2.6E1,1.8261829E-4,2.6791787E-3,4.1455883E-3,6.554973E-3,-7.997468E-4,3.2519384E-3,-1.1042296E-3,-3.5750472E-3],"split_indices":[51,80,77,103,80,25,51,0,0,0,0,0,0,0,0],"split_type":[0,0,0,0,0,0,0,0,0,0,0,0,0,0,0],"sum_hessian":[5.2453936E3,2.5584463E3,2.6869473E3,1.287697E3,1.2707493E3,9.7575287E2,1.7111945E3,4.1699124E2,8.7070575E2,7.735116E2,4.9723764E2,3.379894E2,6.377634E2,1.161907E3,5.4928754E2],"tree_param":{"num_deleted":"0","num_feature":"280","num_nodes":"15","size_leaf_vector":"1"}},{"base_weights":[-1.4047632E-1,-3.438881E-1,5.3236872E-2,-2.4342208E-1,-5.976135E-1,-1.12152986E-1,2.4637479E-1,-3.1774668E-3,-4.2720194E-4,-6.617812E-3,-4.502768E-3,1.3028864E-3,-2.4279994E-3,4.285226E-3,1.820798E-3],"categories":[],"categories_nodes":[],"categories_segments":[],"categories_sizes":[],"default_left":[0,0,0,0,0,0,0,0,0,0,0,0,0,0,0],"id":14,"left_children":[1,3,5,7,9,11,13,-1,-1,-1,-1,-1,-1,-1,-1],"loss_changes":[2.067161E2,6.508313E1,8.5882675E1,2.7355804E1,6.5577393E0,4.59141E1,1.4445969E1,0E0,0E0,0E0,0E0,0E0,0E0,0E0,0E0],"parents":[2147483647,0,0,1,1,2,2,3,3,4,4,5,5,6,6],"right_children":[2,4,6,8,10,12,14,-1,-1,-1,-1,-1,-1,-1,-1],"split_conditions":[1.5E1,2E1,5.22E-1,5.1E0,2.99E1,-4.8E0,-5.9E0,-3.1774668E-3,-4.2720194E-4,-6.617812E-3,-4.502768E-3,1.3028864E-3,-2.4279994E-3,4.285226E-3,1.820798E-3],"split_indices":[51,80,55,77,61,25,25,0,0,0,0,0,0,0,0],"split_type":[0,0,0,0,0,0,0,0,0,0,0,0,0,0,0],"sum_hessian":[5.2446646E3,2.5579114E3,2.6867532E3,1.8337661E3,7.2414526E2,1.4475723E3,1.2391808E3,1.3377739E3,4.9599222E2,5.0201663E2,2.2212862E2,5.069072E2,9.406651E2,3.2181445E2,9.1736633E2],"tree_param":{"num_deleted":"0","num_feature":"280","num_nodes":"15","size_leaf_vector":"1"}},{"base_weights":[1.4047635E-1,3.4388813E-1,-5.323685E-2,2.4342212E-1,5.976135E-1,1.1215302E-1,-2.4637477E-1,3.1774673E-3,4.272025E-4,6.617811E-3,4.5027686E-3,-1.302887E-3,2.4280003E-3,-4.285226E-3,-1.820798E-3],"categories":[],"categories_nodes":[],"categories_segments":[],"categories_sizes":[],"default_left":[0,0,0,0,0,0,0,0,0,0,0,0,0,0,0],"id":15,"left_children":[1,3,5,7,9,11,13,-1,-1,-1,-1,-1,-1,-1,-1],"loss_changes":[2.0671611E2,6.508313E1,8.588267E1,2.7355797E1,6.5577393E0,4.5914127E1,1.4445969E1,0E0,0E0,0E0,0E0,0E0,0E0,0E0,0E0],"parents":[2147483647,0,0,1,1,2,2,3,3,4,4,5,5,6,6],"right_children":[2,4,6,8,10,12,14,-1,-1,-1,-1,-1,-1,-1,-1],"split_conditions":[1.5E1,2E1,5.22E-1,5.1E0,2.99E1,-4.8E0,-5.9E0,3.1774673E-3,4.272025E-4,6.617811E-3,4.5027686E-3,-1.302887E-3,2.4280003E-3,-4.285226E-3,-1.820798E-3],"split_indices":[51,80,55,77,61,25,25,0,0,0,0,0,0,0,0],"split_type":[0,0,0,0,0,0,0,0,0,0,0,0,0,0,0],"sum_hessian":[5.2446646E3,2.5579114E3,2.6867532E3,1.8337661E3,7.2414526E2,1.4475723E3,1.2391809E3,1.3377739E3,4.959922E2,5.0201666E2,2.2212862E2,5.0690717E2,9.406651E2,3.2181445E2,9.173664E2],"tree_param":{"num_deleted":"0","num_feature":"280","num_nodes":"15","size_leaf_vector":"1"}},{"base_weights":[-1.3909496E-1,-3.4053707E-1,5.271011E-2,-1.831886E-1,-4.99806E-1,1.9958818E-1,-1.6139589E-1,-2.637662E-3,-1.7022857E-4,-4.066434E-3,-6.4371824E-3,9.872383E-4,3.3029458E-3,-2.8329724E-3,1.0473473E-3],"categories":[],"categories_nodes":[],"categories_segments":[],"categories_sizes":[],"default_left":[0,0,0,0,0,0,0,0,0,0,0,0,0,0,0],"id":16,"left_children":[1,3,5,7,9,11,13,-1,-1,-1,-1,-1,-1,-1,-1],"loss_changes":[2.0266698E2,6.402121E1,8.454929E1,1.7247368E1,1.6776337E1,2.098851E1,3.5523315E1,0E0,0E0,0E0,0E0,0E0,0E0,0E0,0E0],"parents":[2147483647,0,0,1,1,2,2,3,3,4,4,5,5,6,6],"right_children":[2,4,6,8,10,12,14,-1,-1,-1,-1,-1,-1,-1,-1],"split_conditions":[1.5E1,1.3E1,1.8E1,1E1,2.3E1,2.4E1,2.6E1,-2.637662E-3,-1.7022857E-4,-4.066434E-3,-6.4371824E-3,9.872383E-4,3.3029458E-3,-2.8329724E-3,1.0473473E-3],"split_indices":[51,80,81,51,80,51,51,0,0,0,0,0,0,0,0],"split_type":[0,0,0,0,0,0,0,0,0,0,0,0,0,0,0],"sum_hessian":[5.2438623E3,2.557299E3,2.6865632E3,1.2874868E3,1.2698124E3,1.593488E3,1.0930751E3,8.666438E2,4.2084305E2,7.731404E2,4.9667197E2,9.004096E2,6.930784E2,7.496382E2,3.4343692E2],"tree_param":{"num_deleted":"0","num_feature":"280","num_nodes":"15","size_leaf_vector":"1"}},{"base_weights":[1.3909495E-1,3.405371E-1,-5.271015E-2,1.8318863E-1,4.99806E-1,-1.9958825E-1,1.6139589E-1,2.6376625E-3,1.7022881E-4,4.066434E-3,6.4371824E-3,-9.872392E-4,-3.3029462E-3,2.832972E-3,-1.0473466E-3],"categories":[],"categories_nodes":[],"categories_segments":[],"categories_sizes":[],"default_left":[0,0,0,0,0,0,0,0,0,0,0,0,0,0,0],"id":17,"left_children":[1,3,5,7,9,11,13,-1,-1,-1,-1,-1,-1,-1,-1],"loss_changes":[2.0266699E2,6.402124E1,8.4549324E1,1.7247372E1,1.6776306E1,2.0988499E1,3.5523293E1,0E0,0E0,0E0,0E0,0E0,0E0,0E0,0E0],"parents":[2147483647,0,0,1,1,2,2,3,3,4,4,5,5,6,6],"right_children":[2,4,6,8,10,12,14,-1,-1,-1,-1,-1,-1,-1,-1],"split_conditions":[1.5E1,1.3E1,1.8E1,1E1,2.3E1,2.4E1,2.6E1,2.6376625E-3,1.7022881E-4,4.066434E-3,6.4371824E-3,-9.872392E-4,-3.3029462E-3,2.832972E-3,-1.0473466E-3],"split_indices":[51,80,81,51,80,51,51,0,0,0,0,0,0,0,0],"split_type":[0,0,0,0,0,0,0,0,0,0,0,0,0,0,0],"sum_hessian":[5.2438623E3,2.557299E3,2.6865632E3,1.2874868E3,1.2698123E3,1.593488E3,1.0930751E3,8.6664374E2,4.2084302E2,7.731404E2,4.9667194E2,9.004096E2,6.930784E2,7.496382E2,3.4343692E2],"tree_param":{"num_deleted":"0","num_feature":"280","num_nodes":"15","size_leaf_vector":"1"}},{"base_weights":[-1.3772924E-1,-3.3722392E-1,5.2188184E-2,-1.8137139E-1,-4.950383E-1,-1.8082762E-1,1.8507813E-1,-2.6115756E-3,-1.685313E-4,-4.026959E-3,-6.377442E-3,7.6927856E-4,-3.1737888E-3,8.5537194E-4,3.121912E-3],"categories":[],"categories_nodes":[],"categories_segments":[],"categories_sizes":[],"default_left":[0,0,0,0,0,0,0,0,0,0,0,0,0,0,0],"id":18,"left_children":[1,3,5,7,9,11,13,-1,-1,-1,-1,-1,-1,-1,-1],"loss_changes":[1.986994E2,6.2817444E1,8.324841E1,1.6907482E1,1.6482208E1,3.439409E1,2.1633244E1,0E0,0E0,0E0,0E0,0E0,0E0,0E0,0E0],"parents":[2147483647,0,0,1,1,2,2,3,3,4,4,5,5,6,6],"right_children":[2,4,6,8,10,12,14,-1,-1,-1,-1,-1,-1,-1,-1],"split_conditions":[1.5E1,1.3E1,-1.5E0,1E1,2.3E1,-4.8E0,2.4E1,-2.6115756E-3,-1.685313E-4,-4.026959E-3,-6.377442E-3,7.6927856E-4,-3.1737888E-3,8.5537194E-4,3.121912E-3],"split_indices":[51,80,77,51,80,25,51,0,0,0,0,0,0,0,0],"split_type":[0,0,0,0,0,0,0,0,0,0,0,0,0,0,0],"sum_hessian":[5.242991E3,2.5566438E3,2.6863474E3,1.2873986E3,1.2692454E3,9.7549884E2,1.7108485E3,8.6655786E2,4.2084067E2,7.72923E2,4.9632236E2,3.3797348E2,6.375253E2,9.604237E2,7.5042487E2],"tree_param":{"num_deleted":"0","num_feature":"280","num_nodes":"15","size_leaf_vector":"1"}},{"base_weights":[1.3772924E-1,3.3722392E-1,-5.2188158E-2,1.8137139E-1,4.9503827E-1,1.8082765E-1,-1.8507811E-1,2.6115756E-3,1.6853084E-4,4.0269587E-3,6.377442E-3,-7.692792E-4,3.1737892E-3,-8.5537124E-4,-3.1219127E-3],"categories":[],"categories_nodes":[],"categories_segments":[],"categories_sizes":[],"default_left":[0,0,0,0,0,0,0,0,0,0,0,0,0,0,0],"id":19,"left_children":[1,3,5,7,9,11,13,-1,-1,-1,-1,-1,-1,-1,-1],"loss_changes":[1.9869937E2,6.2817444E1,8.324842E1,1.690749E1,1.6482239E1,3.4394104E1,2.1633266E1,0E0,0E0,0E0,0E0,0E0,0E0,0E0,0E0],"parents":[2147483647,0,0,1,1,2,2,3,3,4,4,5,5,6,6],"right_children":[2,4,6,8,10,12,14,-1,-1,-1,-1,-1,-1,-1,-1],"split_conditions":[1.5E1,1.3E1,-1.5E0,1E1,2.3E1,-4.8E0,2.4E1,2.6115756E-3,1.6853084E-4,4.0269587E-3,6.377442E-3,-7.692792E-4,3.1737892E-3,-8.5537124E-4,-3.1219127E-3],"split_indices":[51,80,77,51,80,25,51,0,0,0,0,0,0,0,0],"split_type":[0,0,0,0,0,0,0,0,0,0,0,0,0,0,0],"sum_hessian":[5.242991E3,2.5566438E3,2.6863474E3,1.2873986E3,1.2692452E3,9.7549884E2,1.7108486E3,8.6655786E2,4.208407E2,7.729229E2,4.9632236E2,3.3797345E2,6.375254E2,9.604237E2,7.5042487E2],"tree_param":{"num_deleted":"0","num_feature":"280","num_nodes":"15","size_leaf_vector":"1"}},{"base_weights":[-1.3638039E-1,-3.3395237E-1,5.1672053E-2,-2.3611304E-1,-5.813998E-1,-1.0981047E-1,2.4025336E-1,-3.0921146E-3,-3.8816445E-4,-6.29811E-3,-3.8967757E-3,1.2352953E-3,-2.3845069E-3,4.1826055E-3,1.7745E-3],"categories":[],"categories_nodes":[],"categories_segments":[],"categories_sizes":[],"default_left":[0,0,0,0,0,0,0,0,0,0,0,0,0,0,0],"id":20,"left_children":[1,3,5,7,9,11,13,-1,-1,-1,-1,-1,-1,-1,-1],"loss_changes":[1.9481497E2,6.176593E1,8.185487E1,2.6439247E1,6.47287E0,4.350085E1,1.3786598E1,0E0,0E0,0E0,0E0,0E0,0E0,0E0,0E0],"parents":[2147483647,0,0,1,1,2,2,3,3,4,4,5,5,6,6],"right_children":[2,4,6,8,10,12,14,-1,-1,-1,-1,-1,-1,-1,-1],"split_conditions":[1.5E1,2E1,5.22E-1,5.1E0,3.43E1,-4.7E0,-5.9E0,-3.0921146E-3,-3.8816445E-4,-6.29811E-3,-3.8967757E-3,1.2352953E-3,-2.3845069E-3,4.1826055E-3,1.7745E-3],"split_indices":[51,80,55,77,67,25,25,0,0,0,0,0,0,0,0],"split_type":[0,0,0,0,0,0,0,0,0,0,0,0,0,0,0],"sum_hessian":[5.241996E3,2.5559177E3,2.6860786E3,1.8330817E3,7.2283606E2,1.4472302E3,1.2388483E3,1.3371136E3,4.95968E2,5.7528705E2,1.47549E2,5.143295E2,9.329007E2,3.2161542E2,9.1723285E2],"tree_param":{"num_deleted":"0","num_feature":"280","num_nodes":"15","size_leaf_vector":"1"}},{"base_weights":[1.3638039E-1,3.3395237E-1,-5.167205E-2,2.3611306E-1,5.813998E-1,1.09810494E-1,-2.4025337E-1,3.0921146E-3,3.8816445E-4,6.298109E-3,3.8967761E-3,-1.2352951E-3,2.384507E-3,-4.1826055E-3,-1.7745001E-3],"categories":[],"categories_nodes":[],"categories_segments":[],"categories_sizes":[],"default_left":[0,0,0,0,0,0,0,0,0,0,0,0,0,0,0],"id":21,"left_children":[1,3,5,7,9,11,13,-1,-1,-1,-1,-1,-1,-1,-1],"loss_changes":[1.9481499E2,6.176593E1,8.1854904E1,2.6439255E1,6.4728546E0,4.350085E1,1.3786598E1,0E0,0E0,0E0,0E0,0E0,0E0,0E0,0E0],"parents":[2147483647,0,0,1,1,2,2,3,3,4,4,5,5,6,6],"right_children":[2,4,6,8,10,12,14,-1,-1,-1,-1,-1,-1,-1,-1],"split_conditions":[1.5E1,2E1,5.22E-1,5.1E0,3.43E1,-4.7E0,-5.9E0,3.0921146E-3,3.8816445E-4,6.298109E-3,3.8967761E-3,-1.2352951E-3,2.384507E-3,-4.1826055E-3,-1.7745001E-3],"split_indices":[51,80,55,77,67,25,25,0,0,0,0,0,0,0,0],"split_type":[0,0,0,0,0,0,0,0,0,0,0,0,0,0,0],"sum_hessian":[5.2419966E3,2.5559177E3,2.6860786E3,1.8330817E3,7.2283606E2,1.4472303E3,1.2388483E3,1.3371136E3,4.95968E2,5.7528705E2,1.47549E2,5.143295E2,9.3290076E2,3.2161542E2,9.172329E2],"tree_param":{"num_deleted":"0","num_feature":"280","num_nodes":"15","size_leaf_vector":"1"}},{"base_weights":[-1.3504626E-1,-3.307242E-1,5.1162135E-2,-1.7754099E-1,-4.8596326E-1,-1.780339E-1,1.8186721E-1,-1.3538414E-4,-2.5601983E-3,-3.951199E-3,-6.264832E-3,7.4869883E-4,-3.1205227E-3,3.243301E-3,9.581898E-4],"categories":[],"categories_nodes":[],"categories_segments":[],"categories_sizes":[],"default_left":[0,0,0,0,0,0,0,0,0,0,0,0,0,0,0],"id":22,"left_children":[1,3,5,7,9,11,13,-1,-1,-1,-1,-1,-1,-1,-1],"loss_changes":[1.9101622E2,6.0697968E1,8.052165E1,1.6575924E1,1.595108E1,3.3113014E1,2.0950191E1,0E0,0E0,0E0,0E0,0E0,0E0,0E0,0E0],"parents":[2147483647,0,0,1,1,2,2,3,3,4,4,5,5,6,6],"right_children":[2,4,6,8,10,12,14,-1,-1,-1,-1,-1,-1,-1,-1],"split_conditions":[1.5E1,1.3E1,-1.5E0,5E0,2.3E1,-4.8E0,8E0,-1.3538414E-4,-2.5601983E-3,-3.951199E-3,-6.264832E-3,7.4869883E-4,-3.1205227E-3,3.243301E-3,9.581898E-4],"split_indices":[51,80,77,103,80,25,103,0,0,0,0,0,0,0,0],"split_type":[0,0,0,0,0,0,0,0,0,0,0,0,0,0,0],"sum_hessian":[5.2409233E3,2.5551042E3,2.6858193E3,1.2871469E3,1.2679574E3,9.752759E2,1.7105433E3,4.169631E2,8.7018365E2,7.724169E2,4.9554056E2,3.3795953E2,6.3731635E2,6.4307996E2,1.0674634E3],"tree_param":{"num_deleted":"0","num_feature":"280","num_nodes":"15","size_leaf_vector":"1"}},{"base_weights":[1.3504624E-1,3.3072418E-1,-5.116212E-2,1.7754096E-1,4.8596326E-1,1.7803389E-1,-1.8186718E-1,1.3538386E-4,2.5601978E-3,3.9511984E-3,6.264832E-3,-7.486994E-4,3.1205227E-3,-3.2433008E-3,-9.581895E-4],"categories":[],"categories_nodes":[],"categories_segments":[],"categories_sizes":[],"default_left":[0,0,0,0,0,0,0,0,0,0,0,0,0,0,0],"id":23,"left_children":[1,3,5,7,9,11,13,-1,-1,-1,-1,-1,-1,-1,-1],"loss_changes":[1.910162E2,6.0697906E1,8.052164E1,1.6575924E1,1.5951111E1,3.3113026E1,2.095018E1,0E0,0E0,0E0,0E0,0E0,0E0,0E0,0E0],"parents":[2147483647,0,0,1,1,2,2,3,3,4,4,5,5,6,6],"right_children":[2,4,6,8,10,12,14,-1,-1,-1,-1,-1,-1,-1,-1],"split_conditions":[1.5E1,1.3E1,-1.5E0,5E0,2.3E1,-4.8E0,8E0,1.3538386E-4,2.5601978E-3,3.9511984E-3,6.264832E-3,-7.486994E-4,3.1205227E-3,-3.2433008E-3,-9.581895E-4],"split_indices":[51,80,77,103,80,25,103,0,0,0,0,0,0,0,0],"split_type":[0,0,0,0,0,0,0,0,0,0,0,0,0,0,0],"sum_hessian":[5.2409233E3,2.5551042E3,2.6858193E3,1.2871469E3,1.2679574E3,9.752758E2,1.7105433E3,4.1696313E2,8.701837E2,7.724168E2,4.9554056E2,3.3795953E2,6.3731635E2,6.4308E2,1.0674634E3],"tree_param":{"num_deleted":"0","num_feature":"280","num_nodes":"15","size_leaf_vector":"1"}},{"base_weights":[-1.3372785E-1,-2.914456E-1,9.337904E-2,-1.2941293E-1,-4.514978E-1,1.9724657E-1,-1.639878E-1,-2.5221184E-3,2.5088846E-4,-3.4302478E-3,-5.5042794E-3,1.1224627E-3,3.298087E-3,1.084578E-3,-2.7784645E-3],"categories":[],"categories_nodes":[],"categories_segments":[],"categories_sizes":[],"default_left":[0,0,0,0,0,0,0,0,0,0,0,0,0,0,0],"id":24,"left_children":[1,3,5,7,9,11,13,-1,-1,-1,-1,-1,-1,-1,-1],"loss_changes":[1.8774518E2,8.015744E1,5.7470177E1,2.9194813E1,1.6505463E1,1.72173E1,1.9211779E1,0E0,0E0,0E0,0E0,0E0,0E0,0E0,0E0],"parents":[2147483647,0,0,1,1,2,2,3,3,4,4,5,5,6,6],"right_children":[2,4,6,8,10,12,14,-1,-1,-1,-1,-1,-1,-1,-1],"split_conditions":[1.7E1,1.3E1,2.2E1,1E1,2.8E0,2.6E1,-6.2E0,-2.5221184E-3,2.5088846E-4,-3.4302478E-3,-5.5042794E-3,1.1224627E-3,3.298087E-3,1.084578E-3,-2.7784645E-3],"split_indices":[27,80,103,51,25,51,25,0,0,0,0,0,0,0,0],"split_type":[0,0,0,0,0,0,0,0,0,0,0,0,0,0,0],"sum_hessian":[5.2397666E3,3.0921167E3,2.14765E3,1.5374503E3,1.5546664E3,1.5302919E3,6.173581E2,8.5625854E2,6.811917E2,7.436982E2,8.1096814E2,9.335415E2,5.9675037E2,1.8197304E2,4.3538504E2],"tree_param":{"num_deleted":"0","num_feature":"280","num_nodes":"15","size_leaf_vector":"1"}},{"base_weights":[1.3372785E-1,2.914456E-1,-9.337905E-2,1.2941295E-1,4.514978E-1,-1.9724657E-1,1.6398779E-1,2.5221186E-3,-2.5088846E-4,3.4302475E-3,5.5042794E-3,-1.1224627E-3,-3.298087E-3,-1.084577E-3,2.778464E-3],"categories":[],"categories_nodes":[],"categories_segments":[],"categories_sizes":[],"default_left":[0,0,0,0,0,0,0,0,0,0,0,0,0,0,0],"id":25,"left_children":[1,3,5,7,9,11,13,-1,-1,-1,-1,-1,-1,-1,-1],"loss_changes":[1.8774515E2,8.015747E1,5.7470177E1,2.9194813E1,1.6505432E1,1.72173E1,1.9211765E1,0E0,0E0,0E0,0E0,0E0,0E0,0E0,0E0],"parents":[2147483647,0,0,1,1,2,2,3,3,4,4,5,5,6,6],"right_children":[2,4,6,8,10,12,14,-1,-1,-1,-1,-1,-1,-1,-1],"split_conditions":[1.7E1,1.3E1,2.2E1,1E1,2.8E0,2.6E1,-6.2E0,2.5221186E-3,-2.5088846E-4,3.4302475E-3,5.5042794E-3,-1.1224627E-3,-3.298087E-3,-1.084577E-3,2.778464E-3],"split_indices":[27,80,103,51,25,51,25,0,0,0,0,0,0,0,0],"split_type":[0,0,0,0,0,0,0,0,0,0,0,0,0,0,0],"sum_hessian":[5.2397666E3,3.0921167E3,2.14765E3,1.5374503E3,1.5546664E3,1.5302919E3,6.173581E2,8.5625854E2,6.811917E2,7.4369824E2,8.1096814E2,9.335415E2,5.9675037E2,1.8197304E2,4.3538504E2],"tree_param":{"num_deleted":"0","num_feature":"280","num_nodes":"15","size_leaf_vector":"1"}},{"base_weights":[-1.3242112E-1,-2.886186E-1,9.24569E-2,-1.2813029E-1,-4.472117E-1,1.9529694E-1,-1.6237302E-1,-2.4972793E-3,2.4838324E-4,-3.397004E-3,-5.453025E-3,1.1112678E-3,3.2659327E-3,1.0738202E-3,-2.7512477E-3],"categories":[],"categories_nodes":[],"categories_segments":[],"categories_sizes":[],"default_left":[0,0,0,0,0,0,0,0,0,0,0,0,0,0,0],"id":26,"left_children":[1,3,5,7,9,11,13,-1,-1,-1,-1,-1,-1,-1,-1],"loss_changes":[1.8407085E2,7.8647064E1,5.633449E1,2.8620129E1,1.6212494E1,1.6884651E1,1.8834555E1,0E0,0E0,0E0,0E0,0E0,0E0,0E0,0E0],"parents":[2147483647,0,0,1,1,2,2,3,3,4,4,5,5,6,6],"right_children":[2,4,6,8,10,12,14,-1,-1,-1,-1,-1,-1,-1,-1],"split_conditions":[1.7E1,1.3E1,2.2E1,1E1,2.8E0,2.6E1,-6.2E0,-2.4972793E-3,2.4838324E-4,-3.397004E-3,-5.453025E-3,1.1112678E-3,3.2659327E-3,1.0738202E-3,-2.7512477E-3],"split_indices":[27,80,103,51,25,51,25,0,0,0,0,0,0,0,0],"split_type":[0,0,0,0,0,0,0,0,0,0,0,0,0,0,0],"sum_hessian":[5.2386357E3,3.0912256E3,2.14741E3,1.5373313E3,1.5538943E3,1.5301365E3,6.1727356E2,8.5613824E2,6.81193E2,7.434773E2,8.1041693E2,9.335267E2,5.966098E2,1.8196815E2,4.3530542E2],"tree_param":{"num_deleted":"0","num_feature":"280","num_nodes":"15","size_leaf_vector":"1"}},{"base_weights":[1.3242112E-1,2.886186E-1,-9.245692E-2,1.281303E-1,4.4721174E-1,-1.9529697E-1,1.6237298E-1,2.497279E-3,-2.4838277E-4,3.397004E-3,5.453025E-3,-1.1112678E-3,-3.2659334E-3,-1.0738202E-3,2.7512473E-3],"categories":[],"categories_nodes":[],"categories_segments":[],"categories_sizes":[],"default_left":[0,0,0,0,0,0,0,0,0,0,0,0,0,0,0],"id":27,"left_children":[1,3,5,7,9,11,13,-1,-1,-1,-1,-1,-1,-1,-1],"loss_changes":[1.8407088E2,7.8647095E1,5.6334484E1,2.8620102E1,1.6212463E1,1.6884666E1,1.8834549E1,0E0,0E0,0E0,0E0,0E0,0E0,0E0,0E0],"parents":[2147483647,0,0,1,1,2,2,3,3,4,4,5,5,6,6],"right_children":[2,4,6,8,10,12,14,-1,-1,-1,-1,-1,-1,-1,-1],"split_conditions":[1.7E1,1.3E1,2.2E1,1E1,2.8E0,2.6E1,-6.2E0,2.497279E-3,-2.4838277E-4,3.397004E-3,5.453025E-3,-1.1112678E-3,-3.2659334E-3,-1.0738202E-3,2.7512473E-3],"split_indices":[27,80,103,51,25,51,25,0,0,0,0,0,0,0,0],"split_type":[0,0,0,0,0,0,0,0,0,0,0,0,0,0,0],"sum_hessian":[5.2386353E3,3.0912253E3,2.14741E3,1.5373313E3,1.5538942E3,1.5301365E3,6.172736E2,8.561383E2,6.81193E2,7.434773E2,8.1041693E2,9.335267E2,5.9660974E2,1.8196815E2,4.3530545E2],"tree_param":{"num_deleted":"0","num_feature":"280","num_nodes":"15","size_leaf_vector":"1"}},{"base_weights":[-1.3112938E-1,-3.2162732E-1,5.0023664E-2,-2.2660014E-1,-5.624972E-1,-1.06584355E-1,2.3291592E-1,-3.4404227E-3,-1.1002469E-3,-6.2611275E-3,-4.1666497E-3,1.189106E-3,-2.3093359E-3,4.0637157E-3,1.717668E-3],"categories":[],"categories_nodes":[],"categories_segments":[],"categories_sizes":[],"default_left":[0,0,0,0,0,0,0,0,0,0,0,0,0,0,0],"id":28,"left_children":[1,3,5,7,9,11,13,-1,-1,-1,-1,-1,-1,-1,-1],"loss_changes":[1.8079013E2,5.8319733E1,7.695637E1,2.505429E1,6.4346924E0,4.061905E1,1.3075104E1,0E0,0E0,0E0,0E0,0E0,0E0,0E0,0E0],"parents":[2147483647,0,0,1,1,2,2,3,3,4,4,5,5,6,6],"right_children":[2,4,6,8,10,12,14,-1,-1,-1,-1,-1,-1,-1,-1],"split_conditions":[1.5E1,2E1,5.22E-1,7E0,2.99E1,-4.7E0,-5.9E0,-3.4404227E-3,-1.1002469E-3,-6.2611275E-3,-4.1666497E-3,1.189106E-3,-2.3093359E-3,4.0637157E-3,1.717668E-3],"split_indices":[51,80,55,27,61,25,25,0,0,0,0,0,0,0,0],"split_type":[0,0,0,0,0,0,0,0,0,0,0,0,0,0,0],"sum_hessian":[5.2374175E3,2.552485E3,2.6849324E3,1.8317643E3,7.207209E2,1.4466252E3,1.2383071E3,9.1151807E2,9.2024615E2,4.9952338E2,2.2119746E2,5.1420654E2,9.324187E2,3.2129007E2,9.170171E2],"tree_param":{"num_deleted":"0","num_feature":"280","num_nodes":"15","size_leaf_vector":"1"}},{"base_weights":[1.3112938E-1,3.2162735E-1,-5.0023664E-2,2.2660017E-1,5.624972E-1,1.0658438E-1,-2.3291595E-1,3.440423E-3,1.1002474E-3,6.2611275E-3,4.1666497E-3,-1.1891058E-3,2.309336E-3,-4.0637166E-3,-1.7176681E-3],"categories":[],"categories_nodes":[],"categories_segments":[],"categories_sizes":[],"default_left":[0,0,0,0,0,0,0,0,0,0,0,0,0,0,0],"id":29,"left_children":[1,3,5,7,9,11,13,-1,-1,-1,-1,-1,-1,-1,-1],"loss_changes":[1.8079013E2,5.8319733E1,7.6956375E1,2.5054276E1,6.434677E0,4.0619053E1,1.3075119E1,0E0,0E0,0E0,0E0,0E0,0E0,0E0,0E0],"parents":[2147483647,0,0,1,1,2,2,3,3,4,4,5,5,6,6],"right_children":[2,4,6,8,10,12,14,-1,-1,-1,-1,-1,-1,-1,-1],"split_conditions":[1.5E1,2E1,5.22E-1,7E0,2.99E1,-4.7E0,-5.9E0,3.440423E-3,1.1002474E-3,6.2611275E-3,4.1666497E-3,-1.1891058E-3,2.309336E-3,-4.0637166E-3,-1.7176681E-3],"split_indices":[51,80,55,27,61,25,25,0,0,0,0,0,0,0,0],"split_type":[0,0,0,0,0,0,0,0,0,0,0,0,0,0,0],"sum_hessian":[5.2374175E3,2.552485E3,2.6849324E3,1.8317643E3,7.207209E2,1.4466252E3,1.2383071E3,9.115181E2,9.2024615E2,4.995234E2,2.2119746E2,5.1420654E2,9.324187E2,3.2129007E2,9.170171E2],"tree_param":{"num_deleted":"0","num_feature":"280","num_nodes":"15","size_leaf_vector":"1"}},{"base_weights":[-1.298535E-1,1.0178441E-1,-2.7627084E-1,-1.849393E-1,1.9254273E-1,-4.1453475E-1,-8.018775E-2,1.7434306E-4,-3.3446273E-3,1.0134764E-3,3.1574073E-3,-3.1109725E-3,-5.1977155E-3,-2.3056858E-3,8.476923E-4],"categories":[],"categories_nodes":[],"categories_segments":[],"categories_sizes":[],"default_left":[0,0,0,0,0,0,0,0,0,0,0,0,0,0,0],"id":30,"left_children":[1,3,5,7,9,11,13,-1,-1,-1,-1,-1,-1,-1,-1],"loss_changes":[1.776481E2,5.2835545E1,8.696883E1,1.4782974E1,1.728864E1,2.0322235E1,3.296994E1,0E0,0E0,0E0,0E0,0E0,0E0,0E0,0E0],"parents":[2147483647,0,0,1,1,2,2,3,3,4,4,5,5,6,6],"right_children":[2,4,6,8,10,12,14,-1,-1,-1,-1,-1,-1,-1,-1],"split_conditions":[4.59E-1,3.71E-1,1.6E0,-4.8E0,2.6E1,2E1,1E1,1.7434306E-4,-3.3446273E-3,1.0134764E-3,3.1574073E-3,-3.1109725E-3,-5.1977155E-3,-2.3056858E-3,8.476923E-4],"split_indices":[3,55,77,25,51,80,51,0,0,0,0,0,0,0,0],"split_type":[0,0,0,0,0,0,0,0,0,0,0,0,0,0,0],"sum_hessian":[5.2360854E3,2.028006E3,3.2080796E3,4.873457E2,1.5406603E3,1.8807755E3,1.3273042E3,2.0745184E2,2.7989386E2,8.863664E2,6.542939E2,9.5049146E2,9.3028406E2,6.9412067E2,6.331835E2],"tree_param":{"num_deleted":"0","num_feature":"280","num_nodes":"15","size_leaf_vector":"1"}},{"base_weights":[1.298535E-1,-1.01784416E-1,2.7627084E-1,1.8493927E-1,-1.9254273E-1,4.1453475E-1,8.018777E-2,-1.7434375E-4,3.3446273E-3,-1.0134764E-3,-3.1574075E-3,3.1109725E-3,5.1977155E-3,2.3056858E-3,-8.476922E-4],"categories":[],"categories_nodes":[],"categories_segments":[],"categories_sizes":[],"default_left":[0,0,0,0,0,0,0,0,0,0,0,0,0,0,0],"id":31,"left_children":[1,3,5,7,9,11,13,-1,-1,-1,-1,-1,-1,-1,-1],"loss_changes":[1.776481E2,5.2835533E1,8.6968796E1,1.478298E1,1.728864E1,2.0322235E1,3.2969944E1,0E0,0E0,0E0,0E0,0E0,0E0,0E0,0E0],"parents":[2147483647,0,0,1,1,2,2,3,3,4,4,5,5,6,6],"right_children":[2,4,6,8,10,12,14,-1,-1,-1,-1,-1,-1,-1,-1],"split_conditions":[4.59E-1,3.71E-1,1.6E0,-4.8E0,2.6E1,2E1,1E1,-1.7434375E-4,3.3446273E-3,-1.0134764E-3,-3.1574075E-3,3.1109725E-3,5.1977155E-3,2.3056858E-3,-8.476922E-4],"split_indices":[3,55,77,25,51,80,51,0,0,0,0,0,0,0,0],"split_type":[0,0,0,0,0,0,0,0,0,0,0,0,0,0,0],"sum_hessian":[5.2360854E3,2.028006E3,3.2080796E3,4.873457E2,1.5406603E3,1.8807755E3,1.3273041E3,2.0745184E2,2.7989386E2,8.863664E2,6.5429395E2,9.5049146E2,9.3028406E2,6.941206E2,6.331835E2],"tree_param":{"num_deleted":"0","num_feature":"280","num_nodes":"15","size_leaf_vector":"1"}},{"base_weights":[-1.2859082E-1,-3.1582376E-1,4.9367733E-2,-2.2245942E-1,-5.528335E-1,1.8733886E-1,-1.5179035E-1,-2.842415E-3,-3.2875545E-5,-4.738719E-3,-6.7029577E-3,3.195752E-3,9.81831E-4,1.3768679E-3,-2.4967655E-3],"categories":[],"categories_nodes":[],"categories_segments":[],"categories_sizes":[],"default_left":[0,0,0,0,0,0,0,0,0,0,0,0,0,0,0],"id":32,"left_children":[1,3,5,7,9,11,13,-1,-1,-1,-1,-1,-1,-1,-1],"loss_changes":[1.7446796E2,5.6337463E1,7.45536E1,2.480761E1,6.3639374E0,1.8751919E1,3.1005394E1,0E0,0E0,0E0,0E0,0E0,0E0,0E0,0E0],"parents":[2147483647,0,0,1,1,2,2,3,3,4,4,5,5,6,6],"right_children":[2,4,6,8,10,12,14,-1,-1,-1,-1,-1,-1,-1,-1],"split_conditions":[1.5E1,2E1,1.8E1,6E0,2.7E1,8E0,-6.2E0,-2.842415E-3,-3.2875545E-5,-4.738719E-3,-6.7029577E-3,3.195752E-3,9.81831E-4,1.3768679E-3,-2.4967655E-3],"split_indices":[51,80,81,77,103,103,25,0,0,0,0,0,0,0,0],"split_type":[0,0,0,0,0,0,0,0,0,0,0,0,0,0,0],"sum_hessian":[5.2347114E3,2.5505078E3,2.6842034E3,1.8311202E3,7.193877E2,1.5922043E3,1.0919989E3,1.4282233E3,4.0289688E2,4.3320743E2,2.861803E2,6.4014825E2,9.5205615E2,2.7584393E2,8.1615497E2],"tree_param":{"num_deleted":"0","num_feature":"280","num_nodes":"15","size_leaf_vector":"1"}},{"base_weights":[1.285908E-1,3.1582373E-1,-4.936775E-2,2.2245939E-1,5.5283344E-1,-1.8733887E-1,1.5179035E-1,2.8424144E-3,3.287566E-5,4.7387187E-3,6.7029577E-3,-3.1957522E-3,-9.818311E-4,-1.3768683E-3,2.4967657E-3],"categories":[],"categories_nodes":[],"categories_segments":[],"categories_sizes":[],"default_left":[0,0,0,0,0,0,0,0,0,0,0,0,0,0,0],"id":33,"left_children":[1,3,5,7,9,11,13,-1,-1,-1,-1,-1,-1,-1,-1],"loss_changes":[1.7446796E2,5.6337418E1,7.45536E1,2.4807602E1,6.363983E0,1.8751919E1,3.1005404E1,0E0,0E0,0E0,0E0,0E0,0E0,0E0,0E0],"parents":[2147483647,0,0,1,1,2,2,3,3,4,4,5,5,6,6],"right_children":[2,4,6,8,10,12,14,-1,-1,-1,-1,-1,-1,-1,-1],"split_conditions":[1.5E1,2E1,1.8E1,6E0,2.7E1,8E0,-6.2E0,2.8424144E-3,3.287566E-5,4.7387187E-3,6.7029577E-3,-3.1957522E-3,-9.818311E-4,-1.3768683E-3,2.4967657E-3],"split_indices":[51,80,81,77,103,103,25,0,0,0,0,0,0,0,0],"split_type":[0,0,0,0,0,0,0,0,0,0,0,0,0,0,0],"sum_hessian":[5.2347114E3,2.5505078E3,2.6842034E3,1.8311202E3,7.1938776E2,1.5922043E3,1.0919989E3,1.4282233E3,4.0289688E2,4.3320743E2,2.861803E2,6.4014825E2,9.5205615E2,2.7584393E2,8.1615497E2],"tree_param":{"num_deleted":"0","num_feature":"280","num_nodes":"15","size_leaf_vector":"1"}},{"base_weights":[-1.2734352E-1,-2.7837795E-1,8.992347E-2,-1.229063E-1,-4.322894E-1,1.8966542E-1,-1.5727207E-1,-2.4017044E-3,2.4533767E-4,-3.269362E-3,-5.285326E-3,1.084606E-3,3.164253E-3,1.0273925E-3,-2.660298E-3],"categories":[],"categories_nodes":[],"categories_segments":[],"categories_sizes":[],"default_left":[0,0,0,0,0,0,0,0,0,0,0,0,0,0,0],"id":34,"left_children":[1,3,5,7,9,11,13,-1,-1,-1,-1,-1,-1,-1,-1],"loss_changes":[1.7178531E2,7.383928E1,5.297142E1,2.6590342E1,1.5557556E1,1.5718559E1,1.7499304E1,0E0,0E0,0E0,0E0,0E0,0E0,0E0,0E0],"parents":[2147483647,0,0,1,1,2,2,3,3,4,4,5,5,6,6],"right_children":[2,4,6,8,10,12,14,-1,-1,-1,-1,-1,-1,-1,-1],"split_conditions":[1.7E1,1.3E1,2.2E1,1E1,2.8E0,2.6E1,-6.2E0,-2.4017044E-3,2.4533767E-4,-3.269362E-3,-5.285326E-3,1.084606E-3,3.164253E-3,1.0273925E-3,-2.660298E-3],"split_indices":[27,80,103,51,25,51,25,0,0,0,0,0,0,0,0],"split_type":[0,0,0,0,0,0,0,0,0,0,0,0,0,0,0],"sum_hessian":[5.2332324E3,3.087003E3,2.1462297E3,1.5366124E3,1.5503905E3,1.5293704E3,6.1685925E2,8.5554175E2,6.810707E2,7.4226416E2,8.081264E2,9.33322E2,5.960484E2,1.8194106E2,4.349182E2],"tree_param":{"num_deleted":"0","num_feature":"280","num_nodes":"15","size_leaf_vector":"1"}},{"base_weights":[1.273435E-1,2.7837795E-1,-8.9923486E-2,1.2290628E-1,4.3228942E-1,-1.8966542E-1,1.5727203E-1,2.4017042E-3,-2.4533775E-4,3.2693627E-3,5.285326E-3,-1.0846063E-3,-3.1642525E-3,-1.0273926E-3,2.6602973E-3],"categories":[],"categories_nodes":[],"categories_segments":[],"categories_sizes":[],"default_left":[0,0,0,0,0,0,0,0,0,0,0,0,0,0,0],"id":35,"left_children":[1,3,5,7,9,11,13,-1,-1,-1,-1,-1,-1,-1,-1],"loss_changes":[1.7178534E2,7.3839294E1,5.2971405E1,2.659034E1,1.5557556E1,1.5718559E1,1.7499304E1,0E0,0E0,0E0,0E0,0E0,0E0,0E0,0E0],"parents":[2147483647,0,0,1,1,2,2,3,3,4,4,5,5,6,6],"right_children":[2,4,6,8,10,12,14,-1,-1,-1,-1,-1,-1,-1,-1],"split_conditions":[1.7E1,1.3E1,2.2E1,1E1,2.8E0,2.6E1,-6.2E0,2.4017042E-3,-2.4533775E-4,3.2693627E-3,5.285326E-3,-1.0846063E-3,-3.1642525E-3,-1.0273926E-3,2.6602973E-3],"split_indices":[27,80,103,51,25,51,25,0,0,0,0,0,0,0,0],"split_type":[0,0,0,0,0,0,0,0,0,0,0,0,0,0,0],"sum_hessian":[5.2332324E3,3.087003E3,2.1462297E3,1.5366124E3,1.5503905E3,1.5293704E3,6.1685925E2,8.5554175E2,6.810707E2,7.422641E2,8.081264E2,9.33322E2,5.960484E2,1.8194106E2,4.3491818E2],"tree_param":{"num_deleted":"0","num_feature":"280","num_nodes":"15","size_leaf_vector":"1"}},{"base_weights":[-1.2610826E-1,9.951855E-2,-2.6882106E-1,-1.8068248E-1,1.8820149E-1,-4.0400338E-1,-7.735816E-2,1.6430693E-4,-3.2643029E-3,9.915584E-4,3.0855988E-3,-3.0297297E-3,-5.0694896E-3,-2.2408403E-3,8.35238E-4],"categories":[],"categories_nodes":[],"categories_segments":[],"categories_sizes":[],"default_left":[0,0,0,0,0,0,0,0,0,0,0,0,0,0,0],"id":36,"left_children":[1,3,5,7,9,11,13,-1,-1,-1,-1,-1,-1,-1,-1],"loss_changes":[1.685198E2,5.0431503E1,8.2936966E1,1.4027733E1,1.6485462E1,1.9386261E1,3.136382E1,0E0,0E0,0E0,0E0,0E0,0E0,0E0,0E0],"parents":[2147483647,0,0,1,1,2,2,3,3,4,4,5,5,6,6],"right_children":[2,4,6,8,10,12,14,-1,-1,-1,-1,-1,-1,-1,-1],"split_conditions":[4.59E-1,3.71E-1,1.6E0,-4.8E0,2.6E1,2E1,1E1,1.6430693E-4,-3.2643029E-3,9.915584E-4,3.0855988E-3,-3.0297297E-3,-5.0694896E-3,-2.2408403E-3,8.35238E-4],"split_indices":[3,55,77,25,51,80,51,0,0,0,0,0,0,0,0],"split_type":[0,0,0,0,0,0,0,0,0,0,0,0,0,0,0],"sum_hessian":[5.2317314E3,2.0271461E3,3.2045852E3,4.8709427E2,1.5400519E3,1.8777151E3,1.3268701E3,2.0743753E2,2.7965674E2,8.862184E2,6.538335E2,9.496628E2,9.2805225E2,6.937608E2,6.331093E2],"tree_param":{"num_deleted":"0","num_feature":"280","num_nodes":"15","size_leaf_vector":"1"}},{"base_weights":[1.2610824E-1,-9.9518575E-2,2.6882106E-1,1.8068244E-1,-1.882015E-1,4.0400335E-1,7.735814E-2,-1.6430726E-4,3.2643022E-3,-9.915588E-4,-3.0855993E-3,3.0297297E-3,5.0694896E-3,2.2408403E-3,-8.352383E-4],"categories":[],"categories_nodes":[],"categories_segments":[],"categories_sizes":[],"default_left":[0,0,0,0,0,0,0,0,0,0,0,0,0,0,0],"id":37,"left_children":[1,3,5,7,9,11,13,-1,-1,-1,-1,-1,-1,-1,-1],"loss_changes":[1.6851984E2,5.04315E1,8.293698E1,1.4027728E1,1.6485462E1,1.9386261E1,3.1363823E1,0E0,0E0,0E0,0E0,0E0,0E0,0E0,0E0],"parents":[2147483647,0,0,1,1,2,2,3,3,4,4,5,5,6,6],"right_children":[2,4,6,8,10,12,14,-1,-1,-1,-1,-1,-1,-1,-1],"split_conditions":[4.59E-1,3.71E-1,1.6E0,-4.8E0,2.6E1,2E1,1E1,-1.6430726E-4,3.2643022E-3,-9.915588E-4,-3.0855993E-3,3.0297297E-3,5.0694896E-3,2.2408403E-3,-8.352383E-4],"split_indices":[3,55,77,25,51,80,51,0,0,0,0,0,0,0,0],"split_type":[0,0,0,0,0,0,0,0,0,0,0,0,0,0,0],"sum_hessian":[5.2317314E3,2.0271461E3,3.2045852E3,4.8709427E2,1.5400518E3,1.8777151E3,1.3268701E3,2.0743753E2,2.7965674E2,8.862183E2,6.5383344E2,9.496628E2,9.280523E2,6.937608E2,6.3310925E2],"tree_param":{"num_deleted":"0","num_feature":"280","num_nodes":"15","size_leaf_vector":"1"}},{"base_weights":[-1.2488717E-1,-2.7319166E-1,8.835311E-2,-1.2043143E-1,-4.2458403E-1,-5.2330796E-2,2.5883526E-1,-2.3545015E-3,2.4130645E-4,-3.2018386E-3,-5.200315E-3,1.2278996E-3,-1.7632359E-3,4.113734E-3,1.8804584E-3],"categories":[],"categories_nodes":[],"categories_segments":[],"categories_sizes":[],"default_left":[0,0,0,0,0,0,0,0,0,0,0,0,0,0,0],"id":38,"left_children":[1,3,5,7,9,11,13,-1,-1,-1,-1,-1,-1,-1,-1],"loss_changes":[1.6545642E2,7.130853E1,5.1496704E1,2.5566113E1,1.5272217E1,2.5576288E1,1.0403961E1,0E0,0E0,0E0,0E0,0E0,0E0,0E0,0E0],"parents":[2147483647,0,0,1,1,2,2,3,3,4,4,5,5,6,6],"right_children":[2,4,6,8,10,12,14,-1,-1,-1,-1,-1,-1,-1,-1],"split_conditions":[1.7E1,1.3E1,6E-1,1E1,2.8E0,-4.8E0,-5.9E0,-2.3545015E-3,2.4130645E-4,-3.2018386E-3,-5.200315E-3,1.2278996E-3,-1.7632359E-3,4.113734E-3,1.8804584E-3],"split_indices":[27,80,77,51,25,25,25,0,0,0,0,0,0,0,0],"split_type":[0,0,0,0,0,0,0,0,0,0,0,0,0,0,0],"sum_hessian":[5.2301445E3,3.0845906E3,2.1455542E3,1.5362528E3,1.5483376E3,1.1758893E3,9.6966486E2,8.551981E2,6.810547E2,7.4156757E2,8.067701E2,4.8745038E2,6.884389E2,3.058352E2,6.6382965E2],"tree_param":{"num_deleted":"0","num_feature":"280","num_nodes":"15","size_leaf_vector":"1"}},{"base_weights":[1.2488717E-1,2.7319166E-1,-8.8353135E-2,1.2043144E-1,4.2458406E-1,5.2330766E-2,-2.5883526E-1,2.3545015E-3,-2.4130632E-4,3.201839E-3,5.200315E-3,-1.2278997E-3,1.7632355E-3,-4.113734E-3,-1.8804586E-3],"categories":[],"categories_nodes":[],"categories_segments":[],"categories_sizes":[],"default_left":[0,0,0,0,0,0,0,0,0,0,0,0,0,0,0],"id":39,"left_children":[1,3,5,7,9,11,13,-1,-1,-1,-1,-1,-1,-1,-1],"loss_changes":[1.6545647E2,7.130849E1,5.1496696E1,2.5566109E1,1.5272217E1,2.5576284E1,1.0403969E1,0E0,0E0,0E0,0E0,0E0,0E0,0E0,0E0],"parents":[2147483647,0,0,1,1,2,2,3,3,4,4,5,5,6,6],"right_children":[2,4,6,8,10,12,14,-1,-1,-1,-1,-1,-1,-1,-1],"split_conditions":[1.7E1,1.3E1,6E-1,1E1,2.8E0,-4.8E0,-5.9E0,2.3545015E-3,-2.4130632E-4,3.201839E-3,5.200315E-3,-1.2278997E-3,1.7632355E-3,-4.113734E-3,-1.8804586E-3],"split_indices":[27,80,77,51,25,25,25,0,0,0,0,0,0,0,0],"split_type":[0,0,0,0,0,0,0,0,0,0,0,0,0,0,0],"sum_hessian":[5.2301445E3,3.0845903E3,2.1455542E3,1.5362528E3,1.5483376E3,1.1758893E3,9.6966486E2,8.551981E2,6.810547E2,7.4156757E2,8.067701E2,4.8745038E2,6.884389E2,3.058352E2,6.6382965E2],"tree_param":{"num_deleted":"0","num_feature":"280","num_nodes":"15","size_leaf_vector":"1"}},{"base_weights":[-1.23678334E-1,-3.0462444E-1,4.8100036E-2,-2.1387635E-1,-5.356802E-1,-1.8365665E-1,1.6089572E-1,-2.7441154E-3,6.555223E-6,-5.990579E-3,-3.9062826E-3,6.0578936E-4,-3.1184324E-3,3.0630657E-3,8.036844E-4],"categories":[],"categories_nodes":[],"categories_segments":[],"categories_sizes":[],"default_left":[0,0,0,0,0,0,0,0,0,0,0,0,0,0,0],"id":40,"left_children":[1,3,5,7,9,11,13,-1,-1,-1,-1,-1,-1,-1,-1],"loss_changes":[1.6256163E2,5.328917E1,7.018144E1,2.3770653E1,6.3625946E0,2.7537989E1,2.1118046E1,0E0,0E0,0E0,0E0,0E0,0E0,0E0,0E0],"parents":[2147483647,0,0,1,1,2,2,3,3,4,4,5,5,6,6],"right_children":[2,4,6,8,10,12,14,-1,-1,-1,-1,-1,-1,-1,-1],"split_conditions":[1.5E1,2E1,-2E0,6E0,2.99E1,-4.8E0,8E0,-2.7441154E-3,6.555223E-6,-5.990579E-3,-3.9062826E-3,6.0578936E-4,-3.1184324E-3,3.0630657E-3,8.036844E-4],"split_indices":[51,80,77,77,61,25,103,0,0,0,0,0,0,0,0],"split_type":[0,0,0,0,0,0,0,0,0,0,0,0,0,0,0],"sum_hessian":[5.2285117E3,2.5459316E3,2.6825803E3,1.8293662E3,7.1656537E2,8.7798737E2,1.8045929E3,1.426552E3,4.028142E2,4.9649936E2,2.2006601E2,3.023821E2,5.756052E2,6.421811E2,1.1624119E3],"tree_param":{"num_deleted":"0","num_feature":"280","num_nodes":"15","size_leaf_vector":"1"}},{"base_weights":[1.23678334E-1,3.0462444E-1,-4.810004E-2,2.1387635E-1,5.356802E-1,1.8365668E-1,-1.6089575E-1,2.7441154E-3,-6.5553127E-6,5.990579E-3,3.906283E-3,-6.0578936E-4,3.1184326E-3,-3.0630657E-3,-8.036846E-4],"categories":[],"categories_nodes":[],"categories_segments":[],"categories_sizes":[],"default_left":[0,0,0,0,0,0,0,0,0,0,0,0,0,0,0],"id":41,"left_children":[1,3,5,7,9,11,13,-1,-1,-1,-1,-1,-1,-1,-1],"loss_changes":[1.6256163E2,5.328914E1,7.018146E1,2.377066E1,6.36261E0,2.7537994E1,2.1118038E1,0E0,0E0,0E0,0E0,0E0,0E0,0E0,0E0],"parents":[2147483647,0,0,1,1,2,2,3,3,4,4,5,5,6,6],"right_children":[2,4,6,8,10,12,14,-1,-1,-1,-1,-1,-1,-1,-1],"split_conditions":[1.5E1,2E1,-2E0,6E0,2.99E1,-4.8E0,8E0,2.7441154E-3,-6.5553127E-6,5.990579E-3,3.906283E-3,-6.0578936E-4,3.1184326E-3,-3.0630657E-3,-8.036846E-4],"split_indices":[51,80,77,77,61,25,103,0,0,0,0,0,0,0,0],"split_type":[0,0,0,0,0,0,0,0,0,0,0,0,0,0,0],"sum_hessian":[5.2285117E3,2.5459316E3,2.6825803E3,1.8293662E3,7.1656537E2,8.7798737E2,1.8045929E3,1.426552E3,4.0281424E2,4.964994E2,2.2006601E2,3.023821E2,5.756052E2,6.421811E2,1.1624117E3],"tree_param":{"num_deleted":"0","num_feature":"280","num_nodes":"15","size_leaf_vector":"1"}},{"base_weights":[-1.22485265E-1,9.732254E-2,-2.6162276E-1,-1.769068E-1,1.8410523E-1,-3.9380717E-1,-7.4684046E-2,1.460083E-4,-3.1863137E-3,9.707697E-4,3.0180225E-3,-3.1287903E-3,-5.176191E-3,-2.1780583E-3,8.2173134E-4],"categories":[],"categories_nodes":[],"categories_segments":[],"categories_sizes":[],"default_left":[0,0,0,0,0,0,0,0,0,0,0,0,0,0,0],"id":42,"left_children":[1,3,5,7,9,11,13,-1,-1,-1,-1,-1,-1,-1,-1],"loss_changes":[1.5990878E2,4.827565E1,7.9083435E1,1.3244561E1,1.5748413E1,1.8627594E1,2.9817022E1,0E0,0E0,0E0,0E0,0E0,0E0,0E0,0E0],"parents":[2147483647,0,0,1,1,2,2,3,3,4,4,5,5,6,6],"right_children":[2,4,6,8,10,12,14,-1,-1,-1,-1,-1,-1,-1,-1],"split_conditions":[4.59E-1,3.71E-1,1.6E0,-4.8E0,2.6E1,2.2E1,1E1,1.460083E-4,-3.1863137E-3,9.707697E-4,3.0180225E-3,-3.1287903E-3,-5.176191E-3,-2.1780583E-3,8.2173134E-4],"split_indices":[3,55,77,25,51,80,51,0,0,0,0,0,0,0,0],"split_type":[0,0,0,0,0,0,0,0,0,0,0,0,0,0,0],"sum_hessian":[5.2267627E3,2.0261597E3,3.200603E3,4.8681335E2,1.5393463E3,1.8742288E3,1.3263743E3,2.0742456E2,2.793888E2,8.8602264E2,6.5332367E2,1.1355304E3,7.3869836E2,6.933499E2,6.3302435E2],"tree_param":{"num_deleted":"0","num_feature":"280","num_nodes":"15","size_leaf_vector":"1"}},{"base_weights":[1.22485265E-1,-9.732256E-2,2.616228E-1,1.7690678E-1,-1.8410526E-1,3.938072E-1,7.468405E-2,-1.4600885E-4,3.1863137E-3,-9.7076996E-4,-3.0180227E-3,3.1287905E-3,5.176191E-3,2.1780583E-3,-8.217312E-4],"categories":[],"categories_nodes":[],"categories_segments":[],"categories_sizes":[],"default_left":[0,0,0,0,0,0,0,0,0,0,0,0,0,0,0],"id":43,"left_children":[1,3,5,7,9,11,13,-1,-1,-1,-1,-1,-1,-1,-1],"loss_changes":[1.5990881E2,4.827565E1,7.908345E1,1.3244566E1,1.5748413E1,1.8627594E1,2.9817024E1,0E0,0E0,0E0,0E0,0E0,0E0,0E0,0E0],"parents":[2147483647,0,0,1,1,2,2,3,3,4,4,5,5,6,6],"right_children":[2,4,6,8,10,12,14,-1,-1,-1,-1,-1,-1,-1,-1],"split_conditions":[4.59E-1,3.71E-1,1.6E0,-4.8E0,2.6E1,2.2E1,1E1,-1.4600885E-4,3.1863137E-3,-9.7076996E-4,-3.0180227E-3,3.1287905E-3,5.176191E-3,2.1780583E-3,-8.217312E-4],"split_indices":[3,55,77,25,51,80,51,0,0,0,0,0,0,0,0],"split_type":[0,0,0,0,0,0,0,0,0,0,0,0,0,0,0],"sum_hessian":[5.2267627E3,2.0261597E3,3.200603E3,4.8681335E2,1.5393463E3,1.8742288E3,1.3263743E3,2.0742456E2,2.793888E2,8.8602264E2,6.5332367E2,1.1355304E3,7.3869836E2,6.9334985E2,6.3302435E2],"tree_param":{"num_deleted":"0","num_feature":"280","num_nodes":"15","size_leaf_vector":"1"}},{"base_weights":[-1.2130375E-1,-2.659138E-1,8.646018E-2,-1.1689408E-1,-4.1385773E-1,-5.0979823E-2,2.5303403E-1,-2.2894717E-3,2.3866372E-4,-3.109328E-3,-5.0807046E-3,1.1918622E-3,-1.7150452E-3,4.0288973E-3,1.8355161E-3],"categories":[],"categories_nodes":[],"categories_segments":[],"categories_sizes":[],"default_left":[0,0,0,0,0,0,0,0,0,0,0,0,0,0,0],"id":44,"left_children":[1,3,5,7,9,11,13,-1,-1,-1,-1,-1,-1,-1,-1],"loss_changes":[1.5703656E2,6.788927E1,4.9130367E1,2.4241518E1,1.4832977E1,2.4146467E1,1.0026924E1,0E0,0E0,0E0,0E0,0E0,0E0,0E0,0E0],"parents":[2147483647,0,0,1,1,2,2,3,3,4,4,5,5,6,6],"right_children":[2,4,6,8,10,12,14,-1,-1,-1,-1,-1,-1,-1,-1],"split_conditions":[1.7E1,1.3E1,6E-1,1E1,2.8E0,-4.8E0,-5.9E0,-2.2894717E-3,2.3866372E-4,-3.109328E-3,-5.0807046E-3,1.1918622E-3,-1.7150452E-3,4.0288973E-3,1.8355161E-3],"split_indices":[27,80,77,51,25,25,25,0,0,0,0,0,0,0,0],"split_type":[0,0,0,0,0,0,0,0,0,0,0,0,0,0,0],"sum_hessian":[5.2249897E3,3.0805515E3,2.144438E3,1.5355876E3,1.5449639E3,1.1753507E3,9.6908734E2,8.5462915E2,6.809585E2,7.4039856E2,8.0456537E2,4.8732248E2,6.880282E2,3.0546964E2,6.6361774E2],"tree_param":{"num_deleted":"0","num_feature":"280","num_nodes":"15","size_leaf_vector":"1"}},{"base_weights":[1.2130376E-1,2.659138E-1,-8.646018E-2,1.16894096E-1,4.1385773E-1,5.0979815E-2,-2.5303403E-1,2.2894717E-3,-2.3866334E-4,3.1093278E-3,5.0807046E-3,-1.1918623E-3,1.7150452E-3,-4.028897E-3,-1.8355161E-3],"categories":[],"categories_nodes":[],"categories_segments":[],"categories_sizes":[],"default_left":[0,0,0,0,0,0,0,0,0,0,0,0,0,0,0],"id":45,"left_children":[1,3,5,7,9,11,13,-1,-1,-1,-1,-1,-1,-1,-1],"loss_changes":[1.5703656E2,6.788924E1,4.913036E1,2.42415E1,1.4833008E1,2.4146471E1,1.0026924E1,0E0,0E0,0E0,0E0,0E0,0E0,0E0,0E0],"parents":[2147483647,0,0,1,1,2,2,3,3,4,4,5,5,6,6],"right_children":[2,4,6,8,10,12,14,-1,-1,-1,-1,-1,-1,-1,-1],"split_conditions":[1.7E1,1.3E1,6E-1,1E1,2.8E0,-4.8E0,-5.9E0,2.2894717E-3,-2.3866334E-4,3.1093278E-3,5.0807046E-3,-1.1918623E-3,1.7150452E-3,-4.028897E-3,-1.8355161E-3],"split_indices":[27,80,77,51,25,25,25,0,0,0,0,0,0,0,0],"split_type":[0,0,0,0,0,0,0,0,0,0,0,0,0,0,0],"sum_hessian":[5.2249897E3,3.0805515E3,2.144438E3,1.5355876E3,1.544964E3,1.1753507E3,9.6908734E2,8.5462915E2,6.809585E2,7.4039856E2,8.0456537E2,4.8732248E2,6.880282E2,3.0546964E2,6.636177E2],"tree_param":{"num_deleted":"0","num_feature":"280","num_nodes":"15","size_leaf_vector":"1"}},{"base_weights":[-1.2013389E-1,-2.9653096E-1,4.7158066E-2,-2.0773304E-1,-5.2320695E-1,-9.9143155E-2,2.180063E-1,-3.2073366E-3,-9.5690717E-4,-5.712232E-3,-3.3381744E-3,1.0830986E-3,-2.1365448E-3,3.808E-3,1.6076331E-3],"categories":[],"categories_nodes":[],"categories_segments":[],"categories_sizes":[],"default_left":[0,0,0,0,0,0,0,0,0,0,0,0,0,0,0],"id":46,"left_children":[1,3,5,7,9,11,13,-1,-1,-1,-1,-1,-1,-1,-1],"loss_changes":[1.5417839E2,5.1078186E1,6.7062775E1,2.3124557E1,6.3126526E0,3.4363464E1,1.1471634E1,0E0,0E0,0E0,0E0,0E0,0E0,0E0,0E0],"parents":[2147483647,0,0,1,1,2,2,3,3,4,4,5,5,6,6],"right_children":[2,4,6,8,10,12,14,-1,-1,-1,-1,-1,-1,-1,-1],"split_conditions":[1.5E1,2E1,5.22E-1,7E0,3.43E1,-4.7E0,-5.9E0,-3.2073366E-3,-9.5690717E-4,-5.712232E-3,-3.3381744E-3,1.0830986E-3,-2.1365448E-3,3.808E-3,1.6076331E-3],"split_indices":[51,80,55,27,67,25,25,0,0,0,0,0,0,0,0],"split_type":[0,0,0,0,0,0,0,0,0,0,0,0,0,0,0],"sum_hessian":[5.2231743E3,2.542024E3,2.6811501E3,1.8278855E3,7.1413855E2,1.4445602E3,1.23659E3,9.0912354E2,9.187619E2,5.680927E2,1.4604584E2,5.137982E2,9.3076196E2,3.202309E2,9.163591E2],"tree_param":{"num_deleted":"0","num_feature":"280","num_nodes":"15","size_leaf_vector":"1"}},{"base_weights":[1.20133884E-1,2.9653096E-1,-4.7158062E-2,2.0773304E-1,5.232069E-1,9.914314E-2,-2.1800628E-1,3.2073362E-3,9.569072E-4,5.712232E-3,3.3381744E-3,-1.0830988E-3,2.1365448E-3,-3.808E-3,-1.6076328E-3],"categories":[],"categories_nodes":[],"categories_segments":[],"categories_sizes":[],"default_left":[0,0,0,0,0,0,0,0,0,0,0,0,0,0,0],"id":47,"left_children":[1,3,5,7,9,11,13,-1,-1,-1,-1,-1,-1,-1,-1],"loss_changes":[1.541784E2,5.1078156E1,6.706276E1,2.3124542E1,6.312622E0,3.436347E1,1.1471638E1,0E0,0E0,0E0,0E0,0E0,0E0,0E0,0E0],"parents":[2147483647,0,0,1,1,2,2,3,3,4,4,5,5,6,6],"right_children":[2,4,6,8,10,12,14,-1,-1,-1,-1,-1,-1,-1,-1],"split_conditions":[1.5E1,2E1,5.22E-1,7E0,3.43E1,-4.7E0,-5.9E0,3.2073362E-3,9.569072E-4,5.712232E-3,3.3381744E-3,-1.0830988E-3,2.1365448E-3,-3.808E-3,-1.6076328E-3],"split_indices":[51,80,55,27,67,25,25,0,0,0,0,0,0,0,0],"split_type":[0,0,0,0,0,0,0,0,0,0,0,0,0,0,0],"sum_hessian":[5.2231743E3,2.542024E3,2.6811501E3,1.8278855E3,7.1413855E2,1.4445602E3,1.23659E3,9.091236E2,9.187619E2,5.680927E2,1.4604584E2,5.137982E2,9.3076196E2,3.202309E2,9.163591E2],"tree_param":{"num_deleted":"0","num_feature":"280","num_nodes":"15","size_leaf_vector":"1"}},{"base_weights":[-1.18978105E-1,-2.6109868E-1,8.509481E-2,-3.626765E-1,-4.888609E-2,1.7988944E-1,-1.4989404E-1,-2.7143052E-3,-4.85994E-3,9.2390674E-4,-1.7391285E-3,1.0375984E-3,2.9892835E-3,9.565032E-4,-2.5275103E-3],"categories":[],"categories_nodes":[],"categories_segments":[],"categories_sizes":[],"default_left":[0,0,0,0,0,0,0,0,0,0,0,0,0,0,0],"id":48,"left_children":[1,3,5,7,9,11,13,-1,-1,-1,-1,-1,-1,-1,-1],"loss_changes":[1.514836E2,6.634602E1,4.779984E1,2.3294067E1,1.7639769E1,1.3821877E1,1.5607247E1,0E0,0E0,0E0,0E0,0E0,0E0,0E0,0E0],"parents":[2147483647,0,0,1,1,2,2,3,3,4,4,5,5,6,6],"right_children":[2,4,6,8,10,12,14,-1,-1,-1,-1,-1,-1,-1,-1],"split_conditions":[1.7E1,3E0,2.2E1,2E1,3.1E0,2.6E1,-6.2E0,-2.7143052E-3,-4.85994E-3,9.2390674E-4,-1.7391285E-3,1.0375984E-3,2.9892835E-3,9.565032E-4,-2.5275103E-3],"split_indices":[27,77,103,80,25,51,25,0,0,0,0,0,0,0,0],"split_type":[0,0,0,0,0,0,0,0,0,0,0,0,0,0,0],"sum_hessian":[5.2212734E3,3.077653E3,2.14362E3,2.0808992E3,9.9675385E2,1.5276143E3,6.16006E2,1.1978087E3,8.830905E2,4.680882E2,5.2866565E2,9.328775E2,5.9473676E2,1.8188138E2,4.341246E2],"tree_param":{"num_deleted":"0","num_feature":"280","num_nodes":"15","size_leaf_vector":"1"}},{"base_weights":[1.1897811E-1,2.6109868E-1,-8.50948E-2,3.626765E-1,4.8886094E-2,-1.7988944E-1,1.4989404E-1,2.7143052E-3,4.85994E-3,-9.239067E-4,1.7391285E-3,-1.0375982E-3,-2.989283E-3,-9.5650327E-4,2.5275103E-3],"categories":[],"categories_nodes":[],"categories_segments":[],"categories_sizes":[],"default_left":[0,0,0,0,0,0,0,0,0,0,0,0,0,0,0],"id":49,"left_children":[1,3,5,7,9,11,13,-1,-1,-1,-1,-1,-1,-1,-1],"loss_changes":[1.514836E2,6.634601E1,4.779984E1,2.3294098E1,1.763977E1,1.3821873E1,1.5607249E1,0E0,0E0,0E0,0E0,0E0,0E0,0E0,0E0],"parents":[2147483647,0,0,1,1,2,2,3,3,4,4,5,5,6,6],"right_children":[2,4,6,8,10,12,14,-1,-1,-1,-1,-1,-1,-1,-1],"split_conditions":[1.7E1,3E0,2.2E1,2E1,3.1E0,2.6E1,-6.2E0,2.7143052E-3,4.85994E-3,-9.239067E-4,1.7391285E-3,-1.0375982E-3,-2.989283E-3,-9.5650327E-4,2.5275103E-3],"split_indices":[27,77,103,80,25,51,25,0,0,0,0,0,0,0,0],"split_type":[0,0,0,0,0,0,0,0,0,0,0,0,0,0,0],"sum_hessian":[5.2212734E3,3.077653E3,2.14362E3,2.0808992E3,9.9675385E2,1.5276143E3,6.16006E2,1.1978087E3,8.830905E2,4.680882E2,5.2866565E2,9.328775E2,5.9473676E2,1.8188138E2,4.341246E2],"tree_param":{"num_deleted":"0","num_feature":"280","num_nodes":"15","size_leaf_vector":"1"}},{"base_weights":[-1.1783327E-1,-2.9132667E-1,4.6591863E-2,-2.0403051E-1,-5.146345E-1,-1.7652962E-1,1.5513742E-1,-2.6334804E-3,5.9135527E-5,-4.358129E-3,-6.3221892E-3,5.676405E-4,-2.9915809E-3,2.9635527E-3,7.6972326E-4],"categories":[],"categories_nodes":[],"categories_segments":[],"categories_sizes":[],"default_left":[0,0,0,0,0,0,0,0,0,0,0,0,0,0,0],"id":50,"left_children":[1,3,5,7,9,11,13,-1,-1,-1,-1,-1,-1,-1,-1],"loss_changes":[1.4893298E2,4.9414825E1,6.49602E1,2.2766022E1,6.3354187E0,2.5132734E1,1.9892197E1,0E0,0E0,0E0,0E0,0E0,0E0,0E0,0E0],"parents":[2147483647,0,0,1,1,2,2,3,3,4,4,5,5,6,6],"right_children":[2,4,6,8,10,12,14,-1,-1,-1,-1,-1,-1,-1,-1],"split_conditions":[1.5E1,2E1,-2E0,6E0,2.7E1,-4.8E0,8E0,-2.6334804E-3,5.9135527E-5,-4.358129E-3,-6.3221892E-3,5.676405E-4,-2.9915809E-3,2.9635527E-3,7.6972326E-4],"split_indices":[51,80,77,77,103,25,103,0,0,0,0,0,0,0,0],"split_type":[0,0,0,0,0,0,0,0,0,0,0,0,0,0,0],"sum_hessian":[5.2193564E3,2.5392703E3,2.6800862E3,1.8269766E3,7.1229364E2,8.7691394E2,1.8031722E3,1.4243007E3,4.0267587E2,4.2925403E2,2.8303964E2,3.023147E2,5.745993E2,6.41467E2,1.1617052E3],"tree_param":{"num_deleted":"0","num_feature":"280","num_nodes":"15","size_leaf_vector":"1"}},{"base_weights":[1.17833264E-1,2.9132667E-1,-4.6591885E-2,2.040305E-1,5.146345E-1,1.7652959E-1,-1.5513743E-1,2.6334804E-3,-5.9135535E-5,4.358129E-3,6.3221892E-3,-5.6764105E-4,2.9915809E-3,-2.963553E-3,-7.697235E-4],"categories":[],"categories_nodes":[],"categories_segments":[],"categories_sizes":[],"default_left":[0,0,0,0,0,0,0,0,0,0,0,0,0,0,0],"id":51,"left_children":[1,3,5,7,9,11,13,-1,-1,-1,-1,-1,-1,-1,-1],"loss_changes":[1.4893301E2,4.9414825E1,6.496019E1,2.2766006E1,6.3354034E0,2.5132746E1,1.98922E1,0E0,0E0,0E0,0E0,0E0,0E0,0E0,0E0],"parents":[2147483647,0,0,1,1,2,2,3,3,4,4,5,5,6,6],"right_children":[2,4,6,8,10,12,14,-1,-1,-1,-1,-1,-1,-1,-1],"split_conditions":[1.5E1,2E1,-2E0,6E0,2.7E1,-4.8E0,8E0,2.6334804E-3,-5.9135535E-5,4.358129E-3,6.3221892E-3,-5.6764105E-4,2.9915809E-3,-2.963553E-3,-7.697235E-4],"split_indices":[51,80,77,77,103,25,103,0,0,0,0,0,0,0,0],"split_type":[0,0,0,0,0,0,0,0,0,0,0,0,0,0,0],"sum_hessian":[5.2193564E3,2.5392703E3,2.6800862E3,1.8269766E3,7.1229364E2,8.7691394E2,1.8031722E3,1.4243007E3,4.0267587E2,4.2925403E2,2.8303964E2,3.023147E2,5.7459924E2,6.41467E2,1.1617052E3],"tree_param":{"num_deleted":"0","num_feature":"280","num_nodes":"15","size_leaf_vector":"1"}},{"base_weights":[-1.16703205E-1,9.382452E-2,-2.501529E-1,-1.7129457E-1,1.7771098E-1,-3.7790877E-1,-6.998089E-2,1.14703565E-4,-3.0675551E-3,9.439276E-4,2.905176E-3,-3.0905062E-3,-5.139041E-3,-2.0754596E-3,8.0650917E-4],"categories":[],"categories_nodes":[],"categories_segments":[],"categories_sizes":[],"default_left":[0,0,0,0,0,0,0,0,0,0,0,0,0,0,0],"id":52,"left_children":[1,3,5,7,9,11,13,-1,-1,-1,-1,-1,-1,-1,-1],"loss_changes":[1.466317E2,4.5071434E1,7.3495346E1,1.2067636E1,1.4436855E1,1.7340149E1,2.7502434E1,0E0,0E0,0E0,0E0,0E0,0E0,0E0,0E0],"parents":[2147483647,0,0,1,1,2,2,3,3,4,4,5,5,6,6],"right_children":[2,4,6,8,10,12,14,-1,-1,-1,-1,-1,-1,-1,-1],"split_conditions":[4.59E-1,3.71E-1,1.6E0,-4.8E0,2.6E1,2.3E1,1E1,1.14703565E-4,-3.0675551E-3,9.439276E-4,2.905176E-3,-3.0905062E-3,-5.139041E-3,-2.0754596E-3,8.0650917E-4],"split_indices":[3,55,77,25,51,80,51,0,0,0,0,0,0,0,0],"split_type":[0,0,0,0,0,0,0,0,0,0,0,0,0,0,0],"sum_hessian":[5.217329E3,2.0242333E3,3.1930957E3,4.8629126E2,1.537942E3,1.8676733E3,1.3254224E3,2.0739188E2,2.7889938E2,8.8564636E2,6.5229565E2,1.2420581E3,6.2561523E2,6.925608E2,6.328616E2],"tree_param":{"num_deleted":"0","num_feature":"280","num_nodes":"15","size_leaf_vector":"1"}},{"base_weights":[1.1670321E-1,-9.382453E-2,2.5015292E-1,1.7129457E-1,-1.7771098E-1,3.7790877E-1,6.998091E-2,-1.1470372E-4,3.0675551E-3,-9.439277E-4,-2.9051763E-3,3.0905064E-3,5.1390408E-3,2.07546E-3,-8.065092E-4],"categories":[],"categories_nodes":[],"categories_segments":[],"categories_sizes":[],"default_left":[0,0,0,0,0,0,0,0,0,0,0,0,0,0,0],"id":53,"left_children":[1,3,5,7,9,11,13,-1,-1,-1,-1,-1,-1,-1,-1],"loss_changes":[1.4663171E2,4.5071426E1,7.3495316E1,1.2067637E1,1.4436863E1,1.734018E1,2.7502445E1,0E0,0E0,0E0,0E0,0E0,0E0,0E0,0E0],"parents":[2147483647,0,0,1,1,2,2,3,3,4,4,5,5,6,6],"right_children":[2,4,6,8,10,12,14,-1,-1,-1,-1,-1,-1,-1,-1],"split_conditions":[4.59E-1,3.71E-1,1.6E0,-4.8E0,2.6E1,2.3E1,1E1,-1.1470372E-4,3.0675551E-3,-9.439277E-4,-2.9051763E-3,3.0905064E-3,5.1390408E-3,2.07546E-3,-8.065092E-4],"split_indices":[3,55,77,25,51,80,51,0,0,0,0,0,0,0,0],"split_type":[0,0,0,0,0,0,0,0,0,0,0,0,0,0,0],"sum_hessian":[5.217329E3,2.0242333E3,3.1930957E3,4.8629126E2,1.537942E3,1.8676733E3,1.3254224E3,2.0739188E2,2.7889938E2,8.8564636E2,6.5229565E2,1.2420581E3,6.2561523E2,6.925608E2,6.328616E2],"tree_param":{"num_deleted":"0","num_feature":"280","num_nodes":"15","size_leaf_vector":"1"}},{"base_weights":[-1.15583785E-1,-2.542006E-1,8.32759E-2,-3.426104E-1,-2.1506803E-2,2.0228061E-1,-9.57497E-2,-2.5646952E-3,-4.7397525E-3,-1.6903895E-3,8.914564E-4,1.3121068E-3,3.2024726E-3,8.748608E-4,-2.2223757E-3],"categories":[],"categories_nodes":[],"categories_segments":[],"categories_sizes":[],"default_left":[0,0,0,0,0,0,0,0,0,0,0,0,0,0,0],"id":54,"left_children":[1,3,5,7,9,11,13,-1,-1,-1,-1,-1,-1,-1,-1],"loss_changes":[1.4380948E2,6.323152E1,4.5682457E1,2.5085052E1,1.3849111E1,1.0754765E1,1.9870937E1,0E0,0E0,0E0,0E0,0E0,0E0,0E0,0E0],"parents":[2147483647,0,0,1,1,2,2,3,3,4,4,5,5,6,6],"right_children":[2,4,6,8,10,12,14,-1,-1,-1,-1,-1,-1,-1,-1],"split_conditions":[1.7E1,3.8E0,1.7E1,2E1,7E0,2.6E1,-4.8E0,-2.5646952E-3,-4.7397525E-3,-1.6903895E-3,8.914564E-4,1.3121068E-3,3.2024726E-3,8.748608E-4,-2.2223757E-3],"split_indices":[27,77,80,80,27,51,25,0,0,0,0,0,0,0,0],"split_type":[0,0,0,0,0,0,0,0,0,0,0,0,0,0,0],"sum_hessian":[5.2152812E3,3.072966E3,2.1423152E3,2.2265408E3,8.464253E2,1.286802E3,8.555131E2,1.3465256E3,8.800151E2,3.6253378E2,4.838915E2,8.043359E2,4.824661E2,3.4950848E2,5.0600464E2],"tree_param":{"num_deleted":"0","num_feature":"280","num_nodes":"15","size_leaf_vector":"1"}},{"base_weights":[1.1558378E-1,2.542006E-1,-8.327591E-2,3.426104E-1,2.150681E-2,-2.0228061E-1,9.5749676E-2,2.5646952E-3,4.7397525E-3,1.6903899E-3,-8.9145656E-4,-1.312107E-3,-3.2024723E-3,-8.748608E-4,2.2223755E-3],"categories":[],"categories_nodes":[],"categories_segments":[],"categories_sizes":[],"default_left":[0,0,0,0,0,0,0,0,0,0,0,0,0,0,0],"id":55,"left_children":[1,3,5,7,9,11,13,-1,-1,-1,-1,-1,-1,-1,-1],"loss_changes":[1.4380951E2,6.323149E1,4.568245E1,2.5085052E1,1.3849119E1,1.0754757E1,1.9870934E1,0E0,0E0,0E0,0E0,0E0,0E0,0E0,0E0],"parents":[2147483647,0,0,1,1,2,2,3,3,4,4,5,5,6,6],"right_children":[2,4,6,8,10,12,14,-1,-1,-1,-1,-1,-1,-1,-1],"split_conditions":[1.7E1,3.8E0,1.7E1,2E1,7E0,2.6E1,-4.8E0,2.5646952E-3,4.7397525E-3,1.6903899E-3,-8.9145656E-4,-1.312107E-3,-3.2024723E-3,-8.748608E-4,2.2223755E-3],"split_indices":[27,77,80,80,27,51,25,0,0,0,0,0,0,0,0],"split_type":[0,0,0,0,0,0,0,0,0,0,0,0,0,0,0],"sum_hessian":[5.2152812E3,3.072966E3,2.1423152E3,2.2265408E3,8.464253E2,1.286802E3,8.555131E2,1.3465256E3,8.800151E2,3.6253378E2,4.838915E2,8.043359E2,4.824661E2,3.4950848E2,5.0600464E2],"tree_param":{"num_deleted":"0","num_feature":"280","num_nodes":"15","size_leaf_vector":"1"}},{"base_weights":[-1.1447483E-1,-2.8389022E-1,4.5911316E-2,-1.9868276E-1,-5.0255334E-1,-9.486223E-2,2.1028651E-1,-3.0925379E-3,-8.9139014E-4,-5.657922E-3,-3.5818769E-3,1.0292317E-3,-2.0412845E-3,3.6756715E-3,1.5508113E-3],"categories":[],"categories_nodes":[],"categories_segments":[],"categories_sizes":[],"default_left":[0,0,0,0,0,0,0,0,0,0,0,0,0,0,0],"id":56,"left_children":[1,3,5,7,9,11,13,-1,-1,-1,-1,-1,-1,-1,-1],"loss_changes":[1.4169302E2,4.714778E1,6.201912E1,2.2095032E1,6.2831573E0,3.122719E1,1.0678043E1,0E0,0E0,0E0,0E0,0E0,0E0,0E0,0E0],"parents":[2147483647,0,0,1,1,2,2,3,3,4,4,5,5,6,6],"right_children":[2,4,6,8,10,12,14,-1,-1,-1,-1,-1,-1,-1,-1],"split_conditions":[1.5E1,2E1,5.22E-1,7E0,2.99E1,-4.7E0,-5.9E0,-3.0925379E-3,-8.9139014E-4,-5.657922E-3,-3.5818769E-3,1.0292317E-3,-2.0412845E-3,3.6756715E-3,1.5508113E-3],"split_indices":[51,80,55,27,61,25,25,0,0,0,0,0,0,0,0],"split_type":[0,0,0,0,0,0,0,0,0,0,0,0,0,0,0],"sum_hessian":[5.2132134E3,2.5348691E3,2.6783445E3,1.8254474E3,7.0942175E2,1.4429779E3,1.2353665E3,9.0755664E2,9.1789075E2,4.9129333E2,2.1812843E2,5.135133E2,9.2946466E2,3.19487E2,9.1587946E2],"tree_param":{"num_deleted":"0","num_feature":"280","num_nodes":"15","size_leaf_vector":"1"}},{"base_weights":[1.1447483E-1,2.8389022E-1,-4.591131E-2,1.9868276E-1,5.0255334E-1,9.4862245E-2,-2.1028651E-1,3.092538E-3,8.9139014E-4,5.657922E-3,3.5818769E-3,-1.0292315E-3,2.0412845E-3,-3.6756718E-3,-1.5508112E-3],"categories":[],"categories_nodes":[],"categories_segments":[],"categories_sizes":[],"default_left":[0,0,0,0,0,0,0,0,0,0,0,0,0,0,0],"id":57,"left_children":[1,3,5,7,9,11,13,-1,-1,-1,-1,-1,-1,-1,-1],"loss_changes":[1.41693E2,4.7147797E1,6.2019127E1,2.2095032E1,6.283142E0,3.1227192E1,1.0678051E1,0E0,0E0,0E0,0E0,0E0,0E0,0E0,0E0],"parents":[2147483647,0,0,1,1,2,2,3,3,4,4,5,5,6,6],"right_children":[2,4,6,8,10,12,14,-1,-1,-1,-1,-1,-1,-1,-1],"split_conditions":[1.5E1,2E1,5.22E-1,7E0,2.99E1,-4.7E0,-5.9E0,3.092538E-3,8.9139014E-4,5.657922E-3,3.5818769E-3,-1.0292315E-3,2.0412845E-3,-3.6756718E-3,-1.5508112E-3],"split_indices":[51,80,55,27,61,25,25,0,0,0,0,0,0,0,0],"split_type":[0,0,0,0,0,0,0,0,0,0,0,0,0,0,0],"sum_hessian":[5.2132134E3,2.5348691E3,2.6783445E3,1.8254474E3,7.0942175E2,1.4429779E3,1.2353665E3,9.0755664E2,9.1789075E2,4.9129333E2,2.1812843E2,5.135133E2,9.2946466E2,3.1948697E2,9.1587946E2],"tree_param":{"num_deleted":"0","num_feature":"280","num_nodes":"15","size_leaf_vector":"1"}},{"base_weights":[-1.1337928E-1,-2.812341E-1,4.5463476E-2,-1.967533E-1,-4.9830216E-1,-1.7096557E-1,1.5070556E-1,-2.5503614E-3,9.29874E-5,-4.199824E-3,-6.153477E-3,5.34328E-4,-2.890887E-3,2.8846946E-3,7.449117E-4],"categories":[],"categories_nodes":[],"categories_segments":[],"categories_sizes":[],"default_left":[0,0,0,0,0,0,0,0,0,0,0,0,0,0,0],"id":58,"left_children":[1,3,5,7,9,11,13,-1,-1,-1,-1,-1,-1,-1,-1],"loss_changes":[1.3897943E2,4.6375793E1,6.1041496E1,2.193061E1,6.244095E0,2.3258911E1,1.8908081E1,0E0,0E0,0E0,0E0,0E0,0E0,0E0,0E0],"parents":[2147483647,0,0,1,1,2,2,3,3,4,4,5,5,6,6],"right_children":[2,4,6,8,10,12,14,-1,-1,-1,-1,-1,-1,-1,-1],"split_conditions":[1.5E1,2E1,-2E0,6E0,2.7E1,-4.8E0,8E0,-2.5503614E-3,9.29874E-5,-4.199824E-3,-6.153477E-3,5.34328E-4,-2.890887E-3,2.8846946E-3,7.449117E-4],"split_indices":[51,80,77,77,103,25,103,0,0,0,0,0,0,0,0],"split_type":[0,0,0,0,0,0,0,0,0,0,0,0,0,0,0],"sum_hessian":[5.211059E3,2.5332805E3,2.6777786E3,1.8249386E3,7.08342E2,8.7589233E2,1.8018862E3,1.422375E3,4.0256366E2,4.2712445E2,2.8121756E2,3.022521E2,5.7364026E2,6.408006E2,1.1610857E3],"tree_param":{"num_deleted":"0","num_feature":"280","num_nodes":"15","size_leaf_vector":"1"}},{"base_weights":[1.1337928E-1,2.812341E-1,-4.546347E-2,1.967533E-1,4.9830216E-1,1.7096557E-1,-1.5070555E-1,2.5503614E-3,-9.298787E-5,4.199824E-3,6.1534774E-3,-5.343278E-4,2.890887E-3,-2.884694E-3,-7.449117E-4],"categories":[],"categories_nodes":[],"categories_segments":[],"categories_sizes":[],"default_left":[0,0,0,0,0,0,0,0,0,0,0,0,0,0,0],"id":59,"left_children":[1,3,5,7,9,11,13,-1,-1,-1,-1,-1,-1,-1,-1],"loss_changes":[1.389794E2,4.6375824E1,6.104148E1,2.1930634E1,6.2440796E0,2.325891E1,1.8908077E1,0E0,0E0,0E0,0E0,0E0,0E0,0E0,0E0],"parents":[2147483647,0,0,1,1,2,2,3,3,4,4,5,5,6,6],"right_children":[2,4,6,8,10,12,14,-1,-1,-1,-1,-1,-1,-1,-1],"split_conditions":[1.5E1,2E1,-2E0,6E0,2.7E1,-4.8E0,8E0,2.5503614E-3,-9.298787E-5,4.199824E-3,6.1534774E-3,-5.343278E-4,2.890887E-3,-2.884694E-3,-7.449117E-4],"split_indices":[51,80,77,77,103,25,103,0,0,0,0,0,0,0,0],"split_type":[0,0,0,0,0,0,0,0,0,0,0,0,0,0,0],"sum_hessian":[5.211059E3,2.5332805E3,2.6777786E3,1.8249386E3,7.08342E2,8.7589233E2,1.8018864E3,1.4223749E3,4.0256366E2,4.2712445E2,2.8121756E2,3.0225208E2,5.7364026E2,6.408006E2,1.1610857E3],"tree_param":{"num_deleted":"0","num_feature":"280","num_nodes":"15","size_leaf_vector":"1"}},{"base_weights":[-1.1229625E-1,9.119547E-2,-2.414476E-1,-1.6660072E-1,1.7274892E-1,-3.658031E-1,-6.651257E-2,9.037598E-5,-2.969762E-3,6.8333966E-4,2.5771307E-3,-2.9906374E-3,-4.980497E-3,-2.0016779E-3,7.9730374E-4],"categories":[],"categories_nodes":[],"categories_segments":[],"categories_sizes":[],"default_left":[0,0,0,0,0,0,0,0,0,0,0,0,0,0,0],"id":60,"left_children":[1,3,5,7,9,11,13,-1,-1,-1,-1,-1,-1,-1,-1],"loss_changes":[1.3694296E2,4.257092E1,6.931372E1,1.1149864E1,1.3624035E1,1.6292053E1,2.5925718E1,0E0,0E0,0E0,0E0,0E0,0E0,0E0,0E0],"parents":[2147483647,0,0,1,1,2,2,3,3,4,4,5,5,6,6],"right_children":[2,4,6,8,10,12,14,-1,-1,-1,-1,-1,-1,-1,-1],"split_conditions":[4.59E-1,3.71E-1,1.6E0,-4.8E0,5.4E-1,2.3E1,1E1,9.037598E-5,-2.969762E-3,6.8333966E-4,2.5771307E-3,-2.9906374E-3,-4.980497E-3,-2.0016779E-3,7.9730374E-4],"split_indices":[3,55,77,25,55,80,51,0,0,0,0,0,0,0,0],"split_type":[0,0,0,0,0,0,0,0,0,0,0,0,0,0,0],"sum_hessian":[5.208838E3,2.0224872E3,3.1863508E3,4.8579913E2,1.536688E3,1.8617812E3,1.3245695E3,2.0736855E2,2.784306E2,6.902382E2,8.464498E2,1.2395126E3,6.2226874E2,6.918767E2,6.3269275E2],"tree_param":{"num_deleted":"0","num_feature":"280","num_nodes":"15","size_leaf_vector":"1"}},{"base_weights":[1.1229626E-1,-9.1195464E-2,2.414476E-1,1.6660076E-1,-1.7274892E-1,3.6580306E-1,6.651258E-2,-9.0375215E-5,2.969762E-3,-6.833396E-4,-2.5771311E-3,2.990637E-3,4.980497E-3,2.0016783E-3,-7.97304E-4],"categories":[],"categories_nodes":[],"categories_segments":[],"categories_sizes":[],"default_left":[0,0,0,0,0,0,0,0,0,0,0,0,0,0,0],"id":61,"left_children":[1,3,5,7,9,11,13,-1,-1,-1,-1,-1,-1,-1,-1],"loss_changes":[1.3694293E2,4.257093E1,6.931372E1,1.114986E1,1.3624035E1,1.6292053E1,2.5925726E1,0E0,0E0,0E0,0E0,0E0,0E0,0E0,0E0],"parents":[2147483647,0,0,1,1,2,2,3,3,4,4,5,5,6,6],"right_children":[2,4,6,8,10,12,14,-1,-1,-1,-1,-1,-1,-1,-1],"split_conditions":[4.59E-1,3.71E-1,1.6E0,-4.8E0,5.4E-1,2.3E1,1E1,-9.0375215E-5,2.969762E-3,-6.833396E-4,-2.5771311E-3,2.990637E-3,4.980497E-3,2.0016783E-3,-7.97304E-4],"split_indices":[3,55,77,25,55,80,51,0,0,0,0,0,0,0,0],"split_type":[0,0,0,0,0,0,0,0,0,0,0,0,0,0,0],"sum_hessian":[5.208838E3,2.0224872E3,3.1863508E3,4.8579916E2,1.536688E3,1.8617812E3,1.3245695E3,2.0736855E2,2.784306E2,6.902382E2,8.464498E2,1.2395126E3,6.2226874E2,6.918767E2,6.3269275E2],"tree_param":{"num_deleted":"0","num_feature":"280","num_nodes":"15","size_leaf_vector":"1"}},{"base_weights":[-1.1122302E-1,-2.454046E-1,8.102206E-2,-3.3161104E-1,-1.9040084E-2,-4.746736E-2,2.3683153E-1,-2.485422E-3,-4.587582E-3,-1.6181385E-3,8.797956E-4,1.0917315E-3,-1.5854287E-3,3.7903222E-3,1.7110744E-3],"categories":[],"categories_nodes":[],"categories_segments":[],"categories_sizes":[],"default_left":[0,0,0,0,0,0,0,0,0,0,0,0,0,0,0],"id":62,"left_children":[1,3,5,7,9,11,13,-1,-1,-1,-1,-1,-1,-1,-1],"loss_changes":[1.3435428E2,5.984752E1,4.2881893E1,2.3346436E1,1.2955933E1,2.0451057E1,8.981888E0,0E0,0E0,0E0,0E0,0E0,0E0,0E0,0E0],"parents":[2147483647,0,0,1,1,2,2,3,3,4,4,5,5,6,6],"right_children":[2,4,6,8,10,12,14,-1,-1,-1,-1,-1,-1,-1,-1],"split_conditions":[1.7E1,3.8E0,6E-1,2E1,7E0,-4.8E0,-5.9E0,-2.485422E-3,-4.587582E-3,-1.6181385E-3,8.797956E-4,1.0917315E-3,-1.5854287E-3,3.7903222E-3,1.7110744E-3],"split_indices":[27,77,77,80,27,25,25,0,0,0,0,0,0,0,0],"split_type":[0,0,0,0,0,0,0,0,0,0,0,0,0,0,0],"sum_hessian":[5.2066177E3,3.0662124E3,2.1404053E3,2.2202205E3,8.459919E2,1.173426E3,9.669791E2,1.3446666E3,8.755539E2,3.6223117E2,4.8376074E2,4.8686218E2,6.865639E2,3.0415088E2,6.6282825E2],"tree_param":{"num_deleted":"0","num_feature":"280","num_nodes":"15","size_leaf_vector":"1"}},{"base_weights":[1.1122302E-1,2.4540462E-1,-8.1022084E-2,3.3161104E-1,1.9040091E-2,4.7467336E-2,-2.3683153E-1,2.4854222E-3,4.587582E-3,1.6181385E-3,-8.7979547E-4,-1.0917316E-3,1.5854284E-3,-3.7903225E-3,-1.7110744E-3],"categories":[],"categories_nodes":[],"categories_segments":[],"categories_sizes":[],"default_left":[0,0,0,0,0,0,0,0,0,0,0,0,0,0,0],"id":63,"left_children":[1,3,5,7,9,11,13,-1,-1,-1,-1,-1,-1,-1,-1],"loss_changes":[1.3435431E2,5.9847504E1,4.288189E1,2.3346436E1,1.295593E1,2.0451054E1,8.981892E0,0E0,0E0,0E0,0E0,0E0,0E0,0E0,0E0],"parents":[2147483647,0,0,1,1,2,2,3,3,4,4,5,5,6,6],"right_children":[2,4,6,8,10,12,14,-1,-1,-1,-1,-1,-1,-1,-1],"split_conditions":[1.7E1,3.8E0,6E-1,2E1,7E0,-4.8E0,-5.9E0,2.4854222E-3,4.587582E-3,1.6181385E-3,-8.7979547E-4,-1.0917316E-3,1.5854284E-3,-3.7903225E-3,-1.7110744E-3],"split_indices":[27,77,77,80,27,25,25,0,0,0,0,0,0,0,0],"split_type":[0,0,0,0,0,0,0,0,0,0,0,0,0,0,0],"sum_hessian":[5.2066177E3,3.0662124E3,2.1404053E3,2.2202205E3,8.459919E2,1.173426E3,9.669791E2,1.3446666E3,8.755539E2,3.6223117E2,4.8376074E2,4.8686218E2,6.865639E2,3.0415088E2,6.6282825E2],"tree_param":{"num_deleted":"0","num_feature":"280","num_nodes":"15","size_leaf_vector":"1"}},{"base_weights":[-1.1015927E-1,-2.7411082E-1,4.480614E-2,-1.9161606E-1,-4.8681936E-1,-1.6632082E-1,1.4742543E-1,-3.0023796E-3,-8.408817E-4,-5.499152E-3,-3.4301127E-3,5.189646E-4,-2.8134484E-3,2.8190522E-3,7.3070545E-4],"categories":[],"categories_nodes":[],"categories_segments":[],"categories_sizes":[],"default_left":[0,0,0,0,0,0,0,0,0,0,0,0,0,0,0],"id":64,"left_children":[1,3,5,7,9,11,13,-1,-1,-1,-1,-1,-1,-1,-1],"loss_changes":[1.3226437E2,4.4292618E1,5.80211E1,2.1282051E1,6.2193756E0,2.2002865E1,1.7996685E1,0E0,0E0,0E0,0E0,0E0,0E0,0E0,0E0],"parents":[2147483647,0,0,1,1,2,2,3,3,4,4,5,5,6,6],"right_children":[2,4,6,8,10,12,14,-1,-1,-1,-1,-1,-1,-1,-1],"split_conditions":[1.5E1,2E1,-2E0,7E0,2.99E1,-4.8E0,8E0,-3.0023796E-3,-8.408817E-4,-5.499152E-3,-3.4301127E-3,5.189646E-4,-2.8134484E-3,2.8190522E-3,7.3070545E-4],"split_indices":[51,80,77,27,61,25,103,0,0,0,0,0,0,0,0],"split_type":[0,0,0,0,0,0,0,0,0,0,0,0,0,0,0],"sum_hessian":[5.2043784E3,2.5284937E3,2.675885E3,1.8232739E3,7.0521967E2,8.750183E2,1.8008666E3,9.0613135E2,9.171426E2,4.8819846E2,2.1702121E2,3.0221725E2,5.728011E2,6.4019855E2,1.1606681E3],"tree_param":{"num_deleted":"0","num_feature":"280","num_nodes":"15","size_leaf_vector":"1"}},{"base_weights":[1.1015927E-1,2.7411082E-1,-4.4806138E-2,1.9161604E-1,4.8681936E-1,1.663208E-1,-1.4742541E-1,3.0023789E-3,8.4088184E-4,5.499152E-3,3.4301127E-3,-5.189648E-4,2.8134484E-3,-2.8190522E-3,-7.3070533E-4],"categories":[],"categories_nodes":[],"categories_segments":[],"categories_sizes":[],"default_left":[0,0,0,0,0,0,0,0,0,0,0,0,0,0,0],"id":65,"left_children":[1,3,5,7,9,11,13,-1,-1,-1,-1,-1,-1,-1,-1],"loss_changes":[1.3226439E2,4.4292618E1,5.802109E1,2.1282051E1,6.2193756E0,2.2002865E1,1.7996685E1,0E0,0E0,0E0,0E0,0E0,0E0,0E0,0E0],"parents":[2147483647,0,0,1,1,2,2,3,3,4,4,5,5,6,6],"right_children":[2,4,6,8,10,12,14,-1,-1,-1,-1,-1,-1,-1,-1],"split_conditions":[1.5E1,2E1,-2E0,7E0,2.99E1,-4.8E0,8E0,3.0023789E-3,8.4088184E-4,5.499152E-3,3.4301127E-3,-5.189648E-4,2.8134484E-3,-2.8190522E-3,-7.3070533E-4],"split_indices":[51,80,77,27,61,25,103,0,0,0,0,0,0,0,0],"split_type":[0,0,0,0,0,0,0,0,0,0,0,0,0,0,0],"sum_hessian":[5.2043784E3,2.5284937E3,2.675885E3,1.8232739E3,7.0521967E2,8.750183E2,1.8008666E3,9.0613135E2,9.171426E2,4.8819846E2,2.1702121E2,3.0221725E2,5.728011E2,6.4019855E2,1.1606681E3],"tree_param":{"num_deleted":"0","num_feature":"280","num_nodes":"15","size_leaf_vector":"1"}},{"base_weights":[-1.0910895E-1,8.918171E-2,-2.3508927E-1,-1.631453E-1,1.6899104E-1,-3.5691756E-1,-6.4059086E-2,2.0935987E-4,-2.8176787E-3,8.941176E-4,2.7690702E-3,-2.916708E-3,-4.8655197E-3,-1.9452793E-3,7.860491E-4],"categories":[],"categories_nodes":[],"categories_segments":[],"categories_sizes":[],"default_left":[0,0,0,0,0,0,0,0,0,0,0,0,0,0,0],"id":66,"left_children":[1,3,5,7,9,11,13,-1,-1,-1,-1,-1,-1,-1,-1],"loss_changes":[1.2999745E2,4.0749428E1,6.627696E1,1.0627229E1,1.3172459E1,1.5573822E1,2.4675842E1,0E0,0E0,0E0,0E0,0E0,0E0,0E0,0E0],"parents":[2147483647,0,0,1,1,2,2,3,3,4,4,5,5,6,6],"right_children":[2,4,6,8,10,12,14,-1,-1,-1,-1,-1,-1,-1,-1],"split_conditions":[4.59E-1,3.71E-1,1.6E0,3.21E-1,2.6E1,2.3E1,1E1,2.0935987E-4,-2.8176787E-3,8.941176E-4,2.7690702E-3,-2.916708E-3,-4.8655197E-3,-1.9452793E-3,7.860491E-4],"split_indices":[3,55,77,3,51,80,51,0,0,0,0,0,0,0,0],"split_type":[0,0,0,0,0,0,0,0,0,0,0,0,0,0,0],"sum_hessian":[5.202072E3,2.0211351E3,3.1809365E3,4.8540945E2,1.5357257E3,1.8570414E3,1.3238951E3,1.9054332E2,2.9486612E2,8.8496466E2,6.5076105E2,1.2374607E3,6.195806E2,6.9131305E2,6.325821E2],"tree_param":{"num_deleted":"0","num_feature":"280","num_nodes":"15","size_leaf_vector":"1"}},{"base_weights":[1.09108955E-1,-8.91817E-2,2.3508927E-1,1.631453E-1,-1.6899103E-1,3.5691756E-1,6.4059086E-2,-2.0935993E-4,2.8176785E-3,-8.941176E-4,-2.76907E-3,2.916708E-3,4.8655197E-3,1.9452793E-3,-7.860491E-4],"categories":[],"categories_nodes":[],"categories_segments":[],"categories_sizes":[],"default_left":[0,0,0,0,0,0,0,0,0,0,0,0,0,0,0],"id":67,"left_children":[1,3,5,7,9,11,13,-1,-1,-1,-1,-1,-1,-1,-1],"loss_changes":[1.2999744E2,4.0749428E1,6.627696E1,1.0627228E1,1.3172447E1,1.5573837E1,2.4675838E1,0E0,0E0,0E0,0E0,0E0,0E0,0E0,0E0],"parents":[2147483647,0,0,1,1,2,2,3,3,4,4,5,5,6,6],"right_children":[2,4,6,8,10,12,14,-1,-1,-1,-1,-1,-1,-1,-1],"split_conditions":[4.59E-1,3.71E-1,1.6E0,3.21E-1,2.6E1,2.3E1,1E1,-2.0935993E-4,2.8176785E-3,-8.941176E-4,-2.76907E-3,2.916708E-3,4.8655197E-3,1.9452793E-3,-7.860491E-4],"split_indices":[3,55,77,3,51,80,51,0,0,0,0,0,0,0,0],"split_type":[0,0,0,0,0,0,0,0,0,0,0,0,0,0,0],"sum_hessian":[5.202072E3,2.0211351E3,3.1809365E3,4.8540945E2,1.5357257E3,1.8570414E3,1.3238951E3,1.9054332E2,2.9486612E2,8.8496466E2,6.5076105E2,1.2374607E3,6.195806E2,6.9131305E2,6.325821E2],"tree_param":{"num_deleted":"0","num_feature":"280","num_nodes":"15","size_leaf_vector":"1"}},{"base_weights":[-1.08068556E-1,-2.6931438E-1,4.4210292E-2,-1.4037487E-1,-4.020758E-1,2.0687804E-1,-8.463961E-2,1.1115576E-4,-2.1314658E-3,-3.2185998E-3,-5.281632E-3,3.7106543E-3,1.5085951E-3,1.0387859E-3,-1.8783241E-3],"categories":[],"categories_nodes":[],"categories_segments":[],"categories_sizes":[],"default_left":[0,0,0,0,0,0,0,0,0,0,0,0,0,0,0],"id":68,"left_children":[1,3,5,7,9,11,13,-1,-1,-1,-1,-1,-1,-1,-1],"loss_changes":[1.2771244E2,4.3186447E1,5.609731E1,1.4147007E1,1.2412933E1,1.0823757E1,2.9077568E1,0E0,0E0,0E0,0E0,0E0,0E0,0E0,0E0],"parents":[2147483647,0,0,1,1,2,2,3,3,4,4,5,5,6,6],"right_children":[2,4,6,8,10,12,14,-1,-1,-1,-1,-1,-1,-1,-1],"split_conditions":[1.5E1,1.3E1,1.4E1,5E0,2.3E1,-5.9E0,-4.8E0,1.1115576E-4,-2.1314658E-3,-3.2185998E-3,-5.281632E-3,3.7106543E-3,1.5085951E-3,1.0387859E-3,-1.8783241E-3],"split_indices":[51,80,103,103,80,25,25,0,0,0,0,0,0,0,0],"split_type":[0,0,0,0,0,0,0,0,0,0,0,0,0,0,0],"sum_hessian":[5.199735E3,2.5251367E3,2.6745984E3,1.2820508E3,1.2430859E3,1.1818966E3,1.4927018E3,4.1629266E2,8.657581E2,7.6191455E2,4.8117136E2,2.9923383E2,8.826628E2,5.280411E2,9.646607E2],"tree_param":{"num_deleted":"0","num_feature":"280","num_nodes":"15","size_leaf_vector":"1"}},{"base_weights":[1.08068556E-1,2.6931435E-1,-4.4210285E-2,1.4037485E-1,4.0207577E-1,-2.0687804E-1,8.463963E-2,-1.1115605E-4,2.1314656E-3,3.2185998E-3,5.281632E-3,-3.7106543E-3,-1.5085951E-3,-1.0387857E-3,1.8783243E-3],"categories":[],"categories_nodes":[],"categories_segments":[],"categories_sizes":[],"default_left":[0,0,0,0,0,0,0,0,0,0,0,0,0,0,0],"id":69,"left_children":[1,3,5,7,9,11,13,-1,-1,-1,-1,-1,-1,-1,-1],"loss_changes":[1.27712425E2,4.3186447E1,5.6097317E1,1.4147009E1,1.2412949E1,1.0823757E1,2.9077572E1,0E0,0E0,0E0,0E0,0E0,0E0,0E0,0E0],"parents":[2147483647,0,0,1,1,2,2,3,3,4,4,5,5,6,6],"right_children":[2,4,6,8,10,12,14,-1,-1,-1,-1,-1,-1,-1,-1],"split_conditions":[1.5E1,1.3E1,1.4E1,5E0,2.3E1,-5.9E0,-4.8E0,-1.1115605E-4,2.1314656E-3,3.2185998E-3,5.281632E-3,-3.7106543E-3,-1.5085951E-3,-1.0387857E-3,1.8783243E-3],"split_indices":[51,80,103,103,80,25,25,0,0,0,0,0,0,0,0],"split_type":[0,0,0,0,0,0,0,0,0,0,0,0,0,0,0],"sum_hessian":[5.199735E3,2.5251367E3,2.6745984E3,1.2820508E3,1.2430859E3,1.1818966E3,1.4927018E3,4.1629266E2,8.657581E2,7.6191455E2,4.8117136E2,2.9923383E2,8.826628E2,5.280411E2,9.646607E2],"tree_param":{"num_deleted":"0","num_feature":"280","num_nodes":"15","size_leaf_vector":"1"}},{"base_weights":[-1.0704009E-1,-2.3694238E-1,7.880896E-2,-3.2098687E-1,-1.6816754E-2,1.6606031E-1,-1.376222E-1,-2.1225717E-3,-4.1563525E-3,-2.6058194E-3,4.4757815E-4,7.3294167E-4,2.5046857E-3,8.721357E-4,-2.3211988E-3],"categories":[],"categories_nodes":[],"categories_segments":[],"categories_sizes":[],"default_left":[0,0,0,0,0,0,0,0,0,0,0,0,0,0,0],"id":70,"left_children":[1,3,5,7,9,11,13,-1,-1,-1,-1,-1,-1,-1,-1],"loss_changes":[1.2551686E2,5.6604263E1,4.042237E1,2.2700272E1,1.2717939E1,1.1923935E1,1.3091259E1,0E0,0E0,0E0,0E0,0E0,0E0,0E0,0E0],"parents":[2147483647,0,0,1,1,2,2,3,3,4,4,5,5,6,6],"right_children":[2,4,6,8,10,12,14,-1,-1,-1,-1,-1,-1,-1,-1],"split_conditions":[1.7E1,3.8E0,2.2E1,2.7E0,5E0,2.4E1,-6.2E0,-2.1225717E-3,-4.1563525E-3,-2.6058194E-3,4.4757815E-4,7.3294167E-4,2.5046857E-3,8.721357E-4,-2.3211988E-3],"split_indices":[27,77,103,25,41,51,25,0,0,0,0,0,0,0,0],"split_type":[0,0,0,0,0,0,0,0,0,0,0,0,0,0,0],"sum_hessian":[5.197287E3,3.0589255E3,2.1383616E3,2.21339E3,8.455356E2,1.5241525E3,6.1420917E2,1.0315798E3,1.18181E3,1.6985826E2,6.756773E2,7.270167E2,7.9713574E2,1.817806E2,4.324286E2],"tree_param":{"num_deleted":"0","num_feature":"280","num_nodes":"15","size_leaf_vector":"1"}},{"base_weights":[1.07040085E-1,2.3694238E-1,-7.880898E-2,3.2098687E-1,1.6816743E-2,-1.6606036E-1,1.3762224E-1,2.1225717E-3,4.1563525E-3,2.6058194E-3,-4.4757823E-4,-7.3294196E-4,-2.5046861E-3,-8.721362E-4,2.3211993E-3],"categories":[],"categories_nodes":[],"categories_segments":[],"categories_sizes":[],"default_left":[0,0,0,0,0,0,0,0,0,0,0,0,0,0,0],"id":71,"left_children":[1,3,5,7,9,11,13,-1,-1,-1,-1,-1,-1,-1,-1],"loss_changes":[1.2551685E2,5.6604263E1,4.042239E1,2.2700272E1,1.2717937E1,1.1923935E1,1.3091268E1,0E0,0E0,0E0,0E0,0E0,0E0,0E0,0E0],"parents":[2147483647,0,0,1,1,2,2,3,3,4,4,5,5,6,6],"right_children":[2,4,6,8,10,12,14,-1,-1,-1,-1,-1,-1,-1,-1],"split_conditions":[1.7E1,3.8E0,2.2E1,2.7E0,5E0,2.4E1,-6.2E0,2.1225717E-3,4.1563525E-3,2.6058194E-3,-4.4757823E-4,-7.3294196E-4,-2.5046861E-3,-8.721362E-4,2.3211993E-3],"split_indices":[27,77,103,25,41,51,25,0,0,0,0,0,0,0,0],"split_type":[0,0,0,0,0,0,0,0,0,0,0,0,0,0,0],"sum_hessian":[5.197287E3,3.0589253E3,2.1383616E3,2.21339E3,8.455355E2,1.5241525E3,6.1420917E2,1.0315798E3,1.18181E3,1.6985826E2,6.756773E2,7.270167E2,7.971358E2,1.8178058E2,4.324286E2],"tree_param":{"num_deleted":"0","num_feature":"280","num_nodes":"15","size_leaf_vector":"1"}},{"base_weights":[-1.0601797E-1,8.7059155E-2,-2.2881429E-1,-1.5991385E-1,1.6517158E-1,-3.480756E-1,-6.175129E-2,2.034266E-4,-2.761674E-3,6.4963073E-4,2.4680363E-3,-2.8372721E-3,-4.7624353E-3,-1.8984003E-3,7.8219495E-4],"categories":[],"categories_nodes":[],"categories_segments":[],"categories_sizes":[],"default_left":[0,0,0,0,0,0,0,0,0,0,0,0,0,0,0],"id":72,"left_children":[1,3,5,7,9,11,13,-1,-1,-1,-1,-1,-1,-1,-1],"loss_changes":[1.2321298E2,3.9008728E1,6.326416E1,1.0190877E1,1.2545837E1,1.5148056E1,2.3756672E1,0E0,0E0,0E0,0E0,0E0,0E0,0E0,0E0],"parents":[2147483647,0,0,1,1,2,2,3,3,4,4,5,5,6,6],"right_children":[2,4,6,8,10,12,14,-1,-1,-1,-1,-1,-1,-1,-1],"split_conditions":[4.59E-1,3.71E-1,1.6E0,3.21E-1,5.4E-1,2.3E1,1E1,2.034266E-4,-2.761674E-3,6.4963073E-4,2.4680363E-3,-2.8372721E-3,-4.7624353E-3,-1.8984003E-3,7.8219495E-4],"split_indices":[3,55,77,3,55,80,51,0,0,0,0,0,0,0,0],"split_type":[0,0,0,0,0,0,0,0,0,0,0,0,0,0,0],"sum_hessian":[5.195011E3,2.0196821E3,3.1753289E3,4.8504318E2,1.5346389E3,1.8520919E3,1.3232369E3,1.9049576E2,2.9454742E2,6.897378E2,8.449012E2,1.2351719E3,6.169201E2,6.9075946E2,6.324775E2],"tree_param":{"num_deleted":"0","num_feature":"280","num_nodes":"15","size_leaf_vector":"1"}},{"base_weights":[1.0601798E-1,-8.705915E-2,2.2881429E-1,1.5991387E-1,-1.6517158E-1,3.480756E-1,6.175129E-2,-2.0342649E-4,2.761674E-3,-6.496308E-4,-2.468036E-3,2.8372721E-3,4.762436E-3,1.8984001E-3,-7.8219484E-4],"categories":[],"categories_nodes":[],"categories_segments":[],"categories_sizes":[],"default_left":[0,0,0,0,0,0,0,0,0,0,0,0,0,0,0],"id":73,"left_children":[1,3,5,7,9,11,13,-1,-1,-1,-1,-1,-1,-1,-1],"loss_changes":[1.23212975E2,3.9008728E1,6.3264175E1,1.0190876E1,1.2545841E1,1.5148071E1,2.3756668E1,0E0,0E0,0E0,0E0,0E0,0E0,0E0,0E0],"parents":[2147483647,0,0,1,1,2,2,3,3,4,4,5,5,6,6],"right_children":[2,4,6,8,10,12,14,-1,-1,-1,-1,-1,-1,-1,-1],"split_conditions":[4.59E-1,3.71E-1,1.6E0,3.21E-1,5.4E-1,2.3E1,1E1,-2.0342649E-4,2.761674E-3,-6.496308E-4,-2.468036E-3,2.8372721E-3,4.762436E-3,1.8984001E-3,-7.8219484E-4],"split_indices":[3,55,77,3,55,80,51,0,0,0,0,0,0,0,0],"split_type":[0,0,0,0,0,0,0,0,0,0,0,0,0,0,0],"sum_hessian":[5.195011E3,2.0196821E3,3.1753289E3,4.8504318E2,1.534639E3,1.8520919E3,1.3232369E3,1.9049574E2,2.9454742E2,6.897378E2,8.449012E2,1.2351719E3,6.169201E2,6.9075946E2,6.324775E2],"tree_param":{"num_deleted":"0","num_feature":"280","num_nodes":"15","size_leaf_vector":"1"}},{"base_weights":[-1.0500921E-1,-2.6236102E-1,4.3394424E-2,-1.8254477E-1,-4.693583E-1,-1.7358361E-1,1.3580574E-1,-2.889492E-3,-7.73312E-4,-5.1732794E-3,-2.812467E-3,4.3754198E-4,-2.8975867E-3,2.727814E-3,6.476844E-4],"categories":[],"categories_nodes":[],"categories_segments":[],"categories_sizes":[],"default_left":[0,0,0,0,0,0,0,0,0,0,0,0,0,0,0],"id":74,"left_children":[1,3,5,7,9,11,13,-1,-1,-1,-1,-1,-1,-1,-1],"loss_changes":[1.2128963E2,4.1564545E1,5.3633415E1,2.0364418E1,6.1792297E0,2.0187525E1,1.8232788E1,0E0,0E0,0E0,0E0,0E0,0E0,0E0,0E0],"parents":[2147483647,0,0,1,1,2,2,3,3,4,4,5,5,6,6],"right_children":[2,4,6,8,10,12,14,-1,-1,-1,-1,-1,-1,-1,-1],"split_conditions":[1.5E1,2E1,-2.4E0,7E0,3.43E1,-4.8E0,8E0,-2.889492E-3,-7.73312E-4,-5.1732794E-3,-2.812467E-3,4.3754198E-4,-2.8975867E-3,2.727814E-3,6.476844E-4],"split_indices":[51,80,77,27,67,25,103,0,0,0,0,0,0,0,0],"split_type":[0,0,0,0,0,0,0,0,0,0,0,0,0,0,0],"sum_hessian":[5.1925776E3,2.5199336E3,2.672644E3,1.8200289E3,6.9990466E2,7.980281E2,1.874616E3,9.040251E2,9.1600385E2,5.5629565E2,1.4360904E2,2.7820032E2,5.1982776E2,6.392194E2,1.2353966E3],"tree_param":{"num_deleted":"0","num_feature":"280","num_nodes":"15","size_leaf_vector":"1"}},{"base_weights":[1.05009206E-1,2.6236102E-1,-4.3394443E-2,1.8254477E-1,4.693583E-1,1.735836E-1,-1.3580576E-1,2.889492E-3,7.733119E-4,5.1732794E-3,2.812467E-3,-4.3754166E-4,2.8975864E-3,-2.7278145E-3,-6.476844E-4],"categories":[],"categories_nodes":[],"categories_segments":[],"categories_sizes":[],"default_left":[0,0,0,0,0,0,0,0,0,0,0,0,0,0,0],"id":75,"left_children":[1,3,5,7,9,11,13,-1,-1,-1,-1,-1,-1,-1,-1],"loss_changes":[1.2128965E2,4.1564545E1,5.363342E1,2.0364426E1,6.1792297E0,2.0187513E1,1.82328E1,0E0,0E0,0E0,0E0,0E0,0E0,0E0,0E0],"parents":[2147483647,0,0,1,1,2,2,3,3,4,4,5,5,6,6],"right_children":[2,4,6,8,10,12,14,-1,-1,-1,-1,-1,-1,-1,-1],"split_conditions":[1.5E1,2E1,-2.4E0,7E0,3.43E1,-4.8E0,8E0,2.889492E-3,7.733119E-4,5.1732794E-3,2.812467E-3,-4.3754166E-4,2.8975864E-3,-2.7278145E-3,-6.476844E-4],"split_indices":[51,80,77,27,67,25,103,0,0,0,0,0,0,0,0],"split_type":[0,0,0,0,0,0,0,0,0,0,0,0,0,0,0],"sum_hessian":[5.1925776E3,2.5199336E3,2.672644E3,1.8200289E3,6.9990466E2,7.980281E2,1.874616E3,9.0402515E2,9.1600385E2,5.5629565E2,1.4360904E2,2.7820032E2,5.1982776E2,6.392194E2,1.2353966E3],"tree_param":{"num_deleted":"0","num_feature":"280","num_nodes":"15","size_leaf_vector":"1"}},{"base_weights":[-1.04011536E-1,-2.0445533E-1,1.2466743E-1,-1.084484E-1,-3.930158E-1,-1.3296573E-1,2.0141983E-1,1.3700977E-4,-2.5245538E-3,-2.7702262E-3,-5.2999067E-3,-2.376885E-3,1.0421295E-3,3.1372984E-3,1.2324991E-3],"categories":[],"categories_nodes":[],"categories_segments":[],"categories_sizes":[],"default_left":[0,0,0,0,0,0,0,0,0,0,0,0,0,0,0],"id":76,"left_children":[1,3,5,7,9,11,13,-1,-1,-1,-1,-1,-1,-1,-1],"loss_changes":[1.19261856E2,6.5259415E1,3.1366035E1,4.2072693E1,1.9183014E1,9.075315E0,1.0685135E1,0E0,0E0,0E0,0E0,0E0,0E0,0E0,0E0],"parents":[2147483647,0,0,1,1,2,2,3,3,4,4,5,5,6,6],"right_children":[2,4,6,8,10,12,14,-1,-1,-1,-1,-1,-1,-1,-1],"split_conditions":[2E1,2E1,3.71E-1,2.9E0,2.3E1,2.7E1,-5.9E0,1.3700977E-4,-2.5245538E-3,-2.7702262E-3,-5.2999067E-3,-2.376885E-3,1.0421295E-3,3.1372984E-3,1.2324991E-3],"split_indices":[28,103,55,25,1,28,25,0,0,0,0,0,0,0,0],"split_type":[0,0,0,0,0,0,0,0,0,0,0,0,0,0,0],"sum_hessian":[5.1901006E3,3.606226E3,1.5838746E3,2.3906064E3,1.2156196E3,3.6338284E2,1.2204918E3,1.293955E3,1.0966515E3,6.5985944E2,5.557602E2,2.5207892E2,1.113039E2,4.9963364E2,7.208582E2],"tree_param":{"num_deleted":"0","num_feature":"280","num_nodes":"15","size_leaf_vector":"1"}},{"base_weights":[1.0401153E-1,2.0445533E-1,-1.2466744E-1,1.0844839E-1,3.9301577E-1,1.3296574E-1,-2.0141986E-1,-1.3700975E-4,2.5245538E-3,2.770226E-3,5.2999067E-3,2.3768852E-3,-1.0421294E-3,-3.137299E-3,-1.2324993E-3],"categories":[],"categories_nodes":[],"categories_segments":[],"categories_sizes":[],"default_left":[0,0,0,0,0,0,0,0,0,0,0,0,0,0,0],"id":77,"left_children":[1,3,5,7,9,11,13,-1,-1,-1,-1,-1,-1,-1,-1],"loss_changes":[1.1926189E2,6.5259384E1,3.1366043E1,4.2072685E1,1.918303E1,9.075314E0,1.0685135E1,0E0,0E0,0E0,0E0,0E0,0E0,0E0,0E0],"parents":[2147483647,0,0,1,1,2,2,3,3,4,4,5,5,6,6],"right_children":[2,4,6,8,10,12,14,-1,-1,-1,-1,-1,-1,-1,-1],"split_conditions":[2E1,2E1,3.71E-1,2.9E0,2.3E1,2.7E1,-5.9E0,-1.3700975E-4,2.5245538E-3,2.770226E-3,5.2999067E-3,2.3768852E-3,-1.0421294E-3,-3.137299E-3,-1.2324993E-3],"split_indices":[28,103,55,25,1,28,25,0,0,0,0,0,0,0,0],"split_type":[0,0,0,0,0,0,0,0,0,0,0,0,0,0,0],"sum_hessian":[5.1901006E3,3.606226E3,1.5838746E3,2.3906064E3,1.2156196E3,3.633828E2,1.2204918E3,1.293955E3,1.0966515E3,6.5985944E2,5.557602E2,2.5207892E2,1.113039E2,4.9963364E2,7.208582E2],"tree_param":{"num_deleted":"0","num_feature":"280","num_nodes":"15","size_leaf_vector":"1"}},{"base_weights":[-1.0302204E-1,-2.2870518E-1,7.652713E-2,-3.109846E-1,-1.3761322E-2,-4.4504844E-2,2.2338887E-1,-4.263861E-3,-2.2541636E-3,-2.5347467E-3,4.675395E-4,1.020003E-3,-1.4852097E-3,3.5971247E-3,1.6058902E-3],"categories":[],"categories_nodes":[],"categories_segments":[],"categories_sizes":[],"default_left":[0,0,0,0,0,0,0,0,0,0,0,0,0,0,0],"id":78,"left_children":[1,3,5,7,9,11,13,-1,-1,-1,-1,-1,-1,-1,-1],"loss_changes":[1.1710632E2,5.397905E1,3.799935E1,2.170108E1,1.2284733E1,1.7882591E1,8.21014E0,0E0,0E0,0E0,0E0,0E0,0E0,0E0,0E0],"parents":[2147483647,0,0,1,1,2,2,3,3,4,4,5,5,6,6],"right_children":[2,4,6,8,10,12,14,-1,-1,-1,-1,-1,-1,-1,-1],"split_conditions":[1.7E1,3.8E0,6E-1,8E0,5E0,-4.8E0,-5.9E0,-4.263861E-3,-2.2541636E-3,-2.5347467E-3,4.675395E-4,1.020003E-3,-1.4852097E-3,3.5971247E-3,1.6058902E-3],"split_indices":[27,77,77,51,41,25,25,0,0,0,0,0,0,0,0],"split_type":[0,0,0,0,0,0,0,0,0,0,0,0,0,0,0],"sum_hessian":[5.1876567E3,3.0514143E3,2.1362422E3,2.2063774E3,8.450369E2,1.1714891E3,9.64753E2,9.377282E2,1.2686492E3,1.696863E2,6.7535065E2,4.864089E2,6.8508026E2,3.027741E2,6.619789E2],"tree_param":{"num_deleted":"0","num_feature":"280","num_nodes":"15","size_leaf_vector":"1"}},{"base_weights":[1.0302204E-1,2.2870518E-1,-7.652713E-2,3.109846E-1,1.3761354E-2,4.4504832E-2,-2.2338885E-1,4.2638606E-3,2.2541636E-3,2.5347467E-3,-4.6753912E-4,-1.0200031E-3,1.4852096E-3,-3.5971238E-3,-1.6058902E-3],"categories":[],"categories_nodes":[],"categories_segments":[],"categories_sizes":[],"default_left":[0,0,0,0,0,0,0,0,0,0,0,0,0,0,0],"id":79,"left_children":[1,3,5,7,9,11,13,-1,-1,-1,-1,-1,-1,-1,-1],"loss_changes":[1.17106316E2,5.3979034E1,3.7999344E1,2.1701096E1,1.228473E1,1.7882591E1,8.210136E0,0E0,0E0,0E0,0E0,0E0,0E0,0E0,0E0],"parents":[2147483647,0,0,1,1,2,2,3,3,4,4,5,5,6,6],"right_children":[2,4,6,8,10,12,14,-1,-1,-1,-1,-1,-1,-1,-1],"split_conditions":[1.7E1,3.8E0,6E-1,8E0,5E0,-4.8E0,-5.9E0,4.2638606E-3,2.2541636E-3,2.5347467E-3,-4.6753912E-4,-1.0200031E-3,1.4852096E-3,-3.5971238E-3,-1.6058902E-3],"split_indices":[27,77,77,51,41,25,25,0,0,0,0,0,0,0,0],"split_type":[0,0,0,0,0,0,0,0,0,0,0,0,0,0,0],"sum_hessian":[5.1876567E3,3.0514143E3,2.1362422E3,2.2063774E3,8.450369E2,1.1714891E3,9.64753E2,9.377282E2,1.2686492E3,1.696863E2,6.7535065E2,4.864089E2,6.8508026E2,3.027741E2,6.619789E2],"tree_param":{"num_deleted":"0","num_feature":"280","num_nodes":"15","size_leaf_vector":"1"}},{"base_weights":[-1.020403E-1,-2.5555545E-1,4.255108E-2,-1.7709081E-1,-4.5974815E-1,-8.581615E-2,1.9245389E-1,-2.319175E-3,2.0529583E-4,-5.228388E-3,-3.163956E-3,9.3593076E-4,-1.8517841E-3,3.5306772E-3,1.443806E-3],"categories":[],"categories_nodes":[],"categories_segments":[],"categories_sizes":[],"default_left":[0,0,0,0,0,0,0,0,0,0,0,0,0,0,0],"id":80,"left_children":[1,3,5,7,9,11,13,-1,-1,-1,-1,-1,-1,-1,-1],"loss_changes":[1.1513003E2,4.0224045E1,5.142527E1,1.9712738E1,6.1447754E0,2.5685291E1,9.467255E0,0E0,0E0,0E0,0E0,0E0,0E0,0E0,0E0],"parents":[2147483647,0,0,1,1,2,2,3,3,4,4,5,5,6,6],"right_children":[2,4,6,8,10,12,14,-1,-1,-1,-1,-1,-1,-1,-1],"split_conditions":[1.5E1,2E1,5.22E-1,6.95E-1,2.99E1,-4.7E0,4E0,-2.319175E-3,2.0529583E-4,-5.228388E-3,-3.163956E-3,9.3593076E-4,-1.8517841E-3,3.5306772E-3,1.443806E-3],"split_indices":[51,80,55,55,61,25,103,0,0,0,0,0,0,0,0],"split_type":[0,0,0,0,0,0,0,0,0,0,0,0,0,0,0],"sum_hessian":[5.1852563E3,2.5146462E3,2.6706104E3,1.8179385E3,6.967077E2,1.438876E3,1.2317344E3,1.422981E3,3.9495752E2,4.819501E2,2.147576E2,5.1287787E2,9.2599805E2,2.8228156E2,9.494529E2],"tree_param":{"num_deleted":"0","num_feature":"280","num_nodes":"15","size_leaf_vector":"1"}},{"base_weights":[1.020403E-1,2.5555545E-1,-4.255109E-2,1.7709081E-1,4.5974812E-1,8.5816145E-2,-1.9245389E-1,2.319175E-3,-2.0529573E-4,5.228388E-3,3.163956E-3,-9.3593076E-4,1.851784E-3,-3.5306772E-3,-1.4438061E-3],"categories":[],"categories_nodes":[],"categories_segments":[],"categories_sizes":[],"default_left":[0,0,0,0,0,0,0,0,0,0,0,0,0,0,0],"id":81,"left_children":[1,3,5,7,9,11,13,-1,-1,-1,-1,-1,-1,-1,-1],"loss_changes":[1.15130035E2,4.0224045E1,5.142527E1,1.971273E1,6.1447754E0,2.568529E1,9.467255E0,0E0,0E0,0E0,0E0,0E0,0E0,0E0,0E0],"parents":[2147483647,0,0,1,1,2,2,3,3,4,4,5,5,6,6],"right_children":[2,4,6,8,10,12,14,-1,-1,-1,-1,-1,-1,-1,-1],"split_conditions":[1.5E1,2E1,5.22E-1,6.95E-1,2.99E1,-4.7E0,4E0,2.319175E-3,-2.0529573E-4,5.228388E-3,3.163956E-3,-9.3593076E-4,1.851784E-3,-3.5306772E-3,-1.4438061E-3],"split_indices":[51,80,55,55,61,25,103,0,0,0,0,0,0,0,0],"split_type":[0,0,0,0,0,0,0,0,0,0,0,0,0,0,0],"sum_hessian":[5.1852563E3,2.5146462E3,2.6706104E3,1.8179385E3,6.967077E2,1.438876E3,1.2317344E3,1.422981E3,3.9495752E2,4.819501E2,2.147576E2,5.1287787E2,9.2599805E2,2.8228156E2,9.494529E2],"tree_param":{"num_deleted":"0","num_feature":"280","num_nodes":"15","size_leaf_vector":"1"}},{"base_weights":[-1.0107221E-1,-1.9913314E-1,1.219803E-1,-1.0502098E-1,-3.8441974E-1,