{"learner":{"attributes":{},"feature_names":[],"feature_types":[],"gradient_booster":{"model":{"gbtree_model_param":{"num_parallel_tree":"1","num_trees":"200"},"iteration_indptr":[0,2,4,6,8,10,12,14,16,18,20,22,24,26,28,30,32,34,36,38,40,42,44,46,48,50,52,54,56,58,60,62,64,66,68,70,72,74,76,78,80,82,84,86,88,90,92,94,96,98,100,102,104,106,108,110,112,114,116,118,120,122,124,126,128,130,132,134,136,138,140,142,144,146,148,150,152,154,156,158,160,162,164,166,168,170,172,174,176,178,180,182,184,186,188,190,192,194,196,198,200],"tree_info":[0,1,0,1,0,1,0,1,0,1,0,1,0,1,0,1,0,1,0,1,0,1,0,1,0,1,0,1,0,1,0,1,0,1,0,1,0,1,0,1,0,1,0,1,0,1,0,1,0,1,0,1,0,1,0,1,0,1,0,1,0,1,0,1,0,1,0,1,0,1,0,1,0,1,0,1,0,1,0,1,0,1,0,1,0,1,0,1,0,1,0,1,0,1,0,1,0,1,0,1,0,1,0,1,0,1,0,1,0,1,0,1,0,1,0,1,0,1,0,1,0,1,0,1,0,1,0,1,0,1,0,1,0,1,0,1,0,1,0,1,0,1,0,1,0,1,0,1,0,1,0,1,0,1,0,1,0,1,0,1,0,1,0,1,0,1,0,1,0,1,0,1,0,1,0,1,0,1,0,1,0,1,0,1,0,1,0,1,0,1,0,1,0,1,0,1,0,1,0,1],"trees":[{"base_weights":[-1.5785463E-1,-3.7205222E-1,4.6944857E-2,-1.9209915E-1,-5.539004E-1,-2.2619703E-1,1.8660288E-1,-3.0434781E-3,-1.3039117E-4,-4.6258946E-3,-6.909449E-3,6.148867E-4,-3.7385512E-3,5.149396E-4,2.9364277E-3],"categories":[],"categories_nodes":[],"categories_segments":[],"categories_sizes":[],"default_left":[0,0,0,0,0,0,0,0,0,0,0,0,0,0,0],"id":0,"left_children":[1,3,5,7,9,11,13,-1,-1,-1,-1,-1,-1,-1,-1],"loss_changes":[2.3025632E2,8.384741E1,1.0242729E2,2.5944168E1,1.5641541E1,3.8615265E1,2.56767E1,0E0,0E0,0E0,0E0,0E0,0E0,0E0,0E0],"parents":[2147483647,0,0,1,1,2,2,3,3,4,4,5,5,6,6],"right_children":[2,4,6,8,10,12,14,-1,-1,-1,-1,-1,-1,-1,-1],"split_conditions":[1.5E1,1.3E1,-1.9E0,5.1E0,2.3E1,-4.8E0,5.68E-1,-3.0434781E-3,-1.3039117E-4,-4.6258946E-3,-6.909449E-3,6.148867E-4,-3.7385512E-3,5.149396E-4,2.9364277E-3],"split_indices":[51,80,77,77,80,25,55,0,0,0,0,0,0,0,0],"split_type":[0,0,0,0,0,0,0,0,0,0,0,0,0,0,0],"sum_hessian":[5.2475E3,2.5645E3,2.683E3,1.29E3,1.2745E3,9.075E2,1.7755E3,7.925E2,4.975E2,7.675E2,5.07E2,3.08E2,5.995E2,7.855E2,9.9E2],"tree_param":{"num_deleted":"0","num_feature":"280","num_nodes":"15","size_leaf_vector":"1"}},{"base_weights":[1.5785463E-1,3.7205222E-1,-4.6944857E-2,1.9209915E-1,5.539004E-1,2.2619703E-1,-1.8660288E-1,3.0434781E-3,1.3039117E-4,4.6258946E-3,6.909449E-3,-6.148867E-4,3.7385512E-3,-5.149396E-4,-2.9364277E-3],"categories":[],"categories_nodes":[],"categories_segments":[],"categories_sizes":[],"default_left":[0,0,0,0,0,0,0,0,0,0,0,0,0,0,0],"id":1,"left_children":[1,3,5,7,9,11,13,-1,-1,-1,-1,-1,-1,-1,-1],"loss_changes":[2.3025632E2,8.384741E1,1.0242729E2,2.5944168E1,1.5641541E1,3.8615265E1,2.56767E1,0E0,0E0,0E0,0E0,0E0,0E0,0E0,0E0],"parents":[2147483647,0,0,1,1,2,2,3,3,4,4,5,5,6,6],"right_children":[2,4,6,8,10,12,14,-1,-1,-1,-1,-1,-1,-1,-1],"split_conditions":[1.5E1,1.3E1,-1.9E0,5.1E0,2.3E1,-4.8E0,5.68E-1,3.0434781E-3,1.3039117E-4,4.6258946E-3,6.909449E-3,-6.148867E-4,3.7385512E-3,-5.149396E-4,-2.9364277E-3],"split_indices":[51,80,77,77,80,25,55,0,0,0,0,0,0,0,0],"split_type":[0,0,0,0,0,0,0,0,0,0,0,0,0,0,0],"sum_hessian":[5.2475E3,2.5645E3,2.683E3,1.29E3,1.2745E3,9.075E2,1.7755E3,7.925E2,4.975E2,7.675E2,5.07E2,3.08E2,5.995E2,7.855E2,9.9E2],"tree_param":{"num_deleted":"0","num_feature":"280","num_nodes":"15","size_leaf_vector":"1"}},{"base_weights":[-1.5628077E-1,-3.683444E-1,4.647585E-2,-1.9018172E-1,-5.48388E-1,-2.2394054E-1,1.8473971E-1,-3.01311E-3,-1.2908994E-4,-4.579794E-3,-6.840817E-3,6.08758E-4,-3.7012787E-3,1.1540116E-3,3.9319918E-3],"categories":[],"categories_nodes":[],"categories_segments":[],"categories_sizes":[],"default_left":[0,0,0,0,0,0,0,0,0,0,0,0,0,0,0],"id":2,"left_children":[1,3,5,7,9,11,13,-1,-1,-1,-1,-1,-1,-1,-1],"loss_changes":[2.2568567E2,8.2187836E1,1.003923E2,2.542891E1,1.5333893E1,3.7848976E1,2.5632523E1,0E0,0E0,0E0,0E0,0E0,0E0,0E0,0E0],"parents":[2147483647,0,0,1,1,2,2,3,3,4,4,5,5,6,6],"right_children":[2,4,6,8,10,12,14,-1,-1,-1,-1,-1,-1,-1,-1],"split_conditions":[1.5E1,1.3E1,-1.9E0,5.1E0,2.3E1,-4.8E0,2.7E1,-3.01311E-3,-1.2908994E-4,-4.579794E-3,-6.840817E-3,6.08758E-4,-3.7012787E-3,1.1540116E-3,3.9319918E-3],"split_indices":[51,80,77,77,80,25,51,0,0,0,0,0,0,0,0],"split_type":[0,0,0,0,0,0,0,0,0,0,0,0,0,0,0],"sum_hessian":[5.2474346E3,2.564452E3,2.682983E3,1.2899927E3,1.2744594E3,9.074916E2,1.7754912E3,7.924926E2,4.975E2,7.674835E2,5.0697583E2,3.0799988E2,5.994917E2,1.3334934E3,4.4199786E2],"tree_param":{"num_deleted":"0","num_feature":"280","num_nodes":"15","size_leaf_vector":"1"}},{"base_weights":[1.5628077E-1,3.6834437E-1,-4.6475835E-2,1.9018172E-1,5.4838794E-1,2.2394058E-1,-1.8473971E-1,3.01311E-3,1.2908965E-4,4.579793E-3,6.840817E-3,-6.087583E-4,3.7012796E-3,-1.1540115E-3,-3.9319918E-3],"categories":[],"categories_nodes":[],"categories_segments":[],"categories_sizes":[],"default_left":[0,0,0,0,0,0,0,0,0,0,0,0,0,0,0],"id":3,"left_children":[1,3,5,7,9,11,13,-1,-1,-1,-1,-1,-1,-1,-1],"loss_changes":[2.2568562E2,8.2187836E1,1.0039233E2,2.542892E1,1.5333893E1,3.7849003E1,2.5632519E1,0E0,0E0,0E0,0E0,0E0,0E0,0E0,0E0],"parents":[2147483647,0,0,1,1,2,2,3,3,4,4,5,5,6,6],"right_children":[2,4,6,8,10,12,14,-1,-1,-1,-1,-1,-1,-1,-1],"split_conditions":[1.5E1,1.3E1,-1.9E0,5.1E0,2.3E1,-4.8E0,2.7E1,3.01311E-3,1.2908965E-4,4.579793E-3,6.840817E-3,-6.087583E-4,3.7012796E-3,-1.1540115E-3,-3.9319918E-3],"split_indices":[51,80,77,77,80,25,51,0,0,0,0,0,0,0,0],"split_type":[0,0,0,0,0,0,0,0,0,0,0,0,0,0,0],"sum_hessian":[5.247435E3,2.5644521E3,2.682983E3,1.2899927E3,1.2744594E3,9.074916E2,1.7754912E3,7.924927E2,4.975E2,7.674836E2,5.069758E2,3.079999E2,5.9949164E2,1.3334934E3,4.4199786E2],"tree_param":{"num_deleted":"0","num_feature":"280","num_nodes":"15","size_leaf_vector":"1"}},{"base_weights":[-1.5472597E-1,-3.646869E-1,4.6012584E-2,-1.8828547E-1,-5.429645E-1,-1.3253872E-1,2.5233725E-1,-2.9830982E-3,-1.2780119E-4,-4.5343433E-3,-6.773504E-3,1.2143776E-3,-2.6639283E-3,1.5631857E-3,3.8166945E-3],"categories":[],"categories_nodes":[],"categories_segments":[],"categories_sizes":[],"default_left":[0,0,0,0,0,0,0,0,0,0,0,0,0,0,0],"id":4,"left_children":[1,3,5,7,9,11,13,-1,-1,-1,-1,-1,-1,-1,-1],"loss_changes":[2.2121596E2,8.057269E1,9.890844E1,2.4924664E1,1.5037231E1,4.8968033E1,1.5407013E1,0E0,0E0,0E0,0E0,0E0,0E0,0E0,0E0],"parents":[2147483647,0,0,1,1,2,2,3,3,4,4,5,5,6,6],"right_children":[2,4,6,8,10,12,14,-1,-1,-1,-1,-1,-1,-1,-1],"split_conditions":[1.5E1,1.3E1,5.19E-1,5.1E0,2.3E1,-4.8E0,2.4E1,-2.9830982E-3,-1.2780119E-4,-4.5343433E-3,-6.773504E-3,1.2143776E-3,-2.6639283E-3,1.5631857E-3,3.8166945E-3],"split_indices":[51,80,55,77,80,25,51,0,0,0,0,0,0,0,0],"split_type":[0,0,0,0,0,0,0,0,0,0,0,0,0,0,0],"sum_hessian":[5.2472466E3,2.56431E3,2.6829368E3,1.289971E3,1.2743391E3,1.4384629E3,1.2444739E3,7.9247095E2,4.9749997E2,7.6743494E2,5.069041E2,4.964966E2,9.419663E2,7.1548956E2,5.2898425E2],"tree_param":{"num_deleted":"0","num_feature":"280","num_nodes":"15","size_leaf_vector":"1"}},{"base_weights":[1.5472598E-1,3.6468694E-1,-4.601258E-2,1.8828547E-1,5.429646E-1,1.3253874E-1,-2.5233725E-1,2.9830982E-3,1.2780119E-4,4.5343447E-3,6.773504E-3,-1.2143778E-3,2.6639283E-3,-1.5631857E-3,-3.8166945E-3],"categories":[],"categories_nodes":[],"categories_segments":[],"categories_sizes":[],"default_left":[0,0,0,0,0,0,0,0,0,0,0,0,0,0,0],"id":5,"left_children":[1,3,5,7,9,11,13,-1,-1,-1,-1,-1,-1,-1,-1],"loss_changes":[2.21216E2,8.0572754E1,9.890844E1,2.4924664E1,1.5037231E1,4.8968044E1,1.5407013E1,0E0,0E0,0E0,0E0,0E0,0E0,0E0,0E0],"parents":[2147483647,0,0,1,1,2,2,3,3,4,4,5,5,6,6],"right_children":[2,4,6,8,10,12,14,-1,-1,-1,-1,-1,-1,-1,-1],"split_conditions":[1.5E1,1.3E1,5.19E-1,5.1E0,2.3E1,-4.8E0,2.4E1,2.9830982E-3,1.2780119E-4,4.5343447E-3,6.773504E-3,-1.2143778E-3,2.6639283E-3,-1.5631857E-3,-3.8166945E-3],"split_indices":[51,80,55,77,80,25,51,0,0,0,0,0,0,0,0],"split_type":[0,0,0,0,0,0,0,0,0,0,0,0,0,0,0],"sum_hessian":[5.247247E3,2.56431E3,2.6829368E3,1.289971E3,1.2743391E3,1.4384629E3,1.2444739E3,7.9247095E2,4.9749997E2,7.6743494E2,5.0690414E2,4.964966E2,9.419663E2,7.1548956E2,5.289843E2],"tree_param":{"num_deleted":"0","num_feature":"280","num_nodes":"15","size_leaf_vector":"1"}},{"base_weights":[-1.5318963E-1,-3.6107874E-1,4.555508E-2,-1.8641026E-1,-5.3762746E-1,-1.3405377E-1,2.4728554E-1,-2.953439E-3,-1.2652585E-4,-4.4895285E-3,-6.7074625E-3,1.0024355E-3,-2.6360916E-3,1.4068023E-3,3.9215693E-3],"categories":[],"categories_nodes":[],"categories_segments":[],"categories_sizes":[],"default_left":[0,0,0,0,0,0,0,0,0,0,0,0,0,0,0],"id":6,"left_children":[1,3,5,7,9,11,13,-1,-1,-1,-1,-1,-1,-1,-1],"loss_changes":[2.1684506E2,7.9000305E1,9.727662E1,2.443116E1,1.4750946E1,4.3142803E1,1.9472923E1,0E0,0E0,0E0,0E0,0E0,0E0,0E0,0E0],"parents":[2147483647,0,0,1,1,2,2,3,3,4,4,5,5,6,6],"right_children":[2,4,6,8,10,12,14,-1,-1,-1,-1,-1,-1,-1,-1],"split_conditions":[1.5E1,1.3E1,4E-1,5.1E0,2.3E1,-4.6E0,2.4E1,-2.953439E-3,-1.2652585E-4,-4.4895285E-3,-6.7074625E-3,1.0024355E-3,-2.6360916E-3,1.4068023E-3,3.9215693E-3],"split_indices":[51,80,77,77,80,25,51,0,0,0,0,0,0,0,0],"split_type":[0,0,0,0,0,0,0,0,0,0,0,0,0,0,0],"sum_hessian":[5.2469453E3,2.5640767E3,2.6828684E3,1.289935E3,1.2741416E3,1.4194287E3,1.2634397E3,7.924352E2,4.974999E2,7.673551E2,5.067865E2,5.054901E2,9.139386E2,7.2898145E2,5.344583E2],"tree_param":{"num_deleted":"0","num_feature":"280","num_nodes":"15","size_leaf_vector":"1"}},{"base_weights":[1.5318963E-1,3.6107874E-1,-4.5555107E-2,1.8641028E-1,5.376274E-1,1.3405372E-1,-2.4728553E-1,2.953439E-3,1.2652585E-4,4.489527E-3,6.707464E-3,-1.0024363E-3,2.636091E-3,-1.4068024E-3,-3.9215693E-3],"categories":[],"categories_nodes":[],"categories_segments":[],"categories_sizes":[],"default_left":[0,0,0,0,0,0,0,0,0,0,0,0,0,0,0],"id":7,"left_children":[1,3,5,7,9,11,13,-1,-1,-1,-1,-1,-1,-1,-1],"loss_changes":[2.1684508E2,7.9000305E1,9.727658E1,2.443116E1,1.4750977E1,4.3142807E1,1.9472923E1,0E0,0E0,0E0,0E0,0E0,0E0,0E0,0E0],"parents":[2147483647,0,0,1,1,2,2,3,3,4,4,5,5,6,6],"right_children":[2,4,6,8,10,12,14,-1,-1,-1,-1,-1,-1,-1,-1],"split_conditions":[1.5E1,1.3E1,4E-1,5.1E0,2.3E1,-4.6E0,2.4E1,2.953439E-3,1.2652585E-4,4.489527E-3,6.707464E-3,-1.0024363E-3,2.636091E-3,-1.4068024E-3,-3.9215693E-3],"split_indices":[51,80,77,77,80,25,51,0,0,0,0,0,0,0,0],"split_type":[0,0,0,0,0,0,0,0,0,0,0,0,0,0,0],"sum_hessian":[5.2469453E3,2.5640767E3,2.6828684E3,1.2899352E3,1.2741416E3,1.4194287E3,1.2634398E3,7.9243524E2,4.974999E2,7.673551E2,5.067865E2,5.054901E2,9.139386E2,7.2898145E2,5.344583E2],"tree_param":{"num_deleted":"0","num_feature":"280","num_nodes":"15","size_leaf_vector":"1"}},{"base_weights":[-1.5167195E-1,-3.5751867E-1,4.5102555E-2,-1.845557E-1,-5.323742E-1,-2.1908928E-1,1.8017946E-1,-2.9241245E-3,-1.252633E-4,-4.445331E-3,-6.642653E-3,5.7996984E-4,-3.6132592E-3,1.1260784E-3,3.8334748E-3],"categories":[],"categories_nodes":[],"categories_segments":[],"categories_sizes":[],"default_left":[0,0,0,0,0,0,0,0,0,0,0,0,0,0,0],"id":8,"left_children":[1,3,5,7,9,11,13,-1,-1,-1,-1,-1,-1,-1,-1],"loss_changes":[2.125693E2,7.7468994E1,9.581317E1,2.394812E1,1.447464E1,3.5822674E1,2.4343575E1,0E0,0E0,0E0,0E0,0E0,0E0,0E0,0E0],"parents":[2147483647,0,0,1,1,2,2,3,3,4,4,5,5,6,6],"right_children":[2,4,6,8,10,12,14,-1,-1,-1,-1,-1,-1,-1,-1],"split_conditions":[1.5E1,1.3E1,-1.9E0,5.1E0,2.3E1,-4.8E0,2.7E1,-2.9241245E-3,-1.252633E-4,-4.445331E-3,-6.642653E-3,5.7996984E-4,-3.6132592E-3,1.1260784E-3,3.8334748E-3],"split_indices":[51,80,77,77,80,25,51,0,0,0,0,0,0,0,0],"split_type":[0,0,0,0,0,0,0,0,0,0,0,0,0,0,0],"sum_hessian":[5.2465283E3,2.5637551E3,2.6827732E3,1.2898859E3,1.2738693E3,9.074006E2,1.7753727E3,7.92386E2,4.9749985E2,7.6724506E2,5.066242E2,3.0799615E2,5.994044E2,1.3334388E3,4.4193384E2],"tree_param":{"num_deleted":"0","num_feature":"280","num_nodes":"15","size_leaf_vector":"1"}},{"base_weights":[1.5167193E-1,3.5751864E-1,-4.510255E-2,1.8455563E-1,5.323742E-1,2.1908936E-1,-1.8017948E-1,2.9241235E-3,1.2526358E-4,4.445331E-3,6.642653E-3,-5.7996955E-4,3.61326E-3,-1.1260787E-3,-3.8334753E-3],"categories":[],"categories_nodes":[],"categories_segments":[],"categories_sizes":[],"default_left":[0,0,0,0,0,0,0,0,0,0,0,0,0,0,0],"id":9,"left_children":[1,3,5,7,9,11,13,-1,-1,-1,-1,-1,-1,-1,-1],"loss_changes":[2.1256923E2,7.7469055E1,9.5813225E1,2.394809E1,1.447467E1,3.582268E1,2.4343578E1,0E0,0E0,0E0,0E0,0E0,0E0,0E0,0E0],"parents":[2147483647,0,0,1,1,2,2,3,3,4,4,5,5,6,6],"right_children":[2,4,6,8,10,12,14,-1,-1,-1,-1,-1,-1,-1,-1],"split_conditions":[1.5E1,1.3E1,-1.9E0,5.1E0,2.3E1,-4.8E0,2.7E1,2.9241235E-3,1.2526358E-4,4.445331E-3,6.642653E-3,-5.7996955E-4,3.61326E-3,-1.1260787E-3,-3.8334753E-3],"split_indices":[51,80,77,77,80,25,51,0,0,0,0,0,0,0,0],"split_type":[0,0,0,0,0,0,0,0,0,0,0,0,0,0,0],"sum_hessian":[5.2465283E3,2.5637551E3,2.6827732E3,1.2898859E3,1.2738693E3,9.074005E2,1.7753727E3,7.9238605E2,4.9749988E2,7.67245E2,5.066242E2,3.0799615E2,5.9940436E2,1.3334388E3,4.4193384E2],"tree_param":{"num_deleted":"0","num_feature":"280","num_nodes":"15","size_leaf_vector":"1"}},{"base_weights":[-1.5017301E-1,-3.5400563E-1,4.4654317E-2,-1.8272135E-1,-5.272026E-1,-1.2963876E-1,2.4606125E-1,-2.895148E-3,-1.2401324E-4,-4.4017388E-3,-6.579034E-3,1.1736609E-3,-2.598294E-3,1.5272084E-3,3.718056E-3],"categories":[],"categories_nodes":[],"categories_segments":[],"categories_sizes":[],"default_left":[0,0,0,0,0,0,0,0,0,0,0,0,0,0,0],"id":10,"left_children":[1,3,5,7,9,11,13,-1,-1,-1,-1,-1,-1,-1,-1],"loss_changes":[2.0838533E2,7.597742E1,9.423821E1,2.3475277E1,1.4207764E1,4.6315628E1,1.45597E1,0E0,0E0,0E0,0E0,0E0,0E0,0E0,0E0],"parents":[2147483647,0,0,1,1,2,2,3,3,4,4,5,5,6,6],"right_children":[2,4,6,8,10,12,14,-1,-1,-1,-1,-1,-1,-1,-1],"split_conditions":[1.5E1,1.3E1,5.19E-1,5.1E0,2.3E1,-4.8E0,2.4E1,-2.895148E-3,-1.2401324E-4,-4.4017388E-3,-6.579034E-3,1.1736609E-3,-2.598294E-3,1.5272084E-3,3.718056E-3],"split_indices":[51,80,55,77,80,25,51,0,0,0,0,0,0,0,0],"split_type":[0,0,0,0,0,0,0,0,0,0,0,0,0,0,0],"sum_hessian":[5.245995E3,2.5633477E3,2.6826472E3,1.2898235E3,1.2735242E3,1.4383165E3,1.2443308E3,7.923237E2,4.974998E2,7.6710547E2,5.0641867E2,4.9647516E2,9.418414E2,7.1545844E2,5.288724E2],"tree_param":{"num_deleted":"0","num_feature":"280","num_nodes":"15","size_leaf_vector":"1"}},{"base_weights":[1.5017301E-1,3.5400563E-1,-4.4654332E-2,1.8272133E-1,5.2720267E-1,1.2963878E-1,-2.4606128E-1,2.8951478E-3,1.2401324E-4,4.401739E-3,6.579034E-3,-1.173661E-3,2.5982945E-3,-1.5272085E-3,-3.7180565E-3],"categories":[],"categories_nodes":[],"categories_segments":[],"categories_sizes":[],"default_left":[0,0,0,0,0,0,0,0,0,0,0,0,0,0,0],"id":11,"left_children":[1,3,5,7,9,11,13,-1,-1,-1,-1,-1,-1,-1,-1],"loss_changes":[2.0838536E2,7.597742E1,9.423823E1,2.347528E1,1.4207794E1,4.6315655E1,1.4559715E1,0E0,0E0,0E0,0E0,0E0,0E0,0E0,0E0],"parents":[2147483647,0,0,1,1,2,2,3,3,4,4,5,5,6,6],"right_children":[2,4,6,8,10,12,14,-1,-1,-1,-1,-1,-1,-1,-1],"split_conditions":[1.5E1,1.3E1,5.19E-1,5.1E0,2.3E1,-4.8E0,2.4E1,2.8951478E-3,1.2401324E-4,4.401739E-3,6.579034E-3,-1.173661E-3,2.5982945E-3,-1.5272085E-3,-3.7180565E-3],"split_indices":[51,80,55,77,80,25,51,0,0,0,0,0,0,0,0],"split_type":[0,0,0,0,0,0,0,0,0,0,0,0,0,0,0],"sum_hessian":[5.245995E3,2.5633477E3,2.6826472E3,1.2898235E3,1.2735242E3,1.4383165E3,1.2443308E3,7.9232367E2,4.974998E2,7.671055E2,5.064187E2,4.9647516E2,9.418413E2,7.1545844E2,5.288724E2],"tree_param":{"num_deleted":"0","num_feature":"280","num_nodes":"15","size_leaf_vector":"1"}},{"base_weights":[-1.4869161E-1,-3.5053855E-1,4.4211704E-2,-1.8090704E-1,-5.221103E-1,-2.1568093E-1,1.7708446E-1,-2.7115887E-3,1.6790869E-4,-4.3587363E-3,-6.5165665E-3,5.618812E-4,-3.5526287E-3,4.7357063E-4,2.7987715E-3],"categories":[],"categories_nodes":[],"categories_segments":[],"categories_sizes":[],"default_left":[0,0,0,0,0,0,0,0,0,0,0,0,0,0,0],"id":12,"left_children":[1,3,5,7,9,11,13,-1,-1,-1,-1,-1,-1,-1,-1],"loss_changes":[2.0429247E2,7.452399E1,9.270646E1,2.3034863E1,1.394986E1,3.4487366E1,2.367266E1,0E0,0E0,0E0,0E0,0E0,0E0,0E0,0E0],"parents":[2147483647,0,0,1,1,2,2,3,3,4,4,5,5,6,6],"right_children":[2,4,6,8,10,12,14,-1,-1,-1,-1,-1,-1,-1,-1],"split_conditions":[1.5E1,1.3E1,-1.9E0,6E0,2.3E1,-4.8E0,5.68E-1,-2.7115887E-3,1.6790869E-4,-4.3587363E-3,-6.5165665E-3,5.618812E-4,-3.5526287E-3,4.7357063E-4,2.7987715E-3],"split_indices":[51,80,77,77,80,25,55,0,0,0,0,0,0,0,0],"split_type":[0,0,0,0,0,0,0,0,0,0,0,0,0,0,0],"sum_hessian":[5.245354E3,2.5628572E3,2.6824968E3,1.2897484E3,1.2731089E3,9.072795E2,1.7752175E3,8.852486E2,4.044998E2,7.669376E2,5.0617123E2,3.079911E2,5.992884E2,7.854355E2,9.89782E2],"tree_param":{"num_deleted":"0","num_feature":"280","num_nodes":"15","size_leaf_vector":"1"}},{"base_weights":[1.486916E-1,3.5053855E-1,-4.4211727E-2,1.809071E-1,5.221102E-1,2.1568084E-1,-1.7708446E-1,2.7115897E-3,-1.6790898E-4,4.3587363E-3,6.5165665E-3,-5.618821E-4,3.5526277E-3,-4.7357028E-4,-2.7987717E-3],"categories":[],"categories_nodes":[],"categories_segments":[],"categories_sizes":[],"default_left":[0,0,0,0,0,0,0,0,0,0,0,0,0,0,0],"id":13,"left_children":[1,3,5,7,9,11,13,-1,-1,-1,-1,-1,-1,-1,-1],"loss_changes":[2.0429251E2,7.452396E1,9.270641E1,2.3034878E1,1.394986E1,3.4487366E1,2.3672676E1,0E0,0E0,0E0,0E0,0E0,0E0,0E0,0E0],"parents":[2147483647,0,0,1,1,2,2,3,3,4,4,5,5,6,6],"right_children":[2,4,6,8,10,12,14,-1,-1,-1,-1,-1,-1,-1,-1],"split_conditions":[1.5E1,1.3E1,-1.9E0,6E0,2.3E1,-4.8E0,5.68E-1,2.7115897E-3,-1.6790898E-4,4.3587363E-3,6.5165665E-3,-5.618821E-4,3.5526277E-3,-4.7357028E-4,-2.7987717E-3],"split_indices":[51,80,77,77,80,25,55,0,0,0,0,0,0,0,0],"split_type":[0,0,0,0,0,0,0,0,0,0,0,0,0,0,0],"sum_hessian":[5.245354E3,2.5628572E3,2.6824968E3,1.2897483E3,1.2731088E3,9.072795E2,1.7752175E3,8.8524854E2,4.0449976E2,7.669376E2,5.0617123E2,3.0799106E2,5.992884E2,7.854355E2,9.89782E2],"tree_param":{"num_deleted":"0","num_feature":"280","num_nodes":"15","size_leaf_vector":"1"}},{"base_weights":[-1.4722836E-1,-3.471157E-1,4.3772552E-2,-1.7911159E-1,-5.17095E-1,1.9674122E-1,-1.778826E-1,-2.8397196E-3,-1.1907858E-4,-4.3163104E-3,-6.4552147E-3,9.574681E-4,3.286548E-3,8.294557E-4,-3.052655E-3],"categories":[],"categories_nodes":[],"categories_segments":[],"categories_sizes":[],"default_left":[0,0,0,0,0,0,0,0,0,0,0,0,0,0,0],"id":14,"left_children":[1,3,5,7,9,11,13,-1,-1,-1,-1,-1,-1,-1,-1],"loss_changes":[2.0028558E2,7.310782E1,9.101643E1,2.2625912E1,1.370047E1,2.112638E1,3.644644E1,0E0,0E0,0E0,0E0,0E0,0E0,0E0,0E0],"parents":[2147483647,0,0,1,1,2,2,3,3,4,4,5,5,6,6],"right_children":[2,4,6,8,10,12,14,-1,-1,-1,-1,-1,-1,-1,-1],"split_conditions":[1.5E1,1.3E1,1.8E1,5.1E0,2.3E1,2.4E1,-4.9E0,-2.8397196E-3,-1.1907858E-4,-4.3163104E-3,-6.4552147E-3,9.574681E-4,3.286548E-3,8.294557E-4,-3.052655E-3],"split_indices":[51,80,81,77,80,51,25,0,0,0,0,0,0,0,0],"split_type":[0,0,0,0,0,0,0,0,0,0,0,0,0,0,0],"sum_hessian":[5.2446104E3,2.5622903E3,2.6823198E3,1.289665E3,1.2726252E3,1.5871252E3,1.0951947E3,7.921663E2,4.9749875E2,7.6674207E2,5.0588315E2,8.9988763E2,6.872376E2,3.5947842E2,7.3571625E2],"tree_param":{"num_deleted":"0","num_feature":"280","num_nodes":"15","size_leaf_vector":"1"}},{"base_weights":[1.4722836E-1,3.4711573E-1,-4.377257E-2,1.791116E-1,5.17095E-1,-1.9674127E-1,1.7788258E-1,2.8397196E-3,1.1907931E-4,4.3163104E-3,6.455215E-3,-9.574687E-4,-3.286548E-3,-8.2945556E-4,3.0526544E-3],"categories":[],"categories_nodes":[],"categories_segments":[],"categories_sizes":[],"default_left":[0,0,0,0,0,0,0,0,0,0,0,0,0,0,0],"id":15,"left_children":[1,3,5,7,9,11,13,-1,-1,-1,-1,-1,-1,-1,-1],"loss_changes":[2.0028566E2,7.310785E1,9.101645E1,2.2625893E1,1.370047E1,2.112637E1,3.6446426E1,0E0,0E0,0E0,0E0,0E0,0E0,0E0,0E0],"parents":[2147483647,0,0,1,1,2,2,3,3,4,4,5,5,6,6],"right_children":[2,4,6,8,10,12,14,-1,-1,-1,-1,-1,-1,-1,-1],"split_conditions":[1.5E1,1.3E1,1.8E1,5.1E0,2.3E1,2.4E1,-4.9E0,2.8397196E-3,1.1907931E-4,4.3163104E-3,6.455215E-3,-9.574687E-4,-3.286548E-3,-8.2945556E-4,3.0526544E-3],"split_indices":[51,80,81,77,80,51,25,0,0,0,0,0,0,0,0],"split_type":[0,0,0,0,0,0,0,0,0,0,0,0,0,0,0],"sum_hessian":[5.2446104E3,2.5622903E3,2.6823198E3,1.289665E3,1.2726252E3,1.5871252E3,1.0951947E3,7.9216626E2,4.9749872E2,7.6674207E2,5.0588315E2,8.9988763E2,6.872376E2,3.594784E2,7.357163E2],"tree_param":{"num_deleted":"0","num_feature":"280","num_nodes":"15","size_leaf_vector":"1"}},{"base_weights":[-1.4578201E-1,-3.063343E-1,8.744455E-2,-1.2602565E-1,-4.8488355E-1,-1.7341022E-1,1.982252E-1,-2.5430839E-3,3.5430508E-4,-3.6603676E-3,-5.6816614E-3,3.2386402E-4,-3.248746E-3,3.6916335E-3,1.1776137E-3],"categories":[],"categories_nodes":[],"categories_segments":[],"categories_sizes":[],"default_left":[0,0,0,0,0,0,0,0,0,0,0,0,0,0,0],"id":16,"left_children":[1,3,5,7,9,11,13,-1,-1,-1,-1,-1,-1,-1,-1],"loss_changes":[1.9641745E2,9.995215E1,6.185183E1,3.20511E1,1.523819E1,1.9903833E1,2.0615303E1,0E0,0E0,0E0,0E0,0E0,0E0,0E0,0E0],"parents":[2147483647,0,0,1,1,2,2,3,3,4,4,5,5,6,6],"right_children":[2,4,6,8,10,12,14,-1,-1,-1,-1,-1,-1,-1,-1],"split_conditions":[1.7E1,1.3E1,4.1E-1,1E1,2.2E0,-4.6E0,-5.9E0,-2.5430839E-3,3.5430508E-4,-3.6603676E-3,-5.6816614E-3,3.2386402E-4,-3.248746E-3,3.6916335E-3,1.1776137E-3],"split_indices":[27,80,55,51,25,25,25,0,0,0,0,0,0,0,0],"split_type":[0,0,0,0,0,0,0,0,0,0,0,0,0,0,0],"sum_hessian":[5.243768E3,3.105583E3,2.138185E3,1.5460275E3,1.5595557E3,6.372022E2,1.5009829E3,8.611988E2,6.848286E2,6.448006E2,9.147551E2,2.704816E2,3.6672064E2,4.7925687E2,1.0217261E3],"tree_param":{"num_deleted":"0","num_feature":"280","num_nodes":"15","size_leaf_vector":"1"}},{"base_weights":[1.4578202E-1,3.0633432E-1,-8.744456E-2,1.2602569E-1,4.8488358E-1,1.734102E-1,-1.9822522E-1,2.5430846E-3,-3.5430485E-4,3.660368E-3,5.6816614E-3,-3.2386396E-4,3.248746E-3,-3.6916335E-3,-1.1776139E-3],"categories":[],"categories_nodes":[],"categories_segments":[],"categories_sizes":[],"default_left":[0,0,0,0,0,0,0,0,0,0,0,0,0,0,0],"id":17,"left_children":[1,3,5,7,9,11,13,-1,-1,-1,-1,-1,-1,-1,-1],"loss_changes":[1.9641748E2,9.995212E1,6.185182E1,3.205111E1,1.523822E1,1.9903833E1,2.061531E1,0E0,0E0,0E0,0E0,0E0,0E0,0E0,0E0],"parents":[2147483647,0,0,1,1,2,2,3,3,4,4,5,5,6,6],"right_children":[2,4,6,8,10,12,14,-1,-1,-1,-1,-1,-1,-1,-1],"split_conditions":[1.7E1,1.3E1,4.1E-1,1E1,2.2E0,-4.6E0,-5.9E0,2.5430846E-3,-3.5430485E-4,3.660368E-3,5.6816614E-3,-3.2386396E-4,3.248746E-3,-3.6916335E-3,-1.1776139E-3],"split_indices":[27,80,55,51,25,25,25,0,0,0,0,0,0,0,0],"split_type":[0,0,0,0,0,0,0,0,0,0,0,0,0,0,0],"sum_hessian":[5.243768E3,3.105583E3,2.138185E3,1.5460273E3,1.5595557E3,6.372022E2,1.5009829E3,8.611988E2,6.848286E2,6.4480054E2,9.1475507E2,2.704816E2,3.667206E2,4.7925687E2,1.0217261E3],"tree_param":{"num_deleted":"0","num_feature":"280","num_nodes":"15","size_leaf_vector":"1"}},{"base_weights":[-1.4434972E-1,-3.405724E-1,4.3082558E-2,-1.758038E-1,-5.074042E-1,-1.2840676E-1,2.356951E-1,-2.6439123E-3,1.8191166E-4,-4.2269854E-3,-6.3477037E-3,9.324984E-4,-2.5100945E-3,1.3352185E-3,3.7461629E-3],"categories":[],"categories_nodes":[],"categories_segments":[],"categories_sizes":[],"default_left":[0,0,0,0,0,0,0,0,0,0,0,0,0,0,0],"id":18,"left_children":[1,3,5,7,9,11,13,-1,-1,-1,-1,-1,-1,-1,-1],"loss_changes":[1.928779E2,7.033661E1,8.864983E1,2.2182705E1,1.3460175E1,3.861106E1,1.789109E1,0E0,0E0,0E0,0E0,0E0,0E0,0E0,0E0],"parents":[2147483647,0,0,1,1,2,2,3,3,4,4,5,5,6,6],"right_children":[2,4,6,8,10,12,14,-1,-1,-1,-1,-1,-1,-1,-1],"split_conditions":[1.5E1,1.3E1,4E-1,6E0,2.3E1,-4.6E0,2.4E1,-2.6439123E-3,1.8191166E-4,-4.2269854E-3,-6.3477037E-3,9.324984E-4,-2.5100945E-3,1.3352185E-3,3.7461629E-3],"split_indices":[51,80,77,77,80,25,51,0,0,0,0,0,0,0,0],"split_type":[0,0,0,0,0,0,0,0,0,0,0,0,0,0,0],"sum_hessian":[5.242918E3,2.5609966E3,2.6819216E3,1.2894988E3,1.2714977E3,1.4189325E3,1.2629893E3,8.850015E2,4.0449725E2,7.662305E2,5.0526718E2,5.0541638E2,9.1351605E2,7.28878E2,5.3411127E2],"tree_param":{"num_deleted":"0","num_feature":"280","num_nodes":"15","size_leaf_vector":"1"}},{"base_weights":[1.4434971E-1,3.405724E-1,-4.3082584E-2,1.758038E-1,5.074042E-1,1.2840673E-1,-2.3569511E-1,2.6439126E-3,-1.819117E-4,4.226986E-3,6.3477037E-3,-9.3249884E-4,2.5100943E-3,-1.3352187E-3,-3.746163E-3],"categories":[],"categories_nodes":[],"categories_segments":[],"categories_sizes":[],"default_left":[0,0,0,0,0,0,0,0,0,0,0,0,0,0,0],"id":19,"left_children":[1,3,5,7,9,11,13,-1,-1,-1,-1,-1,-1,-1,-1],"loss_changes":[1.9287794E2,7.033658E1,8.864982E1,2.2182705E1,1.3460236E1,3.861107E1,1.7891083E1,0E0,0E0,0E0,0E0,0E0,0E0,0E0,0E0],"parents":[2147483647,0,0,1,1,2,2,3,3,4,4,5,5,6,6],"right_children":[2,4,6,8,10,12,14,-1,-1,-1,-1,-1,-1,-1,-1],"split_conditions":[1.5E1,1.3E1,4E-1,6E0,2.3E1,-4.6E0,2.4E1,2.6439126E-3,-1.819117E-4,4.226986E-3,6.3477037E-3,-9.3249884E-4,2.5100943E-3,-1.3352187E-3,-3.746163E-3],"split_indices":[51,80,77,77,80,25,51,0,0,0,0,0,0,0,0],"split_type":[0,0,0,0,0,0,0,0,0,0,0,0,0,0,0],"sum_hessian":[5.242918E3,2.5609963E3,2.6819216E3,1.2894988E3,1.2714977E3,1.4189325E3,1.2629893E3,8.8500146E2,4.0449725E2,7.6623047E2,5.0526715E2,5.0541638E2,9.1351605E2,7.28878E2,5.3411127E2],"tree_param":{"num_deleted":"0","num_feature":"280","num_nodes":"15","size_leaf_vector":"1"}},{"base_weights":[-1.4293635E-1,-3.0065468E-1,8.610556E-2,-1.2360652E-1,-4.760986E-1,-1.7216557E-1,1.9468312E-1,-2.500164E-3,3.5472575E-4,-3.9592492E-3,-5.9616314E-3,4.3480357E-4,-3.2089099E-3,1.2026571E-3,3.625722E-3],"categories":[],"categories_nodes":[],"categories_segments":[],"categories_sizes":[],"default_left":[0,0,0,0,0,0,0,0,0,0,0,0,0,0,0],"id":20,"left_children":[1,3,5,7,9,11,13,-1,-1,-1,-1,-1,-1,-1,-1],"loss_changes":[1.8942075E2,9.6391754E1,6.0010586E1,3.1114403E1,1.4773468E1,2.033344E1,1.8775124E1,0E0,0E0,0E0,0E0,0E0,0E0,0E0,0E0],"parents":[2147483647,0,0,1,1,2,2,3,3,4,4,5,5,6,6],"right_children":[2,4,6,8,10,12,14,-1,-1,-1,-1,-1,-1,-1,-1],"split_conditions":[1.7E1,1.3E1,-2.4E0,1E1,2.3E1,-4.8E0,2.7E1,-2.500164E-3,3.5472575E-4,-3.9592492E-3,-5.9616314E-3,4.3480357E-4,-3.2089099E-3,1.2026571E-3,3.625722E-3],"split_indices":[27,80,77,51,80,25,51,0,0,0,0,0,0,0,0],"split_type":[0,0,0,0,0,0,0,0,0,0,0,0,0,0,0],"sum_hessian":[5.241893E3,3.1040974E3,2.1377954E3,1.5458335E3,1.558264E3,6.3255786E2,1.5052375E3,8.61045E2,6.847885E2,9.3692535E2,6.213387E2,2.5847992E2,3.7407794E2,1.0441367E3,4.6110086E2],"tree_param":{"num_deleted":"0","num_feature":"280","num_nodes":"15","size_leaf_vector":"1"}},{"base_weights":[1.4293633E-1,3.0065465E-1,-8.610556E-2,1.2360652E-1,4.7609854E-1,1.7216556E-1,-1.9468312E-1,2.500164E-3,-3.547256E-4,3.9592483E-3,5.9616314E-3,-4.3480433E-4,3.2089099E-3,-1.2026572E-3,-3.6257212E-3],"categories":[],"categories_nodes":[],"categories_segments":[],"categories_sizes":[],"default_left":[0,0,0,0,0,0,0,0,0,0,0,0,0,0,0],"id":21,"left_children":[1,3,5,7,9,11,13,-1,-1,-1,-1,-1,-1,-1,-1],"loss_changes":[1.894207E2,9.6391754E1,6.0010574E1,3.1114403E1,1.4773499E1,2.033345E1,1.877512E1,0E0,0E0,0E0,0E0,0E0,0E0,0E0,0E0],"parents":[2147483647,0,0,1,1,2,2,3,3,4,4,5,5,6,6],"right_children":[2,4,6,8,10,12,14,-1,-1,-1,-1,-1,-1,-1,-1],"split_conditions":[1.7E1,1.3E1,-2.4E0,1E1,2.3E1,-4.8E0,2.7E1,2.500164E-3,-3.547256E-4,3.9592483E-3,5.9616314E-3,-4.3480433E-4,3.2089099E-3,-1.2026572E-3,-3.6257212E-3],"split_indices":[27,80,77,51,80,25,51,0,0,0,0,0,0,0,0],"split_type":[0,0,0,0,0,0,0,0,0,0,0,0,0,0,0],"sum_hessian":[5.241893E3,3.1040977E3,2.1377954E3,1.5458335E3,1.558264E3,6.3255786E2,1.5052375E3,8.61045E2,6.847885E2,9.3692535E2,6.213387E2,2.584799E2,3.7407794E2,1.0441367E3,4.6110086E2],"tree_param":{"num_deleted":"0","num_feature":"280","num_nodes":"15","size_leaf_vector":"1"}},{"base_weights":[-1.4153723E-1,-3.3433947E-1,4.2553026E-2,-1.7255914E-1,-4.9829337E-1,-1.2609717E-1,2.3197627E-1,-2.7540266E-3,-8.644764E-5,-4.1501396E-3,-6.2362202E-3,9.1037207E-4,-2.462204E-3,1.3157753E-3,3.6852765E-3],"categories":[],"categories_nodes":[],"categories_segments":[],"categories_sizes":[],"default_left":[0,0,0,0,0,0,0,0,0,0,0,0,0,0,0],"id":22,"left_children":[1,3,5,7,9,11,13,-1,-1,-1,-1,-1,-1,-1,-1],"loss_changes":[1.8606348E2,6.782892E1,8.572187E1,2.1748917E1,1.3008606E1,3.70511E1,1.7276917E1,0E0,0E0,0E0,0E0,0E0,0E0,0E0,0E0],"parents":[2147483647,0,0,1,1,2,2,3,3,4,4,5,5,6,6],"right_children":[2,4,6,8,10,12,14,-1,-1,-1,-1,-1,-1,-1,-1],"split_conditions":[1.5E1,1.3E1,4E-1,5.1E0,2.3E1,-4.6E0,2.4E1,-2.7540266E-3,-8.644764E-5,-4.1501396E-3,-6.2362202E-3,9.1037207E-4,-2.462204E-3,1.3157753E-3,3.6852765E-3],"split_indices":[51,80,77,77,80,25,51,0,0,0,0,0,0,0,0],"split_type":[0,0,0,0,0,0,0,0,0,0,0,0,0,0,0],"sum_hessian":[5.2408564E3,2.5594575E3,2.6813987E3,1.2893013E3,1.2701562E3,1.4186547E3,1.262744E3,7.918173E2,4.97484E2,7.656816E2,5.0447467E2,5.0537772E2,9.13277E2,7.2883514E2,5.339089E2],"tree_param":{"num_deleted":"0","num_feature":"280","num_nodes":"15","size_leaf_vector":"1"}},{"base_weights":[1.4153725E-1,3.3433947E-1,-4.2553004E-2,1.7255916E-1,4.9829337E-1,1.2609719E-1,-2.3197624E-1,2.7540263E-3,8.6448636E-5,4.1501396E-3,6.2362202E-3,-9.103721E-4,2.4622043E-3,-1.3157749E-3,-3.685276E-3],"categories":[],"categories_nodes":[],"categories_segments":[],"categories_sizes":[],"default_left":[0,0,0,0,0,0,0,0,0,0,0,0,0,0,0],"id":23,"left_children":[1,3,5,7,9,11,13,-1,-1,-1,-1,-1,-1,-1,-1],"loss_changes":[1.8606349E2,6.782886E1,8.572186E1,2.1748898E1,1.3008636E1,3.705111E1,1.7276924E1,0E0,0E0,0E0,0E0,0E0,0E0,0E0,0E0],"parents":[2147483647,0,0,1,1,2,2,3,3,4,4,5,5,6,6],"right_children":[2,4,6,8,10,12,14,-1,-1,-1,-1,-1,-1,-1,-1],"split_conditions":[1.5E1,1.3E1,4E-1,5.1E0,2.3E1,-4.6E0,2.4E1,2.7540263E-3,8.6448636E-5,4.1501396E-3,6.2362202E-3,-9.103721E-4,2.4622043E-3,-1.3157749E-3,-3.685276E-3],"split_indices":[51,80,77,77,80,25,51,0,0,0,0,0,0,0,0],"split_type":[0,0,0,0,0,0,0,0,0,0,0,0,0,0,0],"sum_hessian":[5.2408564E3,2.5594575E3,2.6813987E3,1.2893014E3,1.2701562E3,1.4186547E3,1.262744E3,7.918173E2,4.97484E2,7.656815E2,5.044747E2,5.0537775E2,9.13277E2,7.2883514E2,5.339089E2],"tree_param":{"num_deleted":"0","num_feature":"280","num_nodes":"15","size_leaf_vector":"1"}},{"base_weights":[-1.401564E-1,1.0480116E-1,-2.825813E-1,-1.8700051E-1,1.9720662E-1,-1.07435666E-1,-4.5608303E-1,1.4968067E-4,-3.4683126E-3,9.3035825E-4,3.0812537E-3,-2.4773716E-3,4.768894E-4,-5.78311E-3,-3.77242E-3],"categories":[],"categories_nodes":[],"categories_segments":[],"categories_sizes":[],"default_left":[0,0,0,0,0,0,0,0,0,0,0,0,0,0,0],"id":24,"left_children":[1,3,5,7,9,11,13,-1,-1,-1,-1,-1,-1,-1,-1],"loss_changes":[1.8286565E2,5.201024E1,1.0066147E2,1.4986591E1,1.6891827E1,3.593512E1,1.5822662E1,0E0,0E0,0E0,0E0,0E0,0E0,0E0,0E0],"parents":[2147483647,0,0,1,1,2,2,3,3,4,4,5,5,6,6],"right_children":[2,4,6,8,10,12,14,-1,-1,-1,-1,-1,-1,-1,-1],"split_conditions":[4.5E-1,3.72E-1,1.3E1,-4.8E0,5.68E-1,1E1,8E0,1.4968067E-4,-3.4683126E-3,9.3035825E-4,3.0812537E-3,-2.4773716E-3,4.768894E-4,-5.78311E-3,-3.77242E-3],"split_indices":[3,55,80,25,55,51,51,0,0,0,0,0,0,0,0],"split_type":[0,0,0,0,0,0,0,0,0,0,0,0,0,0,0],"sum_hessian":[5.239649E3,1.9265045E3,3.3131448E3,4.6309637E2,1.4634081E3,1.6495674E3,1.6635773E3,2.0498077E2,2.581156E2,7.5560785E2,7.0780023E2,8.65854E2,7.837134E2,6.498199E2,1.0137574E3],"tree_param":{"num_deleted":"0","num_feature":"280","num_nodes":"15","size_leaf_vector":"1"}},{"base_weights":[1.4015642E-1,-1.0480116E-1,2.825813E-1,1.8700051E-1,-1.9720662E-1,1.0743568E-1,4.5608306E-1,-1.4968163E-4,3.4683133E-3,-9.3035813E-4,-3.0812537E-3,2.477372E-3,-4.7688963E-4,5.78311E-3,3.77242E-3],"categories":[],"categories_nodes":[],"categories_segments":[],"categories_sizes":[],"default_left":[0,0,0,0,0,0,0,0,0,0,0,0,0,0,0],"id":25,"left_children":[1,3,5,7,9,11,13,-1,-1,-1,-1,-1,-1,-1,-1],"loss_changes":[1.8286568E2,5.201024E1,1.0066144E2,1.4986603E1,1.689183E1,3.593514E1,1.5822693E1,0E0,0E0,0E0,0E0,0E0,0E0,0E0,0E0],"parents":[2147483647,0,0,1,1,2,2,3,3,4,4,5,5,6,6],"right_children":[2,4,6,8,10,12,14,-1,-1,-1,-1,-1,-1,-1,-1],"split_conditions":[4.5E-1,3.72E-1,1.3E1,-4.8E0,5.68E-1,1E1,8E0,-1.4968163E-4,3.4683133E-3,-9.3035813E-4,-3.0812537E-3,2.477372E-3,-4.7688963E-4,5.78311E-3,3.77242E-3],"split_indices":[3,55,80,25,55,51,51,0,0,0,0,0,0,0,0],"split_type":[0,0,0,0,0,0,0,0,0,0,0,0,0,0,0],"sum_hessian":[5.2396494E3,1.9265045E3,3.3131448E3,4.630964E2,1.4634081E3,1.6495674E3,1.6635773E3,2.0498077E2,2.5811563E2,7.556079E2,7.0780023E2,8.6585406E2,7.837134E2,6.498199E2,1.0137573E3],"tree_param":{"num_deleted":"0","num_feature":"280","num_nodes":"15","size_leaf_vector":"1"}},{"base_weights":[-1.3878869E-1,-2.9237333E-1,8.412831E-2,-1.20130785E-1,-4.6327794E-1,-1.6679019E-1,1.9067557E-1,-2.4334746E-3,3.488676E-4,-3.5093494E-3,-5.466808E-3,2.9215144E-4,-3.1117678E-3,3.5524745E-3,1.1325422E-3],"categories":[],"categories_nodes":[],"categories_segments":[],"categories_sizes":[],"default_left":[0,0,0,0,0,0,0,0,0,0,0,0,0,0,0],"id":26,"left_children":[1,3,5,7,9,11,13,-1,-1,-1,-1,-1,-1,-1,-1],"loss_changes":[1.794062E2,9.1269165E1,5.7192917E1,2.9547607E1,1.4395782E1,1.8059692E1,1.9088024E1,0E0,0E0,0E0,0E0,0E0,0E0,0E0,0E0],"parents":[2147483647,0,0,1,1,2,2,3,3,4,4,5,5,6,6],"right_children":[2,4,6,8,10,12,14,-1,-1,-1,-1,-1,-1,-1,-1],"split_conditions":[1.7E1,1.3E1,4.1E-1,1E1,2E1,-4.6E0,-5.9E0,-2.4334746E-3,3.488676E-4,-3.5093494E-3,-5.466808E-3,2.9215144E-4,-3.1117678E-3,3.5524745E-3,1.1325422E-3],"split_indices":[27,80,55,51,80,25,25,0,0,0,0,0,0,0,0],"split_type":[0,0,0,0,0,0,0,0,0,0,0,0,0,0,0],"sum_hessian":[5.2384653E3,3.101377E3,2.1370886E3,1.5454904E3,1.5558865E3,6.368182E2,1.5002704E3,8.607489E2,6.847415E2,6.651467E2,8.9073975E2,2.7046228E2,3.6635587E2,4.7883618E2,1.0214342E3],"tree_param":{"num_deleted":"0","num_feature":"280","num_nodes":"15","size_leaf_vector":"1"}},{"base_weights":[1.387887E-1,2.9237336E-1,-8.41283E-2,1.20130785E-1,4.6327797E-1,1.6679025E-1,-1.9067557E-1,2.4334749E-3,-3.488679E-4,3.5093497E-3,5.466808E-3,-2.9215074E-4,3.1117683E-3,-3.5524745E-3,-1.1325423E-3],"categories":[],"categories_nodes":[],"categories_segments":[],"categories_sizes":[],"default_left":[0,0,0,0,0,0,0,0,0,0,0,0,0,0,0],"id":27,"left_children":[1,3,5,7,9,11,13,-1,-1,-1,-1,-1,-1,-1,-1],"loss_changes":[1.7940625E2,9.1269135E1,5.7192936E1,2.9547625E1,1.4395782E1,1.8059689E1,1.9088024E1,0E0,0E0,0E0,0E0,0E0,0E0,0E0,0E0],"parents":[2147483647,0,0,1,1,2,2,3,3,4,4,5,5,6,6],"right_children":[2,4,6,8,10,12,14,-1,-1,-1,-1,-1,-1,-1,-1],"split_conditions":[1.7E1,1.3E1,4.1E-1,1E1,2E1,-4.6E0,-5.9E0,2.4334749E-3,-3.488679E-4,3.5093497E-3,5.466808E-3,-2.9215074E-4,3.1117683E-3,-3.5524745E-3,-1.1325423E-3],"split_indices":[27,80,55,51,80,25,25,0,0,0,0,0,0,0,0],"split_type":[0,0,0,0,0,0,0,0,0,0,0,0,0,0,0],"sum_hessian":[5.2384653E3,3.101377E3,2.1370886E3,1.5454905E3,1.5558865E3,6.368182E2,1.5002704E3,8.607489E2,6.847415E2,6.6514667E2,8.907398E2,2.7046228E2,3.6635587E2,4.7883618E2,1.0214342E3],"tree_param":{"num_deleted":"0","num_feature":"280","num_nodes":"15","size_leaf_vector":"1"}},{"base_weights":[-1.3743648E-1,-3.2532477E-1,4.1834332E-2,-1.6794962E-1,-4.8507038E-1,-2.0231964E-1,1.6661227E-1,-2.5485435E-3,2.2251306E-4,-4.0290416E-3,-6.0887993E-3,5.062805E-4,-3.3236104E-3,3.1526883E-3,8.4785826E-4],"categories":[],"categories_nodes":[],"categories_segments":[],"categories_sizes":[],"default_left":[0,0,0,0,0,0,0,0,0,0,0,0,0,0,0],"id":28,"left_children":[1,3,5,7,9,11,13,-1,-1,-1,-1,-1,-1,-1,-1],"loss_changes":[1.7645093E2,6.422003E1,8.172424E1,2.1327835E1,1.2661896E1,2.9863121E1,2.1565617E1,0E0,0E0,0E0,0E0,0E0,0E0,0E0,0E0],"parents":[2147483647,0,0,1,1,2,2,3,3,4,4,5,5,6,6],"right_children":[2,4,6,8,10,12,14,-1,-1,-1,-1,-1,-1,-1,-1],"split_conditions":[1.5E1,1.3E1,-1.9E0,6E0,2.3E1,-4.8E0,8E0,-2.5485435E-3,2.2251306E-4,-4.0290416E-3,-6.0887993E-3,5.062805E-4,-3.3236104E-3,3.1526883E-3,8.4785826E-4],"split_indices":[51,80,77,77,80,25,103,0,0,0,0,0,0,0,0],"split_type":[0,0,0,0,0,0,0,0,0,0,0,0,0,0,0],"sum_hessian":[5.2371885E3,2.556736E3,2.6804526E3,1.288957E3,1.267779E3,9.063564E2,1.7740962E3,8.844863E2,4.044707E2,7.646038E2,5.0317523E2,3.0795465E2,5.9840173E2,6.288295E2,1.1452666E3],"tree_param":{"num_deleted":"0","num_feature":"280","num_nodes":"15","size_leaf_vector":"1"}},{"base_weights":[1.3743648E-1,3.253248E-1,-4.183434E-2,1.6794966E-1,4.8507038E-1,2.0231967E-1,-1.666123E-1,2.548544E-3,-2.2251265E-4,4.0290416E-3,6.0887984E-3,-5.0628063E-4,3.3236109E-3,-3.1526887E-3,-8.478585E-4],"categories":[],"categories_nodes":[],"categories_segments":[],"categories_sizes":[],"default_left":[0,0,0,0,0,0,0,0,0,0,0,0,0,0,0],"id":29,"left_children":[1,3,5,7,9,11,13,-1,-1,-1,-1,-1,-1,-1,-1],"loss_changes":[1.7645096E2,6.421997E1,8.172426E1,2.1327839E1,1.2661896E1,2.9863125E1,2.1565613E1,0E0,0E0,0E0,0E0,0E0,0E0,0E0,0E0],"parents":[2147483647,0,0,1,1,2,2,3,3,4,4,5,5,6,6],"right_children":[2,4,6,8,10,12,14,-1,-1,-1,-1,-1,-1,-1,-1],"split_conditions":[1.5E1,1.3E1,-1.9E0,6E0,2.3E1,-4.8E0,8E0,2.548544E-3,-2.2251265E-4,4.0290416E-3,6.0887984E-3,-5.0628063E-4,3.3236109E-3,-3.1526887E-3,-8.478585E-4],"split_indices":[51,80,77,77,80,25,103,0,0,0,0,0,0,0,0],"split_type":[0,0,0,0,0,0,0,0,0,0,0,0,0,0,0],"sum_hessian":[5.2371885E3,2.556736E3,2.6804526E3,1.288957E3,1.267779E3,9.0635645E2,1.7740961E3,8.844863E2,4.044707E2,7.646038E2,5.0317523E2,3.0795465E2,5.984018E2,6.288295E2,1.1452666E3],"tree_param":{"num_deleted":"0","num_feature":"280","num_nodes":"15","size_leaf_vector":"1"}},{"base_weights":[-1.3610177E-1,1.0253413E-1,-2.7493483E-1,-1.8194067E-1,1.9260408E-1,-1.0454187E-1,-4.4396964E-1,1.4178775E-4,-3.372712E-3,9.069718E-4,3.0114963E-3,-2.412364E-3,4.6548207E-4,-5.643749E-3,-3.66374E-3],"categories":[],"categories_nodes":[],"categories_segments":[],"categories_sizes":[],"default_left":[0,0,0,0,0,0,0,0,0,0,0,0,0,0,0],"id":30,"left_children":[1,3,5,7,9,11,13,-1,-1,-1,-1,-1,-1,-1,-1],"loss_changes":[1.7352509E2,4.9404984E1,9.531683E1,1.4135831E1,1.6166115E1,3.4092323E1,1.5319214E1,0E0,0E0,0E0,0E0,0E0,0E0,0E0,0E0],"parents":[2147483647,0,0,1,1,2,2,3,3,4,4,5,5,6,6],"right_children":[2,4,6,8,10,12,14,-1,-1,-1,-1,-1,-1,-1,-1],"split_conditions":[4.5E-1,3.72E-1,1.3E1,-4.8E0,5.68E-1,1E1,8E0,1.4178775E-4,-3.372712E-3,9.069718E-4,3.0114963E-3,-2.412364E-3,4.6548207E-4,-5.643749E-3,-3.66374E-3],"split_indices":[3,55,80,25,55,51,51,0,0,0,0,0,0,0,0],"split_type":[0,0,0,0,0,0,0,0,0,0,0,0,0,0,0],"sum_hessian":[5.2357646E3,1.92581E3,3.3099546E3,4.6287057E2,1.4629396E3,1.6491614E3,1.6607933E3,2.0497679E2,2.578938E2,7.554905E2,7.0744904E2,8.655145E2,7.836468E2,6.483987E2,1.01239465E3],"tree_param":{"num_deleted":"0","num_feature":"280","num_nodes":"15","size_leaf_vector":"1"}},{"base_weights":[1.361018E-1,-1.0253413E-1,2.7493486E-1,1.8194064E-1,-1.9260408E-1,1.0454194E-1,4.4396967E-1,-1.4178747E-4,3.3727114E-3,-9.06972E-4,-3.011496E-3,2.4123653E-3,-4.6548175E-4,5.64375E-3,3.66374E-3],"categories":[],"categories_nodes":[],"categories_segments":[],"categories_sizes":[],"default_left":[0,0,0,0,0,0,0,0,0,0,0,0,0,0,0],"id":31,"left_children":[1,3,5,7,9,11,13,-1,-1,-1,-1,-1,-1,-1,-1],"loss_changes":[1.7352515E2,4.9404976E1,9.531679E1,1.413582E1,1.6166115E1,3.4092342E1,1.5319275E1,0E0,0E0,0E0,0E0,0E0,0E0,0E0,0E0],"parents":[2147483647,0,0,1,1,2,2,3,3,4,4,5,5,6,6],"right_children":[2,4,6,8,10,12,14,-1,-1,-1,-1,-1,-1,-1,-1],"split_conditions":[4.5E-1,3.72E-1,1.3E1,-4.8E0,5.68E-1,1E1,8E0,-1.4178747E-4,3.3727114E-3,-9.06972E-4,-3.011496E-3,2.4123653E-3,-4.6548175E-4,5.64375E-3,3.66374E-3],"split_indices":[3,55,80,25,55,51,51,0,0,0,0,0,0,0,0],"split_type":[0,0,0,0,0,0,0,0,0,0,0,0,0,0,0],"sum_hessian":[5.2357646E3,1.92581E3,3.3099546E3,4.6287057E2,1.4629396E3,1.6491614E3,1.6607933E3,2.0497678E2,2.578938E2,7.554905E2,7.0744904E2,8.655145E2,7.8364685E2,6.483986E2,1.01239465E3],"tree_param":{"num_deleted":"0","num_feature":"280","num_nodes":"15","size_leaf_vector":"1"}},{"base_weights":[-1.347799E-1,-2.844711E-1,8.2338035E-2,-1.1693305E-1,-4.5097044E-1,-1.6369498E-1,1.8574384E-1,-2.5158178E-3,1.8201146E-4,-3.4033193E-3,-5.331898E-3,4.018293E-4,-3.0449629E-3,1.1384821E-3,3.480687E-3],"categories":[],"categories_nodes":[],"categories_segments":[],"categories_sizes":[],"default_left":[0,0,0,0,0,0,0,0,0,0,0,0,0,0,0],"id":32,"left_children":[1,3,5,7,9,11,13,-1,-1,-1,-1,-1,-1,-1,-1],"loss_changes":[1.7017535E2,8.639589E1,5.440513E1,2.81363E1,1.3954742E1,1.8183043E1,1.7527622E1,0E0,0E0,0E0,0E0,0E0,0E0,0E0,0E0],"parents":[2147483647,0,0,1,1,2,2,3,3,4,4,5,5,6,6],"right_children":[2,4,6,8,10,12,14,-1,-1,-1,-1,-1,-1,-1,-1],"split_conditions":[1.7E1,1.3E1,-2.4E0,9E0,2E1,-4.8E0,2.7E1,-2.5158178E-3,1.8201146E-4,-3.4033193E-3,-5.331898E-3,4.018293E-4,-3.0449629E-3,1.1384821E-3,3.480687E-3],"split_indices":[27,80,77,51,80,25,51,0,0,0,0,0,0,0,0],"split_type":[0,0,0,0,0,0,0,0,0,0,0,0,0,0,0],"sum_hessian":[5.234341E3,3.0980745E3,2.1362666E3,1.5450688E3,1.5530055E3,6.319907E2,1.5042759E3,7.734929E2,7.715759E2,6.6427E2,8.887355E2,2.5845987E2,3.7353085E2,1.043707E3,4.6056894E2],"tree_param":{"num_deleted":"0","num_feature":"280","num_nodes":"15","size_leaf_vector":"1"}},{"base_weights":[1.3477989E-1,2.8447106E-1,-8.2338035E-2,1.16933025E-1,4.5097038E-1,1.6369498E-1,-1.8574384E-1,2.5158175E-3,-1.820116E-4,3.403319E-3,5.3318976E-3,-4.0182917E-4,3.0449629E-3,-1.138482E-3,-3.4806873E-3],"categories":[],"categories_nodes":[],"categories_segments":[],"categories_sizes":[],"default_left":[0,0,0,0,0,0,0,0,0,0,0,0,0,0,0],"id":33,"left_children":[1,3,5,7,9,11,13,-1,-1,-1,-1,-1,-1,-1,-1],"loss_changes":[1.7017534E2,8.639589E1,5.440512E1,2.8136303E1,1.3954712E1,1.8183043E1,1.7527626E1,0E0,0E0,0E0,0E0,0E0,0E0,0E0,0E0],"parents":[2147483647,0,0,1,1,2,2,3,3,4,4,5,5,6,6],"right_children":[2,4,6,8,10,12,14,-1,-1,-1,-1,-1,-1,-1,-1],"split_conditions":[1.7E1,1.3E1,-2.4E0,9E0,2E1,-4.8E0,2.7E1,2.5158175E-3,-1.820116E-4,3.403319E-3,5.3318976E-3,-4.0182917E-4,3.0449629E-3,-1.138482E-3,-3.4806873E-3],"split_indices":[27,80,77,51,80,25,51,0,0,0,0,0,0,0,0],"split_type":[0,0,0,0,0,0,0,0,0,0,0,0,0,0,0],"sum_hessian":[5.2343413E3,3.0980745E3,2.1362666E3,1.5450688E3,1.5530055E3,6.319907E2,1.504276E3,7.734929E2,7.715759E2,6.6427E2,8.8873553E2,2.5845987E2,3.7353085E2,1.043707E3,4.6056894E2],"tree_param":{"num_deleted":"0","num_feature":"280","num_nodes":"15","size_leaf_vector":"1"}},{"base_weights":[-1.3347268E-1,-3.1663013E-1,4.1138146E-2,-1.5332942E-1,-4.627175E-1,-1.19730815E-1,2.218066E-1,-2.418849E-3,2.3475205E-4,-3.8371822E-3,-5.9478516E-3,2.8105924E-4,-2.7935125E-3,1.2494666E-3,3.5367704E-3],"categories":[],"categories_nodes":[],"categories_segments":[],"categories_sizes":[],"default_left":[0,0,0,0,0,0,0,0,0,0,0,0,0,0,0],"id":34,"left_children":[1,3,5,7,9,11,13,-1,-1,-1,-1,-1,-1,-1,-1],"loss_changes":[1.6739781E2,6.0870087E1,7.7927185E1,1.8914541E1,1.3833954E1,3.3481285E1,1.6085747E1,0E0,0E0,0E0,0E0,0E0,0E0,0E0,0E0],"parents":[2147483647,0,0,1,1,2,2,3,3,4,4,5,5,6,6],"right_children":[2,4,6,8,10,12,14,-1,-1,-1,-1,-1,-1,-1,-1],"split_conditions":[1.5E1,1.2E1,4E-1,6E0,2.3E1,3.94E-1,2.4E1,-2.418849E-3,2.3475205E-4,-3.8371822E-3,-5.9478516E-3,2.8105924E-4,-2.7935125E-3,1.2494666E-3,3.5367704E-3],"split_indices":[51,80,77,77,80,3,51,0,0,0,0,0,0,0,0],"split_type":[0,0,0,0,0,0,0,0,0,0,0,0,0,0,0],"sum_hessian":[5.232837E3,2.5535188E3,2.6793184E3,1.2066925E3,1.3468263E3,1.4174998E3,1.2618185E3,8.03752E2,4.029405E2,8.451726E2,5.0165378E2,7.363415E2,6.811583E2,7.2860175E2,5.332167E2],"tree_param":{"num_deleted":"0","num_feature":"280","num_nodes":"15","size_leaf_vector":"1"}},{"base_weights":[1.3347268E-1,3.1663013E-1,-4.113815E-2,1.5332943E-1,4.627175E-1,1.19730815E-1,-2.218066E-1,2.4188494E-3,-2.3475225E-4,3.8371822E-3,5.9478516E-3,-2.8105927E-4,2.7935125E-3,-1.2494667E-3,-3.53677E-3],"categories":[],"categories_nodes":[],"categories_segments":[],"categories_sizes":[],"default_left":[0,0,0,0,0,0,0,0,0,0,0,0,0,0,0],"id":35,"left_children":[1,3,5,7,9,11,13,-1,-1,-1,-1,-1,-1,-1,-1],"loss_changes":[1.6739781E2,6.0870087E1,7.7927185E1,1.8914557E1,1.3833984E1,3.3481285E1,1.6085747E1,0E0,0E0,0E0,0E0,0E0,0E0,0E0,0E0],"parents":[2147483647,0,0,1,1,2,2,3,3,4,4,5,5,6,6],"right_children":[2,4,6,8,10,12,14,-1,-1,-1,-1,-1,-1,-1,-1],"split_conditions":[1.5E1,1.2E1,4E-1,6E0,2.3E1,3.94E-1,2.4E1,2.4188494E-3,-2.3475225E-4,3.8371822E-3,5.9478516E-3,-2.8105927E-4,2.7935125E-3,-1.2494667E-3,-3.53677E-3],"split_indices":[51,80,77,77,80,3,51,0,0,0,0,0,0,0,0],"split_type":[0,0,0,0,0,0,0,0,0,0,0,0,0,0,0],"sum_hessian":[5.232837E3,2.5535188E3,2.6793184E3,1.2066925E3,1.3468263E3,1.4174998E3,1.2618185E3,8.0375195E2,4.029405E2,8.4517255E2,5.0165375E2,7.363415E2,6.811583E2,7.2860175E2,5.332167E2],"tree_param":{"num_deleted":"0","num_feature":"280","num_nodes":"15","size_leaf_vector":"1"}},{"base_weights":[-1.321812E-1,9.997218E-2,-2.6733875E-1,-1.781537E-1,1.880272E-1,-1.0146575E-1,-4.321678E-1,1.3426872E-4,-3.3000633E-3,9.6961687E-4,3.0450944E-3,-2.3499904E-3,4.6072443E-4,-5.510576E-3,-3.5562946E-3],"categories":[],"categories_nodes":[],"categories_segments":[],"categories_sizes":[],"default_left":[0,0,0,0,0,0,0,0,0,0,0,0,0,0,0],"id":36,"left_children":[1,3,5,7,9,11,13,-1,-1,-1,-1,-1,-1,-1,-1],"loss_changes":[1.6419958E2,4.7202003E1,9.037775E1,1.3493129E1,1.5492931E1,3.251191E1,1.4895966E1,0E0,0E0,0E0,0E0,0E0,0E0,0E0,0E0],"parents":[2147483647,0,0,1,1,2,2,3,3,4,4,5,5,6,6],"right_children":[2,4,6,8,10,12,14,-1,-1,-1,-1,-1,-1,-1,-1],"split_conditions":[4.5E-1,3.72E-1,1.3E1,-4.8E0,2.6E1,1E1,8E0,1.3426872E-4,-3.3000633E-3,9.6961687E-4,3.0450944E-3,-2.3499904E-3,4.6072443E-4,-5.510576E-3,-3.5562946E-3],"split_indices":[3,55,80,25,51,51,51,0,0,0,0,0,0,0,0],"split_type":[0,0,0,0,0,0,0,0,0,0,0,0,0,0,0],"sum_hessian":[5.2312197E3,1.9250013E3,3.3062183E3,4.626564E2,1.462345E3,1.6486957E3,1.6575226E3,2.049715E2,2.576849E2,8.2174194E2,6.40603E2,8.6511127E2,7.8358435E2,6.4673114E2,1.01079144E3],"tree_param":{"num_deleted":"0","num_feature":"280","num_nodes":"15","size_leaf_vector":"1"}},{"base_weights":[1.3218118E-1,-9.997219E-2,2.6733875E-1,1.7815366E-1,-1.880272E-1,1.0146572E-1,4.321678E-1,-1.3426872E-4,3.3000628E-3,-9.6961687E-4,-3.045095E-3,2.3499897E-3,-4.6072455E-4,5.510576E-3,3.5562946E-3],"categories":[],"categories_nodes":[],"categories_segments":[],"categories_sizes":[],"default_left":[0,0,0,0,0,0,0,0,0,0,0,0,0,0,0],"id":37,"left_children":[1,3,5,7,9,11,13,-1,-1,-1,-1,-1,-1,-1,-1],"loss_changes":[1.6419955E2,4.7201996E1,9.037779E1,1.3493127E1,1.549292E1,3.2511906E1,1.4895966E1,0E0,0E0,0E0,0E0,0E0,0E0,0E0,0E0],"parents":[2147483647,0,0,1,1,2,2,3,3,4,4,5,5,6,6],"right_children":[2,4,6,8,10,12,14,-1,-1,-1,-1,-1,-1,-1,-1],"split_conditions":[4.5E-1,3.72E-1,1.3E1,-4.8E0,2.6E1,1E1,8E0,-1.3426872E-4,3.3000628E-3,-9.6961687E-4,-3.045095E-3,2.3499897E-3,-4.6072455E-4,5.510576E-3,3.5562946E-3],"split_indices":[3,55,80,25,51,51,51,0,0,0,0,0,0,0,0],"split_type":[0,0,0,0,0,0,0,0,0,0,0,0,0,0,0],"sum_hessian":[5.2312197E3,1.9250013E3,3.3062183E3,4.6265637E2,1.462345E3,1.6486957E3,1.6575226E3,2.049715E2,2.5768488E2,8.2174194E2,6.406031E2,8.6511127E2,7.8358435E2,6.467311E2,1.01079144E3],"tree_param":{"num_deleted":"0","num_feature":"280","num_nodes":"15","size_leaf_vector":"1"}},{"base_weights":[-1.3090281E-1,-3.1083384E-1,4.051852E-2,-1.5043166E-1,-4.5452598E-1,-1.1571897E-1,2.2105223E-1,-2.3810992E-3,2.4568234E-4,-3.7617038E-3,-5.8566127E-3,1.0285836E-3,-2.3109938E-3,4.102899E-3,1.677774E-3],"categories":[],"categories_nodes":[],"categories_segments":[],"categories_sizes":[],"default_left":[0,0,0,0,0,0,0,0,0,0,0,0,0,0,0],"id":38,"left_children":[1,3,5,7,9,11,13,-1,-1,-1,-1,-1,-1,-1,-1],"loss_changes":[1.6134477E2,5.8752945E1,7.560441E1,1.8531946E1,1.3606537E1,3.6266068E1,1.2467094E1,0E0,0E0,0E0,0E0,0E0,0E0,0E0,0E0],"parents":[2147483647,0,0,1,1,2,2,3,3,4,4,5,5,6,6],"right_children":[2,4,6,8,10,12,14,-1,-1,-1,-1,-1,-1,-1,-1],"split_conditions":[1.5E1,1.2E1,5.19E-1,6E0,2.3E1,-4.8E0,4E0,-2.3810992E-3,2.4568234E-4,-3.7617038E-3,-5.8566127E-3,1.0285836E-3,-2.3109938E-3,4.102899E-3,1.677774E-3],"split_indices":[51,80,55,77,80,25,103,0,0,0,0,0,0,0,0],"split_type":[0,0,0,0,0,0,0,0,0,0,0,0,0,0,0],"sum_hessian":[5.229582E3,2.5510645E3,2.6785176E3,1.2064086E3,1.3446559E3,1.4360715E3,1.2424462E3,8.034862E2,4.029224E2,8.441379E2,5.005181E2,4.961917E2,9.398799E2,2.7146677E2,9.709794E2],"tree_param":{"num_deleted":"0","num_feature":"280","num_nodes":"15","size_leaf_vector":"1"}},{"base_weights":[1.3090281E-1,3.1083384E-1,-4.0518504E-2,1.5043163E-1,4.5452598E-1,1.1571898E-1,-2.2105221E-1,2.381099E-3,-2.456826E-4,3.7617036E-3,5.8566127E-3,-1.0285836E-3,2.310994E-3,-4.1028988E-3,-1.677774E-3],"categories":[],"categories_nodes":[],"categories_segments":[],"categories_sizes":[],"default_left":[0,0,0,0,0,0,0,0,0,0,0,0,0,0,0],"id":39,"left_children":[1,3,5,7,9,11,13,-1,-1,-1,-1,-1,-1,-1,-1],"loss_changes":[1.6134474E2,5.8752975E1,7.5604416E1,1.8531946E1,1.3606537E1,3.6266068E1,1.2467091E1,0E0,0E0,0E0,0E0,0E0,0E0,0E0,0E0],"parents":[2147483647,0,0,1,1,2,2,3,3,4,4,5,5,6,6],"right_children":[2,4,6,8,10,12,14,-1,-1,-1,-1,-1,-1,-1,-1],"split_conditions":[1.5E1,1.2E1,5.19E-1,6E0,2.3E1,-4.8E0,4E0,2.381099E-3,-2.456826E-4,3.7617036E-3,5.8566127E-3,-1.0285836E-3,2.310994E-3,-4.1028988E-3,-1.677774E-3],"split_indices":[51,80,55,77,80,25,103,0,0,0,0,0,0,0,0],"split_type":[0,0,0,0,0,0,0,0,0,0,0,0,0,0,0],"sum_hessian":[5.229582E3,2.5510645E3,2.6785176E3,1.2064086E3,1.3446559E3,1.4360717E3,1.242446E3,8.034862E2,4.029224E2,8.441378E2,5.0051807E2,4.9619168E2,9.398799E2,2.7146674E2,9.709793E2],"tree_param":{"num_deleted":"0","num_feature":"280","num_nodes":"15","size_leaf_vector":"1"}},{"base_weights":[-1.2963939E-1,-2.7432287E-1,7.9988E-2,-1.1265881E-1,-4.35382E-1,1.7016211E-1,-1.8671703E-1,-2.4348432E-3,1.8573891E-4,-3.364542E-3,-5.2451226E-3,8.6039427E-4,3.0419284E-3,-2.7979796E-3,1.108298E-3],"categories":[],"categories_nodes":[],"categories_segments":[],"categories_sizes":[],"default_left":[0,0,0,0,0,0,0,0,0,0,0,0,0,0,0],"id":40,"left_children":[1,3,5,7,9,11,13,-1,-1,-1,-1,-1,-1,-1,-1],"loss_changes":[1.5861012E2,8.050696E1,5.140168E1,2.6536411E1,1.3485931E1,1.7977692E1,1.4991854E1,0E0,0E0,0E0,0E0,0E0,0E0,0E0,0E0],"parents":[2147483647,0,0,1,1,2,2,3,3,4,4,5,5,6,6],"right_children":[2,4,6,8,10,12,14,-1,-1,-1,-1,-1,-1,-1,-1],"split_conditions":[1.7E1,1.3E1,2.2E1,9E0,2.8E0,2.6E1,2.7E1,-2.4348432E-3,1.8573891E-4,-3.364542E-3,-5.2451226E-3,8.6039427E-4,3.0419284E-3,-2.7979796E-3,1.108298E-3],"split_indices":[27,80,80,51,25,51,28,0,0,0,0,0,0,0,0],"split_type":[0,0,0,0,0,0,0,0,0,0,0,0,0,0,0],"sum_hessian":[5.227822E3,3.0928486E3,2.134973E3,1.5443739E3,1.5484747E3,1.5957913E3,5.391818E2,7.7295844E2,7.7141547E2,7.3616394E2,8.1231085E2,9.8144293E2,6.1434827E2,4.1074802E2,1.2843378E2],"tree_param":{"num_deleted":"0","num_feature":"280","num_nodes":"15","size_leaf_vector":"1"}},{"base_weights":[1.296394E-1,2.743229E-1,-7.9988E-2,1.1265885E-1,4.3538204E-1,-1.7016211E-1,1.86717E-1,2.434844E-3,-1.857388E-4,3.364542E-3,5.2451226E-3,-8.603944E-4,-3.0419277E-3,2.7979794E-3,-1.1082975E-3],"categories":[],"categories_nodes":[],"categories_segments":[],"categories_sizes":[],"default_left":[0,0,0,0,0,0,0,0,0,0,0,0,0,0,0],"id":41,"left_children":[1,3,5,7,9,11,13,-1,-1,-1,-1,-1,-1,-1,-1],"loss_changes":[1.5861015E2,8.050693E1,5.140168E1,2.653642E1,1.3485992E1,1.797768E1,1.4991848E1,0E0,0E0,0E0,0E0,0E0,0E0,0E0,0E0],"parents":[2147483647,0,0,1,1,2,2,3,3,4,4,5,5,6,6],"right_children":[2,4,6,8,10,12,14,-1,-1,-1,-1,-1,-1,-1,-1],"split_conditions":[1.7E1,1.3E1,2.2E1,9E0,2.8E0,2.6E1,2.7E1,2.434844E-3,-1.857388E-4,3.364542E-3,5.2451226E-3,-8.603944E-4,-3.0419277E-3,2.7979794E-3,-1.1082975E-3],"split_indices":[27,80,80,51,25,51,28,0,0,0,0,0,0,0,0],"split_type":[0,0,0,0,0,0,0,0,0,0,0,0,0,0,0],"sum_hessian":[5.227822E3,3.0928486E3,2.134973E3,1.5443739E3,1.5484749E3,1.5957913E3,5.391818E2,7.7295844E2,7.7141547E2,7.3616394E2,8.1231085E2,9.8144293E2,6.1434827E2,4.1074802E2,1.2843378E2],"tree_param":{"num_deleted":"0","num_feature":"280","num_nodes":"15","size_leaf_vector":"1"}},{"base_weights":[-1.2838791E-1,9.76985E-2,-2.6012164E-1,-1.7413056E-1,1.8374896E-1,-3.9352053E-1,-6.465332E-2,1.2535724E-4,-3.2222585E-3,8.545109E-4,2.885345E-3,-2.903156E-3,-5.0193886E-3,-2.141972E-3,9.1840315E-4],"categories":[],"categories_nodes":[],"categories_segments":[],"categories_sizes":[],"default_left":[0,0,0,0,0,0,0,0,0,0,0,0,0,0,0],"id":42,"left_children":[1,3,5,7,9,11,13,-1,-1,-1,-1,-1,-1,-1,-1],"loss_changes":[1.5570471E2,4.5062283E1,8.610043E1,1.2814379E1,1.5041569E1,2.1818726E1,3.1402336E1,0E0,0E0,0E0,0E0,0E0,0E0,0E0,0E0],"parents":[2147483647,0,0,1,1,2,2,3,3,4,4,5,5,6,6],"right_children":[2,4,6,8,10,12,14,-1,-1,-1,-1,-1,-1,-1,-1],"split_conditions":[4.5E-1,3.72E-1,1.7E0,-4.8E0,5.68E-1,2E1,1E1,1.2535724E-4,-3.2222585E-3,8.545109E-4,2.885345E-3,-2.903156E-3,-5.0193886E-3,-2.141972E-3,9.1840315E-4],"split_indices":[3,55,77,25,55,80,51,0,0,0,0,0,0,0,0],"split_type":[0,0,0,0,0,0,0,0,0,0,0,0,0,0,0],"sum_hessian":[5.226083E3,1.9241102E3,3.3019727E3,4.6239722E2,1.461713E3,1.9619863E3,1.3399865E3,2.0496501E2,2.574322E2,7.551409E2,7.065721E2,1.00704456E3,9.5494183E2,6.850194E2,6.54967E2],"tree_param":{"num_deleted":"0","num_feature":"280","num_nodes":"15","size_leaf_vector":"1"}},{"base_weights":[1.283879E-1,-9.769852E-2,2.6012164E-1,1.7413054E-1,-1.8374898E-1,3.9352053E-1,6.4653315E-2,-1.2535756E-4,3.2222585E-3,-8.5451093E-4,-2.885345E-3,2.9031553E-3,5.019389E-3,2.1419718E-3,-9.1840327E-4],"categories":[],"categories_nodes":[],"categories_segments":[],"categories_sizes":[],"default_left":[0,0,0,0,0,0,0,0,0,0,0,0,0,0,0],"id":43,"left_children":[1,3,5,7,9,11,13,-1,-1,-1,-1,-1,-1,-1,-1],"loss_changes":[1.5570471E2,4.5062286E1,8.610042E1,1.2814379E1,1.5041573E1,2.1818756E1,3.1402325E1,0E0,0E0,0E0,0E0,0E0,0E0,0E0,0E0],"parents":[2147483647,0,0,1,1,2,2,3,3,4,4,5,5,6,6],"right_children":[2,4,6,8,10,12,14,-1,-1,-1,-1,-1,-1,-1,-1],"split_conditions":[4.5E-1,3.72E-1,1.7E0,-4.8E0,5.68E-1,2E1,1E1,-1.2535756E-4,3.2222585E-3,-8.5451093E-4,-2.885345E-3,2.9031553E-3,5.019389E-3,2.1419718E-3,-9.1840327E-4],"split_indices":[3,55,77,25,55,80,51,0,0,0,0,0,0,0,0],"split_type":[0,0,0,0,0,0,0,0,0,0,0,0,0,0,0],"sum_hessian":[5.226083E3,1.9241102E3,3.3019727E3,4.6239722E2,1.461713E3,1.9619863E3,1.3399863E3,2.0496501E2,2.574322E2,7.551409E2,7.065721E2,1.00704456E3,9.5494183E2,6.850194E2,6.549669E2],"tree_param":{"num_deleted":"0","num_feature":"280","num_nodes":"15","size_leaf_vector":"1"}},{"base_weights":[-1.2715039E-1,-3.0263662E-1,3.9864358E-2,-3.95628E-1,-6.605288E-2,-2.1119343E-1,1.4759588E-1,-3.2890427E-3,-5.7248045E-3,-1.8404347E-3,5.2368414E-4,3.7584832E-4,-3.3968762E-3,2.991128E-3,7.104042E-4],"categories":[],"categories_nodes":[],"categories_segments":[],"categories_sizes":[],"default_left":[0,0,0,0,0,0,0,0,0,0,0,0,0,0,0],"id":44,"left_children":[1,3,5,7,9,11,13,-1,-1,-1,-1,-1,-1,-1,-1],"loss_changes":[1.5315833E2,5.603337E1,7.246637E1,2.139392E1,1.0072268E1,2.5731789E1,2.1722832E1,0E0,0E0,0E0,0E0,0E0,0E0,0E0,0E0],"parents":[2147483647,0,0,1,1,2,2,3,3,4,4,5,5,6,6],"right_children":[2,4,6,8,10,12,14,-1,-1,-1,-1,-1,-1,-1,-1],"split_conditions":[1.5E1,3.8E0,-2.4E0,2.3E1,7E0,-4.8E0,8E0,-3.2890427E-3,-5.7248045E-3,-1.8404347E-3,5.2368414E-4,3.7584832E-4,-3.3968762E-3,2.991128E-3,7.104042E-4],"split_indices":[51,77,77,80,27,25,103,0,0,0,0,0,0,0,0],"split_type":[0,0,0,0,0,0,0,0,0,0,0,0,0,0,0],"sum_hessian":[5.224268E3,2.547129E3,2.677139E3,1.8279602E3,7.1916876E2,8.035602E2,1.8735789E3,1.3292964E3,4.9866376E2,3.5996188E2,3.5920688E2,2.739233E2,5.296369E2,6.279153E2,1.2456636E3],"tree_param":{"num_deleted":"0","num_feature":"280","num_nodes":"15","size_leaf_vector":"1"}},{"base_weights":[1.2715037E-1,3.0263662E-1,-3.9864365E-2,3.9562804E-1,6.6052854E-2,2.1119341E-1,-1.4759588E-1,3.2890427E-3,5.7248045E-3,1.8404346E-3,-5.2368455E-4,-3.7584855E-4,3.3968757E-3,-2.9911282E-3,-7.1040407E-4],"categories":[],"categories_nodes":[],"categories_segments":[],"categories_sizes":[],"default_left":[0,0,0,0,0,0,0,0,0,0,0,0,0,0,0],"id":45,"left_children":[1,3,5,7,9,11,13,-1,-1,-1,-1,-1,-1,-1,-1],"loss_changes":[1.5315833E2,5.603337E1,7.2466354E1,2.139392E1,1.007227E1,2.5731789E1,2.1722836E1,0E0,0E0,0E0,0E0,0E0,0E0,0E0,0E0],"parents":[2147483647,0,0,1,1,2,2,3,3,4,4,5,5,6,6],"right_children":[2,4,6,8,10,12,14,-1,-1,-1,-1,-1,-1,-1,-1],"split_conditions":[1.5E1,3.8E0,-2.4E0,2.3E1,7E0,-4.8E0,8E0,3.2890427E-3,5.7248045E-3,1.8404346E-3,-5.2368455E-4,-3.7584855E-4,3.3968757E-3,-2.9911282E-3,-7.1040407E-4],"split_indices":[51,77,77,80,27,25,103,0,0,0,0,0,0,0,0],"split_type":[0,0,0,0,0,0,0,0,0,0,0,0,0,0,0],"sum_hessian":[5.224268E3,2.547129E3,2.677139E3,1.8279602E3,7.1916876E2,8.035602E2,1.8735789E3,1.3292964E3,4.986638E2,3.5996188E2,3.5920688E2,2.739233E2,5.296369E2,6.279153E2,1.2456636E3],"tree_param":{"num_deleted":"0","num_feature":"280","num_nodes":"15","size_leaf_vector":"1"}},{"base_weights":[-1.2592736E-1,-2.6704055E-1,7.834193E-2,-1.092591E-1,-4.2454958E-1,-5.893784E-2,2.4613424E-1,-2.3666837E-3,1.8482047E-4,-3.269478E-3,-5.125946E-3,1.0492245E-3,-1.7248528E-3,1.8817236E-3,4.429208E-3],"categories":[],"categories_nodes":[],"categories_segments":[],"categories_sizes":[],"default_left":[0,0,0,0,0,0,0,0,0,0,0,0,0,0,0],"id":46,"left_children":[1,3,5,7,9,11,13,-1,-1,-1,-1,-1,-1,-1,-1],"loss_changes":[1.5058475E2,7.673326E1,4.919051E1,2.5145796E1,1.3115326E1,2.1880287E1,1.087648E1,0E0,0E0,0E0,0E0,0E0,0E0,0E0,0E0],"parents":[2147483647,0,0,1,1,2,2,3,3,4,4,5,5,6,6],"right_children":[2,4,6,8,10,12,14,-1,-1,-1,-1,-1,-1,-1,-1],"split_conditions":[1.7E1,1.3E1,6E-1,9E0,2.8E0,-4.8E0,2.8E1,-2.3666837E-3,1.8482047E-4,-3.269478E-3,-5.125946E-3,1.0492245E-3,-1.7248528E-3,1.8817236E-3,4.429208E-3],"split_indices":[27,80,77,51,25,25,51,0,0,0,0,0,0,0,0],"split_type":[0,0,0,0,0,0,0,0,0,0,0,0,0,0,0],"sum_hessian":[5.2223604E3,3.0884746E3,2.1338855E3,1.5437491E3,1.5447255E3,1.1740126E3,9.5987305E2,7.724516E2,7.712975E2,7.348384E2,8.0988715E2,4.8057333E2,6.934392E2,7.429882E2,2.1688487E2],"tree_param":{"num_deleted":"0","num_feature":"280","num_nodes":"15","size_leaf_vector":"1"}},{"base_weights":[1.2592734E-1,2.6704052E-1,-7.834192E-2,1.0925909E-1,4.2454952E-1,5.8937863E-2,-2.4613427E-1,2.3666837E-3,-1.848205E-4,3.269478E-3,5.125945E-3,-1.0492244E-3,1.7248532E-3,-1.8817238E-3,-4.429208E-3],"categories":[],"categories_nodes":[],"categories_segments":[],"categories_sizes":[],"default_left":[0,0,0,0,0,0,0,0,0,0,0,0,0,0,0],"id":47,"left_children":[1,3,5,7,9,11,13,-1,-1,-1,-1,-1,-1,-1,-1],"loss_changes":[1.5058475E2,7.673323E1,4.919052E1,2.514579E1,1.3115356E1,2.1880291E1,1.0876484E1,0E0,0E0,0E0,0E0,0E0,0E0,0E0,0E0],"parents":[2147483647,0,0,1,1,2,2,3,3,4,4,5,5,6,6],"right_children":[2,4,6,8,10,12,14,-1,-1,-1,-1,-1,-1,-1,-1],"split_conditions":[1.7E1,1.3E1,6E-1,9E0,2.8E0,-4.8E0,2.8E1,2.3666837E-3,-1.848205E-4,3.269478E-3,5.125945E-3,-1.0492244E-3,1.7248532E-3,-1.8817238E-3,-4.429208E-3],"split_indices":[27,80,77,51,25,25,51,0,0,0,0,0,0,0,0],"split_type":[0,0,0,0,0,0,0,0,0,0,0,0,0,0,0],"sum_hessian":[5.2223604E3,3.0884746E3,2.1338855E3,1.5437491E3,1.5447256E3,1.1740126E3,9.5987305E2,7.724516E2,7.712975E2,7.348384E2,8.0988715E2,4.805733E2,6.934392E2,7.429882E2,2.1688486E2],"tree_param":{"num_deleted":"0","num_feature":"280","num_nodes":"15","size_leaf_vector":"1"}},{"base_weights":[-1.2471615E-1,9.557878E-2,-2.5318876E-1,-1.703203E-1,1.7973876E-1,-4.937734E-2,-3.752915E-1,1.1124572E-4,-3.1442493E-3,9.201309E-4,2.920527E-3,-1.9955111E-3,1.0504373E-3,-2.7644455E-3,-4.8972555E-3],"categories":[],"categories_nodes":[],"categories_segments":[],"categories_sizes":[],"default_left":[0,0,0,0,0,0,0,0,0,0,0,0,0,0,0],"id":48,"left_children":[1,3,5,7,9,11,13,-1,-1,-1,-1,-1,-1,-1,-1],"loss_changes":[1.4779987E2,4.3088104E1,8.2063156E1,1.2112127E1,1.4377911E1,2.8703642E1,2.3194061E1,0E0,0E0,0E0,0E0,0E0,0E0,0E0,0E0],"parents":[2147483647,0,0,1,1,2,2,3,3,4,4,5,5,6,6],"right_children":[2,4,6,8,10,12,14,-1,-1,-1,-1,-1,-1,-1,-1],"split_conditions":[4.5E-1,3.72E-1,1.1E1,-4.8E0,2.6E1,1E1,2E1,1.1124572E-4,-3.1442493E-3,9.201309E-4,2.920527E-3,-1.9955111E-3,1.0504373E-3,-2.7644455E-3,-4.8972555E-3],"split_indices":[3,55,103,25,51,51,80,0,0,0,0,0,0,0,0],"split_type":[0,0,0,0,0,0,0,0,0,0,0,0,0,0,0],"sum_hessian":[5.220411E3,1.9230938E3,3.2973171E3,4.6209738E2,1.4609963E3,1.235856E3,2.0614612E3,2.049561E2,2.5714127E2,8.213103E2,6.3968604E2,6.263963E2,6.0945966E2,1.107892E3,9.535693E2],"tree_param":{"num_deleted":"0","num_feature":"280","num_nodes":"15","size_leaf_vector":"1"}},{"base_weights":[1.2471615E-1,-9.557878E-2,2.5318876E-1,1.7032033E-1,-1.7973877E-1,4.9377337E-2,3.752915E-1,-1.1124523E-4,3.1442496E-3,-9.2013116E-4,-2.920527E-3,1.9955111E-3,-1.0504373E-3,2.7644453E-3,4.897256E-3],"categories":[],"categories_nodes":[],"categories_segments":[],"categories_sizes":[],"default_left":[0,0,0,0,0,0,0,0,0,0,0,0,0,0,0],"id":49,"left_children":[1,3,5,7,9,11,13,-1,-1,-1,-1,-1,-1,-1,-1],"loss_changes":[1.4779984E2,4.308811E1,8.206317E1,1.2112125E1,1.4377907E1,2.8703644E1,2.3194061E1,0E0,0E0,0E0,0E0,0E0,0E0,0E0,0E0],"parents":[2147483647,0,0,1,1,2,2,3,3,4,4,5,5,6,6],"right_children":[2,4,6,8,10,12,14,-1,-1,-1,-1,-1,-1,-1,-1],"split_conditions":[4.5E-1,3.72E-1,1.1E1,-4.8E0,2.6E1,1E1,2E1,-1.1124523E-4,3.1442496E-3,-9.2013116E-4,-2.920527E-3,1.9955111E-3,-1.0504373E-3,2.7644453E-3,4.897256E-3],"split_indices":[3,55,103,25,51,51,80,0,0,0,0,0,0,0,0],"split_type":[0,0,0,0,0,0,0,0,0,0,0,0,0,0,0],"sum_hessian":[5.220411E3,1.9230938E3,3.2973171E3,4.6209735E2,1.4609963E3,1.235856E3,2.0614612E3,2.0495609E2,2.5714127E2,8.213103E2,6.3968604E2,6.2639624E2,6.0945966E2,1.107892E3,9.535693E2],"tree_param":{"num_deleted":"0","num_feature":"280","num_nodes":"15","size_leaf_vector":"1"}},{"base_weights":[-1.2351814E-1,-2.946878E-1,3.9208524E-2,-3.667149E-1,-7.6787535E-4,-2.062234E-1,1.4448008E-1,-2.853582E-3,-5.182524E-3,6.8190374E-4,-2.1269356E-3,3.5681343E-4,-3.3131486E-3,2.9288162E-3,6.952852E-4],"categories":[],"categories_nodes":[],"categories_segments":[],"categories_sizes":[],"default_left":[0,0,0,0,0,0,0,0,0,0,0,0,0,0,0],"id":50,"left_children":[1,3,5,7,9,11,13,-1,-1,-1,-1,-1,-1,-1,-1],"loss_changes":[1.4539267E2,5.3853256E1,6.918469E1,2.504126E1,7.3462133E0,2.4336468E1,2.0821053E1,0E0,0E0,0E0,0E0,0E0,0E0,0E0,0E0],"parents":[2147483647,0,0,1,1,2,2,3,3,4,4,5,5,6,6],"right_children":[2,4,6,8,10,12,14,-1,-1,-1,-1,-1,-1,-1,-1],"split_conditions":[1.5E1,5.1E0,-2.4E0,2E1,4.9E0,-4.8E0,8E0,-2.853582E-3,-5.182524E-3,6.8190374E-4,-2.1269356E-3,3.5681343E-4,-3.3131486E-3,2.9288162E-3,6.952852E-4],"split_indices":[51,77,77,80,73,25,103,0,0,0,0,0,0,0,0],"split_type":[0,0,0,0,0,0,0,0,0,0,0,0,0,0,0],"sum_hessian":[5.218422E3,2.5428384E3,2.6755837E3,2.0421484E3,5.0069E2,8.0284894E2,1.8727347E3,1.3306427E3,7.1150574E2,3.782801E2,1.2240989E2,2.7389648E2,5.2895245E2,6.2746594E2,1.2452688E3],"tree_param":{"num_deleted":"0","num_feature":"280","num_nodes":"15","size_leaf_vector":"1"}},{"base_weights":[1.2351814E-1,2.946878E-1,-3.920851E-2,3.667149E-1,7.678838E-4,2.0622341E-1,-1.4448008E-1,2.8535814E-3,5.1825237E-3,-6.819036E-4,2.1269356E-3,-3.5681308E-4,3.3131489E-3,-2.928816E-3,-6.9528504E-4],"categories":[],"categories_nodes":[],"categories_segments":[],"categories_sizes":[],"default_left":[0,0,0,0,0,0,0,0,0,0,0,0,0,0,0],"id":51,"left_children":[1,3,5,7,9,11,13,-1,-1,-1,-1,-1,-1,-1,-1],"loss_changes":[1.4539264E2,5.3853256E1,6.918469E1,2.504126E1,7.3462124E0,2.4336468E1,2.0821049E1,0E0,0E0,0E0,0E0,0E0,0E0,0E0,0E0],"parents":[2147483647,0,0,1,1,2,2,3,3,4,4,5,5,6,6],"right_children":[2,4,6,8,10,12,14,-1,-1,-1,-1,-1,-1,-1,-1],"split_conditions":[1.5E1,5.1E0,-2.4E0,2E1,4.9E0,-4.8E0,8E0,2.8535814E-3,5.1825237E-3,-6.819036E-4,2.1269356E-3,-3.5681308E-4,3.3131489E-3,-2.928816E-3,-6.9528504E-4],"split_indices":[51,77,77,80,73,25,103,0,0,0,0,0,0,0,0],"split_type":[0,0,0,0,0,0,0,0,0,0,0,0,0,0,0],"sum_hessian":[5.218422E3,2.5428384E3,2.6755837E3,2.0421484E3,5.0069E2,8.0284894E2,1.8727347E3,1.3306427E3,7.1150574E2,3.782801E2,1.2240989E2,2.7389648E2,5.2895245E2,6.2746594E2,1.2452688E3],"tree_param":{"num_deleted":"0","num_feature":"280","num_nodes":"15","size_leaf_vector":"1"}},{"base_weights":[-1.22334E-1,-2.5999254E-1,7.674054E-2,-9.582136E-2,-4.044992E-1,-5.7364598E-2,2.4068095E-1,-2.1884844E-3,2.664732E-4,-5.173405E-3,-3.2260772E-3,1.0177E-3,-1.6768989E-3,1.836795E-3,4.343937E-3],"categories":[],"categories_nodes":[],"categories_segments":[],"categories_sizes":[],"default_left":[0,0,0,0,0,0,0,0,0,0,0,0,0,0,0],"id":52,"left_children":[1,3,5,7,9,11,13,-1,-1,-1,-1,-1,-1,-1,-1],"loss_changes":[1.429977E2,7.314191E1,4.6922745E1,2.178361E1,1.4990631E1,2.0635988E1,1.0522945E1,0E0,0E0,0E0,0E0,0E0,0E0,0E0,0E0],"parents":[2147483647,0,0,1,1,2,2,3,3,4,4,5,5,6,6],"right_children":[2,4,6,8,10,12,14,-1,-1,-1,-1,-1,-1,-1,-1],"split_conditions":[1.7E1,1.2E1,6E-1,9E0,8E0,-4.8E0,2.8E1,-2.1884844E-3,2.664732E-4,-5.173405E-3,-3.2260772E-3,1.0177E-3,-1.6768989E-3,1.836795E-3,4.343937E-3],"split_indices":[27,80,77,51,51,25,51,0,0,0,0,0,0,0,0],"split_type":[0,0,0,0,0,0,0,0,0,0,0,0,0,0,0],"sum_hessian":[5.216345E3,3.0836904E3,2.1326548E3,1.4443994E3,1.639291E3,1.1734276E3,9.592271E2,7.201644E2,7.2423505E2,6.871389E2,9.521521E2,4.8046967E2,6.9295795E2,7.426461E2,2.1658102E2],"tree_param":{"num_deleted":"0","num_feature":"280","num_nodes":"15","size_leaf_vector":"1"}},{"base_weights":[1.2233401E-1,2.5999254E-1,-7.6740526E-2,9.582136E-2,4.044992E-1,5.73646E-2,-2.4068093E-1,2.1884842E-3,-2.6647313E-4,5.173405E-3,3.2260774E-3,-1.0176997E-3,1.6768987E-3,-1.8367949E-3,-4.3439367E-3],"categories":[],"categories_nodes":[],"categories_segments":[],"categories_sizes":[],"default_left":[0,0,0,0,0,0,0,0,0,0,0,0,0,0,0],"id":53,"left_children":[1,3,5,7,9,11,13,-1,-1,-1,-1,-1,-1,-1,-1],"loss_changes":[1.4299771E2,7.314192E1,4.6922737E1,2.1783607E1,1.4990601E1,2.063598E1,1.0522949E1,0E0,0E0,0E0,0E0,0E0,0E0,0E0,0E0],"parents":[2147483647,0,0,1,1,2,2,3,3,4,4,5,5,6,6],"right_children":[2,4,6,8,10,12,14,-1,-1,-1,-1,-1,-1,-1,-1],"split_conditions":[1.7E1,1.2E1,6E-1,9E0,8E0,-4.8E0,2.8E1,2.1884842E-3,-2.6647313E-4,5.173405E-3,3.2260774E-3,-1.0176997E-3,1.6768987E-3,-1.8367949E-3,-4.3439367E-3],"split_indices":[27,80,77,51,51,25,51,0,0,0,0,0,0,0,0],"split_type":[0,0,0,0,0,0,0,0,0,0,0,0,0,0,0],"sum_hessian":[5.216345E3,3.0836904E3,2.1326548E3,1.4443995E3,1.639291E3,1.1734276E3,9.592271E2,7.201644E2,7.2423505E2,6.87139E2,9.521521E2,4.8046967E2,6.9295795E2,7.426461E2,2.1658102E2],"tree_param":{"num_deleted":"0","num_feature":"280","num_nodes":"15","size_leaf_vector":"1"}},{"base_weights":[-1.2116075E-1,9.351888E-2,-2.4647838E-1,-1.7917302E-1,1.7215186E-1,-3.7412056E-1,-6.0116477E-2,-2.6272652E-3,8.127115E-4,8.129321E-4,2.8856006E-3,-2.7501057E-3,-4.7861976E-3,-2.0249875E-3,8.873999E-4],"categories":[],"categories_nodes":[],"categories_segments":[],"categories_sizes":[],"default_left":[0,0,0,0,0,0,0,0,0,0,0,0,0,0,0],"id":54,"left_children":[1,3,5,7,9,11,13,-1,-1,-1,-1,-1,-1,-1,-1],"loss_changes":[1.4032977E2,4.1264603E1,7.8316574E1,9.3979435E0,1.5768551E1,2.0109589E1,2.841651E1,0E0,0E0,0E0,0E0,0E0,0E0,0E0,0E0],"parents":[2147483647,0,0,1,1,2,2,3,3,4,4,5,5,6,6],"right_children":[2,4,6,8,10,12,14,-1,-1,-1,-1,-1,-1,-1,-1],"split_conditions":[4.5E-1,3.61E-1,1.7E0,2.7E1,2.6E1,2E1,1E1,-2.6272652E-3,8.127115E-4,8.129321E-4,2.8856006E-3,-2.7501057E-3,-4.7861976E-3,-2.0249875E-3,8.873999E-4],"split_indices":[3,55,77,28,51,80,51,0,0,0,0,0,0,0,0],"split_type":[0,0,0,0,0,0,0,0,0,0,0,0,0,0,0],"sum_hessian":[5.2142534E3,1.9219851E3,3.2922683E3,4.2988947E2,1.4920956E3,1.9533684E3,1.3388999E3,3.2546713E2,1.04422356E2,8.3896606E2,6.531295E2,1.00439954E3,9.489689E2,6.841475E2,6.547524E2],"tree_param":{"num_deleted":"0","num_feature":"280","num_nodes":"15","size_leaf_vector":"1"}},{"base_weights":[1.2116076E-1,-9.351888E-2,2.464784E-1,1.7917302E-1,-1.7215186E-1,3.7412056E-1,6.011647E-2,2.6272652E-3,-8.127112E-4,-8.129321E-4,-2.8856006E-3,2.7501062E-3,4.7861976E-3,2.0249872E-3,-8.8739983E-4],"categories":[],"categories_nodes":[],"categories_segments":[],"categories_sizes":[],"default_left":[0,0,0,0,0,0,0,0,0,0,0,0,0,0,0],"id":55,"left_children":[1,3,5,7,9,11,13,-1,-1,-1,-1,-1,-1,-1,-1],"loss_changes":[1.4032976E2,4.1264603E1,7.8316574E1,9.3979435E0,1.5768555E1,2.0109589E1,2.8416508E1,0E0,0E0,0E0,0E0,0E0,0E0,0E0,0E0],"parents":[2147483647,0,0,1,1,2,2,3,3,4,4,5,5,6,6],"right_children":[2,4,6,8,10,12,14,-1,-1,-1,-1,-1,-1,-1,-1],"split_conditions":[4.5E-1,3.61E-1,1.7E0,2.7E1,2.6E1,2E1,1E1,2.6272652E-3,-8.127112E-4,-8.129321E-4,-2.8856006E-3,2.7501062E-3,4.7861976E-3,2.0249872E-3,-8.8739983E-4],"split_indices":[3,55,77,28,51,80,51,0,0,0,0,0,0,0,0],"split_type":[0,0,0,0,0,0,0,0,0,0,0,0,0,0,0],"sum_hessian":[5.2142534E3,1.9219851E3,3.2922683E3,4.2988947E2,1.4920956E3,1.9533684E3,1.3388999E3,3.254671E2,1.04422356E2,8.389661E2,6.531295E2,1.00439954E3,9.489689E2,6.841475E2,6.547524E2],"tree_param":{"num_deleted":"0","num_feature":"280","num_nodes":"15","size_leaf_vector":"1"}},{"base_weights":[-1.1999988E-1,-2.8700024E-1,3.857457E-2,-3.5777727E-1,1.2231718E-3,-2.0138514E-1,1.4145288E-1,-2.782571E-3,-5.062834E-3,-1.6375353E-4,8.263942E-3,3.4404566E-4,-3.234682E-3,2.8685853E-3,6.8046554E-4],"categories":[],"categories_nodes":[],"categories_segments":[],"categories_sizes":[],"default_left":[0,0,0,0,0,0,0,0,0,0,0,0,0,0,0],"id":56,"left_children":[1,3,5,7,9,11,13,-1,-1,-1,-1,-1,-1,-1,-1],"loss_changes":[1.3806522E2,5.179962E1,6.606296E1,2.3933685E1,7.297746E0,2.3128952E1,1.9970303E1,0E0,0E0,0E0,0E0,0E0,0E0,0E0,0E0],"parents":[2147483647,0,0,1,1,2,2,3,3,4,4,5,5,6,6],"right_children":[2,4,6,8,10,12,14,-1,-1,-1,-1,-1,-1,-1,-1],"split_conditions":[1.5E1,5.1E0,-2.4E0,2E1,1E1,-4.8E0,8E0,-2.782571E-3,-5.062834E-3,-1.6375353E-4,8.263942E-3,3.4404566E-4,-3.234682E-3,2.8685853E-3,6.8046554E-4],"split_indices":[51,77,77,80,180,25,103,0,0,0,0,0,0,0,0],"split_type":[0,0,0,0,0,0,0,0,0,0,0,0,0,0,0],"sum_hessian":[5.2121333E3,2.5382268E3,2.6739065E3,2.0376211E3,5.0060568E2,8.020944E2,1.871812E3,1.3289081E3,7.0871295E2,4.9111182E2,9.493849E0,2.7386777E2,5.282266E2,6.269738E2,1.2448383E3],"tree_param":{"num_deleted":"0","num_feature":"280","num_nodes":"15","size_leaf_vector":"1"}},{"base_weights":[1.1999986E-1,2.8700024E-1,-3.8574576E-2,3.5777724E-1,-1.223202E-3,2.0138514E-1,-1.4145288E-1,2.782571E-3,5.0628334E-3,1.6375324E-4,-8.263942E-3,-3.44046E-4,3.234682E-3,-2.8685853E-3,-6.8046566E-4],"categories":[],"categories_nodes":[],"categories_segments":[],"categories_sizes":[],"default_left":[0,0,0,0,0,0,0,0,0,0,0,0,0,0,0],"id":57,"left_children":[1,3,5,7,9,11,13,-1,-1,-1,-1,-1,-1,-1,-1],"loss_changes":[1.3806522E2,5.179962E1,6.6062965E1,2.3933685E1,7.2977467E0,2.312896E1,1.9970299E1,0E0,0E0,0E0,0E0,0E0,0E0,0E0,0E0],"parents":[2147483647,0,0,1,1,2,2,3,3,4,4,5,5,6,6],"right_children":[2,4,6,8,10,12,14,-1,-1,-1,-1,-1,-1,-1,-1],"split_conditions":[1.5E1,5.1E0,-2.4E0,2E1,1E1,-4.8E0,8E0,2.782571E-3,5.0628334E-3,1.6375324E-4,-8.263942E-3,-3.44046E-4,3.234682E-3,-2.8685853E-3,-6.8046566E-4],"split_indices":[51,77,77,80,180,25,103,0,0,0,0,0,0,0,0],"split_type":[0,0,0,0,0,0,0,0,0,0,0,0,0,0,0],"sum_hessian":[5.2121333E3,2.5382268E3,2.6739065E3,2.0376211E3,5.0060568E2,8.020944E2,1.871812E3,1.3289082E3,7.087129E2,4.9111182E2,9.493849E0,2.7386777E2,5.282266E2,6.269738E2,1.2448383E3],"tree_param":{"num_deleted":"0","num_feature":"280","num_nodes":"15","size_leaf_vector":"1"}},{"base_weights":[-1.1885119E-1,-2.5315234E-1,7.516327E-2,-1.0273762E-1,-4.0399033E-1,-5.5857036E-2,2.3536727E-1,-2.2428662E-3,1.8988125E-4,-3.086807E-3,-4.9020313E-3,9.897368E-4,-1.6324974E-3,1.7931064E-3,4.260731E-3],"categories":[],"categories_nodes":[],"categories_segments":[],"categories_sizes":[],"default_left":[0,0,0,0,0,0,0,0,0,0,0,0,0,0,0],"id":58,"left_children":[1,3,5,7,9,11,13,-1,-1,-1,-1,-1,-1,-1,-1],"loss_changes":[1.3579628E2,6.982825E1,4.477112E1,2.2838114E1,1.2480301E1,1.9534153E1,1.0181232E1,0E0,0E0,0E0,0E0,0E0,0E0,0E0,0E0],"parents":[2147483647,0,0,1,1,2,2,3,3,4,4,5,5,6,6],"right_children":[2,4,6,8,10,12,14,-1,-1,-1,-1,-1,-1,-1,-1],"split_conditions":[1.7E1,1.3E1,6E-1,9E0,2.8E0,-4.8E0,2.8E1,-2.2428662E-3,1.8988125E-4,-3.086807E-3,-4.9020313E-3,9.897368E-4,-1.6324974E-3,1.7931064E-3,4.260731E-3],"split_indices":[27,80,77,51,25,25,51,0,0,0,0,0,0,0,0],"split_type":[0,0,0,0,0,0,0,0,0,0,0,0,0,0,0],"sum_hessian":[5.209906E3,3.0785557E3,2.1313499E3,1.5422823E3,1.5362733E3,1.1728248E3,9.585249E2,7.7127985E2,7.7100256E2,7.3181793E2,8.0445544E2,4.8035855E2,6.924664E2,7.422779E2,2.1624706E2],"tree_param":{"num_deleted":"0","num_feature":"280","num_nodes":"15","size_leaf_vector":"1"}},{"base_weights":[1.18851185E-1,2.531523E-1,-7.5163275E-2,1.027376E-1,4.039903E-1,5.585704E-2,-2.3536728E-1,2.2428657E-3,-1.8988125E-4,3.086807E-3,4.902031E-3,-9.897366E-4,1.6324974E-3,-1.7931064E-3,-4.2607314E-3],"categories":[],"categories_nodes":[],"categories_segments":[],"categories_sizes":[],"default_left":[0,0,0,0,0,0,0,0,0,0,0,0,0,0,0],"id":59,"left_children":[1,3,5,7,9,11,13,-1,-1,-1,-1,-1,-1,-1,-1],"loss_changes":[1.357963E2,6.982825E1,4.4771122E1,2.2838102E1,1.2480301E1,1.9534153E1,1.0181244E1,0E0,0E0,0E0,0E0,0E0,0E0,0E0,0E0],"parents":[2147483647,0,0,1,1,2,2,3,3,4,4,5,5,6,6],"right_children":[2,4,6,8,10,12,14,-1,-1,-1,-1,-1,-1,-1,-1],"split_conditions":[1.7E1,1.3E1,6E-1,9E0,2.8E0,-4.8E0,2.8E1,2.2428657E-3,-1.8988125E-4,3.086807E-3,4.902031E-3,-9.897366E-4,1.6324974E-3,-1.7931064E-3,-4.2607314E-3],"split_indices":[27,80,77,51,25,25,51,0,0,0,0,0,0,0,0],"split_type":[0,0,0,0,0,0,0,0,0,0,0,0,0,0,0],"sum_hessian":[5.209906E3,3.0785557E3,2.1313499E3,1.5422823E3,1.5362733E3,1.1728248E3,9.5852496E2,7.7127985E2,7.7100256E2,7.318179E2,8.0445544E2,4.8035852E2,6.924664E2,7.422779E2,2.1624704E2],"tree_param":{"num_deleted":"0","num_feature":"280","num_nodes":"15","size_leaf_vector":"1"}},{"base_weights":[-1.17715254E-1,9.1503955E-2,-2.3997402E-1,-4.0408485E-2,2.4743442E-1,-4.544964E-2,-3.569539E-1,1.0781939E-3,-1.6761308E-3,2.906855E-4,2.9840283E-3,-1.8878869E-3,1.0180284E-3,-2.6227706E-3,-4.670192E-3],"categories":[],"categories_nodes":[],"categories_segments":[],"categories_sizes":[],"default_left":[0,0,0,0,0,0,0,0,0,0,0,0,0,0,0],"id":60,"left_children":[1,3,5,7,9,11,13,-1,-1,-1,-1,-1,-1,-1,-1],"loss_changes":[1.332533E2,3.9540337E1,7.479959E1,1.9664354E1,9.795231E0,2.6103886E1,2.1271027E1,0E0,0E0,0E0,0E0,0E0,0E0,0E0,0E0],"parents":[2147483647,0,0,1,1,2,2,3,3,4,4,5,5,6,6],"right_children":[2,4,6,8,10,12,14,-1,-1,-1,-1,-1,-1,-1,-1],"split_conditions":[4.5E-1,5.19E-1,1.1E1,-4.8E0,6E0,1E1,2E1,1.0781939E-3,-1.6761308E-3,2.906855E-4,2.9840283E-3,-1.8878869E-3,1.0180284E-3,-2.6227706E-3,-4.670192E-3],"split_indices":[3,55,103,25,82,51,80,0,0,0,0,0,0,0,0],"split_type":[0,0,0,0,0,0,0,0,0,0,0,0,0,0,0],"sum_hessian":[5.2076455E3,1.9208247E3,3.2868208E3,1.0409519E3,8.798728E2,1.2348284E3,2.0519924E3,4.8081934E2,5.6013257E2,1.66803E2,7.130698E2,6.2558606E2,6.092424E2,1.1049291E3,9.4706335E2],"tree_param":{"num_deleted":"0","num_feature":"280","num_nodes":"15","size_leaf_vector":"1"}},{"base_weights":[1.17715254E-1,-9.150397E-2,2.3997402E-1,4.0408477E-2,-2.4743445E-1,4.5449637E-2,3.569539E-1,-1.0781941E-3,1.6761308E-3,-2.9068577E-4,-2.9840288E-3,1.8878868E-3,-1.0180282E-3,2.6227706E-3,4.670192E-3],"categories":[],"categories_nodes":[],"categories_segments":[],"categories_sizes":[],"default_left":[0,0,0,0,0,0,0,0,0,0,0,0,0,0,0],"id":61,"left_children":[1,3,5,7,9,11,13,-1,-1,-1,-1,-1,-1,-1,-1],"loss_changes":[1.3325333E2,3.9540344E1,7.479959E1,1.966436E1,9.795231E0,2.6103884E1,2.1270996E1,0E0,0E0,0E0,0E0,0E0,0E0,0E0,0E0],"parents":[2147483647,0,0,1,1,2,2,3,3,4,4,5,5,6,6],"right_children":[2,4,6,8,10,12,14,-1,-1,-1,-1,-1,-1,-1,-1],"split_conditions":[4.5E-1,5.19E-1,1.1E1,-4.8E0,6E0,1E1,2E1,-1.0781941E-3,1.6761308E-3,-2.9068577E-4,-2.9840288E-3,1.8878868E-3,-1.0180282E-3,2.6227706E-3,4.670192E-3],"split_indices":[3,55,103,25,82,51,80,0,0,0,0,0,0,0,0],"split_type":[0,0,0,0,0,0,0,0,0,0,0,0,0,0,0],"sum_hessian":[5.2076455E3,1.9208247E3,3.2868208E3,1.0409519E3,8.798728E2,1.2348284E3,2.0519924E3,4.8081934E2,5.6013257E2,1.66803E2,7.130698E2,6.2558606E2,6.092424E2,1.1049291E3,9.4706335E2],"tree_param":{"num_deleted":"0","num_feature":"280","num_nodes":"15","size_leaf_vector":"1"}},{"base_weights":[-1.1659113E-1,-2.7953744E-1,3.793816E-2,-3.490932E-1,3.0872384E-3,-1.9688268E-1,1.385669E-1,-2.8877954E-3,-5.3684562E-3,7.1461964E-4,-2.071034E-3,3.240275E-4,-3.1575796E-3,2.8034335E-3,6.7032897E-4],"categories":[],"categories_nodes":[],"categories_segments":[],"categories_sizes":[],"default_left":[0,0,0,0,0,0,0,0,0,0,0,0,0,0,0],"id":62,"left_children":[1,3,5,7,9,11,13,-1,-1,-1,-1,-1,-1,-1,-1],"loss_changes":[1.3110641E2,4.9820374E1,6.3191242E1,2.2875412E1,7.222398E0,2.1877632E1,1.8964558E1,0E0,0E0,0E0,0E0,0E0,0E0,0E0,0E0],"parents":[2147483647,0,0,1,1,2,2,3,3,4,4,5,5,6,6],"right_children":[2,4,6,8,10,12,14,-1,-1,-1,-1,-1,-1,-1,-1],"split_conditions":[1.5E1,5.1E0,-2.4E0,2.3E1,4.9E0,-4.8E0,8E0,-2.8877954E-3,-5.3684562E-3,7.1461964E-4,-2.071034E-3,3.240275E-4,-3.1575796E-3,2.8034335E-3,6.7032897E-4],"split_indices":[51,77,77,80,73,25,103,0,0,0,0,0,0,0,0],"split_type":[0,0,0,0,0,0,0,0,0,0,0,0,0,0,0],"sum_hessian":[5.2053516E3,2.533279E3,2.6720725E3,2.0327668E3,5.0051227E2,8.012859E2,1.8707865E3,1.5404502E3,4.9231662E2,3.78158E2,1.2235427E2,2.738378E2,5.274481E2,6.263923E2,1.2443943E3],"tree_param":{"num_deleted":"0","num_feature":"280","num_nodes":"15","size_leaf_vector":"1"}},{"base_weights":[1.1659113E-1,2.7953744E-1,-3.7938144E-2,3.490932E-1,-3.087267E-3,1.9688271E-1,-1.3856688E-1,2.8877954E-3,5.3684562E-3,-7.1462005E-4,2.071034E-3,-3.2402715E-4,3.1575798E-3,-2.8034335E-3,-6.7032885E-4],"categories":[],"categories_nodes":[],"categories_segments":[],"categories_sizes":[],"default_left":[0,0,0,0,0,0,0,0,0,0,0,0,0,0,0],"id":63,"left_children":[1,3,5,7,9,11,13,-1,-1,-1,-1,-1,-1,-1,-1],"loss_changes":[1.3110638E2,4.9820404E1,6.319125E1,2.2875381E1,7.2223997E0,2.1877636E1,1.8964558E1,0E0,0E0,0E0,0E0,0E0,0E0,0E0,0E0],"parents":[2147483647,0,0,1,1,2,2,3,3,4,4,5,5,6,6],"right_children":[2,4,6,8,10,12,14,-1,-1,-1,-1,-1,-1,-1,-1],"split_conditions":[1.5E1,5.1E0,-2.4E0,2.3E1,4.9E0,-4.8E0,8E0,2.8877954E-3,5.3684562E-3,-7.1462005E-4,2.071034E-3,-3.2402715E-4,3.1575798E-3,-2.8034335E-3,-6.7032885E-4],"split_indices":[51,77,77,80,73,25,103,0,0,0,0,0,0,0,0],"split_type":[0,0,0,0,0,0,0,0,0,0,0,0,0,0,0],"sum_hessian":[5.2053516E3,2.533279E3,2.6720725E3,2.0327667E3,5.0051227E2,8.0128595E2,1.8707865E3,1.5404502E3,4.923166E2,3.78158E2,1.2235427E2,2.738378E2,5.274481E2,6.2639233E2,1.2443943E3],"tree_param":{"num_deleted":"0","num_feature":"280","num_nodes":"15","size_leaf_vector":"1"}},{"base_weights":[-1.1548002E-1,-2.4653365E-1,7.363258E-2,-9.961564E-2,-3.942332E-1,1.5621172E-1,-1.7085452E-1,-2.425763E-3,8.618758E-8,-3.0005216E-3,-4.795569E-3,7.823843E-4,2.8069848E-3,-2.5718512E-3,1.0420651E-3],"categories":[],"categories_nodes":[],"categories_segments":[],"categories_sizes":[],"default_left":[0,0,0,0,0,0,0,0,0,0,0,0,0,0,0],"id":64,"left_children":[1,3,5,7,9,11,13,-1,-1,-1,-1,-1,-1,-1,-1],"loss_changes":[1.2899335E2,6.666724E1,4.3048973E1,2.196814E1,1.2172058E1,1.5444775E1,1.2814163E1,0E0,0E0,0E0,0E0,0E0,0E0,0E0,0E0],"parents":[2147483647,0,0,1,1,2,2,3,3,4,4,5,5,6,6],"right_children":[2,4,6,8,10,12,14,-1,-1,-1,-1,-1,-1,-1,-1],"split_conditions":[1.7E1,1.3E1,2.2E1,7E0,2.8E0,2.6E1,2.7E1,-2.425763E-3,8.618758E-8,-3.0005216E-3,-4.795569E-3,7.823843E-4,2.8069848E-3,-2.5718512E-3,1.0420651E-3],"split_indices":[27,80,80,29,25,51,28,0,0,0,0,0,0,0,0],"split_type":[0,0,0,0,0,0,0,0,0,0,0,0,0,0,0],"sum_hessian":[5.202992E3,3.0730723E3,2.12992E3,1.5414517E3,1.5316207E3,1.5924182E3,5.375018E2,6.324508E2,9.090008E2,7.301697E2,8.0145105E2,9.801326E2,6.122856E2,4.0915076E2,1.2835101E2],"tree_param":{"num_deleted":"0","num_feature":"280","num_nodes":"15","size_leaf_vector":"1"}},{"base_weights":[1.1548002E-1,2.4653365E-1,-7.3632576E-2,9.961564E-2,3.942332E-1,-1.562117E-1,1.7085452E-1,2.425763E-3,-8.625505E-8,3.0005216E-3,4.7955685E-3,-7.823842E-4,-2.8069848E-3,2.5718512E-3,-1.0420645E-3],"categories":[],"categories_nodes":[],"categories_segments":[],"categories_sizes":[],"default_left":[0,0,0,0,0,0,0,0,0,0,0,0,0,0,0],"id":65,"left_children":[1,3,5,7,9,11,13,-1,-1,-1,-1,-1,-1,-1,-1],"loss_changes":[1.2899333E2,6.666722E1,4.3048965E1,2.196814E1,1.2172058E1,1.5444782E1,1.2814159E1,0E0,0E0,0E0,0E0,0E0,0E0,0E0,0E0],"parents":[2147483647,0,0,1,1,2,2,3,3,4,4,5,5,6,6],"right_children":[2,4,6,8,10,12,14,-1,-1,-1,-1,-1,-1,-1,-1],"split_conditions":[1.7E1,1.3E1,2.2E1,7E0,2.8E0,2.6E1,2.7E1,2.425763E-3,-8.625505E-8,3.0005216E-3,4.7955685E-3,-7.823842E-4,-2.8069848E-3,2.5718512E-3,-1.0420645E-3],"split_indices":[27,80,80,29,25,51,28,0,0,0,0,0,0,0,0],"split_type":[0,0,0,0,0,0,0,0,0,0,0,0,0,0,0],"sum_hessian":[5.202992E3,3.0730723E3,2.12992E3,1.5414517E3,1.5316207E3,1.5924182E3,5.375018E2,6.324508E2,9.090008E2,7.301697E2,8.0145105E2,9.801326E2,6.122855E2,4.0915076E2,1.2835101E2],"tree_param":{"num_deleted":"0","num_feature":"280","num_nodes":"15","size_leaf_vector":"1"}},{"base_weights":[-1.1437859E-1,8.9509815E-2,-2.336537E-1,-1.7228283E-1,1.6498248E-1,-4.354783E-2,-3.4821615E-1,-2.5257384E-3,7.761487E-4,7.748748E-4,2.77204E-3,-1.8389276E-3,1.0055571E-3,-2.5540632E-3,-4.56358E-3],"categories":[],"categories_nodes":[],"categories_segments":[],"categories_sizes":[],"default_left":[0,0,0,0,0,0,0,0,0,0,0,0,0,0,0],"id":66,"left_children":[1,3,5,7,9,11,13,-1,-1,-1,-1,-1,-1,-1,-1],"loss_changes":[1.2651928E2,3.7975716E1,7.146527E1,8.6528635E0,1.4621437E1,2.5001104E1,2.0436432E1,0E0,0E0,0E0,0E0,0E0,0E0,0E0,0E0],"parents":[2147483647,0,0,1,1,2,2,3,3,4,4,5,5,6,6],"right_children":[2,4,6,8,10,12,14,-1,-1,-1,-1,-1,-1,-1,-1],"split_conditions":[4.5E-1,3.61E-1,1.1E1,2.7E1,2.6E1,1E1,2E1,-2.5257384E-3,7.761487E-4,7.748748E-4,2.77204E-3,-1.8389276E-3,1.0055571E-3,-2.5540632E-3,-4.56358E-3],"split_indices":[3,55,103,28,51,51,80,0,0,0,0,0,0,0,0],"split_type":[0,0,0,0,0,0,0,0,0,0,0,0,0,0,0],"sum_hessian":[5.200667E3,1.9195853E3,3.2810818E3,4.2927454E2,1.4903107E3,1.2342828E3,2.046799E3,3.24881E2,1.0439354E2,8.3836145E2,6.519492E2,6.2515625E2,6.0912665E2,1.1032909E3,9.4350806E2],"tree_param":{"num_deleted":"0","num_feature":"280","num_nodes":"15","size_leaf_vector":"1"}},{"base_weights":[1.1437859E-1,-8.95098E-2,2.336537E-1,1.7228284E-1,-1.6498248E-1,4.3547854E-2,3.4821612E-1,2.5257387E-3,-7.7614805E-4,-7.748746E-4,-2.77204E-3,1.8389279E-3,-1.0055569E-3,2.5540628E-3,4.56358E-3],"categories":[],"categories_nodes":[],"categories_segments":[],"categories_sizes":[],"default_left":[0,0,0,0,0,0,0,0,0,0,0,0,0,0,0],"id":67,"left_children":[1,3,5,7,9,11,13,-1,-1,-1,-1,-1,-1,-1,-1],"loss_changes":[1.2651927E2,3.7975716E1,7.146524E1,8.6528635E0,1.4621437E1,2.5001102E1,2.0436432E1,0E0,0E0,0E0,0E0,0E0,0E0,0E0,0E0],"parents":[2147483647,0,0,1,1,2,2,3,3,4,4,5,5,6,6],"right_children":[2,4,6,8,10,12,14,-1,-1,-1,-1,-1,-1,-1,-1],"split_conditions":[4.5E-1,3.61E-1,1.1E1,2.7E1,2.6E1,1E1,2E1,2.5257387E-3,-7.7614805E-4,-7.748746E-4,-2.77204E-3,1.8389279E-3,-1.0055569E-3,2.5540628E-3,4.56358E-3],"split_indices":[3,55,103,28,51,51,80,0,0,0,0,0,0,0,0],"split_type":[0,0,0,0,0,0,0,0,0,0,0,0,0,0,0],"sum_hessian":[5.200667E3,1.9195853E3,3.2810818E3,4.2927457E2,1.4903107E3,1.2342828E3,2.046799E3,3.24881E2,1.0439355E2,8.3836145E2,6.519492E2,6.2515625E2,6.0912665E2,1.103291E3,9.4350806E2],"tree_param":{"num_deleted":"0","num_feature":"280","num_nodes":"15","size_leaf_vector":"1"}},{"base_weights":[-1.1328878E-1,-2.7233174E-1,3.7336428E-2,-3.407222E-1,4.9093324E-3,-1.9206129E-1,1.3558415E-1,-2.8155139E-3,-5.255148E-3,-1.2540766E-4,8.2249185E-3,3.1768775E-4,-3.0827986E-3,2.7516026E-3,6.519253E-4],"categories":[],"categories_nodes":[],"categories_segments":[],"categories_sizes":[],"default_left":[0,0,0,0,0,0,0,0,0,0,0,0,0,0,0],"id":68,"left_children":[1,3,5,7,9,11,13,-1,-1,-1,-1,-1,-1,-1,-1],"loss_changes":[1.2456335E2,4.795488E1,6.0228634E1,2.2034225E1,7.1640162E0,2.0856634E1,1.8362537E1,0E0,0E0,0E0,0E0,0E0,0E0,0E0,0E0],"parents":[2147483647,0,0,1,1,2,2,3,3,4,4,5,5,6,6],"right_children":[2,4,6,8,10,12,14,-1,-1,-1,-1,-1,-1,-1,-1],"split_conditions":[1.5E1,5.1E0,-2.4E0,2.3E1,1E1,-4.8E0,8E0,-2.8155139E-3,-5.255148E-3,-1.2540766E-4,8.2249185E-3,3.1768775E-4,-3.0827986E-3,2.7516026E-3,6.519253E-4],"split_indices":[51,77,77,80,180,25,103,0,0,0,0,0,0,0,0],"split_type":[0,0,0,0,0,0,0,0,0,0,0,0,0,0,0],"sum_hessian":[5.1982744E3,2.5280916E3,2.670183E3,2.0276719E3,5.004196E2,8.003944E2,1.8697887E3,1.5377924E3,4.898795E2,4.9092618E2,9.493437E0,2.737995E2,5.265949E2,6.2587085E2,1.2439177E3],"tree_param":{"num_deleted":"0","num_feature":"280","num_nodes":"15","size_leaf_vector":"1"}},{"base_weights":[1.13288775E-1,2.7233174E-1,-3.733643E-2,3.4072217E-1,-4.909319E-3,1.920613E-1,-1.3558416E-1,2.8155132E-3,5.255148E-3,1.254078E-4,-8.2249185E-3,-3.176875E-4,3.082799E-3,-2.7516026E-3,-6.5192534E-4],"categories":[],"categories_nodes":[],"categories_segments":[],"categories_sizes":[],"default_left":[0,0,0,0,0,0,0,0,0,0,0,0,0,0,0],"id":69,"left_children":[1,3,5,7,9,11,13,-1,-1,-1,-1,-1,-1,-1,-1],"loss_changes":[1.24563354E2,4.795485E1,6.022864E1,2.2034225E1,7.1640167E0,2.0856634E1,1.8362541E1,0E0,0E0,0E0,0E0,0E0,0E0,0E0,0E0],"parents":[2147483647,0,0,1,1,2,2,3,3,4,4,5,5,6,6],"right_children":[2,4,6,8,10,12,14,-1,-1,-1,-1,-1,-1,-1,-1],"split_conditions":[1.5E1,5.1E0,-2.4E0,2.3E1,1E1,-4.8E0,8E0,2.8155132E-3,5.255148E-3,1.254078E-4,-8.2249185E-3,-3.176875E-4,3.082799E-3,-2.7516026E-3,-6.5192534E-4],"split_indices":[51,77,77,80,180,25,103,0,0,0,0,0,0,0,0],"split_type":[0,0,0,0,0,0,0,0,0,0,0,0,0,0,0],"sum_hessian":[5.1982744E3,2.5280916E3,2.670183E3,2.0276719E3,5.0041962E2,8.003944E2,1.8697887E3,1.5377925E3,4.898795E2,4.9092618E2,9.493437E0,2.737995E2,5.265949E2,6.2587085E2,1.2439177E3],"tree_param":{"num_deleted":"0","num_feature":"280","num_nodes":"15","size_leaf_vector":"1"}},{"base_weights":[-1.12210035E-1,-2.401049E-1,7.2124E-2,-8.6984135E-2,-3.7585607E-1,-1.4078036E-1,1.6242287E-1,-2.2562891E-3,8.6788736E-5,-5.764531E-3,-3.3064655E-3,1.9754253E-4,-2.5988354E-3,3.0797028E-3,9.423091E-4],"categories":[],"categories_nodes":[],"categories_segments":[],"categories_sizes":[],"default_left":[0,0,0,0,0,0,0,0,0,0,0,0,0,0,0],"id":70,"left_children":[1,3,5,7,9,11,13,-1,-1,-1,-1,-1,-1,-1,-1],"loss_changes":[1.2253371E2,6.3746384E1,4.096206E1,1.9143559E1,1.45563965E1,1.2141248E1,1.4816502E1,0E0,0E0,0E0,0E0,0E0,0E0,0E0,0E0],"parents":[2147483647,0,0,1,1,2,2,3,3,4,4,5,5,6,6],"right_children":[2,4,6,8,10,12,14,-1,-1,-1,-1,-1,-1,-1,-1],"split_conditions":[1.7E1,1.2E1,4.1E-1,7E0,4E0,-4.6E0,-5.9E0,-2.2562891E-3,8.6788736E-5,-5.764531E-3,-3.3064655E-3,1.9754253E-4,-2.5988354E-3,3.0797028E-3,9.423091E-4],"split_indices":[27,80,55,29,51,25,25,0,0,0,0,0,0,0,0],"split_type":[0,0,0,0,0,0,0,0,0,0,0,0,0,0,0],"sum_hessian":[5.1957944E3,3.06732E3,2.1284744E3,1.4422136E3,1.6251066E3,6.3372784E2,1.4947465E3,5.882712E2,8.5394244E2,2.9673346E2,1.328373E3,2.7027234E2,3.634555E2,4.757659E2,1.0189806E3],"tree_param":{"num_deleted":"0","num_feature":"280","num_nodes":"15","size_leaf_vector":"1"}},{"base_weights":[1.1221003E-1,2.4010488E-1,-7.2124004E-2,8.6984135E-2,3.7585604E-1,1.4078034E-1,-1.6242287E-1,2.2562891E-3,-8.678867E-5,5.764531E-3,3.3064655E-3,-1.9754271E-4,2.5988354E-3,-3.0797028E-3,-9.423091E-4],"categories":[],"categories_nodes":[],"categories_segments":[],"categories_sizes":[],"default_left":[0,0,0,0,0,0,0,0,0,0,0,0,0,0,0],"id":71,"left_children":[1,3,5,7,9,11,13,-1,-1,-1,-1,-1,-1,-1,-1],"loss_changes":[1.2253371E2,6.374637E1,4.096205E1,1.9143555E1,1.4556427E1,1.2141248E1,1.4816502E1,0E0,0E0,0E0,0E0,0E0,0E0,0E0,0E0],"parents":[2147483647,0,0,1,1,2,2,3,3,4,4,5,5,6,6],"right_children":[2,4,6,8,10,12,14,-1,-1,-1,-1,-1,-1,-1,-1],"split_conditions":[1.7E1,1.2E1,4.1E-1,7E0,4E0,-4.6E0,-5.9E0,2.2562891E-3,-8.678867E-5,5.764531E-3,3.3064655E-3,-1.9754271E-4,2.5988354E-3,-3.0797028E-3,-9.423091E-4],"split_indices":[27,80,55,29,51,25,25,0,0,0,0,0,0,0,0],"split_type":[0,0,0,0,0,0,0,0,0,0,0,0,0,0,0],"sum_hessian":[5.1957944E3,3.06732E3,2.1284744E3,1.4422136E3,1.6251066E3,6.3372784E2,1.4947465E3,5.882712E2,8.5394244E2,2.9673346E2,1.328373E3,2.7027234E2,3.634555E2,4.757659E2,1.0189806E3],"tree_param":{"num_deleted":"0","num_feature":"280","num_nodes":"15","size_leaf_vector":"1"}},{"base_weights":[-1.1114249E-1,-2.6756346E-1,3.686042E-2,-3.3511865E-1,5.8342163E-3,2.0320138E-1,-9.47089E-2,-2.7661303E-3,-5.182368E-3,7.3539524E-4,-2.023592E-3,1.5544505E-3,4.19745E-3,-2.235899E-3,4.4709246E-4],"categories":[],"categories_nodes":[],"categories_segments":[],"categories_sizes":[],"default_left":[0,0,0,0,0,0,0,0,0,0,0,0,0,0,0],"id":72,"left_children":[1,3,5,7,9,11,13,-1,-1,-1,-1,-1,-1,-1,-1],"loss_changes":[1.2026329E2,4.6646194E1,5.8450512E1,2.1552551E1,7.082138E0,1.2131779E1,2.6808598E1,0E0,0E0,0E0,0E0,0E0,0E0,0E0,0E0],"parents":[2147483647,0,0,1,1,2,2,3,3,4,4,5,5,6,6],"right_children":[2,4,6,8,10,12,14,-1,-1,-1,-1,-1,-1,-1,-1],"split_conditions":[1.5E1,5.1E0,1.4E1,2.3E1,4.9E0,2.8E1,2.2E1,-2.7661303E-3,-5.182368E-3,7.3539524E-4,-2.023592E-3,1.5544505E-3,4.19745E-3,-2.235899E-3,4.4709246E-4],"split_indices":[51,77,103,80,73,51,28,0,0,0,0,0,0,0,0],"split_type":[0,0,0,0,0,0,0,0,0,0,0,0,0,0,0],"sum_hessian":[5.1933623E3,2.524484E3,2.6688784E3,2.0241106E3,5.003733E2,1.1784451E3,1.4904335E3,1.5359049E3,4.8820566E2,3.7807016E2,1.2230312E2,9.6691943E2,2.1152563E2,7.7417053E2,7.1626294E2],"tree_param":{"num_deleted":"0","num_feature":"280","num_nodes":"15","size_leaf_vector":"1"}},{"base_weights":[1.11142494E-1,2.6756346E-1,-3.6860414E-2,3.3511865E-1,-5.83419E-3,-2.0320137E-1,9.4708905E-2,2.7661303E-3,5.1823687E-3,-7.35395E-4,2.0235924E-3,-1.5544505E-3,-4.19745E-3,2.235899E-3,-4.4709237E-4],"categories":[],"categories_nodes":[],"categories_segments":[],"categories_sizes":[],"default_left":[0,0,0,0,0,0,0,0,0,0,0,0,0,0,0],"id":73,"left_children":[1,3,5,7,9,11,13,-1,-1,-1,-1,-1,-1,-1,-1],"loss_changes":[1.2026328E2,4.664621E1,5.8450516E1,2.1552567E1,7.0821395E0,1.2131783E1,2.6808598E1,0E0,0E0,0E0,0E0,0E0,0E0,0E0,0E0],"parents":[2147483647,0,0,1,1,2,2,3,3,4,4,5,5,6,6],"right_children":[2,4,6,8,10,12,14,-1,-1,-1,-1,-1,-1,-1,-1],"split_conditions":[1.5E1,5.1E0,1.4E1,2.3E1,4.9E0,2.8E1,2.2E1,2.7661303E-3,5.1823687E-3,-7.35395E-4,2.0235924E-3,-1.5544505E-3,-4.19745E-3,2.235899E-3,-4.4709237E-4],"split_indices":[51,77,103,80,73,51,28,0,0,0,0,0,0,0,0],"split_type":[0,0,0,0,0,0,0,0,0,0,0,0,0,0,0],"sum_hessian":[5.1933623E3,2.524484E3,2.6688784E3,2.0241106E3,5.003733E2,1.1784451E3,1.4904335E3,1.5359049E3,4.8820566E2,3.7807016E2,1.2230312E2,9.6691943E2,2.1152565E2,7.7417053E2,7.1626294E2],"tree_param":{"num_deleted":"0","num_feature":"280","num_nodes":"15","size_leaf_vector":"1"}},{"base_weights":[-1.1008608E-1,-2.3581982E-1,7.098244E-2,-9.443045E-2,-3.785964E-1,1.5040925E-1,-1.6428366E-1,-2.2608475E-3,7.125572E-5,-2.8605026E-3,-4.6266876E-3,7.5449503E-4,2.7025186E-3,-2.4776128E-3,1.0124426E-3],"categories":[],"categories_nodes":[],"categories_segments":[],"categories_sizes":[],"default_left":[0,0,0,0,0,0,0,0,0,0,0,0,0,0,0],"id":74,"left_children":[1,3,5,7,9,11,13,-1,-1,-1,-1,-1,-1,-1,-1],"loss_changes":[1.1821651E2,6.1824646E1,3.9798634E1,2.0605083E1,1.1728088E1,1.4279282E1,1.1943502E1,0E0,0E0,0E0,0E0,0E0,0E0,0E0,0E0],"parents":[2147483647,0,0,1,1,2,2,3,3,4,4,5,5,6,6],"right_children":[2,4,6,8,10,12,14,-1,-1,-1,-1,-1,-1,-1,-1],"split_conditions":[1.7E1,1.3E1,2.2E1,8E0,2.8E0,2.6E1,2.7E1,-2.2608475E-3,7.125572E-5,-2.8605026E-3,-4.6266876E-3,7.5449503E-4,2.7025186E-3,-2.4776128E-3,1.0124426E-3],"split_indices":[27,80,80,51,25,51,28,0,0,0,0,0,0,0,0],"split_type":[0,0,0,0,0,0,0,0,0,0,0,0,0,0,0],"sum_hessian":[5.1908467E3,3.063355E3,2.1274917E3,1.5399895E3,1.5233655E3,1.5907938E3,5.366978E2,6.700848E2,8.699048E2,7.272346E2,7.961309E2,9.796606E2,6.1113324E2,4.0837753E2,1.283203E2],"tree_param":{"num_deleted":"0","num_feature":"280","num_nodes":"15","size_leaf_vector":"1"}},{"base_weights":[1.1008608E-1,2.358198E-1,-7.098244E-2,9.443046E-2,3.7859637E-1,-1.5040924E-1,1.6428365E-1,2.2608477E-3,-7.125575E-5,2.8605026E-3,4.626687E-3,-7.5449486E-4,-2.7025186E-3,2.4776128E-3,-1.012443E-3],"categories":[],"categories_nodes":[],"categories_segments":[],"categories_sizes":[],"default_left":[0,0,0,0,0,0,0,0,0,0,0,0,0,0,0],"id":75,"left_children":[1,3,5,7,9,11,13,-1,-1,-1,-1,-1,-1,-1,-1],"loss_changes":[1.1821649E2,6.182466E1,3.9798626E1,2.0605083E1,1.1728088E1,1.4279285E1,1.1943502E1,0E0,0E0,0E0,0E0,0E0,0E0,0E0,0E0],"parents":[2147483647,0,0,1,1,2,2,3,3,4,4,5,5,6,6],"right_children":[2,4,6,8,10,12,14,-1,-1,-1,-1,-1,-1,-1,-1],"split_conditions":[1.7E1,1.3E1,2.2E1,8E0,2.8E0,2.6E1,2.7E1,2.2608477E-3,-7.125575E-5,2.8605026E-3,4.626687E-3,-7.5449486E-4,-2.7025186E-3,2.4776128E-3,-1.012443E-3],"split_indices":[27,80,80,51,25,51,28,0,0,0,0,0,0,0,0],"split_type":[0,0,0,0,0,0,0,0,0,0,0,0,0,0,0],"sum_hessian":[5.1908467E3,3.063355E3,2.1274917E3,1.5399895E3,1.5233655E3,1.5907938E3,5.366978E2,6.700848E2,8.699048E2,7.272346E2,7.9613086E2,9.796606E2,6.1113324E2,4.0837753E2,1.283203E2],"tree_param":{"num_deleted":"0","num_feature":"280","num_nodes":"15","size_leaf_vector":"1"}},{"base_weights":[-1.0904059E-1,8.629004E-2,-2.2353444E-1,-3.874469E-2,2.3422106E-1,-3.420033E-1,-5.192481E-2,1.0277232E-3,-1.570726E-3,1.8694575E-4,2.845759E-3,-2.4955247E-3,-4.4027693E-3,-1.8371869E-3,8.557502E-4],"categories":[],"categories_nodes":[],"categories_segments":[],"categories_sizes":[],"default_left":[0,0,0,0,0,0,0,0,0,0,0,0,0,0,0],"id":76,"left_children":[1,3,5,7,9,11,13,-1,-1,-1,-1,-1,-1,-1,-1],"loss_changes":[1.1607396E2,3.549285E1,6.650151E1,1.7440035E1,9.533062E0,1.7474869E1,2.4252274E1,0E0,0E0,0E0,0E0,0E0,0E0,0E0,0E0],"parents":[2147483647,0,0,1,1,2,2,3,3,4,4,5,5,6,6],"right_children":[2,4,6,8,10,12,14,-1,-1,-1,-1,-1,-1,-1,-1],"split_conditions":[4.5E-1,5.19E-1,1.7E0,-4.9E0,6E0,2E1,1E1,1.0277232E-3,-1.570726E-3,1.8694575E-4,2.845759E-3,-2.4955247E-3,-4.4027693E-3,-1.8371869E-3,8.557502E-4],"split_indices":[3,55,77,25,82,80,51,0,0,0,0,0,0,0,0],"split_type":[0,0,0,0,0,0,0,0,0,0,0,0,0,0,0],"sum_hessian":[5.188316E3,1.9174033E3,3.2709128E3,1.0395173E3,8.7788605E2,1.9344755E3,1.3364373E3,4.7343417E2,5.660831E2,1.665212E2,7.113648E2,9.9859125E2,9.3588416E2,6.822056E2,6.542317E2],"tree_param":{"num_deleted":"0","num_feature":"280","num_nodes":"15","size_leaf_vector":"1"}},{"base_weights":[1.0904058E-1,-8.629004E-2,2.2353444E-1,3.8744673E-2,-2.3422104E-1,3.420033E-1,5.1924806E-2,-1.0277233E-3,1.5707257E-3,-1.8694588E-4,-2.845759E-3,2.495525E-3,4.4027693E-3,1.8371869E-3,-8.557503E-4],"categories":[],"categories_nodes":[],"categories_segments":[],"categories_sizes":[],"default_left":[0,0,0,0,0,0,0,0,0,0,0,0,0,0,0],"id":77,"left_children":[1,3,5,7,9,11,13,-1,-1,-1,-1,-1,-1,-1,-1],"loss_changes":[1.16073975E2,3.5492844E1,6.6501495E1,1.7440033E1,9.533066E0,1.7474854E1,2.4252274E1,0E0,0E0,0E0,0E0,0E0,0E0,0E0,0E0],"parents":[2147483647,0,0,1,1,2,2,3,3,4,4,5,5,6,6],"right_children":[2,4,6,8,10,12,14,-1,-1,-1,-1,-1,-1,-1,-1],"split_conditions":[4.5E-1,5.19E-1,1.7E0,-4.9E0,6E0,2E1,1E1,-1.0277233E-3,1.5707257E-3,-1.8694588E-4,-2.845759E-3,2.495525E-3,4.4027693E-3,1.8371869E-3,-8.557503E-4],"split_indices":[3,55,77,25,82,80,51,0,0,0,0,0,0,0,0],"split_type":[0,0,0,0,0,0,0,0,0,0,0,0,0,0,0],"sum_hessian":[5.188316E3,1.9174033E3,3.2709126E3,1.0395173E3,8.7788605E2,1.9344755E3,1.3364373E3,4.7343417E2,5.660831E2,1.665212E2,7.113648E2,9.9859125E2,9.3588416E2,6.822056E2,6.542317E2],"tree_param":{"num_deleted":"0","num_feature":"280","num_nodes":"15","size_leaf_vector":"1"}},{"base_weights":[-1.0800617E-1,-2.6068828E-1,3.6249693E-2,-3.2714647E-1,7.595148E-3,-1.852243E-1,1.3102993E-1,-2.697124E-3,-5.075424E-3,-9.706782E-5,8.177403E-3,3.0050147E-4,-2.972679E-3,2.6647933E-3,6.2774954E-4],"categories":[],"categories_nodes":[],"categories_segments":[],"categories_sizes":[],"default_left":[0,0,0,0,0,0,0,0,0,0,0,0,0,0,0],"id":78,"left_children":[1,3,5,7,9,11,13,-1,-1,-1,-1,-1,-1,-1,-1],"loss_changes":[1.14248184E2,4.4931107E1,5.6025517E1,2.0788162E1,7.0342026E0,1.9303864E1,1.726118E1,0E0,0E0,0E0,0E0,0E0,0E0,0E0,0E0],"parents":[2147483647,0,0,1,1,2,2,3,3,4,4,5,5,6,6],"right_children":[2,4,6,8,10,12,14,-1,-1,-1,-1,-1,-1,-1,-1],"split_conditions":[1.5E1,5.1E0,-2.4E0,2.3E1,1E1,-4.8E0,8E0,-2.697124E-3,-5.075424E-3,-9.706782E-5,8.177403E-3,3.0050147E-4,-2.972679E-3,2.6647933E-3,6.2774954E-4],"split_indices":[51,77,77,80,180,25,103,0,0,0,0,0,0,0,0],"split_type":[0,0,0,0,0,0,0,0,0,0,0,0,0,0,0],"sum_hessian":[5.1857085E3,2.5188845E3,2.666824E3,2.0186199E3,5.0026468E2,7.989514E2,1.8678724E3,1.5330316E3,4.8558823E2,4.907715E2,9.493183E0,2.73738E2,5.252134E2,6.248926E2,1.2429799E3],"tree_param":{"num_deleted":"0","num_feature":"280","num_nodes":"15","size_leaf_vector":"1"}},{"base_weights":[1.0800618E-1,2.6068828E-1,-3.6249697E-2,3.2714647E-1,-7.5951237E-3,1.852243E-1,-1.3102993E-1,2.697124E-3,5.075424E-3,9.706806E-5,-8.177402E-3,-3.0050142E-4,2.972679E-3,-2.6647933E-3,-6.2774954E-4],"categories":[],"categories_nodes":[],"categories_segments":[],"categories_sizes":[],"default_left":[0,0,0,0,0,0,0,0,0,0,0,0,0,0,0],"id":79,"left_children":[1,3,5,7,9,11,13,-1,-1,-1,-1,-1,-1,-1,-1],"loss_changes":[1.14248215E2,4.493109E1,5.6025513E1,2.0788147E1,7.0342026E0,1.9303865E1,1.726118E1,0E0,0E0,0E0,0E0,0E0,0E0,0E0,0E0],"parents":[2147483647,0,0,1,1,2,2,3,3,4,4,5,5,6,6],"right_children":[2,4,6,8,10,12,14,-1,-1,-1,-1,-1,-1,-1,-1],"split_conditions":[1.5E1,5.1E0,-2.4E0,2.3E1,1E1,-4.8E0,8E0,2.697124E-3,5.075424E-3,9.706806E-5,-8.177402E-3,-3.0050142E-4,2.972679E-3,-2.6647933E-3,-6.2774954E-4],"split_indices":[51,77,77,80,180,25,103,0,0,0,0,0,0,0,0],"split_type":[0,0,0,0,0,0,0,0,0,0,0,0,0,0,0],"sum_hessian":[5.1857085E3,2.5188845E3,2.6668237E3,2.0186199E3,5.0026468E2,7.989514E2,1.8678724E3,1.5330316E3,4.8558823E2,4.907715E2,9.493182E0,2.73738E2,5.252134E2,6.248926E2,1.2429799E3],"tree_param":{"num_deleted":"0","num_feature":"280","num_nodes":"15","size_leaf_vector":"1"}},{"base_weights":[-1.0698148E-1,-2.2970597E-1,6.952867E-2,-8.2343675E-2,-3.6093974E-1,-5.1427215E-2,2.1756047E-1,-2.1671178E-3,1.0272691E-4,-5.598143E-3,-3.16231E-3,8.921523E-4,-1.4916456E-3,1.6426173E-3,3.99622E-3],"categories":[],"categories_nodes":[],"categories_segments":[],"categories_sizes":[],"default_left":[0,0,0,0,0,0,0,0,0,0,0,0,0,0,0],"id":80,"left_children":[1,3,5,7,9,11,13,-1,-1,-1,-1,-1,-1,-1,-1],"loss_changes":[1.1231357E2,5.9111755E1,3.809388E1,1.7945644E1,1.4203125E1,1.6114021E1,9.216793E0,0E0,0E0,0E0,0E0,0E0,0E0,0E0,0E0],"parents":[2147483647,0,0,1,1,2,2,3,3,4,4,5,5,6,6],"right_children":[2,4,6,8,10,12,14,-1,-1,-1,-1,-1,-1,-1,-1],"split_conditions":[1.7E1,1.2E1,6E-1,7E0,4E0,-4.8E0,2.8E1,-2.1671178E-3,1.0272691E-4,-5.598143E-3,-3.16231E-3,8.921523E-4,-1.4916456E-3,1.6426173E-3,3.99622E-3],"split_indices":[27,80,77,29,51,25,51,0,0,0,0,0,0,0,0],"split_type":[0,0,0,0,0,0,0,0,0,0,0,0,0,0,0],"sum_hessian":[5.183053E3,3.0571604E3,2.1258928E3,1.440854E3,1.6163065E3,1.1703003E3,9.555926E2,5.8736426E2,8.5348975E2,2.9455164E2,1.3217549E3,4.7986682E2,6.904334E2,7.406644E2,2.149282E2],"tree_param":{"num_deleted":"0","num_feature":"280","num_nodes":"15","size_leaf_vector":"1"}},{"base_weights":[1.0698148E-1,2.2970597E-1,-6.952868E-2,8.234366E-2,3.6093974E-1,5.142721E-2,-2.1756049E-1,2.1671173E-3,-1.0272686E-4,5.5981437E-3,3.1623105E-3,-8.9215225E-4,1.4916454E-3,-1.6426174E-3,-3.99622E-3],"categories":[],"categories_nodes":[],"categories_segments":[],"categories_sizes":[],"default_left":[0,0,0,0,0,0,0,0,0,0,0,0,0,0,0],"id":81,"left_children":[1,3,5,7,9,11,13,-1,-1,-1,-1,-1,-1,-1,-1],"loss_changes":[1.1231355E2,5.911177E1,3.809388E1,1.7945637E1,1.4203125E1,1.6114021E1,9.216797E0,0E0,0E0,0E0,0E0,0E0,0E0,0E0,0E0],"parents":[2147483647,0,0,1,1,2,2,3,3,4,4,5,5,6,6],"right_children":[2,4,6,8,10,12,14,-1,-1,-1,-1,-1,-1,-1,-1],"split_conditions":[1.7E1,1.2E1,6E-1,7E0,4E0,-4.8E0,2.8E1,2.1671173E-3,-1.0272686E-4,5.5981437E-3,3.1623105E-3,-8.9215225E-4,1.4916454E-3,-1.6426174E-3,-3.99622E-3],"split_indices":[27,80,77,29,51,25,51,0,0,0,0,0,0,0,0],"split_type":[0,0,0,0,0,0,0,0,0,0,0,0,0,0,0],"sum_hessian":[5.183053E3,3.0571604E3,2.1258928E3,1.440854E3,1.6163065E3,1.1703003E3,9.555926E2,5.8736426E2,8.5348975E2,2.9455164E2,1.3217549E3,4.7986682E2,6.904334E2,7.406644E2,2.149282E2],"tree_param":{"num_deleted":"0","num_feature":"280","num_nodes":"15","size_leaf_vector":"1"}},{"base_weights":[-1.05966695E-1,-2.5614375E-1,3.5780177E-2,-3.2179525E-1,8.409908E-3,-1.8239602E-1,1.2911448E-1,-2.6496898E-3,-5.0070146E-3,7.5474754E-4,-1.9787895E-3,2.9078382E-4,-2.9258104E-3,