{"learner":{"attributes":{},"feature_names":[],"feature_types":[],"gradient_booster":{"model":{"gbtree_model_param":{"num_parallel_tree":"1","num_trees":"200"},"iteration_indptr":[0,2,4,6,8,10,12,14,16,18,20,22,24,26,28,30,32,34,36,38,40,42,44,46,48,50,52,54,56,58,60,62,64,66,68,70,72,74,76,78,80,82,84,86,88,90,92,94,96,98,100,102,104,106,108,110,112,114,116,118,120,122,124,126,128,130,132,134,136,138,140,142,144,146,148,150,152,154,156,158,160,162,164,166,168,170,172,174,176,178,180,182,184,186,188,190,192,194,196,198,200],"tree_info":[0,1,0,1,0,1,0,1,0,1,0,1,0,1,0,1,0,1,0,1,0,1,0,1,0,1,0,1,0,1,0,1,0,1,0,1,0,1,0,1,0,1,0,1,0,1,0,1,0,1,0,1,0,1,0,1,0,1,0,1,0,1,0,1,0,1,0,1,0,1,0,1,0,1,0,1,0,1,0,1,0,1,0,1,0,1,0,1,0,1,0,1,0,1,0,1,0,1,0,1,0,1,0,1,0,1,0,1,0,1,0,1,0,1,0,1,0,1,0,1,0,1,0,1,0,1,0,1,0,1,0,1,0,1,0,1,0,1,0,1,0,1,0,1,0,1,0,1,0,1,0,1,0,1,0,1,0,1,0,1,0,1,0,1,0,1,0,1,0,1,0,1,0,1,0,1,0,1,0,1,0,1,0,1,0,1,0,1,0,1,0,1,0,1,0,1,0,1,0,1],"trees":[{"base_weights":[-1.6071258E-1,-3.7611824E-1,4.6107896E-2,-4.8218143E-1,-1.0277778E-1,2.079395E-1,-1.8901601E-1,-4.0302915E-3,-6.956957E-3,-1.9620252E-3,7.6923077E-4,3.5624998E-3,1.0759494E-3,8.122503E-4,-3.3008356E-3],"categories":[],"categories_nodes":[],"categories_segments":[],"categories_sizes":[],"default_left":[0,0,0,0,0,0,0,0,0,0,0,0,0,0,0],"id":0,"left_children":[1,3,5,7,9,11,13,-1,-1,-1,-1,-1,-1,-1,-1],"loss_changes":[2.338396E2,7.448724E1,1.0195752E2,3.1018677E1,1.21028185E1,2.3579643E1,4.167536E1,0E0,0E0,0E0,0E0,0E0,0E0,0E0,0E0],"parents":[2147483647,0,0,1,1,2,2,3,3,4,4,5,5,6,6],"right_children":[2,4,6,8,10,12,14,-1,-1,-1,-1,-1,-1,-1,-1],"split_conditions":[1.5E1,3.8E0,1.8E1,2.3E1,1E1,8E0,-4.7E0,-4.0302915E-3,-6.956957E-3,-1.9620252E-3,7.6923077E-4,3.5624998E-3,1.0759494E-3,8.122503E-4,-3.3008356E-3],"split_indices":[51,77,81,80,51,103,25,0,0,0,0,0,0,0,0],"split_type":[0,0,0,0,0,0,0,0,0,0,0,0,0,0,0],"sum_hessian":[5.2475E3,2.57E3,2.6775E3,1.851E3,7.19E2,1.586E3,1.0915E3,1.3525E3,4.985E2,4.73E2,2.46E2,6.39E2,9.47E2,3.745E2,7.17E2],"tree_param":{"num_deleted":"0","num_feature":"280","num_nodes":"15","size_leaf_vector":"1"}},{"base_weights":[1.6071258E-1,3.7611824E-1,-4.6107896E-2,4.8218143E-1,1.0277778E-1,-2.079395E-1,1.8901601E-1,4.0302915E-3,6.956957E-3,1.9620252E-3,-7.6923077E-4,-3.5624998E-3,-1.0759494E-3,-8.122503E-4,3.3008356E-3],"categories":[],"categories_nodes":[],"categories_segments":[],"categories_sizes":[],"default_left":[0,0,0,0,0,0,0,0,0,0,0,0,0,0,0],"id":1,"left_children":[1,3,5,7,9,11,13,-1,-1,-1,-1,-1,-1,-1,-1],"loss_changes":[2.338396E2,7.448724E1,1.0195752E2,3.1018677E1,1.21028185E1,2.3579643E1,4.167536E1,0E0,0E0,0E0,0E0,0E0,0E0,0E0,0E0],"parents":[2147483647,0,0,1,1,2,2,3,3,4,4,5,5,6,6],"right_children":[2,4,6,8,10,12,14,-1,-1,-1,-1,-1,-1,-1,-1],"split_conditions":[1.5E1,3.8E0,1.8E1,2.3E1,1E1,8E0,-4.7E0,4.0302915E-3,6.956957E-3,1.9620252E-3,-7.6923077E-4,-3.5624998E-3,-1.0759494E-3,-8.122503E-4,3.3008356E-3],"split_indices":[51,77,81,80,51,103,25,0,0,0,0,0,0,0,0],"split_type":[0,0,0,0,0,0,0,0,0,0,0,0,0,0,0],"sum_hessian":[5.2475E3,2.57E3,2.6775E3,1.851E3,7.19E2,1.586E3,1.0915E3,1.3525E3,4.985E2,4.73E2,2.46E2,6.39E2,9.47E2,3.745E2,7.17E2],"tree_param":{"num_deleted":"0","num_feature":"280","num_nodes":"15","size_leaf_vector":"1"}},{"base_weights":[-1.5910938E-1,-3.7236884E-1,4.5647915E-2,-4.7737753E-1,-1.01751976E-1,2.0586422E-1,-1.8712951E-1,-3.990084E-3,-6.8878606E-3,-1.9424545E-3,7.6156977E-4,9.875715E-4,3.44782E-3,8.0414955E-4,-3.2679082E-3],"categories":[],"categories_nodes":[],"categories_segments":[],"categories_sizes":[],"default_left":[0,0,0,0,0,0,0,0,0,0,0,0,0,0,0],"id":2,"left_children":[1,3,5,7,9,11,13,-1,-1,-1,-1,-1,-1,-1,-1],"loss_changes":[2.2919737E2,7.301053E1,9.993185E1,3.0408112E1,1.186266E1,2.3578903E1,4.0847908E1,0E0,0E0,0E0,0E0,0E0,0E0,0E0,0E0],"parents":[2147483647,0,0,1,1,2,2,3,3,4,4,5,5,6,6],"right_children":[2,4,6,8,10,12,14,-1,-1,-1,-1,-1,-1,-1,-1],"split_conditions":[1.5E1,3.8E0,1.8E1,2.3E1,1E1,2.4E1,-4.7E0,-3.990084E-3,-6.8878606E-3,-1.9424545E-3,7.6156977E-4,9.875715E-4,3.44782E-3,8.0414955E-4,-3.2679082E-3],"split_indices":[51,77,81,80,51,51,25,0,0,0,0,0,0,0,0],"split_type":[0,0,0,0,0,0,0,0,0,0,0,0,0,0,0],"sum_hessian":[5.2474346E3,2.569952E3,2.677483E3,1.8509539E3,7.18998E2,1.5859908E3,1.091492E3,1.352478E3,4.9847586E2,4.7299814E2,2.4599985E2,8.964948E2,6.8949603E2,3.7449976E2,7.1699225E2],"tree_param":{"num_deleted":"0","num_feature":"280","num_nodes":"15","size_leaf_vector":"1"}},{"base_weights":[1.591094E-1,3.7236884E-1,-4.56479E-2,4.7737753E-1,1.01752E-1,-2.0586424E-1,1.8712954E-1,3.990084E-3,6.8878606E-3,1.9424547E-3,-7.6156977E-4,-9.875715E-4,-3.44782E-3,-8.041498E-4,3.2679092E-3],"categories":[],"categories_nodes":[],"categories_segments":[],"categories_sizes":[],"default_left":[0,0,0,0,0,0,0,0,0,0,0,0,0,0,0],"id":3,"left_children":[1,3,5,7,9,11,13,-1,-1,-1,-1,-1,-1,-1,-1],"loss_changes":[2.2919739E2,7.30105E1,9.993186E1,3.0408112E1,1.1862663E1,2.3578903E1,4.084793E1,0E0,0E0,0E0,0E0,0E0,0E0,0E0,0E0],"parents":[2147483647,0,0,1,1,2,2,3,3,4,4,5,5,6,6],"right_children":[2,4,6,8,10,12,14,-1,-1,-1,-1,-1,-1,-1,-1],"split_conditions":[1.5E1,3.8E0,1.8E1,2.3E1,1E1,2.4E1,-4.7E0,3.990084E-3,6.8878606E-3,1.9424547E-3,-7.6156977E-4,-9.875715E-4,-3.44782E-3,-8.041498E-4,3.2679092E-3],"split_indices":[51,77,81,80,51,51,25,0,0,0,0,0,0,0,0],"split_type":[0,0,0,0,0,0,0,0,0,0,0,0,0,0,0],"sum_hessian":[5.2474346E3,2.569952E3,2.677483E3,1.8509539E3,7.1899805E2,1.5859908E3,1.091492E3,1.352478E3,4.9847586E2,4.7299817E2,2.4599985E2,8.964948E2,6.8949603E2,3.744998E2,7.169922E2],"tree_param":{"num_deleted":"0","num_feature":"280","num_nodes":"15","size_leaf_vector":"1"}},{"base_weights":[-1.575259E-1,-3.6867028E-1,4.5192953E-2,-4.726445E-1,-1.0073691E-1,-2.4800716E-1,1.6996735E-1,-3.950402E-3,-6.820098E-3,-1.9230923E-3,7.539856E-4,4.1589598E-4,-3.997854E-3,3.4435906E-3,7.9218287E-4],"categories":[],"categories_nodes":[],"categories_segments":[],"categories_sizes":[],"default_left":[0,0,0,0,0,0,0,0,0,0,0,0,0,0,0],"id":4,"left_children":[1,3,5,7,9,11,13,-1,-1,-1,-1,-1,-1,-1,-1],"loss_changes":[2.2465703E2,7.1570465E1,9.8029724E1,2.9818237E1,1.1627353E1,3.5179226E1,2.971682E1,0E0,0E0,0E0,0E0,0E0,0E0,0E0,0E0],"parents":[2147483647,0,0,1,1,2,2,3,3,4,4,5,5,6,6],"right_children":[2,4,6,8,10,12,14,-1,-1,-1,-1,-1,-1,-1,-1],"split_conditions":[1.5E1,3.8E0,-2.4E0,2.3E1,1E1,-4.8E0,8E0,-3.950402E-3,-6.820098E-3,-1.9230923E-3,7.539856E-4,4.1589598E-4,-3.997854E-3,3.4435906E-3,7.9218287E-4],"split_indices":[51,77,77,80,51,25,103,0,0,0,0,0,0,0,0],"split_type":[0,0,0,0,0,0,0,0,0,0,0,0,0,0,0],"sum_hessian":[5.247246E3,2.5698098E3,2.6774363E3,1.8508175E3,7.189922E2,7.989776E2,1.8784586E3,1.352413E3,4.984045E2,4.729928E2,2.4599944E2,2.749988E2,5.239788E2,6.419789E2,1.2364797E3],"tree_param":{"num_deleted":"0","num_feature":"280","num_nodes":"15","size_leaf_vector":"1"}},{"base_weights":[1.5752594E-1,3.6867034E-1,-4.5192953E-2,4.726446E-1,1.00736864E-1,2.480072E-1,-1.6996737E-1,3.950403E-3,6.8200994E-3,1.9230923E-3,-7.539868E-4,-4.1589516E-4,3.997854E-3,-3.4435908E-3,-7.9218275E-4],"categories":[],"categories_nodes":[],"categories_segments":[],"categories_sizes":[],"default_left":[0,0,0,0,0,0,0,0,0,0,0,0,0,0,0],"id":5,"left_children":[1,3,5,7,9,11,13,-1,-1,-1,-1,-1,-1,-1,-1],"loss_changes":[2.2465709E2,7.1570526E1,9.802974E1,2.9818237E1,1.1627361E1,3.5179222E1,2.971682E1,0E0,0E0,0E0,0E0,0E0,0E0,0E0,0E0],"parents":[2147483647,0,0,1,1,2,2,3,3,4,4,5,5,6,6],"right_children":[2,4,6,8,10,12,14,-1,-1,-1,-1,-1,-1,-1,-1],"split_conditions":[1.5E1,3.8E0,-2.4E0,2.3E1,1E1,-4.8E0,8E0,3.950403E-3,6.8200994E-3,1.9230923E-3,-7.539868E-4,-4.1589516E-4,3.997854E-3,-3.4435908E-3,-7.9218275E-4],"split_indices":[51,77,77,80,51,25,103,0,0,0,0,0,0,0,0],"split_type":[0,0,0,0,0,0,0,0,0,0,0,0,0,0,0],"sum_hessian":[5.247246E3,2.5698098E3,2.6774363E3,1.8508175E3,7.189922E2,7.9897766E2,1.8784586E3,1.352413E3,4.9840448E2,4.729928E2,2.4599944E2,2.7499884E2,5.239788E2,6.419789E2,1.2364799E3],"tree_param":{"num_deleted":"0","num_feature":"280","num_nodes":"15","size_leaf_vector":"1"}},{"base_weights":[-1.5596193E-1,-3.6502168E-1,4.474242E-2,-4.6798083E-1,-9.973253E-2,2.0206088E-1,-1.8382771E-1,-3.9112377E-3,-6.753628E-3,-1.9039384E-3,7.464783E-4,9.60762E-4,3.395294E-3,7.9116906E-4,-3.210978E-3],"categories":[],"categories_nodes":[],"categories_segments":[],"categories_sizes":[],"default_left":[0,0,0,0,0,0,0,0,0,0,0,0,0,0,0],"id":6,"left_children":[1,3,5,7,9,11,13,-1,-1,-1,-1,-1,-1,-1,-1],"loss_changes":[2.2021582E2,7.0165924E1,9.634667E1,2.9247986E1,1.1396814E1,2.3088257E1,3.9456264E1,0E0,0E0,0E0,0E0,0E0,0E0,0E0,0E0],"parents":[2147483647,0,0,1,1,2,2,3,3,4,4,5,5,6,6],"right_children":[2,4,6,8,10,12,14,-1,-1,-1,-1,-1,-1,-1,-1],"split_conditions":[1.5E1,3.8E0,1.8E1,2.3E1,1E1,2.4E1,-4.7E0,-3.9112377E-3,-6.753628E-3,-1.9039384E-3,7.464783E-4,9.60762E-4,3.395294E-3,7.9116906E-4,-3.210978E-3],"split_indices":[51,77,81,80,51,51,25,0,0,0,0,0,0,0,0],"split_type":[0,0,0,0,0,0,0,0,0,0,0,0,0,0,0],"sum_hessian":[5.2469434E3,2.5695762E3,2.6773672E3,1.8505935E3,7.189826E2,1.5859309E3,1.0914362E3,1.3523063E3,4.982872E2,4.729839E2,2.459987E2,8.964726E2,6.8945825E2,3.744982E2,7.16938E2],"tree_param":{"num_deleted":"0","num_feature":"280","num_nodes":"15","size_leaf_vector":"1"}},{"base_weights":[1.5596192E-1,3.6502165E-1,-4.4742428E-2,4.6798083E-1,9.973252E-2,-2.020609E-1,1.838277E-1,3.911237E-3,6.753628E-3,1.9039385E-3,-7.464795E-4,-9.607623E-4,-3.3952938E-3,-7.911694E-4,3.210978E-3],"categories":[],"categories_nodes":[],"categories_segments":[],"categories_sizes":[],"default_left":[0,0,0,0,0,0,0,0,0,0,0,0,0,0,0],"id":7,"left_children":[1,3,5,7,9,11,13,-1,-1,-1,-1,-1,-1,-1,-1],"loss_changes":[2.2021582E2,7.016589E1,9.634667E1,2.9247986E1,1.1396825E1,2.3088257E1,3.945627E1,0E0,0E0,0E0,0E0,0E0,0E0,0E0,0E0],"parents":[2147483647,0,0,1,1,2,2,3,3,4,4,5,5,6,6],"right_children":[2,4,6,8,10,12,14,-1,-1,-1,-1,-1,-1,-1,-1],"split_conditions":[1.5E1,3.8E0,1.8E1,2.3E1,1E1,2.4E1,-4.7E0,3.911237E-3,6.753628E-3,1.9039385E-3,-7.464795E-4,-9.607623E-4,-3.3952938E-3,-7.911694E-4,3.210978E-3],"split_indices":[51,77,81,80,51,51,25,0,0,0,0,0,0,0,0],"split_type":[0,0,0,0,0,0,0,0,0,0,0,0,0,0,0],"sum_hessian":[5.246943E3,2.569576E3,2.677367E3,1.8505934E3,7.1898267E2,1.5859309E3,1.0914362E3,1.3523062E3,4.982872E2,4.7298392E2,2.459987E2,8.964726E2,6.8945825E2,3.744982E2,7.16938E2],"tree_param":{"num_deleted":"0","num_feature":"280","num_nodes":"15","size_leaf_vector":"1"}},{"base_weights":[-1.5441684E-1,1.01139285E-1,-3.1578836E-1,-6.656908E-2,2.9165545E-1,-4.6328068E-1,-1.0737843E-1,1.2508788E-3,-2.1859624E-3,2.3285884E-3,4.6597137E-3,-3.693188E-3,-6.0475026E-3,-2.6267548E-3,6.826694E-4],"categories":[],"categories_nodes":[],"categories_segments":[],"categories_sizes":[],"default_left":[0,0,0,0,0,0,0,0,0,0,0,0,0,0,0],"id":8,"left_children":[1,3,5,7,9,11,13,-1,-1,-1,-1,-1,-1,-1,-1],"loss_changes":[2.1643692E2,6.493795E1,9.882837E1,3.1536121E1,9.642647E0,2.4811523E1,3.641571E1,0E0,0E0,0E0,0E0,0E0,0E0,0E0,0E0],"parents":[2147483647,0,0,1,1,2,2,3,3,4,4,5,5,6,6],"right_children":[2,4,6,8,10,12,14,-1,-1,-1,-1,-1,-1,-1,-1],"split_conditions":[4.59E-1,5.14E-1,1.6E0,-4.8E0,2.8E1,2.2E1,1E1,1.2508788E-3,-2.1859624E-3,2.3285884E-3,4.6597137E-3,-3.693188E-3,-6.0475026E-3,-2.6267548E-3,6.826694E-4],"split_indices":[3,55,77,25,51,80,51,0,0,0,0,0,0,0,0],"split_type":[0,0,0,0,0,0,0,0,0,0,0,0,0,0,0],"sum_hessian":[5.246519E3,2.0308055E3,3.2157136E3,1.0803984E3,9.5040704E2,1.8823475E3,1.3333661E3,4.7798785E2,6.024106E2,7.124381E2,2.3796895E2,1.133263E3,7.4908466E2,7.0741174E2,6.2595435E2],"tree_param":{"num_deleted":"0","num_feature":"280","num_nodes":"15","size_leaf_vector":"1"}},{"base_weights":[1.544168E-1,-1.01139344E-1,3.1578833E-1,6.6569045E-2,-2.9165554E-1,4.6328068E-1,1.0737838E-1,-1.2508793E-3,2.1859622E-3,-2.328589E-3,-4.659714E-3,3.693188E-3,6.0475026E-3,2.6267539E-3,-6.826698E-4],"categories":[],"categories_nodes":[],"categories_segments":[],"categories_sizes":[],"default_left":[0,0,0,0,0,0,0,0,0,0,0,0,0,0,0],"id":9,"left_children":[1,3,5,7,9,11,13,-1,-1,-1,-1,-1,-1,-1,-1],"loss_changes":[2.1643692E2,6.493797E1,9.882843E1,3.153612E1,9.642632E0,2.4811493E1,3.6415695E1,0E0,0E0,0E0,0E0,0E0,0E0,0E0,0E0],"parents":[2147483647,0,0,1,1,2,2,3,3,4,4,5,5,6,6],"right_children":[2,4,6,8,10,12,14,-1,-1,-1,-1,-1,-1,-1,-1],"split_conditions":[4.59E-1,5.14E-1,1.6E0,-4.8E0,2.8E1,2.2E1,1E1,-1.2508793E-3,2.1859622E-3,-2.328589E-3,-4.659714E-3,3.693188E-3,6.0475026E-3,2.6267539E-3,-6.826698E-4],"split_indices":[3,55,77,25,51,80,51,0,0,0,0,0,0,0,0],"split_type":[0,0,0,0,0,0,0,0,0,0,0,0,0,0,0],"sum_hessian":[5.246519E3,2.0308055E3,3.2157136E3,1.0803984E3,9.5040704E2,1.8823475E3,1.333366E3,4.7798788E2,6.024106E2,7.124381E2,2.3796896E2,1.133263E3,7.490846E2,7.0741174E2,6.259543E2],"tree_param":{"num_deleted":"0","num_feature":"280","num_nodes":"15","size_leaf_vector":"1"}},{"base_weights":[-1.5288825E-1,-3.582401E-1,4.422156E-2,-4.59533E-1,-9.7322725E-2,-2.421464E-1,1.6607949E-1,-3.8410176E-3,-6.6316086E-3,-1.859333E-3,7.3101954E-4,3.9060315E-4,-3.8955759E-3,3.3675828E-3,7.72712E-4],"categories":[],"categories_nodes":[],"categories_segments":[],"categories_sizes":[],"default_left":[0,0,0,0,0,0,0,0,0,0,0,0,0,0,0],"id":10,"left_children":[1,3,5,7,9,11,13,-1,-1,-1,-1,-1,-1,-1,-1],"loss_changes":[2.1239903E2,6.7875244E1,9.349682E1,2.817569E1,1.0885807E1,3.3171215E1,2.845961E1,0E0,0E0,0E0,0E0,0E0,0E0,0E0,0E0],"parents":[2147483647,0,0,1,1,2,2,3,3,4,4,5,5,6,6],"right_children":[2,4,6,8,10,12,14,-1,-1,-1,-1,-1,-1,-1,-1],"split_conditions":[1.5E1,3.8E0,-2.4E0,2.3E1,1E1,-4.8E0,8E0,-3.8410176E-3,-6.6316086E-3,-1.859333E-3,7.3101954E-4,3.9060315E-4,-3.8955759E-3,3.3675828E-3,7.72712E-4],"split_indices":[51,77,77,80,51,25,103,0,0,0,0,0,0,0,0],"split_type":[0,0,0,0,0,0,0,0,0,0,0,0,0,0,0],"sum_hessian":[5.2460264E3,2.5688962E3,2.6771304E3,1.8499503E3,7.189459E2,7.9884515E2,1.8782852E3,1.3520045E3,4.9794574E2,4.729496E2,2.4599634E2,2.7499335E2,5.238518E2,6.418792E2,1.236406E3],"tree_param":{"num_deleted":"0","num_feature":"280","num_nodes":"15","size_leaf_vector":"1"}},{"base_weights":[1.5288824E-1,3.5824007E-1,-4.4221565E-2,4.5953298E-1,9.7322665E-2,2.4214637E-1,-1.6607949E-1,3.8410176E-3,6.6316077E-3,1.8593321E-3,-7.310196E-4,-3.906031E-4,3.8955754E-3,-3.3675828E-3,-7.7271176E-4],"categories":[],"categories_nodes":[],"categories_segments":[],"categories_sizes":[],"default_left":[0,0,0,0,0,0,0,0,0,0,0,0,0,0,0],"id":11,"left_children":[1,3,5,7,9,11,13,-1,-1,-1,-1,-1,-1,-1,-1],"loss_changes":[2.1239897E2,6.7875336E1,9.3496796E1,2.8175629E1,1.0885799E1,3.3171207E1,2.8459606E1,0E0,0E0,0E0,0E0,0E0,0E0,0E0,0E0],"parents":[2147483647,0,0,1,1,2,2,3,3,4,4,5,5,6,6],"right_children":[2,4,6,8,10,12,14,-1,-1,-1,-1,-1,-1,-1,-1],"split_conditions":[1.5E1,3.8E0,-2.4E0,2.3E1,1E1,-4.8E0,8E0,3.8410176E-3,6.6316077E-3,1.8593321E-3,-7.310196E-4,-3.906031E-4,3.8955754E-3,-3.3675828E-3,-7.7271176E-4],"split_indices":[51,77,77,80,51,25,103,0,0,0,0,0,0,0,0],"split_type":[0,0,0,0,0,0,0,0,0,0,0,0,0,0,0],"sum_hessian":[5.2460264E3,2.5688962E3,2.6771304E3,1.8499502E3,7.189459E2,7.988452E2,1.8782852E3,1.3520045E3,4.9794577E2,4.7294962E2,2.4599634E2,2.7499335E2,5.2385187E2,6.418793E2,1.236406E3],"tree_param":{"num_deleted":"0","num_feature":"280","num_nodes":"15","size_leaf_vector":"1"}},{"base_weights":[-1.513798E-1,9.885208E-2,-3.105636E-1,-2.1399395E-1,1.970243E-1,-1.1324662E-1,-4.616927E-1,-2.2396092E-5,-3.6938377E-3,9.611875E-4,3.374049E-3,-2.4513E-3,4.1282663E-4,-3.7006207E-3,-5.9181005E-3],"categories":[],"categories_nodes":[],"categories_segments":[],"categories_sizes":[],"default_left":[0,0,0,0,0,0,0,0,0,0,0,0,0,0,0],"id":12,"left_children":[1,3,5,7,9,11,13,-1,-1,-1,-1,-1,-1,-1,-1],"loss_changes":[2.0900977E2,6.271457E1,9.557559E1,1.6052555E1,2.1976269E1,2.8382708E1,2.142807E1,0E0,0E0,0E0,0E0,0E0,0E0,0E0,0E0],"parents":[2147483647,0,0,1,1,2,2,3,3,4,4,5,5,6,6],"right_children":[2,4,6,8,10,12,14,-1,-1,-1,-1,-1,-1,-1,-1],"split_conditions":[4.62E-1,3.73E-1,1.1E1,-4.8E0,2.6E1,1E1,2.2E1,-2.2396092E-5,-3.6938377E-3,9.611875E-4,3.374049E-3,-2.4513E-3,4.1282663E-4,-3.7006207E-3,-5.9181005E-3],"split_indices":[3,55,80,25,51,51,80,0,0,0,0,0,0,0,0],"split_type":[0,0,0,0,0,0,0,0,0,0,0,0,0,0,0],"sum_hessian":[5.2453984E3,2.0395966E3,3.205802E3,4.8687836E2,1.5527183E3,1.3911887E3,1.8146132E3,2.0649536E2,2.80383E2,9.043537E2,6.483645E2,7.502769E2,6.4091187E2,1.0670352E3,7.47578E2],"tree_param":{"num_deleted":"0","num_feature":"280","num_nodes":"15","size_leaf_vector":"1"}},{"base_weights":[1.5137981E-1,-9.88521E-2,3.1056362E-1,2.1399392E-1,-1.9702432E-1,1.1324665E-1,4.6169272E-1,2.2396325E-5,3.6938367E-3,-9.6118776E-4,-3.374049E-3,2.4513004E-3,-4.128266E-4,3.7006207E-3,5.918101E-3],"categories":[],"categories_nodes":[],"categories_segments":[],"categories_sizes":[],"default_left":[0,0,0,0,0,0,0,0,0,0,0,0,0,0,0],"id":13,"left_children":[1,3,5,7,9,11,13,-1,-1,-1,-1,-1,-1,-1,-1],"loss_changes":[2.0900986E2,6.2714565E1,9.557559E1,1.6052542E1,2.1976265E1,2.8382715E1,2.14281E1,0E0,0E0,0E0,0E0,0E0,0E0,0E0,0E0],"parents":[2147483647,0,0,1,1,2,2,3,3,4,4,5,5,6,6],"right_children":[2,4,6,8,10,12,14,-1,-1,-1,-1,-1,-1,-1,-1],"split_conditions":[4.62E-1,3.73E-1,1.1E1,-4.8E0,2.6E1,1E1,2.2E1,2.2396325E-5,3.6938367E-3,-9.6118776E-4,-3.374049E-3,2.4513004E-3,-4.128266E-4,3.7006207E-3,5.918101E-3],"split_indices":[3,55,80,25,51,51,80,0,0,0,0,0,0,0,0],"split_type":[0,0,0,0,0,0,0,0,0,0,0,0,0,0,0],"sum_hessian":[5.2453984E3,2.0395966E3,3.2058018E3,4.8687836E2,1.5527183E3,1.3911887E3,1.8146132E3,2.0649535E2,2.80383E2,9.0435376E2,6.483645E2,7.5027686E2,6.4091187E2,1.0670352E3,7.47578E2],"tree_param":{"num_deleted":"0","num_feature":"280","num_nodes":"15","size_leaf_vector":"1"}},{"base_weights":[-1.4988764E-1,-3.5163608E-1,4.371382E-2,-4.51365E-1,-9.485698E-2,-2.377029E-1,1.6344923E-1,-3.7732797E-3,-6.513621E-3,-1.8163797E-3,7.203066E-4,3.78933E-4,-3.8221502E-3,3.319583E-3,7.5780536E-4],"categories":[],"categories_nodes":[],"categories_segments":[],"categories_sizes":[],"default_left":[0,0,0,0,0,0,0,0,0,0,0,0,0,0,0],"id":14,"left_children":[1,3,5,7,9,11,13,-1,-1,-1,-1,-1,-1,-1,-1],"loss_changes":[2.0490701E2,6.574292E1,9.0268814E1,2.714801E1,1.0439049E1,3.1863102E1,2.7735115E1,0E0,0E0,0E0,0E0,0E0,0E0,0E0,0E0],"parents":[2147483647,0,0,1,1,2,2,3,3,4,4,5,5,6,6],"right_children":[2,4,6,8,10,12,14,-1,-1,-1,-1,-1,-1,-1,-1],"split_conditions":[1.5E1,3.8E0,-2.4E0,2.3E1,1E1,-4.8E0,8E0,-3.7732797E-3,-6.513621E-3,-1.8163797E-3,7.203066E-4,3.78933E-4,-3.8221502E-3,3.319583E-3,7.5780536E-4],"split_indices":[51,77,77,80,51,25,103,0,0,0,0,0,0,0,0],"split_type":[0,0,0,0,0,0,0,0,0,0,0,0,0,0,0],"sum_hessian":[5.244724E3,2.567923E3,2.6768008E3,1.849031E3,7.1889215E2,7.986742E2,1.8781266E3,1.3515768E3,4.9745422E2,4.7289832E2,2.4599387E2,2.749879E2,5.236863E2,6.417755E2,1.2363511E3],"tree_param":{"num_deleted":"0","num_feature":"280","num_nodes":"15","size_leaf_vector":"1"}},{"base_weights":[1.4988762E-1,3.5163605E-1,-4.371382E-2,4.5136502E-1,9.485691E-2,2.3770292E-1,-1.6344923E-1,3.7732797E-3,6.513621E-3,1.8163788E-3,-7.2030694E-4,-3.7893327E-4,3.8221504E-3,-3.3195831E-3,-7.5780525E-4],"categories":[],"categories_nodes":[],"categories_segments":[],"categories_sizes":[],"default_left":[0,0,0,0,0,0,0,0,0,0,0,0,0,0,0],"id":15,"left_children":[1,3,5,7,9,11,13,-1,-1,-1,-1,-1,-1,-1,-1],"loss_changes":[2.04907E2,6.574298E1,9.0268814E1,2.714798E1,1.0439045E1,3.186311E1,2.773513E1,0E0,0E0,0E0,0E0,0E0,0E0,0E0,0E0],"parents":[2147483647,0,0,1,1,2,2,3,3,4,4,5,5,6,6],"right_children":[2,4,6,8,10,12,14,-1,-1,-1,-1,-1,-1,-1,-1],"split_conditions":[1.5E1,3.8E0,-2.4E0,2.3E1,1E1,-4.8E0,8E0,3.7732797E-3,6.513621E-3,1.8163788E-3,-7.2030694E-4,-3.7893327E-4,3.8221504E-3,-3.3195831E-3,-7.5780525E-4],"split_indices":[51,77,77,80,51,25,103,0,0,0,0,0,0,0,0],"split_type":[0,0,0,0,0,0,0,0,0,0,0,0,0,0,0],"sum_hessian":[5.244724E3,2.567923E3,2.6768008E3,1.849031E3,7.188922E2,7.986742E2,1.8781266E3,1.3515768E3,4.9745422E2,4.7289835E2,2.4599388E2,2.749879E2,5.236863E2,6.417755E2,1.2363511E3],"tree_param":{"num_deleted":"0","num_feature":"280","num_nodes":"15","size_leaf_vector":"1"}},{"base_weights":[-1.4841454E-1,9.8399416E-2,-3.043338E-1,-6.426812E-2,2.8320077E-1,-4.469101E-1,-1.0301926E-1,1.2089129E-3,-2.1117798E-3,2.2553022E-3,4.5422683E-3,-3.5668383E-3,-5.8289478E-3,-2.5254204E-3,6.6058E-4],"categories":[],"categories_nodes":[],"categories_segments":[],"categories_sizes":[],"default_left":[0,0,0,0,0,0,0,0,0,0,0,0,0,0,0],"id":16,"left_children":[1,3,5,7,9,11,13,-1,-1,-1,-1,-1,-1,-1,-1],"loss_changes":[2.0186954E2,6.1082413E1,9.222061E1,2.9435478E1,9.278938E0,2.2877106E1,3.3742676E1,0E0,0E0,0E0,0E0,0E0,0E0,0E0,0E0],"parents":[2147483647,0,0,1,1,2,2,3,3,4,4,5,5,6,6],"right_children":[2,4,6,8,10,12,14,-1,-1,-1,-1,-1,-1,-1,-1],"split_conditions":[4.59E-1,5.14E-1,1.6E0,-4.8E0,2.8E1,2.2E1,1E1,1.2089129E-3,-2.1117798E-3,2.2553022E-3,4.5422683E-3,-3.5668383E-3,-5.8289478E-3,-2.5254204E-3,6.6058E-4],"split_indices":[3,55,77,25,51,80,51,0,0,0,0,0,0,0,0],"split_type":[0,0,0,0,0,0,0,0,0,0,0,0,0,0,0],"sum_hessian":[5.243896E3,2.0303314E3,3.2135645E3,1.0801788E3,9.5015265E2,1.8805143E3,1.3330502E3,4.7795728E2,6.022215E2,7.1228613E2,2.3786652E2,1.1326322E3,7.478821E2,7.0717194E2,6.2587823E2],"tree_param":{"num_deleted":"0","num_feature":"280","num_nodes":"15","size_leaf_vector":"1"}},{"base_weights":[1.4841455E-1,-9.839939E-2,3.043338E-1,6.426813E-2,-2.832007E-1,4.469101E-1,1.0301926E-1,-1.2089128E-3,2.1117798E-3,-2.255302E-3,-4.5422674E-3,3.5668379E-3,5.8289487E-3,2.5254204E-3,-6.605802E-4],"categories":[],"categories_nodes":[],"categories_segments":[],"categories_sizes":[],"default_left":[0,0,0,0,0,0,0,0,0,0,0,0,0,0,0],"id":17,"left_children":[1,3,5,7,9,11,13,-1,-1,-1,-1,-1,-1,-1,-1],"loss_changes":[2.0186952E2,6.1082405E1,9.222061E1,2.9435476E1,9.278931E0,2.2877136E1,3.3742683E1,0E0,0E0,0E0,0E0,0E0,0E0,0E0,0E0],"parents":[2147483647,0,0,1,1,2,2,3,3,4,4,5,5,6,6],"right_children":[2,4,6,8,10,12,14,-1,-1,-1,-1,-1,-1,-1,-1],"split_conditions":[4.59E-1,5.14E-1,1.6E0,-4.8E0,2.8E1,2.2E1,1E1,-1.2089128E-3,2.1117798E-3,-2.255302E-3,-4.5422674E-3,3.5668379E-3,5.8289487E-3,2.5254204E-3,-6.605802E-4],"split_indices":[3,55,77,25,51,80,51,0,0,0,0,0,0,0,0],"split_type":[0,0,0,0,0,0,0,0,0,0,0,0,0,0,0],"sum_hessian":[5.243896E3,2.0303314E3,3.2135645E3,1.0801788E3,9.5015265E2,1.8805143E3,1.3330502E3,4.779573E2,6.022215E2,7.1228613E2,2.3786653E2,1.1326322E3,7.478821E2,7.0717194E2,6.2587823E2],"tree_param":{"num_deleted":"0","num_feature":"280","num_nodes":"15","size_leaf_vector":"1"}},{"base_weights":[-1.4695656E-1,9.742617E-2,-3.0136243E-1,-6.362961E-2,2.8040746E-1,-4.42598E-1,-1.01996824E-1,1.1968758E-3,-2.090855E-3,1.7046744E-3,3.6811202E-3,-3.5318965E-3,-5.773994E-3,-2.5004803E-3,6.539885E-4],"categories":[],"categories_nodes":[],"categories_segments":[],"categories_sizes":[],"default_left":[0,0,0,0,0,0,0,0,0,0,0,0,0,0,0],"id":18,"left_children":[1,3,5,7,9,11,13,-1,-1,-1,-1,-1,-1,-1,-1],"loss_changes":[1.9790747E2,5.987679E1,9.044861E1,2.8852697E1,9.107468E0,2.2465027E1,3.3076263E1,0E0,0E0,0E0,0E0,0E0,0E0,0E0,0E0],"parents":[2147483647,0,0,1,1,2,2,3,3,4,4,5,5,6,6],"right_children":[2,4,6,8,10,12,14,-1,-1,-1,-1,-1,-1,-1,-1],"split_conditions":[4.59E-1,5.14E-1,1.6E0,-4.8E0,2.4E1,2.2E1,1E1,1.1968758E-3,-2.090855E-3,1.7046744E-3,3.6811202E-3,-3.5318965E-3,-5.773994E-3,-2.5004803E-3,6.539885E-4],"split_indices":[3,55,77,25,51,80,51,0,0,0,0,0,0,0,0],"split_type":[0,0,0,0,0,0,0,0,0,0,0,0,0,0,0],"sum_hessian":[5.243009E3,2.0301691E3,3.2128398E3,1.0801228E3,9.5004626E2,1.8798717E3,1.332968E3,4.779467E2,6.0217615E2,4.2288834E2,5.271579E2,1.13241E3,7.474617E2,7.0709344E2,6.258745E2],"tree_param":{"num_deleted":"0","num_feature":"280","num_nodes":"15","size_leaf_vector":"1"}},{"base_weights":[1.4695658E-1,-9.742616E-2,3.0136245E-1,6.3629605E-2,-2.8040743E-1,4.4259802E-1,1.01996824E-1,-1.1968758E-3,2.090855E-3,-1.7046739E-3,-3.6811205E-3,3.531897E-3,5.773994E-3,2.5004803E-3,-6.539887E-4],"categories":[],"categories_nodes":[],"categories_segments":[],"categories_sizes":[],"default_left":[0,0,0,0,0,0,0,0,0,0,0,0,0,0,0],"id":19,"left_children":[1,3,5,7,9,11,13,-1,-1,-1,-1,-1,-1,-1,-1],"loss_changes":[1.9790744E2,5.9876778E1,9.044864E1,2.8852695E1,9.107475E0,2.2464996E1,3.3076263E1,0E0,0E0,0E0,0E0,0E0,0E0,0E0,0E0],"parents":[2147483647,0,0,1,1,2,2,3,3,4,4,5,5,6,6],"right_children":[2,4,6,8,10,12,14,-1,-1,-1,-1,-1,-1,-1,-1],"split_conditions":[4.59E-1,5.14E-1,1.6E0,-4.8E0,2.4E1,2.2E1,1E1,-1.1968758E-3,2.090855E-3,-1.7046739E-3,-3.6811205E-3,3.531897E-3,5.773994E-3,2.5004803E-3,-6.539887E-4],"split_indices":[3,55,77,25,51,80,51,0,0,0,0,0,0,0,0],"split_type":[0,0,0,0,0,0,0,0,0,0,0,0,0,0,0],"sum_hessian":[5.243009E3,2.0301691E3,3.2128398E3,1.0801228E3,9.500462E2,1.8798717E3,1.332968E3,4.779467E2,6.0217615E2,4.2288834E2,5.271579E2,1.1324102E3,7.474616E2,7.0709344E2,6.258746E2],"tree_param":{"num_deleted":"0","num_feature":"280","num_nodes":"15","size_leaf_vector":"1"}},{"base_weights":[-1.455161E-1,-3.4218282E-1,4.3117374E-2,-4.397424E-1,-9.119775E-2,-2.3183271E-1,1.6007434E-1,-3.6764268E-3,-6.3476274E-3,-1.822685E-3,6.171402E-4,3.543145E-4,-3.720564E-3,3.2443E-3,7.458585E-4],"categories":[],"categories_nodes":[],"categories_segments":[],"categories_sizes":[],"default_left":[0,0,0,0,0,0,0,0,0,0,0,0,0,0,0],"id":20,"left_children":[1,3,5,7,9,11,13,-1,-1,-1,-1,-1,-1,-1,-1],"loss_changes":[1.9451984E2,6.2814514E1,8.612399E1,2.5753967E1,1.0034603E1,2.9969204E1,2.6372948E1,0E0,0E0,0E0,0E0,0E0,0E0,0E0,0E0],"parents":[2147483647,0,0,1,1,2,2,3,3,4,4,5,5,6,6],"right_children":[2,4,6,8,10,12,14,-1,-1,-1,-1,-1,-1,-1,-1],"split_conditions":[1.5E1,3.8E0,-2.4E0,2.3E1,1.8E1,-4.8E0,8E0,-3.6764268E-3,-6.3476274E-3,-1.822685E-3,6.171402E-4,3.543145E-4,-3.720564E-3,3.2443E-3,7.458585E-4],"split_indices":[51,77,77,80,201,25,103,0,0,0,0,0,0,0,0],"split_type":[0,0,0,0,0,0,0,0,0,0,0,0,0,0,0],"sum_hessian":[5.2420176E3,2.5659639E3,2.6760535E3,1.8471948E3,7.1876917E2,7.9832245E2,1.877731E3,1.3507157E3,4.9647903E2,4.5035565E2,2.684135E2,2.749739E2,5.233486E2,6.415417E2,1.2361892E3],"tree_param":{"num_deleted":"0","num_feature":"280","num_nodes":"15","size_leaf_vector":"1"}},{"base_weights":[1.4551611E-1,3.4218282E-1,-4.311736E-2,4.397424E-1,9.119783E-2,2.3183274E-1,-1.6007432E-1,3.6764268E-3,6.347627E-3,1.8226858E-3,-6.1713945E-4,-3.5431414E-4,3.7205645E-3,-3.2442992E-3,-7.4585853E-4],"categories":[],"categories_nodes":[],"categories_segments":[],"categories_sizes":[],"default_left":[0,0,0,0,0,0,0,0,0,0,0,0,0,0,0],"id":21,"left_children":[1,3,5,7,9,11,13,-1,-1,-1,-1,-1,-1,-1,-1],"loss_changes":[1.945198E2,6.2814545E1,8.612399E1,2.5753937E1,1.0034602E1,2.9969212E1,2.6372925E1,0E0,0E0,0E0,0E0,0E0,0E0,0E0,0E0],"parents":[2147483647,0,0,1,1,2,2,3,3,4,4,5,5,6,6],"right_children":[2,4,6,8,10,12,14,-1,-1,-1,-1,-1,-1,-1,-1],"split_conditions":[1.5E1,3.8E0,-2.4E0,2.3E1,1.8E1,-4.8E0,8E0,3.6764268E-3,6.347627E-3,1.8226858E-3,-6.1713945E-4,-3.5431414E-4,3.7205645E-3,-3.2442992E-3,-7.4585853E-4],"split_indices":[51,77,77,80,201,25,103,0,0,0,0,0,0,0,0],"split_type":[0,0,0,0,0,0,0,0,0,0,0,0,0,0,0],"sum_hessian":[5.2420176E3,2.565964E3,2.6760535E3,1.8471948E3,7.1876917E2,7.9832245E2,1.877731E3,1.3507158E3,4.9647906E2,4.5035565E2,2.684135E2,2.749739E2,5.233485E2,6.4154175E2,1.2361892E3],"tree_param":{"num_deleted":"0","num_feature":"280","num_nodes":"15","size_leaf_vector":"1"}},{"base_weights":[-1.4409302E-1,9.611006E-2,-2.959089E-1,-2.0526156E-1,1.9096248E-1,-1.3990144E-1,-4.7081965E-1,-5.430558E-5,-3.525316E-3,9.3029335E-4,3.2603415E-3,-2.6709654E-3,1.1882397E-4,-3.894128E-3,-5.82045E-3],"categories":[],"categories_nodes":[],"categories_segments":[],"categories_sizes":[],"default_left":[0,0,0,0,0,0,0,0,0,0,0,0,0,0,0],"id":22,"left_children":[1,3,5,7,9,11,13,-1,-1,-1,-1,-1,-1,-1,-1],"loss_changes":[1.911843E2,5.8090797E1,8.758545E1,1.4319258E1,2.0408901E1,3.2809082E1,1.3481049E1,0E0,0E0,0E0,0E0,0E0,0E0,0E0,0E0],"parents":[2147483647,0,0,1,1,2,2,3,3,4,4,5,5,6,6],"right_children":[2,4,6,8,10,12,14,-1,-1,-1,-1,-1,-1,-1,-1],"split_conditions":[4.59E-1,3.73E-1,1.4E1,-4.8E0,2.6E1,1E1,2.3E1,-5.430558E-5,-3.525316E-3,9.3029335E-4,3.2603415E-3,-2.6709654E-3,1.1882397E-4,-3.894128E-3,-5.82045E-3],"split_indices":[3,55,80,25,51,51,80,0,0,0,0,0,0,0,0],"split_type":[0,0,0,0,0,0,0,0,0,0,0,0,0,0,0],"sum_hessian":[5.240938E3,2.0297826E3,3.2111553E3,4.8563275E2,1.5441498E3,1.6982455E3,1.5129097E3,2.0648701E2,2.7914575E2,8.961145E2,6.480353E2,9.235497E2,7.7469586E2,8.7614923E2,6.3676044E2],"tree_param":{"num_deleted":"0","num_feature":"280","num_nodes":"15","size_leaf_vector":"1"}},{"base_weights":[1.4409304E-1,-9.6110076E-2,2.9590893E-1,2.0526153E-1,-1.909625E-1,1.3990144E-1,4.7081968E-1,5.430468E-5,3.525316E-3,-9.302936E-4,-3.2603415E-3,2.6709654E-3,-1.1882376E-4,3.8941284E-3,5.82045E-3],"categories":[],"categories_nodes":[],"categories_segments":[],"categories_sizes":[],"default_left":[0,0,0,0,0,0,0,0,0,0,0,0,0,0,0],"id":23,"left_children":[1,3,5,7,9,11,13,-1,-1,-1,-1,-1,-1,-1,-1],"loss_changes":[1.9118433E2,5.809079E1,8.758545E1,1.4319265E1,2.0408897E1,3.280908E1,1.3481049E1,0E0,0E0,0E0,0E0,0E0,0E0,0E0,0E0],"parents":[2147483647,0,0,1,1,2,2,3,3,4,4,5,5,6,6],"right_children":[2,4,6,8,10,12,14,-1,-1,-1,-1,-1,-1,-1,-1],"split_conditions":[4.59E-1,3.73E-1,1.4E1,-4.8E0,2.6E1,1E1,2.3E1,5.430468E-5,3.525316E-3,-9.302936E-4,-3.2603415E-3,2.6709654E-3,-1.1882376E-4,3.8941284E-3,5.82045E-3],"split_indices":[3,55,80,25,51,51,80,0,0,0,0,0,0,0,0],"split_type":[0,0,0,0,0,0,0,0,0,0,0,0,0,0,0],"sum_hessian":[5.240938E3,2.0297826E3,3.2111553E3,4.8563275E2,1.5441498E3,1.6982456E3,1.5129097E3,2.0648701E2,2.7914575E2,8.961145E2,6.480353E2,9.235497E2,7.7469586E2,8.761493E2,6.367604E2],"tree_param":{"num_deleted":"0","num_feature":"280","num_nodes":"15","size_leaf_vector":"1"}},{"base_weights":[-1.4268532E-1,-3.3591643E-1,4.257664E-2,-4.3212235E-1,-8.859515E-2,-2.2763406E-1,1.5748964E-1,-3.6135812E-3,-6.2375166E-3,-1.7877355E-3,6.2801776E-4,3.4322633E-4,-3.6514606E-3,3.198918E-3,7.3034584E-4],"categories":[],"categories_nodes":[],"categories_segments":[],"categories_sizes":[],"default_left":[0,0,0,0,0,0,0,0,0,0,0,0,0,0,0],"id":24,"left_children":[1,3,5,7,9,11,13,-1,-1,-1,-1,-1,-1,-1,-1],"loss_changes":[1.8762689E2,6.1000977E1,8.3142075E1,2.4816193E1,9.836987E0,2.8794685E1,2.5740932E1,0E0,0E0,0E0,0E0,0E0,0E0,0E0,0E0],"parents":[2147483647,0,0,1,1,2,2,3,3,4,4,5,5,6,6],"right_children":[2,4,6,8,10,12,14,-1,-1,-1,-1,-1,-1,-1,-1],"split_conditions":[1.5E1,3.8E0,-2.4E0,2.3E1,1.8E1,-4.8E0,8E0,-3.6135812E-3,-6.2375166E-3,-1.7877355E-3,6.2801776E-4,3.4322633E-4,-3.6514606E-3,3.198918E-3,7.3034584E-4],"split_indices":[51,77,77,80,201,25,103,0,0,0,0,0,0,0,0],"split_type":[0,0,0,0,0,0,0,0,0,0,0,0,0,0,0],"sum_hessian":[5.2398135E3,2.564347E3,2.6754668E3,1.8456552E3,7.186918E2,7.9801166E2,1.8774551E3,1.350013E3,4.9564227E2,4.502958E2,2.68396E2,2.7496365E2,5.23048E2,6.413632E2,1.2360918E3],"tree_param":{"num_deleted":"0","num_feature":"280","num_nodes":"15","size_leaf_vector":"1"}},{"base_weights":[1.4268532E-1,3.359164E-1,-4.2576637E-2,4.3212235E-1,8.8595085E-2,2.2763409E-1,-1.5748966E-1,3.6135812E-3,6.2375166E-3,1.7877345E-3,-6.280177E-4,-3.432266E-4,3.6514613E-3,-3.198918E-3,-7.303459E-4],"categories":[],"categories_nodes":[],"categories_segments":[],"categories_sizes":[],"default_left":[0,0,0,0,0,0,0,0,0,0,0,0,0,0,0],"id":25,"left_children":[1,3,5,7,9,11,13,-1,-1,-1,-1,-1,-1,-1,-1],"loss_changes":[1.8762686E2,6.1001038E1,8.314209E1,2.4816193E1,9.836977E0,2.8794693E1,2.5740932E1,0E0,0E0,0E0,0E0,0E0,0E0,0E0,0E0],"parents":[2147483647,0,0,1,1,2,2,3,3,4,4,5,5,6,6],"right_children":[2,4,6,8,10,12,14,-1,-1,-1,-1,-1,-1,-1,-1],"split_conditions":[1.5E1,3.8E0,-2.4E0,2.3E1,1.8E1,-4.8E0,8E0,3.6135812E-3,6.2375166E-3,1.7877345E-3,-6.280177E-4,-3.432266E-4,3.6514613E-3,-3.198918E-3,-7.303459E-4],"split_indices":[51,77,77,80,201,25,103,0,0,0,0,0,0,0,0],"split_type":[0,0,0,0,0,0,0,0,0,0,0,0,0,0,0],"sum_hessian":[5.2398135E3,2.564347E3,2.6754668E3,1.8456552E3,7.186918E2,7.9801166E2,1.8774551E3,1.3500128E3,4.9564227E2,4.5029578E2,2.68396E2,2.7496368E2,5.23048E2,6.413632E2,1.2360919E3],"tree_param":{"num_deleted":"0","num_feature":"280","num_nodes":"15","size_leaf_vector":"1"}},{"base_weights":[-1.4129463E-1,9.481162E-2,-2.9058024E-1,-6.144536E-2,2.723654E-1,-1.0490651E-1,-4.3300232E-1,1.1569046E-3,-2.0205295E-3,2.1606626E-3,4.3942607E-3,-2.2829087E-3,3.8785752E-4,-3.4662199E-3,-5.5622887E-3],"categories":[],"categories_nodes":[],"categories_segments":[],"categories_sizes":[],"default_left":[0,0,0,0,0,0,0,0,0,0,0,0,0,0,0],"id":26,"left_children":[1,3,5,7,9,11,13,-1,-1,-1,-1,-1,-1,-1,-1],"loss_changes":[1.8470781E2,5.6346905E1,8.484546E1,2.694148E1,8.845741E0,2.4738312E1,1.9141357E1,0E0,0E0,0E0,0E0,0E0,0E0,0E0,0E0],"parents":[2147483647,0,0,1,1,2,2,3,3,4,4,5,5,6,6],"right_children":[2,4,6,8,10,12,14,-1,-1,-1,-1,-1,-1,-1,-1],"split_conditions":[4.59E-1,5.14E-1,1.1E1,-4.8E0,2.8E1,1E1,2.2E1,1.1569046E-3,-2.0205295E-3,2.1606626E-3,4.3942607E-3,-2.2829087E-3,3.8785752E-4,-3.4662199E-3,-5.5622887E-3],"split_indices":[3,55,80,25,51,51,80,0,0,0,0,0,0,0,0],"split_type":[0,0,0,0,0,0,0,0,0,0,0,0,0,0,0],"sum_hessian":[5.2385625E3,2.0293539E3,3.2092087E3,1.0797601E3,9.4959375E2,1.3938293E3,1.8153794E3,4.778931E2,6.0186707E2,7.119585E2,2.3763527E2,7.495897E2,6.442396E2,1.0694915E3,7.4588806E2],"tree_param":{"num_deleted":"0","num_feature":"280","num_nodes":"15","size_leaf_vector":"1"}},{"base_weights":[1.4129463E-1,-9.4811596E-2,2.905802E-1,6.1445385E-2,-2.7236536E-1,1.04906484E-1,4.330023E-1,-1.1569049E-3,2.0205302E-3,-2.1606623E-3,-4.3942602E-3,2.2829082E-3,-3.8785744E-4,3.4662199E-3,5.5622873E-3],"categories":[],"categories_nodes":[],"categories_segments":[],"categories_sizes":[],"default_left":[0,0,0,0,0,0,0,0,0,0,0,0,0,0,0],"id":27,"left_children":[1,3,5,7,9,11,13,-1,-1,-1,-1,-1,-1,-1,-1],"loss_changes":[1.8470776E2,5.63469E1,8.484546E1,2.6941498E1,8.845749E0,2.4738302E1,1.9141357E1,0E0,0E0,0E0,0E0,0E0,0E0,0E0,0E0],"parents":[2147483647,0,0,1,1,2,2,3,3,4,4,5,5,6,6],"right_children":[2,4,6,8,10,12,14,-1,-1,-1,-1,-1,-1,-1,-1],"split_conditions":[4.59E-1,5.14E-1,1.1E1,-4.8E0,2.8E1,1E1,2.2E1,-1.1569049E-3,2.0205302E-3,-2.1606623E-3,-4.3942602E-3,2.2829082E-3,-3.8785744E-4,3.4662199E-3,5.5622873E-3],"split_indices":[3,55,80,25,51,51,80,0,0,0,0,0,0,0,0],"split_type":[0,0,0,0,0,0,0,0,0,0,0,0,0,0,0],"sum_hessian":[5.2385625E3,2.0293539E3,3.2092087E3,1.0797601E3,9.4959375E2,1.3938293E3,1.8153794E3,4.778931E2,6.0186707E2,7.119585E2,2.3763527E2,7.495897E2,6.442396E2,1.0694915E3,7.45888E2],"tree_param":{"num_deleted":"0","num_feature":"280","num_nodes":"15","size_leaf_vector":"1"}},{"base_weights":[-1.3991794E-1,9.303624E-2,-2.8830948E-1,-2.023294E-1,1.8569823E-1,-1.0374084E-1,-4.3001816E-1,-6.9142974E-5,-3.459291E-3,8.9941657E-4,3.1898483E-3,-2.2604684E-3,3.944954E-4,-3.4554703E-3,-5.5036605E-3],"categories":[],"categories_nodes":[],"categories_segments":[],"categories_sizes":[],"default_left":[0,0,0,0,0,0,0,0,0,0,0,0,0,0,0],"id":28,"left_children":[1,3,5,7,9,11,13,-1,-1,-1,-1,-1,-1,-1,-1],"loss_changes":[1.8110513E2,5.5845993E1,8.365552E1,1.3675381E1,1.9788239E1,2.4373245E1,1.8209595E1,0E0,0E0,0E0,0E0,0E0,0E0,0E0,0E0],"parents":[2147483647,0,0,1,1,2,2,3,3,4,4,5,5,6,6],"right_children":[2,4,6,8,10,12,14,-1,-1,-1,-1,-1,-1,-1,-1],"split_conditions":[4.62E-1,3.73E-1,1.1E1,-4.8E0,2.6E1,1E1,2.2E1,-6.9142974E-5,-3.459291E-3,8.9941657E-4,3.1898483E-3,-2.2604684E-3,3.944954E-4,-3.4554703E-3,-5.5036605E-3],"split_indices":[3,55,80,25,51,51,80,0,0,0,0,0,0,0,0],"split_type":[0,0,0,0,0,0,0,0,0,0,0,0,0,0,0],"sum_hessian":[5.237258E3,2.0380983E3,3.1991594E3,4.8642044E2,1.5516779E3,1.3902103E3,1.8089491E3,2.0648167E2,2.7993875E2,9.039393E2,6.4773865E2,7.494712E2,6.407391E2,1.06518E3,7.43769E2],"tree_param":{"num_deleted":"0","num_feature":"280","num_nodes":"15","size_leaf_vector":"1"}},{"base_weights":[1.3991794E-1,-9.303624E-2,2.8830945E-1,2.023294E-1,-1.8569823E-1,1.0374086E-1,4.3001813E-1,6.914292E-5,3.4592908E-3,-8.994164E-4,-3.1898485E-3,2.260469E-3,-3.944954E-4,3.4554699E-3,5.5036605E-3],"categories":[],"categories_nodes":[],"categories_segments":[],"categories_sizes":[],"default_left":[0,0,0,0,0,0,0,0,0,0,0,0,0,0,0],"id":29,"left_children":[1,3,5,7,9,11,13,-1,-1,-1,-1,-1,-1,-1,-1],"loss_changes":[1.8110515E2,5.5845993E1,8.365549E1,1.3675383E1,1.9788246E1,2.4373251E1,1.8209595E1,0E0,0E0,0E0,0E0,0E0,0E0,0E0,0E0],"parents":[2147483647,0,0,1,1,2,2,3,3,4,4,5,5,6,6],"right_children":[2,4,6,8,10,12,14,-1,-1,-1,-1,-1,-1,-1,-1],"split_conditions":[4.62E-1,3.73E-1,1.1E1,-4.8E0,2.6E1,1E1,2.2E1,6.914292E-5,3.4592908E-3,-8.994164E-4,-3.1898485E-3,2.260469E-3,-3.944954E-4,3.4554699E-3,5.5036605E-3],"split_indices":[3,55,80,25,51,51,80,0,0,0,0,0,0,0,0],"split_type":[0,0,0,0,0,0,0,0,0,0,0,0,0,0,0],"sum_hessian":[5.237258E3,2.0380984E3,3.1991594E3,4.8642044E2,1.5516779E3,1.3902103E3,1.8089491E3,2.0648167E2,2.7993875E2,9.039393E2,6.4773865E2,7.494712E2,6.4073914E2,1.06518E3,7.4376904E2],"tree_param":{"num_deleted":"0","num_feature":"280","num_nodes":"15","size_leaf_vector":"1"}},{"base_weights":[-1.3855742E-1,-3.27034E-1,4.20219E-2,-4.213046E-1,-8.499089E-2,-2.2187304E-1,1.5420319E-1,-3.5233595E-3,-6.0843765E-3,-1.742863E-3,6.4898666E-4,3.226741E-4,-3.554051E-3,3.1348264E-3,7.1396877E-4],"categories":[],"categories_nodes":[],"categories_segments":[],"categories_sizes":[],"default_left":[0,0,0,0,0,0,0,0,0,0,0,0,0,0,0],"id":30,"left_children":[1,3,5,7,9,11,13,-1,-1,-1,-1,-1,-1,-1,-1],"loss_changes":[1.782511E2,5.8434814E1,7.923581E1,2.3584625E1,9.642002E0,2.7107735E1,2.4745972E1,0E0,0E0,0E0,0E0,0E0,0E0,0E0,0E0],"parents":[2147483647,0,0,1,1,2,2,3,3,4,4,5,5,6,6],"right_children":[2,4,6,8,10,12,14,-1,-1,-1,-1,-1,-1,-1,-1],"split_conditions":[1.5E1,3.8E0,-2.4E0,2.3E1,1.8E1,-4.8E0,8E0,-3.5233595E-3,-6.0843765E-3,-1.742863E-3,6.4898666E-4,3.226741E-4,-3.554051E-3,3.1348264E-3,7.1396877E-4],"split_indices":[51,77,77,80,201,25,103,0,0,0,0,0,0,0,0],"split_type":[0,0,0,0,0,0,0,0,0,0,0,0,0,0,0],"sum_hessian":[5.2358877E3,2.5615269E3,2.6743608E3,1.8429835E3,7.185433E2,7.974542E2,1.8769066E3,1.3487712E3,4.9421237E2,4.5018604E2,2.683572E2,2.7494077E2,5.225134E2,6.410499E2,1.2358568E3],"tree_param":{"num_deleted":"0","num_feature":"280","num_nodes":"15","size_leaf_vector":"1"}},{"base_weights":[1.3855742E-1,3.27034E-1,-4.2021897E-2,4.213046E-1,8.499087E-2,2.2187306E-1,-1.5420319E-1,3.5233593E-3,6.0843765E-3,1.7428627E-3,-6.489869E-4,-3.226746E-4,3.5540517E-3,-3.1348264E-3,-7.139687E-4],"categories":[],"categories_nodes":[],"categories_segments":[],"categories_sizes":[],"default_left":[0,0,0,0,0,0,0,0,0,0,0,0,0,0,0],"id":31,"left_children":[1,3,5,7,9,11,13,-1,-1,-1,-1,-1,-1,-1,-1],"loss_changes":[1.7825102E2,5.8434814E1,7.923581E1,2.3584656E1,9.642002E0,2.7107742E1,2.4745968E1,0E0,0E0,0E0,0E0,0E0,0E0,0E0,0E0],"parents":[2147483647,0,0,1,1,2,2,3,3,4,4,5,5,6,6],"right_children":[2,4,6,8,10,12,14,-1,-1,-1,-1,-1,-1,-1,-1],"split_conditions":[1.5E1,3.8E0,-2.4E0,2.3E1,1.8E1,-4.8E0,8E0,3.5233593E-3,6.0843765E-3,1.7428627E-3,-6.489869E-4,-3.226746E-4,3.5540517E-3,-3.1348264E-3,-7.139687E-4],"split_indices":[51,77,77,80,201,25,103,0,0,0,0,0,0,0,0],"split_type":[0,0,0,0,0,0,0,0,0,0,0,0,0,0,0],"sum_hessian":[5.2358877E3,2.5615269E3,2.6743608E3,1.8429835E3,7.185433E2,7.9745416E2,1.8769066E3,1.3487711E3,4.9421237E2,4.5018604E2,2.683572E2,2.7494077E2,5.225134E2,6.410499E2,1.2358568E3],"tree_param":{"num_deleted":"0","num_feature":"280","num_nodes":"15","size_leaf_vector":"1"}},{"base_weights":[-1.3721311E-1,9.261625E-2,-2.826292E-1,-6.0155515E-2,2.6623636E-1,-3.8080096E-1,-2.5797084E-2,1.1235765E-3,-1.971371E-3,2.109462E-3,4.303898E-3,-2.8819125E-3,-5.194356E-3,-1.6148437E-3,1.2584627E-3],"categories":[],"categories_nodes":[],"categories_segments":[],"categories_sizes":[],"default_left":[0,0,0,0,0,0,0,0,0,0,0,0,0,0,0],"id":32,"left_children":[1,3,5,7,9,11,13,-1,-1,-1,-1,-1,-1,-1,-1],"loss_changes":[1.749981E2,5.3849407E1,8.084573E1,2.5553974E1,8.532936E0,2.9635834E1,1.8289333E1,0E0,0E0,0E0,0E0,0E0,0E0,0E0,0E0],"parents":[2147483647,0,0,1,1,2,2,3,3,4,4,5,5,6,6],"right_children":[2,4,6,8,10,12,14,-1,-1,-1,-1,-1,-1,-1,-1],"split_conditions":[4.59E-1,5.14E-1,3.8E0,-4.8E0,2.8E1,2E1,1E1,1.1235765E-3,-1.971371E-3,2.109462E-3,4.303898E-3,-2.8819125E-3,-5.194356E-3,-1.6148437E-3,1.2584627E-3],"split_indices":[3,55,77,25,51,80,51,0,0,0,0,0,0,0,0],"split_type":[0,0,0,0,0,0,0,0,0,0,0,0,0,0,0],"sum_hessian":[5.2344067E3,2.0285914E3,3.2058152E3,1.0794316E3,9.491597E2,2.318939E3,8.8687634E2,4.7783325E2,6.015984E2,7.117224E2,2.374373E2,1.3920865E3,9.2685236E2,4.6802896E2,4.1884738E2],"tree_param":{"num_deleted":"0","num_feature":"280","num_nodes":"15","size_leaf_vector":"1"}},{"base_weights":[1.3721313E-1,-9.261626E-2,2.8262922E-1,6.01555E-2,-2.6623636E-1,3.80801E-1,2.5797144E-2,-1.1235765E-3,1.9713708E-3,-2.1094617E-3,-4.3038987E-3,2.8819127E-3,5.194357E-3,1.6148442E-3,-1.2584619E-3],"categories":[],"categories_nodes":[],"categories_segments":[],"categories_sizes":[],"default_left":[0,0,0,0,0,0,0,0,0,0,0,0,0,0,0],"id":33,"left_children":[1,3,5,7,9,11,13,-1,-1,-1,-1,-1,-1,-1,-1],"loss_changes":[1.7499815E2,5.384941E1,8.08457E1,2.5553968E1,8.532936E0,2.9635803E1,1.8289328E1,0E0,0E0,0E0,0E0,0E0,0E0,0E0,0E0],"parents":[2147483647,0,0,1,1,2,2,3,3,4,4,5,5,6,6],"right_children":[2,4,6,8,10,12,14,-1,-1,-1,-1,-1,-1,-1,-1],"split_conditions":[4.59E-1,5.14E-1,3.8E0,-4.8E0,2.8E1,2E1,1E1,-1.1235765E-3,1.9713708E-3,-2.1094617E-3,-4.3038987E-3,2.8819127E-3,5.194357E-3,1.6148442E-3,-1.2584619E-3],"split_indices":[3,55,77,25,51,80,51,0,0,0,0,0,0,0,0],"split_type":[0,0,0,0,0,0,0,0,0,0,0,0,0,0,0],"sum_hessian":[5.2344067E3,2.0285914E3,3.2058152E3,1.0794318E3,9.491597E2,2.318939E3,8.8687634E2,4.7783328E2,6.0159845E2,7.117224E2,2.374373E2,1.3920865E3,9.268524E2,4.6802896E2,4.188474E2],"tree_param":{"num_deleted":"0","num_feature":"280","num_nodes":"15","size_leaf_vector":"1"}},{"base_weights":[-1.3588184E-1,-3.2123327E-1,4.1608207E-2,-4.1389418E-1,-8.3566785E-2,-2.181087E-1,1.5198138E-1,-3.4591788E-3,-5.98604E-3,-1.7199013E-3,6.484222E-4,3.0967014E-4,-3.4907183E-3,3.0838507E-3,7.069559E-4],"categories":[],"categories_nodes":[],"categories_segments":[],"categories_sizes":[],"default_left":[0,0,0,0,0,0,0,0,0,0,0,0,0,0,0],"id":34,"left_children":[1,3,5,7,9,11,13,-1,-1,-1,-1,-1,-1,-1,-1],"loss_changes":[1.7219745E2,5.6350433E1,7.670034E1,2.2919495E1,9.4525385E0,2.6042717E1,2.3847328E1,0E0,0E0,0E0,0E0,0E0,0E0,0E0,0E0],"parents":[2147483647,0,0,1,1,2,2,3,3,4,4,5,5,6,6],"right_children":[2,4,6,8,10,12,14,-1,-1,-1,-1,-1,-1,-1,-1],"split_conditions":[1.5E1,3.8E0,-2.4E0,2.3E1,1.8E1,-4.8E0,8E0,-3.4591788E-3,-5.98604E-3,-1.7199013E-3,6.484222E-4,3.0967014E-4,-3.4907183E-3,3.0838507E-3,7.069559E-4],"split_indices":[51,77,77,80,201,25,103,0,0,0,0,0,0,0,0],"split_type":[0,0,0,0,0,0,0,0,0,0,0,0,0,0,0],"sum_hessian":[5.232871E3,2.5593513E3,2.6735198E3,1.8408882E3,7.184631E2,7.9704144E2,1.8764784E3,1.3477621E3,4.9312607E2,4.501193E2,2.683438E2,2.7492728E2,5.2211414E2,6.4076843E2,1.23571E3],"tree_param":{"num_deleted":"0","num_feature":"280","num_nodes":"15","size_leaf_vector":"1"}},{"base_weights":[1.3588184E-1,3.2123327E-1,-4.1608192E-2,4.1389418E-1,8.356681E-2,2.1810873E-1,-1.5198137E-1,3.4591788E-3,5.98604E-3,1.7199018E-3,-6.484223E-4,-3.0967E-4,3.4907185E-3,-3.0838507E-3,-7.0695585E-4],"categories":[],"categories_nodes":[],"categories_segments":[],"categories_sizes":[],"default_left":[0,0,0,0,0,0,0,0,0,0,0,0,0,0,0],"id":35,"left_children":[1,3,5,7,9,11,13,-1,-1,-1,-1,-1,-1,-1,-1],"loss_changes":[1.7219745E2,5.6350433E1,7.670035E1,2.2919495E1,9.452542E0,2.6042713E1,2.3847332E1,0E0,0E0,0E0,0E0,0E0,0E0,0E0,0E0],"parents":[2147483647,0,0,1,1,2,2,3,3,4,4,5,5,6,6],"right_children":[2,4,6,8,10,12,14,-1,-1,-1,-1,-1,-1,-1,-1],"split_conditions":[1.5E1,3.8E0,-2.4E0,2.3E1,1.8E1,-4.8E0,8E0,3.4591788E-3,5.98604E-3,1.7199018E-3,-6.484223E-4,-3.0967E-4,3.4907185E-3,-3.0838507E-3,-7.0695585E-4],"split_indices":[51,77,77,80,201,25,103,0,0,0,0,0,0,0,0],"split_type":[0,0,0,0,0,0,0,0,0,0,0,0,0,0,0],"sum_hessian":[5.232871E3,2.5593513E3,2.6735198E3,1.8408882E3,7.184631E2,7.9704144E2,1.8764784E3,1.3477621E3,4.9312607E2,4.501193E2,2.683438E2,2.7492725E2,5.221142E2,6.4076843E2,1.23571E3],"tree_param":{"num_deleted":"0","num_feature":"280","num_nodes":"15","size_leaf_vector":"1"}},{"base_weights":[-1.345674E-1,9.137053E-2,-2.7759436E-1,-1.9477104E-1,1.8139555E-1,-4.0922678E-1,-9.243643E-2,-8.684393E-5,-3.321616E-3,8.7626465E-4,3.1080737E-3,-3.0884275E-3,-5.122195E-3,-2.3119343E-3,6.4297614E-4],"categories":[],"categories_nodes":[],"categories_segments":[],"categories_sizes":[],"default_left":[0,0,0,0,0,0,0,0,0,0,0,0,0,0,0],"id":36,"left_children":[1,3,5,7,9,11,13,-1,-1,-1,-1,-1,-1,-1,-1],"loss_changes":[1.691064E2,5.2302128E1,7.805852E1,1.242416E1,1.8708118E1,1.9201508E1,2.899869E1,0E0,0E0,0E0,0E0,0E0,0E0,0E0,0E0],"parents":[2147483647,0,0,1,1,2,2,3,3,4,4,5,5,6,6],"right_children":[2,4,6,8,10,12,14,-1,-1,-1,-1,-1,-1,-1,-1],"split_conditions":[4.59E-1,3.73E-1,1.6E0,-4.8E0,2.6E1,2E1,1E1,-8.684393E-5,-3.321616E-3,8.7626465E-4,3.1080737E-3,-3.0884275E-3,-5.122195E-3,-2.3119343E-3,6.4297614E-4],"split_indices":[3,55,77,25,51,80,51,0,0,0,0,0,0,0,0],"split_type":[0,0,0,0,0,0,0,0,0,0,0,0,0,0,0],"sum_hessian":[5.231241E3,2.0279984E3,3.2032427E3,4.8506662E2,1.5429319E3,1.8715271E3,1.3317156E3,2.0647404E2,2.785926E2,8.956441E2,6.472877E2,9.4979144E2,9.2173566E2,7.061152E2,6.256004E2],"tree_param":{"num_deleted":"0","num_feature":"280","num_nodes":"15","size_leaf_vector":"1"}},{"base_weights":[1.3456741E-1,-9.137051E-2,2.775944E-1,1.947711E-1,-1.8139553E-1,4.0922678E-1,9.2436455E-2,8.684401E-5,3.321617E-3,-8.762645E-4,-3.1080737E-3,3.0884275E-3,5.122195E-3,2.3119347E-3,-6.42976E-4],"categories":[],"categories_nodes":[],"categories_segments":[],"categories_sizes":[],"default_left":[0,0,0,0,0,0,0,0,0,0,0,0,0,0,0],"id":37,"left_children":[1,3,5,7,9,11,13,-1,-1,-1,-1,-1,-1,-1,-1],"loss_changes":[1.6910635E2,5.230214E1,7.805849E1,1.242417E1,1.8708118E1,1.9201508E1,2.8998695E1,0E0,0E0,0E0,0E0,0E0,0E0,0E0,0E0],"parents":[2147483647,0,0,1,1,2,2,3,3,4,4,5,5,6,6],"right_children":[2,4,6,8,10,12,14,-1,-1,-1,-1,-1,-1,-1,-1],"split_conditions":[4.59E-1,3.73E-1,1.6E0,-4.8E0,2.6E1,2E1,1E1,8.684401E-5,3.321617E-3,-8.762645E-4,-3.1080737E-3,3.0884275E-3,5.122195E-3,2.3119347E-3,-6.42976E-4],"split_indices":[3,55,77,25,51,80,51,0,0,0,0,0,0,0,0],"split_type":[0,0,0,0,0,0,0,0,0,0,0,0,0,0,0],"sum_hessian":[5.231241E3,2.0279984E3,3.2032424E3,4.8506662E2,1.5429318E3,1.871527E3,1.3317156E3,2.0647404E2,2.7859256E2,8.956441E2,6.472877E2,9.497914E2,9.2173566E2,7.061151E2,6.256004E2],"tree_param":{"num_deleted":"0","num_feature":"280","num_nodes":"15","size_leaf_vector":"1"}},{"base_weights":[-1.332664E-1,-3.1548238E-1,4.1117914E-2,-4.0681714E-1,-8.147262E-2,-1.9755961E-1,1.571462E-1,-3.3987563E-3,-5.8900844E-3,-1.6903931E-3,6.5476046E-4,3.8736334E-4,-3.214701E-3,5.8168895E-4,2.8415811E-3],"categories":[],"categories_nodes":[],"categories_segments":[],"categories_sizes":[],"default_left":[0,0,0,0,0,0,0,0,0,0,0,0,0,0,0],"id":38,"left_children":[1,3,5,7,9,11,13,-1,-1,-1,-1,-1,-1,-1,-1],"loss_changes":[1.6621777E2,5.463887E1,7.407227E1,2.2235992E1,9.267587E0,2.5632385E1,2.260677E1,0E0,0E0,0E0,0E0,0E0,0E0,0E0,0E0],"parents":[2147483647,0,0,1,1,2,2,3,3,4,4,5,5,6,6],"right_children":[2,4,6,8,10,12,14,-1,-1,-1,-1,-1,-1,-1,-1],"split_conditions":[1.5E1,3.8E0,-2E0,2.3E1,1.8E1,-4.8E0,2.4E1,-3.3987563E-3,-5.8900844E-3,-1.6903931E-3,6.5476046E-4,3.8736334E-4,-3.214701E-3,5.8168895E-4,2.8415811E-3],"split_indices":[51,77,77,80,201,25,51,0,0,0,0,0,0,0,0],"split_type":[0,0,0,0,0,0,0,0,0,0,0,0,0,0,0],"sum_hessian":[5.229578E3,2.5569673E3,2.6726108E3,1.8386125E3,7.1835474E2,8.7401135E2,1.7985994E3,1.3466765E3,4.9193607E2,4.50031E2,2.683237E2,3.008951E2,5.731163E2,1.0116798E3,7.869196E2],"tree_param":{"num_deleted":"0","num_feature":"280","num_nodes":"15","size_leaf_vector":"1"}},{"base_weights":[1.332664E-1,3.154824E-1,-4.1117918E-2,4.0681714E-1,8.1472665E-2,1.9755958E-1,-1.5714619E-1,3.3987563E-3,5.890085E-3,1.6903937E-3,-6.547605E-4,-3.873633E-4,3.2147004E-3,-5.816889E-4,-2.8415807E-3],"categories":[],"categories_nodes":[],"categories_segments":[],"categories_sizes":[],"default_left":[0,0,0,0,0,0,0,0,0,0,0,0,0,0,0],"id":39,"left_children":[1,3,5,7,9,11,13,-1,-1,-1,-1,-1,-1,-1,-1],"loss_changes":[1.662178E2,5.4638855E1,7.407226E1,2.2235992E1,9.267591E0,2.5632381E1,2.2606758E1,0E0,0E0,0E0,0E0,0E0,0E0,0E0,0E0],"parents":[2147483647,0,0,1,1,2,2,3,3,4,4,5,5,6,6],"right_children":[2,4,6,8,10,12,14,-1,-1,-1,-1,-1,-1,-1,-1],"split_conditions":[1.5E1,3.8E0,-2E0,2.3E1,1.8E1,-4.8E0,2.4E1,3.3987563E-3,5.890085E-3,1.6903937E-3,-6.547605E-4,-3.873633E-4,3.2147004E-3,-5.816889E-4,-2.8415807E-3],"split_indices":[51,77,77,80,201,25,51,0,0,0,0,0,0,0,0],"split_type":[0,0,0,0,0,0,0,0,0,0,0,0,0,0,0],"sum_hessian":[5.229578E3,2.5569673E3,2.6726108E3,1.8386125E3,7.1835474E2,8.7401135E2,1.7985994E3,1.3466765E3,4.91936E2,4.5003104E2,2.6832373E2,3.008951E2,5.731163E2,1.0116798E3,7.869196E2],"tree_param":{"num_deleted":"0","num_feature":"280","num_nodes":"15","size_leaf_vector":"1"}},{"base_weights":[-1.319805E-1,-2.7921116E-1,8.0108196E-2,-1.3441502E-1,-4.4190812E-1,2.086612E-1,-1.1248946E-1,-2.5970556E-3,-7.3224124E-5,-3.900849E-3,-5.9873364E-3,1.2825909E-3,3.4218372E-3,7.5114844E-4,-2.4071075E-3],"categories":[],"categories_nodes":[],"categories_segments":[],"categories_sizes":[],"default_left":[0,0,0,0,0,0,0,0,0,0,0,0,0,0,0],"id":40,"left_children":[1,3,5,7,9,11,13,-1,-1,-1,-1,-1,-1,-1,-1],"loss_changes":[1.6329738E2,7.2653015E1,5.308898E1,2.602587E1,1.1575195E1,1.3758739E1,2.0671133E1,0E0,0E0,0E0,0E0,0E0,0E0,0E0,0E0],"parents":[2147483647,0,0,1,1,2,2,3,3,4,4,5,5,6,6],"right_children":[2,4,6,8,10,12,14,-1,-1,-1,-1,-1,-1,-1,-1],"split_conditions":[1.7E1,1.4E1,1.7E1,9E0,2.7E1,2.6E1,-4.7E0,-2.5970556E-3,-7.3224124E-5,-3.900849E-3,-5.9873364E-3,1.2825909E-3,3.4218372E-3,7.5114844E-4,-2.4071075E-3],"split_indices":[27,80,80,51,103,51,25,0,0,0,0,0,0,0,0],"split_type":[0,0,0,0,0,0,0,0,0,0,0,0,0,0,0],"sum_hessian":[5.2278228E3,3.085542E3,2.1422808E3,1.6335502E3,1.4519918E3,1.2846998E3,8.57581E2,8.2208154E2,8.114686E2,1.0939741E3,3.5801776E2,8.030779E2,4.8162192E2,3.4833545E2,5.0924557E2],"tree_param":{"num_deleted":"0","num_feature":"280","num_nodes":"15","size_leaf_vector":"1"}},{"base_weights":[1.3198048E-1,2.7921113E-1,-8.01082E-2,1.3441503E-1,4.4190806E-1,-2.086612E-1,1.1248943E-1,2.5970559E-3,7.3224175E-5,3.9008486E-3,5.987336E-3,-1.2825909E-3,-3.421837E-3,-7.5114844E-4,2.407107E-3],"categories":[],"categories_nodes":[],"categories_segments":[],"categories_sizes":[],"default_left":[0,0,0,0,0,0,0,0,0,0,0,0,0,0,0],"id":41,"left_children":[1,3,5,7,9,11,13,-1,-1,-1,-1,-1,-1,-1,-1],"loss_changes":[1.6329736E2,7.2653E1,5.3088974E1,2.6025867E1,1.1575165E1,1.3758732E1,2.0671125E1,0E0,0E0,0E0,0E0,0E0,0E0,0E0,0E0],"parents":[2147483647,0,0,1,1,2,2,3,3,4,4,5,5,6,6],"right_children":[2,4,6,8,10,12,14,-1,-1,-1,-1,-1,-1,-1,-1],"split_conditions":[1.7E1,1.4E1,1.7E1,9E0,2.7E1,2.6E1,-4.7E0,2.5970559E-3,7.3224175E-5,3.9008486E-3,5.987336E-3,-1.2825909E-3,-3.421837E-3,-7.5114844E-4,2.407107E-3],"split_indices":[27,80,80,51,103,51,25,0,0,0,0,0,0,0,0],"split_type":[0,0,0,0,0,0,0,0,0,0,0,0,0,0,0],"sum_hessian":[5.2278228E3,3.085542E3,2.1422808E3,1.6335502E3,1.4519918E3,1.2846998E3,8.57581E2,8.2208154E2,8.114686E2,1.0939741E3,3.5801776E2,8.030779E2,4.8162195E2,3.4833545E2,5.0924557E2],"tree_param":{"num_deleted":"0","num_feature":"280","num_nodes":"15","size_leaf_vector":"1"}},{"base_weights":[-1.3070655E-1,-3.098452E-1,4.0622864E-2,-3.8119847E-1,-1.7929465E-2,-2.1061811E-1,1.4731802E-1,-3.1848613E-3,-5.7975748E-3,-1.2706365E-3,1.5895995E-3,2.8880028E-4,-3.367516E-3,3.0094867E-3,6.7512004E-4],"categories":[],"categories_nodes":[],"categories_segments":[],"categories_sizes":[],"default_left":[0,0,0,0,0,0,0,0,0,0,0,0,0,0,0],"id":42,"left_children":[1,3,5,7,9,11,13,-1,-1,-1,-1,-1,-1,-1,-1],"loss_changes":[1.6044077E2,5.322043E1,7.167492E1,2.5384918E1,9.730165E0,2.4088821E1,2.298767E1,0E0,0E0,0E0,0E0,0E0,0E0,0E0,0E0],"parents":[2147483647,0,0,1,1,2,2,3,3,4,4,5,5,6,6],"right_children":[2,4,6,8,10,12,14,-1,-1,-1,-1,-1,-1,-1,-1],"split_conditions":[1.5E1,5.1E0,-2.4E0,2.3E1,1.8E1,-4.8E0,8E0,-3.1848613E-3,-5.7975748E-3,-1.2706365E-3,1.5895995E-3,2.8880028E-4,-3.367516E-3,3.0094867E-3,6.7512004E-4],"split_indices":[51,77,77,80,201,25,103,0,0,0,0,0,0,0,0],"split_type":[0,0,0,0,0,0,0,0,0,0,0,0,0,0,0],"sum_hessian":[5.2260835E3,2.5544219E3,2.6716619E3,2.0524368E3,5.0198502E2,7.960903E2,1.8755715E3,1.5617745E3,4.9066238E2,3.1062354E2,1.9136148E2,2.7489667E2,5.211936E2,6.402625E2,1.2353091E3],"tree_param":{"num_deleted":"0","num_feature":"280","num_nodes":"15","size_leaf_vector":"1"}},{"base_weights":[1.3070652E-1,3.0984515E-1,-4.0622868E-2,3.811984E-1,1.7929442E-2,2.1061808E-1,-1.4731802E-1,3.1848608E-3,5.7975743E-3,1.2706359E-3,-1.5895992E-3,-2.8880013E-4,3.3675157E-3,-3.0094865E-3,-6.751201E-4],"categories":[],"categories_nodes":[],"categories_segments":[],"categories_sizes":[],"default_left":[0,0,0,0,0,0,0,0,0,0,0,0,0,0,0],"id":43,"left_children":[1,3,5,7,9,11,13,-1,-1,-1,-1,-1,-1,-1,-1],"loss_changes":[1.6044077E2,5.3220352E1,7.167491E1,2.538498E1,9.73016E0,2.408881E1,2.2987667E1,0E0,0E0,0E0,0E0,0E0,0E0,0E0,0E0],"parents":[2147483647,0,0,1,1,2,2,3,3,4,4,5,5,6,6],"right_children":[2,4,6,8,10,12,14,-1,-1,-1,-1,-1,-1,-1,-1],"split_conditions":[1.5E1,5.1E0,-2.4E0,2.3E1,1.8E1,-4.8E0,8E0,3.1848608E-3,5.7975743E-3,1.2706359E-3,-1.5895992E-3,-2.8880013E-4,3.3675157E-3,-3.0094865E-3,-6.751201E-4],"split_indices":[51,77,77,80,201,25,103,0,0,0,0,0,0,0,0],"split_type":[0,0,0,0,0,0,0,0,0,0,0,0,0,0,0],"sum_hessian":[5.226084E3,2.5544219E3,2.6716619E3,2.052437E3,5.0198505E2,7.960903E2,1.8755715E3,1.5617745E3,4.906624E2,3.1062357E2,1.9136148E2,2.7489667E2,5.211936E2,6.402625E2,1.2353091E3],"tree_param":{"num_deleted":"0","num_feature":"280","num_nodes":"15","size_leaf_vector":"1"}},{"base_weights":[-1.2944807E-1,8.886623E-2,-2.678041E-1,-5.7327695E-2,2.5506067E-1,-3.6178055E-1,-2.26604E-2,1.0610061E-3,-1.8720946E-3,2.0155532E-3,4.141093E-3,-2.7365228E-3,-4.9420306E-3,-1.5259052E-3,1.2248277E-3],"categories":[],"categories_nodes":[],"categories_segments":[],"categories_sizes":[],"default_left":[0,0,0,0,0,0,0,0,0,0,0,0,0,0,0],"id":44,"left_children":[1,3,5,7,9,11,13,-1,-1,-1,-1,-1,-1,-1,-1],"loss_changes":[1.5785172E2,4.9279953E1,7.367909E1,2.2934933E1,7.99337E0,2.6847412E1,1.6754513E1,0E0,0E0,0E0,0E0,0E0,0E0,0E0,0E0],"parents":[2147483647,0,0,1,1,2,2,3,3,4,4,5,5,6,6],"right_children":[2,4,6,8,10,12,14,-1,-1,-1,-1,-1,-1,-1,-1],"split_conditions":[4.59E-1,5.14E-1,3.8E0,-4.8E0,2.8E1,2E1,1E1,1.0610061E-3,-1.8720946E-3,2.0155532E-3,4.141093E-3,-2.7365228E-3,-4.9420306E-3,-1.5259052E-3,1.2248277E-3],"split_indices":[3,55,77,25,51,80,51,0,0,0,0,0,0,0,0],"split_type":[0,0,0,0,0,0,0,0,0,0,0,0,0,0,0],"sum_hessian":[5.2242085E3,2.026662E3,3.1975466E3,1.0785576E3,9.4810443E2,2.3111033E3,8.864433E2,4.776813E2,6.008763E2,7.111384E2,2.3696602E2,1.3894675E3,9.2163574E2,4.6770712E2,4.1873618E2],"tree_param":{"num_deleted":"0","num_feature":"280","num_nodes":"15","size_leaf_vector":"1"}},{"base_weights":[1.2944807E-1,-8.886622E-2,2.678041E-1,5.73277E-2,-2.5506067E-1,3.6178055E-1,2.2660416E-2,-1.061006E-3,1.8720946E-3,-2.0155527E-3,-4.141093E-3,2.7365226E-3,4.942031E-3,1.5259057E-3,-1.2248278E-3],"categories":[],"categories_nodes":[],"categories_segments":[],"categories_sizes":[],"default_left":[0,0,0,0,0,0,0,0,0,0,0,0,0,0,0],"id":45,"left_children":[1,3,5,7,9,11,13,-1,-1,-1,-1,-1,-1,-1,-1],"loss_changes":[1.5785172E2,4.9279953E1,7.367909E1,2.2934937E1,7.9933662E0,2.6847382E1,1.675452E1,0E0,0E0,0E0,0E0,0E0,0E0,0E0,0E0],"parents":[2147483647,0,0,1,1,2,2,3,3,4,4,5,5,6,6],"right_children":[2,4,6,8,10,12,14,-1,-1,-1,-1,-1,-1,-1,-1],"split_conditions":[4.59E-1,5.14E-1,3.8E0,-4.8E0,2.8E1,2E1,1E1,-1.061006E-3,1.8720946E-3,-2.0155527E-3,-4.141093E-3,2.7365226E-3,4.942031E-3,1.5259057E-3,-1.2248278E-3],"split_indices":[3,55,77,25,51,80,51,0,0,0,0,0,0,0,0],"split_type":[0,0,0,0,0,0,0,0,0,0,0,0,0,0,0],"sum_hessian":[5.2242085E3,2.026662E3,3.1975466E3,1.0785575E3,9.4810443E2,2.3111033E3,8.864433E2,4.776813E2,6.008762E2,7.111384E2,2.3696602E2,1.3894675E3,9.2163574E2,4.6770712E2,4.1873618E2],"tree_param":{"num_deleted":"0","num_feature":"280","num_nodes":"15","size_leaf_vector":"1"}},{"base_weights":[-1.2820192E-1,-2.7181795E-1,7.850223E-2,-1.3046344E-1,-4.3094057E-1,2.0383492E-1,-1.0927796E-1,-2.5304821E-3,-6.184641E-5,-3.8003342E-3,-5.852783E-3,1.2508042E-3,3.3470246E-3,7.2970666E-4,-2.3393831E-3],"categories":[],"categories_nodes":[],"categories_segments":[],"categories_sizes":[],"default_left":[0,0,0,0,0,0,0,0,0,0,0,0,0,0,0],"id":46,"left_children":[1,3,5,7,9,11,13,-1,-1,-1,-1,-1,-1,-1,-1],"loss_changes":[1.5507986E2,6.927051E1,5.043646E1,2.488669E1,1.1166351E1,1.3201942E1,1.9512114E1,0E0,0E0,0E0,0E0,0E0,0E0,0E0,0E0],"parents":[2147483647,0,0,1,1,2,2,3,3,4,4,5,5,6,6],"right_children":[2,4,6,8,10,12,14,-1,-1,-1,-1,-1,-1,-1,-1],"split_conditions":[1.7E1,1.4E1,1.7E1,9E0,2.7E1,2.6E1,-4.7E0,-2.5304821E-3,-6.184641E-5,-3.8003342E-3,-5.852783E-3,1.2508042E-3,3.3470246E-3,7.2970666E-4,-2.3393831E-3],"split_indices":[27,80,80,51,103,51,25,0,0,0,0,0,0,0,0],"split_type":[0,0,0,0,0,0,0,0,0,0,0,0,0,0,0],"sum_hessian":[5.2222817E3,3.0811875E3,2.1410942E3,1.6326571E3,1.4485303E3,1.2840067E3,8.570876E2,8.214087E2,8.112485E2,1.0918533E3,3.5667706E2,8.028295E2,4.8117722E2,3.483004E2,5.0878717E2],"tree_param":{"num_deleted":"0","num_feature":"280","num_nodes":"15","size_leaf_vector":"1"}},{"base_weights":[1.2820193E-1,2.7181798E-1,-7.850222E-2,1.3046344E-1,4.309406E-1,-2.0383494E-1,1.0927801E-1,2.5304821E-3,6.184639E-5,3.8003349E-3,5.852783E-3,-1.2508045E-3,-3.3470246E-3,-7.297062E-4,2.3393834E-3],"categories":[],"categories_nodes":[],"categories_segments":[],"categories_sizes":[],"default_left":[0,0,0,0,0,0,0,0,0,0,0,0,0,0,0],"id":47,"left_children":[1,3,5,7,9,11,13,-1,-1,-1,-1,-1,-1,-1,-1],"loss_changes":[1.5507983E2,6.927051E1,5.0436478E1,2.4886692E1,1.1166382E1,1.3201931E1,1.9512115E1,0E0,0E0,0E0,0E0,0E0,0E0,0E0,0E0],"parents":[2147483647,0,0,1,1,2,2,3,3,4,4,5,5,6,6],"right_children":[2,4,6,8,10,12,14,-1,-1,-1,-1,-1,-1,-1,-1],"split_conditions":[1.7E1,1.4E1,1.7E1,9E0,2.7E1,2.6E1,-4.7E0,2.5304821E-3,6.184639E-5,3.8003349E-3,5.852783E-3,-1.2508045E-3,-3.3470246E-3,-7.297062E-4,2.3393834E-3],"split_indices":[27,80,80,51,103,51,25,0,0,0,0,0,0,0,0],"split_type":[0,0,0,0,0,0,0,0,0,0,0,0,0,0,0],"sum_hessian":[5.2222817E3,3.0811875E3,2.1410942E3,1.6326572E3,1.4485303E3,1.2840067E3,8.570876E2,8.214087E2,8.112485E2,1.0918533E3,3.5667703E2,8.028295E2,4.8117725E2,3.483004E2,5.0878717E2],"tree_param":{"num_deleted":"0","num_feature":"280","num_nodes":"15","size_leaf_vector":"1"}},{"base_weights":[-1.26969E-1,-3.0185115E-1,4.0125787E-2,-3.7187925E-1,-1.584628E-2,-2.0548142E-1,1.4437024E-1,-3.1051852E-3,-5.6671607E-3,-1.2396052E-3,1.5934971E-3,2.696608E-4,-3.280679E-3,2.946259E-3,6.635447E-4],"categories":[],"categories_nodes":[],"categories_segments":[],"categories_sizes":[],"default_left":[0,0,0,0,0,0,0,0,0,0,0,0,0,0,0],"id":48,"left_children":[1,3,5,7,9,11,13,-1,-1,-1,-1,-1,-1,-1,-1],"loss_changes":[1.5259013E2,5.109346E1,6.841609E1,2.4326202E1,9.544683E0,2.2699001E1,2.1968277E1,0E0,0E0,0E0,0E0,0E0,0E0,0E0,0E0],"parents":[2147483647,0,0,1,1,2,2,3,3,4,4,5,5,6,6],"right_children":[2,4,6,8,10,12,14,-1,-1,-1,-1,-1,-1,-1,-1],"split_conditions":[1.5E1,5.1E0,-2.4E0,2.3E1,1.8E1,-4.8E0,8E0,-3.1051852E-3,-5.6671607E-3,-1.2396052E-3,1.5934971E-3,2.696608E-4,-3.280679E-3,2.946259E-3,6.635447E-4],"split_indices":[51,77,77,80,201,25,103,0,0,0,0,0,0,0,0],"split_type":[0,0,0,0,0,0,0,0,0,0,0,0,0,0,0],"sum_hessian":[5.2203594E3,2.5503477E3,2.670012E3,2.0484788E3,5.018688E2,7.9528766E2,1.8747242E3,1.5598297E3,4.8864917E2,3.105311E2,1.913377E2,2.7486697E2,5.2042065E2,6.3977106E2,1.2349531E3],"tree_param":{"num_deleted":"0","num_feature":"280","num_nodes":"15","size_leaf_vector":"1"}},{"base_weights":[1.2696898E-1,3.0185115E-1,-4.0125795E-2,3.7187922E-1,1.5846252E-2,2.0548142E-1,-1.4437026E-1,3.1051852E-3,5.6671607E-3,1.2396049E-3,-1.5934973E-3,-2.6966032E-4,3.2806785E-3,-2.946259E-3,-6.6354487E-4],"categories":[],"categories_nodes":[],"categories_segments":[],"categories_sizes":[],"default_left":[0,0,0,0,0,0,0,0,0,0,0,0,0,0,0],"id":49,"left_children":[1,3,5,7,9,11,13,-1,-1,-1,-1,-1,-1,-1,-1],"loss_changes":[1.5259012E2,5.109349E1,6.841609E1,2.4326172E1,9.5446825E0,2.2698986E1,2.1968277E1,0E0,0E0,0E0,0E0,0E0,0E0,0E0,0E0],"parents":[2147483647,0,0,1,1,2,2,3,3,4,4,5,5,6,6],"right_children":[2,4,6,8,10,12,14,-1,-1,-1,-1,-1,-1,-1,-1],"split_conditions":[1.5E1,5.1E0,-2.4E0,2.3E1,1.8E1,-4.8E0,8E0,3.1051852E-3,5.6671607E-3,1.2396049E-3,-1.5934973E-3,-2.6966032E-4,3.2806785E-3,-2.946259E-3,-6.6354487E-4],"split_indices":[51,77,77,80,201,25,103,0,0,0,0,0,0,0,0],"split_type":[0,0,0,0,0,0,0,0,0,0,0,0,0,0,0],"sum_hessian":[5.2203594E3,2.5503477E3,2.670012E3,2.0484788E3,5.018688E2,7.9528766E2,1.8747242E3,1.5598297E3,4.8864914E2,3.105311E2,1.913377E2,2.74867E2,5.2042065E2,6.3977106E2,1.2349531E3],"tree_param":{"num_deleted":"0","num_feature":"280","num_nodes":"15","size_leaf_vector":"1"}},{"base_weights":[-1.2575082E-1,-2.6703662E-1,7.747077E-2,-1.279418E-1,-4.2382666E-1,2.0063493E-1,-1.0706915E-1,-2.4858015E-3,-5.691359E-5,-3.7364229E-3,-5.761983E-3,1.2279323E-3,3.3004193E-3,7.186482E-4,-2.295367E-3],"categories":[],"categories_nodes":[],"categories_segments":[],"categories_sizes":[],"default_left":[0,0,0,0,0,0,0,0,0,0,0,0,0,0,0],"id":50,"left_children":[1,3,5,7,9,11,13,-1,-1,-1,-1,-1,-1,-1,-1],"loss_changes":[1.498792E2,6.709572E1,4.8689648E1,2.4082598E1,1.0849609E1,1.2898907E1,1.8812496E1,0E0,0E0,0E0,0E0,0E0,0E0,0E0,0E0],"parents":[2147483647,0,0,1,1,2,2,3,3,4,4,5,5,6,6],"right_children":[2,4,6,8,10,12,14,-1,-1,-1,-1,-1,-1,-1,-1],"split_conditions":[1.7E1,1.4E1,1.7E1,9E0,2.7E1,2.6E1,-4.7E0,-2.4858015E-3,-5.691359E-5,-3.7364229E-3,-5.761983E-3,1.2279323E-3,3.3004193E-3,7.186482E-4,-2.295367E-3],"split_indices":[27,80,80,51,103,51,25,0,0,0,0,0,0,0,0],"split_type":[0,0,0,0,0,0,0,0,0,0,0,0,0,0,0],"sum_hessian":[5.21831E3,3.0780457E3,2.1402644E3,1.6320255E3,1.44602E3,1.2835322E3,8.5673206E2,8.209086E2,8.111169E2,1.0903575E3,3.556625E2,8.0266016E2,4.808721E2,3.482812E2,5.084509E2],"tree_param":{"num_deleted":"0","num_feature":"280","num_nodes":"15","size_leaf_vector":"1"}},{"base_weights":[1.2575082E-1,2.6703662E-1,-7.747076E-2,1.2794182E-1,4.2382666E-1,-2.0063491E-1,1.0706915E-1,2.4858015E-3,5.6913686E-5,3.7364229E-3,5.7619833E-3,-1.227932E-3,-3.3004193E-3,-7.186482E-4,2.295367E-3],"categories":[],"categories_nodes":[],"categories_segments":[],"categories_sizes":[],"default_left":[0,0,0,0,0,0,0,0,0,0,0,0,0,0,0],"id":51,"left_children":[1,3,5,7,9,11,13,-1,-1,-1,-1,-1,-1,-1,-1],"loss_changes":[1.4987921E2,6.70957E1,4.8689644E1,2.4082596E1,1.0849579E1,1.2898895E1,1.88125E1,0E0,0E0,0E0,0E0,0E0,0E0,0E0,0E0],"parents":[2147483647,0,0,1,1,2,2,3,3,4,4,5,5,6,6],"right_children":[2,4,6,8,10,12,14,-1,-1,-1,-1,-1,-1,-1,-1],"split_conditions":[1.7E1,1.4E1,1.7E1,9E0,2.7E1,2.6E1,-4.7E0,2.4858015E-3,5.6913686E-5,3.7364229E-3,5.7619833E-3,-1.227932E-3,-3.3004193E-3,-7.186482E-4,2.295367E-3],"split_indices":[27,80,80,51,103,51,25,0,0,0,0,0,0,0,0],"split_type":[0,0,0,0,0,0,0,0,0,0,0,0,0,0,0],"sum_hessian":[5.21831E3,3.0780457E3,2.1402644E3,1.6320256E3,1.44602E3,1.2835322E3,8.567321E2,8.209087E2,8.111169E2,1.0903575E3,3.556625E2,8.0266016E2,4.808721E2,3.482812E2,5.084509E2],"tree_param":{"num_deleted":"0","num_feature":"280","num_nodes":"15","size_leaf_vector":"1"}},{"base_weights":[-1.2454424E-1,-2.965058E-1,3.963992E-2,-3.656873E-1,-1.4312639E-2,-2.0194459E-1,1.4213368E-1,-3.052291E-3,-5.580683E-3,-1.2138445E-3,1.591567E-3,2.6006025E-4,-3.222799E-3,2.9034647E-3,6.520943E-4],"categories":[],"categories_nodes":[],"categories_segments":[],"categories_sizes":[],"default_left":[0,0,0,0,0,0,0,0,0,0,0,0,0,0,0],"id":52,"left_children":[1,3,5,7,9,11,13,-1,-1,-1,-1,-1,-1,-1,-1],"loss_changes":[1.4731294E2,4.9746033E1,6.613724E1,2.3633759E1,9.357985E0,2.1835205E1,2.1360077E1,0E0,0E0,0E0,0E0,0E0,0E0,0E0,0E0],"parents":[2147483647,0,0,1,1,2,2,3,3,4,4,5,5,6,6],"right_children":[2,4,6,8,10,12,14,-1,-1,-1,-1,-1,-1,-1,-1],"split_conditions":[1.5E1,5.1E0,-2.4E0,2.3E1,1.8E1,-4.8E0,8E0,-3.052291E-3,-5.580683E-3,-1.2138445E-3,1.591567E-3,2.6006025E-4,-3.222799E-3,2.9034647E-3,6.520943E-4],"split_indices":[51,77,77,80,201,25,103,0,0,0,0,0,0,0,0],"split_type":[0,0,0,0,0,0,0,0,0,0,0,0,0,0,0],"sum_hessian":[5.2162744E3,2.5473992E3,2.6688752E3,2.0456088E3,5.0179034E2,7.9471344E2,1.8741619E3,1.5584366E3,4.8717218E2,3.1046185E2,1.913285E2,2.748501E2,5.1986334E2,6.3941095E2,1.234751E3],"tree_param":{"num_deleted":"0","num_feature":"280","num_nodes":"15","size_leaf_vector":"1"}},{"base_weights":[1.2454424E-1,2.9650578E-1,-3.963992E-2,3.656873E-1,1.4312659E-2,2.0194457E-1,-1.4213367E-1,3.052291E-3,5.580682E-3,1.2138449E-3,-1.591567E-3,-2.6006025E-4,3.222799E-3,-2.9034645E-3,-6.5209426E-4],"categories":[],"categories_nodes":[],"categories_segments":[],"categories_sizes":[],"default_left":[0,0,0,0,0,0,0,0,0,0,0,0,0,0,0],"id":53,"left_children":[1,3,5,7,9,11,13,-1,-1,-1,-1,-1,-1,-1,-1],"loss_changes":[1.4731294E2,4.9746002E1,6.613722E1,2.363379E1,9.357986E0,2.1835205E1,2.136008E1,0E0,0E0,0E0,0E0,0E0,0E0,0E0,0E0],"parents":[2147483647,0,0,1,1,2,2,3,3,4,4,5,5,6,6],"right_children":[2,4,6,8,10,12,14,-1,-1,-1,-1,-1,-1,-1,-1],"split_conditions":[1.5E1,5.1E0,-2.4E0,2.3E1,1.8E1,-4.8E0,8E0,3.052291E-3,5.580682E-3,1.2138449E-3,-1.591567E-3,-2.6006025E-4,3.222799E-3,-2.9034645E-3,-6.5209426E-4],"split_indices":[51,77,77,80,201,25,103,0,0,0,0,0,0,0,0],"split_type":[0,0,0,0,0,0,0,0,0,0,0,0,0,0,0],"sum_hessian":[5.2162744E3,2.5473992E3,2.6688752E3,2.0456088E3,5.0179034E2,7.9471344E2,1.8741619E3,1.5584366E3,4.8717218E2,3.1046185E2,1.913285E2,2.748501E2,5.1986334E2,6.3941095E2,1.234751E3],"tree_param":{"num_deleted":"0","num_feature":"280","num_nodes":"15","size_leaf_vector":"1"}},{"base_weights":[-1.2335203E-1,8.5976236E-2,-2.562247E-1,-1.8270658E-1,1.7045654E-1,-3.471475E-1,-1.9704405E-2,-1.2932229E-4,-3.0846319E-3,8.259038E-4,2.9188066E-3,-2.6248835E-3,-4.7483295E-3,-1.4456701E-3,1.1970438E-3],"categories":[],"categories_nodes":[],"categories_segments":[],"categories_sizes":[],"default_left":[0,0,0,0,0,0,0,0,0,0,0,0,0,0,0],"id":54,"left_children":[1,3,5,7,9,11,13,-1,-1,-1,-1,-1,-1,-1,-1],"loss_changes":[1.4507523E2,4.6011696E1,6.8602936E1,1.0352062E1,1.6423996E1,2.4785767E1,1.5456469E1,0E0,0E0,0E0,0E0,0E0,0E0,0E0,0E0],"parents":[2147483647,0,0,1,1,2,2,3,3,4,4,5,5,6,6],"right_children":[2,4,6,8,10,12,14,-1,-1,-1,-1,-1,-1,-1,-1],"split_conditions":[4.59E-1,3.73E-1,3.8E0,-4.8E0,2.6E1,2E1,1E1,-1.2932229E-4,-3.0846319E-3,8.259038E-4,2.9188066E-3,-2.6248835E-3,-4.7483295E-3,-1.4456701E-3,1.1970438E-3],"split_indices":[3,55,77,25,51,80,51,0,0,0,0,0,0,0,0],"split_type":[0,0,0,0,0,0,0,0,0,0,0,0,0,0,0],"sum_hessian":[5.2141143E3,2.0247172E3,3.189397E3,4.8405536E2,1.5406619E3,2.3034426E3,8.8595416E2,2.0644824E2,2.7760712E2,8.9482196E2,6.458399E2,1.3869263E3,9.165165E2,4.6734018E2,4.18614E2],"tree_param":{"num_deleted":"0","num_feature":"280","num_nodes":"15","size_leaf_vector":"1"}},{"base_weights":[1.2335202E-1,-8.597623E-2,2.5622466E-1,1.827066E-1,-1.7045654E-1,3.471475E-1,1.9704409E-2,1.2932224E-4,3.084632E-3,-8.2590355E-4,-2.9188069E-3,2.6248833E-3,4.748329E-3,1.4456699E-3,-1.1970435E-3],"categories":[],"categories_nodes":[],"categories_segments":[],"categories_sizes":[],"default_left":[0,0,0,0,0,0,0,0,0,0,0,0,0,0,0],"id":55,"left_children":[1,3,5,7,9,11,13,-1,-1,-1,-1,-1,-1,-1,-1],"loss_changes":[1.450752E2,4.6011703E1,6.8602936E1,1.0352066E1,1.6424E1,2.4785767E1,1.5456464E1,0E0,0E0,0E0,0E0,0E0,0E0,0E0,0E0],"parents":[2147483647,0,0,1,1,2,2,3,3,4,4,5,5,6,6],"right_children":[2,4,6,8,10,12,14,-1,-1,-1,-1,-1,-1,-1,-1],"split_conditions":[4.59E-1,3.73E-1,3.8E0,-4.8E0,2.6E1,2E1,1E1,1.2932224E-4,3.084632E-3,-8.2590355E-4,-2.9188069E-3,2.6248833E-3,4.748329E-3,1.4456699E-3,-1.1970435E-3],"split_indices":[3,55,77,25,51,80,51,0,0,0,0,0,0,0,0],"split_type":[0,0,0,0,0,0,0,0,0,0,0,0,0,0,0],"sum_hessian":[5.2141143E3,2.0247172E3,3.189397E3,4.8405536E2,1.5406619E3,2.3034426E3,8.8595416E2,2.0644824E2,2.7760712E2,8.9482196E2,6.458399E2,1.3869263E3,9.165165E2,4.6734015E2,4.18614E2],"tree_param":{"num_deleted":"0","num_feature":"280","num_nodes":"15","size_leaf_vector":"1"}},{"base_weights":[-1.2217147E-1,-2.6002562E-1,7.591581E-2,-1.2418019E-1,-4.1348177E-1,-1.5122825E-1,1.7130497E-1,-2.0070598E-3,6.089644E-4,-3.6414713E-3,-5.6360206E-3,1.971552E-4,-2.7730311E-3,9.136502E-4,2.9961413E-3],"categories":[],"categories_nodes":[],"categories_segments":[],"categories_sizes":[],"default_left":[0,0,0,0,0,0,0,0,0,0,0,0,0,0,0],"id":56,"left_children":[1,3,5,7,9,11,13,-1,-1,-1,-1,-1,-1,-1,-1],"loss_changes":[1.4237025E2,6.403076E1,4.6391563E1,2.3126537E1,1.0481964E1,1.3656535E1,1.543512E1,0E0,0E0,0E0,0E0,0E0,0E0,0E0,0E0],"parents":[2147483647,0,0,1,1,2,2,3,3,4,4,5,5,6,6],"right_children":[2,4,6,8,10,12,14,-1,-1,-1,-1,-1,-1,-1,-1],"split_conditions":[1.7E1,1.4E1,-2.4E0,6E0,2.7E1,-4.6E0,2.6E1,-2.0070598E-3,6.089644E-4,-3.6414713E-3,-5.6360206E-3,1.971552E-4,-2.7730311E-3,9.136502E-4,2.9961413E-3],"split_indices":[27,80,77,77,103,25,51,0,0,0,0,0,0,0,0],"split_type":[0,0,0,0,0,0,0,0,0,0,0,0,0,0,0],"sum_hessian":[5.211939E3,3.0730264E3,2.1389126E3,1.6310054E3,1.4420209E3,6.3241E2,1.5065026E3,1.1538324E3,4.7717297E2,1.0879192E3,3.5410165E2,2.6879578E2,3.636142E2,9.29261E2,5.7724164E2],"tree_param":{"num_deleted":"0","num_feature":"280","num_nodes":"15","size_leaf_vector":"1"}},{"base_weights":[1.2217147E-1,2.6002562E-1,-7.5915806E-2,1.2418017E-1,4.134818E-1,1.5122823E-1,-1.7130496E-1,2.0070598E-3,-6.089648E-4,3.6414717E-3,5.6360206E-3,-1.9715556E-4,2.773031E-3,-9.136499E-4,-2.9961416E-3],"categories":[],"categories_nodes":[],"categories_segments":[],"categories_sizes":[],"default_left":[0,0,0,0,0,0,0,0,0,0,0,0,0,0,0],"id":57,"left_children":[1,3,5,7,9,11,13,-1,-1,-1,-1,-1,-1,-1,-1],"loss_changes":[1.4237027E2,6.403084E1,4.6391556E1,2.3126543E1,1.0481918E1,1.3656538E1,1.5435123E1,0E0,0E0,0E0,0E0,0E0,0E0,0E0,0E0],"parents":[2147483647,0,0,1,1,2,2,3,3,4,4,5,5,6,6],"right_children":[2,4,6,8,10,12,14,-1,-1,-1,-1,-1,-1,-1,-1],"split_conditions":[1.7E1,1.4E1,-2.4E0,6E0,2.7E1,-4.6E0,2.6E1,2.0070598E-3,-6.089648E-4,3.6414717E-3,5.6360206E-3,-1.9715556E-4,2.773031E-3,-9.136499E-4,-2.9961416E-3],"split_indices":[27,80,77,77,103,25,51,0,0,0,0,0,0,0,0],"split_type":[0,0,0,0,0,0,0,0,0,0,0,0,0,0,0],"sum_hessian":[5.211939E3,3.0730264E3,2.1389126E3,1.6310054E3,1.4420209E3,6.3241E2,1.5065026E3,1.1538324E3,4.7717297E2,1.0879193E3,3.5410165E2,2.6879578E2,3.636142E2,9.29261E2,5.7724164E2],"tree_param":{"num_deleted":"0","num_feature":"280","num_nodes":"15","size_leaf_vector":"1"}},{"base_weights":[-1.2100162E-1,-2.890773E-1,3.929513E-2,-3.567046E-1,-1.3803165E-2,1.6650963E-1,-1.4594595E-1,-2.9746853E-3,-5.458148E-3,-1.1987203E-3,1.5801507E-3,2.9131952E-3,8.232825E-4,8.2141015E-4,-2.4334735E-3],"categories":[],"categories_nodes":[],"categories_segments":[],"categories_sizes":[],"default_left":[0,0,0,0,0,0,0,0,0,0,0,0,0,0,0],"id":58,"left_children":[1,3,5,7,9,11,13,-1,-1,-1,-1,-1,-1,-1,-1],"loss_changes":[1.4040091E2,4.7350662E1,6.2896786E1,2.2713257E1,9.181002E0,1.6599762E1,2.4164244E1,0E0,0E0,0E0,0E0,0E0,0E0,0E0,0E0],"parents":[2147483647,0,0,1,1,2,2,3,3,4,4,5,5,6,6],"right_children":[2,4,6,8,10,12,14,-1,-1,-1,-1,-1,-1,-1,-1],"split_conditions":[1.5E1,5.1E0,1.8E1,2.3E1,1.8E1,8E0,3.28E-1,-2.9746853E-3,-5.458148E-3,-1.1987203E-3,1.5801507E-3,2.9131952E-3,8.232825E-4,8.2141015E-4,-2.4334735E-3],"split_indices":[51,77,81,80,201,103,3,0,0,0,0,0,0,0,0],"split_type":[0,0,0,0,0,0,0,0,0,0,0,0,0,0,0],"sum_hessian":[5.2098096E3,2.542804E3,2.6670054E3,2.0410728E3,5.0173132E2,1.5812095E3,1.085796E3,1.5561912E3,4.848816E2,3.1040857E2,1.9132275E2,6.359177E2,9.452917E2,3.2496805E2,7.60828E2],"tree_param":{"num_deleted":"0","num_feature":"280","num_nodes":"15","size_leaf_vector":"1"}},{"base_weights":[1.210016E-1,2.8907728E-1,-3.929515E-2,3.567046E-1,1.3803152E-2,-1.6650964E-1,1.4594592E-1,2.974685E-3,5.458148E-3,1.1987202E-3,-1.580151E-3,-2.9131952E-3,-8.232828E-4,-8.2141056E-4,2.4334732E-3],"categories":[],"categories_nodes":[],"categories_segments":[],"categories_sizes":[],"default_left":[0,0,0,0,0,0,0,0,0,0,0,0,0,0,0],"id":59,"left_children":[1,3,5,7,9,11,13,-1,-1,-1,-1,-1,-1,-1,-1],"loss_changes":[1.4040094E2,4.735063E1,6.289679E1,2.2713257E1,9.181003E0,1.6599758E1,2.4164242E1,0E0,0E0,0E0,0E0,0E0,0E0,0E0,0E0],"parents":[2147483647,0,0,1,1,2,2,3,3,4,4,5,5,6,6],"right_children":[2,4,6,8,10,12,14,-1,-1,-1,-1,-1,-1,-1,-1],"split_conditions":[1.5E1,5.1E0,1.8E1,2.3E1,1.8E1,8E0,3.28E-1,2.974685E-3,5.458148E-3,1.1987202E-3,-1.580151E-3,-2.9131952E-3,-8.232828E-4,-8.2141056E-4,2.4334732E-3],"split_indices":[51,77,81,80,201,103,3,0,0,0,0,0,0,0,0],"split_type":[0,0,0,0,0,0,0,0,0,0,0,0,0,0,0],"sum_hessian":[5.2098096E3,2.542804E3,2.6670054E3,2.0410728E3,5.0173132E2,1.5812094E3,1.085796E3,1.5561912E3,4.8488162E2,3.1040857E2,1.9132275E2,6.359177E2,9.452917E2,3.2496805E2,7.60828E2],"tree_param":{"num_deleted":"0","num_feature":"280","num_nodes":"15","size_leaf_vector":"1"}},{"base_weights":[-1.1984545E-1,8.413724E-2,-2.4946445E-1,-1.7848162E-1,1.6669123E-1,-3.3828816E-1,-1.8854748E-2,-1.3055741E-4,-3.0117896E-3,8.0825615E-4,2.8542732E-3,-2.554681E-3,-4.63512E-3,-1.416058E-3,1.1817215E-3],"categories":[],"categories_nodes":[],"categories_segments":[],"categories_sizes":[],"default_left":[0,0,0,0,0,0,0,0,0,0,0,0,0,0,0],"id":60,"left_children":[1,3,5,7,9,11,13,-1,-1,-1,-1,-1,-1,-1,-1],"loss_changes":[1.3773514E2,4.3921356E1,6.523489E1,9.833697E0,1.568615E1,2.3728088E1,1.4931439E1,0E0,0E0,0E0,0E0,0E0,0E0,0E0,0E0],"parents":[2147483647,0,0,1,1,2,2,3,3,4,4,5,5,6,6],"right_children":[2,4,6,8,10,12,14,-1,-1,-1,-1,-1,-1,-1,-1],"split_conditions":[4.59E-1,3.73E-1,3.8E0,-4.8E0,2.6E1,2E1,1E1,-1.3055741E-4,-3.0117896E-3,8.0825615E-4,2.8542732E-3,-2.554681E-3,-4.63512E-3,-1.416058E-3,1.1817215E-3],"split_indices":[3,55,77,25,51,80,51,0,0,0,0,0,0,0,0],"split_type":[0,0,0,0,0,0,0,0,0,0,0,0,0,0,0],"sum_hessian":[5.207547E3,2.0234987E3,3.1840486E3,4.836764E2,1.5398223E3,2.2983345E3,8.8571405E2,2.0644484E2,2.7723154E2,8.9457733E2,6.4524493E2,1.385222E3,9.131124E2,4.6717615E2,4.185379E2],"tree_param":{"num_deleted":"0","num_feature":"280","num_nodes":"15","size_leaf_vector":"1"}},{"base_weights":[1.1984544E-1,-8.413723E-2,2.4946444E-1,1.7848161E-1,-1.6669121E-1,3.3828813E-1,1.885474E-2,1.3055715E-4,3.0117896E-3,-8.0825586E-4,-2.8542732E-3,2.554681E-3,4.63512E-3,1.4160578E-3,-1.1817213E-3],"categories":[],"categories_nodes":[],"categories_segments":[],"categories_sizes":[],"default_left":[0,0,0,0,0,0,0,0,0,0,0,0,0,0,0],"id":61,"left_children":[1,3,5,7,9,11,13,-1,-1,-1,-1,-1,-1,-1,-1],"loss_changes":[1.377351E2,4.392135E1,6.5234924E1,9.833697E0,1.5686153E1,2.3728088E1,1.4931435E1,0E0,0E0,0E0,0E0,0E0,0E0,0E0,0E0],"parents":[2147483647,0,0,1,1,2,2,3,3,4,4,5,5,6,6],"right_children":[2,4,6,8,10,12,14,-1,-1,-1,-1,-1,-1,-1,-1],"split_conditions":[4.59E-1,3.73E-1,3.8E0,-4.8E0,2.6E1,2E1,1E1,1.3055715E-4,3.0117896E-3,-8.0825586E-4,-2.8542732E-3,2.554681E-3,4.63512E-3,1.4160578E-3,-1.1817213E-3],"split_indices":[3,55,77,25,51,80,51,0,0,0,0,0,0,0,0],"split_type":[0,0,0,0,0,0,0,0,0,0,0,0,0,0,0],"sum_hessian":[5.207547E3,2.0234987E3,3.1840486E3,4.836764E2,1.5398223E3,2.2983345E3,8.8571405E2,2.0644484E2,2.7723154E2,8.9457733E2,6.4524493E2,1.385222E3,9.131124E2,4.6717618E2,4.185379E2],"tree_param":{"num_deleted":"0","num_feature":"280","num_nodes":"15","size_leaf_vector":"1"}},{"base_weights":[-1.1870188E-1,-2.840831E-1,3.8893923E-2,-3.5073403E-1,-1.3182059E-2,-1.9341263E-1,1.3734199E-1,-2.923272E-3,-5.376426E-3,-1.1824088E-3,1.5697208E-3,2.4656855E-4,-3.0884296E-3,2.809017E-3,6.28974E-4],"categories":[],"categories_nodes":[],"categories_segments":[],"categories_sizes":[],"default_left":[0,0,0,0,0,0,0,0,0,0,0,0,0,0,0],"id":62,"left_children":[1,3,5,7,9,11,13,-1,-1,-1,-1,-1,-1,-1,-1],"loss_changes":[1.357029E2,4.586589E1,6.1015278E1,2.2100082E1,9.004344E0,1.9998133E1,2.0005726E1,0E0,0E0,0E0,0E0,0E0,0E0,0E0,0E0],"parents":[2147483647,0,0,1,1,2,2,3,3,4,4,5,5,6,6],"right_children":[2,4,6,8,10,12,14,-1,-1,-1,-1,-1,-1,-1,-1],"split_conditions":[1.5E1,5.1E0,-2.4E0,2.3E1,1.8E1,-4.8E0,8E0,-2.923272E-3,-5.376426E-3,-1.1824088E-3,1.5697208E-3,2.4656855E-4,-3.0884296E-3,2.809017E-3,6.28974E-4],"split_indices":[51,77,77,80,201,25,103,0,0,0,0,0,0,0,0],"split_type":[0,0,0,0,0,0,0,0,0,0,0,0,0,0,0],"sum_hessian":[5.2052256E3,2.539485E3,2.6657407E3,2.0378174E3,5.0166763E2,7.9316223E2,1.8725786E3,1.5545897E3,4.8322763E2,3.103514E2,1.9131621E2,2.748E2,5.1836224E2,6.385053E2,1.2340732E3],"tree_param":{"num_deleted":"0","num_feature":"280","num_nodes":"15","size_leaf_vector":"1"}},{"base_weights":[1.1870188E-1,2.8408307E-1,-3.8893916E-2,3.5073403E-1,1.31820515E-2,1.9341263E-1,-1.3734199E-1,2.923272E-3,5.376425E-3,1.1824087E-3,-1.5697206E-3,-2.465685E-4,3.0884296E-3,-2.8090167E-3,-6.2897406E-4],"categories":[],"categories_nodes":[],"categories_segments":[],"categories_sizes":[],"default_left":[0,0,0,0,0,0,0,0,0,0,0,0,0,0,0],"id":63,"left_children":[1,3,5,7,9,11,13,-1,-1,-1,-1,-1,-1,-1,-1],"loss_changes":[1.3570288E2,4.586589E1,6.1015278E1,2.2100067E1,9.004341E0,1.999813E1,2.0005718E1,0E0,0E0,0E0,0E0,0E0,0E0,0E0,0E0],"parents":[2147483647,0,0,1,1,2,2,3,3,4,4,5,5,6,6],"right_children":[2,4,6,8,10,12,14,-1,-1,-1,-1,-1,-1,-1,-1],"split_conditions":[1.5E1,5.1E0,-2.4E0,2.3E1,1.8E1,-4.8E0,8E0,2.923272E-3,5.376425E-3,1.1824087E-3,-1.5697206E-3,-2.465685E-4,3.0884296E-3,-2.8090167E-3,-6.2897406E-4],"split_indices":[51,77,77,80,201,25,103,0,0,0,0,0,0,0,0],"split_type":[0,0,0,0,0,0,0,0,0,0,0,0,0,0,0],"sum_hessian":[5.2052256E3,2.539485E3,2.6657407E3,2.0378174E3,5.0166763E2,7.9316223E2,1.8725786E3,1.5545897E3,4.8322763E2,3.1035144E2,1.913162E2,2.748E2,5.1836224E2,6.385053E2,1.2340732E3],"tree_param":{"num_deleted":"0","num_feature":"280","num_nodes":"15","size_leaf_vector":"1"}},{"base_weights":[-1.1757126E-1,-2.5115672E-1,7.410306E-2,-1.1940779E-1,-4.004409E-1,1.9091386E-1,-1.00963585E-1,-2.3534386E-3,-2.077566E-5,-3.5214887E-3,-5.4785013E-3,1.1673752E-3,3.1443983E-3,6.705009E-4,-2.1620987E-3],"categories":[],"categories_nodes":[],"categories_segments":[],"categories_sizes":[],"default_left":[0,0,0,0,0,0,0,0,0,0,0,0,0,0,0],"id":64,"left_children":[1,3,5,7,9,11,13,-1,-1,-1,-1,-1,-1,-1,-1],"loss_changes":[1.3326201E2,6.0270508E1,4.3740738E1,2.2179073E1,1.0038803E1,1.1716381E1,1.6594868E1,0E0,0E0,0E0,0E0,0E0,0E0,0E0,0E0],"parents":[2147483647,0,0,1,1,2,2,3,3,4,4,5,5,6,6],"right_children":[2,4,6,8,10,12,14,-1,-1,-1,-1,-1,-1,-1,-1],"split_conditions":[1.7E1,1.4E1,1.7E1,9E0,2.7E1,2.6E1,-4.7E0,-2.3534386E-3,-2.077566E-5,-3.5214887E-3,-5.4785013E-3,1.1673752E-3,3.1443983E-3,6.705009E-4,-2.1620987E-3],"split_indices":[27,80,80,51,103,51,25,0,0,0,0,0,0,0,0],"split_type":[0,0,0,0,0,0,0,0,0,0,0,0,0,0,0],"sum_hessian":[5.2028237E3,3.065821E3,2.137003E3,1.6295137E3,1.4363074E3,1.2817095E3,8.552935E2,8.191204E2,8.103932E2,1.0844312E3,3.5187622E2,8.0203754E2,4.7967194E2,3.4815225E2,5.0714124E2],"tree_param":{"num_deleted":"0","num_feature":"280","num_nodes":"15","size_leaf_vector":"1"}},{"base_weights":[1.1757126E-1,2.5115672E-1,-7.410305E-2,1.1940779E-1,4.004409E-1,-1.9091386E-1,1.00963585E-1,2.3534382E-3,2.077577E-5,3.5214887E-3,5.4785013E-3,-1.1673752E-3,-3.1443979E-3,-6.7050086E-4,2.1620987E-3],"categories":[],"categories_nodes":[],"categories_segments":[],"categories_sizes":[],"default_left":[0,0,0,0,0,0,0,0,0,0,0,0,0,0,0],"id":65,"left_children":[1,3,5,7,9,11,13,-1,-1,-1,-1,-1,-1,-1,-1],"loss_changes":[1.3326202E2,6.0270508E1,4.3740738E1,2.2179066E1,1.0038818E1,1.1716381E1,1.6594866E1,0E0,0E0,0E0,0E0,0E0,0E0,0E0,0E0],"parents":[2147483647,0,0,1,1,2,2,3,3,4,4,5,5,6,6],"right_children":[2,4,6,8,10,12,14,-1,-1,-1,-1,-1,-1,-1,-1],"split_conditions":[1.7E1,1.4E1,1.7E1,9E0,2.7E1,2.6E1,-4.7E0,2.3534382E-3,2.077577E-5,3.5214887E-3,5.4785013E-3,-1.1673752E-3,-3.1443979E-3,-6.7050086E-4,2.1620987E-3],"split_indices":[27,80,80,51,103,51,25,0,0,0,0,0,0,0,0],"split_type":[0,0,0,0,0,0,0,0,0,0,0,0,0,0,0],"sum_hessian":[5.202824E3,3.065821E3,2.137003E3,1.6295137E3,1.4363074E3,1.2817095E3,8.552935E2,8.191204E2,8.103932E2,1.0844312E3,3.5187622E2,8.0203754E2,4.7967194E2,3.4815225E2,5.0714124E2],"tree_param":{"num_deleted":"0","num_feature":"280","num_nodes":"15","size_leaf_vector":"1"}},{"base_weights":[-1.16450734E-1,-2.791066E-1,3.84164E-2,-3.4497973E-1,-1.1761561E-2,-1.9010542E-1,1.3521303E-1,-2.8739404E-3,-5.2972077E-3,-1.1581001E-3,1.5671665E-3,2.3762605E-4,-3.0344494E-3,2.7684583E-3,6.180245E-4],"categories":[],"categories_nodes":[],"categories_segments":[],"categories_sizes":[],"default_left":[0,0,0,0,0,0,0,0,0,0,0,0,0,0,0],"id":66,"left_children":[1,3,5,7,9,11,13,-1,-1,-1,-1,-1,-1,-1,-1],"loss_changes":[1.3103577E2,4.4675674E1,5.8984833E1,2.150206E1,8.828332E0,1.9241201E1,1.9456215E1,0E0,0E0,0E0,0E0,0E0,0E0,0E0,0E0],"parents":[2147483647,0,0,1,1,2,2,3,3,4,4,5,5,6,6],"right_children":[2,4,6,8,10,12,14,-1,-1,-1,-1,-1,-1,-1,-1],"split_conditions":[1.5E1,5.1E0,-2.4E0,2.3E1,1.8E1,-4.8E0,8E0,-2.8739404E-3,-5.2972077E-3,-1.1581001E-3,1.5671665E-3,2.3762605E-4,-3.0344494E-3,2.7684583E-3,6.180245E-4],"split_indices":[51,77,77,80,201,25,103,0,0,0,0,0,0,0,0],"split_type":[0,0,0,0,0,0,0,0,0,0,0,0,0,0,0],"sum_hessian":[5.2004604E3,2.5360564E3,2.664404E3,2.0344761E3,5.0158035E2,7.9249133E2,1.8719128E3,1.5529585E3,4.815176E2,3.1027435E2,1.91306E2,2.747802E2,5.177111E2,6.380795E2,1.2338333E3],"tree_param":{"num_deleted":"0","num_feature":"280","num_nodes":"15","size_leaf_vector":"1"}},{"base_weights":[1.16450734E-1,2.7910656E-1,-3.8416386E-2,3.4497973E-1,1.1761561E-2,1.9010544E-1,-1.3521302E-1,2.8739402E-3,5.2972077E-3,1.1581E-3,-1.5671664E-3,-2.376261E-4,3.0344494E-3,-2.7684579E-3,-6.180245E-4],"categories":[],"categories_nodes":[],"categories_segments":[],"categories_sizes":[],"default_left":[0,0,0,0,0,0,0,0,0,0,0,0,0,0,0],"id":67,"left_children":[1,3,5,7,9,11,13,-1,-1,-1,-1,-1,-1,-1,-1],"loss_changes":[1.3103574E2,4.467569E1,5.8984825E1,2.1502045E1,8.82833E0,1.92412E1,1.9456207E1,0E0,0E0,0E0,0E0,0E0,0E0,0E0,0E0],"parents":[2147483647,0,0,1,1,2,2,3,3,4,4,5,5,6,6],"right_children":[2,4,6,8,10,12,14,-1,-1,-1,-1,-1,-1,-1,-1],"split_conditions":[1.5E1,5.1E0,-2.4E0,2.3E1,1.8E1,-4.8E0,8E0,2.8739402E-3,5.2972077E-3,1.1581E-3,-1.5671664E-3,-2.376261E-4,3.0344494E-3,-2.7684579E-3,-6.180245E-4],"split_indices":[51,77,77,80,201,25,103,0,0,0,0,0,0,0,0],"split_type":[0,0,0,0,0,0,0,0,0,0,0,0,0,0,0],"sum_hessian":[5.2004604E3,2.5360564E3,2.664404E3,2.0344761E3,5.0158035E2,7.924913E2,1.8719128E3,1.5529585E3,4.815176E2,3.1027435E2,1.91306E2,2.747802E2,5.177111E2,6.380795E2,1.2338333E3],"tree_param":{"num_deleted":"0","num_feature":"280","num_nodes":"15","size_leaf_vector":"1"}},{"base_weights":[-1.1534356E-1,9.2080176E-2,-2.3495293E-1,-1.5991096E-1,1.7196E-1,-1.0260209E-1,-3.8461453E-1,-1.1611089E-4,-2.7978732E-3,8.630639E-4,2.7864566E-3,-2.2042205E-3,2.7859127E-4,-3.053767E-3,-4.667053E-3],"categories":[],"categories_nodes":[],"categories_segments":[],"categories_sizes":[],"default_left":[0,0,0,0,0,0,0,0,0,0,0,0,0,0,0],"id":68,"left_children":[1,3,5,7,9,11,13,-1,-1,-1,-1,-1,-1,-1,-1],"loss_changes":[1.2900717E2,3.8316795E1,6.5282364E1,8.1454525E0,1.3178795E1,2.6927803E1,9.922272E0,0E0,0E0,0E0,0E0,0E0,0E0,0E0,0E0],"parents":[2147483647,0,0,1,1,2,2,3,3,4,4,5,5,6,6],"right_children":[2,4,6,8,10,12,14,-1,-1,-1,-1,-1,-1,-1,-1],"split_conditions":[4.46E-1,3.73E-1,1.4E1,-4.8E0,2.6E1,1E1,2.2E1,-1.1611089E-4,-2.7978732E-3,8.630639E-4,2.7864566E-3,-2.2042205E-3,2.7859127E-4,-3.053767E-3,-4.667053E-3],"split_indices":[3,55,80,25,51,51,80,0,0,0,0,0,0,0,0],"split_type":[0,0,0,0,0,0,0,0,0,0,0,0,0,0,0],"sum_hessian":[5.197971E3,1.9011947E3,3.2967769E3,4.573677E2,1.4438269E3,1.7504657E3,1.546311E3,2.0493639E2,2.5243134E2,8.0185724E2,6.419697E2,9.194331E2,8.3103265E2,7.892301E2,7.570809E2],"tree_param":{"num_deleted":"0","num_feature":"280","num_nodes":"15","size_leaf_vector":"1"}},{"base_weights":[1.1534356E-1,-9.2080176E-2,2.3495293E-1,1.5991096E-1,-1.7196E-1,1.0260206E-1,3.8461456E-1,1.1611158E-4,2.797873E-3,-8.630638E-4,-2.7864568E-3,2.2042198E-3,-2.7859127E-4,3.0537678E-3,4.667053E-3],"categories":[],"categories_nodes":[],"categories_segments":[],"categories_sizes":[],"default_left":[0,0,0,0,0,0,0,0,0,0,0,0,0,0,0],"id":69,"left_children":[1,3,5,7,9,11,13,-1,-1,-1,-1,-1,-1,-1,-1],"loss_changes":[1.2900719E2,3.8316795E1,6.5282394E1,8.145445E0,1.3178799E1,2.6927795E1,9.922272E0,0E0,0E0,0E0,0E0,0E0,0E0,0E0,0E0],"parents":[2147483647,0,0,1,1,2,2,3,3,4,4,5,5,6,6],"right_children":[2,4,6,8,10,12,14,-1,-1,-1,-1,-1,-1,-1,-1],"split_conditions":[4.46E-1,3.73E-1,1.4E1,-4.8E0,2.6E1,1E1,2.2E1,1.1611158E-4,2.797873E-3,-8.630638E-4,-2.7864568E-3,2.2042198E-3,-2.7859127E-4,3.0537678E-3,4.667053E-3],"split_indices":[3,55,80,25,51,51,80,0,0,0,0,0,0,0,0],"split_type":[0,0,0,0,0,0,0,0,0,0,0,0,0,0,0],"sum_hessian":[5.1979717E3,1.9011947E3,3.2967769E3,4.573677E2,1.4438269E3,1.7504658E3,1.546311E3,2.0493639E2,2.5243134E2,8.0185724E2,6.419697E2,9.194331E2,8.3103265E2,7.892301E2,7.570809E2],"tree_param":{"num_deleted":"0","num_feature":"280","num_nodes":"15","size_leaf_vector":"1"}},{"base_weights":[-1.1424695E-1,-2.4462372E-1,7.260941E-2,-1.1604818E-1,-3.9068738E-1,1.8661304E-1,-9.8272115E-2,-1.8957925E-3,6.152905E-4,-3.4314808E-3,-5.361791E-3,1.1408137E-3,3.0751422E-3,6.2655885E-4,-2.119887E-3],"categories":[],"categories_nodes":[],"categories_segments":[],"categories_sizes":[],"default_left":[0,0,0,0,0,0,0,0,0,0,0,0,0,0,0],"id":70,"left_children":[1,3,5,7,9,11,13,-1,-1,-1,-1,-1,-1,-1,-1],"loss_changes":[1.2661339E2,5.7442093E1,4.163842E1,2.128765E1,9.725052E0,1.1205513E1,1.5670909E1,0E0,0E0,0E0,0E0,0E0,0E0,0E0,0E0],"parents":[2147483647,0,0,1,1,2,2,3,3,4,4,5,5,6,6],"right_children":[2,4,6,8,10,12,14,-1,-1,-1,-1,-1,-1,-1,-1],"split_conditions":[1.7E1,1.4E1,1.7E1,6E0,2.7E1,2.6E1,-4.6E0,-1.8957925E-3,6.152905E-4,-3.4314808E-3,-5.361791E-3,1.1408137E-3,3.0751422E-3,6.2655885E-4,-2.119887E-3],"split_indices":[27,80,80,77,103,51,25,0,0,0,0,0,0,0,0],"split_type":[0,0,0,0,0,0,0,0,0,0,0,0,0,0,0],"sum_hessian":[5.1954966E3,3.0600642E3,2.1354321E3,1.628414E3,1.4316504E3,1.2808324E3,8.545996E2,1.1515239E3,4.7689005E2,1.0815977E3,3.5005273E2,8.017725E2,4.7905994E2,3.5403284E2,5.005668E2],"tree_param":{"num_deleted":"0","num_feature":"280","num_nodes":"15","size_leaf_vector":"1"}},{"base_weights":[1.1424696E-1,2.4462374E-1,-7.260942E-2,1.1604817E-1,3.9068744E-1,-1.8661304E-1,9.8272085E-2,1.8957925E-3,-6.152906E-4,3.431481E-3,5.3617912E-3,-1.1408136E-3,-3.0751424E-3,-6.265595E-4,2.1198867E-3],"categories":[],"categories_nodes":[],"categories_segments":[],"categories_sizes":[],"default_left":[0,0,0,0,0,0,0,0,0,0,0,0,0,0,0],"id":71,"left_children":[1,3,5,7,9,11,13,-1,-1,-1,-1,-1,-1,-1,-1],"loss_changes":[1.2661342E2,5.7442123E1,4.163841E1,2.128765E1,9.725037E0,1.1205521E1,1.5670915E1,0E0,0E0,0E0,0E0,0E0,0E0,0E0,0E0],"parents":[2147483647,0,0,1,1,2,2,3,3,4,4,5,5,6,6],"right_children":[2,4,6,8,10,12,14,-1,-1,-1,-1,-1,-1,-1,-1],"split_conditions":[1.7E1,1.4E1,1.7E1,6E0,2.7E1,2.6E1,-4.6E0,1.8957925E-3,-6.152906E-4,3.431481E-3,5.3617912E-3,-1.1408136E-3,-3.0751424E-3,-6.265595E-4,2.1198867E-3],"split_indices":[27,80,80,77,103,51,25,0,0,0,0,0,0,0,0],"split_type":[0,0,0,0,0,0,0,0,0,0,0,0,0,0,0],"sum_hessian":[5.1954966E3,3.0600645E3,2.1354321E3,1.628414E3,1.4316504E3,1.2808324E3,8.545997E2,1.1515239E3,4.7689005E2,1.0815977E3,3.5005276E2,8.017725E2,4.790599E2,3.5403284E2,5.005668E2],"tree_param":{"num_deleted":"0","num_feature":"280","num_nodes":"15","size_leaf_vector":"1"}},{"base_weights":[-1.13159604E-1,-2.7211034E-1,3.7989873E-2,-3.5388017E-1,-6.5097116E-2,-1.5494235E-1,1.4735189E-1,-2.9453265E-3,-5.183425E-3,-2.5216443E-4,-3.6510767E-3,3.9088947E-4,-2.5792306E-3,6.075058E-4,2.5911187E-3],"categories":[],"categories_nodes":[],"categories_segments":[],"categories_sizes":[],"default_left":[0,0,0,0,0,0,0,0,0,0,0,0,0,0,0],"id":72,"left_children":[1,3,5,7,9,11,13,-1,-1,-1,-1,-1,-1,-1,-1],"loss_changes":[1.2479934E2,4.2834152E1,5.621579E1,1.7559586E1,8.582803E0,1.9271788E1,1.6440372E1,0E0,0E0,0E0,0E0,0E0,0E0,0E0,0E0],"parents":[2147483647,0,0,1,1,2,2,3,3,4,4,5,5,6,6],"right_children":[2,4,6,8,10,12,14,-1,-1,-1,-1,-1,-1,-1,-1],"split_conditions":[1.5E1,3.8E0,-1.5E0,2.3E1,4.86E-1,-4.8E0,2.4E1,-2.9453265E-3,-5.183425E-3,-2.5216443E-4,-3.6510767E-3,3.9088947E-4,-2.5792306E-3,6.075058E-4,2.5911187E-3],"split_indices":[51,77,77,80,7,25,51,0,0,0,0,0,0,0,0],"split_type":[0,0,0,0,0,0,0,0,0,0,0,0,0,0,0],"sum_hessian":[5.193061E3,2.5308188E3,2.6622422E3,1.813701E3,7.171178E2,9.6297766E2,1.6992645E3,1.3348141E3,4.78887E2,6.339326E2,8.318517E1,3.3410107E2,6.288766E2,9.5826294E2,7.410015E2],"tree_param":{"num_deleted":"0","num_feature":"280","num_nodes":"15","size_leaf_vector":"1"}},{"base_weights":[1.13159604E-1,2.7211034E-1,-3.798987E-2,3.5388017E-1,6.509712E-2,1.5494236E-1,-1.473519E-1,2.9453265E-3,5.1834253E-3,2.5216455E-4,3.6510772E-3,-3.9088939E-4,2.5792308E-3,-6.075057E-4,-2.5911191E-3],"categories":[],"categories_nodes":[],"categories_segments":[],"categories_sizes":[],"default_left":[0,0,0,0,0,0,0,0,0,0,0,0,0,0,0],"id":73,"left_children":[1,3,5,7,9,11,13,-1,-1,-1,-1,-1,-1,-1,-1],"loss_changes":[1.2479933E2,4.2834152E1,5.6215805E1,1.75596E1,8.582802E0,1.927179E1,1.644038E1,0E0,0E0,0E0,0E0,0E0,0E0,0E0,0E0],"parents":[2147483647,0,0,1,1,2,2,3,3,4,4,5,5,6,6],"right_children":[2,4,6,8,10,12,14,-1,-1,-1,-1,-1,-1,-1,-1],"split_conditions":[1.5E1,3.8E0,-1.5E0,2.3E1,4.86E-1,-4.8E0,2.4E1,2.9453265E-3,5.1834253E-3,2.5216455E-4,3.6510772E-3,-3.9088939E-4,2.5792308E-3,-6.075057E-4,-2.5911191E-3],"split_indices":[51,77,77,80,7,25,51,0,0,0,0,0,0,0,0],"split_type":[0,0,0,0,0,0,0,0,0,0,0,0,0,0,0],"sum_hessian":[5.193061E3,2.5308188E3,2.6622422E3,1.813701E3,7.171178E2,9.6297766E2,1.6992645E3,1.3348141E3,4.7888702E2,6.339326E2,8.318517E1,3.3410107E2,6.288766E2,9.5826294E2,7.410015E2],"tree_param":{"num_deleted":"0","num_feature":"280","num_nodes":"15","size_leaf_vector":"1"}},{"base_weights":[-1.120868E-1,-2.6960173E-1,3.761958E-2,-3.3380082E-1,-9.896064E-3,-1.8380041E-1,1.313115E-1,-2.778552E-3,-5.1424103E-3,-1.1301985E-3,1.5703985E-3,2.1963447E-4,-2.9311182E-3,2.704251E-3,5.925704E-4],"categories":[],"categories_nodes":[],"categories_segments":[],"categories_sizes":[],"default_left":[0,0,0,0,0,0,0,0,0,0,0,0,0,0,0],"id":74,"left_children":[1,3,5,7,9,11,13,-1,-1,-1,-1,-1,-1,-1,-1],"loss_changes":[1.22430145E2,4.2177124E1,5.526022E1,2.0333694E1,8.667676E0,1.78222E1,1.8743496E1,0E0,0E0,0E0,0E0,0E0,0E0,0E0,0E0],"parents":[2147483647,0,0,1,1,2,2,3,3,4,4,5,5,6,6],"right_children":[2,4,6,8,10,12,14,-1,-1,-1,-1,-1,-1,-1,-1],"split_conditions":[1.5E1,5.1E0,-2.4E0,2.3E1,1.8E1,-4.8E0,8E0,-2.778552E-3,-5.1424103E-3,-1.1301985E-3,1.5703985E-3,2.1963447E-4,-2.9311182E-3,2.704251E-3,5.925704E-4],"split_indices":[51,77,77,80,201,25,103,0,0,0,0,0,0,0,0],"split_type":[0,0,0,0,0,0,0,0,0,0,0,0,0,0,0],"sum_hessian":[5.19047E3,2.5288828E3,2.6615876E3,2.0274202E3,5.014626E2,7.910813E2,1.8705063E3,1.5495278E3,4.7789236E2,3.1017596E2,1.912866E2,2.74733E2,5.163483E2,6.37312E2,1.2331943E3],"tree_param":{"num_deleted":"0","num_feature":"280","num_nodes":"15","size_leaf_vector":"1"}},{"base_weights":[1.1208682E-1,2.6960173E-1,-3.761958E-2,3.3380085E-1,9.896089E-3,1.8380043E-1,-1.313115E-1,2.778552E-3,5.1424108E-3,1.130199E-3,-1.5703985E-3,-2.196342E-4,2.9311185E-3,-2.704251E-3,-5.9257046E-4],"categories":[],"categories_nodes":[],"categories_segments":[],"categories_sizes":[],"default_left":[0,0,0,0,0,0,0,0,0,0,0,0,0,0,0],"id":75,"left_children":[1,3,5,7,9,11,13,-1,-1,-1,-1,-1,-1,-1,-1],"loss_changes":[1.2243017E2,4.217711E1,5.526023E1,2.0333694E1,8.667676E0,1.7822195E1,1.8743496E1,0E0,0E0,0E0,0E0,0E0,0E0,0E0,0E0],"parents":[2147483647,0,0,1,1,2,2,3,3,4,4,5,5,6,6],"right_children":[2,4,6,8,10,12,14,-1,-1,-1,-1,-1,-1,-1,-1],"split_conditions":[1.5E1,5.1E0,-2.4E0,2.3E1,1.8E1,-4.8E0,8E0,2.778552E-3,5.1424108E-3,1.130199E-3,-1.5703985E-3,-2.196342E-4,2.9311185E-3,-2.704251E-3,-5.9257046E-4],"split_indices":[51,77,77,80,201,25,103,0,0,0,0,0,0,0,0],"split_type":[0,0,0,0,0,0,0,0,0,0,0,0,0,0,0],"sum_hessian":[5.19047E3,2.5288828E3,2.6615876E3,2.0274202E3,5.014626E2,7.910813E2,1.8705063E3,1.5495278E3,4.778924E2,3.1017596E2,1.912866E2,2.74733E2,5.163483E2,6.37312E2,1.2331943E3],"tree_param":{"num_deleted":"0","num_feature":"280","num_nodes":"15","size_leaf_vector":"1"}},{"base_weights":[-1.1102453E-1,8.955852E-2,-2.2686478E-1,-1.549936E-1,1.6705556E-1,-3.6150107E-1,-8.778498E-2,-3.077863E-3,-4.6482196E-4,8.403693E-4,2.7055996E-3,-3.1295207E-3,-5.233738E-3,-2.319086E-3,3.5508117E-4],"categories":[],"categories_nodes":[],"categories_segments":[],"categories_sizes":[],"default_left":[0,0,0,0,0,0,0,0,0,0,0,0,0,0,0],"id":76,"left_children":[1,3,5,7,9,11,13,-1,-1,-1,-1,-1,-1,-1,-1],"loss_changes":[1.20585846E2,3.604068E1,6.156514E1,7.5759716E0,1.2381004E1,1.2969299E1,2.878372E1,0E0,0E0,0E0,0E0,0E0,0E0,0E0,0E0],"parents":[2147483647,0,0,1,1,2,2,3,3,4,4,5,5,6,6],"right_children":[2,4,6,8,10,12,14,-1,-1,-1,-1,-1,-1,-1,-1],"split_conditions":[4.46E-1,3.73E-1,7E-1,1.6E1,2.6E1,3.7E1,9E0,-3.077863E-3,-4.6482196E-4,8.403693E-4,2.7055996E-3,-3.1295207E-3,-5.233738E-3,-2.319086E-3,3.5508117E-4],"split_indices":[3,55,77,37,51,54,51,0,0,0,0,0,0,0,0],"split_type":[0,0,0,0,0,0,0,0,0,0,0,0,0,0,0],"sum_hessian":[5.1878296E3,1.8993094E3,3.28852E3,4.5680405E2,1.4425054E3,1.6701403E3,1.6183796E3,1.8893376E2,2.678703E2,8.014732E2,6.4103217E2,1.2870581E3,3.8308215E2,7.4575146E2,8.726282E2],"tree_param":{"num_deleted":"0","num_feature":"280","num_nodes":"15","size_leaf_vector":"1"}},{"base_weights":[1.1102453E-1,-8.955852E-2,2.2686478E-1,1.5499361E-1,-1.6705556E-1,3.615011E-1,8.7784976E-2,3.0778635E-3,4.6482217E-4,-8.4036944E-4,-2.7055996E-3,3.129521E-3,5.233738E-3,2.319086E-3,-3.550813E-4],"categories":[],"categories_nodes":[],"categories_segments":[],"categories_sizes":[],"default_left":[0,0,0,0,0,0,0,0,0,0,0,0,0,0,0],"id":77,"left_children":[1,3,5,7,9,11,13,-1,-1,-1,-1,-1,-1,-1,-1],"loss_changes":[1.20585846E2,3.604068E1,6.1565155E1,7.5759716E0,1.2381008E1,1.2969299E1,2.8783722E1,0E0,0E0,0E0,0E0,0E0,0E0,0E0,0E0],"parents":[2147483647,0,0,1,1,2,2,3,3,4,4,5,5,6,6],"right_children":[2,4,6,8,10,12,14,-1,-1,-1,-1,-1,-1,-1,-1],"split_conditions":[4.46E-1,3.73E-1,7E-1,1.6E1,2.6E1,3.7E1,9E0,3.0778635E-3,4.6482217E-4,-8.4036944E-4,-2.7055996E-3,3.129521E-3,5.233738E-3,2.319086E-3,-3.550813E-4],"split_indices":[3,55,77,37,51,54,51,0,0,0,0,0,0,0,0],"split_type":[0,0,0,0,0,0,0,0,0,0,0,0,0,0,0],"sum_hessian":[5.1878296E3,1.8993094E3,3.28852E3,4.5680405E2,1.4425054E3,1.6701403E3,1.6183796E3,1.8893376E2,2.6787027E2,8.014732E2,6.4103217E2,1.2870581E3,3.8308215E2,7.4575146E2,8.726282E2],"tree_param":{"num_deleted":"0","num_feature":"280","num_nodes":"15","size_leaf_vector":"1"}},{"base_weights":[-1.09969534E-1,-2.3627067E-1,7.075868E-2,-1.1135692E-1,-3.786651E-1,1.4881083E-1,-1.6387175E-1,-2.4562674E-3,-1.7377066E-4,-3.3199291E-3,-5.2199983E-3,2.7325684E-3,7.7701575E-4,-2.496779E-3,9.942008E-4],"categories":[],"categories_nodes":[],"categories_segments":[],"categories_sizes":[],"default_left":[0,0,0,0,0,0,0,0,0,0,0,0,0,0,0],"id":78,"left_children":[1,3,5,7,9,11,13,-1,-1,-1,-1,-1,-1,-1,-1],"loss_changes":[1.1840122E2,5.4263306E1,3.910981E1,2.0536303E1,9.368301E0,1.4155479E1,1.2071588E1,0E0,0E0,0E0,0E0,0E0,0E0,0E0,0E0],"parents":[2147483647,0,0,1,1,2,2,3,3,4,4,5,5,6,6],"right_children":[2,4,6,8,10,12,14,-1,-1,-1,-1,-1,-1,-1,-1],"split_conditions":[1.7E1,1.4E1,2.2E1,7E0,2.7E1,9E0,2.7E1,-2.4562674E-3,-1.7377066E-4,-3.3199291E-3,-5.2199983E-3,2.7325684E-3,7.7701575E-4,-2.496779E-3,9.942008E-4],"split_indices":[27,80,80,29,103,103,28,0,0,0,0,0,0,0,0],"split_type":[0,0,0,0,0,0,0,0,0,0,0,0,0,0,0],"sum_hessian":[5.185348E3,3.0520962E3,2.1332517E3,1.6267937E3,1.4253026E3,1.6010216E3,5.322301E2,6.6915405E2,9.5763965E2,1.0777013E3,3.476013E2,5.8114166E2,1.01987994E3,4.0145016E2,1.307799E2],"tree_param":{"num_deleted":"0","num_feature":"280","num_nodes":"15","size_leaf_vector":"1"}},{"base_weights":[1.0996954E-1,2.3627067E-1,-7.075866E-2,1.1135693E-1,3.786651E-1,-1.4881082E-1,1.6387174E-1,2.4562674E-3,1.7377069E-4,3.3199291E-3,5.219998E-3,-2.7325677E-3,-7.770158E-4,2.496779E-3,-9.94201E-4],"categories":[],"categories_nodes":[],"categories_segments":[],"categories_sizes":[],"default_left":[0,0,0,0,0,0,0,0,0,0,0,0,0,0,0],"id":79,"left_children":[1,3,5,7,9,11,13,-1,-1,-1,-1,-1,-1,-1,-1],"loss_changes":[1.18401215E2,5.4263306E1,3.910981E1,2.0536308E1,9.368301E0,1.4155468E1,1.2071588E1,0E0,0E0,0E0,0E0,0E0,0E0,0E0,0E0],"parents":[2147483647,0,0,1,1,2,2,3,3,4,4,5,5,6,6],"right_children":[2,4,6,8,10,12,14,-1,-1,-1,-1,-1,-1,-1,-1],"split_conditions":[1.7E1,1.4E1,2.2E1,7E0,2.7E1,9E0,2.7E1,2.4562674E-3,1.7377069E-4,3.3199291E-3,5.219998E-3,-2.7325677E-3,-7.770158E-4,2.496779E-3,-9.94201E-4],"split_indices":[27,80,80,29,103,103,28,0,0,0,0,0,0,0,0],"split_type":[0,0,0,0,0,0,0,0,0,0,0,0,0,0,0],"sum_hessian":[5.185348E3,3.0520962E3,2.1332517E3,1.6267937E3,1.4253026E3,1.6010216E3,5.3223004E2,6.6915405E2,9.5763965E2,1.0777013E3,3.476013E2,5.8114166E2,1.01987994E3,4.0145016E2,1.307799E2],"tree_param":{"num_deleted":"0","num_feature":"280","num_nodes":"15","size_leaf_vector":"1"}},{"base_weights":[-1.0892538E-1,-2.6278642E-1,3.7108116E-2,-3.260245E-1,-7.56484E-3,-1.7897764E-1,1.2847345E-1,-2.7109694E-3,-5.0386083E-3,-1.0974362E-3,1.5778488E-3,2.2267051E-4,-2.8609317E-3,2.647914E-3,5.792152E-4],"categories":[],"categories_nodes":[],"categories_segments":[],"categories_sizes":[],"default_left":[0,0,0,0,0,0,0,0,0,0,0,0,0,0,0],"id":80,"left_children":[1,3,5,7,9,11,13,-1,-1,-1,-1,-1,-1,-1,-1],"loss_changes":[1.1648436E2,4.0740387E1,5.2547367E1,1.9625107E1,8.503843E0,1.7057962E1,1.7973392E1,0E0,0E0,0E0,0E0,0E0,0E0,0E0,0E0],"parents":[2147483647,0,0,1,1,2,2,3,3,4,4,5,5,6,6],"right_children":[2,4,6,8,10,12,14,-1,-1,-1,-1,-1,-1,-1,-1],"split_conditions":[1.5E1,5.1E0,-2.4E0,2.3E1,1.8E1,-4.8E0,8E0,-2.7109694E-3,-5.0386083E-3,-1.0974362E-3,1.5778488E-3,2.2267051E-4,-2.8609317E-3,2.647914E-3,5.792152E-4],"split_indices":[51,77,77,80,201,25,103,0,0,0,0,0,0,0,0],"split_type":[0,0,0,0,0,0,0,0,0,0,0,0,0,0,0],"sum_hessian":[5.1828228E3,2.5233835E3,2.659439E3,2.0220806E3,5.0130307E2,7.9002124E2,1.8694176E3,1.5468391E3,4.7524142E2,3.100452E2,1.9125787E2,2.74706E2,5.153153E2,6.366164E2,1.2328013E3],"tree_param":{"num_deleted":"0","num_feature":"280","num_nodes":"15","size_leaf_vector":"1"}},{"base_weights":[1.0892537E-1,2.6278642E-1,-3.7108146E-2,3.2602453E-1,7.5648814E-3,1.7897762E-1,-1.2847348E-1,2.7109694E-3,5.0386083E-3,1.0974369E-3,-1.5778486E-3,-2.2267061E-4,2.8609314E-3,-2.6479142E-3,-5.792156E-4],"categories":[],"categories_nodes":[],"categories_segments":[],"categories_sizes":[],"default_left":[0,0,0,0,0,0,0,0,0,0,0,0,0,0,0],"id":81,"left_children":[1,3,5,7,9,11,13,-1,-1,-1,-1,-1,-1,-1,-1],"loss_changes":[1.16484406E2,4.0740387E1,5.2547367E1,1.9625107E1,8.503846E0,1.705796E1,1.797339E1,0E0,0E0,0E0,0E0,0E0,0E0,0E0,0E0],"parents":[2147483647,0,0,1,1,2,2,3,3,4,4,5,5,6,6],"right_children":[2,4,6,8,10,12,14,-1,-1,-1,-1,-1,-1,-1,-1],"split_conditions":[1.5E1,5.1E0,-2.4E0,2.3E1,1.8E1,-4.8E0,8E0,2.7109694E-3,5.0386083E-3,1.0974369E-3,-1.5778486E-3,-2.2267061E-4,2.8609314E-3,-2.6479142E-3,-5.792156E-4],"split_indices":[51,77,77,80,201,25,103,0,0,0,0,0,0,0,0],"split_type":[0,0,0,0,0,0,0,0,0,0,0,0,0,0,0],"sum_hessian":[5.1828228E3,2.5233835E3,2.659439E3,2.0220806E3,5.0130307E2,7.9002124E2,1.8694176E3,1.5468391E3,4.7524142E2,3.100452E2,1.9125789E2,2.74706E2,5.153153E2,6.366164E2,1.2328013E3],"tree_param":{"num_deleted":"0","num_feature":"280","num_nodes":"15","size_leaf_vector":"1"}},{"base_weights":[-1.0789519E-1,7.8347616E-2,-2.267616E-1,-4.95799E-2,2.239756E-1,-3.096085E-1,-1.3329937E-2,8.9040934E-4,-1.6244644E-3,