{"learner":{"attributes":{},"feature_names":[],"feature_types":[],"gradient_booster":{"model":{"gbtree_model_param":{"num_parallel_tree":"1","num_trees":"200"},"iteration_indptr":[0,2,4,6,8,10,12,14,16,18,20,22,24,26,28,30,32,34,36,38,40,42,44,46,48,50,52,54,56,58,60,62,64,66,68,70,72,74,76,78,80,82,84,86,88,90,92,94,96,98,100,102,104,106,108,110,112,114,116,118,120,122,124,126,128,130,132,134,136,138,140,142,144,146,148,150,152,154,156,158,160,162,164,166,168,170,172,174,176,178,180,182,184,186,188,190,192,194,196,198,200],"tree_info":[0,1,0,1,0,1,0,1,0,1,0,1,0,1,0,1,0,1,0,1,0,1,0,1,0,1,0,1,0,1,0,1,0,1,0,1,0,1,0,1,0,1,0,1,0,1,0,1,0,1,0,1,0,1,0,1,0,1,0,1,0,1,0,1,0,1,0,1,0,1,0,1,0,1,0,1,0,1,0,1,0,1,0,1,0,1,0,1,0,1,0,1,0,1,0,1,0,1,0,1,0,1,0,1,0,1,0,1,0,1,0,1,0,1,0,1,0,1,0,1,0,1,0,1,0,1,0,1,0,1,0,1,0,1,0,1,0,1,0,1,0,1,0,1,0,1,0,1,0,1,0,1,0,1,0,1,0,1,0,1,0,1,0,1,0,1,0,1,0,1,0,1,0,1,0,1,0,1,0,1,0,1,0,1,0,1,0,1,0,1,0,1,0,1,0,1,0,1,0,1],"trees":[{"base_weights":[-1.5518719E-1,6.677079E-2,-3.665613E-1,-1.9809069E-1,1.9547564E-1,-4.7262913E-1,-8.8709675E-2,7.0707063E-4,-3.4501844E-3,7.6593464E-4,3.3543902E-3,-3.9139707E-3,-6.833333E-3,-1.9616203E-3,9.4202894E-4],"categories":[],"categories_nodes":[],"categories_segments":[],"categories_sizes":[],"default_left":[0,0,0,0,0,0,0,0,0,0,0,0,0,0,0],"id":0,"left_children":[1,3,5,7,9,11,13,-1,-1,-1,-1,-1,-1,-1,-1],"loss_changes":[2.46264E2,8.734054E1,7.919116E1,3.312024E1,2.866021E1,3.3031586E1,1.4641344E1,0E0,0E0,0E0,0E0,0E0,0E0,0E0,0E0],"parents":[2147483647,0,0,1,1,2,2,3,3,4,4,5,5,6,6],"right_children":[2,4,6,8,10,12,14,-1,-1,-1,-1,-1,-1,-1,-1],"split_conditions":[1E-1,-2E0,3.8E0,-4.8E0,2.4E1,2.3E1,1E1,7.0707063E-4,-3.4501844E-3,7.6593464E-4,3.3543902E-3,-3.9139707E-3,-6.833333E-3,-1.9616203E-3,9.4202894E-4],"split_indices":[25,77,77,25,51,80,51,0,0,0,0,0,0,0,0],"split_type":[0,0,0,0,0,0,0,0,0,0,0,0,0,0,0],"sum_hessian":[5.2475E3,2.56E3,2.6875E3,8.37E2,1.723E3,1.9445E3,7.43E2,2.96E2,5.41E2,9.325E2,7.905E2,1.4055E3,5.39E2,4.68E2,2.75E2],"tree_param":{"num_deleted":"0","num_feature":"280","num_nodes":"15","size_leaf_vector":"1"}},{"base_weights":[1.5518719E-1,-6.677079E-2,3.665613E-1,1.9809069E-1,-1.9547564E-1,4.7262913E-1,8.8709675E-2,-7.0707063E-4,3.4501844E-3,-7.6593464E-4,-3.3543902E-3,3.9139707E-3,6.833333E-3,1.9616203E-3,-9.4202894E-4],"categories":[],"categories_nodes":[],"categories_segments":[],"categories_sizes":[],"default_left":[0,0,0,0,0,0,0,0,0,0,0,0,0,0,0],"id":1,"left_children":[1,3,5,7,9,11,13,-1,-1,-1,-1,-1,-1,-1,-1],"loss_changes":[2.46264E2,8.734054E1,7.919116E1,3.312024E1,2.866021E1,3.3031586E1,1.4641344E1,0E0,0E0,0E0,0E0,0E0,0E0,0E0,0E0],"parents":[2147483647,0,0,1,1,2,2,3,3,4,4,5,5,6,6],"right_children":[2,4,6,8,10,12,14,-1,-1,-1,-1,-1,-1,-1,-1],"split_conditions":[1E-1,-2E0,3.8E0,-4.8E0,2.4E1,2.3E1,1E1,-7.0707063E-4,3.4501844E-3,-7.6593464E-4,-3.3543902E-3,3.9139707E-3,6.833333E-3,1.9616203E-3,-9.4202894E-4],"split_indices":[25,77,77,25,51,80,51,0,0,0,0,0,0,0,0],"split_type":[0,0,0,0,0,0,0,0,0,0,0,0,0,0,0],"sum_hessian":[5.2475E3,2.56E3,2.6875E3,8.37E2,1.723E3,1.9445E3,7.43E2,2.96E2,5.41E2,9.325E2,7.905E2,1.4055E3,5.39E2,4.68E2,2.75E2],"tree_param":{"num_deleted":"0","num_feature":"280","num_nodes":"15","size_leaf_vector":"1"}},{"base_weights":[-1.5363921E-1,6.610403E-2,-3.6290666E-1,-1.961146E-1,1.9352433E-1,-4.6791968E-1,-8.782414E-2,7.000245E-4,-3.4157871E-3,7.5828406E-4,3.3209259E-3,-3.8749191E-3,-6.765442E-3,-1.942053E-3,9.32644E-4],"categories":[],"categories_nodes":[],"categories_segments":[],"categories_sizes":[],"default_left":[0,0,0,0,0,0,0,0,0,0,0,0,0,0,0],"id":2,"left_children":[1,3,5,7,9,11,13,-1,-1,-1,-1,-1,-1,-1,-1],"loss_changes":[2.4137381E2,8.5605484E1,7.762085E1,3.246304E1,2.8091232E1,3.2381073E1,1.4350792E1,0E0,0E0,0E0,0E0,0E0,0E0,0E0,0E0],"parents":[2147483647,0,0,1,1,2,2,3,3,4,4,5,5,6,6],"right_children":[2,4,6,8,10,12,14,-1,-1,-1,-1,-1,-1,-1,-1],"split_conditions":[1E-1,-2E0,3.8E0,-4.8E0,2.4E1,2.3E1,1E1,7.000245E-4,-3.4157871E-3,7.5828406E-4,3.3209259E-3,-3.8749191E-3,-6.765442E-3,-1.942053E-3,9.32644E-4],"split_indices":[25,77,77,25,51,80,51,0,0,0,0,0,0,0,0],"split_type":[0,0,0,0,0,0,0,0,0,0,0,0,0,0,0],"sum_hessian":[5.247435E3,2.559984E3,2.6874512E3,8.369934E2,1.7229905E3,1.9444532E3,7.42998E2,2.9599985E2,5.409935E2,9.3249945E2,7.904911E2,1.4054784E3,5.3897485E2,4.6799823E2,2.7499976E2],"tree_param":{"num_deleted":"0","num_feature":"280","num_nodes":"15","size_leaf_vector":"1"}},{"base_weights":[1.5363923E-1,-6.610401E-2,3.6290663E-1,1.9611463E-1,-1.9352432E-1,4.6791962E-1,8.782422E-2,-7.000236E-4,3.4157871E-3,-7.582832E-4,-3.3209266E-3,3.8749177E-3,6.765443E-3,1.9420538E-3,-9.326438E-4],"categories":[],"categories_nodes":[],"categories_segments":[],"categories_sizes":[],"default_left":[0,0,0,0,0,0,0,0,0,0,0,0,0,0,0],"id":3,"left_children":[1,3,5,7,9,11,13,-1,-1,-1,-1,-1,-1,-1,-1],"loss_changes":[2.4137381E2,8.560549E1,7.762076E1,3.2463024E1,2.8091278E1,3.2381042E1,1.43508E1,0E0,0E0,0E0,0E0,0E0,0E0,0E0,0E0],"parents":[2147483647,0,0,1,1,2,2,3,3,4,4,5,5,6,6],"right_children":[2,4,6,8,10,12,14,-1,-1,-1,-1,-1,-1,-1,-1],"split_conditions":[1E-1,-2E0,3.8E0,-4.8E0,2.4E1,2.3E1,1E1,-7.000236E-4,3.4157871E-3,-7.582832E-4,-3.3209266E-3,3.8749177E-3,6.765443E-3,1.9420538E-3,-9.326438E-4],"split_indices":[25,77,77,25,51,80,51,0,0,0,0,0,0,0,0],"split_type":[0,0,0,0,0,0,0,0,0,0,0,0,0,0,0],"sum_hessian":[5.247435E3,2.559984E3,2.6874512E3,8.369934E2,1.7229906E3,1.9444534E3,7.429979E2,2.9599988E2,5.409935E2,9.324995E2,7.90491E2,1.4054785E3,5.3897485E2,4.679982E2,2.7499973E2],"tree_param":{"num_deleted":"0","num_feature":"280","num_nodes":"15","size_leaf_vector":"1"}},{"base_weights":[-1.5211043E-1,-3.6956635E-1,5.531754E-2,-4.7172755E-1,-1.03406996E-1,-2.0922956E-1,1.8459144E-1,-3.920506E-3,-6.8255984E-3,-3.432706E-3,-3.4378748E-4,6.93048E-4,-3.4992849E-3,7.1969855E-4,3.2878688E-3],"categories":[],"categories_nodes":[],"categories_segments":[],"categories_sizes":[],"default_left":[0,0,0,0,0,0,0,0,0,0,0,0,0,0,0],"id":4,"left_children":[1,3,5,7,9,11,13,-1,-1,-1,-1,-1,-1,-1,-1],"loss_changes":[2.3675E2,6.962366E1,9.192887E1,3.0831848E1,1.1776909E1,3.4607662E1,2.9296104E1,0E0,0E0,0E0,0E0,0E0,0E0,0E0,0E0],"parents":[2147483647,0,0,1,1,2,2,3,3,4,4,5,5,6,6],"right_children":[2,4,6,8,10,12,14,-1,-1,-1,-1,-1,-1,-1,-1],"split_conditions":[1.5E1,3.8E0,-2E0,2.3E1,5E0,-4.8E0,2.4E1,-3.920506E-3,-6.8255984E-3,-3.432706E-3,-3.4378748E-4,6.93048E-4,-3.4992849E-3,7.1969855E-4,3.2878688E-3],"split_indices":[51,77,77,80,41,25,51,0,0,0,0,0,0,0,0],"split_type":[0,0,0,0,0,0,0,0,0,0,0,0,0,0,0],"sum_hessian":[5.247243E3,2.5613184E3,2.685925E3,1.8503263E3,7.10992E2,8.814666E2,1.8044584E3,1.3449193E3,5.0540707E2,1.5799799E2,5.52994E2,2.9599942E2,5.8546716E2,1.01399365E3,7.904648E2],"tree_param":{"num_deleted":"0","num_feature":"280","num_nodes":"15","size_leaf_vector":"1"}},{"base_weights":[1.521104E-1,3.695663E-1,-5.5317562E-2,4.717275E-1,1.0340702E-1,2.0922948E-1,-1.8459144E-1,3.9205053E-3,6.8255984E-3,3.4327062E-3,3.4378766E-4,-6.9304823E-4,3.499284E-3,-7.1969867E-4,-3.2878688E-3],"categories":[],"categories_nodes":[],"categories_segments":[],"categories_sizes":[],"default_left":[0,0,0,0,0,0,0,0,0,0,0,0,0,0,0],"id":5,"left_children":[1,3,5,7,9,11,13,-1,-1,-1,-1,-1,-1,-1,-1],"loss_changes":[2.3675E2,6.96236E1,9.192885E1,3.0831848E1,1.1776913E1,3.4607655E1,2.9296104E1,0E0,0E0,0E0,0E0,0E0,0E0,0E0,0E0],"parents":[2147483647,0,0,1,1,2,2,3,3,4,4,5,5,6,6],"right_children":[2,4,6,8,10,12,14,-1,-1,-1,-1,-1,-1,-1,-1],"split_conditions":[1.5E1,3.8E0,-2E0,2.3E1,5E0,-4.8E0,2.4E1,3.9205053E-3,6.8255984E-3,3.4327062E-3,3.4378766E-4,-6.9304823E-4,3.499284E-3,-7.1969867E-4,-3.2878688E-3],"split_indices":[51,77,77,80,41,25,51,0,0,0,0,0,0,0,0],"split_type":[0,0,0,0,0,0,0,0,0,0,0,0,0,0,0],"sum_hessian":[5.2472437E3,2.5613184E3,2.685925E3,1.8503264E3,7.10992E2,8.814666E2,1.8044584E3,1.3449193E3,5.0540707E2,1.5799799E2,5.52994E2,2.9599945E2,5.854672E2,1.01399365E3,7.904648E2],"tree_param":{"num_deleted":"0","num_feature":"280","num_nodes":"15","size_leaf_vector":"1"}},{"base_weights":[-1.5060075E-1,6.4867735E-2,-3.5581544E-1,-1.9213645E-1,1.8975152E-1,-1.8901013E-1,-5.228193E-1,6.8614335E-4,-3.3468045E-3,7.444219E-4,3.2552108E-3,-2.9746615E-3,-2.699331E-4,-4.277331E-3,-6.6346247E-3],"categories":[],"categories_nodes":[],"categories_segments":[],"categories_sizes":[],"default_left":[0,0,0,0,0,0,0,0,0,0,0,0,0,0,0],"id":6,"left_children":[1,3,5,7,9,11,13,-1,-1,-1,-1,-1,-1,-1,-1],"loss_changes":[2.3207265E2,8.222885E1,7.4783356E1,3.1167915E1,2.6964539E1,2.36506E1,1.767212E1,0E0,0E0,0E0,0E0,0E0,0E0,0E0,0E0],"parents":[2147483647,0,0,1,1,2,2,3,3,4,4,5,5,6,6],"right_children":[2,4,6,8,10,12,14,-1,-1,-1,-1,-1,-1,-1,-1],"split_conditions":[1E-1,-2E0,1.3E1,-4.8E0,2.4E1,4.9E0,2.3E1,6.8614335E-4,-3.3468045E-3,7.444219E-4,3.2552108E-3,-2.9746615E-3,-2.699331E-4,-4.277331E-3,-6.6346247E-3],"split_indices":[25,77,80,25,51,77,80,0,0,0,0,0,0,0,0],"split_type":[0,0,0,0,0,0,0,0,0,0,0,0,0,0,0],"sum_hessian":[5.2469365E3,2.5598572E3,2.6870793E3,8.369402E2,1.7229169E3,1.345405E3,1.3416743E3,2.959987E2,5.4094147E2,9.3249536E2,7.904216E2,8.054146E2,5.399904E2,8.028942E2,5.3878E2],"tree_param":{"num_deleted":"0","num_feature":"280","num_nodes":"15","size_leaf_vector":"1"}},{"base_weights":[1.5060076E-1,-6.486769E-2,3.5581544E-1,1.9213642E-1,-1.8975146E-1,1.8901011E-1,5.228193E-1,-6.861424E-4,3.3468034E-3,-7.4442104E-4,-3.2552108E-3,2.9746615E-3,2.6993305E-4,4.277331E-3,6.6346247E-3],"categories":[],"categories_nodes":[],"categories_segments":[],"categories_sizes":[],"default_left":[0,0,0,0,0,0,0,0,0,0,0,0,0,0,0],"id":7,"left_children":[1,3,5,7,9,11,13,-1,-1,-1,-1,-1,-1,-1,-1],"loss_changes":[2.3207262E2,8.222881E1,7.4783356E1,3.1167883E1,2.6964558E1,2.3650604E1,1.7672089E1,0E0,0E0,0E0,0E0,0E0,0E0,0E0,0E0],"parents":[2147483647,0,0,1,1,2,2,3,3,4,4,5,5,6,6],"right_children":[2,4,6,8,10,12,14,-1,-1,-1,-1,-1,-1,-1,-1],"split_conditions":[1E-1,-2E0,1.3E1,-4.8E0,2.4E1,4.9E0,2.3E1,-6.861424E-4,3.3468034E-3,-7.4442104E-4,-3.2552108E-3,2.9746615E-3,2.6993305E-4,4.277331E-3,6.6346247E-3],"split_indices":[25,77,80,25,51,77,80,0,0,0,0,0,0,0,0],"split_type":[0,0,0,0,0,0,0,0,0,0,0,0,0,0,0],"sum_hessian":[5.2469365E3,2.5598572E3,2.6870793E3,8.3694025E2,1.7229169E3,1.345405E3,1.3416743E3,2.9599872E2,5.409415E2,9.324954E2,7.904215E2,8.054146E2,5.399904E2,8.028942E2,5.387801E2],"tree_param":{"num_deleted":"0","num_feature":"280","num_nodes":"15","size_leaf_vector":"1"}},{"base_weights":[-1.4910932E-1,-3.6244833E-1,5.436563E-2,-4.6268633E-1,-1.0136728E-1,-1.1480511E-1,2.4878256E-1,-3.8454947E-3,-6.6951937E-3,-3.3879806E-3,-3.304358E-4,1.3028452E-3,-2.4647173E-3,1.4732071E-3,3.8555777E-3],"categories":[],"categories_nodes":[],"categories_segments":[],"categories_sizes":[],"default_left":[0,0,0,0,0,0,0,0,0,0,0,0,0,0,0],"id":8,"left_children":[1,3,5,7,9,11,13,-1,-1,-1,-1,-1,-1,-1,-1],"loss_changes":[2.2780983E2,6.699591E1,8.839382E1,2.9654083E1,1.1538652E1,4.6414665E1,1.7295547E1,0E0,0E0,0E0,0E0,0E0,0E0,0E0,0E0],"parents":[2147483647,0,0,1,1,2,2,3,3,4,4,5,5,6,6],"right_children":[2,4,6,8,10,12,14,-1,-1,-1,-1,-1,-1,-1,-1],"split_conditions":[1.5E1,3.8E0,5.19E-1,2.3E1,5E0,-4.7E0,2.4E1,-3.8454947E-3,-6.6951937E-3,-3.3879806E-3,-3.304358E-4,1.3028452E-3,-2.4647173E-3,1.4732071E-3,3.8555777E-3],"split_indices":[51,77,55,80,41,25,51,0,0,0,0,0,0,0,0],"split_type":[0,0,0,0,0,0,0,0,0,0,0,0,0,0,0],"sum_hessian":[5.2465146E3,2.5607954E3,2.685719E3,1.8498154E3,7.1098004E2,1.4363217E3,1.2493973E3,1.3446836E3,5.0513184E2,1.5799052E2,5.529895E2,5.0196115E2,9.3436053E2,7.1848895E2,5.309084E2],"tree_param":{"num_deleted":"0","num_feature":"280","num_nodes":"15","size_leaf_vector":"1"}},{"base_weights":[1.4910933E-1,3.6244833E-1,-5.4365616E-2,4.6268633E-1,1.0136734E-1,1.1480511E-1,-2.4878252E-1,3.8454947E-3,6.6951937E-3,3.3879806E-3,3.304365E-4,-1.3028448E-3,2.4647173E-3,-1.4732071E-3,-3.8555767E-3],"categories":[],"categories_nodes":[],"categories_segments":[],"categories_sizes":[],"default_left":[0,0,0,0,0,0,0,0,0,0,0,0,0,0,0],"id":9,"left_children":[1,3,5,7,9,11,13,-1,-1,-1,-1,-1,-1,-1,-1],"loss_changes":[2.2780981E2,6.699588E1,8.8393814E1,2.9654083E1,1.1538646E1,4.641465E1,1.7295525E1,0E0,0E0,0E0,0E0,0E0,0E0,0E0,0E0],"parents":[2147483647,0,0,1,1,2,2,3,3,4,4,5,5,6,6],"right_children":[2,4,6,8,10,12,14,-1,-1,-1,-1,-1,-1,-1,-1],"split_conditions":[1.5E1,3.8E0,5.19E-1,2.3E1,5E0,-4.7E0,2.4E1,3.8454947E-3,6.6951937E-3,3.3879806E-3,3.304365E-4,-1.3028448E-3,2.4647173E-3,-1.4732071E-3,-3.8555767E-3],"split_indices":[51,77,55,80,41,25,51,0,0,0,0,0,0,0,0],"split_type":[0,0,0,0,0,0,0,0,0,0,0,0,0,0,0],"sum_hessian":[5.2465146E3,2.5607954E3,2.685719E3,1.8498154E3,7.1098004E2,1.4363217E3,1.2493973E3,1.3446836E3,5.0513184E2,1.5799052E2,5.529895E2,5.0196118E2,9.343605E2,7.1848895E2,5.3090845E2],"tree_param":{"num_deleted":"0","num_feature":"280","num_nodes":"15","size_leaf_vector":"1"}},{"base_weights":[-1.4763469E-1,-3.588849E-1,5.3825885E-2,-4.581604E-1,-1.0036034E-1,-2.0391473E-1,1.797666E-1,-3.8075729E-3,-6.631074E-3,-3.3545145E-3,-3.2713808E-4,6.657271E-4,-3.40577E-3,7.054902E-4,3.1963019E-3],"categories":[],"categories_nodes":[],"categories_segments":[],"categories_sizes":[],"default_left":[0,0,0,0,0,0,0,0,0,0,0,0,0,0,0],"id":10,"left_children":[1,3,5,7,9,11,13,-1,-1,-1,-1,-1,-1,-1,-1],"loss_changes":[2.233244E2,6.569278E1,8.724386E1,2.9101898E1,1.1311545E1,3.263826E1,2.7554047E1,0E0,0E0,0E0,0E0,0E0,0E0,0E0,0E0],"parents":[2147483647,0,0,1,1,2,2,3,3,4,4,5,5,6,6],"right_children":[2,4,6,8,10,12,14,-1,-1,-1,-1,-1,-1,-1,-1],"split_conditions":[1.5E1,3.8E0,-2E0,2.3E1,5E0,-4.8E0,2.4E1,-3.8075729E-3,-6.631074E-3,-3.3545145E-3,-3.2713808E-4,6.657271E-4,-3.40577E-3,7.054902E-4,3.1963019E-3],"split_indices":[51,77,77,80,41,25,51,0,0,0,0,0,0,0,0],"split_type":[0,0,0,0,0,0,0,0,0,0,0,0,0,0,0],"sum_hessian":[5.246004E3,2.560402E3,2.6856018E3,1.8494329E3,7.1096936E2,8.813268E2,1.804275E3,1.344506E3,5.049268E2,1.5798103E2,5.5298834E2,2.9599484E2,5.85332E2,1.0139779E3,7.902971E2],"tree_param":{"num_deleted":"0","num_feature":"280","num_nodes":"15","size_leaf_vector":"1"}},{"base_weights":[1.4763469E-1,3.588849E-1,-5.38259E-2,4.581604E-1,1.0036038E-1,2.0391466E-1,-1.797666E-1,3.8075736E-3,6.6310726E-3,3.354515E-3,3.2713843E-4,-6.657274E-4,3.4057691E-3,-7.054901E-4,-3.1963019E-3],"categories":[],"categories_nodes":[],"categories_segments":[],"categories_sizes":[],"default_left":[0,0,0,0,0,0,0,0,0,0,0,0,0,0,0],"id":11,"left_children":[1,3,5,7,9,11,13,-1,-1,-1,-1,-1,-1,-1,-1],"loss_changes":[2.233244E2,6.569284E1,8.724381E1,2.9101868E1,1.1311546E1,3.2638256E1,2.7554054E1,0E0,0E0,0E0,0E0,0E0,0E0,0E0,0E0],"parents":[2147483647,0,0,1,1,2,2,3,3,4,4,5,5,6,6],"right_children":[2,4,6,8,10,12,14,-1,-1,-1,-1,-1,-1,-1,-1],"split_conditions":[1.5E1,3.8E0,-2E0,2.3E1,5E0,-4.8E0,2.4E1,3.8075736E-3,6.6310726E-3,3.354515E-3,3.2713843E-4,-6.657274E-4,3.4057691E-3,-7.054901E-4,-3.1963019E-3],"split_indices":[51,77,77,80,41,25,51,0,0,0,0,0,0,0,0],"split_type":[0,0,0,0,0,0,0,0,0,0,0,0,0,0,0],"sum_hessian":[5.246004E3,2.560402E3,2.6856018E3,1.8494327E3,7.1096936E2,8.8132684E2,1.804275E3,1.344506E3,5.049268E2,1.5798102E2,5.5298834E2,2.9599487E2,5.85332E2,1.01397797E3,7.902971E2],"tree_param":{"num_deleted":"0","num_feature":"280","num_nodes":"15","size_leaf_vector":"1"}},{"base_weights":[-1.4617902E-1,5.7752255E-2,-3.507962E-1,-1.9523472E-1,1.8190645E-1,-1.883434E-1,-5.152796E-1,6.590966E-4,-3.310143E-3,3.4678127E-3,9.1693155E-4,-2.9040524E-3,-3.7483536E-4,-4.2441078E-3,-6.5060607E-3],"categories":[],"categories_nodes":[],"categories_segments":[],"categories_sizes":[],"default_left":[0,0,0,0,0,0,0,0,0,0,0,0,0,0,0],"id":12,"left_children":[1,3,5,7,9,11,13,-1,-1,-1,-1,-1,-1,-1,-1],"loss_changes":[2.1893948E2,8.259329E1,6.988251E1,3.0720032E1,2.6201027E1,2.0300388E1,1.5719116E1,0E0,0E0,0E0,0E0,0E0,0E0,0E0,0E0],"parents":[2147483647,0,0,1,1,2,2,3,3,4,4,5,5,6,6],"right_children":[2,4,6,8,10,12,14,-1,-1,-1,-1,-1,-1,-1,-1],"split_conditions":[3E-1,-2E0,1.3E1,-4.8E0,8E0,4.9E0,2.3E1,6.590966E-4,-3.310143E-3,3.4678127E-3,9.1693155E-4,-2.9040524E-3,-3.7483536E-4,-4.2441078E-3,-6.5060607E-3],"split_indices":[25,77,80,25,103,77,80,0,0,0,0,0,0,0,0],"split_type":[0,0,0,0,0,0,0,0,0,0,0,0,0,0,0],"sum_hessian":[5.2453594E3,2.6274424E3,2.6179172E3,8.6476086E2,1.7626815E3,1.3181677E3,1.2997494E3,2.959931E2,5.6876776E2,6.223761E2,1.1403054E3,7.8569403E2,5.324737E2,7.8007947E2,5.1967E2],"tree_param":{"num_deleted":"0","num_feature":"280","num_nodes":"15","size_leaf_vector":"1"}},{"base_weights":[1.4617899E-1,-5.7752274E-2,3.5079616E-1,1.9523467E-1,-1.8190646E-1,1.8834342E-1,5.1527953E-1,-6.590964E-4,3.310142E-3,-3.4678124E-3,-9.169318E-4,2.9040524E-3,3.748357E-4,4.2441078E-3,6.5060603E-3],"categories":[],"categories_nodes":[],"categories_segments":[],"categories_sizes":[],"default_left":[0,0,0,0,0,0,0,0,0,0,0,0,0,0,0],"id":13,"left_children":[1,3,5,7,9,11,13,-1,-1,-1,-1,-1,-1,-1,-1],"loss_changes":[2.1893953E2,8.2593285E1,6.988245E1,3.0720013E1,2.620102E1,2.0300377E1,1.5719116E1,0E0,0E0,0E0,0E0,0E0,0E0,0E0,0E0],"parents":[2147483647,0,0,1,1,2,2,3,3,4,4,5,5,6,6],"right_children":[2,4,6,8,10,12,14,-1,-1,-1,-1,-1,-1,-1,-1],"split_conditions":[3E-1,-2E0,1.3E1,-4.8E0,8E0,4.9E0,2.3E1,-6.590964E-4,3.310142E-3,-3.4678124E-3,-9.169318E-4,2.9040524E-3,3.748357E-4,4.2441078E-3,6.5060603E-3],"split_indices":[25,77,80,25,103,77,80,0,0,0,0,0,0,0,0],"split_type":[0,0,0,0,0,0,0,0,0,0,0,0,0,0,0],"sum_hessian":[5.2453594E3,2.6274424E3,2.6179172E3,8.647609E2,1.7626815E3,1.3181677E3,1.2997494E3,2.9599307E2,5.687678E2,6.223761E2,1.1403054E3,7.8569403E2,5.3247375E2,7.8007947E2,5.196699E2],"tree_param":{"num_deleted":"0","num_feature":"280","num_nodes":"15","size_leaf_vector":"1"}},{"base_weights":[-1.4473952E-1,-3.5201982E-1,5.2882034E-2,-4.4947714E-1,-9.835553E-2,-1.1224652E-1,2.4265161E-1,-3.7352084E-3,-6.507365E-3,-3.3106473E-3,-3.1403074E-4,1.2656791E-3,-2.405595E-3,1.4341577E-3,3.7646552E-3],"categories":[],"categories_nodes":[],"categories_segments":[],"categories_sizes":[],"default_left":[0,0,0,0,0,0,0,0,0,0,0,0,0,0,0],"id":14,"left_children":[1,3,5,7,9,11,13,-1,-1,-1,-1,-1,-1,-1,-1],"loss_changes":[2.1489626E2,6.325229E1,8.4204834E1,2.8029236E1,1.1081972E1,4.406652E1,1.6547455E1,0E0,0E0,0E0,0E0,0E0,0E0,0E0,0E0],"parents":[2147483647,0,0,1,1,2,2,3,3,4,4,5,5,6,6],"right_children":[2,4,6,8,10,12,14,-1,-1,-1,-1,-1,-1,-1,-1],"split_conditions":[1.5E1,3.8E0,5.19E-1,2.3E1,5E0,-4.7E0,2.4E1,-3.7352084E-3,-6.507365E-3,-3.3106473E-3,-3.1403074E-4,1.2656791E-3,-2.405595E-3,1.4341577E-3,3.7646552E-3],"split_indices":[51,77,55,80,41,25,51,0,0,0,0,0,0,0,0],"split_type":[0,0,0,0,0,0,0,0,0,0,0,0,0,0,0],"sum_hessian":[5.2446455E3,2.5593875E3,2.6852583E3,1.8484459E3,7.109414E2,1.436068E3,1.2491903E3,1.3440504E3,5.0439554E2,1.5796204E2,5.529794E2,5.0191818E2,9.341498E2,7.184572E2,5.3073303E2],"tree_param":{"num_deleted":"0","num_feature":"280","num_nodes":"15","size_leaf_vector":"1"}},{"base_weights":[1.4473951E-1,3.520198E-1,-5.2882038E-2,4.494771E-1,9.835552E-2,1.1224651E-1,-2.4265161E-1,3.7352084E-3,6.5073636E-3,3.3106476E-3,3.1403045E-4,-1.2656787E-3,2.405595E-3,-1.4341582E-3,-3.7646545E-3],"categories":[],"categories_nodes":[],"categories_segments":[],"categories_sizes":[],"default_left":[0,0,0,0,0,0,0,0,0,0,0,0,0,0,0],"id":15,"left_children":[1,3,5,7,9,11,13,-1,-1,-1,-1,-1,-1,-1,-1],"loss_changes":[2.1489624E2,6.325226E1,8.4204834E1,2.8029236E1,1.1081978E1,4.40665E1,1.6547447E1,0E0,0E0,0E0,0E0,0E0,0E0,0E0,0E0],"parents":[2147483647,0,0,1,1,2,2,3,3,4,4,5,5,6,6],"right_children":[2,4,6,8,10,12,14,-1,-1,-1,-1,-1,-1,-1,-1],"split_conditions":[1.5E1,3.8E0,5.19E-1,2.3E1,5E0,-4.7E0,2.4E1,3.7352084E-3,6.5073636E-3,3.3106476E-3,3.1403045E-4,-1.2656787E-3,2.405595E-3,-1.4341582E-3,-3.7646545E-3],"split_indices":[51,77,55,80,41,25,51,0,0,0,0,0,0,0,0],"split_type":[0,0,0,0,0,0,0,0,0,0,0,0,0,0,0],"sum_hessian":[5.2446455E3,2.5593875E3,2.6852583E3,1.8484459E3,7.1094147E2,1.436068E3,1.2491903E3,1.3440504E3,5.0439554E2,1.5796204E2,5.5297943E2,5.0191818E2,9.341498E2,7.184572E2,5.3073303E2],"tree_param":{"num_deleted":"0","num_feature":"280","num_nodes":"15","size_leaf_vector":"1"}},{"base_weights":[-1.4331672E-1,-3.485916E-1,5.2358486E-2,-4.4513613E-1,-9.737967E-2,-1.9877881E-1,1.7505929E-1,-3.6986698E-3,-6.4466232E-3,-3.2781106E-3,-3.1089634E-4,6.393396E-4,-3.3156013E-3,6.808431E-4,3.1208992E-3],"categories":[],"categories_nodes":[],"categories_segments":[],"categories_sizes":[],"default_left":[0,0,0,0,0,0,0,0,0,0,0,0,0,0,0],"id":16,"left_children":[1,3,5,7,9,11,13,-1,-1,-1,-1,-1,-1,-1,-1],"loss_changes":[2.1068814E2,6.2038788E1,8.28053E1,2.7527618E1,1.0864639E1,3.0791355E1,2.6437702E1,0E0,0E0,0E0,0E0,0E0,0E0,0E0,0E0],"parents":[2147483647,0,0,1,1,2,2,3,3,4,4,5,5,6,6],"right_children":[2,4,6,8,10,12,14,-1,-1,-1,-1,-1,-1,-1,-1],"split_conditions":[1.5E1,3.8E0,-2E0,2.3E1,5E0,-4.8E0,2.4E1,-3.6986698E-3,-6.4466232E-3,-3.2781106E-3,-3.1089634E-4,6.393396E-4,-3.3156013E-3,6.808431E-4,3.1208992E-3],"split_indices":[51,77,77,80,41,25,51,0,0,0,0,0,0,0,0],"split_type":[0,0,0,0,0,0,0,0,0,0,0,0,0,0,0],"sum_hessian":[5.2438237E3,2.558756E3,2.6850679E3,1.8478336E3,7.1092236E2,8.810871E2,1.8039808E3,1.343766E3,5.0406763E2,1.5794461E2,5.529777E2,2.9598615E2,5.8510095E2,1.0139346E3,7.900462E2],"tree_param":{"num_deleted":"0","num_feature":"280","num_nodes":"15","size_leaf_vector":"1"}},{"base_weights":[1.4331673E-1,3.4859163E-1,-5.2358497E-2,4.4513616E-1,9.737971E-2,1.9877881E-1,-1.750593E-1,3.69867E-3,6.4466232E-3,3.2781106E-3,3.108968E-4,-6.393393E-4,3.3156013E-3,-6.808435E-4,-3.1208987E-3],"categories":[],"categories_nodes":[],"categories_segments":[],"categories_sizes":[],"default_left":[0,0,0,0,0,0,0,0,0,0,0,0,0,0,0],"id":17,"left_children":[1,3,5,7,9,11,13,-1,-1,-1,-1,-1,-1,-1,-1],"loss_changes":[2.106882E2,6.2038757E1,8.280531E1,2.7527649E1,1.0864635E1,3.0791344E1,2.6437675E1,0E0,0E0,0E0,0E0,0E0,0E0,0E0,0E0],"parents":[2147483647,0,0,1,1,2,2,3,3,4,4,5,5,6,6],"right_children":[2,4,6,8,10,12,14,-1,-1,-1,-1,-1,-1,-1,-1],"split_conditions":[1.5E1,3.8E0,-2E0,2.3E1,5E0,-4.8E0,2.4E1,3.69867E-3,6.4466232E-3,3.2781106E-3,3.108968E-4,-6.393393E-4,3.3156013E-3,-6.808435E-4,-3.1208987E-3],"split_indices":[51,77,77,80,41,25,51,0,0,0,0,0,0,0,0],"split_type":[0,0,0,0,0,0,0,0,0,0,0,0,0,0,0],"sum_hessian":[5.2438237E3,2.5587559E3,2.6850679E3,1.8478336E3,7.109223E2,8.8108704E2,1.8039808E3,1.343766E3,5.040676E2,1.5794461E2,5.529777E2,2.959861E2,5.851009E2,1.0139346E3,7.900462E2],"tree_param":{"num_deleted":"0","num_feature":"280","num_nodes":"15","size_leaf_vector":"1"}},{"base_weights":[-1.4191195E-1,1.0819898E-1,-2.9979658E-1,-4.8621267E-2,2.8564903E-1,-1.12408474E-1,-4.5022398E-1,1.3035574E-3,-1.917791E-3,2.001808E-3,4.0620547E-3,-2.9041213E-3,5.0839013E-4,-3.6005296E-3,-5.728034E-3],"categories":[],"categories_nodes":[],"categories_segments":[],"categories_sizes":[],"default_left":[0,0,0,0,0,0,0,0,0,0,0,0,0,0,0],"id":18,"left_children":[1,3,5,7,9,11,13,-1,-1,-1,-1,-1,-1,-1,-1],"loss_changes":[2.0710608E2,5.6503975E1,9.057156E1,2.7658058E1,9.733002E0,4.165301E1,1.9501251E1,0E0,0E0,0E0,0E0,0E0,0E0,0E0,0E0],"parents":[2147483647,0,0,1,1,2,2,3,3,4,4,5,5,6,6],"right_children":[2,4,6,8,10,12,14,-1,-1,-1,-1,-1,-1,-1,-1],"split_conditions":[4.62E-1,5.14E-1,1.3E1,-4.7E0,2.6E1,9E0,2.2E1,1.3035574E-3,-1.917791E-3,2.001808E-3,4.0620547E-3,-2.9041213E-3,5.0839013E-4,-3.6005296E-3,-5.728034E-3],"split_indices":[3,55,103,25,51,51,80,0,0,0,0,0,0,0,0],"split_type":[0,0,0,0,0,0,0,0,0,0,0,0,0,0,0],"sum_hessian":[5.2428755E3,2.0289905E3,3.213885E3,1.0774912E3,9.514993E2,1.4319036E3,1.7819814E3,4.7888055E2,5.9861066E2,5.583317E2,3.9316757E2,6.8462036E2,7.4728314E2,1.0289843E3,7.5299713E2],"tree_param":{"num_deleted":"0","num_feature":"280","num_nodes":"15","size_leaf_vector":"1"}},{"base_weights":[1.4191197E-1,-1.08198985E-1,2.997966E-1,4.8621256E-2,-2.8564903E-1,1.1240846E-1,4.5022404E-1,-1.3035579E-3,1.9177912E-3,-2.001808E-3,-4.0620547E-3,2.9041208E-3,-5.083901E-4,3.6005299E-3,5.7280343E-3],"categories":[],"categories_nodes":[],"categories_segments":[],"categories_sizes":[],"default_left":[0,0,0,0,0,0,0,0,0,0,0,0,0,0,0],"id":19,"left_children":[1,3,5,7,9,11,13,-1,-1,-1,-1,-1,-1,-1,-1],"loss_changes":[2.0710614E2,5.650397E1,9.0571594E1,2.7658068E1,9.733002E0,4.1652992E1,1.9501251E1,0E0,0E0,0E0,0E0,0E0,0E0,0E0,0E0],"parents":[2147483647,0,0,1,1,2,2,3,3,4,4,5,5,6,6],"right_children":[2,4,6,8,10,12,14,-1,-1,-1,-1,-1,-1,-1,-1],"split_conditions":[4.62E-1,5.14E-1,1.3E1,-4.7E0,2.6E1,9E0,2.2E1,-1.3035579E-3,1.9177912E-3,-2.001808E-3,-4.0620547E-3,2.9041208E-3,-5.083901E-4,3.6005299E-3,5.7280343E-3],"split_indices":[3,55,103,25,51,51,80,0,0,0,0,0,0,0,0],"split_type":[0,0,0,0,0,0,0,0,0,0,0,0,0,0,0],"sum_hessian":[5.2428755E3,2.0289905E3,3.213885E3,1.0774912E3,9.514993E2,1.4319036E3,1.7819814E3,4.7888052E2,5.9861066E2,5.583317E2,3.9316757E2,6.846204E2,7.4728314E2,1.0289844E3,7.5299713E2],"tree_param":{"num_deleted":"0","num_feature":"280","num_nodes":"15","size_leaf_vector":"1"}},{"base_weights":[-1.4051963E-1,5.600133E-2,-3.3783078E-1,-1.8864696E-1,1.7604253E-1,-1.8055563E-1,-4.9726507E-1,6.212823E-4,-3.1911023E-3,3.371252E-3,8.7922695E-4,-2.7971512E-3,-3.406239E-4,-4.099048E-3,-6.27579E-3],"categories":[],"categories_nodes":[],"categories_segments":[],"categories_sizes":[],"default_left":[0,0,0,0,0,0,0,0,0,0,0,0,0,0,0],"id":20,"left_children":[1,3,5,7,9,11,13,-1,-1,-1,-1,-1,-1,-1,-1],"loss_changes":[2.0331772E2,7.719975E1,6.551526E1,2.8332365E1,2.4998314E1,1.9145622E1,1.4527374E1,0E0,0E0,0E0,0E0,0E0,0E0,0E0,0E0],"parents":[2147483647,0,0,1,1,2,2,3,3,4,4,5,5,6,6],"right_children":[2,4,6,8,10,12,14,-1,-1,-1,-1,-1,-1,-1,-1],"split_conditions":[3E-1,-2E0,1.3E1,-4.8E0,8E0,4.9E0,2.3E1,6.212823E-4,-3.1911023E-3,3.371252E-3,8.7922695E-4,-2.7971512E-3,-3.406239E-4,-4.099048E-3,-6.27579E-3],"split_indices":[25,77,80,25,103,77,80,0,0,0,0,0,0,0,0],"split_type":[0,0,0,0,0,0,0,0,0,0,0,0,0,0,0],"sum_hessian":[5.241932E3,2.6265837E3,2.6153484E3,8.643782E2,1.7622054E3,1.3176626E3,1.2976858E3,2.9597736E2,5.684008E2,6.221295E2,1.140076E3,7.8523627E2,5.3242633E2,7.7936084E2,5.1832495E2],"tree_param":{"num_deleted":"0","num_feature":"280","num_nodes":"15","size_leaf_vector":"1"}},{"base_weights":[1.4051963E-1,-5.6001328E-2,3.3783078E-1,1.88647E-1,-1.7604254E-1,1.8055563E-1,4.9726507E-1,-6.2128145E-4,3.191103E-3,-3.3712524E-3,-8.792271E-4,2.7971512E-3,3.406237E-4,4.099048E-3,6.27579E-3],"categories":[],"categories_nodes":[],"categories_segments":[],"categories_sizes":[],"default_left":[0,0,0,0,0,0,0,0,0,0,0,0,0,0,0],"id":21,"left_children":[1,3,5,7,9,11,13,-1,-1,-1,-1,-1,-1,-1,-1],"loss_changes":[2.0331769E2,7.719978E1,6.551529E1,2.833236E1,2.4998314E1,1.914563E1,1.4527313E1,0E0,0E0,0E0,0E0,0E0,0E0,0E0,0E0],"parents":[2147483647,0,0,1,1,2,2,3,3,4,4,5,5,6,6],"right_children":[2,4,6,8,10,12,14,-1,-1,-1,-1,-1,-1,-1,-1],"split_conditions":[3E-1,-2E0,1.3E1,-4.8E0,8E0,4.9E0,2.3E1,-6.2128145E-4,3.191103E-3,-3.3712524E-3,-8.792271E-4,2.7971512E-3,3.406237E-4,4.099048E-3,6.27579E-3],"split_indices":[25,77,80,25,103,77,80,0,0,0,0,0,0,0,0],"split_type":[0,0,0,0,0,0,0,0,0,0,0,0,0,0,0],"sum_hessian":[5.241932E3,2.6265837E3,2.6153484E3,8.643782E2,1.7622054E3,1.3176626E3,1.2976858E3,2.959774E2,5.684008E2,6.2212946E2,1.140076E3,7.8523627E2,5.3242633E2,7.7936084E2,5.1832495E2],"tree_param":{"num_deleted":"0","num_feature":"280","num_nodes":"15","size_leaf_vector":"1"}},{"base_weights":[-1.3914585E-1,1.0663557E-1,-2.9434574E-1,-4.7419213E-2,2.80971E-1,-1.10371605E-1,-4.4212797E-1,1.2833474E-3,-1.8802288E-3,4.280564E-3,2.1212543E-3,-2.8574243E-3,5.043241E-4,-3.536087E-3,-5.6255567E-3],"categories":[],"categories_nodes":[],"categories_segments":[],"categories_sizes":[],"default_left":[0,0,0,0,0,0,0,0,0,0,0,0,0,0,0],"id":22,"left_children":[1,3,5,7,9,11,13,-1,-1,-1,-1,-1,-1,-1,-1],"loss_changes":[1.9998297E2,5.4522507E1,8.731357E1,2.667128E1,9.552032E0,4.041676E1,1.8792847E1,0E0,0E0,0E0,0E0,0E0,0E0,0E0,0E0],"parents":[2147483647,0,0,1,1,2,2,3,3,4,4,5,5,6,6],"right_children":[2,4,6,8,10,12,14,-1,-1,-1,-1,-1,-1,-1,-1],"split_conditions":[4.62E-1,5.14E-1,1.3E1,-4.7E0,-6.1E0,9E0,2.2E1,1.2833474E-3,-1.8802288E-3,4.280564E-3,2.1212543E-3,-2.8574243E-3,5.043241E-4,-3.536087E-3,-5.6255567E-3],"split_indices":[3,55,103,25,25,51,80,0,0,0,0,0,0,0,0],"split_type":[0,0,0,0,0,0,0,0,0,0,0,0,0,0,0],"sum_hessian":[5.2408477E3,2.0285923E3,3.2122556E3,1.0773232E3,9.5126904E2,1.4316904E3,1.7805651E3,4.788501E2,5.984732E2,3.0163086E2,6.496382E2,6.8445526E2,7.4723517E2,1.028507E3,7.520581E2],"tree_param":{"num_deleted":"0","num_feature":"280","num_nodes":"15","size_leaf_vector":"1"}},{"base_weights":[1.3914585E-1,-1.06635585E-1,2.9434577E-1,4.7419183E-2,-2.80971E-1,1.1037159E-1,4.42128E-1,-1.2833477E-3,1.8802286E-3,-4.280564E-3,-2.121254E-3,2.8574239E-3,-5.043241E-4,3.5360877E-3,5.6255567E-3],"categories":[],"categories_nodes":[],"categories_segments":[],"categories_sizes":[],"default_left":[0,0,0,0,0,0,0,0,0,0,0,0,0,0,0],"id":23,"left_children":[1,3,5,7,9,11,13,-1,-1,-1,-1,-1,-1,-1,-1],"loss_changes":[1.9998303E2,5.452249E1,8.731357E1,2.667128E1,9.55204E0,4.0416756E1,1.8792847E1,0E0,0E0,0E0,0E0,0E0,0E0,0E0,0E0],"parents":[2147483647,0,0,1,1,2,2,3,3,4,4,5,5,6,6],"right_children":[2,4,6,8,10,12,14,-1,-1,-1,-1,-1,-1,-1,-1],"split_conditions":[4.62E-1,5.14E-1,1.3E1,-4.7E0,-6.1E0,9E0,2.2E1,-1.2833477E-3,1.8802286E-3,-4.280564E-3,-2.121254E-3,2.8574239E-3,-5.043241E-4,3.5360877E-3,5.6255567E-3],"split_indices":[3,55,103,25,25,51,80,0,0,0,0,0,0,0,0],"split_type":[0,0,0,0,0,0,0,0,0,0,0,0,0,0,0],"sum_hessian":[5.2408477E3,2.0285923E3,3.2122556E3,1.0773232E3,9.5126904E2,1.4316906E3,1.7805651E3,4.7885007E2,5.9847314E2,3.0163086E2,6.496382E2,6.8445526E2,7.472352E2,1.028507E3,7.520581E2],"tree_param":{"num_deleted":"0","num_feature":"280","num_nodes":"15","size_leaf_vector":"1"}},{"base_weights":[-1.3778526E-1,-3.360966E-1,5.1107965E-2,-4.2980668E-1,-9.260294E-2,1.9225721E-1,-1.529111E-1,-3.5711767E-3,-6.228988E-3,-3.1979266E-3,-2.7271739E-4,9.147025E-4,3.2451553E-3,8.862595E-4,-2.7690586E-3],"categories":[],"categories_nodes":[],"categories_segments":[],"categories_sizes":[],"default_left":[0,0,0,0,0,0,0,0,0,0,0,0,0,0,0],"id":24,"left_children":[1,3,5,7,9,11,13,-1,-1,-1,-1,-1,-1,-1,-1],"loss_changes":[1.9633318E2,5.8299866E1,7.73488E1,2.5686737E1,1.055633E1,2.1130898E1,3.2924416E1,0E0,0E0,0E0,0E0,0E0,0E0,0E0,0E0],"parents":[2147483647,0,0,1,1,2,2,3,3,4,4,5,5,6,6],"right_children":[2,4,6,8,10,12,14,-1,-1,-1,-1,-1,-1,-1,-1],"split_conditions":[1.5E1,3.8E0,1.8E1,2.3E1,5E0,2.4E1,-4.7E0,-3.5711767E-3,-6.228988E-3,-3.1979266E-3,-2.7271739E-4,9.147025E-4,3.2451553E-3,8.862595E-4,-2.7690586E-3],"split_indices":[51,77,81,80,41,51,25,0,0,0,0,0,0,0,0],"split_type":[0,0,0,0,0,0,0,0,0,0,0,0,0,0,0],"sum_hessian":[5.239729E3,2.5557603E3,2.6839685E3,1.8449532E3,7.1080695E2,1.5864507E3,1.0975178E3,1.3424436E3,5.0250964E2,1.578807E2,5.529263E2,9.013057E2,6.8514496E2,3.7239395E2,7.251239E2],"tree_param":{"num_deleted":"0","num_feature":"280","num_nodes":"15","size_leaf_vector":"1"}},{"base_weights":[1.3778526E-1,3.360966E-1,-5.110796E-2,4.2980665E-1,9.260296E-2,-1.9225723E-1,1.5291111E-1,3.5711764E-3,6.228988E-3,3.197927E-3,2.727175E-4,-9.147023E-4,-3.2451558E-3,-8.862597E-4,2.7690588E-3],"categories":[],"categories_nodes":[],"categories_segments":[],"categories_sizes":[],"default_left":[0,0,0,0,0,0,0,0,0,0,0,0,0,0,0],"id":25,"left_children":[1,3,5,7,9,11,13,-1,-1,-1,-1,-1,-1,-1,-1],"loss_changes":[1.9633313E2,5.8299866E1,7.734882E1,2.5686768E1,1.0556332E1,2.1130917E1,3.2924423E1,0E0,0E0,0E0,0E0,0E0,0E0,0E0,0E0],"parents":[2147483647,0,0,1,1,2,2,3,3,4,4,5,5,6,6],"right_children":[2,4,6,8,10,12,14,-1,-1,-1,-1,-1,-1,-1,-1],"split_conditions":[1.5E1,3.8E0,1.8E1,2.3E1,5E0,2.4E1,-4.7E0,3.5711764E-3,6.228988E-3,3.197927E-3,2.727175E-4,-9.147023E-4,-3.2451558E-3,-8.862597E-4,2.7690588E-3],"split_indices":[51,77,81,80,41,51,25,0,0,0,0,0,0,0,0],"split_type":[0,0,0,0,0,0,0,0,0,0,0,0,0,0,0],"sum_hessian":[5.2397285E3,2.5557603E3,2.6839685E3,1.8449532E3,7.1080695E2,1.5864507E3,1.0975178E3,1.3424436E3,5.025096E2,1.578807E2,5.529263E2,9.013057E2,6.8514496E2,3.7239395E2,7.2512384E2],"tree_param":{"num_deleted":"0","num_feature":"280","num_nodes":"15","size_leaf_vector":"1"}},{"base_weights":[-1.3644306E-1,1.0487898E-1,-2.888808E-1,-4.6468273E-2,2.7617362E-1,-1.0798878E-1,-4.3429452E-1,1.25639E-3,-1.8417354E-3,2.3248086E-3,5.0243163E-3,-2.8092088E-3,5.053931E-4,-3.473477E-3,-5.526911E-3],"categories":[],"categories_nodes":[],"categories_segments":[],"categories_sizes":[],"default_left":[0,0,0,0,0,0,0,0,0,0,0,0,0,0,0],"id":26,"left_children":[1,3,5,7,9,11,13,-1,-1,-1,-1,-1,-1,-1,-1],"loss_changes":[1.9277197E2,5.2617302E1,8.442511E1,2.557498E1,9.29422E0,3.9283596E1,1.813092E1,0E0,0E0,0E0,0E0,0E0,0E0,0E0,0E0],"parents":[2147483647,0,0,1,1,2,2,3,3,4,4,5,5,6,6],"right_children":[2,4,6,8,10,12,14,-1,-1,-1,-1,-1,-1,-1,-1],"split_conditions":[4.62E-1,5.14E-1,1.3E1,-4.7E0,2.9E1,9E0,2.2E1,1.25639E-3,-1.8417354E-3,2.3248086E-3,5.0243163E-3,-2.8092088E-3,5.053931E-4,-3.473477E-3,-5.526911E-3],"split_indices":[3,55,103,25,51,51,80,0,0,0,0,0,0,0,0],"split_type":[0,0,0,0,0,0,0,0,0,0,0,0,0,0,0],"sum_hessian":[5.2384565E3,2.0281044E3,3.210352E3,1.077133E3,9.509714E2,1.4314265E3,1.7789255E3,4.788023E2,5.983307E2,7.987517E2,1.5221965E2,6.842418E2,7.471847E2,1.0279585E3,7.5096704E2],"tree_param":{"num_deleted":"0","num_feature":"280","num_nodes":"15","size_leaf_vector":"1"}},{"base_weights":[1.3644305E-1,-1.0487897E-1,2.8888074E-1,4.6468314E-2,-2.7617365E-1,1.0798873E-1,4.342945E-1,-1.2563892E-3,1.8417357E-3,-2.3248089E-3,-5.0243163E-3,2.809208E-3,-5.053934E-4,3.473477E-3,5.526911E-3],"categories":[],"categories_nodes":[],"categories_segments":[],"categories_sizes":[],"default_left":[0,0,0,0,0,0,0,0,0,0,0,0,0,0,0],"id":27,"left_children":[1,3,5,7,9,11,13,-1,-1,-1,-1,-1,-1,-1,-1],"loss_changes":[1.9277194E2,5.2617325E1,8.442514E1,2.5574968E1,9.29422E0,3.9283585E1,1.813095E1,0E0,0E0,0E0,0E0,0E0,0E0,0E0,0E0],"parents":[2147483647,0,0,1,1,2,2,3,3,4,4,5,5,6,6],"right_children":[2,4,6,8,10,12,14,-1,-1,-1,-1,-1,-1,-1,-1],"split_conditions":[4.62E-1,5.14E-1,1.3E1,-4.7E0,2.9E1,9E0,2.2E1,-1.2563892E-3,1.8417357E-3,-2.3248089E-3,-5.0243163E-3,2.809208E-3,-5.053934E-4,3.473477E-3,5.526911E-3],"split_indices":[3,55,103,25,51,51,80,0,0,0,0,0,0,0,0],"split_type":[0,0,0,0,0,0,0,0,0,0,0,0,0,0,0],"sum_hessian":[5.2384565E3,2.0281044E3,3.210352E3,1.077133E3,9.509714E2,1.4314265E3,1.7789255E3,4.788023E2,5.983307E2,7.987517E2,1.5221965E2,6.842418E2,7.471847E2,1.0279585E3,7.5096704E2],"tree_param":{"num_deleted":"0","num_feature":"280","num_nodes":"15","size_leaf_vector":"1"}},{"base_weights":[-1.3511305E-1,-3.3001405E-1,5.044277E-2,-4.2234567E-1,-9.030967E-2,-1.8878317E-1,1.6727754E-1,-3.5086353E-3,-6.1247973E-3,-3.148444E-3,-2.5760895E-4,5.812622E-4,-3.1372432E-3,6.5422576E-4,2.9785547E-3],"categories":[],"categories_nodes":[],"categories_segments":[],"categories_sizes":[],"default_left":[0,0,0,0,0,0,0,0,0,0,0,0,0,0,0],"id":28,"left_children":[1,3,5,7,9,11,13,-1,-1,-1,-1,-1,-1,-1,-1],"loss_changes":[1.8945515E2,5.6507294E1,7.505711E1,2.4849457E1,1.0307268E1,2.7204624E1,2.3973953E1,0E0,0E0,0E0,0E0,0E0,0E0,0E0,0E0],"parents":[2147483647,0,0,1,1,2,2,3,3,4,4,5,5,6,6],"right_children":[2,4,6,8,10,12,14,-1,-1,-1,-1,-1,-1,-1,-1],"split_conditions":[1.5E1,3.8E0,-2E0,2.3E1,5E0,-4.8E0,2.4E1,-3.5086353E-3,-6.1247973E-3,-3.148444E-3,-2.5760895E-4,5.812622E-4,-3.1372432E-3,6.5422576E-4,2.9785547E-3],"split_indices":[51,77,77,80,41,25,51,0,0,0,0,0,0,0,0],"split_type":[0,0,0,0,0,0,0,0,0,0,0,0,0,0,0],"sum_hessian":[5.2371714E3,2.5538855E3,2.6832856E3,1.8431583E3,7.107273E2,8.802688E2,1.803017E3,1.341615E3,5.0154324E2,1.5783081E2,5.528965E2,2.959485E2,5.843203E2,1.0137559E3,7.8926105E2],"tree_param":{"num_deleted":"0","num_feature":"280","num_nodes":"15","size_leaf_vector":"1"}},{"base_weights":[1.3511305E-1,3.3001402E-1,-5.0442766E-2,4.223457E-1,9.030959E-2,1.8878317E-1,-1.6727754E-1,3.508636E-3,6.1247973E-3,3.1484433E-3,2.5760807E-4,-5.812633E-4,3.1372437E-3,-6.5422565E-4,-2.978555E-3],"categories":[],"categories_nodes":[],"categories_segments":[],"categories_sizes":[],"default_left":[0,0,0,0,0,0,0,0,0,0,0,0,0,0,0],"id":29,"left_children":[1,3,5,7,9,11,13,-1,-1,-1,-1,-1,-1,-1,-1],"loss_changes":[1.8945517E2,5.6507355E1,7.505711E1,2.4849396E1,1.0307269E1,2.7204647E1,2.3973965E1,0E0,0E0,0E0,0E0,0E0,0E0,0E0,0E0],"parents":[2147483647,0,0,1,1,2,2,3,3,4,4,5,5,6,6],"right_children":[2,4,6,8,10,12,14,-1,-1,-1,-1,-1,-1,-1,-1],"split_conditions":[1.5E1,3.8E0,-2E0,2.3E1,5E0,-4.8E0,2.4E1,3.508636E-3,6.1247973E-3,3.1484433E-3,2.5760807E-4,-5.812633E-4,3.1372437E-3,-6.5422565E-4,-2.978555E-3],"split_indices":[51,77,77,80,41,25,51,0,0,0,0,0,0,0,0],"split_type":[0,0,0,0,0,0,0,0,0,0,0,0,0,0,0],"sum_hessian":[5.2371714E3,2.5538855E3,2.6832856E3,1.8431582E3,7.107273E2,8.802688E2,1.803017E3,1.341615E3,5.0154324E2,1.5783081E2,5.528965E2,2.959485E2,5.843203E2,1.0137559E3,7.8926105E2],"tree_param":{"num_deleted":"0","num_feature":"280","num_nodes":"15","size_leaf_vector":"1"}},{"base_weights":[-1.3380176E-1,5.4095063E-2,-3.2267112E-1,-1.8060358E-1,1.6921477E-1,-1.7140569E-1,-4.7635075E-1,6.0346775E-4,-3.032193E-3,3.2611545E-3,8.3415053E-4,-6.455478E-4,-3.0107726E-3,-3.9286627E-3,-6.012464E-3],"categories":[],"categories_nodes":[],"categories_segments":[],"categories_sizes":[],"default_left":[0,0,0,0,0,0,0,0,0,0,0,0,0,0,0],"id":30,"left_children":[1,3,5,7,9,11,13,-1,-1,-1,-1,-1,-1,-1,-1],"loss_changes":[1.8585794E2,7.098031E1,6.063208E1,2.5563808E1,2.3697277E1,1.8239006E1,1.3266266E1,0E0,0E0,0E0,0E0,0E0,0E0,0E0,0E0],"parents":[2147483647,0,0,1,1,2,2,3,3,4,4,5,5,6,6],"right_children":[2,4,6,8,10,12,14,-1,-1,-1,-1,-1,-1,-1,-1],"split_conditions":[3E-1,-2E0,1.3E1,-4.9E0,8E0,4.5E0,2.3E1,6.0346775E-4,-3.032193E-3,3.2611545E-3,8.3415053E-4,-6.455478E-4,-3.0107726E-3,-3.9286627E-3,-6.012464E-3],"split_indices":[25,77,80,25,103,25,80,0,0,0,0,0,0,0,0],"split_type":[0,0,0,0,0,0,0,0,0,0,0,0,0,0,0],"sum_hessian":[5.23572E3,2.6249753E3,2.610745E3,8.636508E2,1.7613245E3,1.3167731E3,1.293972E3,2.9144482E2,5.72206E2,6.216752E2,1.1396493E3,7.2273157E2,5.9404144E2,7.780456E2,5.1592645E2],"tree_param":{"num_deleted":"0","num_feature":"280","num_nodes":"15","size_leaf_vector":"1"}},{"base_weights":[1.3380176E-1,-5.4095082E-2,3.2267115E-1,1.8060352E-1,-1.6921477E-1,1.714057E-1,4.7635078E-1,-6.03468E-4,3.0321926E-3,-3.2611548E-3,-8.341505E-4,6.455478E-4,3.0107726E-3,3.9286623E-3,6.0124644E-3],"categories":[],"categories_nodes":[],"categories_segments":[],"categories_sizes":[],"default_left":[0,0,0,0,0,0,0,0,0,0,0,0,0,0,0],"id":31,"left_children":[1,3,5,7,9,11,13,-1,-1,-1,-1,-1,-1,-1,-1],"loss_changes":[1.8585794E2,7.098029E1,6.063208E1,2.5563799E1,2.3697273E1,1.823901E1,1.3266296E1,0E0,0E0,0E0,0E0,0E0,0E0,0E0,0E0],"parents":[2147483647,0,0,1,1,2,2,3,3,4,4,5,5,6,6],"right_children":[2,4,6,8,10,12,14,-1,-1,-1,-1,-1,-1,-1,-1],"split_conditions":[3E-1,-2E0,1.3E1,-4.9E0,8E0,4.5E0,2.3E1,-6.03468E-4,3.0321926E-3,-3.2611548E-3,-8.341505E-4,6.455478E-4,3.0107726E-3,3.9286623E-3,6.0124644E-3],"split_indices":[25,77,80,25,103,25,80,0,0,0,0,0,0,0,0],"split_type":[0,0,0,0,0,0,0,0,0,0,0,0,0,0,0],"sum_hessian":[5.23572E3,2.6249753E3,2.610745E3,8.636508E2,1.7613245E3,1.3167731E3,1.293972E3,2.9144485E2,5.72206E2,6.216752E2,1.1396493E3,7.2273157E2,5.9404144E2,7.7804553E2,5.1592645E2],"tree_param":{"num_deleted":"0","num_feature":"280","num_nodes":"15","size_leaf_vector":"1"}},{"base_weights":[-1.3250339E-1,1.02672935E-1,-2.8115192E-1,-4.5057263E-2,2.698972E-1,-1.0460379E-1,-4.2325723E-1,1.2222567E-3,-1.7894701E-3,2.2684904E-3,4.929551E-3,-2.737446E-3,5.03829E-4,-3.3871501E-3,-5.3856527E-3],"categories":[],"categories_nodes":[],"categories_segments":[],"categories_sizes":[],"default_left":[0,0,0,0,0,0,0,0,0,0,0,0,0,0,0],"id":32,"left_children":[1,3,5,7,9,11,13,-1,-1,-1,-1,-1,-1,-1,-1],"loss_changes":[1.8304645E2,5.011837E1,8.043956E1,2.416085E1,9.024719E0,3.7551945E1,1.714096E1,0E0,0E0,0E0,0E0,0E0,0E0,0E0,0E0],"parents":[2147483647,0,0,1,1,2,2,3,3,4,4,5,5,6,6],"right_children":[2,4,6,8,10,12,14,-1,-1,-1,-1,-1,-1,-1,-1],"split_conditions":[4.62E-1,5.14E-1,1.3E1,-4.7E0,2.9E1,9E0,2.2E1,1.2222567E-3,-1.7894701E-3,2.2684904E-3,4.929551E-3,-2.737446E-3,5.03829E-4,-3.3871501E-3,-5.3856527E-3],"split_indices":[3,55,103,25,51,51,80,0,0,0,0,0,0,0,0],"split_type":[0,0,0,0,0,0,0,0,0,0,0,0,0,0,0],"sum_hessian":[5.234264E3,2.0272571E3,3.2070068E3,1.0767548E3,9.505023E2,1.4309572E3,1.7760498E3,4.7872232E2,5.980325E2,7.984297E2,1.5207262E2,6.8386835E2,7.470888E2,1.0270033E3,7.490465E2],"tree_param":{"num_deleted":"0","num_feature":"280","num_nodes":"15","size_leaf_vector":"1"}},{"base_weights":[1.3250338E-1,-1.0267293E-1,2.811519E-1,4.505726E-2,-2.6989716E-1,1.04603775E-1,4.232572E-1,-1.2222566E-3,1.78947E-3,-2.2684901E-3,-4.9295505E-3,2.7374458E-3,-5.038289E-4,3.3871501E-3,5.385652E-3],"categories":[],"categories_nodes":[],"categories_segments":[],"categories_sizes":[],"default_left":[0,0,0,0,0,0,0,0,0,0,0,0,0,0,0],"id":33,"left_children":[1,3,5,7,9,11,13,-1,-1,-1,-1,-1,-1,-1,-1],"loss_changes":[1.8304643E2,5.0118355E1,8.0439545E1,2.4160849E1,9.024712E0,3.7551933E1,1.714096E1,0E0,0E0,0E0,0E0,0E0,0E0,0E0,0E0],"parents":[2147483647,0,0,1,1,2,2,3,3,4,4,5,5,6,6],"right_children":[2,4,6,8,10,12,14,-1,-1,-1,-1,-1,-1,-1,-1],"split_conditions":[4.62E-1,5.14E-1,1.3E1,-4.7E0,2.9E1,9E0,2.2E1,-1.2222566E-3,1.78947E-3,-2.2684901E-3,-4.9295505E-3,2.7374458E-3,-5.038289E-4,3.3871501E-3,5.385652E-3],"split_indices":[3,55,103,25,51,51,80,0,0,0,0,0,0,0,0],"split_type":[0,0,0,0,0,0,0,0,0,0,0,0,0,0,0],"sum_hessian":[5.234264E3,2.0272571E3,3.2070068E3,1.0767548E3,9.505023E2,1.4309572E3,1.7760498E3,4.7872232E2,5.980324E2,7.984297E2,1.5207262E2,6.8386835E2,7.470888E2,1.0270033E3,7.490465E2],"tree_param":{"num_deleted":"0","num_feature":"280","num_nodes":"15","size_leaf_vector":"1"}},{"base_weights":[-1.3121761E-1,1.0166443E-1,-2.7845046E-1,-4.4611197E-2,2.672625E-1,-7.5986184E-2,-4.000983E-1,1.2101253E-3,-1.7718103E-3,4.091968E-3,2.0090642E-3,-1.6823247E-3,1.6616721E-3,-3.198679E-3,-5.3290753E-3],"categories":[],"categories_nodes":[],"categories_segments":[],"categories_sizes":[],"default_left":[0,0,0,0,0,0,0,0,0,0,0,0,0,0,0],"id":34,"left_children":[1,3,5,7,9,11,13,-1,-1,-1,-1,-1,-1,-1,-1],"loss_changes":[1.7948251E2,4.9135147E1,7.895068E1,2.3683302E1,8.877342E0,2.6941072E1,2.1171753E1,0E0,0E0,0E0,0E0,0E0,0E0,0E0,0E0],"parents":[2147483647,0,0,1,1,2,2,3,3,4,4,5,5,6,6],"right_children":[2,4,6,8,10,12,14,-1,-1,-1,-1,-1,-1,-1,-1],"split_conditions":[4.62E-1,5.14E-1,1.1E1,-4.7E0,-6.1E0,1.4E1,2.2E1,1.2101253E-3,-1.7718103E-3,4.091968E-3,2.0090642E-3,-1.6823247E-3,1.6616721E-3,-3.198679E-3,-5.3290753E-3],"split_indices":[3,55,103,25,25,51,80,0,0,0,0,0,0,0,0],"split_type":[0,0,0,0,0,0,0,0,0,0,0,0,0,0,0],"sum_hessian":[5.2327495E3,2.0269613E3,3.205788E3,1.0766597E3,9.503016E2,1.2038267E3,2.0019615E3,4.786963E2,5.9796344E2,3.0109616E2,6.4920544E2,8.719644E2,3.3186218E2,1.250151E3,7.5181055E2],"tree_param":{"num_deleted":"0","num_feature":"280","num_nodes":"15","size_leaf_vector":"1"}},{"base_weights":[1.312176E-1,-1.0166443E-1,2.7845043E-1,4.46112E-2,-2.672625E-1,7.598615E-2,4.0009826E-1,-1.2101256E-3,1.7718108E-3,-4.091968E-3,-2.0090642E-3,1.6823241E-3,-1.6616721E-3,3.198679E-3,5.329075E-3],"categories":[],"categories_nodes":[],"categories_segments":[],"categories_sizes":[],"default_left":[0,0,0,0,0,0,0,0,0,0,0,0,0,0,0],"id":35,"left_children":[1,3,5,7,9,11,13,-1,-1,-1,-1,-1,-1,-1,-1],"loss_changes":[1.7948248E2,4.9135147E1,7.8950714E1,2.3683315E1,8.877342E0,2.6941065E1,2.1171753E1,0E0,0E0,0E0,0E0,0E0,0E0,0E0,0E0],"parents":[2147483647,0,0,1,1,2,2,3,3,4,4,5,5,6,6],"right_children":[2,4,6,8,10,12,14,-1,-1,-1,-1,-1,-1,-1,-1],"split_conditions":[4.62E-1,5.14E-1,1.1E1,-4.7E0,-6.1E0,1.4E1,2.2E1,-1.2101256E-3,1.7718108E-3,-4.091968E-3,-2.0090642E-3,1.6823241E-3,-1.6616721E-3,3.198679E-3,5.329075E-3],"split_indices":[3,55,103,25,25,51,80,0,0,0,0,0,0,0,0],"split_type":[0,0,0,0,0,0,0,0,0,0,0,0,0,0,0],"sum_hessian":[5.2327495E3,2.0269613E3,3.2057883E3,1.0766597E3,9.5030164E2,1.2038267E3,2.0019615E3,4.7869632E2,5.979634E2,3.010962E2,6.4920544E2,8.719644E2,3.3186218E2,1.250151E3,7.5181055E2],"tree_param":{"num_deleted":"0","num_feature":"280","num_nodes":"15","size_leaf_vector":"1"}},{"base_weights":[-1.2994595E-1,-3.1827968E-1,4.9163956E-2,-4.0830883E-1,-8.5015066E-2,-1.975868E-1,1.5517859E-1,-3.3921385E-3,-5.92661E-3,-3.063557E-3,-2.142378E-4,4.959567E-4,-3.1958574E-3,5.6472124E-4,2.8150592E-3],"categories":[],"categories_nodes":[],"categories_segments":[],"categories_sizes":[],"default_left":[0,0,0,0,0,0,0,0,0,0,0,0,0,0,0],"id":36,"left_children":[1,3,5,7,9,11,13,-1,-1,-1,-1,-1,-1,-1,-1],"loss_changes":[1.7650912E2,5.352826E1,7.020574E1,2.3236755E1,1.0008387E1,2.4340637E1,2.3388836E1,0E0,0E0,0E0,0E0,0E0,0E0,0E0,0E0],"parents":[2147483647,0,0,1,1,2,2,3,3,4,4,5,5,6,6],"right_children":[2,4,6,8,10,12,14,-1,-1,-1,-1,-1,-1,-1,-1],"split_conditions":[1.5E1,3.8E0,-2.4E0,2.3E1,5E0,-4.9E0,2.4E1,-3.3921385E-3,-5.92661E-3,-3.063557E-3,-2.142378E-4,4.959567E-4,-3.1958574E-3,5.6472124E-4,2.8150592E-3],"split_indices":[51,77,77,80,41,25,51,0,0,0,0,0,0,0,0],"split_type":[0,0,0,0,0,0,0,0,0,0,0,0,0,0,0],"sum_hessian":[5.231159E3,2.549543E3,2.6816165E3,1.839018E3,7.1052484E2,8.056318E2,1.8759847E3,1.3397291E3,4.9928888E2,1.5772337E2,5.528015E2,2.6642355E2,5.3920825E2,1.0539347E3,8.2205005E2],"tree_param":{"num_deleted":"0","num_feature":"280","num_nodes":"15","size_leaf_vector":"1"}},{"base_weights":[1.2994595E-1,3.1827965E-1,-4.9163945E-2,4.083088E-1,8.501505E-2,1.9758685E-1,-1.5517859E-1,3.392138E-3,5.92661E-3,3.0635565E-3,2.1423785E-4,-4.959574E-4,3.1958583E-3,-5.64721E-4,-2.8150592E-3],"categories":[],"categories_nodes":[],"categories_segments":[],"categories_sizes":[],"default_left":[0,0,0,0,0,0,0,0,0,0,0,0,0,0,0],"id":37,"left_children":[1,3,5,7,9,11,13,-1,-1,-1,-1,-1,-1,-1,-1],"loss_changes":[1.765091E2,5.352826E1,7.020576E1,2.3236755E1,1.0008383E1,2.4340652E1,2.338884E1,0E0,0E0,0E0,0E0,0E0,0E0,0E0,0E0],"parents":[2147483647,0,0,1,1,2,2,3,3,4,4,5,5,6,6],"right_children":[2,4,6,8,10,12,14,-1,-1,-1,-1,-1,-1,-1,-1],"split_conditions":[1.5E1,3.8E0,-2.4E0,2.3E1,5E0,-4.9E0,2.4E1,3.392138E-3,5.92661E-3,3.0635565E-3,2.1423785E-4,-4.959574E-4,3.1958583E-3,-5.64721E-4,-2.8150592E-3],"split_indices":[51,77,77,80,41,25,51,0,0,0,0,0,0,0,0],"split_type":[0,0,0,0,0,0,0,0,0,0,0,0,0,0,0],"sum_hessian":[5.231159E3,2.549543E3,2.6816165E3,1.8390181E3,7.1052484E2,8.056318E2,1.8759847E3,1.3397291E3,4.9928888E2,1.5772337E2,5.528015E2,2.6642352E2,5.3920825E2,1.0539347E3,8.2205005E2],"tree_param":{"num_deleted":"0","num_feature":"280","num_nodes":"15","size_leaf_vector":"1"}},{"base_weights":[-1.2869169E-1,5.2651692E-2,-3.1117898E-1,-1.7428876E-1,1.639243E-1,-1.6445394E-1,-4.6058637E-1,5.689462E-4,-2.9206832E-3,3.170979E-3,8.019929E-4,-2.4300034E-3,6.6823486E-5,-3.7982268E-3,-5.81764E-3],"categories":[],"categories_nodes":[],"categories_segments":[],"categories_sizes":[],"default_left":[0,0,0,0,0,0,0,0,0,0,0,0,0,0,0],"id":38,"left_children":[1,3,5,7,9,11,13,-1,-1,-1,-1,-1,-1,-1,-1],"loss_changes":[1.7310655E2,6.629798E1,5.7077484E1,2.353899E1,2.2563755E1,1.7704025E1,1.24157715E1,0E0,0E0,0E0,0E0,0E0,0E0,0E0,0E0],"parents":[2147483647,0,0,1,1,2,2,3,3,4,4,5,5,6,6],"right_children":[2,4,6,8,10,12,14,-1,-1,-1,-1,-1,-1,-1,-1],"split_conditions":[3E-1,-2E0,1.3E1,-4.9E0,8E0,6E0,2.3E1,5.689462E-4,-2.9206832E-3,3.170979E-3,8.019929E-4,-2.4300034E-3,6.6823486E-5,-3.7982268E-3,-5.81764E-3],"split_indices":[25,77,80,25,103,77,80,0,0,0,0,0,0,0,0],"split_type":[0,0,0,0,0,0,0,0,0,0,0,0,0,0,0],"sum_hessian":[5.2294375E3,2.6232964E3,2.6061409E3,8.6288214E2,1.7604142E3,1.3159333E3,1.2902075E3,2.9140854E2,5.7147363E2,6.2118274E2,1.1392314E3,9.016728E2,4.1426062E2,7.766878E2,5.135198E2],"tree_param":{"num_deleted":"0","num_feature":"280","num_nodes":"15","size_leaf_vector":"1"}},{"base_weights":[1.286917E-1,-5.265168E-2,3.1117898E-1,1.7428876E-1,-1.6392429E-1,1.6445395E-1,4.6058637E-1,-5.689461E-4,2.9206835E-3,-3.1709787E-3,-8.019928E-4,2.4300036E-3,-6.6823355E-5,3.7982268E-3,5.81764E-3],"categories":[],"categories_nodes":[],"categories_segments":[],"categories_sizes":[],"default_left":[0,0,0,0,0,0,0,0,0,0,0,0,0,0,0],"id":39,"left_children":[1,3,5,7,9,11,13,-1,-1,-1,-1,-1,-1,-1,-1],"loss_changes":[1.7310654E2,6.629797E1,5.7077484E1,2.3538994E1,2.2563755E1,1.7704025E1,1.24157715E1,0E0,0E0,0E0,0E0,0E0,0E0,0E0,0E0],"parents":[2147483647,0,0,1,1,2,2,3,3,4,4,5,5,6,6],"right_children":[2,4,6,8,10,12,14,-1,-1,-1,-1,-1,-1,-1,-1],"split_conditions":[3E-1,-2E0,1.3E1,-4.9E0,8E0,6E0,2.3E1,-5.689461E-4,2.9206835E-3,-3.1709787E-3,-8.019928E-4,2.4300036E-3,-6.6823355E-5,3.7982268E-3,5.81764E-3],"split_indices":[25,77,80,25,103,77,80,0,0,0,0,0,0,0,0],"split_type":[0,0,0,0,0,0,0,0,0,0,0,0,0,0,0],"sum_hessian":[5.2294375E3,2.6232964E3,2.6061409E3,8.628822E2,1.7604143E3,1.3159333E3,1.2902075E3,2.9140854E2,5.7147363E2,6.2118274E2,1.1392314E3,9.016728E2,4.1426062E2,7.7668774E2,5.135198E2],"tree_param":{"num_deleted":"0","num_feature":"280","num_nodes":"15","size_leaf_vector":"1"}},{"base_weights":[-1.2744994E-1,9.954861E-2,-2.710725E-1,-4.33046E-2,2.6130435E-1,-1.0034272E-1,-4.0877932E-1,1.1771609E-3,-1.7223894E-3,2.191294E-3,4.8007187E-3,-2.6565462E-3,5.1050726E-4,-3.2720803E-3,-5.203222E-3],"categories":[],"categories_nodes":[],"categories_segments":[],"categories_sizes":[],"default_left":[0,0,0,0,0,0,0,0,0,0,0,0,0,0,0],"id":40,"left_children":[1,3,5,7,9,11,13,-1,-1,-1,-1,-1,-1,-1,-1],"loss_changes":[1.7049327E2,4.6848602E1,7.525757E1,2.2384575E1,8.6666565E0,3.583353E1,1.5957184E1,0E0,0E0,0E0,0E0,0E0,0E0,0E0,0E0],"parents":[2147483647,0,0,1,1,2,2,3,3,4,4,5,5,6,6],"right_children":[2,4,6,8,10,12,14,-1,-1,-1,-1,-1,-1,-1,-1],"split_conditions":[4.62E-1,5.14E-1,1.3E1,-4.7E0,2.9E1,9E0,2.2E1,1.1771609E-3,-1.7223894E-3,2.191294E-3,4.8007187E-3,-2.6565462E-3,5.1050726E-4,-3.2720803E-3,-5.203222E-3],"split_indices":[3,55,103,25,51,51,80,0,0,0,0,0,0,0,0],"split_type":[0,0,0,0,0,0,0,0,0,0,0,0,0,0,0],"sum_hessian":[5.2276885E3,2.0259452E3,3.2017434E3,1.0762214E3,9.497237E2,1.4302451E3,1.7714983E3,4.7860223E2,5.9761926E2,7.979024E2,1.5182129E2,6.8333386E2,7.469113E2,1.0254907E3,7.460075E2],"tree_param":{"num_deleted":"0","num_feature":"280","num_nodes":"15","size_leaf_vector":"1"}},{"base_weights":[1.2744996E-1,-9.95486E-2,2.710725E-1,4.330462E-2,-2.6130432E-1,1.0034272E-1,4.0877932E-1,-1.1771605E-3,1.7223894E-3,-2.191294E-3,-4.8007187E-3,2.6565462E-3,-5.1050726E-4,3.2720803E-3,5.203222E-3],"categories":[],"categories_nodes":[],"categories_segments":[],"categories_sizes":[],"default_left":[0,0,0,0,0,0,0,0,0,0,0,0,0,0,0],"id":41,"left_children":[1,3,5,7,9,11,13,-1,-1,-1,-1,-1,-1,-1,-1],"loss_changes":[1.7049326E2,4.68486E1,7.525758E1,2.238457E1,8.6666565E0,3.583353E1,1.5957184E1,0E0,0E0,0E0,0E0,0E0,0E0,0E0,0E0],"parents":[2147483647,0,0,1,1,2,2,3,3,4,4,5,5,6,6],"right_children":[2,4,6,8,10,12,14,-1,-1,-1,-1,-1,-1,-1,-1],"split_conditions":[4.62E-1,5.14E-1,1.3E1,-4.7E0,2.9E1,9E0,2.2E1,-1.1771605E-3,1.7223894E-3,-2.191294E-3,-4.8007187E-3,2.6565462E-3,-5.1050726E-4,3.2720803E-3,5.203222E-3],"split_indices":[3,55,103,25,51,51,80,0,0,0,0,0,0,0,0],"split_type":[0,0,0,0,0,0,0,0,0,0,0,0,0,0,0],"sum_hessian":[5.2276885E3,2.0259452E3,3.2017434E3,1.0762214E3,9.497237E2,1.4302451E3,1.7714983E3,4.7860223E2,5.9761926E2,7.979024E2,1.5182129E2,6.8333386E2,7.469113E2,1.0254907E3,7.460075E2],"tree_param":{"num_deleted":"0","num_feature":"280","num_nodes":"15","size_leaf_vector":"1"}},{"base_weights":[-1.2622002E-1,-3.0974925E-1,4.814879E-2,-3.8138294E-1,-2.9571546E-2,-1.9237283E-1,1.5144703E-1,-2.975465E-3,-5.3548007E-3,-2.9663562E-3,3.38872E-4,4.7501523E-4,-3.1088958E-3,5.470418E-4,2.753269E-3],"categories":[],"categories_nodes":[],"categories_segments":[],"categories_sizes":[],"default_left":[0,0,0,0,0,0,0,0,0,0,0,0,0,0,0],"id":42,"left_children":[1,3,5,7,9,11,13,-1,-1,-1,-1,-1,-1,-1,-1],"loss_changes":[1.6728485E2,5.1101273E1,6.664491E1,2.6041138E1,8.81644E0,2.292836E1,2.2470428E1,0E0,0E0,0E0,0E0,0E0,0E0,0E0,0E0],"parents":[2147483647,0,0,1,1,2,2,3,3,4,4,5,5,6,6],"right_children":[2,4,6,8,10,12,14,-1,-1,-1,-1,-1,-1,-1,-1],"split_conditions":[1.5E1,4.9E0,-2.4E0,2E1,3E0,-4.9E0,2.4E1,-2.975465E-3,-5.3548007E-3,-2.9663562E-3,3.38872E-4,4.7501523E-4,-3.1088958E-3,5.470418E-4,2.753269E-3],"split_indices":[51,77,77,80,29,25,51,0,0,0,0,0,0,0,0],"split_type":[0,0,0,0,0,0,0,0,0,0,0,0,0,0,0],"sum_hessian":[5.225897E3,2.545692E3,2.6802053E3,2.0270659E3,5.186259E2,8.049896E2,1.8752158E3,1.3147229E3,7.123431E2,9.8868126E1,4.1975775E2,2.6640112E2,5.385885E2,1.053745E3,8.2147076E2],"tree_param":{"num_deleted":"0","num_feature":"280","num_nodes":"15","size_leaf_vector":"1"}},{"base_weights":[1.2622003E-1,3.0974928E-1,-4.8148792E-2,3.8138294E-1,2.9571556E-2,1.923728E-1,-1.5144701E-1,2.975465E-3,5.354801E-3,2.9663565E-3,-3.3887196E-4,-4.7501604E-4,3.1088958E-3,-5.470417E-4,-2.753269E-3],"categories":[],"categories_nodes":[],"categories_segments":[],"categories_sizes":[],"default_left":[0,0,0,0,0,0,0,0,0,0,0,0,0,0,0],"id":43,"left_children":[1,3,5,7,9,11,13,-1,-1,-1,-1,-1,-1,-1,-1],"loss_changes":[1.672849E2,5.1101257E1,6.664489E1,2.6041138E1,8.816441E0,2.2928364E1,2.2470432E1,0E0,0E0,0E0,0E0,0E0,0E0,0E0,0E0],"parents":[2147483647,0,0,1,1,2,2,3,3,4,4,5,5,6,6],"right_children":[2,4,6,8,10,12,14,-1,-1,-1,-1,-1,-1,-1,-1],"split_conditions":[1.5E1,4.9E0,-2.4E0,2E1,3E0,-4.9E0,2.4E1,2.975465E-3,5.354801E-3,2.9663565E-3,-3.3887196E-4,-4.7501604E-4,3.1088958E-3,-5.470417E-4,-2.753269E-3],"split_indices":[51,77,77,80,29,25,51,0,0,0,0,0,0,0,0],"split_type":[0,0,0,0,0,0,0,0,0,0,0,0,0,0,0],"sum_hessian":[5.225897E3,2.545692E3,2.6802053E3,2.0270659E3,5.186259E2,8.049896E2,1.8752158E3,1.3147229E3,7.123431E2,9.8868126E1,4.1975775E2,2.664011E2,5.385885E2,1.053745E3,8.2147076E2],"tree_param":{"num_deleted":"0","num_feature":"280","num_nodes":"15","size_leaf_vector":"1"}},{"base_weights":[-1.2500557E-1,9.7924694E-2,-2.661306E-1,-4.2693198E-2,2.5717774E-1,-9.301879E-2,-3.9816302E-1,1.1512099E-3,-1.6908576E-3,2.1558132E-3,4.73098E-3,-2.3131089E-3,3.6757084E-4,-6.1058253E-3,-3.5252383E-3],"categories":[],"categories_nodes":[],"categories_segments":[],"categories_sizes":[],"default_left":[0,0,0,0,0,0,0,0,0,0,0,0,0,0,0],"id":44,"left_children":[1,3,5,7,9,11,13,-1,-1,-1,-1,-1,-1,-1,-1],"loss_changes":[1.6441022E2,4.5385155E1,7.309917E1,2.150011E1,8.432964E0,2.487996E1,1.7380463E1,0E0,0E0,0E0,0E0,0E0,0E0,0E0,0E0],"parents":[2147483647,0,0,1,1,2,2,3,3,4,4,5,5,6,6],"right_children":[2,4,6,8,10,12,14,-1,-1,-1,-1,-1,-1,-1,-1],"split_conditions":[4.62E-1,5.14E-1,1.1E1,-4.7E0,2.9E1,9E0,4E0,1.1512099E-3,-1.6908576E-3,2.1558132E-3,4.73098E-3,-2.3131089E-3,3.6757084E-4,-6.1058253E-3,-3.5252383E-3],"split_indices":[3,55,80,25,51,51,51,0,0,0,0,0,0,0,0],"split_type":[0,0,0,0,0,0,0,0,0,0,0,0,0,0,0],"sum_hessian":[5.2240083E3,2.0251909E3,3.1988174E3,1.0759109E3,9.4928E2,1.3848295E3,1.8139879E3,4.7851923E2,5.973916E2,7.9761926E2,1.5166075E2,6.700387E2,7.147908E2,3.1862527E2,1.4953627E3],"tree_param":{"num_deleted":"0","num_feature":"280","num_nodes":"15","size_leaf_vector":"1"}},{"base_weights":[1.2500557E-1,-9.7924665E-2,2.6613057E-1,4.2693224E-2,-2.5717774E-1,9.301878E-2,3.9816302E-1,-1.1512097E-3,1.6908578E-3,-2.1558127E-3,-4.73098E-3,2.3131086E-3,-3.6757105E-4,6.1058253E-3,3.525238E-3],"categories":[],"categories_nodes":[],"categories_segments":[],"categories_sizes":[],"default_left":[0,0,0,0,0,0,0,0,0,0,0,0,0,0,0],"id":45,"left_children":[1,3,5,7,9,11,13,-1,-1,-1,-1,-1,-1,-1,-1],"loss_changes":[1.6441019E2,4.5385155E1,7.309918E1,2.150011E1,8.432968E0,2.487996E1,1.7380432E1,0E0,0E0,0E0,0E0,0E0,0E0,0E0,0E0],"parents":[2147483647,0,0,1,1,2,2,3,3,4,4,5,5,6,6],"right_children":[2,4,6,8,10,12,14,-1,-1,-1,-1,-1,-1,-1,-1],"split_conditions":[4.62E-1,5.14E-1,1.1E1,-4.7E0,2.9E1,9E0,4E0,-1.1512097E-3,1.6908578E-3,-2.1558127E-3,-4.73098E-3,2.3131086E-3,-3.6757105E-4,6.1058253E-3,3.525238E-3],"split_indices":[3,55,80,25,51,51,51,0,0,0,0,0,0,0,0],"split_type":[0,0,0,0,0,0,0,0,0,0,0,0,0,0,0],"sum_hessian":[5.2240083E3,2.0251909E3,3.1988174E3,1.0759109E3,9.4928E2,1.3848295E3,1.8139879E3,4.7851926E2,5.973916E2,7.9761926E2,1.5166075E2,6.700387E2,7.147908E2,3.1862527E2,1.4953625E3],"tree_param":{"num_deleted":"0","num_feature":"280","num_nodes":"15","size_leaf_vector":"1"}},{"base_weights":[-1.238002E-1,-3.0419028E-1,4.7467593E-2,-3.7485394E-1,-2.8135238E-2,1.765317E-1,-1.3918523E-1,-2.920434E-3,-5.2728257E-3,-2.9161246E-3,3.4448472E-4,8.3913736E-4,2.9834022E-3,1.3575683E-3,-2.2909315E-3],"categories":[],"categories_nodes":[],"categories_segments":[],"categories_sizes":[],"default_left":[0,0,0,0,0,0,0,0,0,0,0,0,0,0,0],"id":46,"left_children":[1,3,5,7,9,11,13,-1,-1,-1,-1,-1,-1,-1,-1],"loss_changes":[1.613848E2,4.9615067E1,6.459118E1,2.5412231E1,8.577303E0,1.785624E1,2.7129036E1,0E0,0E0,0E0,0E0,0E0,0E0,0E0,0E0],"parents":[2147483647,0,0,1,1,2,2,3,3,4,4,5,5,6,6],"right_children":[2,4,6,8,10,12,14,-1,-1,-1,-1,-1,-1,-1,-1],"split_conditions":[1.5E1,4.9E0,1.8E1,2E1,3E0,2.4E1,-6.2E0,-2.920434E-3,-5.2728257E-3,-2.9161246E-3,3.4448472E-4,8.3913736E-4,2.9834022E-3,1.3575683E-3,-2.2909315E-3],"split_indices":[51,77,81,80,29,51,25,0,0,0,0,0,0,0,0],"split_type":[0,0,0,0,0,0,0,0,0,0,0,0,0,0,0],"sum_hessian":[5.222185E3,2.5429807E3,2.6792043E3,2.0244188E3,5.18562E2,1.583986E3,1.0952184E3,1.3136584E3,7.107604E2,9.8829704E1,4.197323E2,9.00769E2,6.83217E2,2.697628E2,8.2545557E2],"tree_param":{"num_deleted":"0","num_feature":"280","num_nodes":"15","size_leaf_vector":"1"}},{"base_weights":[1.23800196E-1,3.0419028E-1,-4.7467604E-2,3.7485394E-1,2.8135238E-2,-1.7653169E-1,1.3918519E-1,2.9204343E-3,5.2728257E-3,2.9161246E-3,-3.4448478E-4,-8.391372E-4,-2.9834022E-3,-1.3575692E-3,2.290931E-3],"categories":[],"categories_nodes":[],"categories_segments":[],"categories_sizes":[],"default_left":[0,0,0,0,0,0,0,0,0,0,0,0,0,0,0],"id":47,"left_children":[1,3,5,7,9,11,13,-1,-1,-1,-1,-1,-1,-1,-1],"loss_changes":[1.6138483E2,4.9615036E1,6.459115E1,2.5412262E1,8.577304E0,1.7856236E1,2.7129044E1,0E0,0E0,0E0,0E0,0E0,0E0,0E0,0E0],"parents":[2147483647,0,0,1,1,2,2,3,3,4,4,5,5,6,6],"right_children":[2,4,6,8,10,12,14,-1,-1,-1,-1,-1,-1,-1,-1],"split_conditions":[1.5E1,4.9E0,1.8E1,2E1,3E0,2.4E1,-6.2E0,2.9204343E-3,5.2728257E-3,2.9161246E-3,-3.4448478E-4,-8.391372E-4,-2.9834022E-3,-1.3575692E-3,2.290931E-3],"split_indices":[51,77,81,80,29,51,25,0,0,0,0,0,0,0,0],"split_type":[0,0,0,0,0,0,0,0,0,0,0,0,0,0,0],"sum_hessian":[5.222185E3,2.5429807E3,2.6792043E3,2.0244188E3,5.18562E2,1.583986E3,1.0952184E3,1.3136584E3,7.107604E2,9.8829704E1,4.197323E2,9.00769E2,6.83217E2,2.697628E2,8.2545557E2],"tree_param":{"num_deleted":"0","num_feature":"280","num_nodes":"15","size_leaf_vector":"1"}},{"base_weights":[-1.226108E-1,9.634821E-2,-2.6129845E-1,-4.1790538E-2,2.5283483E-1,-6.9412135E-2,-3.7701908E-1,1.1300994E-3,-1.6579566E-3,-1.1217684E-4,2.8612704E-3,-1.5748987E-3,1.6162948E-3,-3.0100977E-3,-5.034368E-3],"categories":[],"categories_nodes":[],"categories_segments":[],"categories_sizes":[],"default_left":[0,0,0,0,0,0,0,0,0,0,0,0,0,0,0],"id":48,"left_children":[1,3,5,7,9,11,13,-1,-1,-1,-1,-1,-1,-1,-1],"loss_changes":[1.58577E2,4.379338E1,7.095949E1,2.0685682E1,8.352596E0,2.452338E1,1.900821E1,0E0,0E0,0E0,0E0,0E0,0E0,0E0,0E0],"parents":[2147483647,0,0,1,1,2,2,3,3,4,4,5,5,6,6],"right_children":[2,4,6,8,10,12,14,-1,-1,-1,-1,-1,-1,-1,-1],"split_conditions":[4.62E-1,5.14E-1,1.1E1,-4.7E0,1.8E1,1.4E1,2.2E1,1.1300994E-3,-1.6579566E-3,-1.1217684E-4,2.8612704E-3,-1.5748987E-3,1.6162948E-3,-3.0100977E-3,-5.034368E-3],"split_indices":[3,55,103,25,28,51,80,0,0,0,0,0,0,0,0],"split_type":[0,0,0,0,0,0,0,0,0,0,0,0,0,0,0],"sum_hessian":[5.2202036E3,2.0244008E3,3.195803E3,1.0756248E3,9.48776E2,1.2028516E3,1.9929515E3,4.7844794E2,5.9717676E2,1.0630408E2,8.424719E2,8.71092E2,3.3175955E2,1.2467297E3,7.462218E2],"tree_param":{"num_deleted":"0","num_feature":"280","num_nodes":"15","size_leaf_vector":"1"}},{"base_weights":[1.2261081E-1,-9.634818E-2,2.6129845E-1,4.179057E-2,-2.528348E-1,6.9412135E-2,3.7701908E-1,-1.1300992E-3,1.6579571E-3,1.1217692E-4,-2.8612704E-3,1.5748986E-3,-1.6162944E-3,3.0100977E-3,5.034368E-3],"categories":[],"categories_nodes":[],"categories_segments":[],"categories_sizes":[],"default_left":[0,0,0,0,0,0,0,0,0,0,0,0,0,0,0],"id":49,"left_children":[1,3,5,7,9,11,13,-1,-1,-1,-1,-1,-1,-1,-1],"loss_changes":[1.58577E2,4.379338E1,7.095949E1,2.0685682E1,8.352592E0,2.452337E1,1.9008179E1,0E0,0E0,0E0,0E0,0E0,0E0,0E0,0E0],"parents":[2147483647,0,0,1,1,2,2,3,3,4,4,5,5,6,6],"right_children":[2,4,6,8,10,12,14,-1,-1,-1,-1,-1,-1,-1,-1],"split_conditions":[4.62E-1,5.14E-1,1.1E1,-4.7E0,1.8E1,1.4E1,2.2E1,-1.1300992E-3,1.6579571E-3,1.1217692E-4,-2.8612704E-3,1.5748986E-3,-1.6162944E-3,3.0100977E-3,5.034368E-3],"split_indices":[3,55,103,25,28,51,80,0,0,0,0,0,0,0,0],"split_type":[0,0,0,0,0,0,0,0,0,0,0,0,0,0,0],"sum_hessian":[5.2202036E3,2.0244008E3,3.195803E3,1.0756246E3,9.4877606E2,1.2028516E3,1.9929515E3,4.7844794E2,5.9717676E2,1.0630408E2,8.42472E2,8.71092E2,3.3175955E2,1.2467297E3,7.462218E2],"tree_param":{"num_deleted":"0","num_feature":"280","num_nodes":"15","size_leaf_vector":"1"}},{"base_weights":[-1.2143318E-1,5.0566677E-2,-2.948676E-1,-1.806004E-1,1.4998832E-1,-1.5463287E-1,-4.382472E-1,4.4395062E-4,-2.954002E-3,3.0486232E-3,7.055131E-4,-5.2669883E-4,-2.7853835E-3,-3.600751E-3,-5.560756E-3],"categories":[],"categories_nodes":[],"categories_segments":[],"categories_sizes":[],"default_left":[0,0,0,0,0,0,0,0,0,0,0,0,0,0,0],"id":50,"left_children":[1,3,5,7,9,11,13,-1,-1,-1,-1,-1,-1,-1,-1],"loss_changes":[1.55707E2,6.0272156E1,5.2187912E1,2.0386919E1,2.2535599E1,1.6603874E1,1.1631134E1,0E0,0E0,0E0,0E0,0E0,0E0,0E0,0E0],"parents":[2147483647,0,0,1,1,2,2,3,3,4,4,5,5,6,6],"right_children":[2,4,6,8,10,12,14,-1,-1,-1,-1,-1,-1,-1,-1],"split_conditions":[3E-1,-2.4E0,1.3E1,-4.9E0,8E0,4.5E0,2.3E1,4.4395062E-4,-2.954002E-3,3.0486232E-3,7.055131E-4,-5.2669883E-4,-2.7853835E-3,-3.600751E-3,-5.560756E-3],"split_indices":[25,77,80,25,103,25,80,0,0,0,0,0,0,0,0],"split_type":[0,0,0,0,0,0,0,0,0,0,0,0,0,0,0],"sum_hessian":[5.2181914E3,2.6202866E3,2.5979045E3,7.877826E2,1.8325042E3,1.3144062E3,1.2834982E3,2.6635947E2,5.2142316E2,6.203005E2,1.2122036E3,7.218304E2,5.9257587E2,7.74031E2,5.0946713E2],"tree_param":{"num_deleted":"0","num_feature":"280","num_nodes":"15","size_leaf_vector":"1"}},{"base_weights":[1.2143317E-1,-5.0566692E-2,2.948676E-1,1.8060035E-1,-1.4998832E-1,1.5463287E-1,4.3824717E-1,-4.4395056E-4,2.954001E-3,-3.0486232E-3,-7.0551306E-4,5.2669883E-4,2.7853835E-3,3.6007513E-3,5.5607557E-3],"categories":[],"categories_nodes":[],"categories_segments":[],"categories_sizes":[],"default_left":[0,0,0,0,0,0,0,0,0,0,0,0,0,0,0],"id":51,"left_children":[1,3,5,7,9,11,13,-1,-1,-1,-1,-1,-1,-1,-1],"loss_changes":[1.5570703E2,6.0272133E1,5.218785E1,2.0386906E1,2.2535599E1,1.6603872E1,1.1631165E1,0E0,0E0,0E0,0E0,0E0,0E0,0E0,0E0],"parents":[2147483647,0,0,1,1,2,2,3,3,4,4,5,5,6,6],"right_children":[2,4,6,8,10,12,14,-1,-1,-1,-1,-1,-1,-1,-1],"split_conditions":[3E-1,-2.4E0,1.3E1,-4.9E0,8E0,4.5E0,2.3E1,-4.4395056E-4,2.954001E-3,-3.0486232E-3,-7.0551306E-4,5.2669883E-4,2.7853835E-3,3.6007513E-3,5.5607557E-3],"split_indices":[25,77,80,25,103,25,80,0,0,0,0,0,0,0,0],"split_type":[0,0,0,0,0,0,0,0,0,0,0,0,0,0,0],"sum_hessian":[5.2181914E3,2.6202869E3,2.5979043E3,7.877826E2,1.8325042E3,1.3144062E3,1.2834982E3,2.663595E2,5.2142316E2,6.203005E2,1.2122036E3,7.218304E2,5.9257587E2,7.74031E2,5.094671E2],"tree_param":{"num_deleted":"0","num_feature":"280","num_nodes":"15","size_leaf_vector":"1"}},{"base_weights":[-1.2026941E-1,9.495353E-2,-2.566787E-1,-4.0749997E-2,2.4871585E-1,-3.4718132E-1,-1.8666262E-2,1.1135702E-3,-1.6263439E-3,2.0772442E-3,4.6176356E-3,-2.6338827E-3,-4.73408E-3,-1.0172005E-3,2.1500539E-3],"categories":[],"categories_nodes":[],"categories_segments":[],"categories_sizes":[],"default_left":[0,0,0,0,0,0,0,0,0,0,0,0,0,0,0],"id":52,"left_children":[1,3,5,7,9,11,13,-1,-1,-1,-1,-1,-1,-1,-1],"loss_changes":[1.531907E2,4.2255955E1,6.878398E1,1.997255E1,8.194393E0,2.4346802E1,1.711652E1,0E0,0E0,0E0,0E0,0E0,0E0,0E0,0E0],"parents":[2147483647,0,0,1,1,2,2,3,3,4,4,5,5,6,6],"right_children":[2,4,6,8,10,12,14,-1,-1,-1,-1,-1,-1,-1,-1],"split_conditions":[4.62E-1,5.14E-1,3.8E0,-4.7E0,2.9E1,2E1,1.4E1,1.1135702E-3,-1.6263439E-3,2.0772442E-3,4.6176356E-3,-2.6338827E-3,-4.73408E-3,-1.0172005E-3,2.1500539E-3],"split_indices":[3,55,77,25,51,80,51,0,0,0,0,0,0,0,0],"split_type":[0,0,0,0,0,0,0,0,0,0,0,0,0,0,0],"sum_hessian":[5.2161196E3,2.0236161E3,3.1925037E3,1.0753218E3,9.482944E2,2.3126685E3,8.7983527E2,4.7839267E2,5.969291E2,7.969352E2,1.5135916E2,1.3918219E3,9.2084656E2,6.495358E2,2.3029947E2],"tree_param":{"num_deleted":"0","num_feature":"280","num_nodes":"15","size_leaf_vector":"1"}},{"base_weights":[1.202694E-1,-9.495352E-2,2.5667867E-1,4.0749993E-2,-2.4871583E-1,3.4718132E-1,1.866625E-2,-1.1135702E-3,1.6263439E-3,-2.0772442E-3,-4.617634E-3,2.6338825E-3,4.73408E-3,1.0172005E-3,-2.1500543E-3],"categories":[],"categories_nodes":[],"categories_segments":[],"categories_sizes":[],"default_left":[0,0,0,0,0,0,0,0,0,0,0,0,0,0,0],"id":53,"left_children":[1,3,5,7,9,11,13,-1,-1,-1,-1,-1,-1,-1,-1],"loss_changes":[1.531907E2,4.225595E1,6.8783966E1,1.997255E1,8.194378E0,2.4346802E1,1.7116524E1,0E0,0E0,0E0,0E0,0E0,0E0,0E0,0E0],"parents":[2147483647,0,0,1,1,2,2,3,3,4,4,5,5,6,6],"right_children":[2,4,6,8,10,12,14,-1,-1,-1,-1,-1,-1,-1,-1],"split_conditions":[4.62E-1,5.14E-1,3.8E0,-4.7E0,2.9E1,2E1,1.4E1,-1.1135702E-3,1.6263439E-3,-2.0772442E-3,-4.617634E-3,2.6338825E-3,4.73408E-3,1.0172005E-3,-2.1500543E-3],"split_indices":[3,55,77,25,51,80,51,0,0,0,0,0,0,0,0],"split_type":[0,0,0,0,0,0,0,0,0,0,0,0,0,0,0],"sum_hessian":[5.2161196E3,2.0236161E3,3.1925037E3,1.0753218E3,9.482944E2,2.3126685E3,8.7983527E2,4.7839267E2,5.969291E2,7.969352E2,1.5135918E2,1.3918219E3,9.2084656E2,6.495358E2,2.3029947E2],"tree_param":{"num_deleted":"0","num_feature":"280","num_nodes":"15","size_leaf_vector":"1"}},{"base_weights":[-1.1911544E-1,-2.9357234E-1,4.6275973E-2,-3.6267E-1,-2.4331609E-2,-1.8355732E-1,1.4491196E-1,-2.8259032E-3,-5.1060817E-3,-2.8372507E-3,3.7241448E-4,4.2968246E-4,-2.957257E-3,2.9054235E-3,6.936353E-4],"categories":[],"categories_nodes":[],"categories_segments":[],"categories_sizes":[],"default_left":[0,0,0,0,0,0,0,0,0,0,0,0,0,0,0],"id":54,"left_children":[1,3,5,7,9,11,13,-1,-1,-1,-1,-1,-1,-1,-1],"loss_changes":[1.5048575E2,4.7209488E1,6.0734695E1,2.378241E1,8.306502E0,2.0456656E1,2.060149E1,0E0,0E0,0E0,0E0,0E0,0E0,0E0,0E0],"parents":[2147483647,0,0,1,1,2,2,3,3,4,4,5,5,6,6],"right_children":[2,4,6,8,10,12,14,-1,-1,-1,-1,-1,-1,-1,-1],"split_conditions":[1.5E1,4.9E0,-2.4E0,2E1,3E0,-4.9E0,8E0,-2.8259032E-3,-5.1060817E-3,-2.8372507E-3,3.7241448E-4,4.2968246E-4,-2.957257E-3,2.9054235E-3,6.936353E-4],"split_indices":[51,77,77,80,29,25,103,0,0,0,0,0,0,0,0],"split_type":[0,0,0,0,0,0,0,0,0,0,0,0,0,0,0],"sum_hessian":[5.21401E3,2.5370857E3,2.6769243E3,2.0186693E3,5.184163E2,8.035946E2,1.8733296E3,1.3116024E3,7.0706696E2,9.875897E1,4.1965735E2,2.6633817E2,5.372565E2,6.3890436E2,1.2344253E3],"tree_param":{"num_deleted":"0","num_feature":"280","num_nodes":"15","size_leaf_vector":"1"}},{"base_weights":[1.19115435E-1,2.9357234E-1,-4.6275984E-2,3.6267E-1,2.4331601E-2,1.8355726E-1,-1.4491196E-1,2.8259032E-3,5.1060813E-3,2.8372507E-3,-3.7241454E-4,-4.2968246E-4,2.9572563E-3,-2.905423E-3,-6.936355E-4],"categories":[],"categories_nodes":[],"categories_segments":[],"categories_sizes":[],"default_left":[0,0,0,0,0,0,0,0,0,0,0,0,0,0,0],"id":55,"left_children":[1,3,5,7,9,11,13,-1,-1,-1,-1,-1,-1,-1,-1],"loss_changes":[1.5048578E2,4.7209488E1,6.0734673E1,2.378241E1,8.306502E0,2.0456654E1,2.0601482E1,0E0,0E0,0E0,0E0,0E0,0E0,0E0,0E0],"parents":[2147483647,0,0,1,1,2,2,3,3,4,4,5,5,6,6],"right_children":[2,4,6,8,10,12,14,-1,-1,-1,-1,-1,-1,-1,-1],"split_conditions":[1.5E1,4.9E0,-2.4E0,2E1,3E0,-4.9E0,8E0,2.8259032E-3,5.1060813E-3,2.8372507E-3,-3.7241454E-4,-4.2968246E-4,2.9572563E-3,-2.905423E-3,-6.936355E-4],"split_indices":[51,77,77,80,29,25,103,0,0,0,0,0,0,0,0],"split_type":[0,0,0,0,0,0,0,0,0,0,0,0,0,0,0],"sum_hessian":[5.21401E3,2.5370857E3,2.6769243E3,2.0186693E3,5.184163E2,8.0359467E2,1.8733296E3,1.3116024E3,7.0706696E2,9.875897E1,4.1965735E2,2.6633817E2,5.372565E2,6.3890436E2,1.2344253E3],"tree_param":{"num_deleted":"0","num_feature":"280","num_nodes":"15","size_leaf_vector":"1"}},{"base_weights":[-1.1797622E-1,-2.5792563E-1,8.5177265E-2,-1.036732E-1,-3.9378035E-1,1.6799657E-1,-1.5912147E-1,-2.2793317E-3,2.028901E-4,-6.006957E-3,-3.4753534E-3,1.0244766E-3,3.1551146E-3,-2.4815053E-3,1.2051576E-3],"categories":[],"categories_nodes":[],"categories_segments":[],"categories_sizes":[],"default_left":[0,0,0,0,0,0,0,0,0,0,0,0,0,0,0],"id":56,"left_children":[1,3,5,7,9,11,13,-1,-1,-1,-1,-1,-1,-1,-1],"loss_changes":[1.4822885E2,6.464581E1,4.3062145E1,2.2291658E1,1.5492889E1,1.5332386E1,1.3449551E1,0E0,0E0,0E0,0E0,0E0,0E0,0E0,0E0],"parents":[2147483647,0,0,1,1,2,2,3,3,4,4,5,5,6,6],"right_children":[2,4,6,8,10,12,14,-1,-1,-1,-1,-1,-1,-1,-1],"split_conditions":[1.7E1,1.2E1,2.2E1,9E0,4E0,2.7E1,2.7E1,-2.2793317E-3,2.028901E-4,-6.006957E-3,-3.4753534E-3,1.0244766E-3,3.1551146E-3,-2.4815053E-3,1.2051576E-3],"split_indices":[27,80,80,51,51,51,28,0,0,0,0,0,0,0,0],"split_type":[0,0,0,0,0,0,0,0,0,0,0,0,0,0,0],"sum_hessian":[5.211823E3,3.0857952E3,2.126028E3,1.4458773E3,1.6399178E3,1.5879965E3,5.380317E2,7.216526E2,7.2422473E2,2.9737494E2,1.3425428E3,1.1006239E3,4.8737256E2,4.0818805E2,1.2984363E2],"tree_param":{"num_deleted":"0","num_feature":"280","num_nodes":"15","size_leaf_vector":"1"}},{"base_weights":[1.1797621E-1,2.5792563E-1,-8.517729E-2,1.0367318E-1,3.9378038E-1,-1.6799659E-1,1.5912142E-1,2.2793317E-3,-2.0289033E-4,6.006957E-3,3.4753536E-3,-1.0244767E-3,-3.1551148E-3,2.481505E-3,-1.2051585E-3],"categories":[],"categories_nodes":[],"categories_segments":[],"categories_sizes":[],"default_left":[0,0,0,0,0,0,0,0,0,0,0,0,0,0,0],"id":57,"left_children":[1,3,5,7,9,11,13,-1,-1,-1,-1,-1,-1,-1,-1],"loss_changes":[1.4822888E2,6.464583E1,4.3062138E1,2.2291664E1,1.5492844E1,1.5332386E1,1.344956E1,0E0,0E0,0E0,0E0,0E0,0E0,0E0,0E0],"parents":[2147483647,0,0,1,1,2,2,3,3,4,4,5,5,6,6],"right_children":[2,4,6,8,10,12,14,-1,-1,-1,-1,-1,-1,-1,-1],"split_conditions":[1.7E1,1.2E1,2.2E1,9E0,4E0,2.7E1,2.7E1,2.2793317E-3,-2.0289033E-4,6.006957E-3,3.4753536E-3,-1.0244767E-3,-3.1551148E-3,2.481505E-3,-1.2051585E-3],"split_indices":[27,80,80,51,51,51,28,0,0,0,0,0,0,0,0],"split_type":[0,0,0,0,0,0,0,0,0,0,0,0,0,0,0],"sum_hessian":[5.211823E3,3.0857952E3,2.126028E3,1.4458773E3,1.6399178E3,1.5879965E3,5.380317E2,7.216526E2,7.2422473E2,2.9737494E2,1.3425428E3,1.1006239E3,4.8737256E2,4.0818802E2,1.2984363E2],"tree_param":{"num_deleted":"0","num_feature":"280","num_nodes":"15","size_leaf_vector":"1"}},{"base_weights":[-1.16844766E-1,9.2880875E-2,-2.4990454E-1,-1.5652928E-1,1.7292666E-1,-3.3849087E-1,-1.7351102E-2,1.3240466E-4,-2.8595894E-3,4.1819317E-4,2.4841842E-3,-2.5657432E-3,-4.621724E-3,-9.8319E-4,2.1044235E-3],"categories":[],"categories_nodes":[],"categories_segments":[],"categories_sizes":[],"default_left":[0,0,0,0,0,0,0,0,0,0,0,0,0,0,0],"id":58,"left_children":[1,3,5,7,9,11,13,-1,-1,-1,-1,-1,-1,-1,-1],"loss_changes":[1.4543517E2,4.042279E1,6.5677795E1,1.0817663E1,1.5155254E1,2.3273193E1,1.6261768E1,0E0,0E0,0E0,0E0,0E0,0E0,0E0,0E0],"parents":[2147483647,0,0,1,1,2,2,3,3,4,4,5,5,6,6],"right_children":[2,4,6,8,10,12,14,-1,-1,-1,-1,-1,-1,-1,-1],"split_conditions":[4.62E-1,3.75E-1,3.8E0,-4.7E0,1.7E1,2E1,1.4E1,1.3240466E-4,-2.8595894E-3,4.1819317E-4,2.4841842E-3,-2.5657432E-3,-4.621724E-3,-9.8319E-4,2.1044235E-3],"split_indices":[3,55,77,25,47,80,51,0,0,0,0,0,0,0,0],"split_type":[0,0,0,0,0,0,0,0,0,0,0,0,0,0,0],"sum_hessian":[5.209769E3,2.0224047E3,3.1873643E3,4.9113852E2,1.5312662E3,2.3078008E3,8.7956354E2,2.128483E2,2.7829022E2,5.6009576E2,9.711704E2,1.3901522E3,9.176485E2,6.493309E2,2.3023264E2],"tree_param":{"num_deleted":"0","num_feature":"280","num_nodes":"15","size_leaf_vector":"1"}},{"base_weights":[1.1684476E-1,-9.2880875E-2,2.4990453E-1,1.5652926E-1,-1.7292666E-1,3.3849084E-1,1.7351095E-2,-1.3240514E-4,2.8595894E-3,-4.1819314E-4,-2.4841842E-3,2.5657432E-3,4.6217237E-3,9.8319E-4,-2.1044237E-3],"categories":[],"categories_nodes":[],"categories_segments":[],"categories_sizes":[],"default_left":[0,0,0,0,0,0,0,0,0,0,0,0,0,0,0],"id":59,"left_children":[1,3,5,7,9,11,13,-1,-1,-1,-1,-1,-1,-1,-1],"loss_changes":[1.4543515E2,4.0422783E1,6.5677826E1,1.0817669E1,1.5155254E1,2.3273132E1,1.626177E1,0E0,0E0,0E0,0E0,0E0,0E0,0E0,0E0],"parents":[2147483647,0,0,1,1,2,2,3,3,4,4,5,5,6,6],"right_children":[2,4,6,8,10,12,14,-1,-1,-1,-1,-1,-1,-1,-1],"split_conditions":[4.62E-1,3.75E-1,3.8E0,-4.7E0,1.7E1,2E1,1.4E1,-1.3240514E-4,2.8595894E-3,-4.1819314E-4,-2.4841842E-3,2.5657432E-3,4.6217237E-3,9.8319E-4,-2.1044237E-3],"split_indices":[3,55,77,25,47,80,51,0,0,0,0,0,0,0,0],"split_type":[0,0,0,0,0,0,0,0,0,0,0,0,0,0,0],"sum_hessian":[5.209769E3,2.0224047E3,3.1873643E3,4.9113855E2,1.5312662E3,2.3078005E3,8.7956354E2,2.128483E2,2.7829025E2,5.6009576E2,9.711704E2,1.3901522E3,9.176485E2,6.493309E2,2.3023264E2],"tree_param":{"num_deleted":"0","num_feature":"280","num_nodes":"15","size_leaf_vector":"1"}},{"base_weights":[-1.1572593E-1,4.9119443E-2,-2.822707E-1,-8.357186E-2,2.0900206E-1,-1.4729357E-1,-4.2082372E-1,1.0006092E-3,-1.8545222E-3,4.0206485E-3,1.5335964E-3,-2.2181335E-3,1.4688005E-4,-3.4441694E-3,-5.36471E-3],"categories":[],"categories_nodes":[],"categories_segments":[],"categories_sizes":[],"default_left":[0,0,0,0,0,0,0,0,0,0,0,0,0,0,0],"id":60,"left_children":[1,3,5,7,9,11,13,-1,-1,-1,-1,-1,-1,-1,-1],"loss_changes":[1.4301186E2,5.5569324E1,4.8395447E1,2.6802715E1,1.2698929E1,1.5864645E1,1.1108612E1,0E0,0E0,0E0,0E0,0E0,0E0,0E0,0E0],"parents":[2147483647,0,0,1,1,2,2,3,3,4,4,5,5,6,6],"right_children":[2,4,6,8,10,12,14,-1,-1,-1,-1,-1,-1,-1,-1],"split_conditions":[3E-1,6E-1,1.3E1,-4.7E0,4E0,6E0,2.3E1,1.0006092E-3,-1.8545222E-3,4.0206485E-3,1.5335964E-3,-2.2181335E-3,1.4688005E-4,-3.4441694E-3,-5.36471E-3],"split_indices":[25,77,80,25,103,77,80,0,0,0,0,0,0,0,0],"split_type":[0,0,0,0,0,0,0,0,0,0,0,0,0,0,0],"sum_hessian":[5.2076143E3,2.6175142E3,2.5901003E3,1.4306515E3,1.1868627E3,1.3130256E3,1.2770747E3,5.1050928E2,9.201422E2,2.641419E2,9.227207E2,8.9904816E2,4.1397748E2,7.7139886E2,5.056758E2],"tree_param":{"num_deleted":"0","num_feature":"280","num_nodes":"15","size_leaf_vector":"1"}},{"base_weights":[1.15725935E-1,-4.911944E-2,2.822707E-1,8.357187E-2,-2.0900206E-1,1.4729358E-1,4.2082375E-1,-1.000609E-3,1.8545222E-3,-4.020649E-3,-1.5335964E-3,2.2181338E-3,-1.4687977E-4,3.4441696E-3,5.36471E-3],"categories":[],"categories_nodes":[],"categories_segments":[],"categories_sizes":[],"default_left":[0,0,0,0,0,0,0,0,0,0,0,0,0,0,0],"id":61,"left_children":[1,3,5,7,9,11,13,-1,-1,-1,-1,-1,-1,-1,-1],"loss_changes":[1.4301184E2,5.5569336E1,4.8395462E1,2.6802711E1,1.2698929E1,1.5864643E1,1.1108612E1,0E0,0E0,0E0,0E0,0E0,0E0,0E0,0E0],"parents":[2147483647,0,0,1,1,2,2,3,3,4,4,5,5,6,6],"right_children":[2,4,6,8,10,12,14,-1,-1,-1,-1,-1,-1,-1,-1],"split_conditions":[3E-1,6E-1,1.3E1,-4.7E0,4E0,6E0,2.3E1,-1.000609E-3,1.8545222E-3,-4.020649E-3,-1.5335964E-3,2.2181338E-3,-1.4687977E-4,3.4441696E-3,5.36471E-3],"split_indices":[25,77,80,25,103,77,80,0,0,0,0,0,0,0,0],"split_type":[0,0,0,0,0,0,0,0,0,0,0,0,0,0,0],"sum_hessian":[5.2076143E3,2.6175142E3,2.5901003E3,1.4306515E3,1.1868625E3,1.3130256E3,1.2770747E3,5.1050928E2,9.201422E2,2.641419E2,9.227207E2,8.9904816E2,4.1397748E2,7.7139886E2,5.0567578E2],"tree_param":{"num_deleted":"0","num_feature":"280","num_nodes":"15","size_leaf_vector":"1"}},{"base_weights":[-1.14621E-1,-2.5113115E-1,8.332335E-2,-1.00680046E-1,-3.839302E-1,1.6422619E-1,-1.5538144E-1,-2.2270514E-3,2.0986883E-4,-5.8927964E-3,-3.380966E-3,9.986692E-4,3.0916198E-3,-2.4257312E-3,1.1826796E-3],"categories":[],"categories_nodes":[],"categories_segments":[],"categories_sizes":[],"default_left":[0,0,0,0,0,0,0,0,0,0,0,0,0,0,0],"id":62,"left_children":[1,3,5,7,9,11,13,-1,-1,-1,-1,-1,-1,-1,-1],"loss_changes":[1.407031E2,6.153041E1,4.107779E1,2.147437E1,1.5202881E1,1.4783249E1,1.2879866E1,0E0,0E0,0E0,0E0,0E0,0E0,0E0,0E0],"parents":[2147483647,0,0,1,1,2,2,3,3,4,4,5,5,6,6],"right_children":[2,4,6,8,10,12,14,-1,-1,-1,-1,-1,-1,-1,-1],"split_conditions":[1.7E1,1.2E1,2.2E1,9E0,4E0,2.7E1,2.7E1,-2.2270514E-3,2.0986883E-4,-5.8927964E-3,-3.380966E-3,9.986692E-4,3.0916198E-3,-2.4257312E-3,1.1826796E-3],"split_indices":[27,80,80,51,51,51,28,0,0,0,0,0,0,0,0],"split_type":[0,0,0,0,0,0,0,0,0,0,0,0,0,0,0],"sum_hessian":[5.205321E3,3.0805703E3,2.1247505E3,1.4451194E3,1.635451E3,1.5871416E3,5.376087E2,7.2108307E2,7.240363E2,2.9625882E2,1.3391923E3,1.1002574E3,4.8688422E2,4.0778998E2,1.2981874E2],"tree_param":{"num_deleted":"0","num_feature":"280","num_nodes":"15","size_leaf_vector":"1"}},{"base_weights":[1.14621E-1,2.5113115E-1,-8.332335E-2,1.0068004E-1,3.839302E-1,-1.6422619E-1,1.5538144E-1,2.2270512E-3,-2.0986886E-4,5.892797E-3,3.380966E-3,-9.986693E-4,-3.0916198E-3,2.4257312E-3,-1.1826791E-3],"categories":[],"categories_nodes":[],"categories_segments":[],"categories_sizes":[],"default_left":[0,0,0,0,0,0,0,0,0,0,0,0,0,0,0],"id":63,"left_children":[1,3,5,7,9,11,13,-1,-1,-1,-1,-1,-1,-1,-1],"loss_changes":[1.4070308E2,6.1530396E1,4.107779E1,2.1474371E1,1.5202911E1,1.4783245E1,1.2879866E1,0E0,0E0,0E0,0E0,0E0,0E0,0E0,0E0],"parents":[2147483647,0,0,1,1,2,2,3,3,4,4,5,5,6,6],"right_children":[2,4,6,8,10,12,14,-1,-1,-1,-1,-1,-1,-1,-1],"split_conditions":[1.7E1,1.2E1,2.2E1,9E0,4E0,2.7E1,2.7E1,2.2270512E-3,-2.0986886E-4,5.892797E-3,3.380966E-3,-9.986693E-4,-3.0916198E-3,2.4257312E-3,-1.1826791E-3],"split_indices":[27,80,80,51,51,51,28,0,0,0,0,0,0,0,0],"split_type":[0,0,0,0,0,0,0,0,0,0,0,0,0,0,0],"sum_hessian":[5.205321E3,3.0805703E3,2.1247505E3,1.4451194E3,1.635451E3,1.5871416E3,5.376087E2,7.2108307E2,7.240363E2,2.9625882E2,1.3391923E3,1.1002574E3,4.8688422E2,4.0778998E2,1.2981874E2],"tree_param":{"num_deleted":"0","num_feature":"280","num_nodes":"15","size_leaf_vector":"1"}},{"base_weights":[-1.1352485E-1,-2.8103313E-1,4.49417E-2,-3.4809583E-1,-2.0650512E-2,-1.766066E-1,1.3995324E-1,-2.8777537E-3,-5.3468123E-3,-2.756021E-3,3.9820664E-4,4.055425E-4,-2.8435807E-3,5.0081394E-4,2.5527754E-3],"categories":[],"categories_nodes":[],"categories_segments":[],"categories_sizes":[],"default_left":[0,0,0,0,0,0,0,0,0,0,0,0,0,0,0],"id":64,"left_children":[1,3,5,7,9,11,13,-1,-1,-1,-1,-1,-1,-1,-1],"loss_changes":[1.381534E2,4.417206E1,5.633465E1,2.2488785E1,8.016017E0,1.8809229E1,1.9397278E1,0E0,0E0,0E0,0E0,0E0,0E0,0E0,0E0],"parents":[2147483647,0,0,1,1,2,2,3,3,4,4,5,5,6,6],"right_children":[2,4,6,8,10,12,14,-1,-1,-1,-1,-1,-1,-1,-1],"split_conditions":[1.5E1,4.9E0,-2.4E0,2.3E1,3E0,-4.9E0,2.4E1,-2.8777537E-3,-5.3468123E-3,-2.756021E-3,3.9820664E-4,4.055425E-4,-2.8435807E-3,5.0081394E-4,2.5527754E-3],"split_indices":[51,77,77,80,29,25,51,0,0,0,0,0,0,0,0],"split_type":[0,0,0,0,0,0,0,0,0,0,0,0,0,0,0],"sum_hessian":[5.2031284E3,2.5290273E3,2.6741013E3,2.0107999E3,5.182273E2,8.023408E2,1.8717605E3,1.5214717E3,4.893282E2,9.866975E1,4.1955756E2,2.6628912E2,5.3605176E2,1.0527727E3,8.189878E2],"tree_param":{"num_deleted":"0","num_feature":"280","num_nodes":"15","size_leaf_vector":"1"}},{"base_weights":[1.1352484E-1,2.8103313E-1,-4.4941697E-2,3.4809583E-1,2.0650474E-2,1.7660661E-1,-1.3995324E-1,2.8777537E-3,5.3468123E-3,2.7560208E-3,-3.9820705E-4,-4.055421E-4,2.8435807E-3,-5.00814E-4,-2.5527754E-3],"categories":[],"categories_nodes":[],"categories_segments":[],"categories_sizes":[],"default_left":[0,0,0,0,0,0,0,0,0,0,0,0,0,0,0],"id":65,"left_children":[1,3,5,7,9,11,13,-1,-1,-1,-1,-1,-1,-1,-1],"loss_changes":[1.3815338E2,4.417206E1,5.633465E1,2.2488739E1,8.016018E0,1.8809223E1,1.9397278E1,0E0,0E0,0E0,0E0,0E0,0E0,0E0,0E0],"parents":[2147483647,0,0,1,1,2,2,3,3,4,4,5,5,6,6],"right_children":[2,4,6,8,10,12,14,-1,-1,-1,-1,-1,-1,-1,-1],"split_conditions":[1.5E1,4.9E0,-2.4E0,2.3E1,3E0,-4.9E0,2.4E1,2.8777537E-3,5.3468123E-3,2.7560208E-3,-3.9820705E-4,-4.055421E-4,2.8435807E-3,-5.00814E-4,-2.5527754E-3],"split_indices":[51,77,77,80,29,25,51,0,0,0,0,0,0,0,0],"split_type":[0,0,0,0,0,0,0,0,0,0,0,0,0,0,0],"sum_hessian":[5.2031284E3,2.5290273E3,2.6741013E3,2.0107999E3,5.182273E2,8.023408E2,1.8717605E3,1.5214718E3,4.893282E2,9.866975E1,4.1955756E2,2.662891E2,5.3605176E2,1.0527727E3,8.189878E2],"tree_param":{"num_deleted":"0","num_feature":"280","num_nodes":"15","size_leaf_vector":"1"}},{"base_weights":[-1.12445086E-1,-2.4664645E-1,8.2008004E-2,-9.8462E-2,-3.7764287E-1,1.614987E-1,-1.5257338E-1,-2.186747E-3,2.1334694E-4,-5.813074E-3,-3.3224022E-3,9.825266E-4,3.040218E-3,-2.384377E-3,1.1674677E-3],"categories":[],"categories_nodes":[],"categories_segments":[],"categories_sizes":[],"default_left":[0,0,0,0,0,0,0,0,0,0,0,0,0,0,0],"id":66,"left_children":[1,3,5,7,9,11,13,-1,-1,-1,-1,-1,-1,-1,-1],"loss_changes":[1.3576266E2,5.970987E1,3.9645554E1,2.0822239E1,1.4910263E1,1.4279827E1,1.2475802E1,0E0,0E0,0E0,0E0,0E0,0E0,0E0,0E0],"parents":[2147483647,0,0,1,1,2,2,3,3,4,4,5,5,6,6],"right_children":[2,4,6,8,10,12,14,-1,-1,-1,-1,-1,-1,-1,-1],"split_conditions":[1.7E1,1.2E1,2.2E1,9E0,4E0,2.7E1,2.7E1,-2.186747E-3,2.1334694E-4,-5.813074E-3,-3.3224022E-3,9.825266E-4,3.040218E-3,-2.384377E-3,1.1674677E-3],"split_indices":[27,80,80,51,51,51,28,0,0,0,0,0,0,0,0],"split_type":[0,0,0,0,0,0,0,0,0,0,0,0,0,0,0],"sum_hessian":[5.200683E3,3.0768994E3,2.1237837E3,1.4445555E3,1.6323439E3,1.586493E3,5.372905E2,7.206138E2,7.239417E2,2.9540958E2,1.3369342E3,1.1000322E3,4.8646082E2,4.0748978E2,1.2980074E2],"tree_param":{"num_deleted":"0","num_feature":"280","num_nodes":"15","size_leaf_vector":"1"}},{"base_weights":[1.1244508E-1,2.4664645E-1,-8.200801E-2,9.8462015E-2,3.7764287E-1,-1.614987E-1,1.5257333E-1,2.1867473E-3,-2.133468E-4,5.8130748E-3,3.3224018E-3,-9.825266E-4,-3.0402178E-3,2.3843762E-3,-1.1674679E-3],"categories":[],"categories_nodes":[],"categories_segments":[],"categories_sizes":[],"default_left":[0,0,0,0,0,0,0,0,0,0,0,0,0,0,0],"id":67,"left_children":[1,3,5,7,9,11,13,-1,-1,-1,-1,-1,-1,-1,-1],"loss_changes":[1.357627E2,5.9709854E1,3.9645542E1,2.0822235E1,1.4910263E1,1.4279827E1,1.24758E1,0E0,0E0,0E0,0E0,0E0,0E0,0E0,0E0],"parents":[2147483647,0,0,1,1,2,2,3,3,4,4,5,5,6,6],"right_children":[2,4,6,8,10,12,14,-1,-1,-1,-1,-1,-1,-1,-1],"split_conditions":[1.7E1,1.2E1,2.2E1,9E0,4E0,2.7E1,2.7E1,2.1867473E-3,-2.133468E-4,5.8130748E-3,3.3224018E-3,-9.825266E-4,-3.0402178E-3,2.3843762E-3,-1.1674679E-3],"split_indices":[27,80,80,51,51,51,28,0,0,0,0,0,0,0,0],"split_type":[0,0,0,0,0,0,0,0,0,0,0,0,0,0,0],"sum_hessian":[5.200683E3,3.0768992E3,2.1237837E3,1.4445555E3,1.6323438E3,1.586493E3,5.372905E2,7.206138E2,7.239417E2,2.9540958E2,1.3369342E3,1.1000322E3,4.8646082E2,4.0748978E2,1.2980074E2],"tree_param":{"num_deleted":"0","num_feature":"280","num_nodes":"15","size_leaf_vector":"1"}},{"base_weights":[-1.11371696E-1,-2.7608487E-1,4.4306513E-2,-3.4232214E-1,-1.930131E-2,2.0497504E-1,-8.3895415E-2,-2.8265172E-3,-5.2730804E-3,-2.7094379E-3,4.0352796E-4,3.775455E-3,1.4564791E-3,9.6998055E-4,-1.8309712E-3],"categories":[],"categories_nodes":[],"categories_segments":[],"categories_sizes":[],"default_left":[0,0,0,0,0,0,0,0,0,0,0,0,0,0,0],"id":68,"left_children":[1,3,5,7,9,11,13,-1,-1,-1,-1,-1,-1,-1,-1],"loss_changes":[1.3333662E2,4.29662E1,5.509369E1,2.2019928E1,7.8039885E0,1.2097309E1,2.6718163E1,0E0,0E0,0E0,0E0,0E0,0E0,0E0,0E0],"parents":[2147483647,0,0,1,1,2,2,3,3,4,4,5,5,6,6],"right_children":[2,4,6,8,10,12,14,-1,-1,-1,-1,-1,-1,-1,-1],"split_conditions":[1.5E1,4.9E0,1.4E1,2.3E1,3E0,-5.9E0,-4.7E0,-2.8265172E-3,-5.2730804E-3,-2.7094379E-3,4.0352796E-4,3.775455E-3,1.4564791E-3,9.6998055E-4,-1.8309712E-3],"split_indices":[51,77,103,80,29,25,25,0,0,0,0,0,0,0,0],"split_type":[0,0,0,0,0,0,0,0,0,0,0,0,0,0,0],"sum_hessian":[5.198402E3,2.525528E3,2.6728738E3,2.0073894E3,5.1813873E2,1.1859669E3,1.4869069E3,1.5197089E3,4.8768063E2,9.861275E1,4.1952597E2,3.0203757E2,8.839294E2,5.2662775E2,9.602791E2],"tree_param":{"num_deleted":"0","num_feature":"280","num_nodes":"15","size_leaf_vector":"1"}},{"base_weights":[1.11371696E-1,2.760849E-1,-4.4306513E-2,3.4232214E-1,1.930134E-2,-2.0497504E-1,8.3895415E-2,2.8265172E-3,5.2730804E-3,2.7094388E-3,-4.0352775E-4,-3.7754553E-3,-1.4564791E-3,-9.699806E-4,1.8309712E-3],"categories":[],"categories_nodes":[],"categories_segments":[],"categories_sizes":[],"default_left":[0,0,0,0,0,0,0,0,0,0,0,0,0,0,0],"id":69,"left_children":[1,3,5,7,9,11,13,-1,-1,-1,-1,-1,-1,-1,-1],"loss_changes":[1.3333661E2,4.29662E1,5.5093693E1,2.2019943E1,7.8039904E0,1.2097313E1,2.6718166E1,0E0,0E0,0E0,0E0,0E0,0E0,0E0,0E0],"parents":[2147483647,0,0,1,1,2,2,3,3,4,4,5,5,6,6],"right_children":[2,4,6,8,10,12,14,-1,-1,-1,-1,-1,-1,-1,-1],"split_conditions":[1.5E1,4.9E0,1.4E1,2.3E1,3E0,-5.9E0,-4.7E0,2.8265172E-3,5.2730804E-3,2.7094388E-3,-4.0352775E-4,-3.7754553E-3,-1.4564791E-3,-9.699806E-4,1.8309712E-3],"split_indices":[51,77,103,80,29,25,25,0,0,0,0,0,0,0,0],"split_type":[0,0,0,0,0,0,0,0,0,0,0,0,0,0,0],"sum_hessian":[5.198402E3,2.5255283E3,2.6728738E3,2.0073895E3,5.1813873E2,1.1859669E3,1.4869069E3,1.5197089E3,4.876806E2,9.8612755E1,4.19526E2,3.0203757E2,8.839294E2,5.2662775E2,9.602791E2],"tree_param":{"num_deleted":"0","num_feature":"280","num_nodes":"15","size_leaf_vector":"1"}},{"base_weights":[-1.1031279E-1,8.889821E-2,-2.3698488E-1,-3.8860444E-2,2.3379289E-1,-3.2223752E-1,-1.4071386E-2,1.0206682E-3,-1.5189704E-3,-3.7683442E-4,2.649714E-3,-2.4342057E-3,-4.41803E-3,-1.3805787E-3,1.2358194E-3],"categories":[],"categories_nodes":[],"categories_segments":[],"categories_sizes":[],"default_left":[0,0,0,0,0,0,0,0,0,0,0,0,0,0,0],"id":70,"left_children":[1,3,5,7,9,11,13,-1,-1,-1,-1,-1,-1,-1,-1],"loss_changes":[1.3116223E2,3.7416954E1,6.0373352E1,1.7136246E1,8.025887E0,2.1549652E1,1.5035819E1,0E0,0E0,0E0,0E0,0E0,0E0,0E0,0E0],"parents":[2147483647,0,0,1,1,2,2,3,3,4,4,5,5,6,6],"right_children":[2,4,6,8,10,12,14,-1,-1,-1,-1,-1,-1,-1,-1],"split_conditions":[4.62E-1,5.14E-1,3.8E0,-4.7E0,4E0,2E1,1E1,1.0206682E-3,-1.5189704E-3,-3.7683442E-4,2.649714E-3,-2.4342057E-3,-4.41803E-3,-1.3805787E-3,1.2358194E-3],"split_indices":[3,55,77,25,82,80,51,0,0,0,0,0,0,0,0],"split_type":[0,0,0,0,0,0,0,0,0,0,0,0,0,0,0],"sum_hessian":[5.195906E3,2.0197856E3,3.17612E3,1.0737526E3,9.4603314E2,2.29714E3,8.789802E2,4.7795895E2,5.957936E2,9.7435776E1,8.4859735E2,1.3863206E3,9.1081934E2,4.624455E2,4.1653476E2],"tree_param":{"num_deleted":"0","num_feature":"280","num_nodes":"15","size_leaf_vector":"1"}},{"base_weights":[1.1031278E-1,-8.8898234E-2,2.3698486E-1,3.8860425E-2,-2.3379289E-1,3.222375E-1,1.40714E-2,-1.0206683E-3,1.5189701E-3,3.7683418E-4,-2.649714E-3,2.4342053E-3,4.41803E-3,1.380579E-3,-1.2358194E-3],"categories":[],"categories_nodes":[],"categories_segments":[],"categories_sizes":[],"default_left":[0,0,0,0,0,0,0,0,0,0,0,0,0,0,0],"id":71,"left_children":[1,3,5,7,9,11,13,-1,-1,-1,-1,-1,-1,-1,-1],"loss_changes":[1.3116226E2,3.7416954E1,6.037332E1,1.7136244E1,8.02589E0,2.1549652E1,1.5035822E1,0E0,0E0,0E0,0E0,0E0,0E0,0E0,0E0],"parents":[2147483647,0,0,1,1,2,2,3,3,4,4,5,5,6,6],"right_children":[2,4,6,8,10,12,14,-1,-1,-1,-1,-1,-1,-1,-1],"split_conditions":[4.62E-1,5.14E-1,3.8E0,-4.7E0,4E0,2E1,1E1,-1.0206683E-3,1.5189701E-3,3.7683418E-4,-2.649714E-3,2.4342053E-3,4.41803E-3,1.380579E-3,-1.2358194E-3],"split_indices":[3,55,77,25,82,80,51,0,0,0,0,0,0,0,0],"split_type":[0,0,0,0,0,0,0,0,0,0,0,0,0,0,0],"sum_hessian":[5.195906E3,2.0197856E3,3.17612E3,1.0737526E3,9.4603314E2,2.29714E3,8.789802E2,4.7795895E2,5.957936E2,9.7435776E1,8.4859735E2,1.3863206E3,9.1081934E2,4.624455E2,4.1653476E2],"tree_param":{"num_deleted":"0","num_feature":"280","num_nodes":"15","size_leaf_vector":"1"}},{"base_weights":[-1.0926327E-1,4.72652E-2,-2.678318E-1,-1.6574655E-1,1.3874604E-1,-1.3877594E-1,-4.0101096E-1,3.805753E-4,-2.70202E-3,2.8390589E-3,6.442429E-4,-4.168829E-4,-2.5698608E-3,-3.2670991E-3,-5.1411004E-3],"categories":[],"categories_nodes":[],"categories_segments":[],"categories_sizes":[],"default_left":[0,0,0,0,0,0,0,0,0,0,0,0,0,0,0],"id":72,"left_children":[1,3,5,7,9,11,13,-1,-1,-1,-1,-1,-1,-1,-1],"loss_changes":[1.2894107E2,5.0977882E1,4.42977E1,1.6744345E1,1.9722778E1,1.504784E1,1.0499786E1,0E0,0E0,0E0,0E0,0E0,0E0,0E0,0E0],"parents":[2147483647,0,0,1,1,2,2,3,3,4,4,5,5,6,6],"right_children":[2,4,6,8,10,12,14,-1,-1,-1,-1,-1,-1,-1,-1],"split_conditions":[3E-1,-2.4E0,1.3E1,-4.9E0,8E0,4.5E0,2.3E1,3.805753E-4,-2.70202E-3,2.8390589E-3,6.442429E-4,-4.168829E-4,-2.5698608E-3,-3.2670991E-3,-5.1411004E-3],"split_indices":[25,77,80,25,103,25,80,0,0,0,0,0,0,0,0],"split_type":[0,0,0,0,0,0,0,0,0,0,0,0,0,0,0],"sum_hessian":[5.1934336E3,2.6138823E3,2.5795513E3,7.8506305E2,1.8288193E3,1.3110927E3,1.2684587E3,2.6623834E2,5.188247E2,6.1832733E2,1.2104921E3,7.206035E2,5.9048914E2,7.6788275E2,5.0057602E2],"tree_param":{"num_deleted":"0","num_feature":"280","num_nodes":"15","size_leaf_vector":"1"}},{"base_weights":[1.0926328E-1,-4.7265213E-2,2.6783186E-1,1.6574652E-1,-1.3874604E-1,1.3877594E-1,4.0101102E-1,-3.805752E-4,2.7020194E-3,-2.8390586E-3,-6.4424303E-4,4.1688277E-4,2.569861E-3,3.2670998E-3,5.141101E-3],"categories":[],"categories_nodes":[],"categories_segments":[],"categories_sizes":[],"default_left":[0,0,0,0,0,0,0,0,0,0,0,0,0,0,0],"id":73,"left_children":[1,3,5,7,9,11,13,-1,-1,-1,-1,-1,-1,-1,-1],"loss_changes":[1.2894109E2,5.097788E1,4.429773E1,1.6744339E1,1.972277E1,1.5047844E1,1.0499786E1,0E0,0E0,0E0,0E0,0E0,0E0,0E0,0E0],"parents":[2147483647,0,0,1,1,2,2,3,3,4,4,5,5,6,6],"right_children":[2,4,6,8,10,12,14,-1,-1,-1,-1,-1,-1,-1,-1],"split_conditions":[3E-1,-2.4E0,1.3E1,-4.9E0,8E0,4.5E0,2.3E1,-3.805752E-4,2.7020194E-3,-2.8390586E-3,-6.4424303E-4,4.1688277E-4,2.569861E-3,3.2670998E-3,5.141101E-3],"split_indices":[25,77,80,25,103,25,80,0,0,0,0,0,0,0,0],"split_type":[0,0,0,0,0,0,0,0,0,0,0,0,0,0,0],"sum_hessian":[5.1934336E3,2.6138823E3,2.5795515E3,7.8506305E2,1.8288193E3,1.3110927E3,1.2684587E3,2.6623834E2,5.188247E2,6.1832733E2,1.2104921E3,7.206035E2,5.9048914E2,7.6788275E2,5.0057602E2],"tree_param":{"num_deleted":"0","num_feature":"280","num_nodes":"15","size_leaf_vector":"1"}},{"base_weights":[-1.0822647E-1,-2.3820314E-1,7.9813175E-2,-3.2214716E-1,-2.0249158E-2,1.570173E-1,-1.4808379E-1,-2.438718E-3,-4.4306936E-3,8.8929926E-4,-1.6118902E-3,3.7595743E-4,2.311632E-3,-2.3175701E-3,1.1405469E-3],"categories":[],"categories_nodes":[],"categories_segments":[],"categories_sizes":[],"default_left":[0,0,0,0,0,0,0,0,0,0,0,0,0,0,0],"id":74,"left_children":[1,3,5,7,9,11,13,-1,-1,-1,-1,-1,-1,-1,-1],"loss_changes":[1.26912674E2,5.6164886E1,3.737178E1,2.0870865E1,1.3166768E1,1.4035347E1,1.1819438E1,0E0,0E0,0E0,0E0,0E0,0E0,0E0,0E0],"parents":[2147483647,0,0,1,1,2,2,3,3,4,4,5,5,6,6],"right_children":[2,4,6,8,10,12,14,-1,-1,-1,-1,-1,-1,-1,-1],"split_conditions":[1.7E1,3.8E0,2.2E1,2E1,4E0,1.7E1,2.7E1,-2.438718E-3,-4.4306936E-3,8.8929926E-4,-1.6118902E-3,3.7595743E-4,2.311632E-3,-2.3175701E-3,1.1405469E-3],"split_indices":[27,77,80,80,25,47,28,0,0,0,0,0,0,0,0],"split_type":[0,0,0,0,0,0,0,0,0,0,0,0,0,0,0],"sum_hessian":[5.1908857E3,3.0691575E3,2.1217283E3,2.21542E3,8.5373755E2,1.5850691E3,5.366592E2,1.3466945E3,8.687255E2,4.8128165E2,3.724559E2,6.077371E2,9.773319E2,4.0689597E2,1.2976318E2],"tree_param":{"num_deleted":"0","num_feature":"280","num_nodes":"15","size_leaf_vector":"1"}},{"base_weights":[1.08226456E-1,2.3820311E-1,-7.9813175E-2,3.2214716E-1,2.0249134E-2,-1.570173E-1,1.4808379E-1,2.4387178E-3,4.4306936E-3,-8.892997E-4,1.6118902E-3,-3.759575E-4,-2.311632E-3,2.3175701E-3,-1.1405469E-3],"categories":[],"categories_nodes":[],"categories_segments":[],"categories_sizes":[],"default_left":[0,0,0,0,0,0,0,0,0,0,0,0,0,0,0],"id":75,"left_children":[1,3,5,7,9,11,13,-1,-1,-1,-1,-1,-1,-1,-1],"loss_changes":[1.2691266E2,5.6164886E1,3.7371773E1,2.0870865E1,1.3166772E1,1.4035347E1,1.1819437E1,0E0,0E0,0E0,0E0,0E0,0E0,0E0,0E0],"parents":[2147483647,0,0,1,1,2,2,3,3,4,4,5,5,6,6],"right_children":[2,4,6,8,10,12,14,-1,-1,-1,-1,-1,-1,-1,-1],"split_conditions":[1.7E1,3.8E0,2.2E1,2E1,4E0,1.7E1,2.7E1,2.4387178E-3,4.4306936E-3,-8.892997E-4,1.6118902E-3,-3.759575E-4,-2.311632E-3,2.3175701E-3,-1.1405469E-3],"split_indices":[27,77,80,80,25,47,28,0,0,0,0,0,0,0,0],"split_type":[0,0,0,0,0,0,0,0,0,0,0,0,0,0,0],"sum_hessian":[5.1908857E3,3.0691575E3,2.1217283E3,2.21542E3,8.5373755E2,1.5850691E3,5.366592E2,1.3466945E3,8.687255E2,4.8128165E2,3.724559E2,6.077371E2,9.773319E2,4.0689597E2,1.2976318E2],"tree_param":{"num_deleted":"0","num_feature":"280","num_nodes":"15","size_leaf_vector":"1"}},{"base_weights":[-1.0719599E-1,-2.6683527E-1,4.340245E-2,-3.3149916E-1,-1.6948152E-2,1.9903417E-1,-8.077958E-2,-2.735116E-3,-5.1220953E-3,-4.0322944E-4,6.013497E-3,3.688274E-3,1.4074033E-3,9.394705E-4,-1.7668982E-3],"categories":[],"categories_nodes":[],"categories_segments":[],"categories_sizes":[],"default_left":[0,0,0,0,0,0,0,0,0,0,0,0,0,0,0],"id":76,"left_children":[1,3,5,7,9,11,13,-1,-1,-1,-1,-1,-1,-1,-1],"loss_changes":[1.247738E2,4.0702255E1,5.1641632E1,2.0831497E1,7.524433E0,1.1684803E1,2.4926323E1,0E0,0E0,0E0,0E0,0E0,0E0,0E0,0E0],"parents":[2147483647,0,0,1,1,2,2,3,3,4,4,5,5,6,6],"right_children":[2,4,6,8,10,12,14,-1,-1,-1,-1,-1,-1,-1,-1],"split_conditions":[1.5E1,4.9E0,1.4E1,2.3E1,9E0,-5.9E0,-4.7E0,-2.735116E-3,-5.1220953E-3,-4.0322944E-4,6.013497E-3,3.688274E-3,1.4074033E-3,9.394705E-4,-1.7668982E-3],"split_indices":[51,77,103,80,180,25,25,0,0,0,0,0,0,0,0],"split_type":[0,0,0,0,0,0,0,0,0,0,0,0,0,0,0],"sum_hessian":[5.1884683E3,2.518259E3,2.670209E3,2.000308E3,5.179511E2,1.1847778E3,1.4854312E3,1.5162708E3,4.8403723E2,4.9998398E2,1.7967144E1,3.0144058E2,8.833372E2,5.26425E2,9.5900616E2],"tree_param":{"num_deleted":"0","num_feature":"280","num_nodes":"15","size_leaf_vector":"1"}},{"base_weights":[1.0719599E-1,2.6683527E-1,-4.340245E-2,3.3149916E-1,1.694812E-2,-1.9903417E-1,8.077958E-2,2.7351165E-3,5.1220953E-3,4.0322915E-4,-6.013497E-3,-3.688274E-3,-1.4074035E-3,-9.3947066E-4,1.7668982E-3],"categories":[],"categories_nodes":[],"categories_segments":[],"categories_sizes":[],"default_left":[0,0,0,0,0,0,0,0,0,0,0,0,0,0,0],"id":77,"left_children":[1,3,5,7,9,11,13,-1,-1,-1,-1,-1,-1,-1,-1],"loss_changes":[1.24773796E2,4.070227E1,5.1641632E1,2.0831512E1,7.524432E0,1.1684803E1,2.4926323E1,0E0,0E0,0E0,0E0,0E0,0E0,0E0,0E0],"parents":[2147483647,0,0,1,1,2,2,3,3,4,4,5,5,6,6],"right_children":[2,4,6,8,10,12,14,-1,-1,-1,-1,-1,-1,-1,-1],"split_conditions":[1.5E1,4.9E0,1.4E1,2.3E1,9E0,-5.9E0,-4.7E0,2.7351165E-3,5.1220953E-3,4.0322915E-4,-6.013497E-3,-3.688274E-3,-1.4074035E-3,-9.3947066E-4,1.7668982E-3],"split_indices":[51,77,103,80,180,25,25,0,0,0,0,0,0,0,0],"split_type":[0,0,0,0,0,0,0,0,0,0,0,0,0,0,0],"sum_hessian":[5.1884683E3,2.518259E3,2.670209E3,2.000308E3,5.179511E2,1.1847778E3,1.4854312E3,1.5162708E3,4.8403726E2,4.9998398E2,1.7967146E1,3.0144058E2,8.833372E2,5.26425E2,9.5900616E2],"tree_param":{"num_deleted":"0","num_feature":"280","num_nodes":"15","size_leaf_vector":"1"}},{"base_weights":[-1.0617799E-1,8.6430684E-2,-2.2885296E-1,-1.465386E-1,1.611852E-1,-8.073551E-2,-3.4987473E-1,8.914709E-5,-2.6546908E-3,3.359024E-4,2.3471816E-3,-2.2872074E-3,5.4252945E-4,-3.049124E-3,-5.1292214E-3],"categories":[],"categories_nodes":[],"categories_segments":[],"categories_sizes":[],"default_left":[0,0,0,0,0,0,0,0,0,0,0,0,0,0,0],"id":78,"left_children":[1,3,5,7,9,11,13,-1,-1,-1,-1,-1,-1,-1,-1],"loss_changes":[1.2257591E2,3.5183716E1,5.6776535E1,9.079464E0,1.4337177E1,2.850375E1,1.2626602E1,0E0,0E0,0E0,0E0,0E0,0E0,0E0,0E0],"parents":[2147483647,0,0,1,1,2,2,3,3,4,4,5,5,6,6],"right_children":[2,4,6,8,10,12,14,-1,-1,-1,-1,-1,-1,-1,-1],"split_conditions":[4.62E-1,3.75E-1,1.3E1,-4.7E0,1.7E1,9E0,3.7E1,8.914709E-5,-2.6546908E-3,3.359024E-4,2.3471816E-3,-2.2872074E-3,5.4252945E-4,-3.049124E-3,-5.1292214E-3],"split_indices":[3,55,103,25,47,51,54,0,0,0,0,0,0,0,0],"split_type":[0,0,0,0,0,0,0,0,0,0,0,0,0,0,0],"sum_hessian":[5.185845E3,2.017896E3,3.1679492E3,4.8996878E2,1.5279272E3,1.4252571E3,1.742692E3,2.1277583E2,2.7719296E2,5.5914734E2,9.687799E2,6.795668E2,7.456903E2,1.3682506E3,3.744414E2],"tree_param":{"num_deleted":"0","num_feature":"280","num_nodes":"15","size_leaf_vector":"1"}},{"base_weights":[1.0617798E-1,-8.643068E-2,2.2885293E-1,1.465386E-1,-1.6118519E-1,8.073551E-2,3.4987468E-1,-8.914674E-5,2.6546908E-3,-3.359023E-4,-2.3471816E-3,2.2872072E-3,-5.425293E-4,3.0491238E-3,5.1292214E-3],"categories":[],"categories_nodes":[],"categories_segments":[],"categories_sizes":[],"default_left":[0,0,0,0,0,0,0,0,0,0,0,0,0,0,0],"id":79,"left_children":[1,3,5,7,9,11,13,-1,-1,-1,-1,-1,-1,-1,-1],"loss_changes":[1.2257588E2,3.5183716E1,5.6776535E1,9.079462E0,1.4337177E1,2.8503738E1,1.2626587E1,0E0,0E0,0E0,0E0,0E0,0E0,0E0,0E0],"parents":[2147483647,0,0,1,1,2,2,3,3,4,4,5,5,6,6],"right_children":[2,4,6,8,10,12,14,-1,-1,-1,-1,-1,-1,-1,-1],"split_conditions":[4.62E-1,3.75E-1,1.3E1,-4.7E0,1.7E1,9E0,3.7E1,-8.914674E-5,2.6546908E-3,-3.359023E-4,-2.3471816E-3,2.2872072E-3,-5.425293E-4,3.0491238E-3,5.1292214E-3],"split_indices":[3,55,103,25,47,51,54,0,0,0,0,0,0,0,0],"split_type":[0,0,0,0,0,0,0,0,0,0,0,0,0,0,0],"sum_hessian":[5.185845E3,2.017896E3,3.1679492E3,4.8996878E2,1.5279272E3,1.4252571E3,1.742692E3,2.1277583E2,2.7719293E2,5.5914734E2,9.687799E2,6.7956683E2,7.456903E2,1.3682506E3,3.7444144E2],"tree_param":{"num_deleted":"0","num_feature":"280","num_nodes":"15","size_leaf_vector":"1"}},{"base_weights":[-1.0516938E-1,-2.6219672E-1,4.281783E-2,-3.260847E-1,-1.572363E-2,-1.6620278E-1,1.323474E-1,-2.6872833E-3,-5.0527286E-3,-1.0843244E-3,1.3999185E-3,6.17192E-4,-2.5583657E-3,2.6784495E-3,6.219712E-4],"categories":[],"categories_nodes":[],"categories_segments":[],"categories_sizes":[],"default_left":[0,0,0,0,0,0,0,0,0,0,0,0,0,0,0],"id":80,"left_children":[1,3,5,7,9,11,13,-1,-1,-1,-1,-1,-1,-1,-1],"loss_changes":[1.2048535E2,3.9605423E1,4.9984535E1,2.0394958E1,7.505619E0,1.6381563E1,1.7755936E1,0E0,0E0,0E0,0E0,0E0,0E0,0E0,0E0],"parents":[2147483647,0,0,1,1,2,2,3,3,4,4,5,5,6,6],"right_children":[2,4,6,8,10,12,14,-1,-1,-1,-1,-1,-1,-1,-1],"split_conditions":[1.5E1,4.9E0,-2.4E0,2.3E1,1.8E1,3.2E-1,8E0,-2.6872833E-3,-5.0527286E-3,-1.0843244E-3,1.3999185E-3,6.17192E-4,-2.5583657E-3,2.6784495E-3,6.219712E-4],"split_indices":[51,77,77,80,201,3,103,0,0,0,0,0,0,0,0],"split_type":[0,0,0,0,0,0,0,0,0,0,0,0,0,0,0],"sum_hessian":[5.18335E3,2.5144875E3,2.6688625E3,1.9966224E3,5.178651E2,8.000847E2,1.8687778E3,1.5143829E3,4.8223947E2,3.247947E2,1.9307039E2,2.2592108E2,5.7416364E2,6.3651337E2,1.2322645E3],"tree_param":{"num_deleted":"0","num_feature":"280","num_nodes":"15","size_leaf_vector":"1"}},{"base_weights":[1.05169386E-1,2.6219672E-1,-4.2817824E-2,3.260847E-1,1.572366E-2,1.662028E-1,-1.3234739E-1,2.687283E-3,5.052729E-3,1.0843247E-3,-1.3999181E-3,-6.171917E-4,2.558366E-3,-2.6784495E-3,-6.2197115E-4],"categories":[],"categories_nodes":[],"categories_segments":[],"categories_sizes":[],"default_left":[0,0,0,0,0,0,0,0,0,0,0,0,0,0,0],"id":81,"left_children":[1,3,5,7,9,11,13,-1,-1,-1,-1,-1,-1,-1,-1],"loss_changes":[1.2048536E2,3.9605423E1,4.9984543E1,2.0394958E1,7.505619E0,1.6381557E1,1.7755936E1,0E0,0E0,0E0,0E0,0E0,0E0,0E0,0E0],"parents":[2147483647,0,0,1,1,2,2,3,3,4,4,5,5,6,6],"right_children":[2,4,6,8,10,12,14,-1,-1,-1,-1,-1,-1,-1,-1],"split_conditions":[1.5E1,4.9E0,-2.4E0,2.3E1,1.8E1,3.2E-1,8E0,2.687283E-3,5.052729E-3,1.0843247E-3,-1.3999181E-3,-6.171917E-4,2.558366E-3,-2.6784495E-3,-6.2197115E-4],"split_indices":[51,77,77,80,201,3,103,0,0,0,0,0,0,0,0],"split_type":[0,0,0,0,0,0,0,0,0,0,0,0,0,0,0],"sum_hessian":[5.18335E3,2.5144875E3,2.6688625E3,1.9966224E3,5.178651E2,8.000847E2,1.8687778E3,1.5143829E3,4.822395E2,3.247947E2,1.9307039E2,2.2592108E2,5.7416364E2,6.3651337E2,1.2322645E3],"tree_param":{"num_deleted":"0","num_feature":"280","num_nodes":"15","size_leaf_vector":"1"}},{"base_weights":[-1.0417255E-1,-2.3009296E-1,7.768447E-2,-9.033882E-2,-3.5442504E-1,1.5251856E-1,-1.4330475E-1,-2.0379005E-3,2.2504907E-4,-5.5645686E-3,-3.095318E-3,3.562775E-4,2.2513424E-3,