{"learner":{"attributes":{},"feature_names":[],"feature_types":[],"gradient_booster":{"model":{"gbtree_model_param":{"num_parallel_tree":"1","num_trees":"200"},"iteration_indptr":[0,2,4,6,8,10,12,14,16,18,20,22,24,26,28,30,32,34,36,38,40,42,44,46,48,50,52,54,56,58,60,62,64,66,68,70,72,74,76,78,80,82,84,86,88,90,92,94,96,98,100,102,104,106,108,110,112,114,116,118,120,122,124,126,128,130,132,134,136,138,140,142,144,146,148,150,152,154,156,158,160,162,164,166,168,170,172,174,176,178,180,182,184,186,188,190,192,194,196,198,200],"tree_info":[0,1,0,1,0,1,0,1,0,1,0,1,0,1,0,1,0,1,0,1,0,1,0,1,0,1,0,1,0,1,0,1,0,1,0,1,0,1,0,1,0,1,0,1,0,1,0,1,0,1,0,1,0,1,0,1,0,1,0,1,0,1,0,1,0,1,0,1,0,1,0,1,0,1,0,1,0,1,0,1,0,1,0,1,0,1,0,1,0,1,0,1,0,1,0,1,0,1,0,1,0,1,0,1,0,1,0,1,0,1,0,1,0,1,0,1,0,1,0,1,0,1,0,1,0,1,0,1,0,1,0,1,0,1,0,1,0,1,0,1,0,1,0,1,0,1,0,1,0,1,0,1,0,1,0,1,0,1,0,1,0,1,0,1,0,1,0,1,0,1,0,1,0,1,0,1,0,1,0,1,0,1,0,1,0,1,0,1,0,1,0,1,0,1,0,1,0,1,0,1],"trees":[{"base_weights":[-1.5423454E-1,-3.7062126E-1,5.5513877E-2,-2.0046172E-1,-5.4241246E-1,-1.8942732E-1,2.075357E-1,-3.060968E-3,-3.3663365E-4,-4.4344473E-3,-6.929134E-3,7.972028E-4,-3.3383458E-3,9.850106E-4,3.5017543E-3],"categories":[],"categories_nodes":[],"categories_segments":[],"categories_sizes":[],"default_left":[0,0,0,0,0,0,0,0,0,0,0,0,0,0,0],"id":0,"left_children":[1,3,5,7,9,11,13,-1,-1,-1,-1,-1,-1,-1,-1],"loss_changes":[2.3823305E2,7.541193E1,9.931158E1,2.2886574E1,1.8832458E1,3.9729115E1,2.5557426E1,0E0,0E0,0E0,0E0,0E0,0E0,0E0,0E0],"parents":[2147483647,0,0,1,1,2,2,3,3,4,4,5,5,6,6],"right_children":[2,4,6,8,10,12,14,-1,-1,-1,-1,-1,-1,-1,-1],"split_conditions":[1.5E1,1.3E1,-1.3E0,5.1E0,2.3E1,-4.7E0,2.4E1,-3.060968E-3,-3.3663365E-4,-4.4344473E-3,-6.929134E-3,7.972028E-4,-3.3383458E-3,9.850106E-4,3.5017543E-3],"split_indices":[51,80,77,77,80,25,51,0,0,0,0,0,0,0,0],"split_type":[0,0,0,0,0,0,0,0,0,0,0,0,0,0,0],"sum_hessian":[5.2475E3,2.5825E3,2.665E3,1.2985E3,1.284E3,1.0205E3,1.6445E3,7.945E2,5.04E2,7.77E2,5.07E2,3.565E2,6.64E2,9.33E2,7.115E2],"tree_param":{"num_deleted":"0","num_feature":"280","num_nodes":"15","size_leaf_vector":"1"}},{"base_weights":[1.5423454E-1,3.7062126E-1,-5.5513877E-2,2.0046172E-1,5.4241246E-1,1.8942732E-1,-2.075357E-1,3.060968E-3,3.3663365E-4,4.4344473E-3,6.929134E-3,-7.972028E-4,3.3383458E-3,-9.850106E-4,-3.5017543E-3],"categories":[],"categories_nodes":[],"categories_segments":[],"categories_sizes":[],"default_left":[0,0,0,0,0,0,0,0,0,0,0,0,0,0,0],"id":1,"left_children":[1,3,5,7,9,11,13,-1,-1,-1,-1,-1,-1,-1,-1],"loss_changes":[2.3823305E2,7.541193E1,9.931158E1,2.2886574E1,1.8832458E1,3.9729115E1,2.5557426E1,0E0,0E0,0E0,0E0,0E0,0E0,0E0,0E0],"parents":[2147483647,0,0,1,1,2,2,3,3,4,4,5,5,6,6],"right_children":[2,4,6,8,10,12,14,-1,-1,-1,-1,-1,-1,-1,-1],"split_conditions":[1.5E1,1.3E1,-1.3E0,5.1E0,2.3E1,-4.7E0,2.4E1,3.060968E-3,3.3663365E-4,4.4344473E-3,6.929134E-3,-7.972028E-4,3.3383458E-3,-9.850106E-4,-3.5017543E-3],"split_indices":[51,80,77,77,80,25,51,0,0,0,0,0,0,0,0],"split_type":[0,0,0,0,0,0,0,0,0,0,0,0,0,0,0],"sum_hessian":[5.2475E3,2.5825E3,2.665E3,1.2985E3,1.284E3,1.0205E3,1.6445E3,7.945E2,5.04E2,7.77E2,5.07E2,3.565E2,6.64E2,9.33E2,7.115E2],"tree_param":{"num_deleted":"0","num_feature":"280","num_nodes":"15","size_leaf_vector":"1"}},{"base_weights":[-1.5269653E-1,-3.6692747E-1,5.4959808E-2,-1.9846082E-1,-5.370138E-1,-1.8753694E-1,2.0546426E-1,-3.0304242E-3,-3.332739E-4,-4.3902467E-3,-6.8603083E-3,7.892541E-4,-3.3050494E-3,9.751719E-4,3.466828E-3],"categories":[],"categories_nodes":[],"categories_segments":[],"categories_sizes":[],"default_left":[0,0,0,0,0,0,0,0,0,0,0,0,0,0,0],"id":2,"left_children":[1,3,5,7,9,11,13,-1,-1,-1,-1,-1,-1,-1,-1],"loss_changes":[2.3350421E2,7.391937E1,9.733848E1,2.2432034E1,1.8461884E1,3.894045E1,2.5050262E1,0E0,0E0,0E0,0E0,0E0,0E0,0E0,0E0],"parents":[2147483647,0,0,1,1,2,2,3,3,4,4,5,5,6,6],"right_children":[2,4,6,8,10,12,14,-1,-1,-1,-1,-1,-1,-1,-1],"split_conditions":[1.5E1,1.3E1,-1.3E0,5.1E0,2.3E1,-4.7E0,2.4E1,-3.0304242E-3,-3.332739E-4,-4.3902467E-3,-6.8603083E-3,7.892541E-4,-3.3050494E-3,9.751719E-4,3.466828E-3],"split_indices":[51,80,77,77,80,25,51,0,0,0,0,0,0,0,0],"split_type":[0,0,0,0,0,0,0,0,0,0,0,0,0,0,0],"sum_hessian":[5.2474355E3,2.582453E3,2.6649827E3,1.2984926E3,1.2839603E3,1.02049243E3,1.6444904E3,7.944926E2,5.0399994E2,7.769847E2,5.0697565E2,3.5649976E2,6.639926E2,9.329991E2,7.114913E2],"tree_param":{"num_deleted":"0","num_feature":"280","num_nodes":"15","size_leaf_vector":"1"}},{"base_weights":[1.5269652E-1,3.6692747E-1,-5.4959834E-2,1.9846088E-1,5.3701377E-1,1.8753695E-1,-2.0546432E-1,3.0304252E-3,3.332739E-4,4.390246E-3,6.8603083E-3,-7.8925287E-4,3.3050494E-3,-9.751728E-4,-3.466828E-3],"categories":[],"categories_nodes":[],"categories_segments":[],"categories_sizes":[],"default_left":[0,0,0,0,0,0,0,0,0,0,0,0,0,0,0],"id":3,"left_children":[1,3,5,7,9,11,13,-1,-1,-1,-1,-1,-1,-1,-1],"loss_changes":[2.3350424E2,7.391934E1,9.73385E1,2.2432056E1,1.8461884E1,3.894042E1,2.5050247E1,0E0,0E0,0E0,0E0,0E0,0E0,0E0,0E0],"parents":[2147483647,0,0,1,1,2,2,3,3,4,4,5,5,6,6],"right_children":[2,4,6,8,10,12,14,-1,-1,-1,-1,-1,-1,-1,-1],"split_conditions":[1.5E1,1.3E1,-1.3E0,5.1E0,2.3E1,-4.7E0,2.4E1,3.0304252E-3,3.332739E-4,4.390246E-3,6.8603083E-3,-7.8925287E-4,3.3050494E-3,-9.751728E-4,-3.466828E-3],"split_indices":[51,80,77,77,80,25,51,0,0,0,0,0,0,0,0],"split_type":[0,0,0,0,0,0,0,0,0,0,0,0,0,0,0],"sum_hessian":[5.2474355E3,2.582453E3,2.6649827E3,1.2984926E3,1.2839603E3,1.0204924E3,1.6444904E3,7.9449255E2,5.0399994E2,7.7698474E2,5.0697565E2,3.5649976E2,6.639926E2,9.329991E2,7.114913E2],"tree_param":{"num_deleted":"0","num_feature":"280","num_nodes":"15","size_leaf_vector":"1"}},{"base_weights":[-1.5117753E-1,-3.632836E-1,5.4412007E-2,-1.8530281E-1,-5.2118045E-1,-1.8566814E-1,2.0341589E-1,-2.756058E-3,-5.4666893E-5,-4.273593E-3,-6.7928093E-3,7.8138476E-4,-3.2721567E-3,9.654338E-4,3.4323337E-3],"categories":[],"categories_nodes":[],"categories_segments":[],"categories_sizes":[],"default_left":[0,0,0,0,0,0,0,0,0,0,0,0,0,0,0],"id":4,"left_children":[1,3,5,7,9,11,13,-1,-1,-1,-1,-1,-1,-1,-1],"loss_changes":[2.2887888E2,7.250125E1,9.54058E1,1.9745583E1,2.0006561E1,3.8168446E1,2.4554413E1,0E0,0E0,0E0,0E0,0E0,0E0,0E0,0E0],"parents":[2147483647,0,0,1,1,2,2,3,3,4,4,5,5,6,6],"right_children":[2,4,6,8,10,12,14,-1,-1,-1,-1,-1,-1,-1,-1],"split_conditions":[1.5E1,1.2E1,-1.3E0,6E0,2.3E1,-4.7E0,2.4E1,-2.756058E-3,-5.4666893E-5,-4.273593E-3,-6.7928093E-3,7.8138476E-4,-3.2721567E-3,9.654338E-4,3.4323337E-3],"split_indices":[51,80,77,77,80,25,51,0,0,0,0,0,0,0,0],"split_type":[0,0,0,0,0,0,0,0,0,0,0,0,0,0,0],"sum_hessian":[5.247245E3,2.5823135E3,2.6649316E3,1.2149734E3,1.3673401E3,1.0204698E3,1.6444619E3,8.084735E2,4.0649982E2,8.6043646E2,5.0690356E2,3.564991E2,6.639707E2,9.3299646E2,7.1146545E2],"tree_param":{"num_deleted":"0","num_feature":"280","num_nodes":"15","size_leaf_vector":"1"}},{"base_weights":[1.5117754E-1,3.632836E-1,-5.4411996E-2,1.8530287E-1,5.2118045E-1,1.8566816E-1,-2.0341589E-1,2.7560587E-3,5.4666594E-5,4.273593E-3,6.7928084E-3,-7.8138476E-4,3.272157E-3,-9.654338E-4,-3.4323337E-3],"categories":[],"categories_nodes":[],"categories_segments":[],"categories_sizes":[],"default_left":[0,0,0,0,0,0,0,0,0,0,0,0,0,0,0],"id":5,"left_children":[1,3,5,7,9,11,13,-1,-1,-1,-1,-1,-1,-1,-1],"loss_changes":[2.2887889E2,7.250122E1,9.5405815E1,1.9745602E1,2.000653E1,3.8168465E1,2.4554413E1,0E0,0E0,0E0,0E0,0E0,0E0,0E0,0E0],"parents":[2147483647,0,0,1,1,2,2,3,3,4,4,5,5,6,6],"right_children":[2,4,6,8,10,12,14,-1,-1,-1,-1,-1,-1,-1,-1],"split_conditions":[1.5E1,1.2E1,-1.3E0,6E0,2.3E1,-4.7E0,2.4E1,2.7560587E-3,5.4666594E-5,4.273593E-3,6.7928084E-3,-7.8138476E-4,3.272157E-3,-9.654338E-4,-3.4323337E-3],"split_indices":[51,80,77,77,80,25,51,0,0,0,0,0,0,0,0],"split_type":[0,0,0,0,0,0,0,0,0,0,0,0,0,0,0],"sum_hessian":[5.247245E3,2.5823135E3,2.6649316E3,1.2149734E3,1.3673401E3,1.02046985E3,1.6444619E3,8.084735E2,4.0649982E2,8.6043646E2,5.069036E2,3.564991E2,6.639707E2,9.3299646E2,7.1146545E2],"tree_param":{"num_deleted":"0","num_feature":"280","num_nodes":"15","size_leaf_vector":"1"}},{"base_weights":[-1.4967702E-1,-3.59688E-1,5.3870283E-2,-1.944813E-1,-5.265157E-1,-1.8382065E-1,2.0139016E-1,-2.9712836E-3,-3.2414272E-4,-4.304378E-3,-6.7265886E-3,7.7359483E-4,-3.2396605E-3,9.5579383E-4,3.3982622E-3],"categories":[],"categories_nodes":[],"categories_segments":[],"categories_sizes":[],"default_left":[0,0,0,0,0,0,0,0,0,0,0,0,0,0,0],"id":6,"left_children":[1,3,5,7,9,11,13,-1,-1,-1,-1,-1,-1,-1,-1],"loss_changes":[2.243537E2,7.109021E1,9.3512665E1,2.160738E1,1.7748444E1,3.741276E1,2.4069595E1,0E0,0E0,0E0,0E0,0E0,0E0,0E0,0E0],"parents":[2147483647,0,0,1,1,2,2,3,3,4,4,5,5,6,6],"right_children":[2,4,6,8,10,12,14,-1,-1,-1,-1,-1,-1,-1,-1],"split_conditions":[1.5E1,1.3E1,-1.3E0,5.1E0,2.3E1,-4.7E0,2.4E1,-2.9712836E-3,-3.2414272E-4,-4.304378E-3,-6.7265886E-3,7.7359483E-4,-3.2396605E-3,9.5579383E-4,3.3982622E-3],"split_indices":[51,80,77,77,80,25,51,0,0,0,0,0,0,0,0],"split_type":[0,0,0,0,0,0,0,0,0,0,0,0,0,0,0],"sum_hessian":[5.2469336E3,2.582086E3,2.6648477E3,1.2984341E3,1.283652E3,1.02043274E3,1.644415E3,7.944354E2,5.0399863E2,7.768667E2,5.0678528E2,3.5649802E2,6.6393475E2,9.32992E2,7.1142303E2],"tree_param":{"num_deleted":"0","num_feature":"280","num_nodes":"15","size_leaf_vector":"1"}},{"base_weights":[1.4967702E-1,3.59688E-1,-5.3870298E-2,1.9448128E-1,5.265157E-1,1.8382062E-1,-2.0139016E-1,2.9712836E-3,3.241427E-4,4.304378E-3,6.7265886E-3,-7.735957E-4,3.2396605E-3,-9.5579383E-4,-3.3982622E-3],"categories":[],"categories_nodes":[],"categories_segments":[],"categories_sizes":[],"default_left":[0,0,0,0,0,0,0,0,0,0,0,0,0,0,0],"id":7,"left_children":[1,3,5,7,9,11,13,-1,-1,-1,-1,-1,-1,-1,-1],"loss_changes":[2.2435374E2,7.109021E1,9.351266E1,2.1607376E1,1.7748444E1,3.741278E1,2.4069595E1,0E0,0E0,0E0,0E0,0E0,0E0,0E0,0E0],"parents":[2147483647,0,0,1,1,2,2,3,3,4,4,5,5,6,6],"right_children":[2,4,6,8,10,12,14,-1,-1,-1,-1,-1,-1,-1,-1],"split_conditions":[1.5E1,1.3E1,-1.3E0,5.1E0,2.3E1,-4.7E0,2.4E1,2.9712836E-3,3.241427E-4,4.304378E-3,6.7265886E-3,-7.735957E-4,3.2396605E-3,-9.5579383E-4,-3.3982622E-3],"split_indices":[51,80,77,77,80,25,51,0,0,0,0,0,0,0,0],"split_type":[0,0,0,0,0,0,0,0,0,0,0,0,0,0,0],"sum_hessian":[5.2469336E3,2.582086E3,2.6648477E3,1.2984341E3,1.283652E3,1.02043274E3,1.644415E3,7.944354E2,5.0399863E2,7.768667E2,5.0678528E2,3.56498E2,6.6393475E2,9.32992E2,7.1142303E2],"tree_param":{"num_deleted":"0","num_feature":"280","num_nodes":"15","size_leaf_vector":"1"}},{"base_weights":[-1.4819497E-1,-3.5614046E-1,5.3334586E-2,-1.6938932E-1,-5.009207E-1,-1.8199413E-1,1.9938679E-1,-2.5723877E-3,9.470541E-5,-4.1188723E-3,-6.661607E-3,7.65883E-4,-3.2075539E-3,9.4625197E-4,3.3646051E-3],"categories":[],"categories_nodes":[],"categories_segments":[],"categories_sizes":[],"default_left":[0,0,0,0,0,0,0,0,0,0,0,0,0,0,0],"id":8,"left_children":[1,3,5,7,9,11,13,-1,-1,-1,-1,-1,-1,-1,-1],"loss_changes":[2.1992699E2,6.974774E1,9.165823E1,1.774857E1,2.112201E1,3.6672985E1,2.3595497E1,0E0,0E0,0E0,0E0,0E0,0E0,0E0,0E0],"parents":[2147483647,0,0,1,1,2,2,3,3,4,4,5,5,6,6],"right_children":[2,4,6,8,10,12,14,-1,-1,-1,-1,-1,-1,-1,-1],"split_conditions":[1.5E1,1.1E1,-1.3E0,1E1,2.3E1,-4.7E0,2.4E1,-2.5723877E-3,9.470541E-5,-4.1188723E-3,-6.661607E-3,7.65883E-4,-3.2075539E-3,9.4625197E-4,3.3646051E-3],"split_indices":[51,80,77,51,80,25,51,0,0,0,0,0,0,0,0],"split_type":[0,0,0,0,0,0,0,0,0,0,0,0,0,0,0],"sum_hessian":[5.246503E3,2.5817708E3,2.6647322E3,1.1284106E3,1.4533601E3,1.0203816E3,1.6443505E3,7.564378E2,3.7197287E2,9.467381E2,5.0662207E2,3.5649646E2,6.6388513E2,9.329859E2,7.1136456E2],"tree_param":{"num_deleted":"0","num_feature":"280","num_nodes":"15","size_leaf_vector":"1"}},{"base_weights":[1.4819494E-1,3.5614043E-1,-5.3334612E-2,1.6938935E-1,5.0092065E-1,1.81994E-1,-1.9938676E-1,2.572388E-3,-9.470524E-5,4.1188714E-3,6.661607E-3,-7.658842E-4,3.2075527E-3,-9.4625226E-4,-3.364604E-3],"categories":[],"categories_nodes":[],"categories_segments":[],"categories_sizes":[],"default_left":[0,0,0,0,0,0,0,0,0,0,0,0,0,0,0],"id":9,"left_children":[1,3,5,7,9,11,13,-1,-1,-1,-1,-1,-1,-1,-1],"loss_changes":[2.1992694E2,6.974777E1,9.165816E1,1.7748577E1,2.112204E1,3.6672985E1,2.3595474E1,0E0,0E0,0E0,0E0,0E0,0E0,0E0,0E0],"parents":[2147483647,0,0,1,1,2,2,3,3,4,4,5,5,6,6],"right_children":[2,4,6,8,10,12,14,-1,-1,-1,-1,-1,-1,-1,-1],"split_conditions":[1.5E1,1.1E1,-1.3E0,1E1,2.3E1,-4.7E0,2.4E1,2.572388E-3,-9.470524E-5,4.1188714E-3,6.661607E-3,-7.658842E-4,3.2075527E-3,-9.4625226E-4,-3.364604E-3],"split_indices":[51,80,77,51,80,25,51,0,0,0,0,0,0,0,0],"split_type":[0,0,0,0,0,0,0,0,0,0,0,0,0,0,0],"sum_hessian":[5.246503E3,2.581771E3,2.6647322E3,1.1284108E3,1.4533601E3,1.0203816E3,1.6443506E3,7.564378E2,3.719729E2,9.467381E2,5.0662207E2,3.5649646E2,6.6388513E2,9.3298596E2,7.1136456E2],"tree_param":{"num_deleted":"0","num_feature":"280","num_nodes":"15","size_leaf_vector":"1"}},{"base_weights":[-1.467302E-1,-3.5263714E-1,5.2804906E-2,-1.9054523E-1,-5.1638263E-1,-1.8491568E-1,1.9457479E-1,-2.7675964E-3,-2.1905033E-5,-4.2214934E-3,-6.5978225E-3,6.6608534E-4,-3.1913372E-3,8.8471855E-4,3.3269364E-3],"categories":[],"categories_nodes":[],"categories_segments":[],"categories_sizes":[],"default_left":[0,0,0,0,0,0,0,0,0,0,0,0,0,0,0],"id":10,"left_children":[1,3,5,7,9,11,13,-1,-1,-1,-1,-1,-1,-1,-1],"loss_changes":[2.155939E2,6.844284E1,8.987052E1,2.1099072E1,1.7072937E1,3.3656136E1,2.4447983E1,0E0,0E0,0E0,0E0,0E0,0E0,0E0,0E0],"parents":[2147483647,0,0,1,1,2,2,3,3,4,4,5,5,6,6],"right_children":[2,4,6,8,10,12,14,-1,-1,-1,-1,-1,-1,-1,-1],"split_conditions":[1.5E1,1.3E1,-1.4E0,6E0,2.3E1,-4.7E0,2.4E1,-2.7675964E-3,-2.1905033E-5,-4.2214934E-3,-6.5978225E-3,6.6608534E-4,-3.1913372E-3,8.8471855E-4,3.3269364E-3],"split_indices":[51,80,77,77,80,25,51,0,0,0,0,0,0,0,0],"split_type":[0,0,0,0,0,0,0,0,0,0,0,0,0,0,0],"sum_hessian":[5.245971E3,2.5813857E3,2.6645854E3,1.2983301E3,1.2830555E3,9.95321E2,1.6692645E3,8.9033386E2,4.0799628E2,7.7664026E2,5.0641534E2,3.4649472E2,6.488263E2,9.4497504E2,7.242895E2],"tree_param":{"num_deleted":"0","num_feature":"280","num_nodes":"15","size_leaf_vector":"1"}},{"base_weights":[1.4673023E-1,3.5263717E-1,-5.2804876E-2,1.9054525E-1,5.1638263E-1,1.8491575E-1,-1.9457479E-1,2.7675969E-3,2.1904703E-5,4.221495E-3,6.5978216E-3,-6.6608534E-4,3.1913384E-3,-8.847185E-4,-3.3269364E-3],"categories":[],"categories_nodes":[],"categories_segments":[],"categories_sizes":[],"default_left":[0,0,0,0,0,0,0,0,0,0,0,0,0,0,0],"id":11,"left_children":[1,3,5,7,9,11,13,-1,-1,-1,-1,-1,-1,-1,-1],"loss_changes":[2.155939E2,6.844284E1,8.987056E1,2.109909E1,1.7072876E1,3.3656162E1,2.4447983E1,0E0,0E0,0E0,0E0,0E0,0E0,0E0,0E0],"parents":[2147483647,0,0,1,1,2,2,3,3,4,4,5,5,6,6],"right_children":[2,4,6,8,10,12,14,-1,-1,-1,-1,-1,-1,-1,-1],"split_conditions":[1.5E1,1.3E1,-1.4E0,6E0,2.3E1,-4.7E0,2.4E1,2.7675969E-3,2.1904703E-5,4.221495E-3,6.5978216E-3,-6.6608534E-4,3.1913384E-3,-8.847185E-4,-3.3269364E-3],"split_indices":[51,80,77,77,80,25,51,0,0,0,0,0,0,0,0],"split_type":[0,0,0,0,0,0,0,0,0,0,0,0,0,0,0],"sum_hessian":[5.245971E3,2.5813857E3,2.6645854E3,1.2983301E3,1.2830557E3,9.95321E2,1.6692645E3,8.903338E2,4.0799628E2,7.7664026E2,5.0641537E2,3.4649472E2,6.488263E2,9.4497504E2,7.242895E2],"tree_param":{"num_deleted":"0","num_feature":"280","num_nodes":"15","size_leaf_vector":"1"}},{"base_weights":[-1.4528339E-1,-3.4918088E-1,5.228092E-2,-1.7789266E-1,-5.012537E-1,-1.7845275E-1,1.9547719E-1,-2.6551413E-3,-3.438262E-5,-4.1097538E-3,-6.535194E-3,7.5086934E-4,-3.145343E-3,9.279793E-4,3.2985467E-3],"categories":[],"categories_nodes":[],"categories_segments":[],"categories_sizes":[],"default_left":[0,0,0,0,0,0,0,0,0,0,0,0,0,0,0],"id":12,"left_children":[1,3,5,7,9,11,13,-1,-1,-1,-1,-1,-1,-1,-1],"loss_changes":[2.1135513E2,6.716516E1,8.8100624E1,1.8583618E1,1.8524261E1,3.5258537E1,2.2669098E1,0E0,0E0,0E0,0E0,0E0,0E0,0E0,0E0],"parents":[2147483647,0,0,1,1,2,2,3,3,4,4,5,5,6,6],"right_children":[2,4,6,8,10,12,14,-1,-1,-1,-1,-1,-1,-1,-1],"split_conditions":[1.5E1,1.2E1,-1.3E0,6E0,2.3E1,-4.7E0,2.4E1,-2.6551413E-3,-3.438262E-5,-4.1097538E-3,-6.535194E-3,7.5086934E-4,-3.145343E-3,9.279793E-4,3.2985467E-3],"split_indices":[51,80,77,77,80,25,51,0,0,0,0,0,0,0,0],"split_type":[0,0,0,0,0,0,0,0,0,0,0,0,0,0,0],"sum_hessian":[5.2453213E3,2.5809097E3,2.6644116E3,1.2147915E3,1.3661182E3,1.0202407E3,1.6441709E3,8.082951E2,4.0649637E2,8.599516E2,5.061665E2,3.5649222E2,6.637485E2,9.329696E2,7.1120135E2],"tree_param":{"num_deleted":"0","num_feature":"280","num_nodes":"15","size_leaf_vector":"1"}},{"base_weights":[1.4528342E-1,3.4918094E-1,-5.2280895E-2,1.778927E-1,5.012538E-1,1.784527E-1,-1.9547713E-1,2.6551415E-3,3.4383265E-5,4.109754E-3,6.535195E-3,-7.508693E-4,3.145342E-3,-9.279791E-4,-3.2985455E-3],"categories":[],"categories_nodes":[],"categories_segments":[],"categories_sizes":[],"default_left":[0,0,0,0,0,0,0,0,0,0,0,0,0,0,0],"id":13,"left_children":[1,3,5,7,9,11,13,-1,-1,-1,-1,-1,-1,-1,-1],"loss_changes":[2.113551E2,6.716519E1,8.810056E1,1.8583607E1,1.8524231E1,3.525853E1,2.2669075E1,0E0,0E0,0E0,0E0,0E0,0E0,0E0,0E0],"parents":[2147483647,0,0,1,1,2,2,3,3,4,4,5,5,6,6],"right_children":[2,4,6,8,10,12,14,-1,-1,-1,-1,-1,-1,-1,-1],"split_conditions":[1.5E1,1.2E1,-1.3E0,6E0,2.3E1,-4.7E0,2.4E1,2.6551415E-3,3.4383265E-5,4.109754E-3,6.535195E-3,-7.508693E-4,3.145342E-3,-9.279791E-4,-3.2985455E-3],"split_indices":[51,80,77,77,80,25,51,0,0,0,0,0,0,0,0],"split_type":[0,0,0,0,0,0,0,0,0,0,0,0,0,0,0],"sum_hessian":[5.2453213E3,2.5809097E3,2.6644116E3,1.2147915E3,1.3661182E3,1.0202408E3,1.6441709E3,8.0829517E2,4.0649637E2,8.5995166E2,5.061665E2,3.5649222E2,6.6374854E2,9.3296954E2,7.1120135E2],"tree_param":{"num_deleted":"0","num_feature":"280","num_nodes":"15","size_leaf_vector":"1"}},{"base_weights":[-1.4385384E-1,1.0873662E-1,-3.0027145E-1,-4.974028E-2,2.976289E-1,-7.813407E-2,-4.331414E-1,1.213246E-3,-1.8156192E-3,4.5100865E-3,2.299154E-3,-2.5089525E-3,7.214052E-4,-3.255034E-3,-5.574825E-3],"categories":[],"categories_nodes":[],"categories_segments":[],"categories_sizes":[],"default_left":[0,0,0,0,0,0,0,0,0,0,0,0,0,0,0],"id":14,"left_children":[1,3,5,7,9,11,13,-1,-1,-1,-1,-1,-1,-1,-1],"loss_changes":[2.0728261E2,6.0088566E1,9.55889E1,2.464928E1,9.406525E0,3.1529715E1,2.6947327E1,0E0,0E0,0E0,0E0,0E0,0E0,0E0,0E0],"parents":[2147483647,0,0,1,1,2,2,3,3,4,4,5,5,6,6],"right_children":[2,4,6,8,10,12,14,-1,-1,-1,-1,-1,-1,-1,-1],"split_conditions":[4.59E-1,5.19E-1,1.1E1,-4.9E0,5E0,9E0,2E1,1.213246E-3,-1.8156192E-3,4.5100865E-3,2.299154E-3,-2.5089525E-3,7.214052E-4,-3.255034E-3,-5.574825E-3],"split_indices":[3,55,103,25,103,51,80,0,0,0,0,0,0,0,0],"split_type":[0,0,0,0,0,0,0,0,0,0,0,0,0,0,0],"sum_hessian":[5.244561E3,2.0058024E3,3.2387588E3,1.0911151E3,9.1468726E2,1.2127772E3,2.0259817E3,4.7490744E2,6.162076E2,2.784047E2,6.362826E2,5.638663E2,6.4891095E2,1.087868E3,9.381137E2],"tree_param":{"num_deleted":"0","num_feature":"280","num_nodes":"15","size_leaf_vector":"1"}},{"base_weights":[1.4385386E-1,-1.0873662E-1,3.0027145E-1,4.974027E-2,-2.976289E-1,7.8134105E-2,4.331414E-1,-1.2132466E-3,1.8156193E-3,-4.5100865E-3,-2.2991537E-3,2.5089527E-3,-7.2140485E-4,3.2550336E-3,5.5748248E-3],"categories":[],"categories_nodes":[],"categories_segments":[],"categories_sizes":[],"default_left":[0,0,0,0,0,0,0,0,0,0,0,0,0,0,0],"id":15,"left_children":[1,3,5,7,9,11,13,-1,-1,-1,-1,-1,-1,-1,-1],"loss_changes":[2.0728264E2,6.0088554E1,9.558887E1,2.4649292E1,9.406532E0,3.152972E1,2.6947296E1,0E0,0E0,0E0,0E0,0E0,0E0,0E0,0E0],"parents":[2147483647,0,0,1,1,2,2,3,3,4,4,5,5,6,6],"right_children":[2,4,6,8,10,12,14,-1,-1,-1,-1,-1,-1,-1,-1],"split_conditions":[4.59E-1,5.19E-1,1.1E1,-4.9E0,5E0,9E0,2E1,-1.2132466E-3,1.8156193E-3,-4.5100865E-3,-2.2991537E-3,2.5089527E-3,-7.2140485E-4,3.2550336E-3,5.5748248E-3],"split_indices":[3,55,103,25,103,51,80,0,0,0,0,0,0,0,0],"split_type":[0,0,0,0,0,0,0,0,0,0,0,0,0,0,0],"sum_hessian":[5.244561E3,2.0058022E3,3.2387588E3,1.091115E3,9.1468726E2,1.2127772E3,2.0259817E3,4.7490744E2,6.1620764E2,2.784047E2,6.3628253E2,5.638662E2,6.4891095E2,1.087868E3,9.381137E2],"tree_param":{"num_deleted":"0","num_feature":"280","num_nodes":"15","size_leaf_vector":"1"}},{"base_weights":[-1.4243641E-1,-3.4281868E-1,5.1668484E-2,-1.6271667E-1,-4.8258582E-1,-1.7967732E-1,1.8962474E-1,-2.4874036E-3,1.2392201E-4,-3.9665387E-3,-6.4226985E-3,6.423924E-4,-3.0988373E-3,8.636287E-4,3.24091E-3],"categories":[],"categories_nodes":[],"categories_segments":[],"categories_sizes":[],"default_left":[0,0,0,0,0,0,0,0,0,0,0,0,0,0,0],"id":16,"left_children":[1,3,5,7,9,11,13,-1,-1,-1,-1,-1,-1,-1,-1],"loss_changes":[2.040161E2,6.48866E1,8.50895E1,1.7012764E1,1.9677979E1,3.1654064E1,2.3159771E1,0E0,0E0,0E0,0E0,0E0,0E0,0E0,0E0],"parents":[2147483647,0,0,1,1,2,2,3,3,4,4,5,5,6,6],"right_children":[2,4,6,8,10,12,14,-1,-1,-1,-1,-1,-1,-1,-1],"split_conditions":[1.5E1,1.1E1,-1.4E0,1E1,2.3E1,-4.7E0,2.4E1,-2.4874036E-3,1.2392201E-4,-3.9665387E-3,-6.4226985E-3,6.423924E-4,-3.0988373E-3,8.636287E-4,3.24091E-3],"split_indices":[51,80,77,51,80,25,51,0,0,0,0,0,0,0,0],"split_type":[0,0,0,0,0,0,0,0,0,0,0,0,0,0,0],"sum_hessian":[5.2438247E3,2.5798135E3,2.6640112E3,1.1281976E3,1.4516158E3,9.950534E2,1.6689576E3,7.562587E2,3.7193893E2,9.4601434E2,5.0560156E2,3.4648584E2,6.485676E2,9.449421E2,7.2401556E2],"tree_param":{"num_deleted":"0","num_feature":"280","num_nodes":"15","size_leaf_vector":"1"}},{"base_weights":[1.424364E-1,3.4281865E-1,-5.166848E-2,1.6271664E-1,4.825858E-1,1.7967734E-1,-1.8962476E-1,2.4874033E-3,-1.2392197E-4,3.9665382E-3,6.4226985E-3,-6.423926E-4,3.0988376E-3,-8.636285E-4,-3.2409104E-3],"categories":[],"categories_nodes":[],"categories_segments":[],"categories_sizes":[],"default_left":[0,0,0,0,0,0,0,0,0,0,0,0,0,0,0],"id":17,"left_children":[1,3,5,7,9,11,13,-1,-1,-1,-1,-1,-1,-1,-1],"loss_changes":[2.0401608E2,6.4886566E1,8.5089516E1,1.701276E1,1.9677979E1,3.1654083E1,2.3159779E1,0E0,0E0,0E0,0E0,0E0,0E0,0E0,0E0],"parents":[2147483647,0,0,1,1,2,2,3,3,4,4,5,5,6,6],"right_children":[2,4,6,8,10,12,14,-1,-1,-1,-1,-1,-1,-1,-1],"split_conditions":[1.5E1,1.1E1,-1.4E0,1E1,2.3E1,-4.7E0,2.4E1,2.4874033E-3,-1.2392197E-4,3.9665382E-3,6.4226985E-3,-6.423926E-4,3.0988376E-3,-8.636285E-4,-3.2409104E-3],"split_indices":[51,80,77,51,80,25,51,0,0,0,0,0,0,0,0],"split_type":[0,0,0,0,0,0,0,0,0,0,0,0,0,0,0],"sum_hessian":[5.2438247E3,2.5798135E3,2.6640112E3,1.1281976E3,1.4516158E3,9.9505347E2,1.6689578E3,7.562587E2,3.7193893E2,9.4601434E2,5.0560156E2,3.4648584E2,6.485676E2,9.449421E2,7.240156E2],"tree_param":{"num_deleted":"0","num_feature":"280","num_nodes":"15","size_leaf_vector":"1"}},{"base_weights":[-1.4103957E-1,-3.394857E-1,5.1157296E-2,-1.8316996E-1,-4.9759E-1,-1.7338805E-1,1.9050016E-1,-2.8221633E-3,-2.6866727E-4,-4.0655388E-3,-6.363164E-3,7.265888E-4,-3.0550256E-3,9.062033E-4,3.2126585E-3],"categories":[],"categories_nodes":[],"categories_segments":[],"categories_sizes":[],"default_left":[0,0,0,0,0,0,0,0,0,0,0,0,0,0,0],"id":18,"left_children":[1,3,5,7,9,11,13,-1,-1,-1,-1,-1,-1,-1,-1],"loss_changes":[2.000232E2,6.3674713E1,8.341012E1,2.0102398E1,1.5933685E1,3.3209045E1,2.145372E1,0E0,0E0,0E0,0E0,0E0,0E0,0E0,0E0],"parents":[2147483647,0,0,1,1,2,2,3,3,4,4,5,5,6,6],"right_children":[2,4,6,8,10,12,14,-1,-1,-1,-1,-1,-1,-1,-1],"split_conditions":[1.5E1,1.3E1,-1.3E0,5.1E0,2.3E1,-4.7E0,2.4E1,-2.8221633E-3,-2.6866727E-4,-4.0655388E-3,-6.363164E-3,7.265888E-4,-3.0550256E-3,9.062033E-4,3.2126585E-3],"split_indices":[51,80,77,77,80,25,51,0,0,0,0,0,0,0,0],"split_type":[0,0,0,0,0,0,0,0,0,0,0,0,0,0,0],"sum_hessian":[5.2428916E3,2.5791323E3,2.6637593E3,1.2979872E3,1.2811451E3,1.01993353E3,1.6438258E3,7.940238E2,5.0396332E2,7.759053E2,5.0523984E2,3.5648132E2,6.634523E2,9.3293555E2,7.108902E2],"tree_param":{"num_deleted":"0","num_feature":"280","num_nodes":"15","size_leaf_vector":"1"}},{"base_weights":[1.4103958E-1,3.3948573E-1,-5.115728E-2,1.8316996E-1,4.9759004E-1,1.7338806E-1,-1.9050014E-1,2.8221637E-3,2.6866677E-4,4.065539E-3,6.3631646E-3,-7.265886E-4,3.0550258E-3,-9.0620335E-4,-3.2126578E-3],"categories":[],"categories_nodes":[],"categories_segments":[],"categories_sizes":[],"default_left":[0,0,0,0,0,0,0,0,0,0,0,0,0,0,0],"id":19,"left_children":[1,3,5,7,9,11,13,-1,-1,-1,-1,-1,-1,-1,-1],"loss_changes":[2.0002321E2,6.3674744E1,8.3410126E1,2.0102402E1,1.5933655E1,3.3209045E1,2.1453705E1,0E0,0E0,0E0,0E0,0E0,0E0,0E0,0E0],"parents":[2147483647,0,0,1,1,2,2,3,3,4,4,5,5,6,6],"right_children":[2,4,6,8,10,12,14,-1,-1,-1,-1,-1,-1,-1,-1],"split_conditions":[1.5E1,1.3E1,-1.3E0,5.1E0,2.3E1,-4.7E0,2.4E1,2.8221637E-3,2.6866677E-4,4.065539E-3,6.3631646E-3,-7.265886E-4,3.0550258E-3,-9.0620335E-4,-3.2126578E-3],"split_indices":[51,80,77,77,80,25,51,0,0,0,0,0,0,0,0],"split_type":[0,0,0,0,0,0,0,0,0,0,0,0,0,0,0],"sum_hessian":[5.2428916E3,2.5791323E3,2.6637593E3,1.2979872E3,1.2811451E3,1.01993353E3,1.6438258E3,7.940238E2,5.0396332E2,7.759053E2,5.0523984E2,3.564813E2,6.634522E2,9.3293555E2,7.1089026E2],"tree_param":{"num_deleted":"0","num_feature":"280","num_nodes":"15","size_leaf_vector":"1"}},{"base_weights":[-1.3965963E-1,1.0626647E-1,-2.920047E-1,-4.849236E-2,2.9073873E-1,-7.52119E-2,-4.217832E-1,1.1715095E-3,-1.761611E-3,4.4235066E-3,2.2381882E-3,-2.4425571E-3,7.1800663E-4,-3.1700658E-3,-5.4292963E-3],"categories":[],"categories_nodes":[],"categories_segments":[],"categories_sizes":[],"default_left":[0,0,0,0,0,0,0,0,0,0,0,0,0,0,0],"id":20,"left_children":[1,3,5,7,9,11,13,-1,-1,-1,-1,-1,-1,-1,-1],"loss_changes":[1.9645758E2,5.728868E1,9.105945E1,2.3109917E1,9.188347E0,3.0177324E1,2.553238E1,0E0,0E0,0E0,0E0,0E0,0E0,0E0,0E0],"parents":[2147483647,0,0,1,1,2,2,3,3,4,4,5,5,6,6],"right_children":[2,4,6,8,10,12,14,-1,-1,-1,-1,-1,-1,-1,-1],"split_conditions":[4.59E-1,5.19E-1,1.1E1,-4.9E0,5E0,9E0,2E1,1.1715095E-3,-1.761611E-3,4.4235066E-3,2.2381882E-3,-2.4425571E-3,7.1800663E-4,-3.1700658E-3,-5.4292963E-3],"split_indices":[3,55,103,25,103,51,80,0,0,0,0,0,0,0,0],"split_type":[0,0,0,0,0,0,0,0,0,0,0,0,0,0,0],"sum_hessian":[5.2418457E3,2.0052054E3,3.2366406E3,1.090822E3,9.143833E2,1.212597E3,2.0240436E3,4.7483353E2,6.159885E2,2.7828906E2,6.3609424E2,5.637277E2,6.4886926E2,1.0872898E3,9.367537E2],"tree_param":{"num_deleted":"0","num_feature":"280","num_nodes":"15","size_leaf_vector":"1"}},{"base_weights":[1.396596E-1,-1.0626643E-1,2.9200464E-1,4.849237E-2,-2.9073867E-1,7.521186E-2,4.2178312E-1,-1.1715096E-3,1.7616112E-3,-4.4235066E-3,-2.2381872E-3,2.442557E-3,-7.18007E-4,3.170065E-3,5.429296E-3],"categories":[],"categories_nodes":[],"categories_segments":[],"categories_sizes":[],"default_left":[0,0,0,0,0,0,0,0,0,0,0,0,0,0,0],"id":21,"left_children":[1,3,5,7,9,11,13,-1,-1,-1,-1,-1,-1,-1,-1],"loss_changes":[1.9645746E2,5.7288654E1,9.105942E1,2.3109922E1,9.188347E0,3.0177322E1,2.553241E1,0E0,0E0,0E0,0E0,0E0,0E0,0E0,0E0],"parents":[2147483647,0,0,1,1,2,2,3,3,4,4,5,5,6,6],"right_children":[2,4,6,8,10,12,14,-1,-1,-1,-1,-1,-1,-1,-1],"split_conditions":[4.59E-1,5.19E-1,1.1E1,-4.9E0,5E0,9E0,2E1,-1.1715096E-3,1.7616112E-3,-4.4235066E-3,-2.2381872E-3,2.442557E-3,-7.18007E-4,3.170065E-3,5.429296E-3],"split_indices":[3,55,103,25,103,51,80,0,0,0,0,0,0,0,0],"split_type":[0,0,0,0,0,0,0,0,0,0,0,0,0,0,0],"sum_hessian":[5.241846E3,2.0052054E3,3.2366406E3,1.090822E3,9.1438336E2,1.212597E3,2.0240436E3,4.7483353E2,6.159885E2,2.782891E2,6.360943E2,5.637277E2,6.4886926E2,1.0872898E3,9.367537E2],"tree_param":{"num_deleted":"0","num_feature":"280","num_nodes":"15","size_leaf_vector":"1"}},{"base_weights":[-1.3829067E-1,-3.333512E-1,5.0557278E-2,-1.579627E-1,-4.6961373E-1,1.9401687E-1,-1.606623E-1,-2.422147E-3,1.349845E-4,-3.857808E-3,-6.2561207E-3,6.510958E-4,2.936897E-3,-3.2675469E-3,1.4161624E-4],"categories":[],"categories_nodes":[],"categories_segments":[],"categories_sizes":[],"default_left":[0,0,0,0,0,0,0,0,0,0,0,0,0,0,0],"id":22,"left_children":[1,3,5,7,9,11,13,-1,-1,-1,-1,-1,-1,-1,-1],"loss_changes":[1.9310942E2,6.155237E1,8.076041E1,1.6312159E1,1.8730347E1,2.0372135E1,3.1310942E1,0E0,0E0,0E0,0E0,0E0,0E0,0E0,0E0],"parents":[2147483647,0,0,1,1,2,2,3,3,4,4,5,5,6,6],"right_children":[2,4,6,8,10,12,14,-1,-1,-1,-1,-1,-1,-1,-1],"split_conditions":[1.5E1,1.1E1,1.7E1,1E1,2.3E1,2E1,2.2E1,-2.422147E-3,1.349845E-4,-3.857808E-3,-6.2561207E-3,6.510958E-4,2.936897E-3,-3.2675469E-3,1.4161624E-4],"split_indices":[51,80,80,51,80,28,28,0,0,0,0,0,0,0,0],"split_type":[0,0,0,0,0,0,0,0,0,0,0,0,0,0,0],"sum_hessian":[5.240841E3,2.5776392E3,2.6632014E3,1.12796E3,1.4496793E3,1.586046E3,1.0771554E3,7.560446E2,3.7191537E2,9.4520355E2,5.0447577E2,6.923195E2,8.9372644E2,5.519261E2,5.252294E2],"tree_param":{"num_deleted":"0","num_feature":"280","num_nodes":"15","size_leaf_vector":"1"}},{"base_weights":[1.3829066E-1,3.333512E-1,-5.0557286E-2,1.579627E-1,4.6961373E-1,-1.9401687E-1,1.6066228E-1,2.422147E-3,-1.3498442E-4,3.857808E-3,6.2561203E-3,-6.510958E-4,-2.936897E-3,3.2675464E-3,-1.4161646E-4],"categories":[],"categories_nodes":[],"categories_segments":[],"categories_sizes":[],"default_left":[0,0,0,0,0,0,0,0,0,0,0,0,0,0,0],"id":23,"left_children":[1,3,5,7,9,11,13,-1,-1,-1,-1,-1,-1,-1,-1],"loss_changes":[1.9310942E2,6.15524E1,8.07604E1,1.6312162E1,1.8730347E1,2.0372131E1,3.1310944E1,0E0,0E0,0E0,0E0,0E0,0E0,0E0,0E0],"parents":[2147483647,0,0,1,1,2,2,3,3,4,4,5,5,6,6],"right_children":[2,4,6,8,10,12,14,-1,-1,-1,-1,-1,-1,-1,-1],"split_conditions":[1.5E1,1.1E1,1.7E1,1E1,2.3E1,2E1,2.2E1,2.422147E-3,-1.3498442E-4,3.857808E-3,6.2561203E-3,-6.510958E-4,-2.936897E-3,3.2675464E-3,-1.4161646E-4],"split_indices":[51,80,80,51,80,28,28,0,0,0,0,0,0,0,0],"split_type":[0,0,0,0,0,0,0,0,0,0,0,0,0,0,0],"sum_hessian":[5.240841E3,2.5776392E3,2.6632014E3,1.12796E3,1.4496793E3,1.586046E3,1.0771554E3,7.5604456E2,3.7191537E2,9.452035E2,5.0447574E2,6.923195E2,8.937265E2,5.519261E2,5.252294E2],"tree_param":{"num_deleted":"0","num_feature":"280","num_nodes":"15","size_leaf_vector":"1"}},{"base_weights":[-1.3694E-1,-3.3013606E-1,5.005663E-2,-1.7790107E-1,-4.8431113E-1,-1.0820595E-1,2.3828354E-1,-2.6089465E-3,3.2881573E-5,-3.954353E-3,-6.1994116E-3,1.0165041E-3,-2.2132793E-3,1.449527E-3,3.6323383E-3],"categories":[],"categories_nodes":[],"categories_segments":[],"categories_sizes":[],"default_left":[0,0,0,0,0,0,0,0,0,0,0,0,0,0,0],"id":24,"left_children":[1,3,5,7,9,11,13,-1,-1,-1,-1,-1,-1,-1,-1],"loss_changes":[1.8934769E2,6.0416016E1,7.938295E1,1.9528923E1,1.5185913E1,3.4393585E1,1.41408E1,0E0,0E0,0E0,0E0,0E0,0E0,0E0,0E0],"parents":[2147483647,0,0,1,1,2,2,3,3,4,4,5,5,6,6],"right_children":[2,4,6,8,10,12,14,-1,-1,-1,-1,-1,-1,-1,-1],"split_conditions":[1.5E1,1.3E1,5.22E-1,6E0,2.3E1,-4.7E0,2.4E1,-2.6089465E-3,3.2881573E-5,-3.954353E-3,-6.1994116E-3,1.0165041E-3,-2.2132793E-3,1.449527E-3,3.6323383E-3],"split_indices":[51,80,55,77,80,25,51,0,0,0,0,0,0,0,0],"split_type":[0,0,0,0,0,0,0,0,0,0,0,0,0,0,0],"sum_hessian":[5.239709E3,2.5767588E3,2.6629504E3,1.2976207E3,1.2791381E3,1.4468518E3,1.2160985E3,8.896687E2,4.07952E2,7.751271E2,5.0401102E2,5.0679007E2,9.400618E2,6.9736566E2,5.187329E2],"tree_param":{"num_deleted":"0","num_feature":"280","num_nodes":"15","size_leaf_vector":"1"}},{"base_weights":[1.3694E-1,3.3013606E-1,-5.0056614E-2,1.7790107E-1,4.8431113E-1,1.0820597E-1,-2.3828353E-1,2.6089468E-3,-3.288203E-5,3.9543523E-3,6.1994116E-3,-1.0165034E-3,2.213279E-3,-1.4495271E-3,-3.6323376E-3],"categories":[],"categories_nodes":[],"categories_segments":[],"categories_sizes":[],"default_left":[0,0,0,0,0,0,0,0,0,0,0,0,0,0,0],"id":25,"left_children":[1,3,5,7,9,11,13,-1,-1,-1,-1,-1,-1,-1,-1],"loss_changes":[1.8934764E2,6.0415985E1,7.938294E1,1.9528934E1,1.5185944E1,3.439357E1,1.41408E1,0E0,0E0,0E0,0E0,0E0,0E0,0E0,0E0],"parents":[2147483647,0,0,1,1,2,2,3,3,4,4,5,5,6,6],"right_children":[2,4,6,8,10,12,14,-1,-1,-1,-1,-1,-1,-1,-1],"split_conditions":[1.5E1,1.3E1,5.22E-1,6E0,2.3E1,-4.7E0,2.4E1,2.6089468E-3,-3.288203E-5,3.9543523E-3,6.1994116E-3,-1.0165034E-3,2.213279E-3,-1.4495271E-3,-3.6323376E-3],"split_indices":[51,80,55,77,80,25,51,0,0,0,0,0,0,0,0],"split_type":[0,0,0,0,0,0,0,0,0,0,0,0,0,0,0],"sum_hessian":[5.239709E3,2.5767588E3,2.6629504E3,1.2976207E3,1.2791381E3,1.4468519E3,1.2160986E3,8.896687E2,4.07952E2,7.75127E2,5.0401102E2,5.0679007E2,9.400618E2,6.9736566E2,5.187329E2],"tree_param":{"num_deleted":"0","num_feature":"280","num_nodes":"15","size_leaf_vector":"1"}},{"base_weights":[-1.3560496E-1,1.03695296E-1,-2.8392175E-1,-4.682818E-2,2.8316274E-1,-7.2348535E-2,-4.1070715E-1,1.1440123E-3,-1.7111967E-3,4.3316777E-3,2.1697253E-3,-2.3780442E-3,7.1505323E-4,-3.086148E-3,-5.2889274E-3],"categories":[],"categories_nodes":[],"categories_segments":[],"categories_sizes":[],"default_left":[0,0,0,0,0,0,0,0,0,0,0,0,0,0,0],"id":26,"left_children":[1,3,5,7,9,11,13,-1,-1,-1,-1,-1,-1,-1,-1],"loss_changes":[1.859897E2,5.419123E1,8.6744965E1,2.1894356E1,8.99054E0,2.8896757E1,2.42406E1,0E0,0E0,0E0,0E0,0E0,0E0,0E0,0E0],"parents":[2147483647,0,0,1,1,2,2,3,3,4,4,5,5,6,6],"right_children":[2,4,6,8,10,12,14,-1,-1,-1,-1,-1,-1,-1,-1],"split_conditions":[4.59E-1,5.19E-1,1.1E1,-4.9E0,5E0,9E0,2E1,1.1440123E-3,-1.7111967E-3,4.3316777E-3,2.1697253E-3,-2.3780442E-3,7.1505323E-4,-3.086148E-3,-5.2889274E-3],"split_indices":[3,55,103,25,103,51,80,0,0,0,0,0,0,0,0],"split_type":[0,0,0,0,0,0,0,0,0,0,0,0,0,0,0],"sum_hessian":[5.2384624E3,2.0045469E3,3.2339155E3,1.0905862E3,9.139607E2,1.21236E3,2.0215555E3,4.74783E2,6.1580316E2,2.7812024E2,6.3584045E2,5.6354095E2,6.4881903E2,1.0865616E3,9.3499396E2],"tree_param":{"num_deleted":"0","num_feature":"280","num_nodes":"15","size_leaf_vector":"1"}},{"base_weights":[1.3560496E-1,-1.03695296E-1,2.8392175E-1,4.682818E-2,-2.8316274E-1,7.234855E-2,4.1070718E-1,-1.1440126E-3,1.7111968E-3,-4.331678E-3,-2.169725E-3,2.3780442E-3,-7.1505306E-4,3.086148E-3,5.2889274E-3],"categories":[],"categories_nodes":[],"categories_segments":[],"categories_sizes":[],"default_left":[0,0,0,0,0,0,0,0,0,0,0,0,0,0,0],"id":27,"left_children":[1,3,5,7,9,11,13,-1,-1,-1,-1,-1,-1,-1,-1],"loss_changes":[1.859897E2,5.419123E1,8.6744965E1,2.1894367E1,8.990547E0,2.8896755E1,2.4240631E1,0E0,0E0,0E0,0E0,0E0,0E0,0E0,0E0],"parents":[2147483647,0,0,1,1,2,2,3,3,4,4,5,5,6,6],"right_children":[2,4,6,8,10,12,14,-1,-1,-1,-1,-1,-1,-1,-1],"split_conditions":[4.59E-1,5.19E-1,1.1E1,-4.9E0,5E0,9E0,2E1,-1.1440126E-3,1.7111968E-3,-4.331678E-3,-2.169725E-3,2.3780442E-3,-7.1505306E-4,3.086148E-3,5.2889274E-3],"split_indices":[3,55,103,25,103,51,80,0,0,0,0,0,0,0,0],"split_type":[0,0,0,0,0,0,0,0,0,0,0,0,0,0,0],"sum_hessian":[5.2384624E3,2.0045469E3,3.2339155E3,1.0905862E3,9.139607E2,1.21236E3,2.0215555E3,4.7478302E2,6.1580316E2,2.7812024E2,6.3584045E2,5.6354095E2,6.4881903E2,1.0865616E3,9.349939E2],"tree_param":{"num_deleted":"0","num_feature":"280","num_nodes":"15","size_leaf_vector":"1"}},{"base_weights":[-1.3428226E-1,-3.24216E-1,4.9469374E-2,-1.5333645E-1,-4.5716262E-1,-1.7089753E-1,1.8085243E-1,-2.35889E-3,1.4613835E-4,-3.7531133E-3,-6.0973684E-3,5.9800135E-4,-2.9417332E-3,8.257647E-4,3.0894396E-3],"categories":[],"categories_nodes":[],"categories_segments":[],"categories_sizes":[],"default_left":[0,0,0,0,0,0,0,0,0,0,0,0,0,0,0],"id":28,"left_children":[1,3,5,7,9,11,13,-1,-1,-1,-1,-1,-1,-1,-1],"loss_changes":[1.8283276E2,5.8449005E1,7.714005E1,1.5651947E1,1.7857483E1,2.8323105E1,2.0984509E1,0E0,0E0,0E0,0E0,0E0,0E0,0E0,0E0],"parents":[2147483647,0,0,1,1,2,2,3,3,4,4,5,5,6,6],"right_children":[2,4,6,8,10,12,14,-1,-1,-1,-1,-1,-1,-1,-1],"split_conditions":[1.5E1,1.1E1,-1.4E0,1E1,2.3E1,-4.7E0,2.4E1,-2.35889E-3,1.4613835E-4,-3.7531133E-3,-6.0973684E-3,5.9800135E-4,-2.9417332E-3,8.257647E-4,3.0894396E-3],"split_indices":[51,80,77,51,80,25,51,0,0,0,0,0,0,0,0],"split_type":[0,0,0,0,0,0,0,0,0,0,0,0,0,0,0],"sum_hessian":[5.237207E3,2.5749065E3,2.6623005E3,1.1276559E3,1.4472505E3,9.942905E2,1.6680099E3,7.5576874E2,3.7188718E2,9.4418494E2,5.0306552E2,3.464538E2,6.4783673E2,9.4478503E2,7.2322485E2],"tree_param":{"num_deleted":"0","num_feature":"280","num_nodes":"15","size_leaf_vector":"1"}},{"base_weights":[1.3428226E-1,3.24216E-1,-4.9469385E-2,1.5333647E-1,4.5716262E-1,1.7089756E-1,-1.8085247E-1,2.35889E-3,-1.4613822E-4,3.7531136E-3,6.0973684E-3,-5.980007E-4,2.9417335E-3,-8.257652E-4,-3.08944E-3],"categories":[],"categories_nodes":[],"categories_segments":[],"categories_sizes":[],"default_left":[0,0,0,0,0,0,0,0,0,0,0,0,0,0,0],"id":29,"left_children":[1,3,5,7,9,11,13,-1,-1,-1,-1,-1,-1,-1,-1],"loss_changes":[1.8283276E2,5.8449005E1,7.7140076E1,1.5651943E1,1.7857483E1,2.8323095E1,2.0984512E1,0E0,0E0,0E0,0E0,0E0,0E0,0E0,0E0],"parents":[2147483647,0,0,1,1,2,2,3,3,4,4,5,5,6,6],"right_children":[2,4,6,8,10,12,14,-1,-1,-1,-1,-1,-1,-1,-1],"split_conditions":[1.5E1,1.1E1,-1.4E0,1E1,2.3E1,-4.7E0,2.4E1,2.35889E-3,-1.4613822E-4,3.7531136E-3,6.0973684E-3,-5.980007E-4,2.9417335E-3,-8.257652E-4,-3.08944E-3],"split_indices":[51,80,77,51,80,25,51,0,0,0,0,0,0,0,0],"split_type":[0,0,0,0,0,0,0,0,0,0,0,0,0,0,0],"sum_hessian":[5.237207E3,2.5749065E3,2.6623005E3,1.1276559E3,1.4472505E3,9.942906E2,1.6680099E3,7.557688E2,3.7188715E2,9.4418494E2,5.0306552E2,3.4645383E2,6.4783673E2,9.4478503E2,7.2322485E2],"tree_param":{"num_deleted":"0","num_feature":"280","num_nodes":"15","size_leaf_vector":"1"}},{"base_weights":[-1.3297842E-1,1.0199357E-1,-2.7866805E-1,-4.602075E-2,2.7849424E-1,-7.0515774E-2,-4.0350586E-1,1.1186269E-3,-1.677517E-3,4.2699445E-3,2.1298558E-3,-2.3301782E-3,7.0733775E-4,-3.0319118E-3,-5.197457E-3],"categories":[],"categories_nodes":[],"categories_segments":[],"categories_sizes":[],"default_left":[0,0,0,0,0,0,0,0,0,0,0,0,0,0,0],"id":30,"left_children":[1,3,5,7,9,11,13,-1,-1,-1,-1,-1,-1,-1,-1],"loss_changes":[1.7929861E2,5.2392345E1,8.397627E1,2.0993784E1,8.806671E0,2.7863016E1,2.3403748E1,0E0,0E0,0E0,0E0,0E0,0E0,0E0,0E0],"parents":[2147483647,0,0,1,1,2,2,3,3,4,4,5,5,6,6],"right_children":[2,4,6,8,10,12,14,-1,-1,-1,-1,-1,-1,-1,-1],"split_conditions":[4.59E-1,5.19E-1,1.1E1,-4.9E0,5E0,9E0,2E1,1.1186269E-3,-1.677517E-3,4.2699445E-3,2.1298558E-3,-2.3301782E-3,7.0733775E-4,-3.0319118E-3,-5.197457E-3],"split_indices":[3,55,103,25,103,51,80,0,0,0,0,0,0,0,0],"split_type":[0,0,0,0,0,0,0,0,0,0,0,0,0,0,0],"sum_hessian":[5.2357686E3,2.0039867E3,3.2317817E3,1.0903517E3,9.1363495E2,1.2121799E3,2.0196017E3,4.7472314E2,6.156286E2,2.7797684E2,6.3565814E2,5.633818E2,6.487982E2,1.0859973E3,9.336044E2],"tree_param":{"num_deleted":"0","num_feature":"280","num_nodes":"15","size_leaf_vector":"1"}},{"base_weights":[1.3297842E-1,-1.0199358E-1,2.7866808E-1,4.602072E-2,-2.7849424E-1,7.051578E-2,4.035059E-1,-1.1186274E-3,1.6775168E-3,-4.2699445E-3,-2.1298558E-3,2.330178E-3,-7.0733746E-4,3.0319125E-3,5.197457E-3],"categories":[],"categories_nodes":[],"categories_segments":[],"categories_sizes":[],"default_left":[0,0,0,0,0,0,0,0,0,0,0,0,0,0,0],"id":31,"left_children":[1,3,5,7,9,11,13,-1,-1,-1,-1,-1,-1,-1,-1],"loss_changes":[1.7929865E2,5.239233E1,8.397624E1,2.099379E1,8.806679E0,2.7863005E1,2.3403778E1,0E0,0E0,0E0,0E0,0E0,0E0,0E0,0E0],"parents":[2147483647,0,0,1,1,2,2,3,3,4,4,5,5,6,6],"right_children":[2,4,6,8,10,12,14,-1,-1,-1,-1,-1,-1,-1,-1],"split_conditions":[4.59E-1,5.19E-1,1.1E1,-4.9E0,5E0,9E0,2E1,-1.1186274E-3,1.6775168E-3,-4.2699445E-3,-2.1298558E-3,2.330178E-3,-7.0733746E-4,3.0319125E-3,5.197457E-3],"split_indices":[3,55,103,25,103,51,80,0,0,0,0,0,0,0,0],"split_type":[0,0,0,0,0,0,0,0,0,0,0,0,0,0,0],"sum_hessian":[5.235768E3,2.0039867E3,3.2317815E3,1.0903517E3,9.1363495E2,1.2121799E3,2.0196016E3,4.747231E2,6.156286E2,2.7797684E2,6.356581E2,5.633818E2,6.4879816E2,1.0859973E3,9.336043E2],"tree_param":{"num_deleted":"0","num_feature":"280","num_nodes":"15","size_leaf_vector":"1"}},{"base_weights":[-1.3168538E-1,-3.184308E-1,4.8889875E-2,-1.5043241E-1,-4.4927448E-1,-2.0636539E-1,1.5858185E-1,1.5077872E-5,-2.4012437E-3,-3.6860544E-3,-5.9983777E-3,4.2483796E-4,-3.3514975E-3,3.0883786E-3,8.107484E-4],"categories":[],"categories_nodes":[],"categories_segments":[],"categories_sizes":[],"default_left":[0,0,0,0,0,0,0,0,0,0,0,0,0,0,0],"id":32,"left_children":[1,3,5,7,9,11,13,-1,-1,-1,-1,-1,-1,-1,-1],"loss_changes":[1.7656012E2,5.650934E1,7.458171E1,1.5378286E1,1.7346771E1,2.5675144E1,2.1669052E1,0E0,0E0,0E0,0E0,0E0,0E0,0E0,0E0],"parents":[2147483647,0,0,1,1,2,2,3,3,4,4,5,5,6,6],"right_children":[2,4,6,8,10,12,14,-1,-1,-1,-1,-1,-1,-1,-1],"split_conditions":[1.5E1,1.1E1,-2.4E0,5E0,2.3E1,-4.9E0,8E0,1.5077872E-5,-2.4012437E-3,-3.6860544E-3,-5.9983777E-3,4.2483796E-4,-3.3514975E-3,3.0883786E-3,8.107484E-4],"split_indices":[51,80,77,103,80,25,103,0,0,0,0,0,0,0,0],"split_type":[0,0,0,0,0,0,0,0,0,0,0,0,0,0,0],"sum_hessian":[5.234355E3,2.5728396E3,2.6615156E3,1.1274218E3,1.4454177E3,7.9970526E2,1.8618103E3,4.1885513E2,7.0856665E2,9.434062E2,5.0201157E2,2.72952E2,5.267533E2,6.3255237E2,1.2292579E3],"tree_param":{"num_deleted":"0","num_feature":"280","num_nodes":"15","size_leaf_vector":"1"}},{"base_weights":[1.3168538E-1,3.184308E-1,-4.8889887E-2,1.5043241E-1,4.4927448E-1,2.063654E-1,-1.5858188E-1,-1.5077366E-5,2.4012434E-3,3.6860548E-3,5.9983763E-3,-4.2483732E-4,3.3514972E-3,-3.088379E-3,-8.107484E-4],"categories":[],"categories_nodes":[],"categories_segments":[],"categories_sizes":[],"default_left":[0,0,0,0,0,0,0,0,0,0,0,0,0,0,0],"id":33,"left_children":[1,3,5,7,9,11,13,-1,-1,-1,-1,-1,-1,-1,-1],"loss_changes":[1.7656018E2,5.6509308E1,7.4581726E1,1.5378279E1,1.7346771E1,2.5675133E1,2.1669064E1,0E0,0E0,0E0,0E0,0E0,0E0,0E0,0E0],"parents":[2147483647,0,0,1,1,2,2,3,3,4,4,5,5,6,6],"right_children":[2,4,6,8,10,12,14,-1,-1,-1,-1,-1,-1,-1,-1],"split_conditions":[1.5E1,1.1E1,-2.4E0,5E0,2.3E1,-4.9E0,8E0,-1.5077366E-5,2.4012434E-3,3.6860548E-3,5.9983763E-3,-4.2483732E-4,3.3514972E-3,-3.088379E-3,-8.107484E-4],"split_indices":[51,80,77,103,80,25,103,0,0,0,0,0,0,0,0],"split_type":[0,0,0,0,0,0,0,0,0,0,0,0,0,0,0],"sum_hessian":[5.234355E3,2.5728396E3,2.6615156E3,1.1274218E3,1.4454178E3,7.9970526E2,1.8618103E3,4.1885513E2,7.0856665E2,9.434062E2,5.020116E2,2.7295203E2,5.267533E2,6.3255237E2,1.2292579E3],"tree_param":{"num_deleted":"0","num_feature":"280","num_nodes":"15","size_leaf_vector":"1"}},{"base_weights":[-1.3040902E-1,1.1726409E-1,-2.6413018E-1,3.0061796E-1,-2.4480473E-2,-1.17839746E-1,-4.2495424E-1,-5.887607E-3,3.1317472E-3,-1.197987E-3,1.4345379E-3,-2.5929548E-3,3.6243137E-4,-3.3363434E-3,-5.472952E-3],"categories":[],"categories_nodes":[],"categories_segments":[],"categories_sizes":[],"default_left":[0,0,0,0,0,0,0,0,0,0,0,0,0,0,0],"id":34,"left_children":[1,3,5,7,9,11,13,-1,-1,-1,-1,-1,-1,-1,-1],"loss_changes":[1.7337108E2,4.771704E1,7.992067E1,9.123741E0,1.6604961E1,3.883582E1,1.7902191E1,0E0,0E0,0E0,0E0,0E0,0E0,0E0,0E0],"parents":[2147483647,0,0,1,1,2,2,3,3,4,4,5,5,6,6],"right_children":[2,4,6,8,10,12,14,-1,-1,-1,-1,-1,-1,-1,-1],"split_conditions":[-1.5E0,1.4E1,1.4E1,3E0,2.6E1,1E1,2.3E1,-5.887607E-3,3.1317472E-3,-1.197987E-3,1.4345379E-3,-2.5929548E-3,3.6243137E-4,-3.3363434E-3,-5.472952E-3],"split_indices":[25,103,80,43,28,51,80,0,0,0,0,0,0,0,0],"split_type":[0,0,0,0,0,0,0,0,0,0,0,0,0,0,0],"sum_hessian":[5.2328364E3,1.834735E3,3.3981013E3,7.99465E2,1.03527E3,1.7803625E3,1.6177388E3,1.0491302E1,7.8897375E2,6.606032E2,3.7466678E2,9.2785895E2,8.5250354E2,9.28442E2,6.892967E2],"tree_param":{"num_deleted":"0","num_feature":"280","num_nodes":"15","size_leaf_vector":"1"}},{"base_weights":[1.3040902E-1,-1.1726409E-1,2.6413018E-1,-3.0061793E-1,2.4480455E-2,1.1783974E-1,4.2495427E-1,5.887607E-3,-3.1317468E-3,1.1979869E-3,-1.4345382E-3,2.5929553E-3,-3.6243148E-4,3.3363434E-3,5.472953E-3],"categories":[],"categories_nodes":[],"categories_segments":[],"categories_sizes":[],"default_left":[0,0,0,0,0,0,0,0,0,0,0,0,0,0,0],"id":35,"left_children":[1,3,5,7,9,11,13,-1,-1,-1,-1,-1,-1,-1,-1],"loss_changes":[1.7337114E2,4.7717026E1,7.992064E1,9.123749E0,1.6604963E1,3.8835823E1,1.7902252E1,0E0,0E0,0E0,0E0,0E0,0E0,0E0,0E0],"parents":[2147483647,0,0,1,1,2,2,3,3,4,4,5,5,6,6],"right_children":[2,4,6,8,10,12,14,-1,-1,-1,-1,-1,-1,-1,-1],"split_conditions":[-1.5E0,1.4E1,1.4E1,3E0,2.6E1,1E1,2.3E1,5.887607E-3,-3.1317468E-3,1.1979869E-3,-1.4345382E-3,2.5929553E-3,-3.6243148E-4,3.3363434E-3,5.472953E-3],"split_indices":[25,103,80,43,28,51,80,0,0,0,0,0,0,0,0],"split_type":[0,0,0,0,0,0,0,0,0,0,0,0,0,0,0],"sum_hessian":[5.2328364E3,1.834735E3,3.3981013E3,7.994651E2,1.0352699E3,1.7803625E3,1.6177388E3,1.0491302E1,7.8897375E2,6.606032E2,3.7466678E2,9.2785895E2,8.5250354E2,9.28442E2,6.892967E2],"tree_param":{"num_deleted":"0","num_feature":"280","num_nodes":"15","size_leaf_vector":"1"}},{"base_weights":[-1.2914555E-1,9.994308E-2,-2.7128527E-1,-4.429227E-2,2.7198383E-1,-6.816455E-2,-3.9326954E-1,1.0944429E-3,-1.6286442E-3,2.8087343E-3,-7.71106E-3,-2.2672112E-3,6.960495E-4,-2.9558772E-3,-5.0664614E-3],"categories":[],"categories_nodes":[],"categories_segments":[],"categories_sizes":[],"default_left":[0,0,0,0,0,0,0,0,0,0,0,0,0,0,0],"id":36,"left_children":[1,3,5,7,9,11,13,-1,-1,-1,-1,-1,-1,-1,-1],"loss_changes":[1.7040483E2,4.9743313E1,7.9984314E1,1.9905945E1,8.692818E0,2.650952E1,2.2191895E1,0E0,0E0,0E0,0E0,0E0,0E0,0E0,0E0],"parents":[2147483647,0,0,1,1,2,2,3,3,4,4,5,5,6,6],"right_children":[2,4,6,8,10,12,14,-1,-1,-1,-1,-1,-1,-1,-1],"split_conditions":[4.59E-1,5.19E-1,1.1E1,-4.9E0,4.85E-1,9E0,2E1,1.0944429E-3,-1.6286442E-3,2.8087343E-3,-7.71106E-3,-2.2672112E-3,6.960495E-4,-2.9558772E-3,-5.0664614E-3],"split_indices":[3,55,103,25,7,51,80,0,0,0,0,0,0,0,0],"split_type":[0,0,0,0,0,0,0,0,0,0,0,0,0,0,0],"sum_hessian":[5.231314E3,2.0031328E3,3.2281812E3,1.090023E3,9.1310986E2,1.2118468E3,2.0163344E3,4.7466528E2,6.153577E2,9.061183E2,6.9915543E0,5.6311804E2,6.487287E2,1.0850746E3,9.312598E2],"tree_param":{"num_deleted":"0","num_feature":"280","num_nodes":"15","size_leaf_vector":"1"}},{"base_weights":[1.2914553E-1,-9.994307E-2,2.7128524E-1,4.4292282E-2,-2.7198383E-1,6.8164505E-2,3.932695E-1,-1.0944429E-3,1.6286442E-3,-2.8087343E-3,7.71106E-3,2.267211E-3,-6.9605006E-4,2.9558768E-3,5.066461E-3],"categories":[],"categories_nodes":[],"categories_segments":[],"categories_sizes":[],"default_left":[0,0,0,0,0,0,0,0,0,0,0,0,0,0,0],"id":37,"left_children":[1,3,5,7,9,11,13,-1,-1,-1,-1,-1,-1,-1,-1],"loss_changes":[1.7040479E2,4.9743317E1,7.9984375E1,1.9905947E1,8.69281E0,2.6509527E1,2.2191864E1,0E0,0E0,0E0,0E0,0E0,0E0,0E0,0E0],"parents":[2147483647,0,0,1,1,2,2,3,3,4,4,5,5,6,6],"right_children":[2,4,6,8,10,12,14,-1,-1,-1,-1,-1,-1,-1,-1],"split_conditions":[4.59E-1,5.19E-1,1.1E1,-4.9E0,4.85E-1,9E0,2E1,-1.0944429E-3,1.6286442E-3,-2.8087343E-3,7.71106E-3,2.267211E-3,-6.9605006E-4,2.9558768E-3,5.066461E-3],"split_indices":[3,55,103,25,7,51,80,0,0,0,0,0,0,0,0],"split_type":[0,0,0,0,0,0,0,0,0,0,0,0,0,0,0],"sum_hessian":[5.231314E3,2.0031328E3,3.2281812E3,1.090023E3,9.1310986E2,1.2118468E3,2.0163342E3,4.7466528E2,6.153577E2,9.061183E2,6.9915543E0,5.631181E2,6.487287E2,1.0850745E3,9.3125977E2],"tree_param":{"num_deleted":"0","num_feature":"280","num_nodes":"15","size_leaf_vector":"1"}},{"base_weights":[-1.27897E-1,-3.1008554E-1,4.811926E-2,-1.4599314E-1,-4.3810838E-1,-2.0120859E-1,1.552318E-1,4.008911E-5,-2.3457434E-3,-3.592992E-3,-5.8552497E-3,4.0769172E-4,-3.2655213E-3,8.3374366E-4,3.1024807E-3],"categories":[],"categories_nodes":[],"categories_segments":[],"categories_sizes":[],"default_left":[0,0,0,0,0,0,0,0,0,0,0,0,0,0,0],"id":38,"left_children":[1,3,5,7,9,11,13,-1,-1,-1,-1,-1,-1,-1,-1],"loss_changes":[1.6775366E2,5.393428E1,7.110373E1,1.4989277E1,1.6558777E1,2.4282639E1,2.071634E1,0E0,0E0,0E0,0E0,0E0,0E0,0E0,0E0],"parents":[2147483647,0,0,1,1,2,2,3,3,4,4,5,5,6,6],"right_children":[2,4,6,8,10,12,14,-1,-1,-1,-1,-1,-1,-1,-1],"split_conditions":[1.5E1,1.1E1,-2.4E0,5E0,2.3E1,-4.9E0,2.6E1,4.008911E-5,-2.3457434E-3,-3.592992E-3,-5.8552497E-3,4.0769172E-4,-3.2655213E-3,8.3374366E-4,3.1024807E-3],"split_indices":[51,80,77,103,80,25,51,0,0,0,0,0,0,0,0],"split_type":[0,0,0,0,0,0,0,0,0,0,0,0,0,0,0],"sum_hessian":[5.229697E3,2.5694172E3,2.6602793E3,1.1270146E3,1.4424027E3,7.991664E2,1.8611129E3,4.1879248E2,7.082221E2,9.4215967E2,5.00243E2,2.729352E2,5.262312E2,1.2726957E3,5.884173E2],"tree_param":{"num_deleted":"0","num_feature":"280","num_nodes":"15","size_leaf_vector":"1"}},{"base_weights":[1.2789698E-1,3.100855E-1,-4.8119266E-2,1.4599314E-1,4.3810833E-1,2.0120858E-1,-1.5523179E-1,-4.0089286E-5,2.3457434E-3,3.592991E-3,5.8552492E-3,-4.0769234E-4,3.2655215E-3,-8.3374354E-4,-3.1024807E-3],"categories":[],"categories_nodes":[],"categories_segments":[],"categories_sizes":[],"default_left":[0,0,0,0,0,0,0,0,0,0,0,0,0,0,0],"id":39,"left_children":[1,3,5,7,9,11,13,-1,-1,-1,-1,-1,-1,-1,-1],"loss_changes":[1.6775363E2,5.3934235E1,7.110372E1,1.4989283E1,1.6558777E1,2.428265E1,2.071634E1,0E0,0E0,0E0,0E0,0E0,0E0,0E0,0E0],"parents":[2147483647,0,0,1,1,2,2,3,3,4,4,5,5,6,6],"right_children":[2,4,6,8,10,12,14,-1,-1,-1,-1,-1,-1,-1,-1],"split_conditions":[1.5E1,1.1E1,-2.4E0,5E0,2.3E1,-4.9E0,2.6E1,-4.0089286E-5,2.3457434E-3,3.592991E-3,5.8552492E-3,-4.0769234E-4,3.2655215E-3,-8.3374354E-4,-3.1024807E-3],"split_indices":[51,80,77,103,80,25,51,0,0,0,0,0,0,0,0],"split_type":[0,0,0,0,0,0,0,0,0,0,0,0,0,0,0],"sum_hessian":[5.229697E3,2.5694172E3,2.6602793E3,1.1270146E3,1.4424027E3,7.991664E2,1.8611129E3,4.1879248E2,7.082221E2,9.4215967E2,5.00243E2,2.729352E2,5.2623114E2,1.2726957E3,5.884173E2],"tree_param":{"num_deleted":"0","num_feature":"280","num_nodes":"15","size_leaf_vector":"1"}},{"base_weights":[-1.2666272E-1,-3.0714807E-1,4.764594E-2,-1.445527E-1,-4.3409202E-1,1.8102272E-1,-1.4878812E-1,3.9689065E-5,-2.322765E-3,-3.5589652E-3,-5.8048735E-3,5.9813727E-4,2.7485606E-3,-3.0401458E-3,1.4334581E-4],"categories":[],"categories_nodes":[],"categories_segments":[],"categories_sizes":[],"default_left":[0,0,0,0,0,0,0,0,0,0,0,0,0,0,0],"id":40,"left_children":[1,3,5,7,9,11,13,-1,-1,-1,-1,-1,-1,-1,-1],"loss_changes":[1.6451855E2,5.296472E1,6.974082E1,1.4695929E1,1.6303131E1,1.8013313E1,2.7265194E1,0E0,0E0,0E0,0E0,0E0,0E0,0E0,0E0],"parents":[2147483647,0,0,1,1,2,2,3,3,4,4,5,5,6,6],"right_children":[2,4,6,8,10,12,14,-1,-1,-1,-1,-1,-1,-1,-1],"split_conditions":[1.5E1,1.1E1,1.7E1,5E0,2.3E1,2E1,2.2E1,3.9689065E-5,-2.322765E-3,-3.5589652E-3,-5.8048735E-3,5.9813727E-4,2.7485606E-3,-3.0401458E-3,1.4334581E-4],"split_indices":[51,80,80,103,80,28,28,0,0,0,0,0,0,0,0],"split_type":[0,0,0,0,0,0,0,0,0,0,0,0,0,0,0],"sum_hessian":[5.22796E3,2.568098E3,2.6598618E3,1.1268795E3,1.4412184E3,1.5842501E3,1.0756116E3,4.1879303E2,7.0808655E2,9.416679E2,4.995505E2,6.919993E2,8.922508E2,5.507028E2,5.249088E2],"tree_param":{"num_deleted":"0","num_feature":"280","num_nodes":"15","size_leaf_vector":"1"}},{"base_weights":[1.2666272E-1,3.0714807E-1,-4.7645934E-2,1.4455271E-1,4.3409196E-1,-1.8102269E-1,1.4878811E-1,-3.9689323E-5,2.3227653E-3,3.558965E-3,5.8048726E-3,-5.98137E-4,-2.7485606E-3,3.0401456E-3,-1.4334578E-4],"categories":[],"categories_nodes":[],"categories_segments":[],"categories_sizes":[],"default_left":[0,0,0,0,0,0,0,0,0,0,0,0,0,0,0],"id":41,"left_children":[1,3,5,7,9,11,13,-1,-1,-1,-1,-1,-1,-1,-1],"loss_changes":[1.6451852E2,5.296466E1,6.974082E1,1.4695936E1,1.6303162E1,1.8013325E1,2.7265192E1,0E0,0E0,0E0,0E0,0E0,0E0,0E0,0E0],"parents":[2147483647,0,0,1,1,2,2,3,3,4,4,5,5,6,6],"right_children":[2,4,6,8,10,12,14,-1,-1,-1,-1,-1,-1,-1,-1],"split_conditions":[1.5E1,1.1E1,1.7E1,5E0,2.3E1,2E1,2.2E1,-3.9689323E-5,2.3227653E-3,3.558965E-3,5.8048726E-3,-5.98137E-4,-2.7485606E-3,3.0401456E-3,-1.4334578E-4],"split_indices":[51,80,80,103,80,28,28,0,0,0,0,0,0,0,0],"split_type":[0,0,0,0,0,0,0,0,0,0,0,0,0,0,0],"sum_hessian":[5.22796E3,2.568098E3,2.6598618E3,1.1268795E3,1.4412185E3,1.5842501E3,1.0756116E3,4.1879303E2,7.0808655E2,9.416679E2,4.9955054E2,6.919993E2,8.922508E2,5.507028E2,5.249088E2],"tree_param":{"num_deleted":"0","num_feature":"280","num_nodes":"15","size_leaf_vector":"1"}},{"base_weights":[-1.2544152E-1,8.926792E-2,-2.6935095E-1,-4.737338E-2,2.527529E-1,-1.2453615E-1,-4.309468E-1,1.0806542E-3,-1.5954489E-3,3.9970097E-3,1.8114343E-3,-2.494409E-3,3.2626162E-4,-5.430004E-3,-3.5144594E-3],"categories":[],"categories_nodes":[],"categories_segments":[],"categories_sizes":[],"default_left":[0,0,0,0,0,0,0,0,0,0,0,0,0,0,0],"id":42,"left_children":[1,3,5,7,9,11,13,-1,-1,-1,-1,-1,-1,-1,-1],"loss_changes":[1.6153711E2,4.6886703E1,7.318883E1,1.9961353E1,9.982155E0,3.243789E1,1.2982849E1,0E0,0E0,0E0,0E0,0E0,0E0,0E0,0E0],"parents":[2147483647,0,0,1,1,2,2,3,3,4,4,5,5,6,6],"right_children":[2,4,6,8,10,12,14,-1,-1,-1,-1,-1,-1,-1,-1],"split_conditions":[4.69E-1,5.22E-1,1.4E1,-4.9E0,-5.9E0,1E1,8E0,1.0806542E-3,-1.5954489E-3,3.9970097E-3,1.8114343E-3,-2.494409E-3,3.2626162E-4,-5.430004E-3,-3.5144594E-3],"split_indices":[3,55,80,25,25,51,51,0,0,0,0,0,0,0,0],"split_type":[0,0,0,0,0,0,0,0,0,0,0,0,0,0,0],"sum_hessian":[5.2261787E3,2.0973547E3,3.1288242E3,1.1428594E3,9.544955E2,1.6510233E3,1.4778008E3,4.7905618E2,6.6380316E2,3.1123526E2,6.432602E2,9.1959106E2,7.3143225E2,6.109119E2,8.668889E2],"tree_param":{"num_deleted":"0","num_feature":"280","num_nodes":"15","size_leaf_vector":"1"}},{"base_weights":[1.2544154E-1,-8.926792E-2,2.6935098E-1,4.7373366E-2,-2.527529E-1,1.24536164E-1,4.3094683E-1,-1.0806543E-3,1.5954488E-3,-3.9970097E-3,-1.8114342E-3,2.4944092E-3,-3.2626148E-4,5.4300046E-3,3.51446E-3],"categories":[],"categories_nodes":[],"categories_segments":[],"categories_sizes":[],"default_left":[0,0,0,0,0,0,0,0,0,0,0,0,0,0,0],"id":43,"left_children":[1,3,5,7,9,11,13,-1,-1,-1,-1,-1,-1,-1,-1],"loss_changes":[1.6153714E2,4.6886696E1,7.318883E1,1.9961353E1,9.982151E0,3.243789E1,1.2982849E1,0E0,0E0,0E0,0E0,0E0,0E0,0E0,0E0],"parents":[2147483647,0,0,1,1,2,2,3,3,4,4,5,5,6,6],"right_children":[2,4,6,8,10,12,14,-1,-1,-1,-1,-1,-1,-1,-1],"split_conditions":[4.69E-1,5.22E-1,1.4E1,-4.9E0,-5.9E0,1E1,8E0,-1.0806543E-3,1.5954488E-3,-3.9970097E-3,-1.8114342E-3,2.4944092E-3,-3.2626148E-4,5.4300046E-3,3.51446E-3],"split_indices":[3,55,80,25,25,51,51,0,0,0,0,0,0,0,0],"split_type":[0,0,0,0,0,0,0,0,0,0,0,0,0,0,0],"sum_hessian":[5.2261787E3,2.0973547E3,3.128824E3,1.1428594E3,9.544954E2,1.6510233E3,1.4778008E3,4.7905618E2,6.6380316E2,3.1123523E2,6.432602E2,9.1959106E2,7.314322E2,6.109119E2,8.668889E2],"tree_param":{"num_deleted":"0","num_feature":"280","num_nodes":"15","size_leaf_vector":"1"}},{"base_weights":[-1.2423122E-1,-3.0152944E-1,4.6878204E-2,-1.4164637E-1,-4.2652816E-1,-1.9693573E-1,1.5159918E-1,5.3653843E-5,-2.285052E-3,-3.4904815E-3,-5.717959E-3,3.932415E-4,-3.1942448E-3,2.9661104E-3,7.6843146E-4],"categories":[],"categories_nodes":[],"categories_segments":[],"categories_sizes":[],"default_left":[0,0,0,0,0,0,0,0,0,0,0,0,0,0,0],"id":44,"left_children":[1,3,5,7,9,11,13,-1,-1,-1,-1,-1,-1,-1,-1],"loss_changes":[1.5853894E2,5.122995E1,6.794539E1,1.4399553E1,1.6006348E1,2.315381E1,2.0154865E1,0E0,0E0,0E0,0E0,0E0,0E0,0E0,0E0],"parents":[2147483647,0,0,1,1,2,2,3,3,4,4,5,5,6,6],"right_children":[2,4,6,8,10,12,14,-1,-1,-1,-1,-1,-1,-1,-1],"split_conditions":[1.5E1,1.1E1,-2.4E0,5E0,2.3E1,-4.9E0,8E0,5.3653843E-5,-2.285052E-3,-3.4904815E-3,-5.717959E-3,3.932415E-4,-3.1942448E-3,2.9661104E-3,7.6843146E-4],"split_indices":[51,80,77,103,80,25,103,0,0,0,0,0,0,0,0],"split_type":[0,0,0,0,0,0,0,0,0,0,0,0,0,0,0],"sum_hessian":[5.224392E3,2.565421E3,2.658971E3,1.126576E3,1.438845E3,7.986512E2,1.8603197E3,4.1875546E2,7.0782056E2,9.405801E2,4.9826492E2,2.72918E2,5.257332E2,6.317951E2,1.2285247E3],"tree_param":{"num_deleted":"0","num_feature":"280","num_nodes":"15","size_leaf_vector":"1"}},{"base_weights":[1.2423122E-1,3.0152944E-1,-4.68782E-2,1.4164639E-1,4.2652813E-1,1.9693573E-1,-1.5159918E-1,-5.3653617E-5,2.2850523E-3,3.4904815E-3,5.717959E-3,-3.9324153E-4,3.194245E-3,-2.9661104E-3,-7.684314E-4],"categories":[],"categories_nodes":[],"categories_segments":[],"categories_sizes":[],"default_left":[0,0,0,0,0,0,0,0,0,0,0,0,0,0,0],"id":45,"left_children":[1,3,5,7,9,11,13,-1,-1,-1,-1,-1,-1,-1,-1],"loss_changes":[1.5853891E2,5.122998E1,6.794539E1,1.43995495E1,1.6006348E1,2.3153814E1,2.0154873E1,0E0,0E0,0E0,0E0,0E0,0E0,0E0,0E0],"parents":[2147483647,0,0,1,1,2,2,3,3,4,4,5,5,6,6],"right_children":[2,4,6,8,10,12,14,-1,-1,-1,-1,-1,-1,-1,-1],"split_conditions":[1.5E1,1.1E1,-2.4E0,5E0,2.3E1,-4.9E0,8E0,-5.3653617E-5,2.2850523E-3,3.4904815E-3,5.717959E-3,-3.9324153E-4,3.194245E-3,-2.9661104E-3,-7.684314E-4],"split_indices":[51,80,77,103,80,25,103,0,0,0,0,0,0,0,0],"split_type":[0,0,0,0,0,0,0,0,0,0,0,0,0,0,0],"sum_hessian":[5.224392E3,2.5654211E3,2.658971E3,1.126576E3,1.438845E3,7.9865125E2,1.8603197E3,4.1875546E2,7.078206E2,9.405801E2,4.9826492E2,2.7291803E2,5.257332E2,6.317951E2,1.2285247E3],"tree_param":{"num_deleted":"0","num_feature":"280","num_nodes":"15","size_leaf_vector":"1"}},{"base_weights":[-1.2303635E-1,9.627718E-2,-2.5929716E-1,-4.226659E-2,2.6161644E-1,-6.392439E-2,-3.7694496E-1,1.0461905E-3,-1.5561525E-3,3.0438253E-3,3.950269E-4,-2.1787374E-3,6.975492E-4,-2.829333E-3,-4.86396E-3],"categories":[],"categories_nodes":[],"categories_segments":[],"categories_sizes":[],"default_left":[0,0,0,0,0,0,0,0,0,0,0,0,0,0,0],"id":46,"left_children":[1,3,5,7,9,11,13,-1,-1,-1,-1,-1,-1,-1,-1],"loss_changes":[1.561229E2,4.5880398E1,7.403529E1,1.8170094E1,8.661213E0,2.4962114E1,2.0553375E1,0E0,0E0,0E0,0E0,0E0,0E0,0E0,0E0],"parents":[2147483647,0,0,1,1,2,2,3,3,4,4,5,5,6,6],"right_children":[2,4,6,8,10,12,14,-1,-1,-1,-1,-1,-1,-1,-1],"split_conditions":[4.59E-1,5.19E-1,1.1E1,-4.9E0,4.86E1,9E0,2E1,1.0461905E-3,-1.5561525E-3,3.0438253E-3,3.950269E-4,-2.1787374E-3,6.975492E-4,-2.829333E-3,-4.86396E-3],"split_indices":[3,55,103,25,56,51,80,0,0,0,0,0,0,0,0],"split_type":[0,0,0,0,0,0,0,0,0,0,0,0,0,0,0],"sum_hessian":[5.2224893E3,2.00144E3,3.2210496E3,1.0893654E3,9.120745E2,1.2112013E3,2.0098483E3,4.745218E2,6.148436E2,7.645052E2,1.4756934E2,5.626294E2,6.4857184E2,1.0831099E3,9.2673846E2],"tree_param":{"num_deleted":"0","num_feature":"280","num_nodes":"15","size_leaf_vector":"1"}},{"base_weights":[1.2303634E-1,-9.627718E-2,2.5929716E-1,4.226659E-2,-2.6161644E-1,6.392436E-2,3.7694493E-1,-1.0461906E-3,1.5561525E-3,-3.0438253E-3,-3.9502684E-4,2.178737E-3,-6.9754943E-4,2.829333E-3,4.86396E-3],"categories":[],"categories_nodes":[],"categories_segments":[],"categories_sizes":[],"default_left":[0,0,0,0,0,0,0,0,0,0,0,0,0,0,0],"id":47,"left_children":[1,3,5,7,9,11,13,-1,-1,-1,-1,-1,-1,-1,-1],"loss_changes":[1.5612288E2,4.5880398E1,7.403531E1,1.8170095E1,8.661209E0,2.4962109E1,2.0553345E1,0E0,0E0,0E0,0E0,0E0,0E0,0E0,0E0],"parents":[2147483647,0,0,1,1,2,2,3,3,4,4,5,5,6,6],"right_children":[2,4,6,8,10,12,14,-1,-1,-1,-1,-1,-1,-1,-1],"split_conditions":[4.59E-1,5.19E-1,1.1E1,-4.9E0,4.86E1,9E0,2E1,-1.0461906E-3,1.5561525E-3,-3.0438253E-3,-3.9502684E-4,2.178737E-3,-6.9754943E-4,2.829333E-3,4.86396E-3],"split_indices":[3,55,103,25,56,51,80,0,0,0,0,0,0,0,0],"split_type":[0,0,0,0,0,0,0,0,0,0,0,0,0,0,0],"sum_hessian":[5.2224893E3,2.00144E3,3.2210496E3,1.0893655E3,9.1207446E2,1.2112013E3,2.0098483E3,4.7452176E2,6.148436E2,7.645051E2,1.4756934E2,5.6262946E2,6.4857184E2,1.0831099E3,9.2673846E2],"tree_param":{"num_deleted":"0","num_feature":"280","num_nodes":"15","size_leaf_vector":"1"}},{"base_weights":[-1.2185246E-1,1.1124309E-1,-2.4793388E-1,2.8565857E-1,-2.3470668E-2,-1.5514475E-1,-4.7361776E-1,-5.916581E-3,2.9807677E-3,-1.1430611E-3,1.3652274E-3,-3.0032464E-3,-2.9483665E-4,-5.888846E-3,-4.0631783E-3],"categories":[],"categories_nodes":[],"categories_segments":[],"categories_sizes":[],"default_left":[0,0,0,0,0,0,0,0,0,0,0,0,0,0,0],"id":48,"left_children":[1,3,5,7,9,11,13,-1,-1,-1,-1,-1,-1,-1,-1],"loss_changes":[1.5348445E2,4.3089546E1,7.089479E1,8.882698E0,1.5064255E1,4.3831142E1,7.4166107E0,0E0,0E0,0E0,0E0,0E0,0E0,0E0,0E0],"parents":[2147483647,0,0,1,1,2,2,3,3,4,4,5,5,6,6],"right_children":[2,4,6,8,10,12,14,-1,-1,-1,-1,-1,-1,-1,-1],"split_conditions":[-1.5E0,1.4E1,2E1,3E0,2.6E1,9E0,8E0,-5.916581E-3,2.9807677E-3,-1.1430611E-3,1.3652274E-3,-3.0032464E-3,-2.9483665E-4,-5.888846E-3,-4.0631783E-3],"split_indices":[25,103,80,43,28,51,51,0,0,0,0,0,0,0,0],"split_type":[0,0,0,0,0,0,0,0,0,0,0,0,0,0,0],"sum_hessian":[5.220572E3,1.8326118E3,3.3879602E3,7.981357E2,1.0344762E3,2.4020522E3,9.859079E2,1.0488704E1,7.87647E2,6.600319E2,3.744442E2,1.1138263E3,1.288226E3,3.605801E2,6.2532776E2],"tree_param":{"num_deleted":"0","num_feature":"280","num_nodes":"15","size_leaf_vector":"1"}},{"base_weights":[1.2185246E-1,-1.112431E-1,2.4793388E-1,-2.8565857E-1,2.347066E-2,1.5514475E-1,4.7361776E-1,5.916581E-3,-2.9807677E-3,1.1430609E-3,-1.3652273E-3,3.0032464E-3,2.948367E-4,5.888846E-3,4.0631783E-3],"categories":[],"categories_nodes":[],"categories_segments":[],"categories_sizes":[],"default_left":[0,0,0,0,0,0,0,0,0,0,0,0,0,0,0],"id":49,"left_children":[1,3,5,7,9,11,13,-1,-1,-1,-1,-1,-1,-1,-1],"loss_changes":[1.5348447E2,4.3089546E1,7.0894775E1,8.882698E0,1.5064249E1,4.3831135E1,7.4166107E0,0E0,0E0,0E0,0E0,0E0,0E0,0E0,0E0],"parents":[2147483647,0,0,1,1,2,2,3,3,4,4,5,5,6,6],"right_children":[2,4,6,8,10,12,14,-1,-1,-1,-1,-1,-1,-1,-1],"split_conditions":[-1.5E0,1.4E1,2E1,3E0,2.6E1,9E0,8E0,5.916581E-3,-2.9807677E-3,1.1430609E-3,-1.3652273E-3,3.0032464E-3,2.948367E-4,5.888846E-3,4.0631783E-3],"split_indices":[25,103,80,43,28,51,51,0,0,0,0,0,0,0,0],"split_type":[0,0,0,0,0,0,0,0,0,0,0,0,0,0,0],"sum_hessian":[5.220572E3,1.8326118E3,3.38796E3,7.981357E2,1.0344762E3,2.4020522E3,9.859079E2,1.0488704E1,7.87647E2,6.600319E2,3.744442E2,1.1138263E3,1.288226E3,3.605801E2,6.253278E2],"tree_param":{"num_deleted":"0","num_feature":"280","num_nodes":"15","size_leaf_vector":"1"}},{"base_weights":[-1.2068132E-1,-2.6138645E-1,8.425892E-2,-9.218194E-2,-3.898016E-1,2.0749408E-1,-9.78735E-2,-2.2154674E-3,3.9657857E-4,-5.099431E-3,-3.0208735E-3,1.3169838E-3,3.3561587E-3,7.1899616E-4,-2.1928425E-3],"categories":[],"categories_nodes":[],"categories_segments":[],"categories_sizes":[],"default_left":[0,0,0,0,0,0,0,0,0,0,0,0,0,0,0],"id":50,"left_children":[1,3,5,7,9,11,13,-1,-1,-1,-1,-1,-1,-1,-1],"loss_changes":[1.5053743E2,6.721567E1,4.7729206E1,2.2807873E1,1.8386017E1,1.2270367E1,1.7711119E1,0E0,0E0,0E0,0E0,0E0,0E0,0E0,0E0],"parents":[2147483647,0,0,1,1,2,2,3,3,4,4,5,5,6,6],"right_children":[2,4,6,8,10,12,14,-1,-1,-1,-1,-1,-1,-1,-1],"split_conditions":[1.7E1,1.2E1,1.7E1,9E0,8E0,2.6E1,-4.6E0,-2.2154674E-3,3.9657857E-4,-5.099431E-3,-3.0208735E-3,1.3169838E-3,3.3561587E-3,7.1899616E-4,-2.1928425E-3],"split_indices":[27,81,80,51,51,51,25,0,0,0,0,0,0,0,0],"split_type":[0,0,0,0,0,0,0,0,0,0,0,0,0,0,0],"sum_hessian":[5.2186787E3,3.0940986E3,2.1245803E3,1.3357642E3,1.7583344E3,1.2670945E3,8.574857E2,6.7386707E2,6.6189716E2,7.399781E2,1.0183562E3,7.9739233E2,4.6970215E2,3.5770355E2,4.9978217E2],"tree_param":{"num_deleted":"0","num_feature":"280","num_nodes":"15","size_leaf_vector":"1"}},{"base_weights":[1.2068132E-1,2.6138645E-1,-8.425893E-2,9.218194E-2,3.898016E-1,-2.0749408E-1,9.787348E-2,2.2154672E-3,-3.9657837E-4,5.0994307E-3,3.020874E-3,-1.3169838E-3,-3.3561587E-3,-7.1899657E-4,2.1928428E-3],"categories":[],"categories_nodes":[],"categories_segments":[],"categories_sizes":[],"default_left":[0,0,0,0,0,0,0,0,0,0,0,0,0,0,0],"id":51,"left_children":[1,3,5,7,9,11,13,-1,-1,-1,-1,-1,-1,-1,-1],"loss_changes":[1.5053743E2,6.721567E1,4.7729202E1,2.2807865E1,1.8386017E1,1.2270367E1,1.7711126E1,0E0,0E0,0E0,0E0,0E0,0E0,0E0,0E0],"parents":[2147483647,0,0,1,1,2,2,3,3,4,4,5,5,6,6],"right_children":[2,4,6,8,10,12,14,-1,-1,-1,-1,-1,-1,-1,-1],"split_conditions":[1.7E1,1.2E1,1.7E1,9E0,8E0,2.6E1,-4.6E0,2.2154672E-3,-3.9657837E-4,5.0994307E-3,3.020874E-3,-1.3169838E-3,-3.3561587E-3,-7.1899657E-4,2.1928428E-3],"split_indices":[27,81,80,51,51,51,25,0,0,0,0,0,0,0,0],"split_type":[0,0,0,0,0,0,0,0,0,0,0,0,0,0,0],"sum_hessian":[5.2186787E3,3.0940986E3,2.1245803E3,1.3357642E3,1.7583344E3,1.2670945E3,8.574857E2,6.7386707E2,6.6189716E2,7.399781E2,1.01835626E3,7.973924E2,4.6970215E2,3.5770355E2,4.9978214E2],"tree_param":{"num_deleted":"0","num_feature":"280","num_nodes":"15","size_leaf_vector":"1"}},{"base_weights":[-1.19521625E-1,-2.9106635E-1,4.5795623E-2,-3.6146173E-1,-2.093127E-2,-1.9109605E-1,1.4750133E-1,-2.9850942E-3,-5.5544814E-3,-2.9510073E-3,4.5291107E-4,3.6997593E-4,-3.0951723E-3,2.8832057E-3,7.494781E-4],"categories":[],"categories_nodes":[],"categories_segments":[],"categories_sizes":[],"default_left":[0,0,0,0,0,0,0,0,0,0,0,0,0,0,0],"id":52,"left_children":[1,3,5,7,9,11,13,-1,-1,-1,-1,-1,-1,-1,-1],"loss_changes":[1.4798367E2,4.868849E1,6.4066666E1,2.4640594E1,9.643903E0,2.1588247E1,1.8983234E1,0E0,0E0,0E0,0E0,0E0,0E0,0E0,0E0],"parents":[2147483647,0,0,1,1,2,2,3,3,4,4,5,5,6,6],"right_children":[2,4,6,8,10,12,14,-1,-1,-1,-1,-1,-1,-1,-1],"split_conditions":[1.5E1,4.9E0,-2.4E0,2.3E1,3E0,-4.9E0,8E0,-2.9850942E-3,-5.5544814E-3,-2.9510073E-3,4.5291107E-4,3.6997593E-4,-3.0951723E-3,2.8832057E-3,7.494781E-4],"split_indices":[51,77,77,80,29,25,103,0,0,0,0,0,0,0,0],"split_type":[0,0,0,0,0,0,0,0,0,0,0,0,0,0,0],"sum_hessian":[5.2167017E3,2.5597578E3,2.656944E3,2.0303295E3,5.294283E2,7.9781177E2,1.8591322E3,1.5347971E3,4.9553235E2,1.02326546E2,4.2710178E2,2.7288654E2,5.2492523E2,6.311528E2,1.2279794E3],"tree_param":{"num_deleted":"0","num_feature":"280","num_nodes":"15","size_leaf_vector":"1"}},{"base_weights":[1.1952162E-1,2.9106635E-1,-4.5795627E-2,3.6146173E-1,2.0931298E-2,1.9109604E-1,-1.4750133E-1,2.9850942E-3,5.554481E-3,2.9510073E-3,-4.5291072E-4,-3.6997616E-4,3.0951723E-3,-2.8832057E-3,-7.494782E-4],"categories":[],"categories_nodes":[],"categories_segments":[],"categories_sizes":[],"default_left":[0,0,0,0,0,0,0,0,0,0,0,0,0,0,0],"id":53,"left_children":[1,3,5,7,9,11,13,-1,-1,-1,-1,-1,-1,-1,-1],"loss_changes":[1.4798369E2,4.868846E1,6.406665E1,2.4640564E1,9.643903E0,2.1588251E1,1.8983234E1,0E0,0E0,0E0,0E0,0E0,0E0,0E0,0E0],"parents":[2147483647,0,0,1,1,2,2,3,3,4,4,5,5,6,6],"right_children":[2,4,6,8,10,12,14,-1,-1,-1,-1,-1,-1,-1,-1],"split_conditions":[1.5E1,4.9E0,-2.4E0,2.3E1,3E0,-4.9E0,8E0,2.9850942E-3,5.554481E-3,2.9510073E-3,-4.5291072E-4,-3.6997616E-4,3.0951723E-3,-2.8832057E-3,-7.494782E-4],"split_indices":[51,77,77,80,29,25,103,0,0,0,0,0,0,0,0],"split_type":[0,0,0,0,0,0,0,0,0,0,0,0,0,0,0],"sum_hessian":[5.2167017E3,2.5597578E3,2.656944E3,2.0303295E3,5.2942834E2,7.9781177E2,1.8591322E3,1.5347971E3,4.9553232E2,1.02326546E2,4.2710178E2,2.7288657E2,5.2492523E2,6.311528E2,1.2279794E3],"tree_param":{"num_deleted":"0","num_feature":"280","num_nodes":"15","size_leaf_vector":"1"}},{"base_weights":[-1.1837657E-1,1.08765475E-1,-2.4134757E-1,2.7918977E-1,-2.279622E-2,-1.0653311E-1,-3.904549E-1,-5.887887E-3,2.9149258E-3,-1.1168615E-3,1.3375374E-3,-2.3758742E-3,3.5944296E-4,-5.1876786E-3,-3.1151008E-3],"categories":[],"categories_nodes":[],"categories_segments":[],"categories_sizes":[],"default_left":[0,0,0,0,0,0,0,0,0,0,0,0,0,0,0],"id":54,"left_children":[1,3,5,7,9,11,13,-1,-1,-1,-1,-1,-1,-1,-1],"loss_changes":[1.4570795E2,4.109517E1,6.798352E1,8.697903E0,1.4419527E1,3.3218433E1,1.6111298E1,0E0,0E0,0E0,0E0,0E0,0E0,0E0,0E0],"parents":[2147483647,0,0,1,1,2,2,3,3,4,4,5,5,6,6],"right_children":[2,4,6,8,10,12,14,-1,-1,-1,-1,-1,-1,-1,-1],"split_conditions":[-1.5E0,1.4E1,1.4E1,3E0,2.6E1,1E1,8E0,-5.887887E-3,2.9149258E-3,-1.1168615E-3,1.3375374E-3,-2.3758742E-3,3.5944296E-4,-5.1876786E-3,-3.1151008E-3],"split_indices":[25,103,80,43,28,51,51,0,0,0,0,0,0,0,0],"split_type":[0,0,0,0,0,0,0,0,0,0,0,0,0,0,0],"sum_hessian":[5.2146055E3,1.8315784E3,3.3830273E3,7.974474E2,1.034131E3,1.7775664E3,1.6054609E3,1.0490233E1,7.8695715E2,6.597869E2,3.7434402E2,9.2555237E2,8.52014E2,6.094003E2,9.960606E2],"tree_param":{"num_deleted":"0","num_feature":"280","num_nodes":"15","size_leaf_vector":"1"}},{"base_weights":[1.1837658E-1,-1.08765475E-1,2.4134758E-1,-2.791898E-1,2.2796242E-2,1.0653313E-1,3.9045492E-1,5.887887E-3,-2.9149258E-3,1.1168615E-3,-1.3375368E-3,2.3758744E-3,-3.594429E-4,5.1876786E-3,3.115101E-3],"categories":[],"categories_nodes":[],"categories_segments":[],"categories_sizes":[],"default_left":[0,0,0,0,0,0,0,0,0,0,0,0,0,0,0],"id":55,"left_children":[1,3,5,7,9,11,13,-1,-1,-1,-1,-1,-1,-1,-1],"loss_changes":[1.4570795E2,4.1095177E1,6.7983536E1,8.69791E0,1.441952E1,3.3218433E1,1.6111282E1,0E0,0E0,0E0,0E0,0E0,0E0,0E0,0E0],"parents":[2147483647,0,0,1,1,2,2,3,3,4,4,5,5,6,6],"right_children":[2,4,6,8,10,12,14,-1,-1,-1,-1,-1,-1,-1,-1],"split_conditions":[-1.5E0,1.4E1,1.4E1,3E0,2.6E1,1E1,8E0,5.887887E-3,-2.9149258E-3,1.1168615E-3,-1.3375368E-3,2.3758744E-3,-3.594429E-4,5.1876786E-3,3.115101E-3],"split_indices":[25,103,80,43,28,51,51,0,0,0,0,0,0,0,0],"split_type":[0,0,0,0,0,0,0,0,0,0,0,0,0,0,0],"sum_hessian":[5.2146055E3,1.8315784E3,3.3830273E3,7.974474E2,1.034131E3,1.7775664E3,1.6054609E3,1.0490233E1,7.8695715E2,6.597869E2,3.7434402E2,9.255524E2,8.52014E2,6.094003E2,9.9606067E2],"tree_param":{"num_deleted":"0","num_feature":"280","num_nodes":"15","size_leaf_vector":"1"}},{"base_weights":[-1.1724242E-1,9.285395E-2,-2.4797799E-1,-4.0161144E-2,2.517065E-1,-5.9341423E-2,-3.6189798E-1,1.0056655E-3,-1.4882162E-3,2.9392233E-3,3.2606008E-4,-2.0637363E-3,6.818963E-4,-5.2251196E-3,-3.0054087E-3],"categories":[],"categories_nodes":[],"categories_segments":[],"categories_sizes":[],"default_left":[0,0,0,0,0,0,0,0,0,0,0,0,0,0,0],"id":56,"left_children":[1,3,5,7,9,11,13,-1,-1,-1,-1,-1,-1,-1,-1],"loss_changes":[1.4322356E2,4.228076E1,6.904596E1,1.6677732E1,8.424595E0,2.2728313E1,1.9588654E1,0E0,0E0,0E0,0E0,0E0,0E0,0E0,0E0],"parents":[2147483647,0,0,1,1,2,2,3,3,4,4,5,5,6,6],"right_children":[2,4,6,8,10,12,14,-1,-1,-1,-1,-1,-1,-1,-1],"split_conditions":[4.59E-1,5.19E-1,1.1E1,-4.9E0,4.86E1,9E0,6E0,1.0056655E-3,-1.4882162E-3,2.9392233E-3,3.2606008E-4,-2.0637363E-3,6.818963E-4,-5.2251196E-3,-3.0054087E-3],"split_indices":[3,55,103,25,56,51,33,0,0,0,0,0,0,0,0],"split_type":[0,0,0,0,0,0,0,0,0,0,0,0,0,0,0],"sum_hessian":[5.212535E3,1.999524E3,3.2130112E3,1.0886722E3,9.108518E2,1.2103505E3,2.0026608E3,4.7437592E2,6.142964E2,7.634168E2,1.4743498E2,5.619049E2,6.484456E2,5.5149677E2,1.4511641E3],"tree_param":{"num_deleted":"0","num_feature":"280","num_nodes":"15","size_leaf_vector":"1"}},{"base_weights":[1.1724241E-1,-9.2853956E-2,2.4797799E-1,4.0161137E-2,-2.5170654E-1,5.934143E-2,3.6189798E-1,-1.0056655E-3,1.488216E-3,-2.9392233E-3,-3.2606002E-4,2.063736E-3,-6.818961E-4,5.2251187E-3,3.0054082E-3],"categories":[],"categories_nodes":[],"categories_segments":[],"categories_sizes":[],"default_left":[0,0,0,0,0,0,0,0,0,0,0,0,0,0,0],"id":57,"left_children":[1,3,5,7,9,11,13,-1,-1,-1,-1,-1,-1,-1,-1],"loss_changes":[1.4322357E2,4.2280766E1,6.904593E1,1.667773E1,8.424595E0,2.2728312E1,1.9588623E1,0E0,0E0,0E0,0E0,0E0,0E0,0E0,0E0],"parents":[2147483647,0,0,1,1,2,2,3,3,4,4,5,5,6,6],"right_children":[2,4,6,8,10,12,14,-1,-1,-1,-1,-1,-1,-1,-1],"split_conditions":[4.59E-1,5.19E-1,1.1E1,-4.9E0,4.86E1,9E0,6E0,-1.0056655E-3,1.488216E-3,-2.9392233E-3,-3.2606002E-4,2.063736E-3,-6.818961E-4,5.2251187E-3,3.0054082E-3],"split_indices":[3,55,103,25,56,51,33,0,0,0,0,0,0,0,0],"split_type":[0,0,0,0,0,0,0,0,0,0,0,0,0,0,0],"sum_hessian":[5.2125356E3,1.999524E3,3.2130112E3,1.0886722E3,9.108518E2,1.2103505E3,2.0026608E3,4.7437592E2,6.142964E2,7.634168E2,1.4743498E2,5.6190485E2,6.484456E2,5.514968E2,1.4511641E3],"tree_param":{"num_deleted":"0","num_feature":"280","num_nodes":"15","size_leaf_vector":"1"}},{"base_weights":[-1.1611843E-1,-2.2402245E-1,1.3384306E-1,-8.8353485E-2,-3.765438E-1,-1.4561653E-1,2.1167131E-1,-2.3248668E-3,4.4650966E-4,-5.114946E-3,-3.0215713E-3,-2.4706577E-3,8.2299684E-4,1.1909058E-3,3.230458E-3],"categories":[],"categories_nodes":[],"categories_segments":[],"categories_sizes":[],"default_left":[0,0,0,0,0,0,0,0,0,0,0,0,0,0,0],"id":58,"left_children":[1,3,5,7,9,11,13,-1,-1,-1,-1,-1,-1,-1,-1],"loss_changes":[1.4059225E2,7.529657E1,3.42213E1,3.6970364E1,1.704628E1,7.9516E0,1.2643883E1,0E0,0E0,0E0,0E0,0E0,0E0,0E0,0E0],"parents":[2147483647,0,0,1,1,2,2,3,3,4,4,5,5,6,6],"right_children":[2,4,6,8,10,12,14,-1,-1,-1,-1,-1,-1,-1,-1],"split_conditions":[2E1,1.4E1,3.61E-1,1E1,8E0,2.7E1,5.69E-1,-2.3248668E-3,4.4650966E-4,-5.114946E-3,-3.0215713E-3,-2.4706577E-3,8.2299684E-4,1.1909058E-3,3.230458E-3],"split_indices":[28,80,55,51,51,28,55,0,0,0,0,0,0,0,0],"split_type":[0,0,0,0,0,0,0,0,0,0,0,0,0,0,0],"sum_hessian":[5.2104434E3,3.639457E3,1.5709865E3,1.9269756E3,1.7124813E3,3.4201932E2,1.2289672E3,9.2443896E2,1.0025367E3,6.064305E2,1.1060509E3,2.3661438E2,1.0540494E2,6.72236E2,5.5673114E2],"tree_param":{"num_deleted":"0","num_feature":"280","num_nodes":"15","size_leaf_vector":"1"}},{"base_weights":[1.1611843E-1,2.2402245E-1,-1.3384305E-1,8.835348E-2,3.765438E-1,1.456166E-1,-2.1167131E-1,2.3248668E-3,-4.4650966E-4,5.114946E-3,3.0215713E-3,2.4706582E-3,-8.22996E-4,-1.1909056E-3,-3.2304581E-3],"categories":[],"categories_nodes":[],"categories_segments":[],"categories_sizes":[],"default_left":[0,0,0,0,0,0,0,0,0,0,0,0,0,0,0],"id":59,"left_children":[1,3,5,7,9,11,13,-1,-1,-1,-1,-1,-1,-1,-1],"loss_changes":[1.4059225E2,7.529657E1,3.4221313E1,3.6970364E1,1.7046295E1,7.9515996E0,1.2643883E1,0E0,0E0,0E0,0E0,0E0,0E0,0E0,0E0],"parents":[2147483647,0,0,1,1,2,2,3,3,4,4,5,5,6,6],"right_children":[2,4,6,8,10,12,14,-1,-1,-1,-1,-1,-1,-1,-1],"split_conditions":[2E1,1.4E1,3.61E-1,1E1,8E0,2.7E1,5.69E-1,2.3248668E-3,-4.4650966E-4,5.114946E-3,3.0215713E-3,2.4706582E-3,-8.22996E-4,-1.1909056E-3,-3.2304581E-3],"split_indices":[28,80,55,51,51,28,55,0,0,0,0,0,0,0,0],"split_type":[0,0,0,0,0,0,0,0,0,0,0,0,0,0,0],"sum_hessian":[5.2104434E3,3.639457E3,1.5709865E3,1.9269756E3,1.7124813E3,3.4201932E2,1.2289672E3,9.2443896E2,1.0025367E3,6.064305E2,1.1060509E3,2.3661438E2,1.0540494E2,6.72236E2,5.5673114E2],"tree_param":{"num_deleted":"0","num_feature":"280","num_nodes":"15","size_leaf_vector":"1"}},{"base_weights":[-1.1500708E-1,1.061933E-1,-2.3487058E-1,2.7251762E-1,-2.2114644E-2,-1.4554398E-1,-4.5310846E-1,-5.8609312E-3,2.8470566E-3,-1.2329937E-3,1.090986E-3,-2.835738E-3,-2.6313335E-4,-5.2919714E-3,-3.5946714E-3],"categories":[],"categories_nodes":[],"categories_segments":[],"categories_sizes":[],"default_left":[0,0,0,0,0,0,0,0,0,0,0,0,0,0,0],"id":60,"left_children":[1,3,5,7,9,11,13,-1,-1,-1,-1,-1,-1,-1,-1],"loss_changes":[1.3814288E2,3.9090218E1,6.580264E1,8.513977E0,1.3752237E1,3.947362E1,6.7983856E0,0E0,0E0,0E0,0E0,0E0,0E0,0E0,0E0],"parents":[2147483647,0,0,1,1,2,2,3,3,4,4,5,5,6,6],"right_children":[2,4,6,8,10,12,14,-1,-1,-1,-1,-1,-1,-1,-1],"split_conditions":[-1.5E0,1.4E1,2E1,3E0,2.5E1,9E0,1.1E1,-5.8609312E-3,2.8470566E-3,-1.2329937E-3,1.090986E-3,-2.835738E-3,-2.6313335E-4,-5.2919714E-3,-3.5946714E-3],"split_indices":[25,103,80,43,28,51,27,0,0,0,0,0,0,0,0],"split_type":[0,0,0,0,0,0,0,0,0,0,0,0,0,0,0],"sum_hessian":[5.2082754E3,1.8304365E3,3.3778386E3,7.9663824E2,1.0337982E3,2.3979885E3,9.798501E2,1.0491011E1,7.861473E2,5.8372253E2,4.5007574E2,1.1107395E3,1.287249E3,5.380244E2,4.4182568E2],"tree_param":{"num_deleted":"0","num_feature":"280","num_nodes":"15","size_leaf_vector":"1"}},{"base_weights":[1.15007065E-1,-1.0619329E-1,2.3487057E-1,-2.725176E-1,2.2114644E-2,1.4554395E-1,4.5310846E-1,5.8609312E-3,-2.8470564E-3,1.2329936E-3,-1.0909857E-3,2.8357373E-3,2.6313314E-4,5.2919714E-3,3.5946716E-3],"categories":[],"categories_nodes":[],"categories_segments":[],"categories_sizes":[],"default_left":[0,0,0,0,0,0,0,0,0,0,0,0,0,0,0],"id":61,"left_children":[1,3,5,7,9,11,13,-1,-1,-1,-1,-1,-1,-1,-1],"loss_changes":[1.3814288E2,3.909022E1,6.580267E1,8.513977E0,1.3752233E1,3.9473606E1,6.7983704E0,0E0,0E0,0E0,0E0,0E0,0E0,0E0,0E0],"parents":[2147483647,0,0,1,1,2,2,3,3,4,4,5,5,6,6],"right_children":[2,4,6,8,10,12,14,-1,-1,-1,-1,-1,-1,-1,-1],"split_conditions":[-1.5E0,1.4E1,2E1,3E0,2.5E1,9E0,1.1E1,5.8609312E-3,-2.8470564E-3,1.2329936E-3,-1.0909857E-3,2.8357373E-3,2.6313314E-4,5.2919714E-3,3.5946716E-3],"split_indices":[25,103,80,43,28,51,27,0,0,0,0,0,0,0,0],"split_type":[0,0,0,0,0,0,0,0,0,0,0,0,0,0,0],"sum_hessian":[5.2082754E3,1.8304365E3,3.3778386E3,7.9663824E2,1.0337982E3,2.3979885E3,9.798501E2,1.0491011E1,7.861472E2,5.8372253E2,4.5007574E2,1.1107395E3,1.287249E3,5.380244E2,4.4182568E2],"tree_param":{"num_deleted":"0","num_feature":"280","num_nodes":"15","size_leaf_vector":"1"}},{"base_weights":[-1.1390853E-1,-2.4779738E-1,8.072315E-2,-8.557876E-2,-3.713848E-1,1.9835871E-1,-9.308018E-2,-2.077347E-3,3.872401E-4,-4.8714206E-3,-2.8714635E-3,1.2493343E-3,3.22639E-3,6.8682595E-4,-2.0892425E-3],"categories":[],"categories_nodes":[],"categories_segments":[],"categories_sizes":[],"default_left":[0,0,0,0,0,0,0,0,0,0,0,0,0,0,0],"id":62,"left_children":[1,3,5,7,9,11,13,-1,-1,-1,-1,-1,-1,-1,-1],"loss_changes":[1.357114E2,6.1820374E1,4.3422215E1,2.0284918E1,1.6932495E1,1.1515446E1,1.6084461E1,0E0,0E0,0E0,0E0,0E0,0E0,0E0,0E0],"parents":[2147483647,0,0,1,1,2,2,3,3,4,4,5,5,6,6],"right_children":[2,4,6,8,10,12,14,-1,-1,-1,-1,-1,-1,-1,-1],"split_conditions":[1.7E1,1.2E1,1.7E1,9E0,8E0,2.6E1,-4.6E0,-2.077347E-3,3.872401E-4,-4.8714206E-3,-2.8714635E-3,1.2493343E-3,3.22639E-3,6.8682595E-4,-2.0892425E-3],"split_indices":[27,81,80,51,51,51,25,0,0,0,0,0,0,0,0],"split_type":[0,0,0,0,0,0,0,0,0,0,0,0,0,0,0],"sum_hessian":[5.206081E3,3.084176E3,2.121905E3,1.3343823E3,1.7497936E3,1.2653411E3,8.565639E2,6.726644E2,6.6171796E2,7.350006E2,1.01479297E3,7.966705E2,4.6867065E2,3.576101E2,4.989538E2],"tree_param":{"num_deleted":"0","num_feature":"280","num_nodes":"15","size_leaf_vector":"1"}},{"base_weights":[1.1390853E-1,2.4779737E-1,-8.072315E-2,8.557876E-2,3.713848E-1,-1.9835871E-1,9.308018E-2,2.0773467E-3,-3.8724006E-4,4.8714206E-3,2.8714635E-3,-1.2493344E-3,-3.22639E-3,-6.86826E-4,2.0892427E-3],"categories":[],"categories_nodes":[],"categories_segments":[],"categories_sizes":[],"default_left":[0,0,0,0,0,0,0,0,0,0,0,0,0,0,0],"id":63,"left_children":[1,3,5,7,9,11,13,-1,-1,-1,-1,-1,-1,-1,-1],"loss_changes":[1.357114E2,6.1820374E1,4.3422215E1,2.0284912E1,1.6932495E1,1.151545E1,1.6084463E1,0E0,0E0,0E0,0E0,0E0,0E0,0E0,0E0],"parents":[2147483647,0,0,1,1,2,2,3,3,4,4,5,5,6,6],"right_children":[2,4,6,8,10,12,14,-1,-1,-1,-1,-1,-1,-1,-1],"split_conditions":[1.7E1,1.2E1,1.7E1,9E0,8E0,2.6E1,-4.6E0,2.0773467E-3,-3.8724006E-4,4.8714206E-3,2.8714635E-3,-1.2493344E-3,-3.22639E-3,-6.86826E-4,2.0892427E-3],"split_indices":[27,81,80,51,51,51,25,0,0,0,0,0,0,0,0],"split_type":[0,0,0,0,0,0,0,0,0,0,0,0,0,0,0],"sum_hessian":[5.206081E3,3.084176E3,2.121905E3,1.3343823E3,1.7497936E3,1.2653411E3,8.565639E2,6.726644E2,6.6171796E2,7.350007E2,1.01479297E3,7.966705E2,4.6867065E2,3.576101E2,4.989538E2],"tree_param":{"num_deleted":"0","num_feature":"280","num_nodes":"15","size_leaf_vector":"1"}},{"base_weights":[-1.1282039E-1,-2.180317E-1,1.3070069E-1,-8.547205E-2,-3.673632E-1,-1.4319816E-1,2.0700505E-1,-2.2556894E-3,4.3686028E-4,-4.993798E-3,-2.9476637E-3,-2.4258941E-3,7.9997454E-4,1.1669396E-3,3.1574534E-3],"categories":[],"categories_nodes":[],"categories_segments":[],"categories_sizes":[],"default_left":[0,0,0,0,0,0,0,0,0,0,0,0,0,0,0],"id":64,"left_children":[1,3,5,7,9,11,13,-1,-1,-1,-1,-1,-1,-1,-1],"loss_changes":[1.3338196E2,7.192296E1,3.286093E1,3.4876343E1,1.6232025E1,7.6254845E0,1.2032799E1,0E0,0E0,0E0,0E0,0E0,0E0,0E0,0E0],"parents":[2147483647,0,0,1,1,2,2,3,3,4,4,5,5,6,6],"right_children":[2,4,6,8,10,12,14,-1,-1,-1,-1,-1,-1,-1,-1],"split_conditions":[2E1,1.4E1,3.61E-1,1E1,8E0,2.7E1,5.69E-1,-2.2556894E-3,4.3686028E-4,-4.993798E-3,-2.9476637E-3,-2.4258941E-3,7.9997454E-4,1.1669396E-3,3.1574534E-3],"split_indices":[28,80,55,51,51,28,55,0,0,0,0,0,0,0,0],"split_type":[0,0,0,0,0,0,0,0,0,0,0,0,0,0,0],"sum_hessian":[5.203814E3,3.633915E3,1.569899E3,1.9258951E3,1.7080199E3,3.4186795E2,1.2280311E3,9.2346857E2,1.00242664E3,6.039197E2,1.1041002E3,2.3647594E2,1.05392006E2,6.719968E2,5.560343E2],"tree_param":{"num_deleted":"0","num_feature":"280","num_nodes":"15","size_leaf_vector":"1"}},{"base_weights":[1.1282039E-1,2.180317E-1,-1.3070069E-1,8.5472055E-2,3.673632E-1,1.4319815E-1,-2.0700505E-1,2.2556894E-3,-4.3686014E-4,4.993798E-3,2.9476637E-3,2.425894E-3,-7.9997466E-4,-1.1669395E-3,-3.1574534E-3],"categories":[],"categories_nodes":[],"categories_segments":[],"categories_sizes":[],"default_left":[0,0,0,0,0,0,0,0,0,0,0,0,0,0,0],"id":65,"left_children":[1,3,5,7,9,11,13,-1,-1,-1,-1,-1,-1,-1,-1],"loss_changes":[1.3338193E2,7.192296E1,3.2860924E1,3.4876343E1,1.6232025E1,7.625483E0,1.2032799E1,0E0,0E0,0E0,0E0,0E0,0E0,0E0,0E0],"parents":[2147483647,0,0,1,1,2,2,3,3,4,4,5,5,6,6],"right_children":[2,4,6,8,10,12,14,-1,-1,-1,-1,-1,-1,-1,-1],"split_conditions":[2E1,1.4E1,3.61E-1,1E1,8E0,2.7E1,5.69E-1,2.2556894E-3,-4.3686014E-4,4.993798E-3,2.9476637E-3,2.425894E-3,-7.9997466E-4,-1.1669395E-3,-3.1574534E-3],"split_indices":[28,80,55,51,51,28,55,0,0,0,0,0,0,0,0],"split_type":[0,0,0,0,0,0,0,0,0,0,0,0,0,0,0],"sum_hessian":[5.203814E3,3.633915E3,1.569899E3,1.9258953E3,1.7080199E3,3.4186795E2,1.2280311E3,9.2346857E2,1.00242664E3,6.039197E2,1.1041002E3,2.3647594E2,1.05392006E2,6.719968E2,5.5603424E2],"tree_param":{"num_deleted":"0","num_feature":"280","num_nodes":"15","size_leaf_vector":"1"}},{"base_weights":[-1.1174376E-1,-2.7366126E-1,4.384881E-2,-3.418367E-1,-1.3223204E-2,-1.8185775E-1,1.4070062E-1,-2.808679E-3,-5.30884E-3,-2.7937272E-3,5.098434E-4,3.5007342E-4,-2.9473861E-3,2.7470423E-3,7.173794E-4],"categories":[],"categories_nodes":[],"categories_segments":[],"categories_sizes":[],"default_left":[0,0,0,0,0,0,0,0,0,0,0,0,0,0,0],"id":66,"left_children":[1,3,5,7,9,11,13,-1,-1,-1,-1,-1,-1,-1,-1],"loss_changes":[1.3107953E2,4.5264343E1,5.8040775E1,2.3140167E1,9.071043E0,1.9528387E1,1.7147049E1,0E0,0E0,0E0,0E0,0E0,0E0,0E0,0E0],"parents":[2147483647,0,0,1,1,2,2,3,3,4,4,5,5,6,6],"right_children":[2,4,6,8,10,12,14,-1,-1,-1,-1,-1,-1,-1,-1],"split_conditions":[1.5E1,4.9E0,-2.4E0,2.3E1,3E0,-4.9E0,8E0,-2.808679E-3,-5.30884E-3,-2.7937272E-3,5.098434E-4,3.5007342E-4,-2.9473861E-3,2.7470423E-3,7.173794E-4],"split_indices":[51,77,77,80,29,25,103,0,0,0,0,0,0,0,0],"split_type":[0,0,0,0,0,0,0,0,0,0,0,0,0,0,0],"sum_hessian":[5.201504E3,2.548572E3,2.6529321E3,2.0195878E3,5.289843E2,7.963094E2,1.8566227E3,1.5289718E3,4.9061597E2,1.0216103E2,4.2682327E2,2.7283417E2,5.234752E2,6.298185E2,1.2268042E3],"tree_param":{"num_deleted":"0","num_feature":"280","num_nodes":"15","size_leaf_vector":"1"}},{"base_weights":[1.11743756E-1,2.7366126E-1,-4.384881E-2,3.418367E-1,1.3223209E-2,1.8185778E-1,-1.4070062E-1,2.8086787E-3,5.30884E-3,2.7937272E-3,-5.0984335E-4,-3.5007327E-4,2.9473861E-3,-2.7470423E-3,-7.173794E-4],"categories":[],"categories_nodes":[],"categories_segments":[],"categories_sizes":[],"default_left":[0,0,0,0,0,0,0,0,0,0,0,0,0,0,0],"id":67,"left_children":[1,3,5,7,9,11,13,-1,-1,-1,-1,-1,-1,-1,-1],"loss_changes":[1.3107953E2,4.5264328E1,5.8040783E1,2.3140182E1,9.071042E0,1.9528387E1,1.7147053E1,0E0,0E0,0E0,0E0,0E0,0E0,0E0,0E0],"parents":[2147483647,0,0,1,1,2,2,3,3,4,4,5,5,6,6],"right_children":[2,4,6,8,10,12,14,-1,-1,-1,-1,-1,-1,-1,-1],"split_conditions":[1.5E1,4.9E0,-2.4E0,2.3E1,3E0,-4.9E0,8E0,2.8086787E-3,5.30884E-3,2.7937272E-3,-5.0984335E-4,-3.5007327E-4,2.9473861E-3,-2.7470423E-3,-7.173794E-4],"split_indices":[51,77,77,80,29,25,103,0,0,0,0,0,0,0,0],"split_type":[0,0,0,0,0,0,0,0,0,0,0,0,0,0,0],"sum_hessian":[5.201504E3,2.548572E3,2.6529321E3,2.0195878E3,5.289843E2,7.963094E2,1.8566227E3,1.5289718E3,4.9061597E2,1.0216103E2,4.2682327E2,2.7283417E2,5.234752E2,6.298185E2,1.2268042E3],"tree_param":{"num_deleted":"0","num_feature":"280","num_nodes":"15","size_leaf_vector":"1"}},{"base_weights":[-1.1067985E-1,-2.1426499E-1,1.2892687E-1,-8.3884284E-2,-3.6135772E-1,-1.4060189E-1,2.0401886E-1,-2.215172E-3,4.2933578E-4,-4.9196417E-3,-2.896402E-3,-2.3852491E-3,7.9189247E-4,3.2106077E-3,1.2238947E-3],"categories":[],"categories_nodes":[],"categories_segments":[],"categories_sizes":[],"default_left":[0,0,0,0,0,0,0,0,0,0,0,0,0,0,0],"id":68,"left_children":[1,3,5,7,9,11,13,-1,-1,-1,-1,-1,-1,-1,-1],"loss_changes":[1.2909274E2,6.9604126E1,3.1807981E1,3.362858E1,1.5835556E1,7.395275E0,1.16972885E1,0E0,0E0,0E0,0E0,0E0,0E0,0E0,0E0],"parents":[2147483647,0,0,1,1,2,2,3,3,4,4,5,5,6,6],"right_children":[2,4,6,8,10,12,14,-1,-1,-1,-1,-1,-1,-1,-1],"split_conditions":[2E1,1.4E1,3.61E-1,1E1,8E0,2.7E1,-5.9E0,-2.215172E-3,4.2933578E-4,-4.9196417E-3,-2.896402E-3,-2.3852491E-3,7.9189247E-4,3.2106077E-3,1.2238947E-3],"split_indices":[28,80,55,51,51,28,25,0,0,0,0,0,0,0,0],"split_type":[0,0,0,0,0,0,0,0,0,0,0,0,0,0,0],"sum_hessian":[5.199109E3,3.6299424E3,1.5691663E3,1.9251179E3,1.7048245E3,3.4172723E2,1.2274391E3,9.2283575E2,1.0022822E3,6.022298E2,1.1025947E3,2.3634413E2,1.0538309E2,5.0312082E2,7.2431824E2],"tree_param":{"num_deleted":"0","num_feature":"280","num_nodes":"15","size_leaf_vector":"1"}},{"base_weights":[1.1067984E-1,2.1426499E-1,-1.2892687E-1,8.3884284E-2,3.613577E-1,1.4060189E-1,-2.0401886E-1,2.2151722E-3,-4.2933584E-4,4.919641E-3,2.8964018E-3,2.3852491E-3,-7.918923E-4,-3.2106075E-3,-1.2238947E-3],"categories":[],"categories_nodes":[],"categories_segments":[],"categories_sizes":[],"default_left":[0,0,0,0,0,0,0,0,0,0,0,0,0,0,0],"id":69,"left_children":[1,3,5,7,9,11,13,-1,-1,-1,-1,-1,-1,-1,-1],"loss_changes":[1.2909274E2,6.9604095E1,3.1807981E1,3.362858E1,1.5835556E1,7.395275E0,1.1697285E1,0E0,0E0,0E0,0E0,0E0,0E0,0E0,0E0],"parents":[2147483647,0,0,1,1,2,2,3,3,4,4,5,5,6,6],"right_children":[2,4,6,8,10,12,14,-1,-1,-1,-1,-1,-1,-1,-1],"split_conditions":[2E1,1.4E1,3.61E-1,1E1,8E0,2.7E1,-5.9E0,2.2151722E-3,-4.2933584E-4,4.919641E-3,2.8964018E-3,2.3852491E-3,-7.918923E-4,-3.2106075E-3,-1.2238947E-3],"split_indices":[28,80,55,51,51,28,25,0,0,0,0,0,0,0,0],"split_type":[0,0,0,0,0,0,0,0,0,0,0,0,0,0,0],"sum_hessian":[5.199109E3,3.6299424E3,1.5691663E3,1.9251179E3,1.7048245E3,3.4172723E2,1.2274391E3,9.2283575E2,1.0022822E3,6.022298E2,1.1025947E3,2.3634413E2,1.0538309E2,5.0312082E2,7.2431824E2],"tree_param":{"num_deleted":"0","num_feature":"280","num_nodes":"15","size_leaf_vector":"1"}},{"base_weights":[-1.0962497E-1,1.0233662E-1,-2.2467585E-1,2.6286393E-1,-2.1376856E-2,-1.3824025E-1,-4.3676132E-1,-5.853206E-3,2.7493234E-3,-1.1867976E-3,1.0477236E-3,-1.163182E-4,-2.5772958E-3,-5.107854E-3,-3.4599223E-3],"categories":[],"categories_nodes":[],"categories_segments":[],"categories_sizes":[],"default_left":[0,0,0,0,0,0,0,0,0,0,0,0,0,0,0],"id":70,"left_children":[1,3,5,7,9,11,13,-1,-1,-1,-1,-1,-1,-1,-1],"loss_changes":[1.2677695E2,3.6335926E1,6.1705856E1,8.312008E0,1.2705444E1,3.6233047E1,6.3752136E0,0E0,0E0,0E0,0E0,0E0,0E0,0E0,0E0],"parents":[2147483647,0,0,1,1,2,2,3,3,4,4,5,5,6,6],"right_children":[2,4,6,8,10,12,14,-1,-1,-1,-1,-1,-1,-1,-1],"split_conditions":[-1.5E0,1.4E1,2E1,3E0,2.5E1,2.8E0,1.1E1,-5.853206E-3,2.7493234E-3,-1.1867976E-3,1.0477236E-3,-1.163182E-4,-2.5772958E-3,-5.107854E-3,-3.4599223E-3],"split_indices":[25,103,80,43,28,25,27,0,0,0,0,0,0,0,0],"split_type":[0,0,0,0,0,0,0,0,0,0,0,0,0,0,0],"sum_hessian":[5.196738E3,1.8283767E3,3.368361E3,7.952965E2,1.0330802E3,2.394239E3,9.7412213E2,1.0490773E1,7.848057E2,5.832557E2,4.4982452E2,1.1630221E3,1.2312168E3,5.340037E2,4.4011838E2],"tree_param":{"num_deleted":"0","num_feature":"280","num_nodes":"15","size_leaf_vector":"1"}},{"base_weights":[1.09624974E-1,-1.0233662E-1,2.2467586E-1,-2.6286393E-1,2.1376858E-2,1.3824026E-1,4.3676135E-1,5.853206E-3,-2.7493234E-3,1.1867977E-3,-1.0477236E-3,1.1631837E-4,2.5772958E-3,5.107854E-3,3.4599225E-3],"categories":[],"categories_nodes":[],"categories_segments":[],"categories_sizes":[],"default_left":[0,0,0,0,0,0,0,0,0,0,0,0,0,0,0],"id":71,"left_children":[1,3,5,7,9,11,13,-1,-1,-1,-1,-1,-1,-1,-1],"loss_changes":[1.2677696E2,3.633593E1,6.1705856E1,8.312008E0,1.2705444E1,3.623304E1,6.3752136E0,0E0,0E0,0E0,0E0,0E0,0E0,0E0,0E0],"parents":[2147483647,0,0,1,1,2,2,3,3,4,4,5,5,6,6],"right_children":[2,4,6,8,10,12,14,-1,-1,-1,-1,-1,-1,-1,-1],"split_conditions":[-1.5E0,1.4E1,2E1,3E0,2.5E1,2.8E0,1.1E1,5.853206E-3,-2.7493234E-3,1.1867977E-3,-1.0477236E-3,1.1631837E-4,2.5772958E-3,5.107854E-3,3.4599225E-3],"split_indices":[25,103,80,43,28,25,27,0,0,0,0,0,0,0,0],"split_type":[0,0,0,0,0,0,0,0,0,0,0,0,0,0,0],"sum_hessian":[5.196738E3,1.8283767E3,3.368361E3,7.952965E2,1.0330802E3,2.394239E3,9.7412213E2,1.0490773E1,7.848057E2,5.832557E2,4.4982452E2,1.1630221E3,1.2312168E3,5.340037E2,4.4011838E2],"tree_param":{"num_deleted":"0","num_feature":"280","num_nodes":"15","size_leaf_vector":"1"}},{"base_weights":[-1.0858218E-1,-2.1040432E-1,1.2679994E-1,-8.2022905E-2,-3.55462E-1,-1.3888393E-1,2.0083672E-1,-2.1707525E-3,4.233316E-4,-4.844813E-3,-2.8473448E-3,-2.3884657E-3,7.447119E-4,1.1281662E-3,3.0695118E-3],"categories":[],"categories_nodes":[],"categories_segments":[],"categories_sizes":[],"default_left":[0,0,0,0,0,0,0,0,0,0,0,0,0,0,0],"id":72,"left_children":[1,3,5,7,9,11,13,-1,-1,-1,-1,-1,-1,-1,-1],"loss_changes":[1.2454408E2,6.751419E1,3.089876E1,3.234489E1,1.5398361E1,7.3250136E0,1.1433178E1,0E0,0E0,0E0,0E0,0E0,0E0,0E0,0E0],"parents":[2147483647,0,0,1,1,2,2,3,3,4,4,5,5,6,6],"right_children":[2,4,6,8,10,12,14,-1,-1,-1,-1,-1,-1,-1,-1],"split_conditions":[2E1,1.4E1,3.61E-1,1E1,8E0,2E0,5.69E-1,-2.1707525E-3,4.233316E-4,-4.844813E-3,-2.8473448E-3,-2.3884657E-3,7.447119E-4,1.1281662E-3,3.0695118E-3],"split_indices":[28,80,55,51,51,251,55,0,0,0,0,0,0,0,0],"split_type":[0,0,0,0,0,0,0,0,0,0,0,0,0,0,0],"sum_hessian":[5.194344E3,3.6259348E3,1.568409E3,1.9243656E3,1.7015693E3,3.4161923E2,1.2267899E3,9.2215137E2,1.0022142E3,6.004302E2,1.1011392E3,2.3254576E2,1.09073456E2,6.7169434E2,5.550956E2],"tree_param":{"num_deleted":"0","num_feature":"280","num_nodes":"15","size_leaf_vector":"1"}},{"base_weights":[1.08582176E-1,2.1040432E-1,-1.2679994E-1,8.20229E-2,3.5546198E-1,1.3888395E-1,-2.0083672E-1,2.1707525E-3,-4.233318E-4,4.844813E-3,2.8473448E-3,2.3884657E-3,-7.4471184E-4,-1.1281661E-3,-3.0695118E-3],"categories":[],"categories_nodes":[],"categories_segments":[],"categories_sizes":[],"default_left":[0,0,0,0,0,0,0,0,0,0,0,0,0,0,0],"id":73,"left_children":[1,3,5,7,9,11,13,-1,-1,-1,-1,-1,-1,-1,-1],"loss_changes":[1.2454405E2,6.751419E1,3.0898764E1,3.2344894E1,1.5398376E1,7.325012E0,1.1433178E1,0E0,0E0,0E0,0E0,0E0,0E0,0E0,0E0],"parents":[2147483647,0,0,1,1,2,2,3,3,4,4,5,5,6,6],"right_children":[2,4,6,8,10,12,14,-1,-1,-1,-1,-1,-1,-1,-1],"split_conditions":[2E1,1.4E1,3.61E-1,1E1,8E0,2E0,5.69E-1,2.1707525E-3,-4.233318E-4,4.844813E-3,2.8473448E-3,2.3884657E-3,-7.4471184E-4,-1.1281661E-3,-3.0695118E-3],"split_indices":[28,80,55,51,51,251,55,0,0,0,0,0,0,0,0],"split_type":[0,0,0,0,0,0,0,0,0,0,0,0,0,0,0],"sum_hessian":[5.1943438E3,3.6259348E3,1.568409E3,1.9243656E3,1.7015693E3,3.416192E2,1.2267899E3,9.2215137E2,1.0022142E3,6.004301E2,1.1011392E3,2.3254576E2,1.0907345E2,6.7169434E2,5.550956E2],"tree_param":{"num_deleted":"0","num_feature":"280","num_nodes":"15","size_leaf_vector":"1"}},{"base_weights":[-1.0754895E-1,-2.3497406E-1,7.727656E-2,-7.9469554E-2,-3.5397163E-1,1.8950818E-1,-8.84859E-2,-2.1920893E-3,1.8365784E-4,-4.6538613E-3,-2.7322823E-3,1.1866828E-3,3.096157E-3,6.6392706E-4,-1.9957111E-3],"categories":[],"categories_nodes":[],"categories_segments":[],"categories_sizes":[],"default_left":[0,0,0,0,0,0,0,0,0,0,0,0,0,0,0],"id":74,"left_children":[1,3,5,7,9,11,13,-1,-1,-1,-1,-1,-1,-1,-1],"loss_changes":[1.2231823E2,5.685515E1,3.945497E1,1.8240065E1,1.5535919E1,1.0721062E1,1.4749567E1,0E0,0E0,0E0,0E0,0E0,0E0,0E0,0E0],"parents":[2147483647,0,0,1,1,2,2,3,3,4,4,5,5,6,6],"right_children":[2,4,6,8,10,12,14,-1,-1,-1,-1,-1,-1,-1,-1],"split_conditions":[1.7E1,1.2E1,1.7E1,7E0,8E0,2.6E1,-4.6E0,-2.1920893E-3,1.8365784E-4,-4.6538613E-3,-2.7322823E-3,1.1866828E-3,3.096157E-3,6.6392706E-4,-1.9957111E-3],"split_indices":[27,81,80,29,51,51,25,0,0,0,0,0,0,0,0],"split_type":[0,0,0,0,0,0,0,0,0,0,0,0,0,0,0],"sum_hessian":[5.1918984E3,3.0729968E3,2.1189016E3,1.3328774E3,1.7401194E3,1.2633744E3,8.555273E2,5.4837964E2,7.8449774E2,7.291842E2,1.01093524E3,7.959235E2,4.674509E2,3.5749646E2,4.980308E2],"tree_param":{"num_deleted":"0","num_feature":"280","num_nodes":"15","size_leaf_vector":"1"}},{"base_weights":[1.0754895E-1,2.3497406E-1,-7.7276565E-2,7.946957E-2,3.5397163E-1,-1.8950817E-1,8.848589E-2,2.1920893E-3,-1.8365767E-4,4.6538613E-3,2.7322823E-3,-1.1866828E-3,-3.0961568E-3,-6.639272E-4,1.9957111E-3],"categories":[],"categories_nodes":[],"categories_segments":[],"categories_sizes":[],"default_left":[0,0,0,0,0,0,0,0,0,0,0,0,0,0,0],"id":75,"left_children":[1,3,5,7,9,11,13,-1,-1,-1,-1,-1,-1,-1,-1],"loss_changes":[1.2231826E2,5.6855118E1,3.945497E1,1.8240063E1,1.5535919E1,1.07210655E1,1.4749567E1,0E0,0E0,0E0,0E0,0E0,0E0,0E0,0E0],"parents":[2147483647,0,0,1,1,2,2,3,3,4,4,5,5,6,6],"right_children":[2,4,6,8,10,12,14,-1,-1,-1,-1,-1,-1,-1,-1],"split_conditions":[1.7E1,1.2E1,1.7E1,7E0,8E0,2.6E1,-4.6E0,2.1920893E-3,-1.8365767E-4,4.6538613E-3,2.7322823E-3,-1.1866828E-3,-3.0961568E-3,-6.639272E-4,1.9957111E-3],"split_indices":[27,81,80,29,51,51,25,0,0,0,0,0,0,0,0],"split_type":[0,0,0,0,0,0,0,0,0,0,0,0,0,0,0],"sum_hessian":[5.1918984E3,3.0729968E3,2.1189016E3,1.3328774E3,1.7401194E3,1.2633744E3,8.555273E2,5.4837964E2,7.844978E2,7.291842E2,1.01093524E3,7.959235E2,4.674509E2,3.5749646E2,4.980308E2],"tree_param":{"num_deleted":"0","num_feature":"280","num_nodes":"15","size_leaf_vector":"1"}},{"base_weights":[-1.0652607E-1,9.995096E-2,-2.1871625E-1,2.5676987E-1,-2.0808602E-2,-1.3393854E-1,-4.2730737E-1,-5.8187125E-3,2.6872193E-3,-1.0258941E-3,1.2316433E-3,-1.06757085E-4,-2.50425E-3,-4.5119612E-3,-1.5023948E-3],"categories":[],"categories_nodes":[],"categories_segments":[],"categories_sizes":[],"default_left":[0,0,0,0,0,0,0,0,0,0,0,0,0,0,0],"id":76,"left_children":[1,3,5,7,9,11,13,-1,-1,-1,-1,-1,-1,-1,-1],"loss_changes":[1.20256516E2,3.4623463E1,5.9420624E1,8.128601E0,1.2183382E1,3.4355633E1,6.362381E0,0E0,0E0,0E0,0E0,0E0,0E0,0E0,0E0],"parents":[2147483647,0,0,1,1,2,2,3,3,4,4,5,5,6,6],"right_children":[2,4,6,8,10,12,14,-1,-1,-1,-1,-1,-1,-1,-1],"split_conditions":[-1.5E0,1.4E1,2E1,3E0,2.6E1,2.8E0,2.52E1,-5.8187125E-3,2.6872193E-3,-1.0258941E-3,1.2316433E-3,-1.06757085E-4,-2.50425E-3,-4.5119612E-3,-1.5023948E-3],"split_indices":[25,103,80,43,28,25,69,0,0,0,0,0,0,0,0],"split_type":[0,0,0,0,0,0,0,0,0,0,0,0,0,0,0],"sum_hessian":[5.1894263E3,1.8270311E3,3.362395E3,7.943537E2,1.0326774E3,2.391898E3,9.7049713E2,1.0491814E1,7.838619E2,6.587664E2,3.7391098E2,1.1626765E3,1.2292213E3,8.928842E2,7.761292E1],"tree_param":{"num_deleted":"0","num_feature":"280","num_nodes":"15","size_leaf_vector":"1"}},{"base_weights":[1.0652606E-1,-9.995096E-2,2.1871625E-1,-2.5676984E-1,2.0808604E-2,1.3393855E-1,4.2730734E-1,5.8187125E-3,-2.6872193E-3,1.0258941E-3,-1.2316433E-3,1.06757114E-4,2.50425E-3,4.5119612E-3,1.5023944E-3],"categories":[],"categories_nodes":[],"categories_segments":[],"categories_sizes":[],"default_left":[0,0,0,0,0,0,0,0,0,0,0,0,0,0,0],"id":77,"left_children":[1,3,5,7,9,11,13,-1,-1,-1,-1,-1,-1,-1,-1],"loss_changes":[1.20256516E2,3.4623463E1,5.942061E1,8.128601E0,1.2183382E1,3.435562E1,6.3623657E0,0E0,0E0,0E0,0E0,0E0,0E0,0E0,0E0],"parents":[2147483647,0,0,1,1,2,2,3,3,4,4,5,5,6,6],"right_children":[2,4,6,8,10,12,14,-1,-1,-1,-1,-1,-1,-1,-1],"split_conditions":[-1.5E0,1.4E1,2E1,3E0,2.6E1,2.8E0,2.52E1,5.8187125E-3,-2.6872193E-3,1.0258941E-3,-1.2316433E-3,1.06757114E-4,2.50425E-3,4.5119612E-3,1.5023944E-3],"split_indices":[25,103,80,43,28,25,69,0,0,0,0,0,0,0,0],"split_type":[0,0,0,0,0,0,0,0,0,0,0,0,0,0,0],"sum_hessian":[5.1894263E3,1.8270311E3,3.362395E3,7.943537E2,1.0326774E3,2.391898E3,9.7049713E2,1.0491814E1,7.838619E2,6.587664E2,3.7391098E2,1.1626765E3,1.2292214E3,8.928842E2,7.761292E1],"tree_param":{"num_deleted":"0","num_feature":"280","num_nodes":"15","size_leaf_vector":"1"}},{"base_weights":[-1.0551399E-1,-2.0483275E-1,1.2387076E-1,-7.936001E-2,-3.4693196E-1,-1.3644847E-1,1.9644342E-1,-2.1089164E-3,4.1631024E-4,-4.736615E-3,-2.7763858E-3,-2.3538799E-3,7.467353E-4,3.1067852E-3,1.1685623E-3],"categories":[],"categories_nodes":[],"categories_segments":[],"categories_sizes":[],"default_left":[0,0,0,0,0,0,0,0,0,0,0,0,0,0,0],"id":78,"left_children":[1,3,5,7,9,11,13,-1,-1,-1,-1,-1,-1,-1,-1],"loss_changes":[1.1821835E2,6.452933E1,2.965292E1,3.063042E1,1.4775955E1,7.171061E0,1.1116558E1,0E0,0E0,0E0,0E0,0E0,0E0,0E0,0E0],"parents":[2147483647,0,0,1,1,2,2,3,3,4,4,5,5,6,6],"right_children":[2,4,6,8,10,12,14,-1,-1,-1,-1,-1,-1,-1,-1],"split_conditions":[2E1,1.4E1,3.61E-1,1E1,8E0,2E0,-5.9E0,-2.1089164E-3,4.1631024E-4,-4.736615E-3,-2.7763858E-3,-2.3538799E-3,7.467353E-4,3.1067852E-3,1.1685623E-3],"split_indices":[28,80,55,51,51,251,25,0,0,0,0,0,0,0,0],"split_type":[0,0,0,0,0,0,0,0,0,0,0,0,0,0,0],"sum_hessian":[5.186951E3,3.619773E3,1.5671783E3,1.9231775E3,1.6965955E3,3.4146347E2,1.2257148E3,9.210949E2,1.0020826E3,5.976773E2,1.0989182E3,2.3242545E2,1.0903804E2,5.0211E2,7.2360486E2],"tree_param":{"num_deleted":"0","num_feature":"280","num_nodes":"15","size_leaf_vector":"1"}},{"base_weights":[1.0551399E-1,2.0483275E-1,-1.2387075E-1,7.936001E-2,3.4693196E-1,1.3644849E-1,-1.9644341E-1,2.1089164E-3,-4.163103E-4,4.736615E-3,2.7763858E-3,2.35388E-3,-7.4673526E-4,-3.106785E-3,-1.1685621E-3],"categories":[],"categories_nodes":[],"categories_segments":[],"categories_sizes":[],"default_left":[0,0,0,0,0,0,0,0,0,0,0,0,0,0,0],"id":79,"left_children":[1,3,5,7,9,11,13,-1,-1,-1,-1,-1,-1,-1,-1],"loss_changes":[1.1821835E2,6.452931E1,2.9652922E1,3.0630426E1,1.4775955E1,7.1710615E0,1.1116558E1,0E0,0E0,0E0,0E0,0E0,0E0,0E0,0E0],"parents":[2147483647,0,0,1,1,2,2,3,3,4,4,5,5,6,6],"right_children":[2,4,6,8,10,12,14,-1,-1,-1,-1,-1,-1,-1,-1],"split_conditions":[2E1,1.4E1,3.61E-1,1E1,8E0,2E0,-5.9E0,2.1089164E-3,-4.163103E-4,4.736615E-3,2.7763858E-3,2.35388E-3,-7.4673526E-4,-3.106785E-3,-1.1685621E-3],"split_indices":[28,80,55,51,51,251,25,0,0,0,0,0,0,0,0],"split_type":[0,0,0,0,0,0,0,0,0,0,0,0,0,0,0],"sum_hessian":[5.186951E3,3.619773E3,1.5671783E3,1.9231775E3,1.6965955E3,3.4146347E2,1.2257148E3,9.210949E2,1.0020826E3,5.9767737E2,1.0989182E3,2.3242545E2,1.0903803E2,5.0211E2,7.2360486E2],"tree_param":{"num_deleted":"0","num_feature":"280","num_nodes":"15","size_leaf_vector":"1"}},{"base_weights":[-1.045117E-1,-2.574418E-1,4.1972447E-2,-3.2382333E-1,-5.114731E-3,-1.7277248E-1,1.340572E-1,-2.6503338E-3,-5.0745998E-3,-2.6375432E-3,5.7179574E-4,3.3945328E-4,-2.8069087E-3,3.554235E-3,9.4553037E-4],"categories":[],"categories_nodes":[],"categories_segments":[],"categories_sizes":[],"default_left":[0,0,0,0,0,0,0,0,0,0,0,0,0,0,0],"id":80,"left_children":[1,3,5,7,9,11,13,-1,-1,-1,-1,-1,-1,-1,-1],"loss_changes":[1.1617379E2,4.2493332E1,5.241412E1,2.1550308E1,8.545251E0,1.7757471E1,1.6186638E1,0E0,0E0,0E0,0E0,0E0,0E0,0E0,0E0],"parents":[2147483647,0,0,1,1,2,2,3,3,4,4,5,5,6,6],"right_children":[2,4,6,8,10,12,14,-1,-1,-1,-1,-1,-1,-1,-1],"split_conditions":[1.5E1,4.9E0,-2.4E0,2.3E1,3E0,-4.9E0,4E0,-2.6503338E-3,-5.0745998E-3,-2.6375432E-3,5.7179574E-4,3.3945328E-4,-2.8069087E-3,3.554235E-3,9.4553037E-4],"split_indices":[51,77,77,80,29,25,103,0,0,0,0,0,0,0,0],"split_type":[0,0,0,0,0,0,0,0,0,0,0,0,0,0,0],"sum_hessian":[5.1844233E3,2.5360347E3,2.648389E3,2.0075977E3,5.2843695E2,7.9456305E2,1.8538257E3,1.5225936E3,4.85004E2,1.0194357E2,4.2649338E2,2.7276562E2,5.217974E2,2.7951767E2,1.5743081E3],"tree_param":{"num_deleted":"0","num_feature":"280","num_nodes":"15","size_leaf_vector":"1"}},{"base_weights":[1.045117E-1,2.574418E-1,-4.1972432E-2,3.2382333E-1,5.1147146E-3,1.727725E-1,-1.3405718E-1,2.6503338E-3,5.0745998E-3,2.6375428E-3,-5.7179574E-4,-3.394535E-4,2.806909E-3,-3.5542347E-3,-9.455303E-4],"categories":[],"categories_nodes":[],"categories_segments":[],"categories_sizes":[],"default_left":[0,0,0,0,0,0,0,0,0,0,0,0,0,0,0],"id":81,"left_children":[1,3,5,7,9,11,13,-1,-1,-1,-1,-1,-1,-1,-1],"loss_changes":[1.1617377E2,4.2493332E1,5.241412E1,2.1550323E1,8.545246E0,1.7757477E1,1.6186638E1,0E0,0E0,0E0,0E0,0E0,0E0,0E0,0E0],"parents":[2147483647,0,0,1,1,2,2,3,3,4,4,5,5,6,6],"right_children":[2,4,6,8,10,12,14,-1,-1,-1,-1,-1,-1,-1,-1],"split_conditions":[1.5E1,4.9E0,-2.4E0,2.3E1,3E0,-4.9E0,4E0,2.6503338E-3,5.0745998E-3,2.6375428E-3,-5.7179574E-4,-3.394535E-4,2.806909E-3,-3.5542347E-3,-9.455303E-4],"split_indices":[51,77,77,80,29,25,103,0,0,0,0,0,0,0,0],"split_type":[0,0,0,0,0,0,0,0,0,0,0,0,0,0,0],"sum_hessian":[5.1844233E3,2.5360347E3,2.6483887E3,2.0075977E3,5.2843695E2,7.9456305E2,1.8538257E3,1.5225938E3,4.85004E2,1.0194357E2,4.2649338E2,2.7276562E2,5.217974E2,2.7951767E2,1.574308E3],"tree_param":{"num_deleted":"0","num_feature":"280","num_nodes":"15","size_leaf_vector":"1"}},{"base_weights":[-1.03520714E-1,-2.0131342E-1,1.2217617E-1,-3.2960737E-1,-6.615305E-2,-1.3399494E-1,1.9360206E-1,-2.7979712E-3,